~o
<STREAMINFO> 1 39
<VECSIZE> 39<NULLD><MFCC_D_A_0><DIAGC>
~s "silst"
<MEAN> 39
 -4.200029e+00 -4.467058e+00 2.293316e+00 -2.288765e+00 -1.949988e+00 -2.479404e+00 3.848169e+00 -1.865984e+00 5.776794e+00 -1.874472e+00 7.635690e-01 -8.652387e-01 5.686229e+01 -2.152662e-01 8.783678e-02 5.755640e-02 1.105278e-01 1.216057e-01 1.493047e-01 1.078573e-01 -2.653722e-02 -3.045280e-02 -3.048707e-02 6.066041e-02 5.301097e-02 -2.594492e-01 2.414019e-02 -3.262148e-02 7.576406e-03 -7.549882e-03 -5.120607e-03 -3.044294e-02 -5.275337e-03 4.961709e-03 -4.911490e-02 -3.330404e-02 -3.097953e-02 -1.347779e-02 6.485930e-02
<VARIANCE> 39
 6.916507e+00 1.621222e+01 1.835715e+01 1.443575e+01 1.970494e+01 2.524451e+01 2.167152e+01 2.513809e+01 2.556209e+01 2.010681e+01 2.101892e+01 1.774374e+01 3.730529e+00 1.994177e-01 4.618325e-01 5.405041e-01 7.699872e-01 9.470375e-01 1.270207e+00 1.402676e+00 1.413046e+00 1.433476e+00 1.453946e+00 1.436672e+00 1.332488e+00 1.190219e-01 3.353525e-02 7.151038e-02 1.016121e-01 1.501190e-01 1.792779e-01 2.514414e-01 2.933581e-01 2.821866e-01 2.741047e-01 2.865847e-01 2.866527e-01 2.746043e-01 2.139628e-02
<GCONST> 8.009201e+01
~h "a"
<BEGINHMM>
<NUMSTATES> 5
<STATE> 2
<MEAN> 39
 2.321237e+00 -7.914764e+00 -7.648733e-01 -4.966348e+00 -4.989497e+00 -5.220034e+00 8.274629e-01 -3.764065e-01 5.689656e+00 -3.312023e+00 -2.809597e+00 -4.475573e+00 6.637196e+01 -8.333368e-01 5.102466e-01 4.571812e-01 2.622645e-01 3.850891e-01 -2.050511e-01 2.605475e-01 -1.877779e-01 7.370427e-02 -7.584842e-02 1.841599e-01 6.125384e-01 -7.633513e-01 -4.208221e-02 -6.170172e-02 2.926283e-02 8.081092e-03 6.039627e-02 4.258171e-02 4.674812e-02 8.421751e-02 -5.784906e-04 3.690465e-02 1.094612e-01 -2.328166e-02 -4.471559e-03
<VARIANCE> 39
 3.700628e+01 4.610817e+01 4.519508e+01 2.012764e+01 3.600713e+01 2.991922e+01 4.012993e+01 3.687575e+01 3.526521e+01 2.200794e+01 2.287776e+01 2.006473e+01 2.839796e+01 1.001265e+00 1.794417e+00 1.840194e+00 1.431714e+00 1.983380e+00 2.113377e+00 2.178818e+00 2.014673e+00 2.086015e+00 1.711719e+00 1.868700e+00 1.609392e+00 1.000372e+00 1.856630e-01 3.091791e-01 3.046424e-01 3.004303e-01 3.983116e-01 4.459015e-01 4.478337e-01 4.082824e-01 4.138788e-01 3.522041e-01 3.917807e-01 3.409433e-01 1.833432e-01
<GCONST> 1.088739e+02
<STATE> 3
<MEAN> 39
 -4.331454e+00 -3.870946e+00 1.726076e+00 -4.539246e+00 -2.792186e+00 -6.761015e+00 3.716843e+00 -1.225817e+00 3.492025e+00 -1.744664e+00 -5.433172e-01 -1.827120e+00 6.331909e+01 -5.827916e-01 -1.554712e-01 2.912634e-01 2.534481e-01 3.532546e-01 -2.712618e-02 -2.659367e-02 2.084390e-01 2.825209e-01 5.873628e-02 2.565200e-01 3.558819e-01 -3.396947e-01 2.657021e-01 -1.745024e-01 -1.182881e-01 -3.150671e-02 -1.850831e-02 8.824134e-02 -1.274052e-01 8.299473e-03 6.311119e-02 5.673584e-02 -6.228721e-02 -1.862434e-01 8.379204e-02
<VARIANCE> 39
 5.729831e+01 2.968759e+01 3.756582e+01 2.040566e+01 4.936001e+01 2.399655e+01 3.331012e+01 4.155169e+01 3.029870e+01 2.299961e+01 2.847853e+01 1.740007e+01 1.795868e+01 1.652940e+00 1.778674e+00 1.662345e+00 1.246580e+00 1.806562e+00 1.832953e+00 1.976963e+00 2.114557e+00 1.995541e+00 1.669711e+00 1.748496e+00 1.766772e+00 8.515675e-01 2.968554e-01 3.558471e-01 2.407854e-01 2.559431e-01 3.659677e-01 4.146808e-01 3.751696e-01 4.402045e-01 4.089527e-01 3.544407e-01 3.765936e-01 3.587491e-01 2.239919e-01
<GCONST> 1.081639e+02
<STATE> 4
<MEAN> 39
 -1.296440e+00 -6.728625e+00 2.478611e+00 -2.942476e+00 -3.935223e+00 -6.556334e+00 2.032487e+00 -1.440977e+00 4.682894e+00 -1.382353e+00 -2.802821e-01 -1.946550e+00 6.320154e+01 -5.280221e-02 -2.729212e-01 -2.206889e-01 1.931321e-01 4.900094e-01 1.340351e-01 -1.438839e-01 1.779462e-01 2.762578e-01 9.616196e-02 -1.145893e-01 -5.826476e-02 -3.665639e-02 5.072661e-02 1.220853e-01 -8.537163e-02 -1.082568e-01 1.792877e-02 1.310750e-01 -2.254007e-02 -5.533355e-02 -4.898179e-02 -2.044614e-02 -6.761719e-03 -1.021751e-01 -3.859631e-02
<VARIANCE> 39
 3.040756e+01 4.797312e+01 2.737605e+01 1.865967e+01 3.283477e+01 2.675246e+01 3.129591e+01 4.061977e+01 3.657698e+01 3.313910e+01 3.270167e+01 2.309134e+01 1.772163e+01 2.132620e+00 4.927342e+00 2.758850e+00 1.947658e+00 2.810621e+00 2.395470e+00 2.521615e+00 2.839983e+00 2.582347e+00 2.481484e+00 3.223998e+00 2.374104e+00 2.608890e+00 2.768918e-01 7.919628e-01 4.843012e-01 3.380632e-01 4.595335e-01 4.160624e-01 4.221415e-01 5.008406e-01 4.677185e-01 4.826016e-01 6.259561e-01 4.581947e-01 3.808503e-01
<GCONST> 1.182492e+02
<TRANSP> 5
 0.000000e+00 1.000000e+00 0.000000e+00 0.000000e+00 0.000000e+00
 0.000000e+00 5.404403e-01 4.595597e-01 0.000000e+00 0.000000e+00
 0.000000e+00 0.000000e+00 4.500704e-01 5.499296e-01 0.000000e+00
 0.000000e+00 0.000000e+00 0.000000e+00 5.813820e-01 4.186180e-01
 0.000000e+00 0.000000e+00 0.000000e+00 0.000000e+00 0.000000e+00
<ENDHMM>
~h "c"
<BEGINHMM>
<NUMSTATES> 5
<STATE> 2
<MEAN> 39
 8.773847e+00 -1.221805e+01 -6.095461e+00 -7.494542e+00 -1.788551e+00 -4.796526e+00 -4.264021e-01 -2.803314e-01 3.148688e+00 -1.158049e+00 -3.192572e+00 -1.010861e+01 7.176002e+01 -3.479694e-01 1.870214e+00 -1.504383e-01 9.253339e-01 7.508317e-01 3.181833e-01 2.607014e-01 -1.152023e+00 2.979220e-01 -2.839054e-01 5.188593e-01 3.780871e-01 -1.678874e+00 -2.944234e-01 -2.769931e-01 -3.944730e-01 -2.370569e-01 4.367754e-02 4.836396e-01 4.857601e-01 -8.436393e-03 1.613608e-03 -9.127621e-02 -9.925574e-03 -1.809613e-01 -7.110611e-02
<VARIANCE> 39
 3.403439e+00 2.413894e+01 3.625638e+01 1.783303e+01 1.900568e+01 5.138964e+01 4.235859e+01 5.472374e+01 1.574803e+01 1.467799e+01 2.286234e+01 1.424674e+01 1.582715e+01 5.801296e-01 1.858274e+00 1.509938e+00 1.330399e+00 1.793297e+00 3.588344e+00 3.706171e+00 1.867070e+00 1.277625e+00 1.526721e+00 1.435794e+00 1.840712e+00 6.128040e-01 6.883901e-02 3.315271e-01 2.314547e-01 3.657106e-01 6.146181e-01 7.761297e-01 6.410882e-01 6.007809e-01 3.118226e-01 3.394829e-01 2.415155e-01 3.596244e-01 1.127220e-01
<GCONST> 1.020844e+02
<STATE> 3
<MEAN> 39
 9.048691e+00 -1.205700e+01 -1.445247e+01 -6.384480e+00 -1.431820e+00 3.625238e+00 6.956850e+00 -9.334282e+00 7.288058e+00 -3.844504e+00 -1.270399e+00 -1.240873e+01 7.379725e+01 -2.071468e-01 6.289393e-02 2.751197e-01 8.723781e-02 -4.043996e-01 -6.465050e-01 -4.321335e-01 1.223008e+00 2.675276e-01 -7.930342e-04 -5.996582e-01 5.082347e-01 -3.511379e-01 -6.134683e-02 4.616957e-02 1.206757e-01 -1.097525e-01 -1.592186e-01 -2.584154e-01 -1.452560e-01 2.627899e-01 -1.819751e-02 1.450116e-01 -1.391120e-02 2.119139e-01 -1.359332e-02
<VARIANCE> 39
 3.664684e+00 8.958220e+00 1.565706e+01 1.174566e+01 2.156256e+01 3.865179e+01 4.109352e+01 4.847231e+01 3.108546e+01 1.918958e+01 1.790735e+01 1.562465e+01 1.521035e+01 2.944838e-01 3.614107e-01 8.871459e-01 8.755800e-01 1.170156e+00 2.330860e+00 2.347349e+00 3.212938e+00 1.290833e+00 9.260293e-01 8.180669e-01 1.258379e+00 2.956122e-01 2.990115e-02 1.127307e-01 6.901123e-02 1.689525e-01 2.415809e-01 3.503627e-01 3.141604e-01 4.404985e-01 2.721367e-01 2.397149e-01 1.421898e-01 2.657648e-01 7.118021e-02
<GCONST> 8.573287e+01
<STATE> 4
<MEAN> 39
 3.066418e+00 -7.188415e+00 -9.260724e+00 -7.328514e+00 -9.301044e-01 -3.059661e+00 3.666616e+00 -4.940037e-01 7.433939e+00 -3.808932e-01 -3.832978e+00 -5.707356e+00 6.576339e+01 -1.637445e+00 7.616584e-01 4.621692e-01 -3.944505e-01 2.361413e-01 -3.887461e-01 5.671608e-01 -4.943085e-02 -2.958081e-01 2.063029e-01 1.886788e-01 7.197959e-01 -5.466877e-01 -2.287083e-01 1.601753e-02 1.526044e-01 6.183707e-02 1.165377e-01 7.493132e-03 1.129741e-01 -1.345899e-01 -2.042093e-01 -1.476482e-01 2.819332e-02 -6.547008e-02 2.355909e-01
<VARIANCE> 39
 2.581397e+01 1.543025e+01 1.164379e+01 1.247006e+01 2.307546e+01 2.416009e+01 2.588148e+01 2.368795e+01 2.040068e+01 1.594222e+01 1.881692e+01 1.341219e+01 1.876122e+01 1.348276e+00 1.165904e+00 1.002609e+00 1.247924e+00 1.955754e+00 2.690852e+00 2.491782e+00 2.227833e+00 1.995764e+00 2.120125e+00 1.820988e+00 2.152202e+00 1.703250e+00 1.265154e-01 1.714648e-01 2.153567e-01 2.541204e-01 3.851209e-01 6.106613e-01 4.861101e-01 5.822662e-01 3.131500e-01 3.562616e-01 3.775938e-01 4.030893e-01 2.280432e-01
<GCONST> 1.020241e+02
<TRANSP> 5
 0.000000e+00 1.000000e+00 0.000000e+00 0.000000e+00 0.000000e+00
 0.000000e+00 6.570998e-01 3.429002e-01 0.000000e+00 0.000000e+00
 0.000000e+00 0.000000e+00 7.913240e-01 2.086760e-01 0.000000e+00
 0.000000e+00 0.000000e+00 0.000000e+00 8.525016e-01 1.474984e-01
 0.000000e+00 0.000000e+00 0.000000e+00 0.000000e+00 0.000000e+00
<ENDHMM>
~h "d"
<BEGINHMM>
<NUMSTATES> 5
<STATE> 2
<MEAN> 39
 -2.607435e+00 -1.550591e+00 2.712953e+00 -1.284830e+00 -2.662748e-01 -4.048960e+00 2.470052e+00 -2.888501e+00 3.550483e+00 -2.930135e+00 -8.586317e-01 -2.585255e+00 5.718093e+01 7.658693e-01 4.887414e-01 9.303086e-01 1.870047e-01 -2.425921e-01 -2.949738e-01 -6.410521e-01 -7.455465e-01 -8.512335e-01 -8.363580e-01 -7.642336e-01 -9.026600e-01 5.357865e-01 3.986388e-01 -4.667326e-02 1.699839e-01 -3.594879e-01 -2.340827e-01 -1.448758e-01 -3.513789e-01 -8.367599e-02 -4.422097e-02 4.067051e-02 -1.097005e-01 -2.454470e-01 5.634434e-01
<VARIANCE> 39
 1.332348e+01 1.432605e+01 1.468893e+01 9.790124e+00 1.309532e+01 2.107624e+01 1.718214e+01 2.227115e+01 2.181809e+01 1.809760e+01 2.151099e+01 1.813659e+01 7.494456e+00 1.566723e+00 3.450455e+00 9.654123e-01 1.653447e+00 1.367528e+00 1.774740e+00 1.915007e+00 2.518908e+00 1.225464e+00 1.679960e+00 2.097690e+00 1.605322e+00 7.692739e-01 1.397015e-01 4.715846e-01 1.621032e-01 2.861233e-01 2.622023e-01 3.138304e-01 3.499286e-01 4.707190e-01 2.645536e-01 3.674095e-01 3.699315e-01 2.202414e-01 2.203654e-01
<GCONST> 9.727058e+01
<STATE> 3
<MEAN> 39
 3.542615e+00 4.052857e+00 6.457117e+00 -4.067347e-01 -1.505764e+00 -6.012615e+00 -8.855659e-01 -5.996029e+00 1.871475e+00 -4.082992e+00 -4.163135e+00 -6.619044e+00 5.988628e+01 1.505256e-01 -6.981356e-01 6.190336e-01 -6.193811e-01 1.078345e-01 -4.448966e-02 -6.341227e-01 -4.349124e-02 -1.800429e-01 3.299019e-02 2.402815e-01 -9.197877e-02 1.080388e+00 -1.197801e-01 -7.377369e-01 -2.926251e-01 -5.557577e-01 -1.508000e-01 1.250009e-01 -2.522397e-01 1.672201e-01 1.704201e-01 4.326766e-01 4.069887e-01 8.809019e-02 5.065585e-01
<VARIANCE> 39
 1.103265e+01 1.898212e+01 1.722725e+01 9.388682e+00 1.420216e+01 1.474007e+01 1.572497e+01 1.553121e+01 2.074327e+01 1.542291e+01 1.408609e+01 1.269448e+01 7.107841e+00 1.715922e+00 5.183025e+00 1.216484e+00 2.246208e+00 1.518440e+00 1.537269e+00 1.581420e+00 1.933563e+00 1.369773e+00 1.594760e+00 1.568143e+00 1.529607e+00 2.137865e+00 3.435011e-01 3.852395e-01 3.450362e-01 3.348317e-01 3.396707e-01 2.866947e-01 4.754112e-01 3.508746e-01 2.444654e-01 3.395119e-01 2.833501e-01 3.092434e-01 3.754553e-01
<GCONST> 9.923329e+01
<STATE> 4
<MEAN> 39
 5.189936e-01 -7.991169e+00 6.812845e+00 -8.498780e+00 -1.841171e+00 -5.539225e+00 -4.187204e+00 -3.250903e+00 1.535427e+00 -2.566781e+00 -3.505786e-01 -5.362091e+00 6.860696e+01 1.668063e+00 -2.435496e+00 -1.010975e+00 -3.169158e+00 -1.867691e+00 2.439472e-01 -2.973943e+00 -4.869702e-01 2.631507e-01 2.404461e+00 1.776246e+00 -9.426039e-01 3.847898e+00 6.857553e-01 7.891415e-01 -4.807424e-01 -2.955919e-02 -4.518779e-01 5.725689e-01 -2.713646e-02 -5.490381e-01 -1.873355e-01 3.954718e-01 5.030258e-01 -6.764826e-02 -2.898717e-01
<VARIANCE> 39
 1.157376e+01 3.680298e+01 1.397636e+01 1.341225e+01 1.934656e+01 1.918801e+01 2.524910e+01 1.934510e+01 1.748257e+01 3.421194e+01 1.375170e+01 1.004103e+01 1.610564e+01 1.585495e+00 3.217198e+00 4.038064e+00 1.644229e+00 1.683479e+00 2.321038e+00 1.779461e+00 2.401798e+00 1.857103e+00 2.279032e+00 2.333586e+00 1.699106e+00 9.163859e-01 2.242302e-01 4.337603e-01 3.572781e-01 2.882287e-01 3.629559e-01 5.068511e-01 5.826024e-01 3.578957e-01 3.896542e-01 8.727218e-01 2.736879e-01 3.567876e-01 3.541397e-01
<GCONST> 1.059372e+02
<TRANSP> 5
 0.000000e+00 1.000000e+00 0.000000e+00 0.000000e+00 0.000000e+00
 0.000000e+00 5.621386e-01 4.378614e-01 0.000000e+00 0.000000e+00
 0.000000e+00 0.000000e+00 7.382793e-01 2.617207e-01 0.000000e+00
 0.000000e+00 0.000000e+00 0.000000e+00 5.372838e-01 4.627163e-01
 0.000000e+00 0.000000e+00 0.000000e+00 0.000000e+00 0.000000e+00
<ENDHMM>
~h "h"
<BEGINHMM>
<NUMSTATES> 5
<STATE> 2
<MEAN> 39
 -1.228280e+01 -6.025854e+00 3.680543e-01 -4.288921e+00 2.384971e+00 -9.017309e+00 6.396163e+00 1.186857e+00 4.461591e+00 -6.280675e-01 -2.307339e+00 -1.963776e+00 6.572604e+01 4.192586e+00 -2.415569e-01 -8.801104e-01 -1.148012e+00 -1.379731e+00 3.733587e-01 -1.307242e+00 -1.408765e+00 -2.823339e-02 3.734176e-01 -1.510034e+00 -1.856185e+00 8.099662e-01 1.140422e+00 -1.424434e-01 -4.594621e-01 -4.846807e-01 -3.296492e-01 4.125325e-01 -5.310157e-01 -3.358757e-01 -3.365551e-02 1.978792e-01 -2.690795e-01 -6.131070e-01 6.744907e-01
<VARIANCE> 39
 3.287378e+01 1.132663e+01 1.154128e+01 1.079077e+01 2.132978e+01 1.484654e+01 2.175500e+01 2.057307e+01 2.047725e+01 1.962886e+01 1.888811e+01 2.425004e+01 5.075616e+00 4.601658e+00 1.449120e+00 1.745760e+00 1.672091e+00 1.470919e+00 1.483854e+00 2.648278e+00 1.819256e+00 1.905307e+00 1.453034e+00 1.364477e+00 2.054363e+00 1.413714e+00 5.043321e-01 4.046511e-01 2.830710e-01 2.767538e-01 3.514470e-01 3.065499e-01 3.813356e-01 3.562202e-01 3.234361e-01 2.951106e-01 3.757848e-01 3.504592e-01 1.226519e-01
<GCONST> 1.009127e+02
<STATE> 3
<MEAN> 39
 6.459988e+00 -1.032676e+01 -5.569306e+00 -1.189742e+01 -3.150902e+00 -3.870542e+00 -8.162119e-01 -3.972013e+00 4.218282e+00 2.995931e+00 -7.243793e+00 -1.127168e+01 7.401112e+01 2.590949e+00 -1.386958e+00 -1.276443e+00 -1.151444e+00 -3.800057e-01 2.239195e+00 -3.333784e-01 -3.635586e-01 -2.387010e-02 1.584026e-02 -5.088196e-01 -1.333677e+00 1.505625e+00 -1.201172e+00 2.213254e-01 4.443098e-01 6.178764e-01 5.425411e-01 5.683817e-03 8.052469e-01 4.004542e-01 -1.732442e-01 -4.457460e-01 4.356212e-01 6.229423e-01 -5.958005e-01
<VARIANCE> 39
 5.527185e+00 4.659312e+01 3.116416e+01 1.398161e+01 1.047117e+01 2.499368e+01 1.804242e+01 1.451092e+01 2.654929e+01 1.702249e+01 1.020286e+01 2.492301e+01 1.055894e+01 5.372503e+00 2.560787e+00 2.522869e+00 2.181716e+00 1.768009e+00 1.362475e+00 3.692132e+00 2.644168e+00 1.608456e+00 2.481315e+00 1.615128e+00 1.974227e+00 1.854334e+00 3.302580e-01 5.990517e-01 6.297580e-01 3.291841e-01 2.196840e-01 4.806951e-01 4.064754e-01 3.456229e-01 3.135949e-01 2.978855e-01 2.998616e-01 1.997806e-01 2.439200e-01
<GCONST> 1.050941e+02
<STATE> 4
<MEAN> 39
 5.893142e+00 -9.013956e+00 -2.942922e+00 -5.626834e+00 2.097518e+00 8.955718e-01 6.684306e+00 -4.528243e+00 1.894652e+00 -1.321777e+00 -4.439321e+00 -9.048780e+00 7.035741e+01 -7.176536e-02 3.976466e-01 3.247236e-01 7.102433e-01 4.529706e-01 8.707608e-02 7.022800e-01 -3.777549e-01 -4.613740e-01 -3.897649e-01 4.182942e-01 3.056628e-01 -5.081434e-01 4.500202e-02 -5.133329e-02 -1.963581e-01 -2.471682e-01 -1.290132e-01 -6.133417e-02 -1.712481e-01 -4.895701e-02 -3.428036e-03 8.260385e-02 -1.951371e-02 -4.176685e-02 1.196511e-01
<VARIANCE> 39
 6.644656e+00 2.118066e+01 1.631223e+01 3.156653e+01 2.029090e+01 1.393228e+01 2.380716e+01 3.093934e+01 2.163526e+01 1.605562e+01 3.314597e+01 1.992744e+01 8.968406e+00 8.270469e-01 1.347459e+00 2.809737e+00 2.714873e+00 2.328195e+00 1.288353e+00 2.389866e+00 1.493699e+00 1.289981e+00 1.386163e+00 1.989042e+00 1.294204e+00 6.316186e-01 2.167077e-01 3.157109e-01 5.154471e-01 5.176702e-01 3.739582e-01 3.544364e-01 3.933853e-01 3.090776e-01 2.692699e-01 2.887390e-01 3.285339e-01 2.509908e-01 1.499961e-01
<GCONST> 1.001519e+02
<TRANSP> 5
 0.000000e+00 1.000000e+00 0.000000e+00 0.000000e+00 0.000000e+00
 0.000000e+00 6.642437e-01 3.357563e-01 0.000000e+00 0.000000e+00
 0.000000e+00 0.000000e+00 7.381236e-01 2.618764e-01 0.000000e+00
 0.000000e+00 0.000000e+00 0.000000e+00 8.900951e-01 1.099049e-01
 0.000000e+00 0.000000e+00 0.000000e+00 0.000000e+00 0.000000e+00
<ENDHMM>
~h "k"
<BEGINHMM>
<NUMSTATES> 5
<STATE> 2
<MEAN> 39
 -3.658680e+00 -4.589540e+00 4.500456e+00 -3.257191e+00 -4.392077e+00 -3.177242e+00 4.364720e+00 -1.801208e+00 3.502115e+00 -1.962869e+00 9.093719e-01 -2.172974e+00 5.793745e+01 7.656211e-01 -2.091265e+00 4.863813e+00 -2.275305e+00 -4.196006e+00 -8.286427e-01 -2.477170e+00 6.838478e-01 -2.496375e+00 5.293477e-01 1.277921e+00 -1.326627e+00 3.507004e+00 4.669976e-01 -5.358128e-01 1.141849e+00 -7.213256e-01 -1.266213e+00 -3.277882e-01 -9.280532e-01 2.066545e-01 -6.058363e-01 1.939812e-01 4.556234e-01 -3.243945e-01 1.195321e+00
<VARIANCE> 39
 8.391049e+00 1.839923e+01 3.583669e+01 1.556013e+01 4.462746e+01 2.577393e+01 2.150923e+01 2.002253e+01 3.213987e+01 1.226794e+01 2.116700e+01 1.643887e+01 1.446017e+01 1.250853e+00 2.087056e+00 3.306937e+00 2.689660e+00 4.415149e+00 2.060487e+00 3.930782e+00 2.340657e+00 2.144403e+00 1.750843e+00 2.939192e+00 1.402792e+00 2.475026e+00 1.077120e-01 2.325867e-01 6.575682e-01 3.991853e-01 6.728411e-01 3.709650e-01 4.704373e-01 3.401087e-01 3.017573e-01 3.214695e-01 4.165234e-01 2.866424e-01 3.060133e-01
<GCONST> 1.079848e+02
<STATE> 3
<MEAN> 39
 7.574531e-01 -1.279974e+01 2.205073e+01 -1.286262e+01 -2.109949e+01 -7.060880e+00 -6.788116e+00 1.385414e+00 -5.510672e+00 7.169712e-01 6.617336e+00 -7.424221e+00 7.291700e+01 1.210984e+00 -1.241238e+00 2.881890e+00 -1.297637e+00 -3.023479e+00 -3.484755e-01 -2.045572e+00 1.611596e-01 -1.323280e+00 3.042868e-01 1.076437e+00 -4.829606e-01 2.776708e+00 -1.060453e-01 6.707383e-01 -1.279678e+00 6.951377e-01 1.080078e+00 3.102673e-01 6.390092e-01 -3.303635e-01 6.746192e-01 -1.951000e-01 -4.035919e-01 4.670586e-01 -9.254332e-01
<VARIANCE> 39
 7.182098e+00 1.114181e+01 2.644964e+01 1.671526e+01 1.913709e+01 1.510082e+01 3.235040e+01 2.102014e+01 2.381606e+01 1.416113e+01 2.228633e+01 1.236076e+01 1.684135e+01 8.974067e-01 2.796325e+00 6.762138e+00 3.393942e+00 6.581594e+00 1.836365e+00 3.558013e+00 2.089401e+00 2.742157e+00 1.521985e+00 2.368383e+00 1.868680e+00 4.228243e+00 1.726654e-01 3.556699e-01 4.634083e-01 3.831993e-01 5.627326e-01 2.772007e-01 4.455436e-01 3.358523e-01 2.981381e-01 2.414367e-01 3.304522e-01 2.098387e-01 4.284253e-01
<GCONST> 1.070886e+02
<STATE> 4
<MEAN> 39
 3.613220e+00 -8.879407e+00 1.972566e+01 -1.035819e+01 -2.174280e+01 -8.158738e+00 -5.132486e+00 -2.328428e+00 -5.578804e+00 3.134821e+00 4.521391e+00 -6.488291e+00 7.184085e+01 -6.476329e-02 6.579460e-01 -4.877699e-01 4.581395e-01 4.111607e-01 -1.638936e-01 4.114567e-01 -4.958624e-01 1.988979e-01 1.504004e-01 -1.640860e-01 1.171921e-01 -6.853762e-01 -9.483315e-02 1.100501e-02 -9.656650e-02 5.740889e-02 1.314863e-01 2.320589e-03 4.376300e-02 3.765536e-03 5.470112e-02 -3.361820e-02 2.037144e-02 5.029679e-02 -1.158745e-01
<VARIANCE> 39
 5.097934e+00 3.270757e+01 1.873202e+01 2.434140e+01 2.127271e+01 2.324410e+01 3.339975e+01 2.328245e+01 3.846772e+01 2.916269e+01 1.854227e+01 1.094755e+01 2.501541e+01 3.720121e-01 1.050508e+00 9.413746e-01 1.203035e+00 1.539990e+00 1.169013e+00 1.322311e+00 1.236259e+00 1.657484e+00 1.447267e+00 1.146135e+00 1.000557e+00 9.775999e-01 4.375574e-02 1.795487e-01 1.527316e-01 2.106313e-01 2.535618e-01 2.132469e-01 2.382240e-01 2.276156e-01 3.069807e-01 2.620477e-01 2.061396e-01 1.840185e-01 8.859591e-02
<GCONST> 9.025366e+01
<TRANSP> 5
 0.000000e+00 1.000000e+00 0.000000e+00 0.000000e+00 0.000000e+00
 0.000000e+00 4.594906e-01 5.405095e-01 0.000000e+00 0.000000e+00
 0.000000e+00 0.000000e+00 7.070237e-01 2.929763e-01 0.000000e+00
 0.000000e+00 0.000000e+00 0.000000e+00 9.406544e-01 5.934561e-02
 0.000000e+00 0.000000e+00 0.000000e+00 0.000000e+00 0.000000e+00
<ENDHMM>
~h "n"
<BEGINHMM>
<NUMSTATES> 5
<STATE> 2
<MEAN> 39
 7.653790e+00 8.322849e-01 2.873614e+00 -5.481805e+00 -8.808264e+00 -5.159992e+00 -1.206633e+00 -4.688294e+00 2.193524e+00 -2.189162e+00 2.251557e-01 -5.154336e+00 6.595432e+01 1.363001e-01 1.026638e+00 -5.478652e-01 9.026714e-01 2.064298e-01 -5.691686e-01 1.090703e+00 -4.968067e-01 -8.871024e-02 -1.475208e-02 -3.322843e-01 2.563267e-01 -7.935100e-01 -1.273856e-01 -2.335358e-01 2.620113e-01 -3.177159e-01 -1.077030e-01 2.354756e-01 -1.899008e-01 5.450698e-02 1.956527e-02 1.271261e-01 1.743399e-04 -2.553639e-02 1.176021e-01
<VARIANCE> 39
 4.377767e+00 1.260189e+01 2.804424e+01 1.861214e+01 3.496132e+01 1.546362e+01 2.883979e+01 2.256137e+01 2.350287e+01 2.342162e+01 1.567430e+01 1.183428e+01 6.149243e+00 3.292783e-01 1.036348e+00 2.166777e+00 1.612363e+00 2.196608e+00 1.811489e+00 1.845919e+00 1.671353e+00 1.636545e+00 1.401620e+00 1.243957e+00 1.073469e+00 2.769725e-01 4.897070e-02 1.300286e-01 2.059518e-01 2.247384e-01 2.859864e-01 2.555935e-01 3.096271e-01 3.745729e-01 2.522774e-01 2.350819e-01 1.959647e-01 2.118909e-01 3.725418e-02
<GCONST> 8.838873e+01
<STATE> 3
<MEAN> 39
 8.075389e+00 2.891642e+00 3.353162e+00 -3.968151e+00 -7.994003e+00 -6.279503e+00 1.790752e+00 -4.510732e+00 2.315488e+00 -3.645494e+00 -1.524828e+00 -4.160995e+00 6.464179e+01 -5.392196e-02 4.038276e-01 -1.074130e-02 9.756225e-02 2.330623e-01 -1.028180e-01 2.181322e-01 -8.656416e-02 -2.811391e-02 8.119220e-02 5.417006e-03 2.249927e-02 -3.433025e-01 -9.062773e-02 -1.659848e-01 1.273958e-01 -1.219588e-02 1.232642e-02 2.476479e-02 -1.499639e-01 8.471727e-02 2.684399e-02 -1.871154e-02 4.033502e-02 2.846937e-03 4.996011e-02
<VARIANCE> 39
 3.799718e+00 1.275810e+01 1.319506e+01 1.001117e+01 2.097142e+01 1.147532e+01 1.659666e+01 1.497434e+01 1.245622e+01 1.482858e+01 1.445019e+01 9.127868e+00 4.348752e+00 1.237166e-01 2.704992e-01 5.132596e-01 5.223608e-01 6.795698e-01 6.883199e-01 7.722390e-01 9.060819e-01 8.592280e-01 7.377729e-01 7.608539e-01 6.896232e-01 8.199236e-02 2.291234e-02 5.734159e-02 8.275380e-02 9.320435e-02 1.465254e-01 1.449954e-01 1.668566e-01 1.596839e-01 1.430826e-01 1.398181e-01 1.433964e-01 1.207056e-01 1.403385e-02
<GCONST> 6.236804e+01
<STATE> 4
<MEAN> 39
 5.021708e+00 3.075372e+00 4.635437e+00 -2.442046e+00 -5.702393e+00 -5.139254e+00 1.374136e+00 -5.527408e+00 2.771176e+00 -2.159916e+00 -6.244789e-01 -3.494663e+00 6.176925e+01 -6.981505e-01 -1.960065e-01 2.619750e-01 6.058030e-01 7.942899e-01 1.653818e-01 5.758572e-02 1.291709e-01 8.276437e-02 -2.686048e-01 -1.135332e-02 2.497081e-01 -5.416013e-01 -1.309995e-01 -2.763716e-01 4.476595e-02 -1.240905e-01 -6.024503e-02 7.349154e-02 -8.906221e-02 1.051947e-01 2.678234e-02 -5.385282e-02 8.338298e-02 5.856677e-02 7.888608e-02
<VARIANCE> 39
 1.057397e+01 1.182934e+01 1.829210e+01 1.878539e+01 3.302952e+01 1.537503e+01 1.919637e+01 1.953832e+01 1.967156e+01 1.808261e+01 1.793293e+01 1.264040e+01 7.069696e+00 3.667516e-01 7.052400e-01 7.997442e-01 1.194835e+00 1.551728e+00 1.104809e+00 1.300641e+00 1.191756e+00 1.330054e+00 1.317133e+00 1.162166e+00 1.109919e+00 2.212789e-01 5.755945e-02 1.534119e-01 2.698150e-01 2.523685e-01 3.758660e-01 2.323317e-01 2.696407e-01 2.349965e-01 2.865643e-01 2.502876e-01 2.075551e-01 2.298270e-01 4.061367e-02
<GCONST> 8.514818e+01
<TRANSP> 5
 0.000000e+00 1.000000e+00 0.000000e+00 0.000000e+00 0.000000e+00
 0.000000e+00 5.802910e-01 4.197089e-01 0.000000e+00 0.000000e+00
 0.000000e+00 0.000000e+00 7.416362e-01 2.583638e-01 0.000000e+00
 0.000000e+00 0.000000e+00 0.000000e+00 5.807438e-01 4.192562e-01
 0.000000e+00 0.000000e+00 0.000000e+00 0.000000e+00 0.000000e+00
<ENDHMM>
~h "o"
<BEGINHMM>
<NUMSTATES> 5
<STATE> 2
<MEAN> 39
 7.926547e+00 -8.709808e+00 2.491120e+00 -1.484545e+01 -8.599353e+00 -6.560518e-01 -1.064416e+01 -7.855899e+00 3.255357e-01 4.873912e+00 6.547652e+00 -8.376552e+00 7.430587e+01 1.490187e+00 4.418381e-01 -1.222971e+00 -1.978986e+00 -1.206264e+00 2.213404e+00 1.602385e-01 -1.195303e+00 -1.263339e+00 6.756448e-01 1.827175e+00 2.805651e-01 6.393623e-01 -3.930483e-01 6.921148e-01 1.498378e-01 3.674915e-01 4.595412e-01 1.077373e-01 1.165471e+00 1.373883e-01 -2.504688e-01 -9.624571e-01 -5.145117e-01 5.956441e-01 -9.108610e-01
<VARIANCE> 39
 2.502597e+00 2.091744e+01 2.361156e+01 1.446672e+01 1.527231e+01 1.675824e+01 1.475665e+01 1.102195e+01 3.889433e+01 1.372576e+01 1.355840e+01 9.899550e+00 5.556262e+00 1.060099e+00 1.015680e+00 1.838723e+00 8.508213e-01 1.643803e+00 1.684322e+00 4.057875e+00 1.353610e+00 1.709674e+00 5.115040e+00 1.432993e+00 2.237495e+00 1.072909e+00 1.263473e-01 2.618452e-01 4.182960e-01 1.598328e-01 2.017585e-01 4.195153e-01 3.178906e-01 2.531678e-01 3.720243e-01 4.372742e-01 3.094194e-01 2.183653e-01 1.318689e-01
<GCONST> 9.400742e+01
<STATE> 3
<MEAN> 39
 1.003018e+01 -3.990237e+00 -8.584946e-02 -2.088679e+01 -1.012460e+01 5.566495e+00 -3.425325e+00 -9.947783e+00 -4.224819e+00 5.569363e-01 7.203256e+00 -3.174926e+00 7.229698e+01 2.768575e-01 9.896536e-01 -4.683299e-01 -6.343324e-01 -4.554183e-02 6.404042e-01 9.642357e-01 1.969453e-01 -6.670798e-02 -9.853889e-01 -4.928114e-01 1.016357e+00 -5.688514e-01 -1.326024e-01 -1.095667e-01 8.746709e-02 2.886462e-01 1.749242e-01 -2.672967e-01 -3.041426e-01 1.626884e-01 2.912149e-01 9.846477e-02 -1.961006e-01 -1.542676e-01 -1.757541e-02
<VARIANCE> 39
 1.940233e+00 1.487680e+01 1.354194e+01 1.758717e+01 1.426165e+01 1.524019e+01 1.662049e+01 1.535181e+01 3.145786e+01 1.815071e+01 1.102973e+01 1.812543e+01 5.624141e+00 1.018072e-01 3.041210e-01 4.118113e-01 9.217330e-01 1.000024e+00 9.223592e-01 1.315261e+00 1.034458e+00 1.094543e+00 1.069545e+00 7.422506e-01 7.748399e-01 6.607052e-02 2.372881e-02 5.380282e-02 8.326101e-02 9.166025e-02 1.481202e-01 1.663585e-01 2.055567e-01 1.941751e-01 1.503536e-01 2.654831e-01 2.076119e-01 1.508750e-01 2.305018e-02
<GCONST> 6.856157e+01
<STATE> 4
<MEAN> 39
 9.913563e+00 -1.303825e+00 -3.040747e+00 -1.708514e+01 -5.346654e+00 4.428046e+00 -6.453404e+00 -6.496899e+00 1.216868e+00 -8.473639e-01 4.351066e+00 -2.250377e+00 6.974323e+01 -1.971357e-01 -1.693409e-02 -1.052562e-02 1.399914e+00 7.089906e-01 -8.783638e-01 -6.975226e-01 2.298484e-01 8.771108e-01 3.513506e-01 -3.776328e-01 -6.824783e-01 -3.157095e-01 -2.500656e-02 6.447223e-02 1.112962e-01 2.403068e-01 -1.472467e-01 -2.057597e-01 2.293622e-01 -7.032660e-02 -7.507344e-02 4.913092e-03 -2.325925e-02 -5.802564e-02 -6.648795e-02
<VARIANCE> 39
 2.397024e+00 1.508820e+01 1.475440e+01 2.340128e+01 3.087064e+01 2.340903e+01 4.495308e+01 2.143554e+01 3.003522e+01 2.083311e+01 1.839686e+01 2.120034e+01 6.226271e+00 1.062466e-01 6.671357e-01 8.295199e-01 1.585792e+00 1.687176e+00 2.016658e+00 2.745306e+00 1.700051e+00 1.736724e+00 1.554585e+00 1.591096e+00 1.155608e+00 2.708396e-01 1.843578e-02 1.410727e-01 1.307291e-01 1.551264e-01 3.086498e-01 3.070141e-01 6.769735e-01 3.299959e-01 3.805830e-01 3.181701e-01 3.336668e-01 2.671914e-01 4.557810e-02
<GCONST> 8.816344e+01
<TRANSP> 5
 0.000000e+00 1.000000e+00 0.000000e+00 0.000000e+00 0.000000e+00
 0.000000e+00 6.787148e-01 3.212852e-01 0.000000e+00 0.000000e+00
 0.000000e+00 0.000000e+00 8.300218e-01 1.699782e-01 0.000000e+00
 0.000000e+00 0.000000e+00 0.000000e+00 8.821164e-01 1.178836e-01
 0.000000e+00 0.000000e+00 0.000000e+00 0.000000e+00 0.000000e+00
<ENDHMM>
~h "p"
<BEGINHMM>
<NUMSTATES> 5
<STATE> 2
<MEAN> 39
 -1.969384e+00 -3.619653e+00 -1.200469e+00 -4.616800e+00 -7.092845e-01 -7.178024e-01 5.656368e+00 -2.859563e-01 5.739107e+00 -1.683308e+00 1.752107e-01 -3.205601e+00 5.742624e+01 -4.793232e-01 1.807564e-01 3.058705e-01 2.266350e-01 8.898035e-02 5.374584e-03 1.655137e-01 4.898377e-02 4.169847e-02 4.128807e-02 1.511131e-01 2.363623e-01 -4.403907e-01 1.656473e-01 -2.311163e-01 -5.931531e-02 -1.013868e-01 -2.206126e-01 -8.886503e-02 -7.959698e-02 -1.657036e-01 -4.123664e-02 -3.887638e-02 -3.118709e-02 -7.624537e-02 3.856454e-01
<VARIANCE> 39
 1.270271e+01 9.425051e+00 2.461777e+01 1.564130e+01 1.343263e+01 2.571155e+01 1.977014e+01 1.970435e+01 2.274844e+01 1.506160e+01 1.252879e+01 1.572900e+01 6.908229e+00 2.084022e-01 4.911968e-01 5.786471e-01 6.471556e-01 6.749512e-01 8.801372e-01 1.355454e+00 1.342873e+00 1.177056e+00 1.153155e+00 1.218485e+00 1.065246e+00 2.199819e-01 1.091394e-01 1.096424e-01 1.617227e-01 2.189590e-01 2.081299e-01 2.384546e-01 2.912399e-01 2.637263e-01 2.726547e-01 2.871661e-01 2.891552e-01 2.011743e-01 1.635685e-01
<GCONST> 8.260902e+01
<STATE> 3
<MEAN> 39
 -3.898461e+00 -5.353860e+00 1.511828e+00 -2.384797e+00 -2.614824e+00 -3.515409e+00 3.807974e+00 -3.060535e+00 4.593987e+00 -1.527391e+00 7.652714e-01 -1.333072e+00 5.862360e+01 2.152025e+00 -1.537914e+00 -1.685905e+00 -1.895555e+00 -1.640683e+00 3.080117e-01 3.221234e-01 -1.001671e+00 -9.026346e-01 -2.436209e-01 1.892849e-01 -1.354274e+00 3.243142e+00 9.360322e-01 -4.158730e-01 -9.176973e-01 -8.744134e-01 -1.054138e-01 5.891895e-01 3.144454e-01 -1.283142e-01 -4.688000e-01 -1.423866e-01 2.589593e-01 -7.793760e-01 1.016372e+00
<VARIANCE> 39
 5.931632e+00 1.813854e+01 1.312676e+01 1.133160e+01 2.177836e+01 2.133607e+01 1.999584e+01 2.072663e+01 1.884786e+01 1.510795e+01 1.362636e+01 2.015871e+01 2.021258e+01 2.704713e+00 1.563072e+00 3.632956e+00 3.493944e+00 1.757137e+00 2.813403e+00 2.483405e+00 2.955473e+00 2.736260e+00 1.989411e+00 2.191559e+00 2.772911e+00 2.908566e+00 1.528164e-01 2.531886e-01 3.478664e-01 4.544891e-01 4.277894e-01 4.467717e-01 5.244168e-01 5.762592e-01 4.700982e-01 3.619940e-01 3.242177e-01 3.301092e-01 3.271028e-01
<GCONST> 1.068691e+02
<STATE> 4
<MEAN> 39
 7.604430e+00 -9.612375e+00 -9.015949e+00 -1.308005e+01 -7.664486e+00 1.687702e+00 7.844728e+00 -6.139334e+00 -2.573874e-01 -3.110554e+00 3.384051e+00 -8.788301e+00 7.157991e+01 3.270689e+00 -2.379694e+00 -3.430686e+00 -3.110488e+00 -1.512838e-01 2.381583e+00 1.389987e+00 -4.795210e-01 -1.573173e+00 -2.726144e-01 1.055047e+00 -2.872367e+00 4.201922e+00 -8.054352e-01 1.904479e-02 4.831128e-01 7.895466e-01 9.557120e-01 1.612370e-02 -1.892047e-01 3.580192e-01 3.624641e-01 2.206865e-01 -2.833816e-01 2.588722e-01 -7.895197e-01
<VARIANCE> 39
 9.115553e+00 2.110913e+01 1.684394e+01 2.253214e+01 1.494545e+01 2.143109e+01 1.444436e+01 2.664242e+01 4.414489e+01 1.397179e+01 1.814298e+01 1.040000e+01 1.706377e+01 1.040844e+00 1.784094e+00 4.297473e+00 5.355721e+00 2.221766e+00 2.046257e+00 3.415741e+00 5.968523e+00 4.357620e+00 2.036254e+00 1.642147e+00 1.440533e+00 1.786030e+00 2.521234e-01 3.595646e-01 3.235701e-01 5.139276e-01 3.577452e-01 4.771248e-01 3.797977e-01 3.435164e-01 3.238384e-01 2.905243e-01 3.713032e-01 2.720592e-01 3.465353e-01
<GCONST> 1.072928e+02
<TRANSP> 5
 0.000000e+00 1.000000e+00 0.000000e+00 0.000000e+00 0.000000e+00
 0.000000e+00 7.396438e-01 2.603562e-01 0.000000e+00 0.000000e+00
 0.000000e+00 0.000000e+00 6.807927e-01 3.192073e-01 0.000000e+00
 0.000000e+00 0.000000e+00 0.000000e+00 4.469274e-01 5.530726e-01
 0.000000e+00 0.000000e+00 0.000000e+00 0.000000e+00 0.000000e+00
<ENDHMM>
~h "r"
<BEGINHMM>
<NUMSTATES> 5
<STATE> 2
<MEAN> 39
 -1.473351e+01 -6.515378e+00 8.510634e+00 -9.086488e+00 -3.045887e+00 -1.677950e+00 -1.518783e+00 9.424360e-01 7.044974e+00 -3.698375e+00 1.291131e+00 -2.081512e+00 6.791526e+01 2.016326e+00 -7.605116e-01 -1.474593e-01 2.403728e-01 -1.651703e+00 -1.223849e+00 -6.734355e-01 1.513484e-01 9.272326e-01 -6.491458e-01 -1.099275e+00 -3.501444e-01 1.621697e+00 1.863382e+00 -3.947406e-01 -7.730117e-01 3.033625e-01 -2.463098e-01 -3.760145e-01 -4.878421e-02 -5.066103e-02 -9.826859e-03 -8.575059e-02 -2.695852e-01 -2.543449e-01 -2.141244e-02
<VARIANCE> 39
 3.277628e+01 1.644412e+01 1.630020e+01 1.463500e+01 2.949001e+01 2.873448e+01 1.903728e+01 2.705906e+01 2.581522e+01 2.017912e+01 2.303102e+01 2.116006e+01 7.653626e+00 1.721840e+01 1.479491e+00 3.965397e+00 1.743068e+00 2.327899e+00 3.476353e+00 2.184579e+00 1.860946e+00 2.315371e+00 1.871044e+00 2.463297e+00 1.845693e+00 1.188263e+00 1.165454e+00 2.801603e-01 6.818641e-01 4.868077e-01 6.372237e-01 6.975811e-01 4.641906e-01 4.323305e-01 4.507211e-01 3.659450e-01 5.071592e-01 3.561836e-01 2.829190e-01
<GCONST> 1.133102e+02
<STATE> 3
<MEAN> 39
 6.080030e+00 -1.540299e+01 -1.700375e-01 -8.507668e+00 -8.893203e+00 -7.400718e+00 -5.361391e+00 2.718196e+00 9.574000e+00 -5.869607e+00 -3.595057e+00 -6.535529e+00 7.672795e+01 2.595122e+00 -2.282266e+00 -2.536162e+00 -2.237543e-01 7.009878e-01 7.201110e-01 3.724930e-01 4.151971e-01 -5.638886e-02 6.153185e-02 -6.716098e-01 -1.538049e+00 1.534584e+00 -1.289569e+00 2.927717e-01 1.192962e-01 -7.300232e-02 7.174430e-01 8.261457e-01 6.036114e-01 -2.064622e-01 -3.597580e-01 2.151138e-01 2.338556e-01 4.011363e-02 -4.937036e-01
<VARIANCE> 39
 4.343153e+00 3.479482e+01 4.723214e+01 1.078842e+01 2.225359e+01 1.470888e+01 1.801077e+01 1.306809e+01 4.186112e+01 1.912193e+01 1.379401e+01 2.702455e+01 8.142040e+00 5.809314e+00 1.446750e+00 3.481653e+00 1.715488e+00 3.027190e+00 3.220645e+00 3.197443e+00 2.127681e+00 1.657090e+00 1.954541e+00 1.177758e+00 1.258820e+00 1.263389e+00 3.098874e-01 3.682788e-01 5.502030e-01 2.764259e-01 4.168232e-01 3.623754e-01 3.945573e-01 2.871623e-01 3.454671e-01 2.924296e-01 2.270039e-01 1.695928e-01 1.035111e-01
<GCONST> 1.028583e+02
<STATE> 4
<MEAN> 39
 8.569145e+00 -1.903816e+01 -8.761656e+00 -9.151864e+00 -2.246808e+00 9.567283e-01 3.277841e-01 6.128948e-01 5.141874e+00 -4.162312e+00 -5.378990e+00 -1.209949e+01 7.661174e+01 9.045364e-02 1.885510e-01 -2.483203e-01 9.861752e-02 -6.490810e-03 5.127165e-02 7.534139e-02 5.538163e-03 -8.923657e-02 1.375570e-01 -1.101098e-01 -4.706354e-02 -2.305824e-01 -4.469638e-02 1.420351e-01 1.817533e-01 4.894008e-02 -1.484848e-01 -2.066935e-01 -1.337870e-01 2.466054e-02 1.090891e-01 -1.592714e-02 5.502713e-02 1.568399e-01 -7.819363e-02
<VARIANCE> 39
 3.824300e+00 3.176974e+01 3.488879e+01 1.425338e+01 2.327041e+01 2.434510e+01 2.075164e+01 3.580103e+01 3.398953e+01 2.278200e+01 1.633588e+01 2.737089e+01 6.932303e+00 1.224111e-01 4.728828e-01 7.668153e-01 6.146779e-01 1.481628e+00 1.890099e+00 1.442310e+00 1.762251e+00 1.335701e+00 7.436407e-01 9.438289e-01 7.860596e-01 1.081346e-01 2.477233e-02 9.076300e-02 7.456613e-02 1.078091e-01 1.580431e-01 1.806622e-01 2.100114e-01 2.760864e-01 1.902671e-01 1.523561e-01 1.582389e-01 1.440741e-01 2.700770e-02
<GCONST> 7.790072e+01
<TRANSP> 5
 0.000000e+00 1.000000e+00 0.000000e+00 0.000000e+00 0.000000e+00
 0.000000e+00 7.760687e-01 2.239314e-01 0.000000e+00 0.000000e+00
 0.000000e+00 0.000000e+00 7.458034e-01 2.541967e-01 0.000000e+00
 0.000000e+00 0.000000e+00 0.000000e+00 9.304429e-01 6.955709e-02
 0.000000e+00 0.000000e+00 0.000000e+00 0.000000e+00 0.000000e+00
<ENDHMM>
~h "s"
<BEGINHMM>
<NUMSTATES> 5
<STATE> 2
<MEAN> 39
 -5.583208e+00 -6.466533e+00 1.467137e+00 -2.481671e+00 1.469485e+00 -6.369140e+00 2.689861e+00 1.093266e+00 5.700787e+00 -2.724292e+00 -1.621057e+00 -1.313381e+00 6.276000e+01 -2.133890e+00 8.481237e-02 3.268214e-01 -9.779746e-02 9.615703e-01 -1.143406e+00 6.327282e-01 6.289291e-01 -3.260207e-01 1.956845e-01 2.036812e-01 9.355640e-02 7.385877e-01 -1.729550e-01 2.221501e-01 -9.215930e-02 -1.971347e-01 -1.109282e-01 2.191250e-02 8.167733e-02 -5.297247e-02 -7.819490e-02 1.165731e-01 1.110601e-01 9.920957e-03 1.192967e-01
<VARIANCE> 39
 2.742198e+01 1.570846e+01 2.081485e+01 1.973484e+01 2.142935e+01 3.429744e+01 3.821111e+01 2.213562e+01 3.148666e+01 2.191402e+01 2.646874e+01 2.202493e+01 1.946695e+01 1.868590e+00 1.627670e+00 1.155875e+00 1.598945e+00 1.765222e+00 2.122049e+00 2.652299e+00 2.117492e+00 2.389696e+00 2.171178e+00 2.226662e+00 1.728059e+00 7.684177e-01 2.746448e-01 2.508040e-01 2.176436e-01 2.426324e-01 3.447410e-01 5.593727e-01 5.220850e-01 3.837666e-01 4.730132e-01 3.712475e-01 4.107266e-01 3.635687e-01 1.239691e-01
<GCONST> 1.058790e+02
<STATE> 3
<MEAN> 39
 -1.517072e+01 -3.580299e+00 4.438635e-01 -4.159409e+00 3.665138e+00 -9.615849e+00 5.960135e+00 2.205094e+00 3.328257e+00 -5.156224e-01 -2.084352e-01 -4.306542e-01 6.623369e+01 -6.751442e-01 1.184326e-01 -2.390631e-01 -5.578832e-02 9.374146e-02 6.498175e-02 1.943376e-01 7.299264e-04 -1.116433e-02 2.579468e-01 -3.321584e-03 3.555972e-02 6.628230e-02 5.082411e-01 -1.659826e-01 -3.095177e-02 2.195933e-03 -1.538145e-01 1.470296e-01 -1.262612e-01 -1.464999e-01 8.165616e-02 -2.104367e-02 -1.473852e-01 -1.179869e-01 -8.460113e-02
<VARIANCE> 39
 1.642008e+01 1.761088e+01 1.406956e+01 1.494577e+01 1.703361e+01 1.617371e+01 2.668811e+01 2.285877e+01 2.421911e+01 1.821387e+01 1.644580e+01 1.860080e+01 5.585782e+00 1.252222e+00 1.215579e+00 7.660257e-01 9.628017e-01 1.287384e+00 1.231448e+00 1.399629e+00 1.368633e+00 1.534702e+00 1.493612e+00 1.412608e+00 1.312712e+00 2.756155e-01 1.675656e-01 1.529709e-01 1.397692e-01 2.176999e-01 2.382501e-01 2.573830e-01 3.064892e-01 3.040709e-01 2.916199e-01 3.066880e-01 2.751952e-01 2.814456e-01 5.283998e-02
<GCONST> 8.940866e+01
<STATE> 4
<MEAN> 39
 -1.010204e+01 -5.218140e+00 -8.653724e-01 -4.996930e+00 1.662783e+00 -8.556040e+00 4.971542e+00 -8.005673e-02 4.686523e+00 2.584410e-01 -2.960046e+00 -2.818095e+00 6.628686e+01 3.667770e+00 -5.428360e-01 -1.290482e+00 -1.047490e+00 -8.712015e-01 7.994943e-01 -8.302869e-01 -1.264127e+00 9.372935e-02 5.580414e-01 -1.375020e+00 -1.759853e+00 1.008570e+00 5.807186e-01 -3.341023e-01 -4.182793e-01 -2.201464e-01 -2.749179e-02 4.135279e-01 -1.814761e-01 -1.161330e-01 -5.930466e-02 1.850651e-02 -2.520692e-02 -3.167148e-01 5.255208e-01
<VARIANCE> 39
 5.730622e+01 1.397660e+01 1.569187e+01 1.639221e+01 1.574493e+01 1.465378e+01 2.173952e+01 2.071486e+01 2.099887e+01 1.509940e+01 1.931099e+01 2.195349e+01 7.964688e+00 8.049014e+00 1.335892e+00 3.069737e+00 1.785895e+00 1.584376e+00 1.502922e+00 2.564209e+00 1.920127e+00 2.391679e+00 1.516991e+00 1.741259e+00 2.753170e+00 1.858532e+00 8.780581e-01 3.309060e-01 4.374722e-01 3.861364e-01 3.025292e-01 2.829544e-01 3.584964e-01 3.666792e-01 3.511951e-01 3.130784e-01 4.004945e-01 4.429041e-01 2.346288e-01
<GCONST> 1.064737e+02
<TRANSP> 5
 0.000000e+00 1.000000e+00 0.000000e+00 0.000000e+00 0.000000e+00
 0.000000e+00 7.286935e-01 2.713065e-01 0.000000e+00 0.000000e+00
 0.000000e+00 0.000000e+00 8.290973e-01 1.709027e-01 0.000000e+00
 0.000000e+00 0.000000e+00 0.000000e+00 5.432247e-01 4.567753e-01
 0.000000e+00 0.000000e+00 0.000000e+00 0.000000e+00 0.000000e+00
<ENDHMM>
~h "t"
<BEGINHMM>
<NUMSTATES> 5
<STATE> 2
<MEAN> 39
 4.450972e+00 -7.250791e+00 -5.807892e+00 -6.793621e+00 -1.514665e+00 -2.659446e+00 -2.652929e-01 -2.238578e+00 7.550813e+00 2.436112e-01 -3.967938e+00 -6.366787e+00 6.486295e+01 -7.287983e-01 8.261167e-01 -1.304286e-01 4.720737e-02 5.994398e-01 3.027934e-01 7.438768e-01 -2.799460e-01 2.538766e-01 -5.067200e-02 6.835892e-01 3.702703e-01 -1.465079e+00 -8.060417e-02 -3.166836e-01 -2.347354e-02 -1.056994e-01 -4.972068e-02 1.539297e-01 1.480958e-01 1.250013e-01 -1.715979e-01 -1.431767e-01 -3.634946e-02 -1.110462e-01 1.753376e-01
<VARIANCE> 39
 2.128035e+01 2.001378e+01 2.592470e+01 1.775757e+01 2.541579e+01 2.506766e+01 2.293964e+01 1.995669e+01 2.155431e+01 2.280830e+01 2.325993e+01 2.366241e+01 2.656847e+01 4.532530e-01 1.439910e+00 9.389142e-01 1.313464e+00 1.906553e+00 1.753492e+00 1.793303e+00 1.782622e+00 1.636990e+00 1.800270e+00 1.656219e+00 1.542936e+00 8.507691e-01 8.560473e-02 1.724103e-01 1.831999e-01 2.451512e-01 4.691325e-01 4.512093e-01 3.847241e-01 3.282299e-01 3.228047e-01 4.046281e-01 3.216640e-01 3.187791e-01 1.136773e-01
<GCONST> 9.881588e+01
<STATE> 3
<MEAN> 39
 -3.920603e-01 -3.510163e+00 -3.510605e+00 -5.679527e+00 -1.065839e-01 -9.797686e-01 4.893253e+00 -1.366766e+00 5.996352e+00 -1.360129e+00 -1.250990e+00 -4.317728e+00 5.847400e+01 -6.058148e-01 3.820935e-02 4.494139e-01 1.977215e-01 -8.256981e-03 6.652291e-02 3.356747e-01 1.967237e-01 -2.708803e-01 -2.997998e-01 2.632890e-01 3.173045e-01 -4.341885e-01 -4.731026e-02 -2.785983e-01 1.345514e-01 -4.643848e-02 -2.691248e-01 -3.201731e-01 -1.561525e-01 -8.339564e-02 -8.705810e-02 2.194508e-02 2.509614e-02 1.313729e-01 4.075326e-01
<VARIANCE> 39
 1.363836e+01 1.054143e+01 2.584851e+01 1.564378e+01 1.469443e+01 1.801903e+01 1.504698e+01 1.985351e+01 1.934215e+01 1.553598e+01 1.724226e+01 1.730698e+01 9.746633e+00 2.141034e-01 3.781552e-01 5.022675e-01 6.190186e-01 9.639634e-01 9.664239e-01 1.130397e+00 1.142055e+00 1.338815e+00 1.643303e+00 1.114918e+00 1.347918e+00 1.559958e-01 6.134084e-02 1.237793e-01 1.305840e-01 1.652190e-01 2.826791e-01 2.827554e-01 2.424838e-01 3.432452e-01 3.744021e-01 3.325438e-01 2.564974e-01 3.006788e-01 1.653492e-01
<GCONST> 8.327251e+01
<STATE> 4
<MEAN> 39
 -3.732219e+00 -5.233194e+00 -4.425420e-01 -3.945902e+00 -1.093155e+00 -2.877556e+00 4.427271e+00 -1.972489e+00 4.360017e+00 -1.940142e+00 1.166157e+00 -1.197675e+00 5.830822e+01 -4.972711e-01 -1.680846e+00 9.248522e-01 -5.900428e-01 -2.049880e+00 -1.714355e+00 -2.349289e-01 -5.714748e-01 -1.057886e+00 -3.482610e-01 2.304130e-01 2.864054e-01 2.621206e+00 3.275312e-01 -9.490359e-04 7.512345e-01 -1.145625e-01 -8.635609e-01 -3.384413e-01 -3.815016e-01 -2.350595e-01 -3.062226e-01 5.584259e-02 -1.200141e-01 -4.179515e-01 7.573064e-01
<VARIANCE> 39
 1.376850e+01 1.780962e+01 2.699943e+01 1.827019e+01 1.774858e+01 1.611021e+01 1.562072e+01 1.691887e+01 2.393723e+01 1.337498e+01 2.225422e+01 1.746867e+01 1.831190e+01 9.543000e-01 1.314260e+00 1.751733e+00 1.421836e+00 3.096514e+00 2.912175e+00 1.649766e+00 3.056623e+00 2.747495e+00 2.139940e+00 1.812457e+00 2.405542e+00 2.753804e+00 2.193670e-01 2.788644e-01 5.079147e-01 1.988033e-01 5.433797e-01 4.002694e-01 3.912871e-01 3.426589e-01 3.665817e-01 3.139907e-01 3.170291e-01 4.340719e-01 3.934641e-01
<GCONST> 1.047658e+02
<TRANSP> 5
 0.000000e+00 1.000000e+00 0.000000e+00 0.000000e+00 0.000000e+00
 0.000000e+00 7.240307e-01 2.759693e-01 0.000000e+00 0.000000e+00
 0.000000e+00 0.000000e+00 6.518134e-01 3.481867e-01 0.000000e+00
 0.000000e+00 0.000000e+00 0.000000e+00 5.191669e-01 4.808331e-01
 0.000000e+00 0.000000e+00 0.000000e+00 0.000000e+00 0.000000e+00
<ENDHMM>
~h "y"
<BEGINHMM>
<NUMSTATES> 5
<STATE> 2
<MEAN> 39
 8.969273e+00 4.544509e+00 3.280292e+00 -4.024489e+00 -8.330736e+00 -7.929777e+00 3.388506e+00 -3.183187e+00 9.724054e-01 -4.633219e+00 5.635788e-01 -3.771219e+00 6.421916e+01 -7.034222e-01 -1.531912e+00 2.455266e+00 -7.911699e-01 -1.712261e+00 8.577672e-01 -2.297872e-01 5.348132e-01 -1.599773e-01 -9.945467e-02 4.432911e-01 1.536841e-01 6.794922e-01 -3.350717e-01 -9.464507e-01 1.145685e+00 -3.388458e-01 -1.030140e+00 3.945707e-01 -8.659706e-02 1.361058e-01 -1.645061e-01 1.377554e-01 2.689171e-01 -3.365074e-02 5.309846e-01
<VARIANCE> 39
 2.887462e+00 1.193871e+01 9.423417e+00 7.560197e+00 5.381476e+00 1.395927e+01 1.211900e+01 1.771670e+01 1.396282e+01 1.396246e+01 1.392126e+01 7.613142e+00 4.347682e+00 2.275072e-01 1.094458e+00 2.103944e+00 1.371834e+00 1.460211e+00 1.291733e+00 8.230736e-01 1.264501e+00 9.527669e-01 8.089609e-01 8.727958e-01 7.218030e-01 3.320221e-01 3.353338e-02 8.075052e-02 1.550575e-01 1.696819e-01 1.480093e-01 2.415204e-01 2.097581e-01 2.711968e-01 2.217301e-01 1.856859e-01 1.803335e-01 1.426599e-01 1.482996e-02
<GCONST> 7.228802e+01
<STATE> 3
<MEAN> 39
 5.851771e+00 -1.760822e+00 1.319294e+01 -7.371395e+00 -1.548258e+01 -3.518810e+00 2.103962e+00 -2.375531e+00 3.768447e-01 -4.404577e+00 2.408804e+00 -3.425539e+00 6.721523e+01 -1.173278e+00 -3.220632e+00 4.059201e+00 -1.320641e+00 -3.845576e+00 1.042802e+00 -4.889582e-02 1.066862e+00 -8.304197e-01 4.091294e-01 1.113458e+00 -2.561965e-01 1.728173e+00 1.687007e-01 -1.381712e-01 -6.364067e-01 3.310433e-01 2.116984e-02 -4.316335e-01 1.365048e-01 2.438676e-01 -8.318193e-02 6.400140e-02 -2.780407e-02 -1.796107e-01 1.219073e-01
<VARIANCE> 39
 5.512216e+00 3.062412e+01 4.164457e+01 2.752797e+01 3.305568e+01 2.250649e+01 1.529661e+01 2.238275e+01 1.375922e+01 1.787243e+01 1.145729e+01 1.030364e+01 1.035710e+01 3.253848e-01 7.903303e-01 1.638014e+00 2.006893e+00 1.682886e+00 2.337478e+00 2.358584e+00 2.425032e+00 1.922880e+00 1.574025e+00 1.296542e+00 1.021880e+00 1.950121e-01 8.655798e-02 2.095224e-01 8.074775e-01 3.508674e-01 5.784847e-01 3.251847e-01 2.205587e-01 3.462744e-01 1.900432e-01 2.743942e-01 1.962052e-01 1.736023e-01 6.844638e-02
<GCONST> 9.308279e+01
<STATE> 4
<MEAN> 39
 5.560277e+00 -1.182877e+01 1.100872e+01 -5.549969e+00 -1.878097e+01 -5.013195e+00 3.334873e-01 3.646649e+00 1.669508e-01 -4.624557e+00 1.302670e+00 -5.583906e+00 7.276503e+01 1.315394e-01 -7.277128e-01 -1.353360e+00 4.695921e-01 7.450240e-01 -1.761049e-01 -5.556960e-01 5.897583e-01 5.627089e-01 -2.127494e-01 -7.811935e-01 -1.616167e-01 2.916360e-01 3.668404e-02 4.622575e-01 -2.817603e-01 6.956786e-02 4.881345e-01 -1.530052e-02 -2.056322e-02 -2.053771e-01 1.285705e-01 -8.307469e-03 -1.506089e-01 7.697050e-02 -2.886344e-01
<VARIANCE> 39
 3.133773e+00 3.209447e+01 5.917821e+01 2.213504e+01 3.733949e+01 2.275482e+01 3.403619e+01 2.263619e+01 4.241642e+01 2.007396e+01 2.186775e+01 1.135111e+01 1.172064e+01 2.336545e-01 1.740713e+00 3.187109e+00 1.473436e+00 3.375917e+00 1.334598e+00 1.862427e+00 2.160099e+00 1.701550e+00 1.686709e+00 1.358511e+00 9.053511e-01 5.908526e-01 8.828059e-02 1.120198e-01 1.007263e+00 3.730373e-01 6.221925e-01 2.964178e-01 4.085226e-01 3.082042e-01 3.260422e-01 3.223270e-01 2.951933e-01 1.658096e-01 2.764386e-02
<GCONST> 9.764364e+01
<TRANSP> 5
 0.000000e+00 1.000000e+00 0.000000e+00 0.000000e+00 0.000000e+00
 0.000000e+00 4.571226e-01 5.428774e-01 0.000000e+00 0.000000e+00
 0.000000e+00 0.000000e+00 5.176964e-01 4.823035e-01 0.000000e+00
 0.000000e+00 0.000000e+00 0.000000e+00 8.828073e-01 1.171928e-01
 0.000000e+00 0.000000e+00 0.000000e+00 0.000000e+00 0.000000e+00
<ENDHMM>
~h "aa"
<BEGINHMM>
<NUMSTATES> 5
<STATE> 2
<MEAN> 39
 8.279569e-01 -8.075864e+00 -3.631771e+00 -6.395844e+00 -5.226390e-01 -1.062261e-01 4.957360e+00 -5.086937e+00 2.234485e+00 -2.271468e+00 -4.519007e-01 -6.038380e+00 6.448530e+01 1.523179e+00 -2.058429e+00 -1.642782e+00 -1.595082e+00 3.206196e-01 1.575845e+00 -2.295346e-01 -8.620536e-01 -5.180789e-01 -7.262745e-02 -2.247523e-01 -1.868636e+00 2.593084e+00 -1.696975e-01 -2.542210e-01 7.154460e-02 -7.538013e-02 1.317251e-01 2.038428e-01 -9.160962e-02 7.463606e-02 1.083123e-01 9.999180e-03 3.532901e-02 -1.167089e-01 3.413590e-01
<VARIANCE> 39
 3.985830e+01 3.563852e+01 4.685803e+01 3.538433e+01 2.249082e+01 2.974163e+01 2.957678e+01 3.350271e+01 3.578641e+01 2.015488e+01 2.755377e+01 4.057062e+01 7.440208e+01 3.168345e+00 2.865562e+00 3.248219e+00 2.597885e+00 2.037021e+00 2.871098e+00 2.702712e+00 3.259075e+00 2.803124e+00 2.027781e+00 1.569732e+00 3.807230e+00 4.260567e+00 8.226691e-01 6.140511e-01 6.760744e-01 6.388284e-01 3.281792e-01 4.830115e-01 4.535228e-01 5.563576e-01 4.501369e-01 3.439837e-01 3.935049e-01 8.058088e-01 1.014529e+00
<GCONST> 1.231779e+02
<STATE> 3
<MEAN> 39
 6.033065e+00 -1.463748e+01 -7.616668e+00 -1.108977e+01 1.241401e-01 4.718850e+00 3.657393e+00 -6.422746e+00 5.192616e-01 -2.353607e+00 -1.337975e+00 -1.161844e+01 7.358779e+01 2.793885e-01 -1.325414e+00 -3.192510e-01 -6.263367e-01 1.173915e-01 1.090078e+00 -4.266617e-01 9.950163e-02 -5.048410e-02 -4.904520e-02 1.663917e-01 -6.021316e-01 1.374378e+00 -5.249975e-01 4.267600e-01 4.614443e-01 4.828176e-01 -4.952775e-02 -3.829778e-01 3.147763e-02 2.356216e-01 1.604431e-01 -2.038142e-02 1.400779e-02 4.833077e-01 -5.762107e-01
<VARIANCE> 39
 2.003073e+01 3.907630e+01 4.299895e+01 2.621274e+01 1.860595e+01 2.790219e+01 3.910825e+01 4.961571e+01 4.755193e+01 2.091705e+01 2.476126e+01 2.777215e+01 3.820605e+01 2.097188e+00 2.768656e+00 2.074481e+00 2.221235e+00 1.660746e+00 1.929851e+00 1.907153e+00 2.472212e+00 1.474524e+00 1.296603e+00 1.294168e+00 1.205453e+00 1.718194e+00 2.627990e-01 4.777881e-01 3.803562e-01 3.676642e-01 2.874854e-01 2.824550e-01 4.032513e-01 4.217220e-01 3.643388e-01 2.696002e-01 2.387157e-01 4.244160e-01 5.078760e-01
<GCONST> 1.102931e+02
<STATE> 4
<MEAN> 39
 7.759626e+00 -1.609495e+01 -8.730873e+00 -1.128440e+01 -6.869954e-01 3.872442e+00 1.723167e+00 -2.949451e+00 1.210164e+00 -1.407016e+00 -3.829322e+00 -1.180281e+01 7.453075e+01 -1.442612e-01 2.489866e-01 2.251624e-01 3.067352e-01 -1.524711e-01 -4.730421e-01 -3.617867e-01 3.730299e-01 3.890943e-01 2.654307e-02 -2.660776e-01 2.569393e-01 -2.379233e-01 -4.438170e-02 2.327627e-01 8.829358e-02 9.945386e-02 -2.302133e-02 -1.723581e-01 1.417406e-02 -3.477465e-02 5.161002e-02 2.249487e-02 1.552126e-02 1.157546e-01 -1.741992e-01
<VARIANCE> 39
 1.584934e+01 4.281573e+01 3.228503e+01 2.462234e+01 2.038784e+01 2.960298e+01 3.370311e+01 4.318547e+01 3.698984e+01 1.511694e+01 2.430923e+01 1.739763e+01 2.008130e+01 8.751544e-01 1.337971e+00 8.880768e-01 1.193098e+00 1.442609e+00 1.851484e+00 1.547870e+00 1.635840e+00 1.345439e+00 1.091636e+00 1.177239e+00 1.020767e+00 8.682517e-01 5.388173e-02 1.832591e-01 1.402023e-01 1.900901e-01 2.676639e-01 2.456244e-01 2.771691e-01 2.964608e-01 2.230866e-01 2.165266e-01 2.325502e-01 1.667303e-01 7.690826e-02
<GCONST> 9.417973e+01
<TRANSP> 5
 0.000000e+00 1.000000e+00 0.000000e+00 0.000000e+00 0.000000e+00
 0.000000e+00 4.624563e-01 5.375437e-01 0.000000e+00 0.000000e+00
 0.000000e+00 0.000000e+00 5.351428e-01 4.648572e-01 0.000000e+00
 0.000000e+00 0.000000e+00 0.000000e+00 8.433418e-01 1.566582e-01
 0.000000e+00 0.000000e+00 0.000000e+00 0.000000e+00 0.000000e+00
<ENDHMM>
~h "cx"
<BEGINHMM>
<NUMSTATES> 5
<STATE> 2
<MEAN> 39
 -1.032945e+00 -3.481244e+00 1.594663e+00 -2.915669e+00 -1.776423e+00 -3.933171e+00 4.202849e+00 1.944929e-02 5.465289e+00 -2.711947e+00 -9.454994e-01 -1.824356e+00 5.994782e+01 -4.514072e-01 2.412823e-01 -4.220698e-02 3.113133e-01 3.034803e-01 2.277871e-01 2.242049e-01 -2.807227e-01 -5.622518e-02 7.508011e-03 1.971349e-01 -5.374679e-02 -8.587788e-01 -2.793861e-02 -1.613576e-01 -2.586112e-02 -1.460099e-01 -1.439731e-01 -4.457610e-03 -8.193529e-02 5.293699e-03 -1.598270e-02 3.808862e-02 1.336073e-01 5.200944e-02 1.313521e-01
<VARIANCE> 39
 2.048080e+01 2.816016e+01 3.003917e+01 1.366592e+01 2.206876e+01 1.622157e+01 1.818081e+01 2.580890e+01 3.043736e+01 1.818754e+01 2.140123e+01 1.867303e+01 1.223209e+01 6.958684e-01 1.018165e+00 8.229600e-01 9.304466e-01 1.375394e+00 1.304324e+00 1.756858e+00 1.567976e+00 2.093517e+00 2.481488e+00 1.890495e+00 1.074557e+00 3.937686e-01 7.593474e-02 1.696575e-01 1.632277e-01 1.986189e-01 2.433083e-01 2.742370e-01 3.289872e-01 2.963665e-01 4.103793e-01 4.485737e-01 3.235207e-01 3.038955e-01 3.580638e-02
<GCONST> 9.314780e+01
<STATE> 3
<MEAN> 39
 -2.726892e+00 -2.041576e+00 2.818490e+00 -1.711824e+00 -3.663159e-01 -3.602164e+00 3.081758e+00 -2.050331e+00 4.247273e+00 -2.494444e+00 4.905951e-01 -1.969447e+00 5.766740e+01 -5.050926e-01 -8.217372e-02 -2.055854e-01 -5.392158e-02 1.154614e-01 8.675902e-02 3.280340e-02 -2.955848e-01 6.403640e-02 3.074443e-01 4.585024e-01 2.366209e-01 -6.073033e-01 -1.487430e-01 -4.625141e-01 1.540512e-01 -4.676849e-01 -2.299966e-01 7.756839e-02 -3.048501e-01 1.496922e-01 3.403798e-02 -1.953698e-02 8.030374e-02 1.146240e-01 4.839683e-01
<VARIANCE> 39
 1.361116e+01 1.635311e+01 2.712178e+01 1.430148e+01 1.866359e+01 1.799096e+01 1.909757e+01 2.647860e+01 1.580197e+01 1.991450e+01 1.940633e+01 1.586682e+01 9.947119e+00 7.178017e-01 7.793081e-01 8.177592e-01 9.989830e-01 1.536778e+00 1.011834e+00 1.020470e+00 1.631313e+00 1.609153e+00 1.576656e+00 9.643129e-01 1.350972e+00 3.837634e-01 5.772080e-02 1.125413e-01 1.872173e-01 2.026010e-01 3.008308e-01 1.896924e-01 2.761393e-01 3.671181e-01 2.781403e-01 3.422709e-01 1.974660e-01 2.407438e-01 4.634662e-02
<GCONST> 8.733936e+01
<STATE> 4
<MEAN> 39
 -3.487356e+00 -2.352921e+00 2.393389e+00 -1.943805e+00 -8.739648e-01 -3.767882e+00 3.878755e+00 -1.914352e+00 4.215618e+00 -1.614064e+00 1.700701e+00 -1.555068e+00 5.697459e+01 -6.275740e-01 -1.131997e+00 2.649508e-01 -8.452924e-01 -4.002603e-01 6.075692e-01 -3.406017e-01 -5.317300e-02 1.322455e-01 7.289418e-02 4.534254e-01 4.483523e-01 2.212145e-01 -4.967113e-01 -3.697092e-01 3.578637e-01 -6.695372e-01 -8.105320e-02 2.399966e-01 -5.054344e-01 2.059063e-01 -2.537530e-02 -2.131322e-01 9.582779e-03 -9.815856e-02 8.494293e-01
<VARIANCE> 39
 9.121861e+00 1.033689e+01 2.446580e+01 1.465839e+01 1.999700e+01 1.771335e+01 2.257556e+01 3.020942e+01 1.815554e+01 1.592779e+01 2.120016e+01 1.267515e+01 6.708261e+00 5.295125e-01 1.811023e+00 1.671280e+00 1.607368e+00 1.263445e+00 1.299176e+00 1.164234e+00 1.253299e+00 1.100795e+00 1.004194e+00 6.945208e-01 1.242700e+00 7.872179e-01 1.255481e-01 1.535762e-01 2.549778e-01 2.587828e-01 4.076848e-01 3.420310e-01 4.304891e-01 6.383218e-01 3.710679e-01 3.819489e-01 2.824782e-01 2.654940e-01 6.922865e-02
<GCONST> 9.205494e+01
<TRANSP> 5
 0.000000e+00 1.000000e+00 0.000000e+00 0.000000e+00 0.000000e+00
 0.000000e+00 6.632323e-01 3.367677e-01 0.000000e+00 0.000000e+00
 0.000000e+00 0.000000e+00 8.287793e-02 9.171221e-01 0.000000e+00
 0.000000e+00 0.000000e+00 0.000000e+00 1.426122e-01 8.573878e-01
 0.000000e+00 0.000000e+00 0.000000e+00 0.000000e+00 0.000000e+00
<ENDHMM>
~h "ee"
<BEGINHMM>
<NUMSTATES> 5
<STATE> 2
<MEAN> 39
 -1.396276e+00 -2.826700e+00 6.276103e-01 -4.480173e+00 -2.752093e+00 -3.642449e+00 3.223130e+00 -1.171126e+00 6.256065e+00 -1.294429e+00 -4.715797e-01 -2.225855e+00 5.833096e+01 -4.825147e-01 1.264784e-01 3.917870e-01 3.630541e-01 4.715215e-01 3.415777e-01 2.574962e-01 5.313919e-02 -6.333391e-02 4.478874e-02 2.188921e-01 -1.391875e-01 -5.378795e-01 4.228815e-02 -8.437316e-02 5.058356e-02 -1.903271e-03 -1.062004e-01 -4.926094e-02 2.385596e-02 3.304965e-02 -6.052195e-02 -6.029891e-02 -4.989455e-02 -2.254340e-02 1.539933e-01
<VARIANCE> 39
 9.685925e+00 2.730204e+01 2.734822e+01 1.481567e+01 2.430308e+01 3.346925e+01 2.140069e+01 2.765533e+01 3.388118e+01 1.844339e+01 1.871839e+01 1.462727e+01 9.157357e+00 2.105609e-01 4.777797e-01 6.490688e-01 7.540429e-01 1.281142e+00 1.486358e+00 1.393829e+00 1.458055e+00 1.785257e+00 1.700527e+00 1.484570e+00 1.452338e+00 2.364216e-01 4.172127e-02 5.288088e-02 1.171051e-01 1.279158e-01 2.448184e-01 3.261768e-01 3.093134e-01 2.863397e-01 3.077441e-01 3.741356e-01 3.022470e-01 3.300662e-01 3.100371e-02
<GCONST> 8.617767e+01
<STATE> 3
<MEAN> 39
 -3.430753e+00 -4.508029e+00 2.457049e+00 -4.288738e+00 -3.239804e+00 -3.070762e+00 3.817975e+00 -1.352613e+00 4.105162e+00 -1.996542e+00 1.139819e+00 -2.295614e+00 5.810384e+01 -3.398090e-01 -9.458132e-02 4.840392e-01 2.058764e-01 -2.610475e-01 8.974889e-02 3.921376e-01 -7.652406e-02 7.507837e-02 3.026374e-01 1.315857e-01 1.628263e-02 -2.807982e-01 1.853146e-01 -3.237663e-01 6.294824e-01 -2.821451e-01 -6.449784e-01 -1.296805e-01 -2.653789e-01 9.220344e-02 -4.155581e-01 -9.504045e-03 7.444698e-02 -1.766549e-01 5.394284e-01
<VARIANCE> 39
 1.124654e+01 2.546392e+01 3.058895e+01 1.708661e+01 3.502211e+01 3.747193e+01 1.728264e+01 2.436537e+01 3.124981e+01 2.794757e+01 2.065822e+01 1.617070e+01 1.330760e+01 2.007859e-01 8.998337e-01 1.330113e+00 7.954789e-01 2.491385e+00 2.581734e+00 1.343058e+00 1.939483e+00 1.390135e+00 2.201499e+00 1.569694e+00 1.752903e+00 6.040571e-01 5.333169e-02 1.487354e-01 3.887538e-01 2.031274e-01 5.003446e-01 4.385809e-01 4.042424e-01 2.780243e-01 4.560807e-01 5.411705e-01 3.257113e-01 3.128371e-01 1.331298e-01
<GCONST> 9.800121e+01
<STATE> 4
<MEAN> 39
 -2.793115e+00 -4.680824e+00 3.162481e+00 -3.800557e+00 -4.928536e+00 -5.184362e+00 3.616172e+00 -1.548470e+00 3.468789e+00 -1.035638e+00 8.406488e-01 -3.334375e+00 5.856181e+01 -5.811025e-02 -4.201644e-01 1.110974e+00 -6.490737e-02 -8.025407e-01 1.113671e-01 1.455037e-01 2.960401e-02 -4.874077e-01 -1.205142e-01 1.032305e-01 -3.160303e-01 2.727834e-01 3.332979e-01 -5.583967e-01 1.260469e+00 -6.851109e-01 -1.126503e+00 -2.508078e-01 -7.653166e-01 1.685469e-01 -7.252176e-01 5.685022e-02 3.434286e-01 -2.802791e-01 1.069272e+00
<VARIANCE> 39
 1.206899e+01 2.185524e+01 4.301870e+01 9.777658e+00 4.390285e+01 3.247757e+01 2.643144e+01 2.268379e+01 3.874588e+01 1.503927e+01 1.377348e+01 2.066964e+01 1.936670e+01 4.123570e-01 6.560661e-01 1.465649e+00 1.280393e+00 2.034321e+00 2.261322e+00 1.564440e+00 1.350535e+00 1.813389e+00 1.669948e+00 9.267920e-01 1.459971e+00 4.921159e-01 1.041057e-01 2.602412e-01 6.235403e-01 2.368897e-01 8.114588e-01 4.510624e-01 5.247051e-01 3.673036e-01 4.141453e-01 3.719693e-01 3.706031e-01 3.209818e-01 3.013130e-01
<GCONST> 1.008614e+02
<TRANSP> 5
 0.000000e+00 1.000000e+00 0.000000e+00 0.000000e+00 0.000000e+00
 0.000000e+00 7.296973e-01 2.703027e-01 0.000000e+00 0.000000e+00
 0.000000e+00 0.000000e+00 1.957451e-01 8.042549e-01 0.000000e+00
 0.000000e+00 0.000000e+00 0.000000e+00 1.186310e-01 8.813690e-01
 0.000000e+00 0.000000e+00 0.000000e+00 0.000000e+00 0.000000e+00
<ENDHMM>
~h "ii"
<BEGINHMM>
<NUMSTATES> 5
<STATE> 2
<MEAN> 39
 -1.282304e+00 -8.568739e+00 1.259674e+01 -5.552534e+00 -1.580283e+01 -8.876452e+00 -3.759801e-01 -6.091366e+00 -3.736546e+00 -2.627316e+00 2.462762e+00 -5.359116e+00 7.124860e+01 2.195626e+00 -1.329217e-01 4.530598e+00 -1.099826e+00 -4.113544e+00 2.416284e-01 -2.905443e+00 -6.910787e-01 -1.611619e+00 7.590831e-01 -3.896810e-01 -2.734377e+00 2.575003e+00 5.902641e-02 3.497284e-01 -1.012427e-01 1.960516e-03 6.249478e-01 7.623275e-01 -1.975506e-01 1.957200e-01 3.235151e-01 2.733244e-01 -1.866540e-01 -9.459685e-02 -8.841553e-01
<VARIANCE> 39
 2.194977e+01 2.389925e+01 6.583027e+01 1.494164e+01 5.028446e+01 1.716932e+01 4.320126e+01 1.871805e+01 2.882772e+01 1.718308e+01 1.361619e+01 3.414176e+01 1.183542e+01 7.520068e-01 1.250740e+00 2.233993e+00 1.354491e+00 2.985890e+00 3.574811e+00 3.036018e+00 2.040132e+00 2.143826e+00 2.095215e+00 2.688227e+00 1.882057e+00 2.591677e+00 4.846903e-01 2.278246e-01 1.370314e+00 2.002450e-01 9.740264e-01 4.855177e-01 8.556578e-01 4.374635e-01 3.501301e-01 3.700444e-01 3.478559e-01 6.755458e-01 2.082703e-01
<GCONST> 1.121297e+02
<STATE> 3
<MEAN> 39
 2.584479e+00 -9.073060e+00 2.366952e+01 -1.063853e+01 -2.197583e+01 -3.078547e+00 -8.765594e+00 -6.150217e+00 -6.532148e+00 1.141589e+00 -6.211569e-01 -1.371550e+01 7.416852e+01 1.574891e-01 4.521024e-01 2.951468e-01 -3.525818e-01 1.250281e-01 7.376953e-01 -1.026366e-02 -1.572291e-01 3.486689e-01 3.648788e-01 -6.467955e-01 -3.026120e-01 -3.029334e-01 -2.435411e-01 1.792512e-01 -6.891744e-01 1.967691e-01 5.483574e-01 -2.088547e-01 7.097452e-01 9.164182e-03 3.176528e-01 -1.982900e-01 5.389753e-02 5.337882e-01 -3.113900e-01
<VARIANCE> 39
 5.437935e+00 1.050670e+01 1.636826e+01 1.884561e+01 1.757811e+01 8.660209e+00 3.754704e+01 1.375010e+01 3.177634e+01 1.886748e+01 3.187797e+01 2.131694e+01 4.663191e+00 2.568777e-01 5.041839e-01 9.101624e-01 6.439005e-01 9.966207e-01 8.010820e-01 1.549612e+00 6.560619e-01 9.798437e-01 6.576570e-01 9.687136e-01 7.693374e-01 3.050289e-01 1.276924e-01 9.412207e-02 4.021417e-01 1.507493e-01 4.933033e-01 1.637051e-01 3.972365e-01 1.553213e-01 2.516516e-01 1.457504e-01 2.485277e-01 1.963134e-01 9.534556e-02
<GCONST> 8.127353e+01
<STATE> 4
<MEAN> 39
 4.207342e+00 -2.730561e+00 1.955323e+01 -1.135020e+01 -1.918184e+01 -1.754622e+00 -2.979166e+00 -5.893390e+00 -1.928531e+00 4.413793e-01 -1.203692e+00 -9.185802e+00 6.980515e+01 2.786018e-01 6.214904e-01 -9.695996e-01 -9.815952e-02 5.714822e-01 -7.306684e-03 6.535914e-01 3.703026e-01 2.453464e-01 -2.994468e-01 2.642404e-01 4.883976e-01 -4.715044e-01 3.654946e-02 1.230553e-02 -2.261753e-01 1.623507e-01 1.131131e-01 -1.356824e-01 -1.464596e-02 -3.414705e-03 -1.318021e-02 -7.675202e-02 4.925963e-02 4.820027e-02 -3.098976e-02
<VARIANCE> 39
 3.471794e+00 2.650431e+01 2.152950e+01 2.742213e+01 2.140135e+01 2.123278e+01 4.003793e+01 1.936534e+01 2.574063e+01 1.759848e+01 2.373222e+01 1.803073e+01 5.892457e+00 2.580347e-01 6.865436e-01 1.772607e+00 2.154901e+00 1.915736e+00 1.882250e+00 1.260668e+00 1.501735e+00 1.333175e+00 1.170697e+00 1.049699e+00 9.334068e-01 2.281495e-01 3.448062e-02 1.193392e-01 1.614445e-01 3.439817e-01 3.352379e-01 3.328487e-01 2.414806e-01 3.100913e-01 2.472285e-01 1.840475e-01 2.070569e-01 1.710625e-01 3.994984e-02
<GCONST> 8.695866e+01
<TRANSP> 5
 0.000000e+00 1.000000e+00 0.000000e+00 0.000000e+00 0.000000e+00
 0.000000e+00 7.253517e-01 2.746483e-01 0.000000e+00 0.000000e+00
 0.000000e+00 0.000000e+00 7.482828e-01 2.517171e-01 0.000000e+00
 0.000000e+00 0.000000e+00 0.000000e+00 9.001808e-01 9.981922e-02
 0.000000e+00 0.000000e+00 0.000000e+00 0.000000e+00 0.000000e+00
<ENDHMM>
~h "sh"
<BEGINHMM>
<NUMSTATES> 5
<STATE> 2
<MEAN> 39
 -3.321696e+00 -7.786918e+00 5.443891e+00 -9.073209e-01 -3.296950e+00 -2.861992e+00 9.913134e-01 -2.067266e+00 6.183589e+00 -2.990530e+00 -1.199707e+00 -1.615791e+00 6.313463e+01 -2.010297e+00 -1.048617e+00 8.577989e-01 6.675172e-01 -1.754465e-01 -7.719660e-02 5.692004e-02 1.549718e-02 1.271123e+00 -8.281020e-02 4.318702e-02 2.881304e-02 6.174074e-01 -2.283863e-01 -9.495106e-02 -1.564114e-01 -1.950167e-01 -2.887324e-01 -2.244372e-01 -2.811095e-02 8.679139e-02 6.158224e-02 8.416294e-02 4.077960e-02 3.363260e-02 2.633832e-01
<VARIANCE> 39
 3.005380e+01 2.660444e+01 3.535368e+01 2.199102e+01 2.130137e+01 3.285603e+01 3.233730e+01 4.745530e+01 3.068302e+01 2.945920e+01 2.430841e+01 1.945786e+01 2.202020e+01 2.270482e+00 1.925743e+00 1.510200e+00 2.516943e+00 1.997382e+00 2.926533e+00 2.444834e+00 2.663881e+00 2.883386e+00 1.841105e+00 2.055244e+00 1.743773e+00 9.406355e-01 2.108006e-01 3.177523e-01 2.695918e-01 3.480405e-01 2.705639e-01 4.725970e-01 4.835307e-01 4.522630e-01 6.870137e-01 4.099647e-01 3.703673e-01 3.797889e-01 8.090844e-02
<GCONST> 1.099071e+02
<STATE> 3
<MEAN> 39
 -1.427955e+01 -1.232041e+01 8.614073e+00 6.334460e-01 -7.909842e+00 -4.443357e+00 1.517448e+00 -1.206004e+00 1.009601e+01 -2.518630e+00 -3.928982e-01 -1.394335e+00 6.864003e+01 -5.556231e-01 -4.306862e-01 -1.218926e-01 3.179406e-01 -3.207964e-01 -3.384723e-01 6.371353e-02 6.237028e-02 3.132166e-01 3.625181e-01 1.077840e-01 6.627548e-03 1.962722e-01 5.646144e-01 1.554895e-01 -7.718117e-02 3.849611e-03 7.088333e-02 -1.167588e-01 -8.292677e-02 6.596640e-02 -1.446646e-01 -6.403957e-02 -5.059386e-02 -5.364712e-02 -1.567993e-01
<VARIANCE> 39
 1.797279e+01 1.137456e+01 1.696033e+01 2.146799e+01 1.723862e+01 3.628664e+01 2.603050e+01 4.865049e+01 2.181426e+01 2.494916e+01 2.236840e+01 2.044230e+01 8.876229e+00 1.530388e+00 4.699916e-01 9.874869e-01 9.809253e-01 1.262349e+00 1.665717e+00 1.737057e+00 1.984979e+00 1.785337e+00 1.815649e+00 1.659220e+00 1.249563e+00 4.231147e-01 1.702961e-01 1.501534e-01 1.749745e-01 1.868928e-01 2.603912e-01 3.293836e-01 3.696561e-01 3.933626e-01 4.010672e-01 4.139217e-01 3.338267e-01 2.678816e-01 3.462626e-02
<GCONST> 9.470605e+01
<STATE> 4
<MEAN> 39
 -4.956730e+00 -9.855045e+00 7.170599e+00 1.359203e+00 -9.669047e+00 -9.242951e+00 -2.183309e+00 -1.024958e+00 8.735527e+00 -3.055155e+00 -9.688557e-01 -3.014433e+00 6.824627e+01 4.405602e+00 1.565463e+00 -1.891013e-01 -1.132735e+00 -1.052765e+00 -1.009568e+00 -1.791605e+00 -1.042948e-01 -1.452445e+00 -8.272867e-01 -2.099065e-01 -5.349964e-01 6.361719e-01 1.346182e-01 -7.898853e-02 7.426186e-02 -4.143159e-01 -2.684162e-01 3.165826e-01 -8.097143e-02 -1.478746e-03 -1.583363e-01 -1.141679e-03 1.386845e-01 7.050735e-02 3.228785e-01
<VARIANCE> 39
 7.393829e+01 2.546191e+01 9.745435e+00 2.073625e+01 2.058076e+01 1.924104e+01 3.175331e+01 2.943613e+01 3.228417e+01 2.142830e+01 2.016845e+01 1.658499e+01 1.206987e+01 2.083570e+00 2.231004e+00 1.306690e+00 2.364659e+00 2.025829e+00 1.630965e+00 1.801332e+00 1.687163e+00 2.803646e+00 1.766071e+00 1.598043e+00 1.295860e+00 1.244666e+00 1.376041e+00 6.624695e-01 1.795847e-01 3.498709e-01 3.227885e-01 2.951052e-01 5.217884e-01 3.791411e-01 6.601512e-01 3.775418e-01 2.724220e-01 2.253600e-01 1.649258e-01
<GCONST> 1.068950e+02
<TRANSP> 5
 0.000000e+00 1.000000e+00 0.000000e+00 0.000000e+00 0.000000e+00
 0.000000e+00 7.379122e-01 2.620878e-01 0.000000e+00 0.000000e+00
 0.000000e+00 0.000000e+00 8.808082e-01 1.191918e-01 0.000000e+00
 0.000000e+00 0.000000e+00 0.000000e+00 7.652958e-01 2.347042e-01
 0.000000e+00 0.000000e+00 0.000000e+00 0.000000e+00 0.000000e+00
<ENDHMM>
~h "sp"
<BEGINHMM>
<NUMSTATES> 3
<STATE> 2
~s "silst"
<TRANSP> 3
 0.000000e+00 3.017839e-01 6.982161e-01
 0.000000e+00 8.749763e-01 1.250238e-01
 0.000000e+00 0.000000e+00 0.000000e+00
<ENDHMM>
~h "uu"
<BEGINHMM>
<NUMSTATES> 5
<STATE> 2
<MEAN> 39
 7.275694e+00 -9.809557e+00 4.898946e+00 -7.507384e+00 -8.046451e+00 -4.091299e+00 -1.032050e+01 -5.039689e-01 6.769790e+00 -2.761290e+00 -6.310230e-01 -6.392434e+00 7.294328e+01 3.347811e-01 -7.891954e-01 -3.071543e-01 -1.244007e+00 1.956844e-01 1.668454e+00 -6.460567e-01 3.164502e-01 1.696005e-01 -5.930436e-02 4.309596e-01 -5.554539e-03 6.143522e-01 -3.194103e-01 7.114963e-01 -2.093474e-01 4.452312e-01 1.573364e-01 6.382301e-02 9.508905e-01 -5.126783e-01 -1.939242e-01 -6.319125e-02 2.828829e-02 2.587762e-01 -5.946777e-01
<VARIANCE> 39
 2.194329e+00 2.472865e+01 3.986491e+01 1.931210e+01 5.339104e+01 3.883702e+01 2.484029e+01 2.726091e+01 4.355219e+01 1.888592e+01 1.428254e+01 2.000745e+01 6.853382e+00 5.318819e-01 3.188170e+00 2.584316e+00 2.301175e+00 2.291281e+00 1.701059e+00 3.968108e+00 2.861865e+00 2.138709e+00 1.600677e+00 1.702513e+00 1.180937e+00 1.433125e+00 4.252265e-01 4.030528e-01 4.150766e-01 2.571965e-01 5.293676e-01 3.548678e-01 2.864999e-01 4.742658e-01 6.922053e-01 2.543898e-01 3.633178e-01 2.167808e-01 7.593566e-02
<GCONST> 1.046294e+02
<STATE> 3
<MEAN> 39
 9.045671e+00 -6.179253e+00 -1.183199e+00 -1.410760e+01 -4.984901e+00 4.950794e+00 -8.372739e+00 -4.604990e+00 3.622079e+00 -2.084480e+00 2.850438e+00 -3.411039e+00 7.211816e+01 3.496479e-01 1.599330e+00 -5.904031e-01 -6.767967e-01 -2.851378e-01 1.852945e-01 1.295931e+00 -2.134880e-01 -1.250096e+00 -7.557029e-01 3.734395e-01 1.188547e+00 -6.919563e-01 -2.820325e-02 2.044225e-01 7.983586e-02 2.128511e-01 -5.181593e-02 -4.834777e-01 1.452982e-01 2.335717e-01 -1.079739e-02 -9.808319e-02 -2.574954e-01 -6.998655e-02 -1.375389e-01
<VARIANCE> 39
 3.253127e+00 2.293699e+01 3.696830e+01 4.025288e+01 3.242467e+01 4.456924e+01 2.448057e+01 2.907999e+01 3.043320e+01 2.403876e+01 2.232089e+01 2.244489e+01 5.831451e+00 7.746027e-02 6.248715e-01 6.643062e-01 1.136911e+00 1.436439e+00 1.939367e+00 1.373306e+00 2.350138e+00 1.503745e+00 1.720790e+00 1.918838e+00 1.071774e+00 1.936550e-01 2.687923e-02 1.595322e-01 1.536788e-01 1.320903e-01 2.430165e-01 2.217979e-01 2.582257e-01 3.118093e-01 2.873372e-01 3.128093e-01 2.313033e-01 3.460007e-01 2.774595e-02
<GCONST> 8.732294e+01
<STATE> 4
<MEAN> 39
 8.782287e+00 2.687882e+00 -1.099082e+00 -1.333544e+01 -8.068266e+00 -3.193935e+00 -1.072724e+00 -2.442237e+00 -1.406161e+00 -4.686047e+00 2.342313e-01 -1.517970e+00 6.585745e+01 -3.486477e-01 4.001466e-01 2.813804e-01 6.795747e-01 1.184726e-01 -5.423994e-01 4.495034e-01 -1.736815e-01 -8.890791e-03 1.279454e-01 -1.511513e-01 -4.399605e-02 -6.179202e-01 -8.014804e-02 -1.320825e-01 2.715620e-02 8.578089e-02 8.960117e-02 6.395166e-02 -8.055257e-02 -6.082410e-02 9.025472e-02 1.209418e-01 6.328481e-02 -5.354404e-02 1.087025e-02
<VARIANCE> 39
 8.216260e+00 1.433395e+01 1.972802e+01 3.190895e+01 1.900463e+01 2.623143e+01 2.257970e+01 1.964192e+01 2.520287e+01 1.831781e+01 2.014132e+01 2.092731e+01 1.044820e+01 3.319535e-01 1.081701e+00 9.719118e-01 1.004336e+00 1.333749e+00 1.756940e+00 1.574925e+00 1.674635e+00 1.863347e+00 1.294459e+00 1.511615e+00 1.344850e+00 2.186598e-01 2.844397e-02 8.058673e-02 1.331595e-01 1.717926e-01 1.661266e-01 2.602213e-01 2.285293e-01 2.661715e-01 3.278077e-01 2.659449e-01 2.709671e-01 2.661043e-01 2.960728e-02
<GCONST> 8.617900e+01
<TRANSP> 5
 0.000000e+00 1.000000e+00 0.000000e+00 0.000000e+00 0.000000e+00
 0.000000e+00 6.893175e-01 3.106826e-01 0.000000e+00 0.000000e+00
 0.000000e+00 0.000000e+00 7.068674e-01 2.931326e-01 0.000000e+00
 0.000000e+00 0.000000e+00 0.000000e+00 8.734241e-01 1.265759e-01
 0.000000e+00 0.000000e+00 0.000000e+00 0.000000e+00 0.000000e+00
<ENDHMM>
~h "sil"
<BEGINHMM>
<NUMSTATES> 5
<STATE> 2
<MEAN> 39
 -6.790222e+00 -6.369076e+00 2.068228e+00 -5.767096e-01 -5.362905e-01 -3.698680e+00 4.498565e+00 -2.942271e-01 4.628383e+00 -2.316587e+00 1.801969e+00 -6.192759e-01 5.671485e+01 -1.435115e-02 -5.532829e-02 -1.652085e-02 -1.154015e-02 -8.926550e-03 7.211093e-02 -1.184261e-01 -2.609157e-02 7.827426e-02 3.262118e-02 -6.711113e-03 -4.378912e-02 -7.464510e-02 3.495352e-02 7.985841e-02 5.802091e-03 3.172560e-03 2.501140e-02 4.353310e-02 -4.195535e-03 -8.031671e-02 -3.391829e-02 1.273688e-02 7.033361e-03 2.789558e-02 -2.948867e-02
<VARIANCE> 39
 1.199461e+01 2.173891e+01 1.792820e+01 2.521448e+01 2.182846e+01 2.051852e+01 2.188625e+01 2.683040e+01 2.031569e+01 2.197026e+01 1.630405e+01 1.445679e+01 1.285116e+01 6.669088e-01 1.210304e+00 1.246880e+00 1.334780e+00 1.899395e+00 1.597957e+00 1.962697e+00 2.207850e+00 1.893196e+00 1.834329e+00 1.539389e+00 1.462049e+00 7.959251e-01 1.190265e-01 2.076594e-01 2.352986e-01 2.745387e-01 3.546048e-01 3.009315e-01 3.622487e-01 3.831172e-01 3.653592e-01 3.698013e-01 2.860664e-01 2.844154e-01 1.139917e-01
<GCONST> 9.731686e+01
<STATE> 3
~s "silst"
<STATE> 4
<MEAN> 39
 -6.468669e+00 -3.685547e+00 1.265299e+00 -6.775741e-01 1.041287e+00 -2.091863e+00 4.859541e+00 -2.517693e+00 2.740754e+00 -2.095804e+00 2.389235e+00 1.895751e-01 5.467698e+01 -1.279075e-02 1.830161e-02 1.025998e-02 -1.243933e-02 4.404427e-03 4.169879e-03 -8.832690e-03 -2.665586e-02 -2.705722e-02 -7.536104e-03 1.130772e-02 1.106298e-02 -1.465999e-02 -2.571016e-03 -1.378728e-02 -1.025884e-04 -7.028365e-03 -1.374772e-02 -7.217702e-03 -3.179996e-03 9.226727e-03 1.029871e-02 1.309770e-03 -1.010306e-02 -8.172226e-03 1.135631e-02
<VARIANCE> 39
 1.516491e+00 4.557817e+00 7.035810e+00 7.616800e+00 1.073776e+01 1.221238e+01 1.374054e+01 1.503877e+01 1.594989e+01 1.356827e+01 1.318033e+01 1.143694e+01 2.102144e+00 1.134234e-01 2.456813e-01 4.145586e-01 6.279559e-01 8.375918e-01 1.000666e+00 1.267257e+00 1.392785e+00 1.468293e+00 1.318367e+00 1.290799e+00 1.124386e+00 4.187177e-02 2.323909e-02 4.794309e-02 8.193272e-02 1.278118e-01 1.731235e-01 2.059067e-01 2.572993e-01 2.867166e-01 3.048221e-01 2.704029e-01 2.653525e-01 2.302712e-01 8.433458e-03
<GCONST> 6.489385e+01
<TRANSP> 5
 0.000000e+00 1.000000e+00 0.000000e+00 0.000000e+00 0.000000e+00
 0.000000e+00 7.187095e-01 1.423788e-01 1.389117e-01 0.000000e+00
 0.000000e+00 0.000000e+00 9.016553e-01 9.834470e-02 0.000000e+00
 0.000000e+00 1.916986e-02 0.000000e+00 9.512919e-01 2.953833e-02
 0.000000e+00 0.000000e+00 0.000000e+00 0.000000e+00 0.000000e+00
<ENDHMM>
~h "txh"
<BEGINHMM>
<NUMSTATES> 5
<STATE> 2
<MEAN> 39
 9.305459e+00 -1.815804e+01 -9.564487e+00 -7.373228e+00 -1.209725e+00 5.782325e+00 4.174723e+00 -6.193652e+00 1.818511e-01 -4.110579e+00 -2.314332e-01 -1.203913e+01 7.578520e+01 2.300686e-01 -3.069279e-01 -3.155850e-02 7.371873e-01 -4.585922e-01 -1.146638e+00 -2.715041e-01 1.555956e+00 2.808080e-01 -6.499907e-01 -1.930284e-01 4.901421e-01 -8.398557e-02 -3.588225e-02 9.151542e-03 1.186600e-01 6.310017e-02 -7.539514e-02 -3.554252e-01 -7.445892e-02 3.154999e-01 1.439577e-01 -1.464548e-01 -1.074622e-02 1.730726e-01 -5.530362e-02
<VARIANCE> 39
 2.808869e+00 4.682316e+01 2.125199e+01 1.346694e+01 1.391657e+01 2.422216e+01 4.519892e+01 8.627441e+01 4.443827e+01 1.731063e+01 1.223054e+01 1.301350e+01 6.527922e+00 1.488809e-01 4.593217e-01 6.097499e-01 7.927996e-01 8.417207e-01 1.855966e+00 1.581412e+00 2.819510e+00 1.620438e+00 1.235525e+00 7.769192e-01 8.672648e-01 1.546522e-01 3.041076e-02 1.209192e-01 8.255271e-02 1.125434e-01 1.498649e-01 1.938802e-01 2.625293e-01 3.468028e-01 2.340843e-01 1.960573e-01 1.525212e-01 1.537801e-01 2.871087e-02
<GCONST> 8.025386e+01
<STATE> 3
<MEAN> 39
 1.034509e+01 -1.896660e+01 -6.447843e+00 -1.160279e+00 -6.252162e+00 -9.784025e+00 -1.698550e-01 8.196074e+00 5.099141e+00 -1.063342e+01 -1.301957e+00 -4.255256e+00 7.405583e+01 -1.283823e-01 1.509922e+00 6.995174e-01 1.089558e+00 -3.882895e-01 -2.297452e+00 -3.578710e-01 5.930978e-01 8.261521e-01 -3.059213e-01 2.665538e-01 1.530911e+00 -1.284824e+00 -2.809058e-01 4.114174e-01 -9.169853e-02 -1.891273e-01 5.604112e-01 8.669957e-01 2.144869e-01 -8.781285e-01 -2.912398e-01 4.670390e-01 4.616450e-02 -3.802904e-01 -3.352867e-01
<VARIANCE> 39
 3.474512e+00 2.365249e+01 1.461133e+01 1.732718e+01 2.119221e+01 4.294865e+01 4.796132e+01 2.439377e+01 2.583228e+01 1.407993e+01 1.302233e+01 2.222320e+01 9.600661e+00 4.954110e-01 1.757860e+00 8.602555e-01 8.854936e-01 2.653811e+00 4.138000e+00 2.313974e+00 5.197592e+00 2.010361e+00 1.810869e+00 1.359261e+00 1.517732e+00 5.440011e-01 6.323319e-02 2.106058e-01 1.966686e-01 2.526023e-01 3.768184e-01 6.857122e-01 5.161455e-01 4.280037e-01 3.211959e-01 2.537693e-01 2.763296e-01 3.917736e-01 3.917555e-02
<GCONST> 9.705087e+01
<STATE> 4
<MEAN> 39
 4.834084e+00 -1.123820e+01 -5.581027e+00 -1.518544e+00 -1.912457e+00 -7.960552e+00 1.702010e+00 3.945428e+00 5.947346e+00 -6.621014e+00 -1.105035e-01 -2.873428e+00 6.539307e+01 -1.240703e+00 4.879400e-01 2.773477e-01 -8.869914e-01 4.904031e-01 1.135156e+00 6.169416e-01 -5.125463e-01 7.782912e-02 8.083345e-01 -2.362382e-03 1.253043e-02 -9.358834e-01 -3.837313e-02 -3.226301e-01 1.554032e-01 -1.162755e-01 -2.140822e-01 2.956381e-02 6.350949e-02 1.565281e-01 -9.013418e-03 -5.391851e-02 -6.763127e-02 2.589914e-02 2.973104e-01
<VARIANCE> 39
 1.316298e+01 1.050297e+01 2.214275e+01 2.116770e+01 1.715374e+01 2.737729e+01 3.519654e+01 2.257491e+01 1.996807e+01 2.176975e+01 1.456078e+01 2.010161e+01 9.325983e+00 4.802294e-01 1.517271e+00 2.690093e+00 1.434981e+00 2.057720e+00 1.870270e+00 2.293566e+00 2.130686e+00 1.902560e+00 1.491598e+00 1.637784e+00 2.207580e+00 1.525975e+00 1.062990e-01 1.935296e-01 5.468590e-01 3.640563e-01 3.266847e-01 4.615197e-01 4.394289e-01 4.175116e-01 3.962356e-01 3.076351e-01 3.465740e-01 4.692918e-01 1.776238e-01
<GCONST> 1.015575e+02
<TRANSP> 5
 0.000000e+00 1.000000e+00 0.000000e+00 0.000000e+00 0.000000e+00
 0.000000e+00 8.770657e-01 1.229343e-01 0.000000e+00 0.000000e+00
 0.000000e+00 0.000000e+00 7.670444e-01 2.329556e-01 0.000000e+00
 0.000000e+00 0.000000e+00 0.000000e+00 8.419853e-01 1.580147e-01
 0.000000e+00 0.000000e+00 0.000000e+00 0.000000e+00 0.000000e+00
<ENDHMM>
