~o
<STREAMINFO> 1 39
<VECSIZE> 39<NULLD><MFCC_D_A_0><DIAGC>
~h "proto0"
<BEGINHMM>
<NUMSTATES> 5
<STATE> 2
<MEAN> 39
 2.451082e-01 -6.500831e+00 1.218807e+00 -5.348786e+00 -3.921381e+00 -2.836216e+00 1.765730e+00 -2.248991e+00 3.054908e+00 -2.057862e+00 2.074588e-02 -4.007521e+00 6.442779e+01 2.811231e-03 -8.102143e-04 1.174539e-03 -2.559601e-03 -1.530747e-03 7.386471e-04 -1.665276e-03 -3.575748e-03 1.329029e-03 4.321719e-05 -1.542036e-03 -2.138437e-03 4.424790e-03 -1.904672e-04 1.908029e-04 2.605479e-05 -3.133344e-04 -3.364114e-04 -2.984818e-04 -4.010595e-04 -2.693688e-04 -5.560390e-04 9.438242e-06 -7.803247e-04 4.241381e-04 -1.911744e-04
<VARIANCE> 39
 5.811783e+01 5.080816e+01 7.096872e+01 3.876551e+01 5.803509e+01 3.670729e+01 3.958318e+01 3.415085e+01 3.712426e+01 2.281242e+01 2.620248e+01 3.345485e+01 6.328760e+01 1.788508e+00 1.742913e+00 1.962506e+00 1.649476e+00 2.097568e+00 2.044538e+00 2.119288e+00 2.009995e+00 1.890521e+00 1.621311e+00 1.647835e+00 1.716316e+00 1.522314e+00 2.321631e-01 2.557725e-01 2.989713e-01 2.652608e-01 3.493586e-01 3.497536e-01 3.829580e-01 3.592899e-01 3.424576e-01 3.124312e-01 3.059365e-01 3.058270e-01 1.940514e-01
<GCONST> 1.122352e+02
<STATE> 3
<MEAN> 39
 2.451082e-01 -6.500831e+00 1.218807e+00 -5.348786e+00 -3.921381e+00 -2.836216e+00 1.765730e+00 -2.248991e+00 3.054908e+00 -2.057862e+00 2.074588e-02 -4.007521e+00 6.442779e+01 2.811231e-03 -8.102143e-04 1.174539e-03 -2.559601e-03 -1.530747e-03 7.386471e-04 -1.665276e-03 -3.575748e-03 1.329029e-03 4.321719e-05 -1.542036e-03 -2.138437e-03 4.424790e-03 -1.904672e-04 1.908029e-04 2.605479e-05 -3.133344e-04 -3.364114e-04 -2.984818e-04 -4.010595e-04 -2.693688e-04 -5.560390e-04 9.438242e-06 -7.803247e-04 4.241381e-04 -1.911744e-04
<VARIANCE> 39
 5.811783e+01 5.080816e+01 7.096872e+01 3.876551e+01 5.803509e+01 3.670729e+01 3.958318e+01 3.415085e+01 3.712426e+01 2.281242e+01 2.620248e+01 3.345485e+01 6.328760e+01 1.788508e+00 1.742913e+00 1.962506e+00 1.649476e+00 2.097568e+00 2.044538e+00 2.119288e+00 2.009995e+00 1.890521e+00 1.621311e+00 1.647835e+00 1.716316e+00 1.522314e+00 2.321631e-01 2.557725e-01 2.989713e-01 2.652608e-01 3.493586e-01 3.497536e-01 3.829580e-01 3.592899e-01 3.424576e-01 3.124312e-01 3.059365e-01 3.058270e-01 1.940514e-01
<GCONST> 1.122352e+02
<STATE> 4
<MEAN> 39
 2.451082e-01 -6.500831e+00 1.218807e+00 -5.348786e+00 -3.921381e+00 -2.836216e+00 1.765730e+00 -2.248991e+00 3.054908e+00 -2.057862e+00 2.074588e-02 -4.007521e+00 6.442779e+01 2.811231e-03 -8.102143e-04 1.174539e-03 -2.559601e-03 -1.530747e-03 7.386471e-04 -1.665276e-03 -3.575748e-03 1.329029e-03 4.321719e-05 -1.542036e-03 -2.138437e-03 4.424790e-03 -1.904672e-04 1.908029e-04 2.605479e-05 -3.133344e-04 -3.364114e-04 -2.984818e-04 -4.010595e-04 -2.693688e-04 -5.560390e-04 9.438242e-06 -7.803247e-04 4.241381e-04 -1.911744e-04
<VARIANCE> 39
 5.811783e+01 5.080816e+01 7.096872e+01 3.876551e+01 5.803509e+01 3.670729e+01 3.958318e+01 3.415085e+01 3.712426e+01 2.281242e+01 2.620248e+01 3.345485e+01 6.328760e+01 1.788508e+00 1.742913e+00 1.962506e+00 1.649476e+00 2.097568e+00 2.044538e+00 2.119288e+00 2.009995e+00 1.890521e+00 1.621311e+00 1.647835e+00 1.716316e+00 1.522314e+00 2.321631e-01 2.557725e-01 2.989713e-01 2.652608e-01 3.493586e-01 3.497536e-01 3.829580e-01 3.592899e-01 3.424576e-01 3.124312e-01 3.059365e-01 3.058270e-01 1.940514e-01
<GCONST> 1.122352e+02
<TRANSP> 5
 0.000000e+00 1.000000e+00 0.000000e+00 0.000000e+00 0.000000e+00
 0.000000e+00 6.000000e-01 4.000000e-01 0.000000e+00 0.000000e+00
 0.000000e+00 0.000000e+00 6.000000e-01 4.000000e-01 0.000000e+00
 0.000000e+00 0.000000e+00 0.000000e+00 7.000000e-01 3.000000e-01
 0.000000e+00 0.000000e+00 0.000000e+00 0.000000e+00 0.000000e+00
<ENDHMM>
