~o
<STREAMINFO> 1 39
<VECSIZE> 39<NULLD><MFCC_D_A_0><DIAGC>
~h "a"
<BEGINHMM>
<NUMSTATES> 5
<STATE> 2
<MEAN> 39
 -3.110324e-01 -6.286297e+00 6.322899e-01 -2.765767e+00 -2.514375e+00 -6.662065e+00 7.287098e-01 -2.118333e+00 3.876462e+00 -3.144550e+00 -1.092920e+00 -3.538936e+00 6.258181e+01 -6.275524e-01 5.549340e-01 1.228582e-01 2.817212e-01 3.530202e-01 2.035495e-01 1.168820e-01 -1.927331e-01 1.418980e-01 -8.395305e-02 2.739101e-01 4.853745e-01 -7.384843e-01 -2.361214e-02 -1.755736e-01 -1.688883e-02 -1.259983e-01 -1.519904e-03 1.100794e-01 6.358585e-02 8.969038e-02 -5.928306e-02 6.272533e-02 1.186897e-02 -5.447553e-02 1.070775e-01
<VARIANCE> 39
 3.822453e+01 2.907830e+01 2.834175e+01 1.621966e+01 2.050051e+01 2.327745e+01 2.829318e+01 2.621567e+01 2.145830e+01 1.763546e+01 2.044252e+01 2.044767e+01 2.234270e+01 9.291983e-01 1.878004e+00 1.006395e+00 1.209904e+00 1.393852e+00 1.468212e+00 1.592217e+00 1.886766e+00 1.576174e+00 1.823952e+00 1.559196e+00 1.568313e+00 6.380537e-01 1.411363e-01 2.897004e-01 2.117440e-01 2.626937e-01 3.069907e-01 3.266750e-01 3.391829e-01 3.692110e-01 3.246047e-01 3.415412e-01 3.071700e-01 3.312862e-01 1.120037e-01
<GCONST> 9.960960e+01
<STATE> 3
<MEAN> 39
 -2.506570e+00 -5.002778e+00 1.522657e+00 -2.334988e+00 -1.499176e+00 -5.676543e+00 1.852744e+00 -2.100027e+00 3.333553e+00 -3.436970e+00 -3.948751e-02 -1.900182e+00 6.115536e+01 -5.299149e-01 -4.501879e-03 8.126816e-02 2.391301e-02 3.686470e-01 4.123375e-01 1.340546e-01 -6.281517e-02 -1.702053e-02 -2.157620e-02 1.861259e-01 1.647877e-01 -2.789162e-01 1.399834e-01 -2.453192e-01 -1.082822e-02 -2.274674e-01 -9.563468e-02 1.120108e-01 -3.646090e-02 5.297534e-03 -9.571016e-02 6.548481e-02 -1.094691e-01 -2.789253e-01 2.829145e-01
<VARIANCE> 39
 3.489512e+01 2.488272e+01 2.422538e+01 1.546876e+01 2.063903e+01 2.235026e+01 2.279723e+01 2.534952e+01 1.774744e+01 1.931447e+01 2.260335e+01 2.157333e+01 2.199816e+01 1.399393e+00 2.167532e+00 1.129549e+00 1.326097e+00 1.587638e+00 1.520644e+00 1.945331e+00 1.692346e+00 1.804825e+00 1.654416e+00 1.425173e+00 1.510599e+00 7.463202e-01 1.951410e-01 3.699227e-01 2.358173e-01 2.963720e-01 3.613147e-01 3.210546e-01 3.370298e-01 3.568979e-01 3.541136e-01 3.669991e-01 3.295673e-01 3.800485e-01 1.772225e-01
<GCONST> 1.017260e+02
<STATE> 4
<MEAN> 39
 -2.411696e+00 -4.933518e+00 1.489436e+00 -2.466847e+00 -1.019688e+00 -5.202788e+00 1.923046e+00 -2.480006e+00 2.855090e+00 -3.605896e+00 -3.508648e-01 -2.577378e+00 6.136278e+01 5.766797e-02 -6.528194e-01 -4.752301e-02 -5.059767e-01 1.579974e-01 5.606982e-01 -1.606328e-01 -1.649111e-01 -1.960163e-01 1.549645e-01 -6.886327e-02 -6.255534e-01 5.871859e-01 2.530621e-01 -3.165247e-01 6.149240e-03 -3.427730e-01 -2.077316e-01 1.124688e-01 -1.714528e-01 -8.135384e-03 -8.739217e-02 1.165342e-01 -6.159412e-02 -3.099392e-01 4.224313e-01
<VARIANCE> 39
 3.793097e+01 2.600377e+01 2.380620e+01 1.540371e+01 2.032619e+01 2.481799e+01 2.585372e+01 2.333211e+01 2.095376e+01 1.829439e+01 2.041553e+01 2.334913e+01 2.244491e+01 3.100399e+00 3.772861e+00 1.684314e+00 2.083599e+00 2.261854e+00 2.415874e+00 2.644612e+00 1.727561e+00 2.401312e+00 1.745257e+00 1.686171e+00 2.644551e+00 2.130285e+00 3.903627e-01 4.162987e-01 3.280419e-01 3.450694e-01 4.325635e-01 3.803748e-01 3.843469e-01 3.336040e-01 3.915697e-01 3.289763e-01 3.091092e-01 4.738390e-01 2.605841e-01
<GCONST> 1.097754e+02
<TRANSP> 5
 0.000000e+00 1.000000e+00 0.000000e+00 0.000000e+00 0.000000e+00
 0.000000e+00 5.331661e-01 4.668340e-01 0.000000e+00 0.000000e+00
 0.000000e+00 0.000000e+00 2.650271e-01 7.349729e-01 0.000000e+00
 0.000000e+00 0.000000e+00 0.000000e+00 2.549653e-01 7.450348e-01
 0.000000e+00 0.000000e+00 0.000000e+00 0.000000e+00 0.000000e+00
<ENDHMM>
~h "c"
<BEGINHMM>
<NUMSTATES> 5
<STATE> 2
<MEAN> 39
 3.939406e+00 -8.218819e+00 -6.849960e+00 -6.716971e+00 -5.035277e-01 -4.958538e+00 1.910689e+00 -1.002090e+00 3.959873e+00 -1.550754e+00 -1.614576e+00 -7.576094e+00 6.530375e+01 -1.407795e+00 5.443833e-01 -4.881892e-01 -1.352771e-01 1.246344e-01 3.189383e-01 1.132895e+00 -3.810056e-01 3.984036e-01 -8.506353e-02 3.022869e-01 6.872216e-01 -9.024405e-01 -1.581704e-01 -3.263019e-01 1.562738e-01 -1.978931e-01 -1.008008e-01 -1.095203e-01 1.719965e-02 2.025273e-01 -9.609798e-02 4.163292e-02 -1.113797e-01 5.716087e-02 2.979783e-01
<VARIANCE> 39
 1.918389e+01 8.671353e+00 1.455835e+01 1.147021e+01 1.541242e+01 2.338786e+01 2.230614e+01 1.825000e+01 1.694794e+01 1.335099e+01 1.403740e+01 1.725165e+01 9.743608e+00 5.126082e-01 1.453235e+00 1.531046e+00 1.725527e+00 1.866224e+00 2.485592e+00 2.243177e+00 2.258984e+00 1.776723e+00 1.930677e+00 1.377302e+00 2.234406e+00 1.183001e+00 8.720238e-02 2.960111e-01 3.255478e-01 3.610883e-01 3.716125e-01 4.837756e-01 5.362831e-01 4.368185e-01 3.877453e-01 4.152067e-01 2.780389e-01 4.774303e-01 1.266702e-01
<GCONST> 9.847566e+01
<STATE> 3
<MEAN> 39
 -6.874832e+00 -5.793339e+00 -2.697912e+00 -6.594387e+00 8.851503e-01 -6.239389e+00 5.769965e+00 -2.756796e-01 2.990556e+00 -1.072196e+00 -2.841423e-01 -2.325688e+00 6.283104e+01 -7.389111e-01 1.139671e-01 5.234779e-01 7.976907e-02 9.922308e-02 -1.771512e-01 5.879590e-02 1.210627e-01 -2.336312e-01 -5.689392e-02 1.554687e-01 2.299384e-01 -1.900336e-01 1.382424e-01 -4.413434e-02 -2.706323e-03 2.547252e-02 -3.050996e-02 -2.780645e-02 -1.177722e-01 -4.587784e-03 -2.226278e-02 -2.318284e-02 -3.282711e-03 -6.470103e-02 5.744725e-03
<VARIANCE> 39
 2.214540e+01 1.076051e+01 1.726106e+01 1.573776e+01 1.368021e+01 1.723055e+01 1.342095e+01 1.771084e+01 1.638527e+01 1.295324e+01 1.317697e+01 1.600845e+01 1.607486e+01 1.805484e+00 8.463621e-01 8.101492e-01 1.011334e+00 1.102105e+00 1.390939e+00 1.572814e+00 1.785628e+00 1.644581e+00 1.483115e+00 1.214733e+00 1.616779e+00 8.000438e-01 1.795992e-01 1.744153e-01 1.507153e-01 1.879729e-01 1.957699e-01 3.055217e-01 2.935378e-01 3.540184e-01 3.520259e-01 2.961664e-01 2.579755e-01 3.346084e-01 1.323813e-01
<GCONST> 9.136303e+01
<STATE> 4
<MEAN> 39
 -8.653801e+00 -7.723320e+00 -1.589507e+00 -9.028988e+00 8.456736e-01 -6.954127e+00 3.364396e+00 8.531331e-01 1.579467e+00 -1.796219e+00 1.856153e+00 -1.817853e+00 6.419085e+01 -3.329993e-01 9.840929e-02 5.049496e-01 2.143264e-01 7.279857e-02 -2.428363e-01 -4.956686e-01 7.125600e-02 -1.177660e-01 -3.977688e-01 1.289927e-01 2.311967e-01 -9.971602e-02 2.362737e-01 1.664752e-01 -4.484328e-02 1.988046e-01 9.045192e-02 1.476852e-01 -4.520754e-02 -1.115192e-01 8.295941e-02 -1.581589e-02 -9.817262e-02 -1.422728e-01 -1.640309e-01
<VARIANCE> 39
 1.928455e+01 1.326278e+01 1.906968e+01 1.665253e+01 1.965246e+01 2.728785e+01 1.826373e+01 3.078496e+01 1.383563e+01 1.936454e+01 1.688094e+01 1.925381e+01 1.314577e+01 2.373032e+00 1.641786e+00 8.305376e-01 1.401069e+00 1.677019e+00 3.133835e+00 1.925378e+00 2.540981e+00 1.917119e+00 2.485534e+00 1.365807e+00 2.384272e+00 1.224417e+00 2.467585e-01 3.095127e-01 1.683900e-01 2.502398e-01 3.348090e-01 5.840971e-01 3.484983e-01 5.000613e-01 3.868073e-01 5.375819e-01 2.542469e-01 4.724197e-01 1.417999e-01
<GCONST> 1.024912e+02
<TRANSP> 5
 0.000000e+00 1.000000e+00 0.000000e+00 0.000000e+00 0.000000e+00
 0.000000e+00 8.416858e-01 1.583143e-01 0.000000e+00 0.000000e+00
 0.000000e+00 0.000000e+00 8.678629e-01 1.321371e-01 0.000000e+00
 0.000000e+00 0.000000e+00 0.000000e+00 7.197676e-01 2.802324e-01
 0.000000e+00 0.000000e+00 0.000000e+00 0.000000e+00 0.000000e+00
<ENDHMM>
~h "d"
<BEGINHMM>
<NUMSTATES> 5
<STATE> 2
<MEAN> 39
 1.106368e-01 -3.259361e+00 4.666427e+00 -2.618449e+00 -8.999928e-01 -4.820486e+00 1.334188e+00 -3.911914e+00 -7.015396e-01 -6.201467e+00 -2.549882e+00 -5.206319e+00 6.214769e+01 1.110809e+00 -1.562569e+00 8.210931e-01 -1.564691e+00 -1.178776e+00 -2.150289e-01 -1.380558e+00 -1.217521e-01 -1.650019e-01 5.469012e-02 -9.878820e-02 -8.908321e-01 2.418581e+00 3.524462e-01 -6.168742e-02 -5.324437e-02 -4.318385e-01 -3.684213e-01 1.513891e-01 -4.303304e-01 -2.681426e-01 -7.741033e-02 5.881908e-01 4.516394e-01 -1.091775e-01 3.263105e-01
<VARIANCE> 39
 2.305447e+01 7.423017e+01 1.213774e+01 3.091964e+01 1.143402e+01 1.263553e+01 1.217640e+01 1.720066e+01 1.442343e+01 1.374931e+01 1.856116e+01 1.529837e+01 3.012601e+01 2.799364e+00 7.082778e+00 1.314368e+00 3.948614e+00 2.221055e+00 1.544640e+00 2.373605e+00 2.270348e+00 1.662672e+00 2.953750e+00 2.508210e+00 2.543819e+00 2.971592e+00 5.235260e-01 1.226714e+00 2.635826e-01 4.679172e-01 3.531879e-01 4.148048e-01 3.783050e-01 4.680829e-01 3.712773e-01 5.060965e-01 4.043584e-01 4.280264e-01 5.095736e-01
<GCONST> 1.115087e+02
<STATE> 3
<MEAN> 39
 5.773739e+00 -1.140231e+01 6.912866e+00 -1.262127e+01 -8.418664e+00 -4.881255e+00 -8.414854e+00 -6.295289e+00 -9.607470e-01 -5.046531e-01 2.522886e+00 -8.649778e+00 7.342484e+01 2.304592e+00 -5.427918e-01 1.760966e-02 -2.729050e+00 -2.371251e+00 1.670850e+00 -2.480872e+00 -1.683098e+00 -1.446645e+00 2.968298e+00 2.514398e+00 -1.441313e+00 2.076731e+00 -2.635321e-01 9.061309e-01 -4.115936e-01 2.559663e-01 3.943065e-01 7.232850e-01 8.241265e-01 -2.154026e-01 -4.319607e-01 1.017233e-01 1.485369e-01 2.724558e-01 -9.972160e-01
<VARIANCE> 39
 7.480511e+00 1.022940e+01 7.477852e+00 1.304362e+01 9.786970e+00 1.295696e+01 1.468822e+01 1.316883e+01 1.004250e+01 1.826209e+01 1.579875e+01 9.928850e+00 7.692383e+00 1.134996e+00 3.452366e+00 1.045904e+00 1.851301e+00 9.861722e-01 2.492870e+00 1.282382e+00 1.548917e+00 1.571945e+00 1.575063e+00 1.153281e+00 1.348326e+00 1.468274e+00 3.028932e-01 3.513108e-01 1.519975e-01 2.314108e-01 2.332760e-01 3.435867e-01 4.078032e-01 2.785353e-01 2.809530e-01 6.385244e-01 3.319553e-01 3.962388e-01 1.310893e-01
<GCONST> 9.228881e+01
<STATE> 4
<MEAN> 39
 8.057225e+00 -1.183857e+01 5.729065e+00 -1.685026e+01 -1.139057e+01 1.093401e+00 -9.208998e+00 -8.431029e+00 -5.455512e+00 4.413944e+00 7.628518e+00 -1.029162e+01 7.481166e+01 7.193997e-01 6.282651e-01 -8.332507e-01 -2.122128e+00 -7.676981e-01 2.532632e+00 5.505797e-01 -1.344760e+00 -1.711720e+00 1.394785e+00 1.342185e+00 -6.814361e-03 1.337752e-01 -5.065691e-01 5.128232e-01 -2.553929e-01 3.066243e-01 6.668653e-01 -1.147780e-01 9.877297e-01 1.885236e-01 2.317811e-01 -9.194219e-01 -7.181319e-01 7.253262e-01 -6.688139e-01
<VARIANCE> 39
 1.531026e+00 4.565329e+00 5.913424e+00 1.029934e+01 6.386042e+00 1.285986e+01 5.262081e+00 8.799180e+00 1.117367e+01 1.205042e+01 9.258738e+00 5.215869e+00 3.084949e+00 4.327366e-01 6.726030e-01 6.978253e-01 6.466250e-01 9.272994e-01 1.434438e+00 1.175516e+00 8.335892e-01 8.642979e-01 1.958391e+00 1.079266e+00 1.063961e+00 4.031084e-01 9.339131e-02 2.096218e-01 1.349552e-01 1.285947e-01 1.236978e-01 2.646634e-01 1.477114e-01 2.454955e-01 2.306989e-01 2.023922e-01 1.763842e-01 1.580637e-01 7.677250e-02
<GCONST> 6.993738e+01
<TRANSP> 5
 0.000000e+00 1.000000e+00 0.000000e+00 0.000000e+00 0.000000e+00
 0.000000e+00 7.842820e-01 2.157179e-01 0.000000e+00 0.000000e+00
 0.000000e+00 0.000000e+00 4.806198e-01 5.193802e-01 0.000000e+00
 0.000000e+00 0.000000e+00 0.000000e+00 4.778805e-01 5.221195e-01
 0.000000e+00 0.000000e+00 0.000000e+00 0.000000e+00 0.000000e+00
<ENDHMM>
~h "h"
<BEGINHMM>
<NUMSTATES> 5
<STATE> 2
<MEAN> 39
 -6.352399e+00 -6.904416e+00 3.622085e-01 -5.373184e+00 -5.607502e-01 -8.725661e+00 5.132940e+00 -1.068852e+00 2.939254e+00 -1.288439e+00 -2.512158e+00 -5.560092e+00 6.511359e+01 4.351345e+00 -4.053840e-01 -5.565169e-01 -1.272798e+00 -1.400865e+00 5.786686e-01 -1.319367e+00 -1.523914e+00 -8.160647e-01 5.983036e-01 -1.685817e+00 -2.567828e+00 1.313416e+00 6.207638e-01 -5.802154e-01 -1.418656e-01 -5.977749e-01 -3.955344e-02 4.739002e-01 -4.631971e-01 1.281265e-02 -1.866927e-01 2.822894e-01 -3.214876e-02 -4.928119e-01 8.002287e-01
<VARIANCE> 39
 3.539869e+01 1.150227e+01 1.218014e+01 1.054222e+01 1.670869e+01 1.514330e+01 1.640635e+01 1.715799e+01 1.575580e+01 1.479240e+01 2.190611e+01 2.371987e+01 6.279418e+00 2.136850e+00 2.289118e+00 1.263139e+00 1.757202e+00 1.113968e+00 1.584282e+00 2.398746e+00 1.596657e+00 1.390831e+00 1.710480e+00 1.142382e+00 1.699885e+00 1.999647e+00 7.603774e-01 4.149912e-01 2.250349e-01 1.856591e-01 3.459860e-01 3.041723e-01 2.964787e-01 4.443042e-01 3.138017e-01 3.022933e-01 3.930400e-01 4.609794e-01 1.401117e-01
<GCONST> 9.913972e+01
<STATE> 3
<MEAN> 39
 7.709908e+00 -1.516905e+01 -2.043348e+00 -1.372893e+01 -3.772476e+00 -2.513802e+00 -1.127618e+00 -3.247159e+00 7.981275e-01 3.543567e+00 -5.892721e+00 -1.510775e+01 7.477901e+01 1.564003e+00 -2.056354e+00 -5.752696e-01 -1.562818e+00 -6.129508e-02 2.098171e+00 -4.226927e-01 6.774697e-01 -2.936918e-01 5.086225e-01 -4.802197e-01 -1.411973e+00 1.541625e+00 -9.889803e-01 4.463100e-01 3.536735e-02 5.789728e-01 3.917540e-01 -7.692099e-02 7.042781e-01 3.827074e-01 6.453657e-02 -4.669024e-01 1.593985e-01 7.349298e-01 -6.722008e-01
<VARIANCE> 39
 2.142032e+00 2.879383e+01 1.317498e+01 1.048473e+01 7.672489e+00 1.803510e+01 1.371270e+01 1.438269e+01 9.617996e+00 1.752177e+01 8.319684e+00 9.908636e+00 7.499978e+00 3.083299e+00 2.521056e+00 1.000988e+00 1.638079e+00 1.215949e+00 1.423942e+00 2.250977e+00 1.238072e+00 1.057571e+00 1.859242e+00 9.623529e-01 2.118076e+00 1.980564e+00 3.077012e-01 5.900550e-01 2.390124e-01 2.340987e-01 1.824024e-01 3.490493e-01 2.413613e-01 3.738436e-01 2.247224e-01 2.385895e-01 1.944914e-01 1.843956e-01 1.656988e-01
<GCONST> 9.088599e+01
<STATE> 4
<MEAN> 39
 7.934634e+00 -1.455182e+01 -4.933186e+00 -1.175207e+01 1.417825e+00 2.407486e+00 3.006465e+00 -7.833679e-01 -1.806804e+00 -1.184184e+00 -6.478035e+00 -1.241809e+01 7.244798e+01 -4.390207e-02 1.378685e-01 -6.814269e-02 1.350598e-01 1.668140e-01 1.337504e-02 -2.668965e-02 4.031856e-02 6.386463e-02 -1.795801e-01 5.345533e-02 1.524267e-01 -1.739949e-01 -3.694222e-02 5.275796e-02 4.107032e-02 3.108144e-02 -3.385122e-02 -8.468221e-02 -4.028760e-02 -3.253329e-02 5.057432e-02 3.367021e-02 2.097399e-02 1.747310e-02 -3.040487e-02
<VARIANCE> 39
 5.609423e+00 3.112487e+01 1.309679e+01 2.578846e+01 1.484695e+01 1.798244e+01 2.638448e+01 1.459666e+01 1.476459e+01 1.195390e+01 1.480827e+01 1.342628e+01 1.293136e+01 4.769499e-01 2.508991e+00 1.094982e+00 2.636052e+00 1.275214e+00 1.260151e+00 2.069718e+00 1.149082e+00 1.426383e+00 1.150498e+00 1.049725e+00 1.204648e+00 1.087919e+00 8.902359e-02 3.627352e-01 2.118312e-01 4.364666e-01 2.169223e-01 2.471371e-01 2.858939e-01 2.197521e-01 2.703591e-01 1.997929e-01 1.975236e-01 1.937381e-01 1.458572e-01
<GCONST> 9.100853e+01
<TRANSP> 5
 0.000000e+00 1.000000e+00 0.000000e+00 0.000000e+00 0.000000e+00
 0.000000e+00 6.711864e-01 3.288135e-01 0.000000e+00 0.000000e+00
 0.000000e+00 0.000000e+00 7.346565e-01 2.653435e-01 0.000000e+00
 0.000000e+00 0.000000e+00 0.000000e+00 9.556025e-01 4.439748e-02
 0.000000e+00 0.000000e+00 0.000000e+00 0.000000e+00 0.000000e+00
<ENDHMM>
~h "k"
<BEGINHMM>
<NUMSTATES> 5
<STATE> 2
<MEAN> 39
 5.374349e+00 -6.672748e+00 1.563467e+01 -5.665275e+00 -1.848734e+01 -1.280091e+01 6.648964e-02 -5.362928e+00 -9.993663e+00 2.175076e+00 2.891496e+00 -9.742158e+00 6.944561e+01 -6.491107e-01 1.982496e+00 -3.752554e-01 1.216110e+00 1.136142e+00 3.379091e-01 3.174147e-01 -1.188285e+00 6.975418e-01 -6.109736e-01 1.279271e-02 5.384263e-01 -1.750916e+00 -2.736912e-01 -8.475496e-02 -5.821248e-02 1.228876e-01 8.714520e-02 1.656075e-01 -1.547963e-01 -1.870887e-01 2.577664e-01 -1.927613e-01 2.432041e-01 5.599393e-01 -2.054721e-01
<VARIANCE> 39
 2.301672e+00 1.626391e+01 5.795337e+00 1.050671e+01 1.081552e+01 8.642205e+00 8.770590e+00 1.056604e+01 1.382682e+01 1.083167e+01 1.523597e+01 6.889453e+00 9.409908e+00 3.449883e-01 6.392654e-01 5.117307e-01 1.179878e+00 9.691508e-01 9.309521e-01 1.115988e+00 1.162420e+00 1.314461e+00 9.927591e-01 1.098311e+00 1.608553e+00 4.273451e-01 3.512841e-02 2.280507e-01 1.464158e-01 2.356140e-01 2.141596e-01 2.118712e-01 2.447290e-01 2.100326e-01 2.599703e-01 2.537838e-01 2.174415e-01 2.033255e-01 5.889523e-02
<GCONST> 7.558235e+01
<STATE> 3
<MEAN> 39
 -1.604943e-01 -1.985657e+00 1.129829e+01 -1.894706e+00 -1.343239e+01 -1.142502e+01 -7.010053e-01 -1.080942e+01 -5.459582e+00 6.331111e-01 6.426139e+00 -1.850539e+00 6.124327e+01 -9.403344e-01 7.425481e-02 -1.218363e+00 4.946768e-02 7.467621e-01 6.362368e-02 -3.019633e-01 -3.084710e-01 9.899417e-01 1.525628e-01 7.435443e-01 1.520175e+00 -1.058769e+00 1.641971e-01 -4.145381e-01 -1.398681e-01 -2.209306e-01 1.912132e-02 2.315585e-02 3.007141e-02 3.529925e-01 -1.569488e-02 1.288313e-01 -2.481042e-01 -2.567352e-01 3.645015e-01
<VARIANCE> 39
 4.554989e+00 5.389463e+00 1.934134e+01 8.592168e+00 1.382720e+01 1.144450e+01 1.470061e+01 1.358692e+01 1.506110e+01 1.181865e+01 2.669954e+01 2.042970e+01 5.119583e+00 3.806093e-01 6.110954e-01 7.392492e-01 1.403224e+00 1.308444e+00 1.409527e+00 1.376242e+00 1.321139e+00 1.294625e+00 1.198088e+00 2.403452e+00 2.071397e+00 4.151721e-01 6.378008e-02 2.183775e-01 1.933234e-01 3.262055e-01 3.277547e-01 2.985598e-01 3.287484e-01 2.374679e-01 2.673841e-01 2.525444e-01 5.141470e-01 4.452247e-01 5.149113e-02
<GCONST> 8.537384e+01
<STATE> 4
<MEAN> 39
 -1.863156e+00 -8.735700e+00 2.685035e+00 -2.804317e+00 -7.374454e+00 -9.011312e+00 -3.873972e-01 -7.881823e+00 -9.932437e-01 1.451324e+00 4.149734e+00 -4.357376e-01 6.227565e+01 6.986047e-02 -8.996106e-01 -1.212235e+00 1.375567e-01 1.194958e+00 3.211010e-01 1.753258e-01 7.215523e-01 5.716247e-01 -7.760412e-02 -8.685449e-01 -5.513933e-01 3.839109e-01 -3.893140e-02 3.114256e-01 2.830783e-01 8.910283e-02 -5.889400e-02 1.692129e-02 6.758144e-02 -3.927374e-02 -5.787905e-02 -1.674629e-01 5.653752e-02 -3.449345e-02 -1.413006e-01
<VARIANCE> 39
 7.327055e+00 5.135330e+01 4.269113e+01 1.477622e+01 2.750709e+01 2.402263e+01 1.595088e+01 1.905651e+01 2.719285e+01 3.130082e+01 2.681107e+01 2.400673e+01 2.026887e+01 8.222703e-01 8.186998e+00 4.563186e+00 1.281954e+00 2.226929e+00 1.844515e+00 1.586470e+00 1.824618e+00 1.786822e+00 3.038840e+00 2.411729e+00 2.597732e+00 3.115398e+00 2.025023e-01 1.653417e+00 8.939658e-01 2.736020e-01 4.250168e-01 3.744113e-01 3.305516e-01 3.653395e-01 3.598158e-01 6.760761e-01 5.677404e-01 6.312056e-01 6.996484e-01
<GCONST> 1.140487e+02
<TRANSP> 5
 0.000000e+00 1.000000e+00 0.000000e+00 0.000000e+00 0.000000e+00
 0.000000e+00 7.475191e-01 2.524808e-01 0.000000e+00 0.000000e+00
 0.000000e+00 0.000000e+00 8.224201e-01 1.775799e-01 0.000000e+00
 0.000000e+00 0.000000e+00 0.000000e+00 8.430007e-01 1.569994e-01
 0.000000e+00 0.000000e+00 0.000000e+00 0.000000e+00 0.000000e+00
<ENDHMM>
~h "n"
<BEGINHMM>
<NUMSTATES> 5
<STATE> 2
<MEAN> 39
 6.020442e+00 1.313149e+00 3.998533e+00 -3.334351e+00 -4.850842e+00 -5.664338e+00 9.176087e-01 -3.906077e+00 3.354360e+00 -4.296770e+00 -3.378091e+00 -4.436118e+00 6.407466e+01 -2.355551e-01 3.652435e-01 1.803123e-01 4.913434e-01 1.614582e-01 -4.163471e-02 2.599706e-01 -1.901607e-01 -5.995805e-02 -2.078974e-02 -5.919930e-02 1.890002e-01 -3.819763e-01 -1.024595e-01 -1.896549e-01 4.813720e-02 -3.394011e-02 8.055692e-02 9.635134e-02 -1.322757e-01 -2.632546e-02 -7.179037e-02 7.583866e-02 1.775638e-01 -1.757662e-02 2.168072e-02
<VARIANCE> 39
 2.628511e+01 2.304364e+01 1.492513e+01 9.890799e+00 2.082929e+01 1.483810e+01 1.754774e+01 1.247622e+01 1.522890e+01 1.311989e+01 1.239057e+01 1.044964e+01 6.241982e+00 4.262798e-01 4.210590e-01 5.967298e-01 8.738591e-01 1.014126e+00 9.603041e-01 1.177781e+00 8.597370e-01 1.137680e+00 8.460748e-01 9.375929e-01 8.537157e-01 2.135928e-01 5.994799e-02 9.017615e-02 1.003172e-01 1.628741e-01 1.362730e-01 1.796224e-01 2.112538e-01 1.728608e-01 1.916076e-01 1.728258e-01 1.667485e-01 1.818058e-01 2.981214e-02
<GCONST> 7.523440e+01
<STATE> 3
<MEAN> 39
 3.446724e+00 1.238374e+00 4.924178e+00 -1.735452e+00 -3.692557e+00 -4.697314e+00 1.426473e+00 -5.083378e+00 2.741895e+00 -4.018727e+00 -2.197795e+00 -3.886367e+00 6.249128e+01 -5.702155e-01 -1.552944e-01 1.105008e-01 5.636528e-01 5.168332e-01 2.163706e-01 1.762527e-02 -1.464139e-01 -1.156920e-01 9.856293e-02 3.089546e-01 1.370564e-01 -4.173007e-01 -9.479339e-02 -2.538356e-01 -3.645253e-02 -8.672474e-02 8.126665e-04 3.941819e-02 -5.240810e-02 8.959037e-02 1.211402e-02 -6.247964e-05 1.170496e-01 2.357176e-02 2.635721e-02
<VARIANCE> 39
 3.856929e+01 3.027244e+01 1.689114e+01 1.326088e+01 2.201182e+01 1.755304e+01 1.542901e+01 1.376321e+01 1.482286e+01 1.293161e+01 1.811445e+01 1.291939e+01 1.014569e+01 7.212617e-01 6.559776e-01 7.424555e-01 8.837164e-01 1.160178e+00 1.110905e+00 9.567243e-01 9.691299e-01 1.169200e+00 1.130529e+00 1.168635e+00 1.151868e+00 2.853677e-01 1.141902e-01 1.103342e-01 1.450117e-01 1.796396e-01 2.077214e-01 2.177137e-01 2.030272e-01 2.314901e-01 2.012485e-01 2.168330e-01 2.325324e-01 2.145685e-01 3.771824e-02
<GCONST> 8.324258e+01
<STATE> 4
<MEAN> 39
 2.755005e-01 1.847669e-01 4.755245e+00 -5.697271e-01 -1.642305e+00 -3.614762e+00 2.259910e+00 -4.989516e+00 1.853640e+00 -3.982478e+00 -9.741855e-01 -2.877372e+00 6.011676e+01 -7.090663e-01 -6.309251e-01 -2.113095e-01 8.719444e-02 2.094842e-01 -3.229484e-03 -4.915398e-02 9.241587e-02 1.979377e-02 -4.742305e-02 3.949705e-01 2.797531e-01 -3.201250e-01 2.943563e-02 -1.610061e-01 1.687081e-02 -1.723311e-01 -1.759647e-01 -7.030731e-02 -9.325106e-02 5.362923e-02 1.642873e-02 -2.273449e-02 4.845982e-03 -1.778741e-02 1.270373e-01
<VARIANCE> 39
 3.319049e+01 2.382062e+01 1.498732e+01 1.304216e+01 1.999152e+01 1.597373e+01 1.535710e+01 1.230442e+01 1.659050e+01 1.273352e+01 1.797532e+01 1.465766e+01 1.336723e+01 8.477111e-01 8.911248e-01 1.018170e+00 1.077988e+00 1.319037e+00 1.448522e+00 1.164224e+00 1.422938e+00 1.063672e+00 1.337312e+00 1.309481e+00 1.386270e+00 2.784598e-01 1.348020e-01 1.976805e-01 2.076627e-01 2.128123e-01 3.080625e-01 3.128288e-01 2.665350e-01 2.608312e-01 2.155707e-01 2.171092e-01 2.431781e-01 2.540967e-01 4.214759e-02
<GCONST> 8.802570e+01
<TRANSP> 5
 0.000000e+00 1.000000e+00 0.000000e+00 0.000000e+00 0.000000e+00
 0.000000e+00 6.023827e-01 3.976174e-01 0.000000e+00 0.000000e+00
 0.000000e+00 0.000000e+00 4.024564e-01 5.975435e-01 0.000000e+00
 0.000000e+00 0.000000e+00 0.000000e+00 5.669649e-01 4.330351e-01
 0.000000e+00 0.000000e+00 0.000000e+00 0.000000e+00 0.000000e+00
<ENDHMM>
~h "o"
<BEGINHMM>
<NUMSTATES> 5
<STATE> 2
<MEAN> 39
 9.357861e+00 -7.210529e+00 2.770794e+00 -2.245552e+01 -1.121978e+01 6.282669e+00 -4.649482e+00 -1.186463e+01 -8.110415e+00 3.441066e+00 7.312246e+00 -6.706362e+00 7.316265e+01 3.452445e-01 1.165612e+00 -8.003979e-01 -8.893634e-01 1.721207e-01 8.940609e-01 1.097017e+00 -2.809153e-01 -1.303299e-01 -7.624680e-01 -4.675421e-01 1.192212e+00 -5.627573e-01 -8.377214e-02 -4.141124e-02 2.992604e-02 4.185748e-01 1.739388e-01 -3.773067e-01 -5.532763e-02 3.407831e-01 3.855574e-01 -3.122751e-01 -2.773846e-01 7.880454e-02 -6.964280e-02
<VARIANCE> 39
 1.619115e+00 6.325569e+00 8.427129e+00 1.215266e+01 7.462050e+00 1.267520e+01 9.296748e+00 6.659463e+00 1.034894e+01 1.702758e+01 7.125264e+00 8.581111e+00 3.429560e+00 1.046890e-01 2.481693e-01 3.669745e-01 7.702343e-01 4.421034e-01 9.375975e-01 5.874943e-01 1.024096e+00 1.032527e+00 9.594764e-01 6.073470e-01 5.585769e-01 6.018680e-02 2.241821e-02 4.770826e-02 5.672652e-02 7.945370e-02 1.027917e-01 1.504949e-01 1.250607e-01 1.305526e-01 1.269896e-01 2.767057e-01 1.371341e-01 1.515370e-01 1.984316e-02
<GCONST> 5.595340e+01
<STATE> 3
<MEAN> 39
 1.007346e+01 -3.059613e+00 -1.158156e+00 -2.075358e+01 -7.452145e+00 6.037693e+00 -2.343930e+00 -1.022961e+01 -4.599165e+00 -8.225541e-01 3.694798e+00 -2.215563e+00 7.017561e+01 -1.353204e-01 1.583542e-01 -3.687385e-01 9.985051e-01 1.239499e+00 -5.462148e-01 -6.631463e-01 1.509074e-01 1.008748e+00 7.679018e-02 -4.665684e-01 -9.736270e-04 -3.282797e-01 -6.207228e-02 -1.403611e-01 1.480253e-01 2.357833e-01 1.093331e-01 -2.419971e-01 -3.288271e-01 -1.808386e-03 1.004799e-01 2.090276e-01 4.388472e-02 -2.826964e-01 3.581574e-02
<VARIANCE> 39
 1.937358e+00 5.235232e+00 1.145131e+01 1.588292e+01 2.484179e+01 1.935566e+01 2.002291e+01 1.476508e+01 1.611715e+01 1.804357e+01 1.156596e+01 1.078062e+01 2.920787e+00 7.771917e-02 4.084751e-01 3.279654e-01 7.656749e-01 8.811402e-01 1.090102e+00 1.795431e+00 1.020262e+00 1.023177e+00 1.587643e+00 9.022245e-01 1.126669e+00 6.561541e-02 1.248625e-02 4.329836e-02 4.966704e-02 8.859313e-02 1.664338e-01 2.102681e-01 1.935045e-01 2.184108e-01 1.540776e-01 2.474564e-01 1.846306e-01 1.524199e-01 9.790101e-03
<GCONST> 6.521413e+01
<STATE> 4
<MEAN> 39
 8.516407e+00 -1.576618e+00 -1.420413e-01 -9.322773e+00 -8.097601e-02 -1.615263e+00 -7.078663e+00 -7.291696e+00 2.660251e+00 -1.391754e-01 1.608205e-01 -5.964788e+00 6.693855e+01 -1.655377e-01 6.663021e-01 3.935332e-01 1.555565e+00 1.470116e-01 -1.043309e+00 5.842918e-01 6.650304e-01 4.918633e-01 -5.421833e-01 -6.052502e-01 -2.794554e-01 -6.330954e-01 -3.287317e-03 9.835503e-02 3.128846e-02 -1.221682e-01 -2.107079e-01 1.412650e-01 3.428913e-01 -3.751813e-02 -1.890574e-01 -1.063835e-01 -1.229165e-02 1.445480e-01 -2.974727e-02
<VARIANCE> 39
 1.879241e+00 1.345246e+01 1.118419e+01 2.724773e+01 1.077993e+01 1.941158e+01 3.252218e+01 1.652823e+01 1.882939e+01 1.588973e+01 1.178660e+01 1.185860e+01 6.144810e+00 1.045935e-01 5.154991e-01 5.757207e-01 1.436922e+00 1.104044e+00 1.247943e+00 3.762042e+00 1.332738e+00 1.458538e+00 1.192865e+00 9.203594e-01 1.127830e+00 1.541009e-01 2.011657e-02 1.005728e-01 8.755791e-02 2.158707e-01 1.611840e-01 1.939445e-01 6.657333e-01 2.709597e-01 2.316077e-01 2.410536e-01 1.969329e-01 1.956438e-01 3.170166e-02
<GCONST> 7.731481e+01
<TRANSP> 5
 0.000000e+00 1.000000e+00 0.000000e+00 0.000000e+00 0.000000e+00
 0.000000e+00 7.952820e-01 2.047180e-01 0.000000e+00 0.000000e+00
 0.000000e+00 0.000000e+00 8.489251e-01 1.510750e-01 0.000000e+00
 0.000000e+00 0.000000e+00 0.000000e+00 8.739282e-01 1.260718e-01
 0.000000e+00 0.000000e+00 0.000000e+00 0.000000e+00 0.000000e+00
<ENDHMM>
~h "p"
<BEGINHMM>
<NUMSTATES> 5
<STATE> 2
<MEAN> 39
 -3.547617e+00 -4.784041e+00 -7.587248e-01 -2.573925e+00 -8.475595e-01 -2.640959e+00 4.703863e+00 -3.778546e+00 2.162676e+00 -2.242318e+00 1.729378e+00 -5.325339e-01 5.776118e+01 6.789625e-01 -8.784214e-01 -3.853568e-01 -4.280888e-01 -7.065451e-01 1.361526e-01 4.423628e-01 -8.697444e-02 -4.430318e-01 2.671175e-02 -1.966393e-01 -4.669275e-01 1.067335e+00 6.870161e-01 -2.357973e-01 -3.499432e-01 -7.171596e-01 -2.026815e-01 1.829397e-01 -5.314253e-02 1.018864e-01 -4.556802e-01 -1.656644e-01 -8.461884e-02 -5.323441e-01 6.631303e-01
<VARIANCE> 39
 9.379707e+00 1.609977e+01 2.114620e+01 1.783542e+01 1.637815e+01 1.830487e+01 1.714473e+01 1.304429e+01 1.389301e+01 1.462223e+01 1.590151e+01 1.917644e+01 9.880310e+00 2.318483e+00 1.216188e+00 1.755643e+00 2.336087e+00 1.624160e+00 1.324557e+00 1.433048e+00 1.763388e+00 1.873509e+00 1.793832e+00 1.978469e+00 2.379211e+00 2.128202e+00 2.777611e-01 2.008843e-01 3.203332e-01 5.739754e-01 3.107136e-01 2.358518e-01 3.433227e-01 3.598205e-01 4.508244e-01 4.146114e-01 4.075100e-01 5.250335e-01 2.497856e-01
<GCONST> 1.008321e+02
<STATE> 3
<MEAN> 39
 1.166407e+00 -7.653628e+00 -3.203522e+00 -5.385146e+00 -4.547187e+00 -2.678667e+00 5.570877e+00 -4.160322e+00 7.231724e-01 -3.047713e+00 -5.829443e-01 -3.665683e+00 6.330455e+01 3.919964e+00 -2.046390e+00 -2.170532e+00 -4.282125e+00 -1.204196e+00 1.678294e+00 3.790058e-01 6.117904e-01 -2.881391e+00 -3.595109e-01 3.477193e-01 -2.797368e+00 4.099922e+00 1.789149e-01 -4.452289e-01 -7.225543e-02 -7.784164e-01 3.777446e-01 5.337440e-01 -1.403251e-01 4.287293e-01 -5.275550e-01 1.364726e-01 3.292826e-01 -3.616550e-01 4.202362e-01
<VARIANCE> 39
 2.770568e+01 2.003160e+01 2.552184e+01 2.950838e+01 1.401560e+01 1.465915e+01 1.276617e+01 1.735124e+01 2.130573e+01 1.000531e+01 1.130422e+01 1.652617e+01 2.024078e+01 8.516932e-01 1.591972e+00 1.918975e+00 2.388915e+00 3.293833e+00 2.144770e+00 2.385452e+00 1.527561e+00 2.300996e+00 1.454782e+00 2.007746e+00 1.776957e+00 1.095342e+00 5.574409e-01 3.499795e-01 3.893418e-01 6.632110e-01 3.175724e-01 4.935896e-01 4.156115e-01 3.482720e-01 4.671128e-01 2.200774e-01 2.526814e-01 3.153316e-01 3.882514e-01
<GCONST> 1.040674e+02
<STATE> 4
<MEAN> 39
 9.434216e+00 -1.842312e+01 -8.551110e+00 -1.740956e+01 -3.317651e+00 3.709069e+00 5.658782e+00 3.360139e-01 -8.403318e+00 -1.323426e+00 1.125582e+00 -1.231087e+01 7.603951e+01 2.697306e-01 -1.236933e+00 -4.005919e-01 -4.339374e-01 5.182093e-01 3.434143e-01 -1.781047e-01 4.589593e-01 -2.185450e-01 2.825919e-01 -4.410192e-01 -8.787431e-01 1.019975e+00 -4.031451e-01 2.951251e-01 2.125829e-01 6.497905e-01 9.905683e-02 -3.301915e-01 -7.097873e-02 -8.505245e-02 4.984503e-01 -1.643187e-02 -2.078887e-01 2.878844e-01 -4.841659e-01
<VARIANCE> 39
 3.879508e+00 1.637156e+01 1.656936e+01 1.912772e+01 1.668507e+01 1.204538e+01 1.701237e+01 1.412894e+01 1.426733e+01 7.009072e+00 1.102871e+01 7.627286e+00 5.534954e+00 1.509660e+00 1.980173e+00 8.320847e-01 4.589116e+00 7.328509e-01 1.766488e+00 8.077346e-01 1.208114e+00 2.443547e+00 5.835624e-01 9.485235e-01 1.054692e+00 2.318827e+00 3.326117e-01 1.750308e-01 1.581954e-01 4.822788e-01 2.114900e-01 1.639934e-01 1.447916e-01 2.144984e-01 2.451919e-01 1.384939e-01 1.227187e-01 1.820676e-01 2.239230e-01
<GCONST> 8.605548e+01
<TRANSP> 5
 0.000000e+00 1.000000e+00 0.000000e+00 0.000000e+00 0.000000e+00
 0.000000e+00 6.913003e-01 3.086997e-01 0.000000e+00 0.000000e+00
 0.000000e+00 0.000000e+00 4.819640e-01 5.180360e-01 0.000000e+00
 0.000000e+00 0.000000e+00 0.000000e+00 8.732580e-01 1.267420e-01
 0.000000e+00 0.000000e+00 0.000000e+00 0.000000e+00 0.000000e+00
<ENDHMM>
~h "r"
<BEGINHMM>
<NUMSTATES> 5
<STATE> 2
<MEAN> 39
 -8.550871e+00 -1.030766e+01 7.107535e+00 -8.407778e+00 -4.999539e+00 -2.908113e+00 -1.006014e+00 -1.107951e+00 5.626278e+00 -4.366674e+00 1.274930e+00 -4.249116e+00 6.742662e+01 2.151950e+00 -1.249480e+00 1.446428e-01 1.228711e-01 -1.668601e+00 -1.069107e+00 -7.264318e-01 2.508698e-01 5.007274e-02 -3.021474e-01 -4.737996e-01 -9.900485e-01 1.671048e+00 9.441292e-01 -3.876440e-01 -3.345361e-01 6.658137e-04 -1.489542e-01 -1.416705e-01 -1.081794e-01 2.221290e-01 -1.329082e-01 1.847129e-01 -1.674623e-01 -3.436730e-01 1.765274e-01
<VARIANCE> 39
 6.105635e+01 1.903148e+01 1.816360e+01 1.152399e+01 3.408891e+01 3.340480e+01 1.474074e+01 2.166374e+01 1.446480e+01 1.537537e+01 2.356500e+01 2.463652e+01 1.723718e+01 1.152353e+01 1.805747e+00 2.343572e+00 1.750762e+00 3.108703e+00 3.989852e+00 2.287287e+00 2.421535e+00 1.278437e+00 1.450047e+00 2.159569e+00 1.646379e+00 1.157475e+00 1.464957e+00 3.374244e-01 2.617447e-01 4.547520e-01 7.353352e-01 8.243433e-01 4.494481e-01 4.510884e-01 2.281506e-01 2.848137e-01 3.996583e-01 2.425159e-01 2.202482e-01
<GCONST> 1.106973e+02
<STATE> 3
<MEAN> 39
 6.845217e+00 -2.144327e+01 4.160323e+00 -1.006140e+01 -1.080542e+01 -5.838146e+00 -4.862633e+00 3.371998e+00 4.442894e+00 -2.753583e+00 -1.996363e+00 -1.249601e+01 7.712868e+01 1.322043e+00 -2.229010e+00 -1.291004e+00 -1.116176e+00 7.410073e-01 1.358293e+00 1.075514e-01 1.129155e+00 -1.913514e-01 8.340720e-01 -9.415669e-01 -1.944463e+00 1.255878e+00 -9.292825e-01 4.778416e-01 -1.926960e-01 -3.982024e-02 5.861055e-01 5.332201e-01 4.572189e-01 -2.598878e-01 -2.939042e-02 8.601608e-03 -6.086419e-02 2.621360e-01 -5.378453e-01
<VARIANCE> 39
 2.879402e+00 1.371621e+01 1.921527e+01 1.006354e+01 1.752863e+01 1.201919e+01 1.116485e+01 1.131460e+01 9.961496e+00 7.534832e+00 9.245750e+00 1.439625e+01 3.513631e+00 2.592469e+00 1.808336e+00 6.532435e-01 7.542239e-01 1.584266e+00 1.531740e+00 1.169543e+00 1.123811e+00 6.419477e-01 1.053105e+00 8.545541e-01 8.964564e-01 1.608470e+00 3.424187e-01 2.254331e-01 1.313532e-01 2.682876e-01 3.545370e-01 4.399164e-01 1.998858e-01 2.834629e-01 1.046207e-01 2.384179e-01 1.263057e-01 1.975106e-01 1.058965e-01
<GCONST> 8.282430e+01
<STATE> 4
<MEAN> 39
 8.360820e+00 -2.248484e+01 -4.576586e+00 -1.024075e+01 -3.879224e+00 -7.044582e-01 -2.717317e-01 3.736093e+00 1.992570e+00 -1.150067e+00 -6.826823e+00 -1.512732e+01 7.587704e+01 6.532255e-02 5.396703e-01 -2.114544e-01 4.374894e-01 1.168545e-01 -3.710847e-01 -5.587544e-02 -1.879400e-01 1.967469e-01 -5.382501e-02 1.771648e-02 3.919216e-01 -4.080038e-01 -2.816958e-02 1.801173e-01 1.128156e-01 9.805521e-02 -4.945973e-02 -1.421731e-01 -9.217266e-02 -8.457987e-02 6.281792e-02 -7.194611e-02 9.906116e-02 1.582010e-01 -8.859091e-02
<VARIANCE> 39
 3.122123e+00 1.480922e+01 1.432630e+01 1.248633e+01 1.777795e+01 2.591639e+01 1.277701e+01 1.122484e+01 1.735809e+01 9.093559e+00 1.140873e+01 1.080869e+01 6.150373e+00 1.158449e-01 8.567148e-01 7.821279e-01 6.085327e-01 9.984441e-01 1.672919e+00 1.293083e+00 1.042012e+00 1.377705e+00 6.859910e-01 9.374015e-01 9.970511e-01 2.441133e-01 2.356092e-02 7.542490e-02 6.255297e-02 7.459006e-02 1.425827e-01 1.628691e-01 1.655493e-01 1.785175e-01 1.861638e-01 1.482650e-01 1.530215e-01 1.353210e-01 2.432138e-02
<GCONST> 6.954555e+01
<TRANSP> 5
 0.000000e+00 1.000000e+00 0.000000e+00 0.000000e+00 0.000000e+00
 0.000000e+00 7.607779e-01 2.392222e-01 0.000000e+00 0.000000e+00
 0.000000e+00 0.000000e+00 6.980468e-01 3.019532e-01 0.000000e+00
 0.000000e+00 0.000000e+00 0.000000e+00 9.399768e-01 6.002329e-02
 0.000000e+00 0.000000e+00 0.000000e+00 0.000000e+00 0.000000e+00
<ENDHMM>
~h "s"
<BEGINHMM>
<NUMSTATES> 5
<STATE> 2
<MEAN> 39
 -8.877102e+00 -5.764679e+00 2.427500e+00 -4.759079e+00 1.664860e+00 -6.058689e+00 2.508441e+00 5.489212e-01 3.177118e+00 -3.595702e+00 1.444359e+00 -1.119687e+00 6.347315e+01 -1.206407e+00 -2.824775e-01 -4.227551e-02 -1.366566e-01 4.293327e-01 -4.155502e-01 2.531514e-01 5.093566e-01 1.145227e-01 2.045881e-01 1.926529e-01 2.246135e-02 3.124735e-01 1.947553e-01 3.016737e-02 -7.471422e-02 -1.394501e-02 -8.153401e-02 5.004656e-02 3.581630e-02 -8.102091e-03 5.613587e-02 8.926027e-02 -5.638506e-02 -6.134967e-02 -1.183128e-02
<VARIANCE> 39
 2.176319e+01 1.350334e+01 2.070478e+01 1.516117e+01 1.704603e+01 3.889899e+01 3.529540e+01 2.149767e+01 2.177195e+01 2.211699e+01 2.041089e+01 2.158740e+01 1.872262e+01 1.455780e+00 1.005748e+00 1.164189e+00 1.233783e+00 1.480897e+00 1.722065e+00 2.258439e+00 1.586845e+00 1.981606e+00 1.560957e+00 1.766807e+00 1.653361e+00 4.465697e-01 1.853237e-01 2.209090e-01 2.044203e-01 2.438351e-01 3.308111e-01 3.625876e-01 4.457167e-01 3.010045e-01 3.920183e-01 2.717248e-01 3.553424e-01 3.388287e-01 7.521580e-02
<GCONST> 9.851628e+01
<STATE> 3
<MEAN> 39
 -1.131757e+01 -7.199050e+00 -6.905107e-02 -5.686283e+00 2.390051e+00 -8.637489e+00 5.908709e+00 1.878800e+00 3.549987e+00 -1.171625e+00 -2.077139e-01 -2.457406e+00 6.571858e+01 1.009856e+00 -2.317428e-01 -4.776556e-01 -3.294040e-01 -4.498022e-01 1.867133e-01 1.080337e-01 -4.656155e-01 -9.684078e-02 4.261514e-01 -6.578774e-01 -7.331629e-01 1.578560e-01 7.147217e-01 -1.500548e-01 -6.159285e-02 -1.881723e-01 -1.721676e-01 2.212019e-01 -3.253242e-01 -3.184308e-01 -1.728700e-01 2.806013e-02 -2.087510e-01 -3.474334e-01 2.334709e-01
<VARIANCE> 39
 1.159014e+01 9.911826e+00 1.430917e+01 1.547916e+01 1.493266e+01 1.735655e+01 2.612547e+01 1.835813e+01 1.678937e+01 1.513508e+01 1.685470e+01 2.107695e+01 4.591074e+00 5.082374e+00 8.615232e-01 9.628041e-01 1.520231e+00 1.465757e+00 1.636755e+00 2.037178e+00 2.056010e+00 1.819526e+00 1.466904e+00 2.043077e+00 3.172828e+00 7.086787e-01 2.328515e-01 2.197567e-01 1.782910e-01 3.808665e-01 2.496167e-01 3.423667e-01 3.474717e-01 3.107488e-01 4.002897e-01 2.942999e-01 3.030923e-01 5.481375e-01 2.535925e-01
<GCONST> 9.750478e+01
<STATE> 4
<MEAN> 39
 2.454238e+00 -1.171961e+01 -2.841573e+00 -1.066817e+01 -1.904804e+00 -4.111704e+00 1.741046e+00 -3.203527e+00 9.851444e-01 1.594325e+00 -5.807803e+00 -1.196414e+01 7.155034e+01 2.103523e+00 -2.252853e+00 -5.566380e-01 -1.660263e+00 -5.960772e-01 2.012535e+00 -9.248307e-01 -2.475407e-01 -3.925257e-01 6.554548e-01 -6.578815e-01 -1.949524e+00 2.012427e+00 -7.610326e-01 -1.790863e-01 1.276772e-01 2.068735e-01 2.205080e-01 2.065251e-01 2.956032e-01 3.996634e-01 1.780090e-01 -2.551451e-01 3.382868e-01 5.748967e-01 -2.146363e-01
<VARIANCE> 39
 6.668980e+01 4.323561e+01 1.774488e+01 2.575871e+01 1.473617e+01 3.362500e+01 1.918733e+01 1.853794e+01 1.242687e+01 1.635374e+01 1.954667e+01 3.374016e+01 2.788154e+01 5.268764e+00 2.815288e+00 1.258272e+00 2.478245e+00 1.179194e+00 2.339500e+00 2.538458e+00 2.263593e+00 1.968394e+00 1.502660e+00 1.421845e+00 3.675200e+00 2.332098e+00 5.890309e-01 6.081782e-01 1.946311e-01 4.214189e-01 2.306591e-01 3.807458e-01 3.602415e-01 3.499759e-01 2.811056e-01 2.756163e-01 2.080812e-01 4.519221e-01 4.334173e-01
<GCONST> 1.093759e+02
<TRANSP> 5
 0.000000e+00 1.000000e+00 0.000000e+00 0.000000e+00 0.000000e+00
 0.000000e+00 8.089566e-01 1.910434e-01 0.000000e+00 0.000000e+00
 0.000000e+00 0.000000e+00 7.422733e-01 2.577267e-01 0.000000e+00
 0.000000e+00 0.000000e+00 0.000000e+00 5.971715e-01 4.028286e-01
 0.000000e+00 0.000000e+00 0.000000e+00 0.000000e+00 0.000000e+00
<ENDHMM>
~h "t"
<BEGINHMM>
<NUMSTATES> 5
<STATE> 2
<MEAN> 39
 -5.510078e-01 -5.739957e+00 -4.266904e+00 -5.272977e+00 -8.409567e-01 -2.520666e+00 3.715159e+00 -2.453555e+00 5.873309e+00 -4.973437e-01 -1.515640e+00 -5.006792e+00 5.985000e+01 -6.810142e-01 9.322412e-03 6.407444e-02 4.318517e-02 -1.204093e-01 2.935312e-02 4.591143e-01 1.342384e-01 -9.347987e-02 -1.603598e-01 3.842246e-01 5.182686e-01 -5.146824e-01 6.440167e-02 -2.213689e-01 1.514086e-01 -5.091942e-02 -1.720808e-01 -1.264254e-01 -3.475931e-02 -4.353401e-02 -2.169565e-01 -1.139398e-01 -3.533615e-02 -2.206889e-02 3.003311e-01
<VARIANCE> 39
 1.447518e+01 1.235610e+01 2.599714e+01 1.610673e+01 1.590953e+01 1.390705e+01 1.968797e+01 1.478478e+01 2.105860e+01 1.683149e+01 1.716012e+01 1.767584e+01 1.196106e+01 3.066328e-01 6.689167e-01 7.753146e-01 9.908323e-01 1.180577e+00 1.235844e+00 1.324445e+00 1.163492e+00 1.677481e+00 1.695318e+00 1.532988e+00 1.168234e+00 4.240276e-01 5.051535e-02 1.789530e-01 1.768555e-01 2.130269e-01 3.073798e-01 3.126782e-01 2.582999e-01 2.857667e-01 3.599150e-01 3.802585e-01 3.258135e-01 2.491324e-01 1.388823e-01
<GCONST> 8.836568e+01
<STATE> 3
<MEAN> 39
 -3.401267e+00 -5.888038e+00 -2.224621e+00 -3.763724e+00 -1.066770e+00 -2.675309e+00 5.013135e+00 -2.633878e+00 3.773458e+00 -2.245693e+00 7.962714e-01 -1.718549e+00 5.839817e+01 -3.611619e-01 -1.541315e+00 7.152537e-01 -4.527898e-01 -1.227458e+00 -8.681511e-01 2.966687e-01 -4.241586e-01 -1.231481e+00 -7.267279e-01 3.274295e-01 2.432789e-01 1.475595e+00 2.727697e-01 -2.083815e-01 4.777333e-01 -1.720441e-01 -6.263197e-01 -3.563251e-01 -1.544072e-01 -1.555104e-01 -3.720372e-01 -3.408647e-02 -1.248300e-01 -4.310014e-01 6.804923e-01
<VARIANCE> 39
 1.052781e+01 1.231781e+01 2.502442e+01 1.799580e+01 1.456873e+01 1.520573e+01 1.825177e+01 1.416576e+01 2.210808e+01 1.175861e+01 1.976348e+01 1.543305e+01 1.488756e+01 6.372411e-01 2.513427e+00 1.246570e+00 1.525255e+00 2.308046e+00 2.609272e+00 1.695433e+00 2.188256e+00 2.965325e+00 2.159661e+00 1.558421e+00 1.721717e+00 2.937767e+00 1.585126e-01 2.273230e-01 4.088611e-01 1.635832e-01 5.317577e-01 3.328078e-01 3.031926e-01 3.204831e-01 4.451743e-01 3.023641e-01 3.168127e-01 3.362810e-01 4.184040e-01
<GCONST> 1.005238e+02
<STATE> 4
<MEAN> 39
 -3.783012e+00 -1.135280e+01 5.571776e-01 -5.871141e+00 -6.187901e+00 -7.133537e+00 5.279777e+00 -3.798512e+00 -2.310866e-01 -4.267864e+00 1.628938e+00 -2.210884e+00 6.511266e+01 8.402536e-01 -6.627246e-01 2.235388e+00 -5.362644e-01 -2.367949e+00 -1.065863e+00 -3.855728e-01 -4.978577e-01 -1.644799e+00 -1.256415e-01 -1.409984e-01 -1.409696e+00 2.235151e+00 3.926574e-01 5.765797e-01 5.598372e-01 6.987993e-05 -6.534782e-02 4.915421e-01 -4.501072e-01 5.403542e-02 -7.490382e-03 4.660939e-01 -3.109934e-01 -5.656712e-01 -2.230951e-01
<VARIANCE> 39
 6.670260e+00 2.272533e+01 2.505790e+01 1.939063e+01 3.011778e+01 3.416471e+01 1.534660e+01 2.190881e+01 3.159902e+01 1.907298e+01 2.134893e+01 1.418309e+01 3.111810e+01 2.566415e+00 2.527533e+00 4.337811e+00 1.848011e+00 6.412590e+00 3.490822e+00 2.401047e+00 2.574907e+00 3.278707e+00 2.079361e+00 1.896085e+00 4.241232e+00 5.450482e+00 1.883231e-01 4.336899e-01 7.478513e-01 2.589279e-01 8.742183e-01 8.561713e-01 3.937522e-01 6.009507e-01 5.924602e-01 4.927213e-01 4.204221e-01 4.326843e-01 5.236091e-01
<GCONST> 1.163116e+02
<TRANSP> 5
 0.000000e+00 1.000000e+00 0.000000e+00 0.000000e+00 0.000000e+00
 0.000000e+00 8.083502e-01 1.916498e-01 0.000000e+00 0.000000e+00
 0.000000e+00 0.000000e+00 3.737965e-01 6.262035e-01 0.000000e+00
 0.000000e+00 0.000000e+00 0.000000e+00 5.928746e-01 4.071254e-01
 0.000000e+00 0.000000e+00 0.000000e+00 0.000000e+00 0.000000e+00
<ENDHMM>
~h "y"
<BEGINHMM>
<NUMSTATES> 5
<STATE> 2
<MEAN> 39
 -6.138185e+00 -1.002285e+01 6.539415e+00 8.899836e-01 -7.685772e+00 -6.834114e+00 5.684445e-01 -5.129205e+00 6.773991e+00 -4.023181e+00 1.648318e+00 -3.841468e+00 6.594376e+01 1.975396e+00 2.418447e-01 4.896543e-01 -3.154611e-01 -8.711505e-01 -9.724205e-01 -7.713103e-01 5.072826e-01 -1.162894e+00 -6.168174e-01 4.793978e-02 -5.564588e-01 5.925210e-01 4.440783e-01 -1.438405e-01 3.074834e-01 -3.782816e-01 -3.815989e-01 7.119659e-02 -2.184025e-01 4.064612e-02 -4.822215e-01 -1.762744e-02 2.026062e-03 -1.115126e-01 4.204342e-01
<VARIANCE> 39
 6.607513e+01 4.382013e+01 8.024549e+00 1.647158e+01 1.138249e+01 2.714009e+01 2.117139e+01 1.767033e+01 2.941986e+01 1.635950e+01 1.602166e+01 1.250044e+01 5.102099e+00 6.254797e+00 2.555450e+00 1.295063e+00 1.383270e+00 1.715269e+00 1.735532e+00 1.638708e+00 1.434796e+00 3.406583e+00 2.113905e+00 1.938328e+00 1.193088e+00 1.118702e+00 4.577838e-01 5.282371e-01 2.633590e-01 2.623006e-01 3.575794e-01 3.101186e-01 2.699270e-01 3.058954e-01 5.043648e-01 4.672033e-01 3.401872e-01 2.430050e-01 1.991722e-01
<GCONST> 1.031835e+02
<STATE> 3
<MEAN> 39
 6.243402e+00 -1.006392e+01 1.052966e+01 -4.951614e+00 -1.376304e+01 -8.464115e+00 -4.816031e+00 -2.470257e+00 -1.612472e+00 -6.174174e+00 2.552728e+00 -6.377121e+00 7.194366e+01 7.605287e-01 -1.104286e+00 1.640866e+00 -7.891405e-01 -1.279073e+00 3.893776e-01 -7.431751e-01 8.503293e-01 -5.930036e-01 -2.725663e-01 1.837718e-01 -8.809236e-02 1.034720e+00 -6.340866e-01 1.327040e-01 -2.316482e-01 3.387847e-01 3.534998e-01 2.340745e-01 5.753146e-01 -1.918724e-02 6.468335e-01 1.375893e-01 -2.361633e-01 2.155982e-01 -4.651080e-01
<VARIANCE> 39
 2.548875e+00 3.293056e+01 2.359733e+01 7.027897e+00 2.046712e+01 9.451509e+00 3.387096e+01 1.136087e+01 1.392778e+01 1.011595e+01 9.510843e+00 1.111420e+01 1.284399e+01 3.040675e+00 3.583357e+00 2.127542e+00 1.601420e+00 2.644359e+00 1.248833e+00 2.373191e+00 1.020619e+00 3.792466e+00 1.381268e+00 1.338164e+00 7.314824e-01 2.011903e+00 4.260341e-01 7.894828e-01 5.811813e-01 2.490605e-01 4.819621e-01 2.636711e-01 3.822286e-01 1.834377e-01 5.188274e-01 2.572860e-01 2.161248e-01 1.075956e-01 3.265887e-01
<GCONST> 9.798778e+01
<STATE> 4
<MEAN> 39
 6.344419e+00 -8.910247e+00 1.037202e+01 -4.175309e+00 -1.302382e+01 -7.201716e+00 7.520380e-01 4.814961e-01 -1.424064e+00 -5.108487e+00 -3.802735e-01 -4.943271e+00 7.002955e+01 -9.989271e-02 -1.790235e-02 -1.114109e-01 1.058500e-01 2.831483e-01 1.040580e-02 5.715794e-02 3.071708e-02 3.251765e-02 1.276416e-01 -1.894532e-01 -4.194906e-02 -6.833751e-02 -5.407406e-02 1.088649e-01 -6.246848e-02 2.200034e-02 9.216473e-02 3.702316e-03 -2.032092e-02 -7.792343e-02 3.283794e-02 3.221741e-03 1.783676e-02 -4.374728e-03 -7.005354e-02
<VARIANCE> 39
 4.643718e+00 5.871299e+01 3.840172e+01 9.305613e+00 2.800243e+01 1.105842e+01 2.154035e+01 1.240826e+01 1.779029e+01 1.475362e+01 1.285262e+01 1.168009e+01 1.693452e+01 3.869108e-01 4.028698e+00 3.240616e+00 7.508730e-01 2.436409e+00 7.936233e-01 1.555090e+00 9.955394e-01 1.235749e+00 8.386190e-01 1.102587e+00 7.688793e-01 1.158282e+00 7.769348e-02 3.992240e-01 5.080863e-01 1.360644e-01 3.417857e-01 1.495031e-01 2.252155e-01 1.695274e-01 2.015850e-01 1.525915e-01 1.854900e-01 1.355383e-01 1.023843e-01
<GCONST> 8.851761e+01
<TRANSP> 5
 0.000000e+00 1.000000e+00 0.000000e+00 0.000000e+00 0.000000e+00
 0.000000e+00 6.683110e-01 3.316890e-01 0.000000e+00 0.000000e+00
 0.000000e+00 0.000000e+00 6.501305e-01 3.498695e-01 0.000000e+00
 0.000000e+00 0.000000e+00 0.000000e+00 9.508089e-01 4.919110e-02
 0.000000e+00 0.000000e+00 0.000000e+00 0.000000e+00 0.000000e+00
<ENDHMM>
~h "aa"
<BEGINHMM>
<NUMSTATES> 5
<STATE> 2
<MEAN> 39
 3.913754e+00 -1.566379e+01 -4.216777e+00 -1.185796e+01 -9.264171e-02 3.398762e+00 1.632119e+00 -2.437665e+00 -1.082537e+00 -1.288503e+00 -3.554830e+00 -1.139799e+01 7.082211e+01 5.278619e-01 -8.783721e-01 -4.459760e-01 -4.319893e-01 2.880664e-01 7.953376e-01 -2.601865e-01 4.870426e-03 -2.554258e-01 -3.392528e-01 -2.818733e-01 -4.786985e-01 7.429811e-01 -1.182287e-02 1.240266e-01 1.035653e-01 1.101478e-01 -5.618831e-02 -1.366607e-01 -3.459441e-02 9.542303e-03 7.342379e-02 -4.660777e-02 3.336814e-02 2.048255e-01 -4.056779e-02
<VARIANCE> 39
 3.606044e+01 6.229483e+01 2.886085e+01 3.447065e+01 1.933787e+01 3.275267e+01 1.886063e+01 2.560309e+01 2.109800e+01 1.747388e+01 2.177676e+01 3.610115e+01 6.304681e+01 1.960842e+00 2.366286e+00 1.349031e+00 2.122276e+00 1.067876e+00 2.586118e+00 1.394558e+00 1.881108e+00 2.310610e+00 1.287902e+00 1.078687e+00 2.330247e+00 2.290494e+00 2.683857e-01 4.050629e-01 2.548114e-01 3.226896e-01 1.960602e-01 3.534286e-01 2.637518e-01 3.433162e-01 3.003237e-01 2.552659e-01 1.909950e-01 3.520288e-01 2.561576e-01
<GCONST> 1.066380e+02
<STATE> 3
<MEAN> 39
 6.589148e+00 -1.942311e+01 -5.590027e+00 -1.279261e+01 1.029255e-01 4.746312e+00 2.991036e-01 -1.273247e+00 -7.829459e-01 -1.911833e+00 -5.310055e+00 -1.252375e+01 7.407236e+01 9.386186e-02 -2.614408e-01 2.755673e-01 1.819665e-01 -4.071661e-02 -2.865879e-01 -4.725289e-01 3.679123e-01 3.634501e-01 -1.158591e-01 -2.592153e-01 1.540967e-01 2.356977e-01 -8.968385e-02 2.756653e-01 1.917843e-01 1.554211e-01 -1.452122e-01 -3.151117e-01 -4.796883e-02 -4.465766e-03 8.555167e-02 9.746885e-02 1.073151e-01 1.432908e-01 -1.526897e-01
<VARIANCE> 39
 1.825407e+01 4.055883e+01 2.281474e+01 1.739937e+01 1.668349e+01 4.039300e+01 1.781946e+01 3.105444e+01 1.950419e+01 1.457452e+01 2.268295e+01 1.708759e+01 3.008069e+01 8.812238e-01 2.125425e+00 1.116113e+00 1.273419e+00 1.125200e+00 2.403263e+00 1.254237e+00 1.294858e+00 1.461685e+00 9.390774e-01 1.046023e+00 1.042665e+00 1.376445e+00 1.166721e-01 2.560965e-01 1.870421e-01 2.241955e-01 1.760565e-01 2.358276e-01 2.363577e-01 2.993374e-01 2.154455e-01 1.944109e-01 2.177425e-01 2.041870e-01 1.309219e-01
<GCONST> 9.446127e+01
<STATE> 4
<MEAN> 39
 6.311128e+00 -1.496657e+01 -4.340211e+00 -9.890205e+00 -1.185167e+00 -3.488070e-01 -1.478562e+00 -6.975175e-01 2.722380e+00 -1.078714e+00 -4.846968e+00 -1.067660e+01 7.107507e+01 -3.647497e-01 1.135087e+00 2.688237e-01 5.699258e-01 -2.108845e-02 -5.628234e-01 -1.130062e-01 -3.556309e-01 3.649520e-01 1.717533e-02 5.807667e-01 5.792931e-01 -8.381611e-01 -1.368961e-01 4.387072e-02 -1.219936e-01 3.291458e-02 5.828337e-02 1.581829e-01 2.174507e-01 -1.102433e-01 -6.557138e-02 -6.678277e-02 1.373292e-01 2.163189e-02 -1.189579e-01
<VARIANCE> 39
 2.178827e+01 4.828061e+01 2.079775e+01 1.524236e+01 2.131988e+01 5.221515e+01 2.545235e+01 3.067589e+01 3.053927e+01 2.159277e+01 2.508407e+01 1.757122e+01 3.163481e+01 9.189810e-01 3.326468e+00 1.526348e+00 1.422439e+00 1.836267e+00 3.163333e+00 2.362218e+00 2.091332e+00 1.539267e+00 1.714555e+00 1.383254e+00 1.542348e+00 1.795072e+00 1.308425e-01 4.504776e-01 2.822791e-01 2.833851e-01 3.814104e-01 6.376086e-01 4.424155e-01 4.419942e-01 3.172429e-01 3.705853e-01 2.784635e-01 2.914550e-01 1.922346e-01
<GCONST> 1.069626e+02
<TRANSP> 5
 0.000000e+00 1.000000e+00 0.000000e+00 0.000000e+00 0.000000e+00
 0.000000e+00 5.974605e-01 4.025395e-01 0.000000e+00 0.000000e+00
 0.000000e+00 0.000000e+00 6.068705e-01 3.931295e-01 0.000000e+00
 0.000000e+00 0.000000e+00 0.000000e+00 7.382632e-01 2.617368e-01
 0.000000e+00 0.000000e+00 0.000000e+00 0.000000e+00 0.000000e+00
<ENDHMM>
~h "cx"
<BEGINHMM>
<NUMSTATES> 5
<STATE> 2
<MEAN> 39
 -3.781216e+00 -4.910971e+00 4.851810e+00 -3.399899e+00 -2.764802e+00 -2.121070e+00 1.211553e+00 -4.216896e+00 2.122738e+00 -3.358751e+00 2.429428e-01 -1.072752e+00 6.117905e+01 -1.502195e+00 -6.427097e-01 2.404189e-01 -5.168218e-01 -1.417838e-02 7.021865e-01 -3.502510e-01 6.088954e-02 2.226538e-01 -2.076237e-01 1.351369e-02 -3.342891e-01 2.370140e-01 -5.404519e-02 -6.453298e-03 2.106181e-02 -1.740450e-01 -8.758128e-02 -1.712199e-02 2.174617e-02 9.837481e-02 1.936265e-02 -2.922162e-02 -1.259261e-02 -1.513853e-01 1.956846e-01
<VARIANCE> 39
 2.874804e+01 2.918390e+01 2.107586e+01 1.738886e+01 2.865536e+01 2.885434e+01 2.207067e+01 2.983052e+01 1.289209e+01 1.821251e+01 1.828384e+01 1.626589e+01 1.599720e+01 1.746106e+00 2.226318e+00 1.832576e+00 1.990639e+00 2.355798e+00 2.617945e+00 2.537074e+00 1.245672e+00 2.123486e+00 1.985571e+00 1.522112e+00 1.583508e+00 1.962541e+00 1.735720e-01 5.102901e-01 2.608094e-01 4.294257e-01 3.906505e-01 4.591186e-01 4.742130e-01 3.216589e-01 4.102712e-01 4.101084e-01 3.311370e-01 3.147931e-01 1.871889e-01
<GCONST> 1.061308e+02
<STATE> 3
<MEAN> 39
 -9.042481e+00 -5.581479e+00 6.380196e+00 -5.012802e+00 -1.667547e+00 -8.977982e-01 1.408368e-01 -2.841854e+00 3.572277e+00 -3.979458e+00 6.836802e-01 -2.270075e+00 6.298548e+01 -8.003933e-01 -5.485187e-01 3.864752e-02 -5.295531e-01 -4.077980e-01 7.093236e-02 1.136056e-01 4.531723e-01 3.076431e-01 2.573686e-01 2.970424e-01 -3.063712e-01 3.613174e-01 7.660865e-01 -2.057589e-01 -2.187309e-01 -5.635511e-02 -3.589604e-01 -4.669953e-01 9.331696e-03 7.595985e-02 -4.444481e-02 6.999904e-02 -3.803525e-02 -3.059855e-02 9.265309e-02
<VARIANCE> 39
 4.202318e+01 1.727353e+01 3.929597e+01 1.163596e+01 2.650022e+01 4.879022e+01 3.018240e+01 2.841864e+01 1.635896e+01 1.994394e+01 2.139889e+01 2.057565e+01 2.274925e+01 3.082604e+00 2.082069e+00 1.556994e+00 2.309508e+00 2.244309e+00 3.543057e+00 2.539599e+00 1.849687e+00 2.242708e+00 2.320772e+00 1.670443e+00 1.635838e+00 1.708453e+00 1.149700e+00 3.319762e-01 4.131410e-01 3.753923e-01 4.441472e-01 1.154466e+00 5.137019e-01 4.147307e-01 3.460469e-01 5.206279e-01 3.548355e-01 3.828438e-01 2.541495e-01
<GCONST> 1.131372e+02
<STATE> 4
<MEAN> 39
 -2.934722e+00 -8.784525e+00 4.819124e+00 -5.237755e+00 -6.210690e+00 -5.318615e+00 3.513926e-01 -9.243668e-01 3.940171e+00 -2.302103e+00 6.651020e-01 -4.080259e+00 6.605558e+01 2.043496e+00 -1.591310e+00 -9.767417e-01 -7.679234e-01 -5.764407e-01 -1.176112e+00 -3.364646e-01 8.932524e-01 -2.635900e-01 4.265003e-01 -3.546749e-01 -1.068431e+00 1.167093e+00 -1.990912e-01 -2.451935e-01 2.636047e-02 -2.288436e-01 2.771614e-01 3.806335e-01 -1.290525e-01 1.203517e-02 3.981043e-02 1.931323e-02 -9.636767e-02 -9.365614e-02 2.216406e-01
<VARIANCE> 39
 5.638292e+01 2.882058e+01 2.470105e+01 1.581996e+01 4.080599e+01 3.923357e+01 2.576023e+01 2.244189e+01 1.231421e+01 1.638737e+01 1.769939e+01 1.711236e+01 4.556672e+01 8.050673e+00 2.533107e+00 2.281502e+00 2.151769e+00 2.244234e+00 6.560836e+00 2.087126e+00 2.263146e+00 1.594038e+00 2.876349e+00 1.283751e+00 1.609003e+00 2.240999e+00 1.262647e+00 2.652719e-01 3.170589e-01 3.418662e-01 5.321161e-01 9.186583e-01 4.598230e-01 3.722675e-01 3.038026e-01 4.835220e-01 2.473397e-01 2.392081e-01 2.740845e-01
<GCONST> 1.136836e+02
<TRANSP> 5
 0.000000e+00 1.000000e+00 0.000000e+00 0.000000e+00 0.000000e+00
 0.000000e+00 3.695792e-01 6.304207e-01 0.000000e+00 0.000000e+00
 0.000000e+00 0.000000e+00 3.294497e-01 6.705503e-01 0.000000e+00
 0.000000e+00 0.000000e+00 0.000000e+00 4.191483e-01 5.808517e-01
 0.000000e+00 0.000000e+00 0.000000e+00 0.000000e+00 0.000000e+00
<ENDHMM>
~h "ee"
<BEGINHMM>
<NUMSTATES> 5
<STATE> 2
<MEAN> 39
 -2.404917e+00 -7.856422e+00 7.728703e+00 -6.388345e+00 -9.315746e+00 -6.928154e+00 1.021901e+00 -2.731575e+00 -2.510142e+00 -1.648289e+00 2.003986e+00 -5.109480e+00 6.212493e+01 1.058519e+00 -1.491813e+00 3.410614e+00 -1.027081e+00 -3.092362e+00 -9.765972e-01 -1.097277e+00 1.889449e-01 -1.919608e+00 2.919573e-01 4.288216e-01 -1.345577e+00 2.360474e+00 3.022329e-01 -1.455500e-01 2.456933e-01 -9.172035e-02 -2.195452e-01 -8.961439e-02 -2.324962e-01 1.825520e-02 -1.974567e-01 -5.222967e-02 4.021158e-02 9.380419e-03 4.050395e-01
<VARIANCE> 39
 1.518375e+01 2.805936e+01 7.232040e+01 1.783566e+01 4.914100e+01 2.301542e+01 2.274648e+01 1.847179e+01 3.690183e+01 1.360131e+01 1.529030e+01 2.687124e+01 3.234684e+01 2.087496e+00 2.548271e+00 4.107329e+00 2.242921e+00 5.087657e+00 2.062130e+00 2.613045e+00 1.672619e+00 3.440648e+00 1.804089e+00 1.805918e+00 2.210184e+00 3.914393e+00 2.290570e-01 4.226030e-01 1.232353e+00 3.207962e-01 1.166434e+00 5.145716e-01 5.033720e-01 2.556601e-01 7.146762e-01 3.743826e-01 3.795076e-01 5.427629e-01 5.602995e-01
<GCONST> 1.166691e+02
<STATE> 3
<MEAN> 39
 2.355335e+00 -1.202866e+01 1.700352e+01 -9.187634e+00 -1.861117e+01 -9.174610e+00 -1.312658e+00 -1.436336e+00 -7.588262e+00 -1.924596e+00 3.332964e+00 -8.725657e+00 7.024664e+01 8.014037e-01 -7.029701e-01 1.499640e+00 -4.521335e-01 -1.194449e+00 1.461044e-02 -5.358828e-01 1.781520e-01 -7.925396e-01 -9.612404e-02 4.599594e-01 4.028949e-02 1.424874e+00 -1.847459e-01 1.955035e-01 -5.113305e-01 1.817636e-01 5.280017e-01 1.888460e-01 8.526589e-02 2.197728e-03 2.970384e-01 -1.180315e-02 -1.093554e-01 3.196939e-01 -3.231302e-01
<VARIANCE> 39
 5.898420e+00 1.558615e+01 2.400039e+01 1.133299e+01 1.105607e+01 1.652990e+01 1.780703e+01 9.682541e+00 1.367880e+01 7.573312e+00 1.217893e+01 5.670134e+00 1.414798e+01 7.152464e-01 2.018765e+00 1.735262e+00 8.653166e-01 1.394012e+00 1.176920e+00 1.675360e+00 1.126397e+00 1.146299e+00 1.048515e+00 1.067548e+00 8.855400e-01 1.194793e+00 1.971111e-01 4.334747e-01 5.106187e-01 2.299306e-01 4.871804e-01 2.543971e-01 3.500774e-01 2.111963e-01 3.287401e-01 1.968629e-01 1.606770e-01 2.045947e-01 4.063250e-01
<GCONST> 8.954877e+01
<STATE> 4
<MEAN> 39
 5.075386e+00 -1.405736e+01 1.991013e+01 -9.402240e+00 -2.141680e+01 -1.003584e+01 -3.733170e+00 -2.191993e+00 -9.952719e+00 -3.792066e-01 3.844436e+00 -7.361828e+00 7.453600e+01 2.013171e-01 2.596293e-01 -2.480790e-01 2.155174e-01 -4.087816e-02 -2.805915e-01 2.104263e-01 -2.126124e-01 -1.398540e-01 3.544225e-01 -4.979584e-02 -8.243357e-02 -4.164067e-02 -7.609590e-02 1.907590e-01 -1.488427e-01 9.334368e-02 1.498467e-01 -1.391897e-02 1.066929e-01 -4.942615e-02 7.478438e-02 1.181927e-02 -2.545572e-02 -5.672241e-02 -2.148284e-01
<VARIANCE> 39
 2.432222e+00 1.339849e+01 1.107382e+01 1.204666e+01 1.025831e+01 9.684949e+00 1.017534e+01 8.339600e+00 1.256004e+01 8.905590e+00 9.554164e+00 6.543864e+00 6.359529e+00 1.661396e-01 8.158352e-01 8.347002e-01 7.210418e-01 7.047367e-01 7.064703e-01 8.933747e-01 6.959778e-01 7.927508e-01 6.905230e-01 5.110080e-01 5.571520e-01 5.134550e-01 3.620473e-02 1.295177e-01 1.327192e-01 1.365210e-01 1.415355e-01 1.347179e-01 1.682331e-01 1.458910e-01 1.719119e-01 1.547809e-01 1.053840e-01 8.692938e-02 6.470078e-02
<GCONST> 6.549491e+01
<TRANSP> 5
 0.000000e+00 1.000000e+00 0.000000e+00 0.000000e+00 0.000000e+00
 0.000000e+00 7.441297e-01 2.558703e-01 0.000000e+00 0.000000e+00
 0.000000e+00 0.000000e+00 6.402474e-01 3.597525e-01 0.000000e+00
 0.000000e+00 0.000000e+00 0.000000e+00 9.154546e-01 8.454531e-02
 0.000000e+00 0.000000e+00 0.000000e+00 0.000000e+00 0.000000e+00
<ENDHMM>
~h "ii"
<BEGINHMM>
<NUMSTATES> 5
<STATE> 2
<MEAN> 39
 3.910028e+00 -1.080747e+01 1.915239e+01 -8.474827e+00 -1.941734e+01 -6.097034e+00 -2.592810e+00 -7.162724e+00 -1.014378e+01 2.517907e-01 -7.076569e-01 -1.346535e+01 7.358886e+01 1.353376e+00 2.107050e-01 3.305353e+00 -1.146602e+00 -2.093925e+00 1.257295e+00 -1.956313e+00 -4.434884e-01 -1.420871e+00 1.862368e+00 -1.669167e+00 -2.522360e+00 1.200658e+00 -6.054048e-01 2.354006e-01 -1.152950e+00 2.210120e-01 1.022842e+00 1.735487e-01 5.211206e-01 1.728515e-01 7.716011e-01 -4.398135e-02 -5.092613e-02 8.049414e-01 -8.745658e-01
<VARIANCE> 39
 3.744332e+00 9.575473e+00 2.327159e+01 1.444175e+01 1.377108e+01 1.055191e+01 1.756033e+01 6.875491e+00 1.047918e+01 1.274377e+01 1.076622e+01 1.204007e+01 8.853696e+00 1.325153e+00 7.795576e-01 4.984751e+00 9.100635e-01 2.769774e+00 1.821996e+00 2.318291e+00 1.461556e+00 1.855143e+00 1.014534e+00 1.358783e+00 2.132469e+00 9.759490e-01 6.757163e-02 1.056801e-01 4.752951e-01 1.573108e-01 2.009435e-01 3.980049e-01 3.821476e-01 2.209752e-01 1.588067e-01 3.086437e-01 2.146226e-01 2.375170e-01 8.452851e-02
<GCONST> 8.784638e+01
<STATE> 3
<MEAN> 39
 4.241010e+00 -8.131044e+00 2.017606e+01 -1.030948e+01 -1.969826e+01 -2.219975e+00 -1.489046e+00 -6.658602e+00 -6.474330e+00 3.116847e+00 -4.378273e+00 -1.306386e+01 7.202010e+01 5.598718e-02 4.883676e-01 -4.456175e-01 1.595998e-01 1.927198e-01 5.252319e-02 6.122131e-01 3.506649e-01 5.399810e-01 -2.869419e-01 2.016444e-01 5.849428e-01 -4.471053e-01 1.347260e-02 7.096311e-02 -2.172785e-01 1.165965e-01 1.455659e-01 -1.444868e-01 1.025252e-01 7.204077e-02 1.802254e-02 -2.025369e-01 1.589440e-01 1.440278e-01 -7.702049e-02
<VARIANCE> 39
 2.812790e+00 9.564809e+00 1.571658e+01 1.136145e+01 1.192083e+01 1.274498e+01 1.871512e+01 1.180289e+01 1.473769e+01 1.477752e+01 1.676441e+01 1.085079e+01 5.144189e+00 1.333416e-01 4.195521e-01 7.425784e-01 6.042632e-01 6.299576e-01 8.683994e-01 6.181353e-01 7.753613e-01 8.681058e-01 9.784908e-01 1.069061e+00 4.777172e-01 1.339775e-01 3.151998e-02 9.529525e-02 1.625883e-01 1.118017e-01 1.540873e-01 1.425316e-01 1.433371e-01 1.306667e-01 1.992315e-01 1.278558e-01 1.477204e-01 1.228399e-01 3.699894e-02
<GCONST> 6.634383e+01
<STATE> 4
<MEAN> 39
 6.375356e+00 5.777740e-01 9.681631e+00 -5.737181e+00 -1.231973e+01 -4.895670e+00 4.796303e+00 -3.669049e+00 -1.600949e+00 -2.783273e+00 -1.813884e+00 -6.449849e+00 6.549073e+01 1.607168e-01 1.056710e+00 -1.031526e+00 4.997825e-01 1.226804e+00 -2.284115e-01 8.835693e-02 -1.519319e-02 7.026863e-01 -4.500657e-01 -3.494844e-01 4.954889e-01 -6.828313e-01 -9.065144e-02 -1.018965e-01 2.004223e-01 7.619422e-03 -3.334686e-02 7.896968e-02 -1.480989e-01 -7.127130e-02 2.623695e-02 1.034972e-01 -8.803463e-02 -6.273608e-02 4.139109e-02
<VARIANCE> 39
 2.303380e+00 1.385491e+01 1.733067e+01 1.123946e+01 2.328986e+01 1.179262e+01 1.009380e+01 1.014683e+01 1.267325e+01 1.404390e+01 1.639907e+01 8.786270e+00 5.479499e+00 1.843148e-01 6.797252e-01 1.256067e+00 5.715906e-01 1.206299e+00 9.502798e-01 7.655072e-01 9.527825e-01 9.208435e-01 1.065913e+00 9.532211e-01 8.379712e-01 1.732609e-01 2.258731e-02 9.968299e-02 1.535931e-01 1.138041e-01 2.376706e-01 2.119252e-01 1.200622e-01 1.870428e-01 1.843460e-01 2.031714e-01 2.259045e-01 1.667459e-01 2.288439e-02
<GCONST> 7.065771e+01
<TRANSP> 5
 0.000000e+00 1.000000e+00 0.000000e+00 0.000000e+00 0.000000e+00
 0.000000e+00 6.979663e-01 3.020337e-01 0.000000e+00 0.000000e+00
 0.000000e+00 0.000000e+00 9.124652e-01 8.753473e-02 0.000000e+00
 0.000000e+00 0.000000e+00 0.000000e+00 8.850059e-01 1.149941e-01
 0.000000e+00 0.000000e+00 0.000000e+00 0.000000e+00 0.000000e+00
<ENDHMM>
~h "sh"
<BEGINHMM>
<NUMSTATES> 5
<STATE> 2
<MEAN> 39
 -7.587559e+00 -8.840924e+00 6.305055e+00 -1.366026e+00 -6.958028e+00 -1.451938e+00 -4.991717e-01 -5.688334e+00 8.289861e+00 -2.379701e+00 2.046936e-01 -3.729308e+00 6.721931e+01 -9.116033e-01 -7.186288e-01 1.995824e-01 5.050734e-01 -4.037332e-01 -1.778779e-01 3.859368e-01 -3.185840e-01 6.825237e-01 4.678392e-01 1.494513e-01 -1.342824e-01 1.518531e-01 3.827220e-01 3.069492e-02 -4.966380e-02 -7.324504e-02 -1.341176e-02 -2.996919e-01 -1.213227e-01 1.486103e-01 -2.473066e-01 -1.737475e-01 2.745925e-02 -1.181068e-02 3.947735e-03
<VARIANCE> 39
 4.354227e+01 2.245389e+01 2.166923e+01 1.752276e+01 2.061238e+01 2.959431e+01 2.755070e+01 3.006259e+01 2.439863e+01 2.721222e+01 2.146032e+01 1.863185e+01 1.670594e+01 3.217779e+00 1.482678e+00 1.435590e+00 1.823082e+00 1.478258e+00 2.614710e+00 2.315063e+00 2.066685e+00 1.988469e+00 1.752978e+00 2.085413e+00 1.140148e+00 6.425365e-01 4.611468e-01 2.559640e-01 2.010968e-01 2.839165e-01 3.162467e-01 3.604641e-01 6.584596e-01 3.646554e-01 4.581290e-01 4.237810e-01 4.186233e-01 2.821389e-01 1.012246e-01
<GCONST> 1.053904e+02
<STATE> 3
<MEAN> 39
 -6.076345e+00 -9.829645e+00 7.415437e+00 -3.459597e-02 -7.594746e+00 -3.110645e+00 5.333769e-01 -5.981272e+00 7.176579e+00 -2.434916e+00 7.482082e-01 -4.346291e+00 6.600359e+01 1.383042e+00 1.201537e-01 2.336693e-01 -3.817101e-01 -3.783897e-01 -8.108778e-01 -1.052954e+00 -3.430200e-02 -8.000369e-01 -6.588327e-01 -1.038905e-01 -4.708102e-01 5.569206e-01 3.505699e-01 -1.190747e-02 -1.596025e-01 -4.182124e-01 -1.373555e-01 -6.750146e-02 -3.266250e-01 4.180751e-02 -2.958635e-01 -2.127412e-02 6.927222e-02 -7.866758e-02 3.976739e-01
<VARIANCE> 39
 3.052486e+01 1.905518e+01 2.087064e+01 1.801491e+01 2.737237e+01 4.923295e+01 1.695633e+01 2.803330e+01 1.823875e+01 2.367478e+01 2.060487e+01 1.273440e+01 1.046101e+01 1.113649e+01 2.356880e+00 1.060712e+00 1.498929e+00 2.371925e+00 2.650849e+00 2.790241e+00 1.860402e+00 4.424261e+00 2.241898e+00 1.485770e+00 1.222455e+00 9.499594e-01 4.099657e-01 3.589139e-01 2.611639e-01 2.760881e-01 4.308888e-01 4.603992e-01 4.493899e-01 2.669051e-01 4.419306e-01 3.161366e-01 3.683560e-01 2.080291e-01 1.950700e-01
<GCONST> 1.069292e+02
<STATE> 4
<MEAN> 39
 1.699375e+00 -1.011220e+01 7.913980e+00 -3.705315e+00 -1.104021e+01 -6.496439e+00 -3.994337e+00 -4.527626e+00 3.118577e+00 -4.270590e+00 8.808821e-01 -5.466104e+00 7.040040e+01 1.007854e+00 -6.855425e-01 3.077494e-01 -9.282090e-01 -4.425831e-01 -1.878221e-01 -1.128337e+00 3.871001e-01 -2.993944e-01 -5.940415e-02 2.231081e-01 -2.806872e-01 9.874721e-01 -5.941336e-01 8.864126e-02 -1.371291e-01 1.193815e-01 2.706605e-01 2.868555e-01 4.194909e-01 7.127249e-02 4.559995e-01 1.737407e-01 -4.229846e-02 1.137051e-01 -3.279077e-01
<VARIANCE> 39
 5.657638e+01 2.004194e+01 2.311021e+01 1.414926e+01 2.345279e+01 3.799654e+01 2.816549e+01 2.075136e+01 1.776555e+01 1.467898e+01 1.206130e+01 1.197992e+01 1.925300e+01 6.197149e+00 1.776799e+00 1.247036e+00 1.800407e+00 1.870089e+00 1.880248e+00 3.184050e+00 1.250973e+00 3.095193e+00 9.256435e-01 1.563420e+00 1.016498e+00 1.455624e+00 5.830359e-01 5.487342e-01 2.430781e-01 2.077042e-01 3.734112e-01 3.550842e-01 4.093112e-01 2.511880e-01 5.360480e-01 2.860692e-01 2.104691e-01 1.392060e-01 2.708486e-01
<GCONST> 1.037643e+02
<TRANSP> 5
 0.000000e+00 1.000000e+00 0.000000e+00 0.000000e+00 0.000000e+00
 0.000000e+00 7.943811e-01 2.056189e-01 0.000000e+00 0.000000e+00
 0.000000e+00 0.000000e+00 4.506429e-01 5.493571e-01 0.000000e+00
 0.000000e+00 0.000000e+00 0.000000e+00 5.328498e-01 4.671502e-01
 0.000000e+00 0.000000e+00 0.000000e+00 0.000000e+00 0.000000e+00
<ENDHMM>
~h "uu"
<BEGINHMM>
<NUMSTATES> 5
<STATE> 2
<MEAN> 39
 5.626700e+00 -1.187045e+01 5.258917e+00 -9.087455e+00 -4.581459e+00 -1.545453e-01 -1.070562e+01 -4.972656e+00 5.448610e+00 -1.650085e-01 -9.395384e-01 -9.023768e+00 7.199686e+01 -1.368156e-01 -9.916371e-01 -7.561411e-02 -1.775548e+00 -2.941915e-01 1.637731e+00 -6.320180e-01 -2.237009e-01 -1.385515e-01 6.756375e-01 5.712504e-01 -6.055637e-02 7.487493e-01 4.848169e-02 7.100833e-01 -3.499778e-01 2.189653e-01 1.035702e-02 -2.329764e-02 7.755389e-01 -2.752876e-01 -2.599852e-01 -1.273228e-01 -5.661117e-02 3.434569e-01 -4.248445e-01
<VARIANCE> 39
 3.166520e+01 1.835441e+01 1.566105e+01 3.107430e+01 2.134650e+01 3.327603e+01 3.618348e+01 1.329597e+01 1.335697e+01 1.406274e+01 1.727474e+01 1.255533e+01 1.244771e+01 4.551804e-01 3.518375e+00 1.285534e+00 2.524038e+00 1.021711e+00 1.764877e+00 4.675639e+00 1.747146e+00 1.556473e+00 1.269493e+00 1.138669e+00 9.414942e-01 1.375471e+00 1.615973e-01 3.701069e-01 1.682100e-01 3.598357e-01 1.887240e-01 1.948952e-01 5.303729e-01 2.736791e-01 2.179125e-01 2.164121e-01 2.007474e-01 1.553160e-01 1.003843e-01
<GCONST> 9.584042e+01
<STATE> 3
<MEAN> 39
 6.453138e+00 -9.160868e+00 1.863691e+00 -1.480282e+01 -5.070224e+00 5.749446e+00 -7.398969e+00 -8.355299e+00 2.095747e+00 -5.192494e-02 1.166976e+00 -5.406776e+00 7.171676e+01 2.642453e-01 1.591952e+00 -8.910018e-01 -6.502930e-01 1.097554e-01 2.166809e-01 1.389222e+00 7.368552e-02 -7.927495e-01 -1.208400e+00 5.728534e-02 1.425780e+00 -6.396588e-01 4.983379e-02 1.293043e-01 6.846936e-02 2.888274e-01 -2.788341e-02 -5.244746e-01 9.323599e-02 4.411657e-01 1.804005e-02 -3.370750e-01 -1.662883e-01 -1.035028e-02 -9.746696e-02
<VARIANCE> 39
 3.904995e+01 1.402721e+01 2.189504e+01 5.277105e+01 1.445262e+01 5.060772e+01 3.044936e+01 1.806416e+01 2.057826e+01 2.326884e+01 1.516186e+01 1.731733e+01 7.596049e+00 2.001867e-01 8.565328e-01 4.209761e-01 1.240239e+00 6.307285e-01 1.581743e+00 1.123246e+00 1.923510e+00 9.367634e-01 1.855068e+00 1.119626e+00 1.116033e+00 3.024294e-01 4.677947e-02 1.460068e-01 9.043186e-02 1.214637e-01 1.287414e-01 1.708754e-01 2.433997e-01 2.551873e-01 2.071657e-01 3.210846e-01 1.851380e-01 3.270835e-01 3.072284e-02
<GCONST> 8.455344e+01
<STATE> 4
<MEAN> 39
 7.574376e+00 1.150488e+00 2.262267e-01 -1.175027e+01 -5.806279e+00 -2.942890e+00 3.994442e-01 -2.595017e+00 -7.351058e-01 -5.546285e+00 -5.804560e-01 -3.491041e+00 6.572591e+01 -2.951941e-01 4.420951e-01 1.357873e-01 6.441388e-01 6.542452e-02 -5.090953e-01 4.160639e-01 7.349448e-02 -1.801018e-02 2.304833e-02 -2.204097e-02 -1.317909e-02 -5.110031e-01 -5.729472e-02 -1.267198e-01 6.779833e-02 4.995997e-02 1.652110e-02 4.798439e-02 -9.578472e-02 -6.964070e-02 6.091636e-02 1.139356e-01 2.949167e-02 -5.067220e-02 2.280844e-02
<VARIANCE> 39
 2.581014e+01 1.682019e+01 1.528811e+01 3.853508e+01 1.593616e+01 2.946541e+01 1.707563e+01 1.925447e+01 2.203161e+01 1.447826e+01 1.563903e+01 1.414897e+01 1.276350e+01 3.063900e-01 6.191810e-01 6.622837e-01 9.146658e-01 8.938484e-01 1.621061e+00 1.297771e+00 1.782697e+00 1.436903e+00 1.384194e+00 1.238128e+00 1.217974e+00 1.252822e-01 2.989257e-02 5.855924e-02 9.431501e-02 1.701045e-01 1.432156e-01 2.167853e-01 2.237577e-01 2.817691e-01 2.675812e-01 2.654813e-01 2.366302e-01 2.390535e-01 1.946653e-02
<GCONST> 8.168251e+01
<TRANSP> 5
 0.000000e+00 1.000000e+00 0.000000e+00 0.000000e+00 0.000000e+00
 0.000000e+00 6.476444e-01 3.523556e-01 0.000000e+00 0.000000e+00
 0.000000e+00 0.000000e+00 6.534558e-01 3.465442e-01 0.000000e+00
 0.000000e+00 0.000000e+00 0.000000e+00 9.033186e-01 9.668141e-02
 0.000000e+00 0.000000e+00 0.000000e+00 0.000000e+00 0.000000e+00
<ENDHMM>
~h "sil"
<BEGINHMM>
<NUMSTATES> 5
<STATE> 2
<MEAN> 39
 -4.741577e+00 -5.382103e+00 1.844163e-01 -6.426679e-01 8.914343e-01 -2.712880e+00 4.373572e+00 -1.699177e+00 4.227793e+00 -2.151783e+00 4.552372e-01 -1.212929e+00 5.729315e+01 -2.719591e-01 2.603537e-01 2.092068e-01 1.568018e-01 1.308610e-01 2.431856e-01 1.501952e-01 -1.349601e-01 -8.669002e-02 1.493774e-01 1.308933e-01 -2.856414e-02 -3.084673e-01 1.630799e-02 -5.706537e-02 3.470227e-02 4.842732e-03 -5.610403e-02 -6.188060e-02 -8.488649e-04 9.409773e-03 -6.454022e-02 -5.514503e-02 2.025010e-02 6.180122e-02 5.404421e-02
<VARIANCE> 39
 2.953393e+00 8.435006e+00 8.025732e+00 9.869729e+00 1.388624e+01 1.216736e+01 1.573013e+01 1.555432e+01 1.785384e+01 1.519838e+01 1.437848e+01 1.448570e+01 2.614277e+00 1.485714e-01 3.483423e-01 3.961776e-01 7.535827e-01 9.937677e-01 1.111278e+00 1.178601e+00 1.112639e+00 1.440377e+00 1.450276e+00 1.247841e+00 9.975236e-01 1.024465e-01 2.402387e-02 4.917809e-02 6.000830e-02 1.337636e-01 1.661995e-01 1.843230e-01 2.138557e-01 2.097627e-01 2.806787e-01 2.641695e-01 2.306988e-01 1.686980e-01 1.263971e-02
<GCONST> 6.830025e+01
<STATE> 3
<MEAN> 39
 -6.531875e+00 -4.172346e+00 3.277025e+00 -1.583119e+00 5.663300e-02 -5.011642e-01 3.683469e+00 -4.070071e+00 3.148444e+00 -3.017694e+00 1.911848e+00 7.391449e-01 5.681377e+01 -6.018711e-02 5.486079e-03 4.275015e-02 1.192897e-02 -3.612663e-02 6.905366e-02 7.797568e-02 -6.067148e-02 -7.201916e-02 -4.588586e-02 6.065837e-02 8.258808e-02 -3.477206e-02 1.367234e-02 -9.618014e-03 -2.279244e-02 -2.319779e-02 -1.386622e-02 -1.617794e-02 -7.953305e-03 3.690779e-03 -1.270901e-02 -1.292986e-02 -2.464858e-02 -7.751035e-04 9.771839e-03
<VARIANCE> 39
 1.673775e+00 5.634857e+00 1.547218e+01 8.708503e+00 1.539381e+01 1.809968e+01 1.342429e+01 1.644713e+01 1.568175e+01 1.622638e+01 1.398648e+01 1.432535e+01 1.666169e+00 1.387531e-01 2.582063e-01 5.868328e-01 7.418298e-01 9.017470e-01 1.095756e+00 1.167415e+00 1.377594e+00 1.354984e+00 1.319090e+00 1.294467e+00 1.200045e+00 4.519054e-02 2.587430e-02 5.036399e-02 1.101257e-01 1.466186e-01 1.821594e-01 2.156637e-01 2.275766e-01 2.708519e-01 2.720751e-01 2.668132e-01 2.511613e-01 2.385464e-01 9.398441e-03
<GCONST> 6.853089e+01
<STATE> 4
<MEAN> 39
 -6.606659e+00 -3.954073e+00 8.303245e-01 -8.260296e-01 1.384591e+00 -1.726674e+00 4.913950e+00 -3.036200e+00 1.845130e+00 -2.706501e+00 2.373261e+00 5.126262e-01 5.516079e+01 -1.273481e-02 -4.718144e-03 1.321115e-02 -1.057015e-02 6.237021e-05 7.625668e-03 -2.570582e-02 -1.563241e-02 -3.488481e-03 -9.377975e-03 1.160391e-04 3.134017e-04 -1.027237e-03 2.847109e-04 -2.374913e-03 2.512580e-03 6.937192e-05 6.780787e-04 -6.062547e-03 -9.796455e-03 4.112045e-04 1.250859e-03 -5.718971e-04 -5.205904e-03 -9.558107e-03 4.787654e-03
<VARIANCE> 39
 1.248572e+00 2.952523e+00 7.080735e+00 7.504577e+00 9.652372e+00 1.212229e+01 1.483432e+01 1.342772e+01 1.426026e+01 1.352254e+01 1.242194e+01 1.118599e+01 6.201172e-01 1.079759e-01 2.255236e-01 4.178979e-01 6.434510e-01 8.051403e-01 9.724809e-01 1.330027e+00 1.442133e+00 1.520754e+00 1.384060e+00 1.322081e+00 1.151564e+00 3.206643e-02 2.254537e-02 4.661691e-02 8.292355e-02 1.329974e-01 1.650217e-01 1.992481e-01 2.779754e-01 2.996323e-01 3.146007e-01 2.916792e-01 2.803364e-01 2.393076e-01 6.976194e-03
<GCONST> 6.251089e+01
<TRANSP> 5
 0.000000e+00 1.000000e+00 0.000000e+00 0.000000e+00 0.000000e+00
 0.000000e+00 7.656922e-01 2.343078e-01 0.000000e+00 0.000000e+00
 0.000000e+00 0.000000e+00 8.737475e-01 1.262525e-01 0.000000e+00
 0.000000e+00 0.000000e+00 0.000000e+00 9.727542e-01 2.724570e-02
 0.000000e+00 0.000000e+00 0.000000e+00 0.000000e+00 0.000000e+00
<ENDHMM>
~h "txh"
<BEGINHMM>
<NUMSTATES> 5
<STATE> 2
<MEAN> 39
 8.634214e+00 -2.443691e+01 -5.617988e+00 -8.691424e+00 -3.600821e-01 5.800960e+00 -6.933832e-01 -7.503009e-02 -4.541065e+00 -5.958825e+00 2.222225e-01 -1.299092e+01 7.674006e+01 2.038236e-01 -1.936689e-01 -1.767245e-01 1.004461e+00 -5.552586e-01 -1.378315e+00 -2.214793e-02 1.195548e+00 8.588886e-01 -6.594825e-01 -2.468209e-01 4.581594e-01 1.078954e-02 -1.176116e-02 2.318539e-01 2.151663e-02 1.009107e-01 -1.772854e-02 -3.277592e-01 -6.572507e-02 8.573823e-02 1.791352e-01 -9.053789e-02 -6.642765e-02 2.344389e-01 -1.501098e-01
<VARIANCE> 39
 3.322122e+00 1.295603e+01 1.115909e+01 1.866712e+01 1.248651e+01 3.013499e+01 1.435172e+01 2.854753e+01 2.134150e+01 1.970988e+01 1.140731e+01 9.405885e+00 4.403029e+00 1.725300e-01 6.810732e-01 4.950199e-01 7.563785e-01 7.014333e-01 1.780844e+00 9.117520e-01 1.273405e+00 1.418835e+00 1.139084e+00 8.527728e-01 8.544126e-01 2.474398e-01 3.130054e-02 1.568999e-01 1.017913e-01 1.069826e-01 1.093773e-01 1.497792e-01 1.363837e-01 2.260741e-01 1.687319e-01 1.958711e-01 1.442667e-01 1.069050e-01 3.540058e-02
<GCONST> 7.258924e+01
<STATE> 3
<MEAN> 39
 1.013504e+01 -2.096466e+01 -5.056703e+00 2.467752e-02 -4.922672e+00 -1.118567e+01 -3.673099e+00 9.684637e+00 4.799491e+00 -1.165082e+01 -2.431779e+00 -4.296578e+00 7.459439e+01 5.281261e-02 2.378809e+00 4.772714e-01 1.229669e+00 -1.031651e-01 -2.407852e+00 -7.597951e-01 -3.428227e-01 9.939802e-01 8.667645e-02 2.891896e-01 1.810796e+00 -1.213265e+00 -2.870843e-01 2.721627e-01 -2.259840e-03 -1.718153e-01 5.039964e-01 8.954105e-01 2.304928e-01 -8.350018e-01 -4.037168e-01 3.354394e-01 2.014057e-01 -4.785214e-01 -2.742524e-01
<VARIANCE> 39
 3.156811e+00 1.753880e+01 1.179238e+01 1.103931e+01 1.671509e+01 2.983971e+01 1.520255e+01 1.519909e+01 2.022324e+01 1.163478e+01 1.204791e+01 1.535407e+01 6.435096e+00 3.414340e-01 8.408468e-01 7.565902e-01 7.148168e-01 1.768228e+00 3.760654e+00 1.332344e+00 3.273601e+00 1.631881e+00 1.297998e+00 1.292243e+00 1.574312e+00 2.434224e-01 7.088035e-02 2.620094e-01 1.646024e-01 1.496643e-01 2.391685e-01 5.094648e-01 3.942038e-01 3.452941e-01 3.546516e-01 2.106336e-01 2.789010e-01 3.545148e-01 2.593447e-02
<GCONST> 8.596114e+01
<STATE> 4
<MEAN> 39
 1.819714e+00 -1.280739e+01 -3.261186e+00 -1.851361e+00 -2.020953e+00 -8.133388e+00 6.092229e-01 3.554210e+00 6.158429e+00 -5.932687e+00 -6.167728e-01 -2.288291e+00 6.523067e+01 -9.192994e-01 3.540208e-01 2.577848e-01 -3.526556e-01 1.489646e-01 5.342754e-01 5.969809e-01 -3.198106e-01 -7.453707e-02 4.907538e-01 7.275099e-02 6.579579e-02 -7.009623e-01 2.199880e-02 -1.106910e-01 8.882554e-03 -3.460465e-02 -6.604227e-02 1.414360e-02 8.381741e-03 8.243658e-02 -3.674168e-02 -2.310394e-02 -2.207109e-02 1.113078e-02 7.775252e-02
<VARIANCE> 39
 2.258679e+01 1.300753e+01 2.266564e+01 2.290511e+01 1.580625e+01 3.167302e+01 2.800162e+01 2.203064e+01 2.266739e+01 2.395216e+01 2.198927e+01 1.833090e+01 1.318342e+01 6.038300e-01 1.722712e+00 2.343745e+00 2.117855e+00 1.931932e+00 2.095211e+00 2.278802e+00 2.384106e+00 2.259544e+00 1.817954e+00 2.317687e+00 2.116990e+00 1.279910e+00 1.045476e-01 3.100686e-01 4.976555e-01 4.110248e-01 3.689612e-01 4.801576e-01 4.974504e-01 4.540372e-01 4.594907e-01 3.739143e-01 4.799633e-01 4.874555e-01 2.184284e-01
<GCONST> 1.061406e+02
<TRANSP> 5
 0.000000e+00 1.000000e+00 0.000000e+00 0.000000e+00 0.000000e+00
 0.000000e+00 9.007238e-01 9.927624e-02 0.000000e+00 0.000000e+00
 0.000000e+00 0.000000e+00 7.317316e-01 2.682684e-01 0.000000e+00
 0.000000e+00 0.000000e+00 0.000000e+00 9.207043e-01 7.929566e-02
 0.000000e+00 0.000000e+00 0.000000e+00 0.000000e+00 0.000000e+00
<ENDHMM>
~h "sp"
<BEGINHMM>
<NUMSTATES> 3
<STATE> 2
<MEAN> 39
 -6.531875e+00 -4.172346e+00 3.277025e+00 -1.583119e+00 5.663300e-02 -5.011642e-01 3.683469e+00 -4.070071e+00 3.148444e+00 -3.017694e+00 1.911848e+00 7.391449e-01 5.681377e+01 -6.018711e-02 5.486079e-03 4.275015e-02 1.192897e-02 -3.612663e-02 6.905366e-02 7.797568e-02 -6.067148e-02 -7.201916e-02 -4.588586e-02 6.065837e-02 8.258808e-02 -3.477206e-02 1.367234e-02 -9.618014e-03 -2.279244e-02 -2.319779e-02 -1.386622e-02 -1.617794e-02 -7.953305e-03 3.690779e-03 -1.270901e-02 -1.292986e-02 -2.464858e-02 -7.751035e-04 9.771839e-03
<VARIANCE> 39
 1.673775e+00 5.634857e+00 1.547218e+01 8.708503e+00 1.539381e+01 1.809968e+01 1.342429e+01 1.644713e+01 1.568175e+01 1.622638e+01 1.398648e+01 1.432535e+01 1.666169e+00 1.387531e-01 2.582063e-01 5.868328e-01 7.418298e-01 9.017470e-01 1.095756e+00 1.167415e+00 1.377594e+00 1.354984e+00 1.319090e+00 1.294467e+00 1.200045e+00 4.519054e-02 2.587430e-02 5.036399e-02 1.101257e-01 1.466186e-01 1.821594e-01 2.156637e-01 2.275766e-01 2.708519e-01 2.720751e-01 2.668132e-01 2.511613e-01 2.385464e-01 9.398441e-03
<GCONST> 6.853089e+01
<TRANSP> 3
0.0 1.0 0.0
 0.0 0.9 0.1
 0.0 0.0 0.0
<ENDHMM>
