~o
<STREAMINFO> 1 39
<VECSIZE> 39<NULLD><MFCC_D_A_0><DIAGC>
~h "a"
<BEGINHMM>
<NUMSTATES> 5
<STATE> 2
<MEAN> 39
 -1.395643e-01 -5.660370e+00 4.284544e-01 -3.242869e+00 -3.328690e+00 -5.733939e+00 1.636619e+00 -7.355911e-01 5.688201e+00 -2.522551e+00 -1.508317e+00 -3.048590e+00 6.306801e+01 -6.916678e-01 3.510019e-01 3.306017e-01 2.206743e-01 3.968135e-01 6.730586e-02 1.187372e-01 -9.079586e-02 1.297797e-01 -7.809272e-02 1.310616e-01 4.345356e-01 -5.950211e-01 2.564110e-02 -1.351273e-01 -1.559671e-02 -6.118785e-02 -7.977923e-04 3.455125e-02 2.842077e-02 5.120880e-02 -4.176813e-02 3.228168e-02 5.727255e-02 -3.113253e-02 9.018327e-02
<VARIANCE> 39
 3.882483e+01 3.569067e+01 3.406356e+01 1.907011e+01 2.938372e+01 2.383032e+01 3.309596e+01 3.287238e+01 2.879126e+01 2.435674e+01 2.370986e+01 1.903547e+01 2.634597e+01 9.592893e-01 1.940166e+00 1.438086e+00 1.323392e+00 1.859875e+00 1.834089e+00 1.978674e+00 2.140787e+00 1.933724e+00 2.026654e+00 1.951122e+00 1.563880e+00 9.572734e-01 1.727664e-01 3.259112e-01 2.700575e-01 2.664988e-01 3.545201e-01 3.774219e-01 4.203026e-01 4.141887e-01 3.667728e-01 3.471323e-01 3.875603e-01 3.272173e-01 1.707330e-01
<GCONST> 1.060787e+02
<STATE> 3
<MEAN> 39
 -2.354437e+00 -4.932242e+00 1.289457e+00 -3.055378e+00 -2.363795e+00 -5.721351e+00 2.677805e+00 -7.498398e-01 5.293635e+00 -2.451494e+00 -1.031099e+00 -1.885599e+00 6.242165e+01 -5.062216e-01 -1.239038e-01 2.140212e-01 8.517265e-02 3.771148e-01 9.775914e-02 1.300136e-01 1.110148e-01 3.898091e-02 2.390919e-02 1.792835e-01 2.287389e-01 -2.041685e-01 1.394277e-01 -1.479734e-01 -1.340872e-01 -1.416771e-01 -5.658856e-03 8.600840e-02 8.510826e-04 2.140263e-04 -4.709668e-02 4.755281e-02 -1.930028e-02 -1.907103e-01 1.606501e-01
<VARIANCE> 39
 4.535203e+01 3.508207e+01 2.774192e+01 1.906349e+01 2.817962e+01 2.343143e+01 3.082982e+01 3.393477e+01 2.841777e+01 2.426806e+01 2.550199e+01 1.814500e+01 2.498033e+01 1.470847e+00 2.412582e+00 1.696788e+00 1.401948e+00 1.978397e+00 1.836067e+00 2.217967e+00 2.328204e+00 2.055955e+00 1.882788e+00 1.972369e+00 1.683203e+00 1.291361e+00 2.383838e-01 3.815436e-01 3.141254e-01 2.884620e-01 3.689007e-01 4.079595e-01 4.179195e-01 4.450023e-01 4.132105e-01 4.057856e-01 4.004588e-01 3.748535e-01 2.660528e-01
<GCONST> 1.091503e+02
<STATE> 4
<MEAN> 39
 -2.447567e+00 -5.858374e+00 1.444219e+00 -3.289516e+00 -1.979819e+00 -5.446653e+00 2.608433e+00 -6.173051e-01 5.178315e+00 -2.498255e+00 -8.423396e-01 -2.138601e+00 6.265219e+01 5.513579e-04 -3.240319e-01 -1.432568e-01 -2.036461e-01 2.813135e-01 2.647618e-01 -2.986587e-02 -9.843278e-02 -5.672602e-02 1.240371e-01 5.283634e-02 -3.271082e-01 2.239410e-01 1.373367e-01 -1.504736e-02 -1.226044e-01 -1.383089e-01 -4.068447e-02 1.090976e-01 -6.071844e-02 -9.384779e-02 -4.343244e-02 2.330776e-02 -1.860786e-02 -1.792988e-01 1.355976e-01
<VARIANCE> 39
 4.143869e+01 3.561239e+01 2.582975e+01 2.015554e+01 2.721263e+01 2.718705e+01 3.361513e+01 3.427190e+01 3.097066e+01 2.525768e+01 2.457005e+01 2.000263e+01 2.319836e+01 2.593765e+00 3.550258e+00 2.389186e+00 2.121656e+00 2.377902e+00 2.516184e+00 2.913473e+00 2.508331e+00 2.469953e+00 2.190457e+00 2.083486e+00 2.586570e+00 3.017237e+00 3.203589e-01 4.970761e-01 3.848049e-01 3.507212e-01 4.008808e-01 4.583157e-01 4.382635e-01 4.335128e-01 4.540625e-01 4.430616e-01 4.321943e-01 4.607009e-01 3.712567e-01
<GCONST> 1.155832e+02
<TRANSP> 5
 0.000000e+00 1.000000e+00 0.000000e+00 0.000000e+00 0.000000e+00
 0.000000e+00 5.104153e-01 4.895847e-01 0.000000e+00 0.000000e+00
 0.000000e+00 0.000000e+00 3.795618e-01 6.204383e-01 0.000000e+00
 0.000000e+00 0.000000e+00 0.000000e+00 4.166681e-01 5.833318e-01
 0.000000e+00 0.000000e+00 0.000000e+00 0.000000e+00 0.000000e+00
<ENDHMM>
~h "c"
<BEGINHMM>
<NUMSTATES> 5
<STATE> 2
<MEAN> 39
 7.320858e+00 -1.043595e+01 -7.438966e+00 -6.681484e+00 -1.982013e+00 -1.921784e+00 2.833528e+00 -5.112247e+00 3.640509e+00 -2.702069e+00 -5.197046e-01 -9.717204e+00 7.073280e+01 8.757910e-02 7.757059e-01 -1.433180e+00 2.971600e-01 6.966034e-01 7.461964e-01 1.131743e+00 -1.334448e+00 2.676625e-01 -3.732556e-01 1.512527e-01 -2.636793e-01 -4.420940e-01 -2.098402e-01 -3.113225e-01 -2.560701e-01 -2.356018e-01 1.042967e-02 1.874350e-01 3.646207e-01 2.898367e-01 1.202775e-01 1.102028e-01 -1.723746e-01 -5.111925e-02 2.693935e-02
<VARIANCE> 39
 1.711802e+01 1.441063e+01 6.417933e+01 2.511087e+01 1.726884e+01 6.360417e+01 6.478284e+01 6.634168e+01 2.883726e+01 1.572585e+01 2.023932e+01 2.235653e+01 2.953243e+01 2.183186e+00 3.222298e+00 4.168009e+00 3.144032e+00 2.432468e+00 2.750868e+00 3.370916e+00 3.813643e+00 1.292739e+00 1.484366e+00 1.437273e+00 1.583142e+00 5.113068e+00 2.434258e-01 3.368745e-01 8.002217e-01 5.821117e-01 5.587209e-01 6.066272e-01 9.174771e-01 6.276090e-01 2.830134e-01 2.959294e-01 2.157510e-01 3.609545e-01 3.763611e-01
<GCONST> 1.167305e+02
<STATE> 3
<MEAN> 39
 8.617726e+00 -1.149559e+01 -1.412345e+01 -6.856211e+00 -9.760433e-01 3.197687e+00 7.995145e+00 -1.022610e+01 6.503971e+00 -3.458776e+00 -4.424556e-01 -1.181314e+01 7.296392e+01 -3.241262e-01 -1.886675e-02 -4.626340e-02 1.576093e-01 -7.693502e-02 -4.338639e-02 8.999138e-02 5.049153e-01 2.924071e-01 3.756450e-02 -5.103651e-01 2.373305e-01 -3.957826e-01 -9.626208e-02 -6.778198e-02 1.988381e-01 -9.915225e-02 -2.282532e-01 -2.093098e-01 -1.834085e-01 3.296787e-01 2.239801e-03 2.427118e-02 -3.961218e-02 1.380821e-01 4.838700e-02
<VARIANCE> 39
 6.421339e+00 1.053571e+01 2.422484e+01 1.181253e+01 1.958912e+01 4.129813e+01 4.069350e+01 5.492442e+01 3.675574e+01 1.796285e+01 1.556567e+01 1.557368e+01 2.148632e+01 5.697780e-01 5.419533e-01 9.177758e-01 1.043759e+00 1.706725e+00 1.573864e+00 2.422735e+00 2.205529e+00 1.327709e+00 8.720744e-01 8.870286e-01 1.028098e+00 5.407823e-01 4.598262e-02 1.364140e-01 1.642915e-01 2.220551e-01 3.013089e-01 3.320242e-01 3.313944e-01 3.880454e-01 2.766476e-01 2.162675e-01 1.367528e-01 2.388264e-01 9.966728e-02
<GCONST> 9.061272e+01
<STATE> 4
<MEAN> 39
 3.488464e+00 -8.569038e+00 -1.044348e+01 -7.404132e+00 -6.248705e-01 -2.028490e+00 4.542223e+00 -1.506687e+00 6.179097e+00 -1.296198e+00 -3.862179e+00 -7.139287e+00 6.813699e+01 -1.185825e+00 6.700222e-01 5.767272e-01 -1.320356e-01 1.403634e-03 -7.068381e-01 -3.816828e-02 5.931218e-01 -1.821125e-02 1.853202e-01 -1.018128e-01 7.065366e-01 -5.175402e-01 -9.755518e-02 4.894120e-02 1.100815e-01 1.938217e-02 4.997457e-02 -3.954104e-02 1.030858e-02 -7.921924e-02 -7.641213e-02 1.126003e-02 4.902242e-02 3.263478e-02 4.698176e-02
<VARIANCE> 39
 4.619582e+01 2.305504e+01 1.743455e+01 1.303853e+01 2.404121e+01 3.385841e+01 3.153810e+01 3.316208e+01 2.866542e+01 1.685806e+01 1.874931e+01 2.242693e+01 2.977273e+01 1.586592e+00 9.730358e-01 9.075446e-01 1.146035e+00 1.853118e+00 3.061129e+00 2.672757e+00 3.362521e+00 1.796412e+00 1.684247e+00 1.679970e+00 1.932827e+00 1.236559e+00 1.554959e-01 1.692276e-01 1.760278e-01 2.329504e-01 3.986588e-01 6.058936e-01 4.628585e-01 6.141059e-01 3.066349e-01 3.334107e-01 3.109953e-01 4.020230e-01 1.990728e-01
<GCONST> 1.047625e+02
<TRANSP> 5
 0.000000e+00 1.000000e+00 0.000000e+00 0.000000e+00 0.000000e+00
 0.000000e+00 4.519227e-01 5.480773e-01 0.000000e+00 0.000000e+00
 0.000000e+00 0.000000e+00 7.065222e-01 2.934779e-01 0.000000e+00
 0.000000e+00 0.000000e+00 0.000000e+00 8.817600e-01 1.182400e-01
 0.000000e+00 0.000000e+00 0.000000e+00 0.000000e+00 0.000000e+00
<ENDHMM>
~h "d"
<BEGINHMM>
<NUMSTATES> 5
<STATE> 2
<MEAN> 39
 -1.097934e+00 -2.615687e+00 3.326336e+00 -2.891673e+00 -1.515398e+00 -4.913614e+00 1.276310e+00 -3.048142e+00 2.724809e+00 -3.308197e+00 -2.137915e+00 -4.110247e+00 5.972807e+01 1.117939e+00 1.555324e-01 7.505797e-01 -4.194102e-01 -5.294790e-01 -3.969743e-01 -1.106101e+00 -6.145092e-01 -5.492606e-01 -2.615785e-01 -3.621054e-01 -1.010705e+00 1.224281e+00 3.240591e-01 1.199080e-01 1.591732e-02 -1.772099e-01 -1.740097e-01 7.409835e-02 -2.274391e-01 -1.984866e-01 -1.947232e-02 2.631146e-01 1.897388e-01 -8.768620e-02 2.318036e-01
<VARIANCE> 39
 1.569243e+01 4.748288e+01 1.434960e+01 2.026881e+01 1.291561e+01 1.766577e+01 1.974707e+01 1.733016e+01 2.159993e+01 2.153243e+01 2.335597e+01 1.600666e+01 2.242965e+01 2.044597e+00 4.011993e+00 1.517958e+00 2.742891e+00 1.942912e+00 1.909411e+00 2.386154e+00 2.441272e+00 1.520202e+00 2.208753e+00 2.373820e+00 1.817988e+00 2.969021e+00 3.091950e-01 5.060884e-01 2.241053e-01 2.436114e-01 2.925619e-01 3.847556e-01 4.574775e-01 4.377811e-01 2.718686e-01 4.884846e-01 4.536205e-01 3.054065e-01 3.101236e-01
<GCONST> 1.070501e+02
<STATE> 3
<MEAN> 39
 4.021865e+00 2.070836e+00 6.369252e+00 -2.389589e+00 -2.503879e+00 -6.344300e+00 -1.955629e+00 -5.780848e+00 1.896058e+00 -3.463290e+00 -3.667967e+00 -7.106389e+00 6.214943e+01 8.811036e-01 1.895661e-02 5.327861e-01 -5.750000e-01 -2.860038e-01 1.535164e-01 -9.481064e-01 -5.327918e-01 -3.231419e-01 5.189574e-01 5.424899e-01 -3.689611e-01 1.030548e+00 -2.791229e-01 -4.916396e-01 -2.428884e-01 -2.963598e-01 1.009849e-02 2.797117e-01 7.954463e-04 1.047085e-01 5.038556e-02 3.405018e-01 4.176739e-01 2.436863e-01 9.777258e-02
<VARIANCE> 39
 9.314886e+00 4.634583e+01 1.319686e+01 2.364784e+01 1.579578e+01 1.400540e+01 1.612055e+01 1.362771e+01 1.790901e+01 1.670470e+01 1.653388e+01 1.116796e+01 2.378674e+01 2.236986e+00 2.644507e+00 1.621690e+00 2.167953e+00 2.012668e+00 1.556379e+00 2.370176e+00 1.957389e+00 1.516249e+00 2.719634e+00 1.511570e+00 1.542313e+00 2.266557e+00 2.630806e-01 7.703235e-01 2.530776e-01 2.896808e-01 2.793324e-01 4.054153e-01 4.115524e-01 3.916904e-01 2.896650e-01 4.253928e-01 3.139356e-01 2.543787e-01 4.636862e-01
<GCONST> 1.035584e+02
<STATE> 4
<MEAN> 39
 3.484512e+00 -3.358519e+00 7.165665e+00 -6.452398e+00 -2.526222e+00 -5.338371e+00 -5.454294e+00 -5.819911e+00 1.557560e+00 -1.131113e+00 -6.644021e-01 -6.744988e+00 6.730373e+01 7.776592e-01 -2.284432e+00 -8.804367e-01 -2.728520e+00 -1.251160e+00 7.733954e-01 -2.165744e+00 -4.026604e-01 4.534495e-02 2.123084e+00 1.982898e+00 -3.123351e-01 2.836278e+00 2.768355e-01 2.048576e-01 -5.498464e-01 -2.964812e-01 -2.848906e-01 4.635602e-01 1.114570e-01 -1.717814e-01 -7.335141e-02 1.499393e-01 3.456111e-01 6.557976e-02 -7.269463e-02
<VARIANCE> 39
 1.048362e+01 5.700150e+01 1.699639e+01 4.183899e+01 2.914345e+01 1.448553e+01 2.958697e+01 1.653452e+01 2.249765e+01 3.338686e+01 2.025655e+01 1.117664e+01 3.982935e+01 2.274145e+00 4.304141e+00 3.258788e+00 2.267903e+00 2.830432e+00 2.494825e+00 2.544458e+00 2.169735e+00 2.355539e+00 2.987009e+00 1.855849e+00 1.751429e+00 2.222982e+00 4.045346e-01 1.057201e+00 3.744213e-01 5.757238e-01 4.881316e-01 3.820235e-01 8.740575e-01 3.428380e-01 4.266108e-01 8.063414e-01 2.712746e-01 3.811533e-01 8.776032e-01
<GCONST> 1.157415e+02
<TRANSP> 5
 0.000000e+00 1.000000e+00 0.000000e+00 0.000000e+00 0.000000e+00
 0.000000e+00 6.735716e-01 3.264283e-01 0.000000e+00 0.000000e+00
 0.000000e+00 0.000000e+00 5.598217e-01 4.401783e-01 0.000000e+00
 0.000000e+00 0.000000e+00 0.000000e+00 6.133370e-01 3.866630e-01
 0.000000e+00 0.000000e+00 0.000000e+00 0.000000e+00 0.000000e+00
<ENDHMM>
~h "h"
<BEGINHMM>
<NUMSTATES> 5
<STATE> 2
<MEAN> 39
 -1.428430e+01 -6.000104e+00 3.688538e-01 -3.976661e+00 3.399119e+00 -9.006171e+00 6.663376e+00 1.343805e+00 4.873638e+00 6.305885e-02 -9.130216e-01 -7.758265e-01 6.610986e+01 2.018675e+00 -1.647875e-01 -5.014737e-01 -6.696297e-01 -7.396250e-01 1.094507e-01 -4.506167e-01 -7.271780e-01 1.155496e-01 2.929553e-01 -8.709236e-01 -9.334526e-01 2.776066e-01 1.101235e+00 -3.044199e-02 -3.010598e-01 -3.692324e-01 -3.768274e-01 2.210093e-01 -4.295097e-01 -3.143203e-01 -5.967968e-02 9.035592e-02 -3.556402e-01 -5.433578e-01 3.681032e-01
<VARIANCE> 39
 2.585521e+01 1.171889e+01 1.062072e+01 1.449477e+01 1.820600e+01 1.794863e+01 2.016420e+01 2.098134e+01 2.138221e+01 2.069007e+01 1.948642e+01 2.102325e+01 5.820539e+00 6.943742e+00 1.262572e+00 1.207684e+00 1.442163e+00 1.847962e+00 1.649580e+00 2.290959e+00 2.106714e+00 1.813583e+00 1.524171e+00 1.996809e+00 2.415697e+00 7.905194e-01 3.650078e-01 2.813613e-01 2.725535e-01 2.722194e-01 3.258840e-01 3.375961e-01 3.750308e-01 3.546427e-01 3.499892e-01 3.395570e-01 3.305660e-01 3.749496e-01 2.220175e-01
<GCONST> 1.010787e+02
<STATE> 3
<MEAN> 39
 3.741959e+00 -7.518800e+00 -3.883438e+00 -9.944589e+00 -2.612056e+00 -6.572715e+00 4.240792e-01 -3.982556e+00 3.944407e+00 2.211655e+00 -6.641351e+00 -9.413662e+00 7.154994e+01 4.081745e+00 -1.522888e+00 -1.660767e+00 -1.715925e+00 -1.032053e+00 2.031217e+00 -1.269300e+00 -1.029124e+00 1.377600e-01 6.633325e-01 -1.012419e+00 -2.110861e+00 2.171162e+00 -1.056923e+00 -2.100823e-01 1.857712e-01 3.344394e-01 4.937216e-01 3.947501e-01 6.228191e-01 4.722978e-01 -3.542307e-02 -3.144051e-01 4.376981e-01 4.431693e-01 -2.134730e-01
<VARIANCE> 39
 3.220829e+01 3.584990e+01 2.772635e+01 1.831292e+01 1.544708e+01 1.853574e+01 2.539698e+01 1.438210e+01 2.359759e+01 2.029505e+01 1.230882e+01 2.307040e+01 1.764220e+01 4.645376e+00 3.013798e+00 2.794074e+00 2.013675e+00 1.885068e+00 1.835258e+00 3.370378e+00 2.821992e+00 1.776521e+00 1.945827e+00 1.569464e+00 1.770830e+00 1.132424e+00 6.415980e-01 4.959389e-01 5.769848e-01 4.945883e-01 2.756424e-01 3.212574e-01 6.034358e-01 3.225088e-01 3.206965e-01 3.729476e-01 2.818889e-01 3.090800e-01 4.449907e-01
<GCONST> 1.096206e+02
<STATE> 4
<MEAN> 39
 6.902154e+00 -1.126257e+01 -4.622139e+00 -9.233261e+00 1.522944e+00 1.518017e+00 4.690666e+00 -3.367172e+00 3.083794e-01 -8.199147e-01 -5.110510e+00 -1.055315e+01 7.166142e+01 5.704729e-02 4.493571e-02 -4.738755e-02 1.713258e-01 2.552017e-01 3.395710e-01 3.348618e-01 -1.413168e-01 -2.464463e-01 -2.763214e-01 2.781810e-01 6.217152e-02 -1.814144e-01 -8.946606e-02 4.387955e-02 -2.896875e-03 1.464362e-02 -1.943827e-02 -9.036903e-02 -3.330562e-02 2.115799e-03 2.778041e-02 4.462005e-03 3.279664e-02 4.356655e-02 -4.204980e-02
<VARIANCE> 39
 9.854294e+00 3.246721e+01 1.953771e+01 3.822956e+01 1.909427e+01 1.672734e+01 3.282141e+01 2.976399e+01 2.499113e+01 1.539977e+01 2.381570e+01 2.003712e+01 1.141079e+01 8.366472e-01 2.020651e+00 2.290742e+00 2.804163e+00 1.854675e+00 1.647079e+00 2.422835e+00 1.470478e+00 1.450930e+00 1.384748e+00 1.504043e+00 1.253156e+00 9.370425e-01 2.424085e-01 3.688102e-01 4.483692e-01 5.060812e-01 3.427256e-01 3.193243e-01 4.226435e-01 2.792199e-01 3.001720e-01 2.811381e-01 2.643010e-01 2.414182e-01 1.911206e-01
<GCONST> 1.021801e+02
<TRANSP> 5
 0.000000e+00 1.000000e+00 0.000000e+00 0.000000e+00 0.000000e+00
 0.000000e+00 7.618244e-01 2.381756e-01 0.000000e+00 0.000000e+00
 0.000000e+00 0.000000e+00 6.601966e-01 3.398034e-01 0.000000e+00
 0.000000e+00 0.000000e+00 0.000000e+00 9.363212e-01 6.367885e-02
 0.000000e+00 0.000000e+00 0.000000e+00 0.000000e+00 0.000000e+00
<ENDHMM>
~h "k"
<BEGINHMM>
<NUMSTATES> 5
<STATE> 2
<MEAN> 39
 -2.117166e+00 -4.958188e+00 5.700900e+00 -3.478485e+00 -5.771918e+00 -4.025806e+00 3.765637e+00 -1.969923e+00 1.848359e+00 -2.006058e+00 1.178947e+00 -3.145886e+00 5.972031e+01 5.294461e-01 -1.430875e+00 3.199252e+00 -1.331449e+00 -2.482470e+00 -5.612608e-01 -1.320876e+00 5.600758e-01 -1.568099e+00 2.120509e-01 6.204748e-01 -9.600496e-01 2.173904e+00 3.281359e-01 -6.045175e-01 1.158661e+00 -7.171299e-01 -1.202712e+00 -2.794361e-01 -8.560046e-01 1.495681e-01 -5.749331e-01 1.785668e-01 3.498548e-01 -3.352956e-01 1.123124e+00
<VARIANCE> 39
 2.181486e+01 3.070557e+01 4.926864e+01 1.209079e+01 6.575635e+01 3.191357e+01 2.952267e+01 2.242501e+01 4.536665e+01 1.211117e+01 1.836255e+01 1.709042e+01 4.193127e+01 1.296154e+00 1.988439e+00 5.186999e+00 2.508986e+00 5.252289e+00 2.114177e+00 2.420820e+00 1.550333e+00 2.552262e+00 1.921461e+00 2.356222e+00 1.371442e+00 2.724416e+00 1.701233e-01 2.863436e-01 7.427160e-01 4.068773e-01 8.930500e-01 3.703581e-01 6.270818e-01 3.441969e-01 3.471515e-01 3.298193e-01 4.165425e-01 3.083707e-01 4.543177e-01
<GCONST> 1.136535e+02
<STATE> 3
<MEAN> 39
 -4.191704e-01 -9.787975e+00 1.655014e+01 -9.584924e+00 -1.534398e+01 -6.143050e+00 -2.390505e+00 5.481243e-03 -3.105442e+00 -1.904932e-01 4.159360e+00 -5.884548e+00 6.777531e+01 1.220677e+00 -2.280656e+00 4.577741e+00 -2.505737e+00 -4.517096e+00 -8.546512e-01 -2.928039e+00 6.938535e-01 -2.194085e+00 7.065163e-01 1.434251e+00 -1.153103e+00 4.084198e+00 3.549607e-02 2.504611e-01 -5.099523e-01 2.661811e-01 3.164289e-01 1.563963e-01 8.652391e-02 -1.330852e-01 2.864079e-01 -5.550567e-03 -1.058652e-02 2.607577e-01 -2.079801e-01
<VARIANCE> 39
 1.429654e+01 2.909600e+01 7.077465e+01 3.697379e+01 7.197251e+01 2.349304e+01 4.699125e+01 2.032894e+01 4.602936e+01 1.316039e+01 2.182953e+01 2.031767e+01 5.375545e+01 1.461684e+00 2.401829e+00 6.076190e+00 3.053884e+00 6.522385e+00 2.001736e+00 4.332214e+00 2.476654e+00 2.126462e+00 1.715348e+00 3.025898e+00 1.899336e+00 3.068941e+00 2.283844e-01 5.236057e-01 1.506228e+00 7.866536e-01 1.553171e+00 3.543347e-01 8.946687e-01 2.950053e-01 5.078717e-01 2.810627e-01 4.242437e-01 3.239829e-01 1.052131e+00
<GCONST> 1.218774e+02
<STATE> 4
<MEAN> 39
 2.211680e+00 -7.937417e+00 1.676566e+01 -8.945633e+00 -1.897969e+01 -8.329638e+00 -4.484383e+00 -3.368464e+00 -3.905092e+00 3.329686e+00 4.756712e+00 -4.997189e+00 6.945129e+01 -1.209464e-01 2.441073e-01 -7.282945e-01 4.103637e-01 5.956227e-01 -1.048376e-01 2.528940e-01 -2.382176e-01 3.288616e-01 8.903325e-02 -1.797307e-01 2.313355e-01 -4.755155e-01 -4.870832e-02 6.465101e-02 -1.219405e-01 7.952841e-02 1.544424e-01 2.927113e-02 8.754746e-02 9.819641e-03 7.382824e-02 -5.517825e-02 -5.719051e-02 2.493206e-02 -1.262911e-01
<VARIANCE> 39
 8.317779e+00 4.062855e+01 6.020119e+01 3.347336e+01 4.871333e+01 2.306756e+01 3.422102e+01 3.560949e+01 4.323310e+01 2.649204e+01 2.725771e+01 1.985804e+01 4.418072e+01 5.186722e-01 2.780009e+00 1.834938e+00 1.364589e+00 2.283034e+00 1.403635e+00 1.567727e+00 1.781834e+00 1.868693e+00 1.705674e+00 2.212889e+00 1.660420e+00 1.761953e+00 7.414798e-02 5.788440e-01 4.308901e-01 3.010881e-01 4.445772e-01 2.798255e-01 3.180002e-01 3.392183e-01 3.780294e-01 3.412340e-01 4.480091e-01 3.140675e-01 3.589899e-01
<GCONST> 1.083315e+02
<TRANSP> 5
 0.000000e+00 1.000000e+00 0.000000e+00 0.000000e+00 0.000000e+00
 0.000000e+00 1.157414e-01 8.842586e-01 0.000000e+00 0.000000e+00
 0.000000e+00 0.000000e+00 6.288681e-01 3.711319e-01 0.000000e+00
 0.000000e+00 0.000000e+00 0.000000e+00 9.557601e-01 4.423987e-02
 0.000000e+00 0.000000e+00 0.000000e+00 0.000000e+00 0.000000e+00
<ENDHMM>
~h "n"
<BEGINHMM>
<NUMSTATES> 5
<STATE> 2
<MEAN> 39
 6.371005e+00 9.609308e-01 3.249751e+00 -5.035571e+00 -7.617095e+00 -5.421235e+00 2.291515e-02 -4.304448e+00 2.918102e+00 -2.612035e+00 -1.256007e+00 -4.333061e+00 6.450641e+01 -1.035426e-01 5.695810e-01 -8.313046e-02 6.320330e-01 2.556193e-01 -2.463164e-01 5.236169e-01 -2.256610e-01 9.961288e-02 -2.275475e-02 -1.136470e-01 1.488245e-01 -5.811775e-01 -1.067034e-01 -1.552330e-01 1.505933e-01 -9.820764e-02 -2.748088e-02 1.115699e-01 -1.166959e-01 3.710268e-02 1.111532e-02 5.344614e-02 1.017024e-01 -9.651549e-03 6.611079e-02
<VARIANCE> 39
 1.817813e+01 2.125610e+01 2.214798e+01 1.893715e+01 3.431708e+01 1.507575e+01 2.271958e+01 2.059053e+01 2.308005e+01 1.735744e+01 1.590071e+01 1.195388e+01 7.834774e+00 4.532877e-01 7.385568e-01 1.408652e+00 1.487142e+00 1.395802e+00 1.402033e+00 1.284700e+00 1.380048e+00 1.572158e+00 1.147807e+00 1.216361e+00 9.584743e-01 2.390821e-01 5.225781e-02 1.002577e-01 1.851197e-01 2.283520e-01 2.393704e-01 2.483762e-01 2.338472e-01 2.738176e-01 2.442547e-01 2.125954e-01 1.806265e-01 1.989403e-01 3.011078e-02
<GCONST> 8.579778e+01
<STATE> 3
<MEAN> 39
 5.605100e+00 2.251791e+00 3.812329e+00 -3.636487e+00 -6.646557e+00 -5.613293e+00 1.324028e+00 -4.513672e+00 3.135751e+00 -2.740698e+00 -1.026660e+00 -3.536758e+00 6.286808e+01 -3.445653e-01 1.951962e-01 1.616848e-01 4.175459e-01 3.605350e-01 -5.479220e-02 1.967918e-01 -3.522597e-02 8.290470e-02 -1.064423e-02 7.436129e-02 1.696274e-01 -4.436829e-01 -8.665068e-02 -1.513420e-01 6.241079e-02 -2.840060e-02 3.740948e-02 5.609287e-02 -9.115781e-02 4.778646e-02 1.408055e-03 3.030045e-03 3.371703e-02 1.243956e-02 5.057243e-02
<VARIANCE> 39
 1.855289e+01 1.893338e+01 1.600328e+01 1.397613e+01 2.923758e+01 1.500637e+01 1.758972e+01 1.885967e+01 1.853345e+01 1.744751e+01 1.861441e+01 1.169351e+01 8.571001e+00 3.720300e-01 5.758548e-01 7.372407e-01 9.904512e-01 1.139228e+00 1.090663e+00 1.020176e+00 1.060849e+00 1.344404e+00 1.002402e+00 1.050430e+00 9.933568e-01 1.712146e-01 5.227190e-02 8.951131e-02 1.323299e-01 1.639455e-01 2.112784e-01 2.125428e-01 1.991661e-01 2.108575e-01 2.258501e-01 2.000750e-01 1.977261e-01 1.842615e-01 2.557760e-02
<GCONST> 7.962041e+01
<STATE> 4
<MEAN> 39
 2.549565e+00 1.615361e+00 4.413751e+00 -1.753866e+00 -4.523201e+00 -5.237061e+00 1.533746e+00 -4.685804e+00 3.237609e+00 -2.374821e+00 -3.366005e-02 -2.522403e+00 6.036787e+01 -5.910091e-01 -3.483859e-01 1.685760e-01 3.809455e-01 3.962638e-01 9.747384e-02 8.049694e-02 1.478504e-01 1.676535e-01 -1.147017e-01 4.016476e-02 1.729990e-01 -3.032916e-01 -5.170166e-02 -2.222559e-01 4.991356e-02 -1.094898e-01 -1.006436e-01 2.762777e-02 -7.621107e-02 8.734263e-02 3.703521e-02 -2.899636e-02 -3.199386e-03 -9.206403e-05 1.297645e-01
<VARIANCE> 39
 2.404927e+01 2.051742e+01 1.446446e+01 1.548403e+01 2.819569e+01 1.692637e+01 1.802485e+01 1.939113e+01 2.002962e+01 1.887475e+01 1.998427e+01 1.413370e+01 1.212518e+01 5.996578e-01 1.014797e+00 9.580963e-01 1.196772e+00 1.512098e+00 1.279351e+00 1.332267e+00 1.282845e+00 1.489276e+00 1.356903e+00 1.303961e+00 1.281222e+00 2.886285e-01 8.920800e-02 2.084911e-01 2.315792e-01 2.132101e-01 3.274351e-01 2.699380e-01 2.788588e-01 2.702310e-01 2.865387e-01 2.635631e-01 2.542688e-01 2.698644e-01 4.955829e-02
<GCONST> 8.992690e+01
<TRANSP> 5
 0.000000e+00 1.000000e+00 0.000000e+00 0.000000e+00 0.000000e+00
 0.000000e+00 5.371264e-01 4.628736e-01 0.000000e+00 0.000000e+00
 0.000000e+00 0.000000e+00 6.541463e-01 3.458537e-01 0.000000e+00
 0.000000e+00 0.000000e+00 0.000000e+00 6.946541e-01 3.053459e-01
 0.000000e+00 0.000000e+00 0.000000e+00 0.000000e+00 0.000000e+00
<ENDHMM>
~h "o"
<BEGINHMM>
<NUMSTATES> 5
<STATE> 2
<MEAN> 39
 7.977479e+00 -8.400165e+00 2.046130e+00 -1.497823e+01 -8.384953e+00 -3.778100e-01 -1.110444e+01 -7.926148e+00 7.545984e-01 5.573804e+00 7.107800e+00 -8.299991e+00 7.444726e+01 1.339428e+00 3.113894e-01 -1.505601e+00 -1.989963e+00 -1.107949e+00 2.335725e+00 4.208834e-01 -1.005847e+00 -1.173133e+00 4.384830e-01 1.895169e+00 5.098220e-01 5.875473e-01 -3.529706e-01 7.238888e-01 2.196259e-01 4.101688e-01 4.586771e-01 4.591675e-02 1.244010e+00 1.682503e-01 -2.619111e-01 -1.144484e+00 -6.446010e-01 6.230828e-01 -9.096974e-01
<VARIANCE> 39
 2.844182e+00 2.211672e+01 2.378610e+01 1.400477e+01 1.766368e+01 1.511984e+01 1.576705e+01 1.131567e+01 4.220116e+01 1.311599e+01 1.241236e+01 9.784998e+00 5.910202e+00 8.580824e-01 1.129464e+00 1.715488e+00 8.247233e-01 1.391981e+00 1.603081e+00 3.233948e+00 1.207335e+00 1.619739e+00 4.440215e+00 1.358607e+00 1.692828e+00 1.056705e+00 1.318192e-01 2.563256e-01 4.255782e-01 1.501697e-01 2.192886e-01 3.054018e-01 3.075292e-01 2.595054e-01 3.841085e-01 3.314810e-01 2.172335e-01 2.180636e-01 1.268962e-01
<GCONST> 9.208813e+01
<STATE> 3
<MEAN> 39
 9.525049e+00 -5.606851e+00 8.425384e-01 -2.050020e+01 -1.020414e+01 5.324058e+00 -5.138425e+00 -1.041170e+01 -4.410715e+00 1.988572e+00 8.039674e+00 -4.762575e+00 7.326398e+01 3.853808e-01 1.123120e+00 -5.942649e-01 -9.799476e-01 -1.624846e-01 9.365591e-01 1.318807e+00 -7.553577e-02 -4.147493e-01 -1.105574e+00 -3.273963e-01 1.243882e+00 -5.504491e-01 -1.591943e-01 -4.973602e-03 1.468524e-01 3.218968e-01 1.699689e-01 -3.635609e-01 -1.085652e-01 2.945940e-01 3.260289e-01 -1.385264e-01 -3.908193e-01 -9.953567e-03 -1.257661e-01
<VARIANCE> 39
 2.152828e+00 1.412012e+01 1.492189e+01 1.984454e+01 1.471419e+01 1.594295e+01 1.653502e+01 1.324841e+01 3.396430e+01 1.880887e+01 1.011980e+01 1.684252e+01 5.311633e+00 1.381188e-01 3.256003e-01 4.790700e-01 7.731608e-01 8.174897e-01 9.804691e-01 1.257186e+00 1.123375e+00 1.170997e+00 1.321835e+00 8.978423e-01 8.124942e-01 8.598277e-02 4.550762e-02 8.323105e-02 1.288160e-01 1.025443e-01 1.492884e-01 1.651701e-01 3.071015e-01 1.721329e-01 1.729882e-01 3.466496e-01 2.119019e-01 1.813609e-01 4.801134e-02
<GCONST> 7.293964e+01
<STATE> 4
<MEAN> 39
 9.754471e+00 -8.784420e-01 -2.427114e+00 -1.532765e+01 -6.116004e+00 2.928624e+00 -5.293520e+00 -7.213481e+00 1.114602e+00 -4.774961e-01 3.904766e+00 -2.737459e+00 6.916734e+01 -1.656398e-01 2.617208e-01 6.839284e-02 1.104220e+00 3.165243e-01 -7.160355e-01 7.549070e-03 2.143181e-01 5.250999e-01 1.642956e-02 -4.683446e-01 -2.511227e-01 -4.674171e-01 -4.731099e-02 -2.193824e-02 7.734125e-02 9.660590e-02 -2.506174e-02 -8.775090e-02 3.760520e-02 -1.651857e-02 -2.115072e-02 4.427301e-02 -2.440650e-03 -5.773346e-02 -1.692415e-02
<VARIANCE> 39
 2.605853e+00 1.363230e+01 1.275014e+01 4.513005e+01 3.286703e+01 3.031333e+01 3.845774e+01 2.052426e+01 3.170886e+01 1.997505e+01 1.826615e+01 2.094947e+01 7.660191e+00 1.290956e-01 7.098660e-01 7.890319e-01 1.801598e+00 2.030600e+00 1.949365e+00 3.371737e+00 1.636676e+00 1.784775e+00 1.643246e+00 1.405817e+00 1.360486e+00 2.638510e-01 2.073672e-02 1.261730e-01 1.152251e-01 2.322235e-01 3.251354e-01 3.176099e-01 6.196743e-01 3.194490e-01 3.328089e-01 2.880621e-01 2.845972e-01 2.457626e-01 4.162956e-02
<GCONST> 8.940903e+01
<TRANSP> 5
 0.000000e+00 1.000000e+00 0.000000e+00 0.000000e+00 0.000000e+00
 0.000000e+00 5.050734e-01 4.949266e-01 0.000000e+00 0.000000e+00
 0.000000e+00 0.000000e+00 7.560902e-01 2.439099e-01 0.000000e+00
 0.000000e+00 0.000000e+00 0.000000e+00 9.271333e-01 7.286667e-02
 0.000000e+00 0.000000e+00 0.000000e+00 0.000000e+00 0.000000e+00
<ENDHMM>
~h "p"
<BEGINHMM>
<NUMSTATES> 5
<STATE> 2
<MEAN> 39
 -2.712288e+00 -3.433442e+00 2.737918e-01 -3.698771e+00 -7.578866e-01 -1.216228e+00 4.865554e+00 -1.312034e+00 5.367804e+00 -1.642534e+00 9.809971e-01 -2.003414e+00 5.733829e+01 -3.122905e-01 -1.342943e-02 1.135093e-01 1.709440e-01 1.250514e-01 1.290858e-01 3.004288e-01 4.307633e-02 -3.502869e-02 5.759510e-02 1.167737e-01 8.367948e-02 -2.602904e-01 1.527355e-01 -1.818786e-01 -6.458579e-02 -1.151133e-01 -1.709452e-01 -5.235747e-02 -4.147684e-02 -8.030204e-02 -7.874625e-02 -6.851604e-02 -6.686278e-02 -1.110212e-01 3.149554e-01
<VARIANCE> 39
 1.015683e+01 1.198907e+01 2.282847e+01 1.664212e+01 1.684353e+01 1.828713e+01 1.797283e+01 2.090197e+01 2.126621e+01 1.596465e+01 1.452502e+01 1.656091e+01 9.122936e+00 3.514803e-01 8.329823e-01 6.649286e-01 8.412910e-01 9.636654e-01 1.101299e+00 1.468281e+00 1.282859e+00 1.389239e+00 1.589258e+00 1.222391e+00 1.211345e+00 5.917895e-01 1.408072e-01 1.082098e-01 1.902332e-01 2.525370e-01 2.104855e-01 2.416345e-01 3.250615e-01 2.802776e-01 2.907450e-01 3.421593e-01 2.772020e-01 2.893828e-01 1.763716e-01
<GCONST> 8.798265e+01
<STATE> 3
<MEAN> 39
 -4.103123e+00 -5.079386e+00 1.206623e+00 -2.295724e+00 -1.991905e+00 -2.753252e+00 4.438195e+00 -2.854575e+00 4.361869e+00 -1.577524e+00 8.877478e-01 -1.120161e+00 5.779472e+01 1.859205e+00 -1.243901e+00 -1.277522e+00 -1.727320e+00 -1.524193e+00 1.623068e-01 1.045314e-01 -8.151181e-01 -9.175096e-01 -3.296442e-01 -8.007775e-02 -1.132776e+00 2.804621e+00 9.517919e-01 -4.271998e-01 -8.244052e-01 -9.259441e-01 -2.025551e-01 4.975077e-01 2.076353e-01 -8.649819e-02 -4.693205e-01 -1.307961e-01 2.498265e-01 -7.648826e-01 1.072981e+00
<VARIANCE> 39
 5.948887e+00 1.605630e+01 1.313612e+01 1.073589e+01 1.743612e+01 1.766867e+01 1.785811e+01 1.912075e+01 1.894035e+01 1.480461e+01 1.280747e+01 1.925991e+01 1.585795e+01 2.636214e+00 1.272418e+00 2.800411e+00 3.153508e+00 1.911553e+00 2.800935e+00 2.194308e+00 2.547896e+00 2.469634e+00 1.975021e+00 2.061173e+00 2.420679e+00 2.968657e+00 1.722971e-01 2.214244e-01 3.619361e-01 4.390702e-01 3.451127e-01 4.013491e-01 4.998895e-01 5.143223e-01 4.968567e-01 3.600165e-01 3.142074e-01 3.547202e-01 3.159036e-01
<GCONST> 1.042164e+02
<STATE> 4
<MEAN> 39
 6.910903e+00 -1.298539e+01 -6.754067e+00 -1.457236e+01 -5.767780e+00 1.953358e+00 5.879444e+00 -2.760359e+00 -3.172989e+00 -2.253198e+00 2.328451e+00 -9.572653e+00 7.243623e+01 1.905881e+00 -2.081589e+00 -1.977386e+00 -2.097495e+00 -1.490200e-02 1.523154e+00 4.660207e-01 -4.322705e-02 -1.117561e+00 -3.483035e-02 3.698725e-01 -2.036606e+00 3.041137e+00 -5.767840e-01 1.809456e-01 2.409982e-01 7.543759e-01 5.180007e-01 -7.895987e-02 -5.303209e-02 1.441796e-02 4.257264e-01 7.748628e-02 -1.967317e-01 2.588102e-01 -6.354238e-01
<VARIANCE> 39
 2.041797e+01 3.903424e+01 2.806445e+01 4.366296e+01 1.976484e+01 3.006255e+01 1.774880e+01 3.023136e+01 4.843616e+01 1.063718e+01 1.513799e+01 1.867186e+01 3.202048e+01 3.977427e+00 1.851369e+00 4.480484e+00 5.723115e+00 2.475745e+00 2.487642e+00 2.415922e+00 3.632048e+00 3.399100e+00 1.486420e+00 1.987822e+00 2.240283e+00 4.205443e+00 4.371998e-01 3.645669e-01 4.797665e-01 7.172478e-01 4.142017e-01 5.773253e-01 3.495194e-01 3.938456e-01 4.296256e-01 2.446464e-01 3.305569e-01 3.764010e-01 4.370100e-01
<GCONST> 1.157955e+02
<TRANSP> 5
 0.000000e+00 1.000000e+00 0.000000e+00 0.000000e+00 0.000000e+00
 0.000000e+00 8.308018e-01 1.691982e-01 0.000000e+00 0.000000e+00
 0.000000e+00 0.000000e+00 5.409353e-01 4.590646e-01 0.000000e+00
 0.000000e+00 0.000000e+00 0.000000e+00 7.410049e-01 2.589951e-01
 0.000000e+00 0.000000e+00 0.000000e+00 0.000000e+00 0.000000e+00
<ENDHMM>
~h "r"
<BEGINHMM>
<NUMSTATES> 5
<STATE> 2
<MEAN> 39
 -1.400912e+01 -6.925045e+00 7.821103e+00 -9.007169e+00 -2.923982e+00 -1.828235e+00 -1.347221e+00 9.470144e-01 6.823623e+00 -3.632430e+00 1.494541e+00 -2.138487e+00 6.767921e+01 1.434101e+00 -7.762144e-01 2.286157e-01 6.488222e-02 -1.586482e+00 -1.136446e+00 -7.904974e-01 2.485143e-01 8.708444e-01 -6.056810e-01 -9.265702e-01 -2.889069e-01 1.753348e+00 1.711642e+00 -3.426162e-01 -6.824152e-01 2.902789e-01 -2.597108e-01 -3.463233e-01 -1.429216e-02 -2.327563e-02 2.473776e-02 -7.554040e-02 -3.109854e-01 -2.483402e-01 -2.827645e-02
<VARIANCE> 39
 4.226192e+01 1.869517e+01 1.900966e+01 1.513179e+01 3.110988e+01 2.874743e+01 1.771136e+01 2.741828e+01 2.315374e+01 2.046916e+01 2.234561e+01 2.124414e+01 1.024214e+01 1.791666e+01 1.568149e+00 3.813157e+00 2.067201e+00 2.380718e+00 3.735914e+00 2.268294e+00 1.959600e+00 2.448265e+00 2.005909e+00 2.673330e+00 1.853898e+00 1.292624e+00 1.522060e+00 3.082101e-01 7.049237e-01 5.206563e-01 6.104828e-01 6.919389e-01 4.646642e-01 4.532661e-01 4.370819e-01 3.870573e-01 4.860671e-01 3.321682e-01 2.847362e-01
<GCONST> 1.151339e+02
<STATE> 3
<MEAN> 39
 5.290748e+00 -1.480620e+01 7.914540e-01 -8.649863e+00 -9.297019e+00 -7.415023e+00 -5.793187e+00 2.794571e+00 9.918207e+00 -5.737813e+00 -3.499922e+00 -6.196848e+00 7.646485e+01 2.998054e+00 -2.316592e+00 -2.735948e+00 -2.533594e-01 5.811368e-01 5.691817e-01 1.798176e-01 4.422496e-01 1.115984e-01 5.737424e-03 -7.871442e-01 -1.554289e+00 1.633746e+00 -1.273207e+00 2.263090e-01 -8.988068e-03 -5.559963e-02 8.091162e-01 8.704328e-01 6.761265e-01 -2.072349e-01 -3.810781e-01 2.005602e-01 2.442234e-01 1.682343e-02 -4.718502e-01
<VARIANCE> 39
 1.405167e+01 3.968277e+01 4.535435e+01 1.044032e+01 1.965435e+01 1.452166e+01 1.659365e+01 1.281121e+01 4.187498e+01 1.770189e+01 1.326332e+01 2.750684e+01 1.000222e+01 6.923581e+00 1.396184e+00 3.728472e+00 1.722233e+00 3.031291e+00 3.440380e+00 3.070789e+00 2.030827e+00 1.725413e+00 2.084082e+00 1.248154e+00 1.248203e+00 1.110958e+00 4.725360e-01 3.786613e-01 6.545672e-01 2.786740e-01 3.569516e-01 3.407839e-01 3.452055e-01 2.828941e-01 3.554252e-01 2.750718e-01 2.358571e-01 1.814643e-01 1.289787e-01
<GCONST> 1.047369e+02
<STATE> 4
<MEAN> 39
 8.389700e+00 -1.819333e+01 -8.415771e+00 -8.696562e+00 -2.860495e+00 -9.070289e-02 -1.272404e-01 1.012344e+00 5.979481e+00 -4.341841e+00 -5.465953e+00 -1.123416e+01 7.609756e+01 9.474978e-04 3.004240e-01 -6.551579e-02 1.883261e-01 2.361183e-02 -7.388814e-02 1.090809e-01 -6.033336e-02 -3.494407e-02 6.792516e-02 2.526652e-02 1.329044e-01 -3.909664e-01 -8.503869e-02 1.440784e-01 1.833913e-01 3.658825e-02 -6.834255e-02 -1.261669e-01 -6.776953e-02 -1.338514e-02 4.127220e-02 -2.261732e-02 7.350372e-02 1.343352e-01 -9.740443e-02
<VARIANCE> 39
 4.723527e+00 3.249225e+01 3.327927e+01 1.571250e+01 2.469207e+01 3.042069e+01 2.480887e+01 3.387604e+01 3.489626e+01 2.330689e+01 1.622103e+01 3.005439e+01 9.919581e+00 3.223185e-01 7.692246e-01 1.314335e+00 7.832059e-01 1.571088e+00 2.220838e+00 1.770504e+00 1.910362e+00 1.536905e+00 8.745112e-01 1.184242e+00 1.135481e+00 3.150207e-01 5.884521e-02 1.140881e-01 1.222239e-01 1.250474e-01 2.384529e-01 2.583177e-01 2.754493e-01 2.930754e-01 2.377163e-01 1.832776e-01 2.087926e-01 1.625361e-01 4.108780e-02
<GCONST> 8.785278e+01
<TRANSP> 5
 0.000000e+00 1.000000e+00 0.000000e+00 0.000000e+00 0.000000e+00
 0.000000e+00 7.838522e-01 2.161478e-01 0.000000e+00 0.000000e+00
 0.000000e+00 0.000000e+00 7.230871e-01 2.769129e-01 0.000000e+00
 0.000000e+00 0.000000e+00 0.000000e+00 9.432960e-01 5.670397e-02
 0.000000e+00 0.000000e+00 0.000000e+00 0.000000e+00 0.000000e+00
<ENDHMM>
~h "s"
<BEGINHMM>
<NUMSTATES> 5
<STATE> 2
<MEAN> 39
 -6.736665e+00 -5.501049e+00 9.944437e-01 -3.552354e+00 9.538522e-01 -6.570283e+00 4.182341e+00 7.420689e-01 4.295937e+00 -2.289101e+00 -2.587551e-01 -7.800807e-01 6.269124e+01 -1.676854e+00 1.704641e-01 2.315355e-01 -1.071182e-02 7.443739e-01 -6.977772e-01 5.272897e-01 4.365678e-01 -2.092346e-01 2.056313e-01 7.284771e-02 6.778321e-02 4.339048e-01 -4.289562e-02 1.075827e-01 -6.377370e-02 -6.024380e-02 -1.902931e-02 3.075762e-02 -1.598669e-02 -3.647756e-03 1.952158e-02 5.640344e-02 7.838626e-03 -4.323053e-02 6.248564e-02
<VARIANCE> 39
 2.793922e+01 1.726108e+01 2.010294e+01 1.946762e+01 1.810782e+01 3.140305e+01 2.980922e+01 2.296393e+01 2.528362e+01 1.948779e+01 2.198025e+01 2.043909e+01 2.075911e+01 1.974214e+00 1.360837e+00 1.023822e+00 1.372021e+00 1.482438e+00 2.137551e+00 2.137403e+00 1.861828e+00 2.059125e+00 1.812769e+00 1.825397e+00 1.673534e+00 6.936401e-01 2.307721e-01 2.297239e-01 1.855054e-01 2.537280e-01 2.880727e-01 4.572721e-01 3.889759e-01 3.549592e-01 3.638099e-01 3.317785e-01 3.640024e-01 3.353534e-01 1.155886e-01
<GCONST> 1.015928e+02
<STATE> 3
<MEAN> 39
 -1.447257e+01 -3.702073e+00 -7.537991e-03 -3.838940e+00 4.038501e+00 -9.234235e+00 5.981701e+00 2.147012e+00 4.139629e+00 -3.798720e-01 -8.479381e-01 -9.046848e-01 6.594911e+01 -5.302430e-01 7.095747e-03 -1.761835e-01 -2.347686e-02 7.869776e-02 -2.689072e-02 1.349317e-01 -2.741486e-02 4.993116e-02 2.476495e-01 -9.483239e-02 -5.556050e-02 8.055831e-02 5.400988e-01 -1.330544e-01 -6.097934e-02 -4.984141e-02 -2.068237e-01 1.421367e-01 -1.747671e-01 -1.678197e-01 4.080035e-02 -9.912217e-03 -1.376540e-01 -1.306636e-01 -4.015366e-02
<VARIANCE> 39
 2.572402e+01 1.955088e+01 1.334048e+01 1.460914e+01 1.693788e+01 1.773714e+01 2.733953e+01 2.055503e+01 2.737425e+01 1.866950e+01 1.780931e+01 1.996288e+01 7.148791e+00 2.375641e+00 1.382053e+00 7.917668e-01 1.048781e+00 1.414528e+00 1.401412e+00 1.668302e+00 1.611750e+00 1.694680e+00 1.595877e+00 1.564100e+00 1.525212e+00 4.570926e-01 2.903572e-01 1.941739e-01 1.562151e-01 2.447184e-01 2.439510e-01 3.031429e-01 3.633260e-01 3.201050e-01 3.563848e-01 3.228559e-01 3.186049e-01 3.550940e-01 9.163779e-02
<GCONST> 9.541458e+01
<STATE> 4
<MEAN> 39
 -5.177882e+00 -6.456762e+00 -3.012430e+00 -6.462990e+00 6.394428e-01 -7.333528e+00 3.408706e+00 -1.451583e+00 5.075338e+00 1.101018e+00 -4.956557e+00 -5.361030e+00 6.842661e+01 3.632380e+00 -1.189108e+00 -1.526657e+00 -1.243765e+00 -8.321782e-01 1.348670e+00 -9.975662e-01 -1.013167e+00 1.311613e-01 4.497756e-01 -1.127558e+00 -1.879847e+00 1.586842e+00 -5.514792e-02 -3.039757e-01 -1.421365e-01 -5.249289e-03 1.152315e-01 3.689090e-01 5.875748e-02 8.073170e-02 -7.067364e-02 -1.312440e-01 2.569993e-01 2.725534e-02 2.465537e-01
<VARIANCE> 39
 9.535674e+01 2.294535e+01 3.142294e+01 2.247091e+01 1.783577e+01 1.992631e+01 2.760613e+01 2.377132e+01 2.624381e+01 1.801084e+01 1.919311e+01 3.136522e+01 2.324692e+01 7.402972e+00 2.630619e+00 3.214481e+00 2.112369e+00 1.555245e+00 2.192682e+00 2.461117e+00 2.022629e+00 2.370678e+00 1.642396e+00 1.842108e+00 2.899786e+00 2.344692e+00 1.523930e+00 3.477788e-01 6.068465e-01 4.404110e-01 3.301645e-01 3.100818e-01 4.766378e-01 4.135146e-01 3.764493e-01 3.561120e-01 4.100610e-01 5.338837e-01 4.154879e-01
<GCONST> 1.153313e+02
<TRANSP> 5
 0.000000e+00 1.000000e+00 0.000000e+00 0.000000e+00 0.000000e+00
 0.000000e+00 7.846541e-01 2.153459e-01 0.000000e+00 0.000000e+00
 0.000000e+00 0.000000e+00 8.234901e-01 1.765099e-01 0.000000e+00
 0.000000e+00 0.000000e+00 0.000000e+00 6.479997e-01 3.520003e-01
 0.000000e+00 0.000000e+00 0.000000e+00 0.000000e+00 0.000000e+00
<ENDHMM>
~h "t"
<BEGINHMM>
<NUMSTATES> 5
<STATE> 2
<MEAN> 39
 2.775371e+00 -5.649876e+00 -5.032954e+00 -6.323996e+00 -1.436310e+00 -2.293894e+00 1.396567e+00 -1.940979e+00 7.325742e+00 -5.020005e-02 -3.220228e+00 -5.474837e+00 6.286532e+01 -6.611814e-01 5.520885e-01 1.204466e-01 9.438335e-02 3.970675e-01 1.477966e-01 5.447083e-01 -1.019937e-01 2.220625e-01 5.538656e-02 4.692326e-01 3.630275e-01 -1.146061e+00 -4.377506e-02 -2.218018e-01 2.297388e-02 -7.901926e-02 -3.034130e-02 4.575813e-02 9.593527e-02 3.356124e-02 -1.455094e-01 -7.707955e-02 1.643275e-02 -4.259531e-02 1.807999e-01
<VARIANCE> 39
 2.369883e+01 1.623376e+01 2.829954e+01 1.847979e+01 2.490077e+01 2.338300e+01 2.521803e+01 2.131910e+01 2.092672e+01 1.841825e+01 2.428752e+01 2.025441e+01 2.651625e+01 4.340792e-01 9.751635e-01 8.459760e-01 1.082124e+00 1.920205e+00 1.478846e+00 1.790967e+00 1.636749e+00 1.603836e+00 1.776675e+00 1.629021e+00 1.490194e+00 8.259919e-01 6.942424e-02 1.698516e-01 1.538545e-01 2.233968e-01 4.697875e-01 3.275483e-01 3.871270e-01 3.657169e-01 3.384591e-01 3.608571e-01 3.229663e-01 3.297259e-01 1.648977e-01
<GCONST> 9.710562e+01
<STATE> 3
<MEAN> 39
 -1.391780e+00 -3.959060e+00 -2.384002e+00 -4.701542e+00 -3.543866e-01 -2.174500e+00 4.359979e+00 -1.471758e+00 6.357924e+00 -3.958351e-01 -7.670263e-01 -3.425934e+00 5.845465e+01 -5.474389e-01 -1.496103e-01 2.980372e-01 6.633930e-02 -4.371940e-02 3.114919e-02 3.777809e-01 7.637456e-02 -2.786955e-01 -2.536553e-01 2.495798e-01 3.403262e-01 -2.505881e-01 7.720072e-03 -1.658710e-01 1.402808e-01 -4.450595e-02 -2.446756e-01 -1.733712e-01 -8.501129e-02 -8.032753e-02 -1.682297e-01 -1.010109e-01 -4.077195e-02 1.572194e-02 3.424350e-01
<VARIANCE> 39
 1.610361e+01 1.315979e+01 2.890769e+01 1.798787e+01 1.588728e+01 1.801779e+01 1.854324e+01 2.035345e+01 2.325012e+01 1.725717e+01 1.980851e+01 1.801056e+01 1.373000e+01 3.776909e-01 9.863601e-01 6.693618e-01 9.960754e-01 1.377337e+00 1.364168e+00 1.569450e+00 1.448390e+00 1.772464e+00 1.642287e+00 1.318096e+00 1.333369e+00 1.154486e+00 8.283904e-02 1.423709e-01 1.821190e-01 1.999932e-01 3.525417e-01 3.243355e-01 3.260746e-01 3.194548e-01 4.086764e-01 3.592119e-01 2.953267e-01 2.894578e-01 2.739551e-01
<GCONST> 9.334782e+01
<STATE> 4
<MEAN> 39
 -3.724217e+00 -4.292384e+00 -2.938063e-01 -3.826818e+00 -8.983704e-01 -2.767606e+00 5.470389e+00 -1.218130e+00 5.436848e+00 -1.414842e+00 -2.405913e-01 -1.711572e+00 5.763663e+01 -3.574486e-01 -5.590649e-01 5.850087e-01 -4.004705e-02 -8.321199e-01 -6.088293e-01 -7.668573e-02 -3.084476e-01 -6.536968e-01 -3.118857e-01 2.117173e-01 2.467515e-01 7.906419e-01 1.486474e-01 -5.248845e-02 2.845699e-01 -4.753720e-02 -3.834816e-01 -1.728957e-01 -1.912456e-01 -9.434042e-02 -1.355346e-01 2.044001e-02 -2.673472e-02 -1.809599e-01 3.690279e-01
<VARIANCE> 39
 1.044414e+01 1.454623e+01 2.096428e+01 1.729506e+01 1.748471e+01 2.048972e+01 1.510933e+01 2.060925e+01 2.381747e+01 1.544517e+01 1.823146e+01 1.461803e+01 1.715106e+01 6.993650e-01 1.796011e+00 1.163750e+00 1.160476e+00 2.908640e+00 3.322918e+00 1.596117e+00 2.271524e+00 2.094470e+00 1.862588e+00 1.584699e+00 1.683143e+00 3.610209e+00 1.598478e-01 2.268570e-01 3.979363e-01 1.626477e-01 6.106583e-01 5.526637e-01 3.588092e-01 3.616495e-01 3.554733e-01 3.227229e-01 3.029272e-01 3.778934e-01 4.140247e-01
<GCONST> 1.018651e+02
<TRANSP> 5
 0.000000e+00 1.000000e+00 0.000000e+00 0.000000e+00 0.000000e+00
 0.000000e+00 7.349871e-01 2.650128e-01 0.000000e+00 0.000000e+00
 0.000000e+00 0.000000e+00 6.782166e-01 3.217834e-01 0.000000e+00
 0.000000e+00 0.000000e+00 0.000000e+00 7.088217e-01 2.911783e-01
 0.000000e+00 0.000000e+00 0.000000e+00 0.000000e+00 0.000000e+00
<ENDHMM>
~h "y"
<BEGINHMM>
<NUMSTATES> 5
<STATE> 2
<MEAN> 39
 -9.393996e+00 -1.073226e+01 6.769798e+00 6.994660e-01 -6.167090e+00 -7.164735e+00 8.214900e-01 -1.258216e+00 9.191769e+00 -2.601552e+00 -3.315709e-01 -1.142008e+00 6.716889e+01 -8.018684e-01 -7.924102e-01 7.278317e-01 1.289417e-01 -8.303934e-01 -3.013014e-01 -6.231493e-02 3.402227e-01 1.882868e-01 -3.111251e-02 2.096524e-01 9.455392e-02 5.597411e-01 3.076888e-01 5.430342e-02 7.221054e-02 -1.337873e-01 -1.890488e-01 -1.444705e-03 -8.570200e-02 1.383467e-02 -1.792570e-01 1.570245e-02 -1.901319e-02 -9.427239e-02 4.383995e-02
<VARIANCE> 39
 8.585255e+01 4.924834e+01 1.530177e+01 2.304731e+01 2.057747e+01 2.151386e+01 2.138357e+01 3.815545e+01 3.030370e+01 2.527641e+01 1.992451e+01 2.257738e+01 1.377361e+01 2.762833e+00 1.587332e+00 2.025147e+00 1.232019e+00 1.635722e+00 1.717728e+00 1.508955e+00 2.094432e+00 2.648875e+00 2.356365e+00 1.622001e+00 1.655645e+00 7.202036e-01 3.116408e-01 2.898839e-01 3.150641e-01 2.352508e-01 3.472972e-01 3.403480e-01 2.729617e-01 3.683577e-01 5.096223e-01 5.074094e-01 3.003966e-01 3.146816e-01 1.260758e-01
<GCONST> 1.059085e+02
<STATE> 3
<MEAN> 39
 -1.935053e+00 -8.862454e+00 8.454929e+00 -7.617314e-01 -1.058715e+01 -9.360137e+00 -2.565026e+00 -5.996262e-01 6.317676e+00 -3.734390e+00 -3.529254e-01 -2.627437e+00 6.932795e+01 2.582680e+00 1.144827e-01 8.734934e-01 -1.120102e+00 -1.632316e+00 -1.632373e-01 -1.163791e+00 2.481688e-01 -9.899653e-01 -3.277779e-01 1.490640e-01 -3.528870e-01 8.763180e-01 -5.956000e-02 -7.290664e-02 -1.494519e-03 -1.083731e-01 -1.241288e-01 2.284637e-01 1.061503e-01 1.397848e-02 5.513021e-02 8.190675e-03 3.298614e-02 8.869361e-02 7.548171e-02
<VARIANCE> 39
 1.052216e+02 4.772775e+01 1.678658e+01 2.952365e+01 2.170055e+01 1.579852e+01 3.410083e+01 1.795448e+01 4.790732e+01 1.806816e+01 1.811761e+01 1.976036e+01 1.611688e+01 7.539892e+00 5.862102e+00 3.838788e+00 2.104061e+00 2.773139e+00 1.857289e+00 2.012353e+00 1.397644e+00 2.951939e+00 2.080202e+00 1.583463e+00 1.193774e+00 1.200947e+00 1.222757e+00 6.204684e-01 3.835904e-01 4.527791e-01 5.083157e-01 2.526021e-01 4.814011e-01 2.954132e-01 5.683187e-01 3.348893e-01 2.556567e-01 2.177386e-01 2.532438e-01
<GCONST> 1.133180e+02
<STATE> 4
<MEAN> 39
 6.219730e+00 -6.686843e+00 9.227887e+00 -4.352272e+00 -1.495266e+01 -6.017516e+00 7.872760e-01 7.914790e-01 1.527682e+00 -5.027036e+00 4.657246e-01 -4.541541e+00 6.995542e+01 -1.530719e-01 -1.794365e-01 -3.101006e-01 1.111447e-01 2.598220e-01 1.412533e-01 2.231240e-02 1.782450e-01 1.762445e-01 -5.798985e-02 -2.295274e-01 -7.033672e-02 2.408499e-02 -6.617608e-02 1.374355e-01 -1.232214e-01 6.017653e-02 2.038567e-01 -1.776213e-02 6.065648e-03 -7.437705e-02 5.130857e-02 1.795211e-02 -3.966068e-02 1.673440e-02 -1.170548e-01
<VARIANCE> 39
 1.153324e+01 6.115969e+01 5.418999e+01 1.718982e+01 4.205907e+01 1.847160e+01 3.268396e+01 3.251796e+01 3.675174e+01 1.600917e+01 1.882791e+01 1.334540e+01 1.623591e+01 8.777072e-01 3.247728e+00 4.634397e+00 1.562510e+00 4.043517e+00 1.376139e+00 2.268373e+00 2.228664e+00 1.808900e+00 1.312287e+00 1.499898e+00 8.996383e-01 9.885263e-01 1.540751e-01 3.469225e-01 8.110190e-01 3.106329e-01 6.092016e-01 2.617867e-01 3.941599e-01 3.244942e-01 3.040630e-01 2.460623e-01 2.515092e-01 1.715102e-01 1.097784e-01
<GCONST> 1.047593e+02
<TRANSP> 5
 0.000000e+00 1.000000e+00 0.000000e+00 0.000000e+00 0.000000e+00
 0.000000e+00 7.582610e-01 2.417390e-01 0.000000e+00 0.000000e+00
 0.000000e+00 0.000000e+00 6.399604e-01 3.600396e-01 0.000000e+00
 0.000000e+00 0.000000e+00 0.000000e+00 9.398676e-01 6.013234e-02
 0.000000e+00 0.000000e+00 0.000000e+00 0.000000e+00 0.000000e+00
<ENDHMM>
~h "aa"
<BEGINHMM>
<NUMSTATES> 5
<STATE> 2
<MEAN> 39
 2.635133e+00 -1.082678e+01 -5.058818e+00 -8.305731e+00 -3.786764e-01 1.875089e+00 3.751700e+00 -4.751541e+00 2.136189e+00 -2.026227e+00 -8.726307e-01 -8.479795e+00 6.770451e+01 7.160159e-01 -1.433212e+00 -9.624571e-01 -6.929429e-01 3.412639e-01 1.325284e+00 3.452128e-02 -4.431077e-01 -3.141280e-01 -3.245341e-01 5.614176e-03 -1.172701e+00 1.487474e+00 -2.557569e-01 1.314494e-01 2.229686e-01 1.006258e-01 4.887629e-02 -6.085903e-02 -4.796448e-02 9.419070e-02 6.905667e-02 -2.583308e-02 1.686012e-02 1.946200e-01 -3.256985e-02
<VARIANCE> 39
 3.816541e+01 5.103990e+01 5.172745e+01 3.890978e+01 2.313407e+01 2.713772e+01 3.020769e+01 3.114440e+01 4.068867e+01 1.939981e+01 2.561679e+01 4.272725e+01 7.979463e+01 2.383807e+00 2.775157e+00 2.832763e+00 2.648687e+00 1.708071e+00 2.392757e+00 1.927469e+00 2.574478e+00 2.249879e+00 1.568963e+00 1.610854e+00 3.126740e+00 4.154971e+00 4.846857e-01 5.554213e-01 5.544085e-01 4.735060e-01 3.088313e-01 3.996074e-01 3.969157e-01 4.114628e-01 4.047039e-01 3.100853e-01 3.081451e-01 5.878623e-01 7.600095e-01
<GCONST> 1.188010e+02
<STATE> 3
<MEAN> 39
 5.415121e+00 -1.388778e+01 -7.415155e+00 -1.019787e+01 1.083276e-01 4.481647e+00 4.122421e+00 -5.970926e+00 1.181713e+00 -2.401772e+00 -1.209220e+00 -1.091432e+01 7.207619e+01 2.066605e-01 -8.608714e-01 -3.055858e-01 -4.239561e-01 1.532023e-01 8.753526e-01 -3.118182e-01 -1.617513e-01 6.772546e-02 -1.315823e-01 3.387589e-02 -4.320711e-01 1.071973e+00 -2.983936e-01 3.271210e-01 3.459261e-01 1.941593e-01 -1.022380e-01 -3.232315e-01 -1.356578e-01 1.712347e-01 1.328655e-01 6.206123e-02 -2.808242e-02 3.296986e-01 -2.814099e-01
<VARIANCE> 39
 2.664300e+01 5.063508e+01 4.636121e+01 3.105925e+01 1.779536e+01 2.626999e+01 3.488159e+01 4.331099e+01 3.954074e+01 1.658456e+01 2.176925e+01 3.131952e+01 5.310072e+01 2.166502e+00 2.058369e+00 1.756899e+00 2.177750e+00 1.486860e+00 1.881261e+00 1.698228e+00 2.311210e+00 1.545349e+00 1.061917e+00 1.219777e+00 1.628422e+00 2.935233e+00 2.014063e-01 4.245381e-01 3.055066e-01 3.494083e-01 2.193863e-01 2.718245e-01 3.033063e-01 3.428363e-01 2.712808e-01 2.177565e-01 2.135764e-01 3.767979e-01 5.487087e-01
<GCONST> 1.083699e+02
<STATE> 4
<MEAN> 39
 7.369876e+00 -1.536332e+01 -8.524972e+00 -1.009752e+01 -9.081952e-01 3.357404e+00 1.139076e+00 -3.196459e+00 2.714907e+00 -1.466828e+00 -3.919974e+00 -1.124928e+01 7.370585e+01 -1.803968e-01 4.352491e-01 3.014424e-01 3.278008e-01 -1.528749e-01 -5.549337e-01 -4.184022e-01 3.232079e-01 3.729196e-01 5.112826e-02 -1.429316e-01 3.501000e-01 -3.598738e-01 -8.250649e-02 1.903839e-01 7.125207e-02 7.287911e-02 -2.058604e-02 -1.248846e-01 4.909355e-02 -2.368796e-02 1.134377e-02 1.192877e-02 4.642123e-02 9.965442e-02 -1.618578e-01
<VARIANCE> 39
 1.695590e+01 4.531985e+01 3.472375e+01 2.112915e+01 1.993966e+01 3.928553e+01 3.318095e+01 4.801970e+01 3.191591e+01 1.792125e+01 2.586098e+01 2.033727e+01 2.955716e+01 9.368258e-01 1.933644e+00 1.046402e+00 1.295764e+00 1.502059e+00 2.113956e+00 1.771792e+00 2.069513e+00 1.334194e+00 1.279143e+00 1.425760e+00 1.166696e+00 1.319758e+00 9.373679e-02 2.427615e-01 1.850427e-01 2.067116e-01 2.830151e-01 3.869156e-01 3.272375e-01 3.794414e-01 2.364617e-01 2.652412e-01 2.585726e-01 2.298295e-01 1.432520e-01
<GCONST> 1.007519e+02
<TRANSP> 5
 0.000000e+00 1.000000e+00 0.000000e+00 0.000000e+00 0.000000e+00
 0.000000e+00 4.144478e-01 5.855522e-01 0.000000e+00 0.000000e+00
 0.000000e+00 0.000000e+00 4.089945e-01 5.910055e-01 0.000000e+00
 0.000000e+00 0.000000e+00 0.000000e+00 8.191909e-01 1.808091e-01
 0.000000e+00 0.000000e+00 0.000000e+00 0.000000e+00 0.000000e+00
<ENDHMM>
~h "cx"
<BEGINHMM>
<NUMSTATES> 5
<STATE> 2
<MEAN> 39
 -2.656497e+00 -3.670201e+00 3.061679e+00 -2.485204e+00 -1.867900e+00 -4.047326e+00 3.586983e+00 -7.853730e-01 4.837139e+00 -2.471049e+00 8.579005e-01 -7.583551e-01 5.894674e+01 -4.973647e-01 7.549798e-02 8.405960e-02 2.707486e-01 2.426445e-01 2.611453e-02 1.130401e-01 -1.366844e-01 -1.908751e-01 -2.241866e-01 1.388859e-01 7.316323e-02 -5.836020e-01 2.726418e-02 -9.370659e-02 -2.663445e-02 -1.028965e-01 -8.021444e-02 -4.171072e-03 -8.305600e-02 1.443415e-02 4.097708e-03 1.116348e-02 5.743466e-03 -8.059625e-03 8.652555e-02
<VARIANCE> 39
 1.655842e+01 2.763979e+01 2.392406e+01 1.647750e+01 1.837424e+01 2.107339e+01 2.329018e+01 2.505789e+01 2.245235e+01 1.960527e+01 2.549880e+01 1.651870e+01 1.529715e+01 5.154241e-01 8.460835e-01 7.491999e-01 9.666204e-01 1.230101e+00 1.261769e+00 1.749426e+00 1.437939e+00 1.608733e+00 2.038624e+00 1.745573e+00 1.027199e+00 3.120276e-01 6.952447e-02 1.566040e-01 1.561652e-01 2.195561e-01 2.332346e-01 2.802176e-01 3.560385e-01 2.972986e-01 3.321502e-01 4.149725e-01 3.208913e-01 2.358343e-01 5.492125e-02
<GCONST> 9.145133e+01
<STATE> 3
<MEAN> 39
 -3.505551e+00 -3.006475e+00 2.446939e+00 -2.349048e+00 -7.758400e-01 -4.275898e+00 2.997403e+00 -1.480699e+00 3.727631e+00 -3.015067e+00 6.369847e-01 -1.154885e+00 5.853016e+01 -4.098420e-01 -1.331430e-01 -1.406019e-01 -1.509946e-01 5.861795e-02 1.112645e-01 2.846269e-02 -3.855805e-02 5.034132e-02 1.580146e-01 2.842318e-01 6.136399e-02 -4.611812e-01 -4.594691e-02 -3.164934e-01 8.260483e-02 -3.422023e-01 -1.977756e-01 1.698244e-01 -1.131910e-01 1.287137e-01 1.184110e-01 6.547170e-02 3.758838e-02 -5.626487e-02 3.350154e-01
<VARIANCE> 39
 2.189321e+01 1.731009e+01 2.684003e+01 1.666404e+01 2.016626e+01 1.717939e+01 2.289000e+01 2.727042e+01 1.803481e+01 1.590628e+01 2.053922e+01 1.361405e+01 1.766289e+01 7.004075e-01 1.477021e+00 8.668017e-01 1.109239e+00 1.316787e+00 1.106776e+00 1.310310e+00 1.772649e+00 1.779741e+00 1.855740e+00 1.234973e+00 1.203877e+00 6.639886e-01 1.284301e-01 1.329166e-01 1.529560e-01 2.826126e-01 3.401651e-01 2.656558e-01 3.123017e-01 3.221996e-01 2.588221e-01 4.196240e-01 2.551430e-01 2.236976e-01 1.339739e-01
<GCONST> 9.355643e+01
<STATE> 4
<MEAN> 39
 -3.631695e+00 -2.590415e+00 2.453520e+00 -2.372972e+00 -9.032218e-01 -4.315763e+00 3.243305e+00 -1.528283e+00 4.528313e+00 -1.911160e+00 1.244196e+00 -1.375457e+00 5.774175e+01 -4.602463e-01 -9.136227e-01 1.260083e-02 -7.998152e-01 -2.902420e-01 6.611328e-01 -2.975518e-02 9.170158e-02 1.121280e-01 1.041900e-01 2.072809e-01 -4.471007e-02 1.216853e-01 -3.567786e-01 -3.272305e-01 2.200537e-01 -5.171515e-01 -6.510013e-02 2.586941e-01 -3.001915e-01 2.007153e-01 2.530760e-02 -4.499532e-02 2.345287e-02 -1.283177e-01 6.693479e-01
<VARIANCE> 39
 1.660100e+01 1.356587e+01 2.290384e+01 1.561650e+01 1.969597e+01 1.755616e+01 2.057023e+01 2.773004e+01 1.678361e+01 1.789865e+01 1.996126e+01 1.485772e+01 1.322482e+01 8.572601e-01 2.395983e+00 1.041140e+00 1.746735e+00 1.615759e+00 1.487247e+00 1.495860e+00 1.406399e+00 1.350290e+00 1.385758e+00 8.682791e-01 1.224215e+00 1.348635e+00 2.484028e-01 1.584319e-01 2.197306e-01 2.665347e-01 3.731077e-01 2.647451e-01 3.790494e-01 5.342097e-01 2.858357e-01 3.324282e-01 2.722630e-01 3.097222e-01 1.353560e-01
<GCONST> 9.625935e+01
<TRANSP> 5
 0.000000e+00 1.000000e+00 0.000000e+00 0.000000e+00 0.000000e+00
 0.000000e+00 7.056776e-01 2.943224e-01 0.000000e+00 0.000000e+00
 0.000000e+00 0.000000e+00 2.437230e-01 7.562770e-01 0.000000e+00
 0.000000e+00 0.000000e+00 0.000000e+00 6.363461e-02 9.363654e-01
 0.000000e+00 0.000000e+00 0.000000e+00 0.000000e+00 0.000000e+00
<ENDHMM>
~h "ee"
<BEGINHMM>
<NUMSTATES> 5
<STATE> 2
<MEAN> 39
 -1.659053e+00 -3.505313e+00 5.621947e-01 -3.754188e+00 -3.076761e+00 -4.172898e+00 3.934406e+00 -1.117363e+00 5.361727e+00 -1.996767e+00 -4.597180e-01 -1.889420e+00 5.865031e+01 -4.425051e-01 2.090321e-01 3.149841e-01 2.408994e-01 3.349480e-01 2.656367e-01 1.857624e-01 -4.630546e-02 -1.015768e-01 1.010924e-01 2.781148e-01 -2.584574e-02 -5.545115e-01 4.097029e-02 -1.047440e-01 1.242051e-01 -3.034086e-02 -1.103880e-01 -7.498448e-02 -4.427352e-02 3.073259e-02 -7.799751e-02 -1.874441e-02 -1.323822e-02 -3.942521e-02 1.716413e-01
<VARIANCE> 39
 1.506466e+01 3.052020e+01 2.003762e+01 1.377278e+01 2.309266e+01 2.895160e+01 1.892954e+01 2.692813e+01 3.309043e+01 1.919383e+01 1.779366e+01 1.368677e+01 1.194962e+01 1.907572e-01 5.081756e-01 6.569422e-01 7.192476e-01 1.474861e+00 1.518765e+00 1.343269e+00 1.400003e+00 1.663932e+00 1.620609e+00 1.555085e+00 1.333674e+00 2.673772e-01 3.973140e-02 7.105497e-02 1.676742e-01 1.445907e-01 3.063099e-01 2.864758e-01 2.711104e-01 2.743176e-01 3.352465e-01 3.685925e-01 3.085463e-01 3.125794e-01 4.939815e-02
<GCONST> 8.729510e+01
<STATE> 3
<MEAN> 39
 -2.877674e+00 -4.163132e+00 2.295545e+00 -3.958704e+00 -3.910046e+00 -3.939102e+00 3.594944e+00 -2.055323e+00 3.861413e+00 -1.374541e+00 1.105676e+00 -2.354453e+00 5.832780e+01 -2.870905e-01 -2.505339e-01 8.462466e-01 5.377149e-02 -4.724222e-01 3.412229e-02 1.858436e-01 -3.491037e-02 -2.548445e-01 2.738941e-01 1.672094e-01 -2.802843e-01 -4.584139e-02 2.252828e-01 -2.953258e-01 6.247596e-01 -2.920238e-01 -5.985722e-01 -1.942486e-01 -2.515320e-01 1.393151e-01 -4.100985e-01 -1.173231e-01 2.461384e-02 -1.971492e-01 5.211877e-01
<VARIANCE> 39
 1.577428e+01 2.906962e+01 2.844039e+01 1.330261e+01 2.843787e+01 2.695301e+01 1.746917e+01 2.728539e+01 2.955864e+01 2.464627e+01 1.886888e+01 1.459597e+01 1.333124e+01 2.342439e-01 9.032491e-01 1.729911e+00 9.399767e-01 2.366339e+00 2.458270e+00 1.691541e+00 1.584796e+00 2.237206e+00 1.880472e+00 1.312952e+00 1.777155e+00 5.514228e-01 6.693231e-02 1.881550e-01 5.704974e-01 2.078297e-01 5.916950e-01 4.323921e-01 3.548237e-01 2.733486e-01 5.419914e-01 4.827119e-01 3.349669e-01 2.467885e-01 2.090108e-01
<GCONST> 9.911543e+01
<STATE> 4
<MEAN> 39
 1.769019e+00 -9.217911e+00 1.230184e+01 -6.498292e+00 -1.504550e+01 -8.024593e+00 1.897864e-01 -1.933571e+00 -3.677538e+00 -1.706556e+00 2.424584e+00 -6.136102e+00 6.676026e+01 2.125160e-01 -3.262431e-01 7.759422e-01 -5.325946e-02 -6.219979e-01 -8.797947e-02 -1.210158e-01 1.132105e-03 -4.515014e-01 2.905205e-04 1.693469e-01 -1.395514e-01 4.687220e-01 9.938808e-02 -1.282848e-01 2.044589e-01 -1.562186e-01 -2.061021e-01 -6.545182e-02 -1.878667e-01 7.659286e-02 -9.633030e-02 2.367106e-02 6.577580e-02 -5.457284e-02 2.533687e-01
<VARIANCE> 39
 1.900556e+01 3.671845e+01 6.098885e+01 1.322966e+01 7.411698e+01 2.574385e+01 2.301881e+01 1.375354e+01 4.183293e+01 1.290159e+01 1.177969e+01 1.705288e+01 4.830572e+01 4.770949e-01 1.268906e+00 2.933981e+00 1.025872e+00 2.066298e+00 1.043435e+00 1.586576e+00 1.018159e+00 1.903844e+00 1.219635e+00 9.217818e-01 9.406682e-01 9.922248e-01 1.061552e-01 2.646471e-01 6.766458e-01 2.442943e-01 6.044964e-01 2.383871e-01 3.929916e-01 1.876790e-01 3.604253e-01 2.035182e-01 1.987575e-01 2.214190e-01 3.391408e-01
<GCONST> 9.950740e+01
<TRANSP> 5
 0.000000e+00 1.000000e+00 0.000000e+00 0.000000e+00 0.000000e+00
 0.000000e+00 7.594029e-01 2.405971e-01 0.000000e+00 0.000000e+00
 0.000000e+00 0.000000e+00 2.642736e-01 7.357265e-01 0.000000e+00
 0.000000e+00 0.000000e+00 0.000000e+00 7.271730e-01 2.728270e-01
 0.000000e+00 0.000000e+00 0.000000e+00 0.000000e+00 0.000000e+00
<ENDHMM>
~h "ii"
<BEGINHMM>
<NUMSTATES> 5
<STATE> 2
<MEAN> 39
 -1.964936e+00 -8.708817e+00 1.134321e+01 -5.363050e+00 -1.441861e+01 -8.530500e+00 3.620377e-01 -5.718894e+00 -3.284234e+00 -2.587898e+00 2.583875e+00 -4.630831e+00 7.017953e+01 1.976481e+00 -2.568541e-01 4.285196e+00 -1.073528e+00 -4.094969e+00 -5.648359e-02 -2.644246e+00 -7.664503e-01 -1.620243e+00 6.538799e-01 -3.664541e-01 -2.521385e+00 2.824866e+00 1.552933e-01 3.716069e-01 1.025247e-01 -3.667446e-04 4.183453e-01 6.905751e-01 -3.017996e-01 1.627868e-01 2.693596e-01 2.676608e-01 -1.887175e-01 -1.999082e-01 -7.463359e-01
<VARIANCE> 39
 2.211973e+01 2.314817e+01 6.992451e+01 1.522890e+01 5.793980e+01 1.822696e+01 4.052172e+01 1.933831e+01 3.022832e+01 1.744472e+01 1.359881e+01 3.755773e+01 2.163276e+01 1.128586e+00 1.401752e+00 2.719284e+00 1.309311e+00 2.979179e+00 4.046932e+00 3.398860e+00 2.112369e+00 2.083090e+00 2.204854e+00 2.576999e+00 2.323010e+00 2.733610e+00 4.896357e-01 2.286066e-01 1.523422e+00 2.121123e-01 1.169898e+00 5.160694e-01 8.159379e-01 4.305846e-01 3.771731e-01 3.721044e-01 3.605422e-01 7.180369e-01 3.608466e-01
<GCONST> 1.153949e+02
<STATE> 3
<MEAN> 39
 2.537661e+00 -8.529600e+00 2.342147e+01 -1.030953e+01 -2.206397e+01 -3.320185e+00 -8.871876e+00 -6.138798e+00 -6.199899e+00 7.706468e-01 -3.871366e-02 -1.315444e+01 7.395847e+01 2.350863e-01 4.775360e-01 3.335709e-01 -4.304300e-01 1.417189e-01 8.277891e-01 -3.018051e-02 -2.150271e-01 2.823206e-01 4.141791e-01 -6.633292e-01 -3.521596e-01 -2.971165e-01 -2.751170e-01 1.864415e-01 -7.440311e-01 1.899343e-01 6.193169e-01 -2.085877e-01 7.445562e-01 2.714745e-02 3.384612e-01 -1.827283e-01 3.359473e-02 5.359967e-01 -3.362278e-01
<VARIANCE> 39
 5.698067e+00 1.391166e+01 1.773243e+01 2.097441e+01 2.080175e+01 9.045484e+00 4.060211e+01 1.505552e+01 3.543614e+01 1.926269e+01 3.305548e+01 2.406581e+01 6.991997e+00 3.677336e-01 5.823252e-01 1.227818e+00 7.430973e-01 1.343952e+00 8.663982e-01 2.156380e+00 7.449743e-01 1.073353e+00 7.147380e-01 1.032575e+00 9.407571e-01 3.526068e-01 1.302170e-01 9.928291e-02 3.972599e-01 1.677433e-01 5.455589e-01 1.821668e-01 4.586241e-01 1.791910e-01 2.653176e-01 1.585076e-01 2.562763e-01 2.151560e-01 1.044088e-01
<GCONST> 8.623769e+01
<STATE> 4
<MEAN> 39
 4.543303e+00 -2.552707e+00 1.792167e+01 -1.065284e+01 -1.820989e+01 -2.174929e+00 -2.187165e+00 -5.584253e+00 -2.138284e+00 6.366479e-02 -1.063916e+00 -9.036592e+00 6.933406e+01 2.733313e-01 6.863986e-01 -1.049535e+00 3.607767e-02 6.845284e-01 -3.860272e-02 5.533132e-01 2.429312e-01 3.417940e-01 -2.891579e-01 9.820995e-02 4.829160e-01 -5.314682e-01 3.161222e-03 -1.358745e-02 -1.067524e-01 1.119555e-01 4.493093e-02 -8.993997e-02 -2.497671e-02 -4.360946e-03 -1.065666e-02 -4.220006e-02 1.785896e-02 2.716552e-02 -1.046003e-02
<VARIANCE> 39
 4.227742e+00 2.612960e+01 3.723215e+01 2.673789e+01 2.545309e+01 2.010126e+01 4.201812e+01 1.774021e+01 2.380568e+01 1.868117e+01 2.286452e+01 1.855263e+01 8.334247e+00 2.352196e-01 7.424240e-01 1.740532e+00 1.960349e+00 1.842602e+00 1.742695e+00 1.098013e+00 1.478002e+00 1.254610e+00 1.125995e+00 1.092610e+00 9.272723e-01 2.363452e-01 3.849098e-02 1.150423e-01 2.238430e-01 3.137500e-01 3.213676e-01 3.164684e-01 2.080989e-01 2.816190e-01 2.228118e-01 1.988507e-01 2.043145e-01 1.811019e-01 3.834680e-02
<GCONST> 8.758099e+01
<TRANSP> 5
 0.000000e+00 1.000000e+00 0.000000e+00 0.000000e+00 0.000000e+00
 0.000000e+00 7.520256e-01 2.479744e-01 0.000000e+00 0.000000e+00
 0.000000e+00 0.000000e+00 7.336915e-01 2.663085e-01 0.000000e+00
 0.000000e+00 0.000000e+00 0.000000e+00 9.185865e-01 8.141354e-02
 0.000000e+00 0.000000e+00 0.000000e+00 0.000000e+00 0.000000e+00
<ENDHMM>
~h "sh"
<BEGINHMM>
<NUMSTATES> 5
<STATE> 2
<MEAN> 39
 -3.463445e+00 -7.309996e+00 4.662093e+00 -2.101528e+00 -5.671350e+00 -2.492819e+00 1.803653e+00 -2.325146e+00 5.359716e+00 -4.049400e+00 -1.040424e+00 -2.440709e+00 6.490576e+01 -1.199809e+00 -6.508572e-01 7.110320e-01 4.238116e-01 -3.307137e-01 2.624544e-01 5.072385e-01 -1.621712e-01 8.435105e-01 3.411249e-01 1.664788e-01 2.539068e-02 2.436675e-01 -1.015056e-01 -1.570259e-01 1.924091e-02 -9.886274e-02 -1.265540e-01 -1.851881e-01 -1.588161e-01 2.499827e-01 2.859895e-01 1.172368e-01 4.465928e-02 3.514811e-05 1.665348e-01
<VARIANCE> 39
 6.534845e+01 3.839028e+01 4.182203e+01 2.206294e+01 2.423539e+01 3.828530e+01 2.502620e+01 4.993905e+01 2.480593e+01 2.319367e+01 2.553197e+01 1.649986e+01 2.445605e+01 2.099142e+00 1.677503e+00 1.706085e+00 1.824454e+00 1.833238e+00 2.649782e+00 2.111339e+00 2.151288e+00 2.569002e+00 1.590786e+00 1.610996e+00 1.054585e+00 5.817949e-01 3.319210e-01 3.374003e-01 3.291924e-01 3.032109e-01 3.141232e-01 4.509997e-01 5.330194e-01 5.097507e-01 4.067487e-01 3.351328e-01 2.937666e-01 2.822345e-01 1.538603e-01
<GCONST> 1.086696e+02
<STATE> 3
<MEAN> 39
 -7.370137e+00 -8.811463e+00 6.374440e+00 -1.438137e+00 -6.993451e+00 -1.888280e+00 3.065178e+00 -2.287623e+00 7.973531e+00 -3.225573e+00 -5.270579e-01 -2.372169e+00 6.652318e+01 -1.318037e+00 -7.688962e-01 5.746854e-01 1.745031e-01 -5.519528e-01 -1.925651e-01 2.284732e-02 2.589021e-01 9.824637e-01 4.805782e-01 2.080564e-01 4.519276e-02 5.268252e-01 2.529400e-01 7.052822e-02 -1.105159e-01 -7.604390e-02 2.838416e-02 -2.093084e-01 -3.377416e-01 1.189652e-01 -1.796567e-01 -8.292120e-02 -3.464523e-02 -6.169903e-02 5.570795e-02
<VARIANCE> 39
 6.485799e+01 3.322792e+01 3.691390e+01 2.302455e+01 2.744840e+01 4.217303e+01 2.752636e+01 5.505289e+01 2.320869e+01 2.606185e+01 2.227003e+01 1.810878e+01 2.155658e+01 3.193197e+00 1.549895e+00 2.073450e+00 1.793275e+00 2.549809e+00 2.331081e+00 2.507940e+00 2.942602e+00 2.168029e+00 1.458029e+00 2.163251e+00 1.271646e+00 7.956117e-01 3.487790e-01 3.074531e-01 2.824087e-01 2.974890e-01 3.333052e-01 4.560383e-01 5.015892e-01 5.222491e-01 3.712771e-01 3.359596e-01 3.212698e-01 2.212928e-01 1.089763e-01
<GCONST> 1.097036e+02
<STATE> 4
<MEAN> 39
 -8.268711e+00 -1.035213e+01 7.569290e+00 4.359987e-01 -9.385204e+00 -5.565830e+00 -7.514831e-02 -1.304743e+00 8.803468e+00 -2.525353e+00 -4.835499e-01 -2.553835e+00 6.834928e+01 1.414595e+00 1.757658e-01 -1.377030e-01 -3.236718e-01 -4.349686e-01 -6.760094e-01 -9.665160e-01 9.631088e-02 -4.173009e-01 -1.530695e-01 -1.952097e-02 -3.238613e-01 4.785744e-01 2.473914e-01 8.393870e-02 -5.701976e-02 -1.552871e-01 2.270877e-02 1.030915e-01 -7.378921e-02 -1.869671e-03 -9.992689e-02 -6.442757e-02 1.934111e-02 -2.704792e-03 -1.258241e-03
<VARIANCE> 39
 8.523056e+01 2.216212e+01 1.956607e+01 2.141339e+01 2.743470e+01 3.714400e+01 3.213420e+01 4.296510e+01 3.449912e+01 2.310048e+01 2.340053e+01 2.177131e+01 1.319254e+01 7.314052e+00 2.529476e+00 1.748351e+00 2.170791e+00 2.103378e+00 2.194002e+00 2.821705e+00 2.468727e+00 2.880162e+00 1.869255e+00 1.795956e+00 1.350729e+00 9.960794e-01 8.204821e-01 3.734546e-01 2.447318e-01 3.297452e-01 4.260679e-01 4.054031e-01 4.945831e-01 4.319578e-01 6.029826e-01 3.522587e-01 3.575018e-01 2.648928e-01 1.880341e-01
<GCONST> 1.126202e+02
<TRANSP> 5
 0.000000e+00 1.000000e+00 0.000000e+00 0.000000e+00 0.000000e+00
 0.000000e+00 3.403410e-01 6.596590e-01 0.000000e+00 0.000000e+00
 0.000000e+00 0.000000e+00 4.348436e-01 5.651564e-01 0.000000e+00
 0.000000e+00 0.000000e+00 0.000000e+00 8.399704e-01 1.600296e-01
 0.000000e+00 0.000000e+00 0.000000e+00 0.000000e+00 0.000000e+00
<ENDHMM>
~h "uu"
<BEGINHMM>
<NUMSTATES> 5
<STATE> 2
<MEAN> 39
 6.788729e+00 -9.027417e+00 2.919711e+00 -8.642461e+00 -5.252546e+00 -1.416961e+00 -9.916508e+00 -1.180565e+00 7.453305e+00 -1.683264e+00 -1.027890e+00 -7.186697e+00 7.229354e+01 1.993929e-01 -8.679861e-01 -5.679674e-01 -1.453015e+00 1.905668e-01 1.740477e+00 -8.394086e-01 9.062109e-02 -4.769884e-02 7.188692e-02 7.454944e-01 -9.112807e-02 7.356986e-01 -9.759695e-02 6.360247e-01 -1.335254e-01 2.733088e-01 -7.780772e-02 -3.770151e-02 7.938900e-01 -4.342241e-01 -3.505733e-01 -7.824297e-02 9.294316e-02 3.323276e-01 -4.727771e-01
<VARIANCE> 39
 1.608766e+01 2.806313e+01 3.770683e+01 2.873618e+01 4.758335e+01 3.953655e+01 3.814932e+01 3.216743e+01 3.728638e+01 1.717896e+01 1.555131e+01 1.611719e+01 1.415676e+01 6.124334e-01 3.138721e+00 2.519148e+00 2.432581e+00 2.197218e+00 2.418901e+00 4.096398e+00 3.076256e+00 2.283805e+00 1.584689e+00 1.772850e+00 1.253130e+00 1.231855e+00 2.464398e-01 4.204937e-01 4.153386e-01 3.424599e-01 4.316938e-01 4.365261e-01 5.144531e-01 5.427688e-01 4.750789e-01 2.437501e-01 3.565813e-01 2.194838e-01 9.565753e-02
<GCONST> 1.088177e+02
<STATE> 3
<MEAN> 39
 7.724149e+00 -7.652195e+00 8.488660e-02 -1.237759e+01 -5.232033e+00 3.582423e+00 -8.270591e+00 -4.310192e+00 4.311613e+00 -1.750505e+00 2.003809e+00 -4.517189e+00 7.207555e+01 3.217343e-01 1.462875e+00 -5.313392e-01 -6.319939e-01 -1.690753e-01 3.850297e-01 1.145026e+00 -3.744679e-01 -1.129979e+00 -6.452772e-01 4.628848e-01 1.304194e+00 -6.525765e-01 -2.701136e-02 2.682753e-01 5.757921e-02 2.187987e-01 -3.996020e-02 -4.392898e-01 2.166308e-01 2.433746e-01 -6.278276e-02 -1.676600e-01 -2.477376e-01 5.678443e-02 -1.735182e-01
<VARIANCE> 39
 2.101129e+01 2.421296e+01 3.851731e+01 4.831578e+01 3.318096e+01 6.118253e+01 3.149097e+01 3.889620e+01 2.692375e+01 2.733811e+01 2.354310e+01 1.915980e+01 1.200932e+01 1.729563e-01 9.594603e-01 7.359452e-01 1.318536e+00 1.363451e+00 1.560398e+00 1.577857e+00 1.827331e+00 1.976050e+00 1.776148e+00 1.778445e+00 1.040811e+00 2.974125e-01 4.879796e-02 1.758059e-01 1.754567e-01 1.534054e-01 2.515294e-01 2.780780e-01 3.088740e-01 3.892788e-01 2.845004e-01 3.108036e-01 2.344383e-01 2.668632e-01 3.680994e-02
<GCONST> 9.435844e+01
<STATE> 4
<MEAN> 39
 8.022887e+00 1.982127e+00 -8.488849e-01 -1.260916e+01 -7.584063e+00 -2.589215e+00 -1.388284e+00 -2.704381e+00 -6.009179e-01 -4.425858e+00 6.229855e-01 -1.390780e+00 6.574800e+01 -2.876113e-01 4.268281e-01 2.165660e-01 5.034156e-01 4.916995e-02 -5.116082e-01 4.621875e-01 -6.604908e-02 -8.517957e-02 5.693395e-02 -1.574579e-01 3.303906e-02 -5.735788e-01 -6.672075e-02 -1.296782e-01 5.060814e-02 8.920941e-02 7.218954e-02 2.655119e-02 -7.272591e-02 -1.559139e-02 1.119827e-01 9.403507e-02 1.393692e-02 -9.024081e-02 1.791523e-02
<VARIANCE> 39
 1.812330e+01 1.867784e+01 2.069179e+01 3.831816e+01 2.002787e+01 3.386883e+01 2.447340e+01 1.978274e+01 2.614536e+01 1.861573e+01 2.262623e+01 1.892021e+01 1.560022e+01 3.119332e-01 9.332166e-01 7.994220e-01 1.031175e+00 1.246748e+00 1.666822e+00 1.382931e+00 1.658297e+00 1.728830e+00 1.434652e+00 1.425657e+00 1.350227e+00 1.774144e-01 3.104902e-02 8.000141e-02 1.220785e-01 1.674953e-01 1.615119e-01 2.568611e-01 2.304831e-01 2.544864e-01 2.963228e-01 2.606528e-01 2.702057e-01 2.604332e-01 2.750874e-02
<GCONST> 8.712756e+01
<TRANSP> 5
 0.000000e+00 1.000000e+00 0.000000e+00 0.000000e+00 0.000000e+00
 0.000000e+00 6.467718e-01 3.532281e-01 0.000000e+00 0.000000e+00
 0.000000e+00 0.000000e+00 6.121264e-01 3.878737e-01 0.000000e+00
 0.000000e+00 0.000000e+00 0.000000e+00 9.007199e-01 9.928008e-02
 0.000000e+00 0.000000e+00 0.000000e+00 0.000000e+00 0.000000e+00
<ENDHMM>
~h "sil"
<BEGINHMM>
<NUMSTATES> 5
<STATE> 2
<MEAN> 39
 -5.548429e+00 -6.380000e+00 1.144955e+00 -8.385041e-01 -8.753662e-01 -4.243717e+00 5.254451e+00 3.982113e-01 4.636067e+00 -2.594186e+00 9.067756e-01 -8.198335e-01 5.785529e+01 -1.160558e-01 1.006897e-01 -5.117692e-04 -9.234287e-04 1.476011e-01 1.337725e-01 -8.955345e-02 -1.383273e-01 3.558954e-02 1.052368e-01 6.928539e-02 -2.571665e-02 -3.073946e-01 2.374977e-02 2.927853e-02 7.712701e-03 -2.704814e-02 -1.609065e-02 2.675102e-02 3.817659e-03 -5.131729e-02 -1.133440e-02 4.807982e-02 1.953078e-02 -1.228411e-02 7.469352e-03
<VARIANCE> 39
 1.927133e+01 2.212009e+01 1.678409e+01 2.738231e+01 2.520652e+01 1.948639e+01 2.171729e+01 2.478864e+01 1.784125e+01 2.042076e+01 1.682084e+01 1.481551e+01 1.239907e+01 7.355779e-01 8.592166e-01 8.637922e-01 1.170086e+00 1.382597e+00 1.354923e+00 1.642606e+00 1.846315e+00 1.494117e+00 1.530742e+00 1.291824e+00 1.215999e+00 5.578269e-01 1.134888e-01 1.398580e-01 1.583429e-01 2.335982e-01 2.523126e-01 2.541426e-01 2.712018e-01 2.936568e-01 2.715279e-01 2.749627e-01 2.129526e-01 2.231282e-01 7.914177e-02
<GCONST> 9.137062e+01
<STATE> 3
<MEAN> 39
 -5.537443e+00 -5.066317e+00 1.172550e+00 -1.488705e+00 -9.404728e-01 -2.929807e+00 4.483028e+00 -1.398530e+00 4.977091e+00 -1.401814e+00 1.609903e+00 -1.268325e+00 5.582213e+01 -6.307168e-02 5.513439e-02 3.595620e-02 3.542656e-02 2.967592e-02 4.910538e-02 1.429643e-02 -3.060280e-02 9.857737e-03 2.883963e-02 7.747948e-03 -1.392448e-02 -9.701945e-02 8.380786e-04 -6.261341e-03 1.289123e-02 7.206224e-03 -1.275127e-02 -2.595678e-03 7.547396e-03 6.016608e-03 -1.113516e-02 -2.239617e-02 -3.526110e-03 2.240827e-02 1.595418e-02
<VARIANCE> 39
 6.753038e+00 1.393578e+01 1.516998e+01 1.688176e+01 2.177999e+01 1.864771e+01 1.883101e+01 2.127288e+01 2.765515e+01 1.740788e+01 1.904987e+01 1.570122e+01 7.200403e+00 2.674305e-01 6.333413e-01 7.431899e-01 9.461416e-01 1.203025e+00 1.316152e+00 1.466314e+00 1.673160e+00 1.822098e+00 1.584420e+00 1.476865e+00 1.273349e+00 2.695535e-01 5.578375e-02 1.079183e-01 1.459720e-01 1.904590e-01 2.359599e-01 2.399911e-01 3.113799e-01 3.347202e-01 3.713280e-01 3.157930e-01 2.879756e-01 2.649601e-01 4.439329e-02
<GCONST> 8.556971e+01
<STATE> 4
<MEAN> 39
 -6.485529e+00 -4.040454e+00 1.645192e+00 -9.336957e-01 5.709020e-01 -1.879168e+00 4.662594e+00 -2.504545e+00 3.233589e+00 -2.282314e+00 2.095638e+00 2.188797e-01 5.495208e+01 -2.054406e-02 9.608987e-03 1.787280e-02 -8.015594e-03 -5.750734e-03 1.547630e-02 -1.913450e-03 -2.617313e-02 -2.239923e-02 -1.280744e-02 8.811080e-03 1.439639e-02 -1.738385e-02 2.734812e-03 -6.959386e-03 -1.141630e-03 -4.267902e-03 -4.148564e-03 -8.522403e-03 -4.090729e-03 2.230994e-03 -1.100439e-03 -2.363931e-03 -7.563259e-03 -6.224253e-03 9.318253e-03
<VARIANCE> 39
 1.907103e+00 5.924938e+00 9.416556e+00 8.787548e+00 1.311759e+01 1.498128e+01 1.526704e+01 1.686690e+01 1.899397e+01 1.484928e+01 1.468838e+01 1.274773e+01 2.286488e+00 1.209727e-01 2.842408e-01 4.468748e-01 6.543241e-01 8.773433e-01 1.066376e+00 1.299148e+00 1.424615e+00 1.469003e+00 1.352540e+00 1.334070e+00 1.204600e+00 5.547450e-02 2.460785e-02 5.419096e-02 8.741638e-02 1.322665e-01 1.805682e-01 2.180418e-01 2.650824e-01 2.921079e-01 3.025479e-01 2.787537e-01 2.735011e-01 2.459604e-01 1.136848e-02
<GCONST> 6.874756e+01
<TRANSP> 5
 0.000000e+00 1.000000e+00 0.000000e+00 0.000000e+00 0.000000e+00
 0.000000e+00 7.461938e-01 2.538061e-01 0.000000e+00 0.000000e+00
 0.000000e+00 0.000000e+00 8.660761e-01 1.339240e-01 0.000000e+00
 0.000000e+00 0.000000e+00 0.000000e+00 9.731947e-01 2.680533e-02
 0.000000e+00 0.000000e+00 0.000000e+00 0.000000e+00 0.000000e+00
<ENDHMM>
~h "txh"
<BEGINHMM>
<NUMSTATES> 5
<STATE> 2
<MEAN> 39
 8.647249e+00 -1.885279e+01 -8.557425e+00 -7.482324e+00 -1.059488e+00 5.848751e+00 2.963819e+00 -4.994218e+00 -4.051315e-01 -4.595947e+00 3.379026e-02 -1.204695e+01 7.536080e+01 2.216559e-01 -1.846612e-01 -5.679695e-02 7.133085e-01 -4.744096e-01 -1.107057e+00 -1.029345e-01 1.266303e+00 3.041122e-01 -5.802156e-01 -1.792003e-01 4.928447e-01 -8.725439e-02 -3.303324e-02 6.924471e-02 7.324278e-02 7.421294e-02 -4.515936e-02 -3.053873e-01 -4.670491e-02 2.170510e-01 1.200639e-01 -1.147929e-01 -2.248477e-02 1.625676e-01 -9.363398e-02
<VARIANCE> 39
 7.031195e+00 4.727883e+01 2.421292e+01 1.656951e+01 1.371269e+01 2.562947e+01 3.799200e+01 7.951192e+01 4.501196e+01 1.888760e+01 1.277978e+01 1.499273e+01 1.559484e+01 1.748638e-01 6.450062e-01 5.796915e-01 8.548181e-01 8.283923e-01 2.012194e+00 1.330386e+00 2.453613e+00 1.675360e+00 1.157913e+00 8.288425e-01 8.776681e-01 2.013171e-01 3.419893e-02 1.609637e-01 9.782465e-02 1.281053e-01 1.383963e-01 1.866752e-01 2.484152e-01 3.480375e-01 2.278901e-01 1.951855e-01 1.528832e-01 1.486635e-01 4.489465e-02
<GCONST> 8.396642e+01
<STATE> 3
<MEAN> 39
 8.718857e+00 -1.748163e+01 -5.971255e+00 -1.642809e+00 -4.973160e+00 -7.542290e+00 6.110725e-01 6.165221e+00 4.324768e+00 -9.520262e+00 -1.239676e+00 -4.826287e+00 7.191108e+01 -2.026436e-01 1.352024e+00 4.966199e-01 7.707663e-01 -3.536711e-01 -1.894855e+00 -3.719840e-01 4.015288e-01 8.181982e-01 -2.227267e-01 2.066047e-01 1.340607e+00 -1.082089e+00 -1.849553e-01 2.332820e-01 -2.979130e-02 -1.338680e-01 3.610315e-01 5.740869e-01 7.804076e-02 -5.948068e-01 -1.799859e-01 2.707721e-01 7.282450e-02 -2.532282e-01 -1.958825e-01
<VARIANCE> 39
 1.347462e+01 3.523880e+01 1.680634e+01 1.406566e+01 2.703889e+01 4.393052e+01 4.050120e+01 4.375173e+01 2.217408e+01 2.182038e+01 1.379598e+01 1.595664e+01 2.865949e+01 4.847068e-01 1.782968e+00 7.868448e-01 1.060260e+00 2.423356e+00 5.099501e+00 1.976942e+00 4.579771e+00 1.799438e+00 1.711298e+00 1.324285e+00 1.939453e+00 3.951760e-01 7.148790e-02 2.602058e-01 1.563809e-01 1.562047e-01 4.401929e-01 7.122540e-01 3.944655e-01 5.721380e-01 3.637485e-01 2.914912e-01 2.715280e-01 3.360713e-01 7.695769e-02
<GCONST> 1.007792e+02
<STATE> 4
<MEAN> 39
 3.847249e+00 -1.212688e+01 -4.571496e+00 -2.541615e+00 -2.743775e+00 -6.049322e+00 4.989095e+00 2.840943e+00 6.170538e+00 -6.155512e+00 -2.352405e-01 -2.453375e+00 6.645699e+01 -7.418463e-01 3.135334e-01 3.875391e-01 -1.397907e-01 3.160795e-01 3.660457e-01 3.159301e-01 -1.365300e-01 4.338359e-02 3.913769e-01 1.195359e-02 1.798207e-01 -6.476310e-01 -3.214771e-02 -7.429232e-02 3.998367e-03 -7.397583e-02 -1.891371e-02 1.138793e-01 1.313708e-02 -1.955792e-02 -2.296871e-02 4.921716e-02 -2.030125e-02 -6.409045e-02 5.371156e-02
<VARIANCE> 39
 2.760112e+01 1.809484e+01 3.234971e+01 2.260304e+01 2.118611e+01 4.702582e+01 5.271308e+01 6.932888e+01 2.375675e+01 2.394592e+01 1.729280e+01 2.279934e+01 2.562862e+01 1.047023e+00 2.333645e+00 2.739967e+00 1.985472e+00 2.072182e+00 3.114993e+00 2.776254e+00 4.302958e+00 2.256796e+00 2.041898e+00 2.078998e+00 2.478583e+00 2.362654e+00 1.510461e-01 3.792523e-01 5.394532e-01 3.663965e-01 4.358155e-01 7.103090e-01 5.318612e-01 7.546675e-01 4.754189e-01 4.226614e-01 4.425330e-01 5.708693e-01 3.639379e-01
<GCONST> 1.155594e+02
<TRANSP> 5
 0.000000e+00 1.000000e+00 0.000000e+00 0.000000e+00 0.000000e+00
 0.000000e+00 8.912042e-01 1.087958e-01 0.000000e+00 0.000000e+00
 0.000000e+00 0.000000e+00 7.264245e-01 2.735756e-01 0.000000e+00
 0.000000e+00 0.000000e+00 0.000000e+00 9.001455e-01 9.985454e-02
 0.000000e+00 0.000000e+00 0.000000e+00 0.000000e+00 0.000000e+00
<ENDHMM>
