~o
<STREAMINFO> 1 39
<VECSIZE> 39<NULLD><MFCC_D_A_0><DIAGC>
~s "silst"
<MEAN> 39
 -6.404161e+00 -3.944992e+00 4.066134e+00 -2.657379e+00 -5.594057e-01 9.618988e-02 2.924746e+00 -4.309720e+00 3.273130e+00 -3.799008e+00 2.149792e+00 9.386143e-01 5.693443e+01 -1.068673e-01 -4.097070e-02 2.993637e-02 3.450945e-02 4.570275e-02 1.326051e-01 3.966983e-02 2.138656e-02 2.458075e-02 -2.228472e-02 3.762643e-02 5.385949e-02 -8.187130e-02 2.534778e-02 -1.028678e-02 -4.332043e-03 7.732084e-03 3.437366e-03 -2.080778e-02 6.610267e-03 1.304272e-02 -1.545263e-02 -2.284622e-03 -3.054634e-02 -3.603982e-02 2.532081e-02
<VARIANCE> 39
 3.255435e+00 5.746512e+00 1.444771e+01 1.027064e+01 1.544736e+01 2.104274e+01 1.778185e+01 1.785516e+01 1.702242e+01 1.903116e+01 1.685208e+01 1.525215e+01 1.246148e+00 1.375999e-01 2.342851e-01 5.359452e-01 7.456363e-01 8.580301e-01 1.204274e+00 1.321037e+00 1.325968e+00 1.297994e+00 1.515993e+00 1.372574e+00 1.282593e+00 4.947336e-02 2.374250e-02 4.456248e-02 9.461562e-02 1.464253e-01 1.743484e-01 2.256905e-01 2.632438e-01 2.630070e-01 2.468950e-01 3.080202e-01 2.820185e-01 2.659039e-01 1.062063e-02
<GCONST> 7.043008e+01
~h "a"
<BEGINHMM>
<NUMSTATES> 5
<STATE> 2
<MEAN> 39
 1.296664e+00 -7.838752e+00 -6.837877e-02 -3.469718e+00 -3.029104e+00 -7.121216e+00 5.160283e-01 -1.127748e+00 4.136351e+00 -3.011924e+00 -2.187768e+00 -4.858135e+00 6.441177e+01 -6.338426e-01 9.652357e-01 1.733795e-01 4.717118e-01 4.762515e-01 1.513926e-01 8.217913e-02 -3.085065e-01 1.705502e-01 -1.547145e-01 2.796949e-01 5.414748e-01 -9.974436e-01 -9.960575e-02 -1.263157e-01 4.210009e-03 -1.060520e-01 3.368849e-02 1.546585e-01 6.483806e-02 4.608560e-02 -5.822569e-02 5.058219e-02 7.077429e-02 -1.368374e-02 4.894513e-02
<VARIANCE> 39
 3.998892e+01 3.548792e+01 2.993943e+01 1.611407e+01 2.081640e+01 2.345844e+01 3.324333e+01 2.465703e+01 2.452631e+01 1.753829e+01 1.904697e+01 2.063496e+01 2.199036e+01 8.280260e-01 1.985944e+00 1.112772e+00 1.261042e+00 1.551779e+00 1.663908e+00 1.651690e+00 1.960295e+00 1.603396e+00 1.699090e+00 1.512383e+00 1.686058e+00 6.315030e-01 1.527193e-01 2.823578e-01 2.173515e-01 2.506786e-01 3.107665e-01 3.290341e-01 3.747297e-01 3.572839e-01 3.631435e-01 3.440107e-01 3.153287e-01 3.281670e-01 9.963696e-02
<GCONST> 1.005814e+02
<STATE> 3
<MEAN> 39
 -2.722777e+00 -4.966908e+00 1.890775e+00 -2.195634e+00 -1.444084e+00 -5.544549e+00 2.368762e+00 -2.022597e+00 3.303423e+00 -2.867754e+00 4.626306e-01 -1.459340e+00 6.112702e+01 -6.788833e-01 1.364269e-01 1.163132e-01 1.177965e-01 4.924619e-01 5.154251e-01 1.795138e-01 -1.235419e-01 1.338081e-01 2.766259e-02 2.522919e-01 1.887348e-01 -4.820026e-01 1.630553e-01 -2.070862e-01 -4.446474e-02 -2.409408e-01 -1.225469e-01 6.502095e-02 -8.331644e-02 -5.543325e-02 -1.052528e-01 -8.176767e-03 -1.504327e-01 -2.803335e-01 2.695135e-01
<VARIANCE> 39
 3.195478e+01 2.370262e+01 2.435477e+01 1.790623e+01 2.051836e+01 2.764694e+01 2.288701e+01 2.758675e+01 2.000524e+01 1.863315e+01 2.278051e+01 2.135806e+01 1.777852e+01 1.239490e+00 1.792803e+00 1.103971e+00 1.242483e+00 1.459410e+00 1.502861e+00 2.092271e+00 1.876703e+00 1.882558e+00 1.711670e+00 1.327283e+00 1.382987e+00 6.009482e-01 1.974616e-01 3.514990e-01 2.163386e-01 2.729912e-01 2.972549e-01 3.194717e-01 3.357408e-01 4.225710e-01 3.680386e-01 3.555419e-01 3.365500e-01 3.363387e-01 1.326315e-01
<GCONST> 1.006594e+02
<STATE> 4
<MEAN> 39
 -1.916649e+00 -4.182447e+00 2.244278e+00 -2.005881e+00 -1.065158e+00 -5.341315e+00 1.619412e+00 -2.878702e+00 3.182024e+00 -3.640803e+00 -8.318722e-01 -3.039251e+00 6.156608e+01 1.868957e-02 -4.879521e-01 -6.872561e-02 -4.859753e-01 9.918447e-02 4.482593e-01 -3.009221e-01 -3.148509e-01 -9.348947e-02 1.169435e-01 1.610817e-02 -5.348184e-01 4.902698e-01 2.281306e-01 -3.649846e-01 -7.021753e-02 -3.693827e-01 -1.920770e-01 1.317614e-01 -1.795572e-01 2.606996e-02 -9.047792e-02 1.158197e-01 -4.415031e-02 -2.447935e-01 3.870156e-01
<VARIANCE> 39
 3.856507e+01 2.486732e+01 2.450478e+01 1.359653e+01 1.924417e+01 2.054430e+01 2.630874e+01 2.151978e+01 2.112080e+01 1.817793e+01 1.956479e+01 2.322126e+01 2.069310e+01 3.441749e+00 3.791258e+00 1.449392e+00 2.075662e+00 2.012271e+00 2.316222e+00 2.806130e+00 1.737963e+00 2.232319e+00 1.756812e+00 1.846590e+00 2.358250e+00 1.815987e+00 3.797310e-01 4.126389e-01 2.871979e-01 3.331556e-01 3.855422e-01 3.740123e-01 3.331304e-01 3.039382e-01 3.627427e-01 3.036692e-01 2.812624e-01 5.069173e-01 2.215138e-01
<GCONST> 1.079098e+02
<TRANSP> 5
 0.000000e+00 1.000000e+00 0.000000e+00 0.000000e+00 0.000000e+00
 0.000000e+00 6.125081e-01 3.874919e-01 0.000000e+00 0.000000e+00
 0.000000e+00 0.000000e+00 2.633041e-01 7.366959e-01 0.000000e+00
 0.000000e+00 0.000000e+00 0.000000e+00 2.846049e-01 7.153952e-01
 0.000000e+00 0.000000e+00 0.000000e+00 0.000000e+00 0.000000e+00
<ENDHMM>
~h "c"
<BEGINHMM>
<NUMSTATES> 5
<STATE> 2
<MEAN> 39
 4.649403e+00 -7.974123e+00 -7.514640e+00 -6.501781e+00 5.949733e-02 -3.671762e+00 2.161047e+00 -7.268925e-01 4.085205e+00 -1.451332e+00 -1.766112e+00 -8.692087e+00 6.443532e+01 -1.383424e+00 2.142114e-01 -6.251451e-01 -3.945877e-01 -1.259287e-01 2.459252e-01 1.082246e+00 -1.719016e-01 5.499501e-01 -6.305347e-02 3.092032e-01 7.192208e-01 -9.378513e-01 -2.042504e-01 -3.654386e-01 2.711134e-01 -2.613612e-01 -2.183971e-01 -3.215943e-01 -8.309882e-02 1.704854e-01 -1.262320e-01 4.628391e-02 -7.729235e-02 2.294708e-01 4.377637e-01
<VARIANCE> 39
 7.947890e+00 6.299758e+00 1.322668e+01 1.119449e+01 1.402615e+01 2.043941e+01 1.692844e+01 1.664557e+01 1.742928e+01 1.445700e+01 1.672944e+01 1.586743e+01 6.669669e+00 4.007102e-01 1.083212e+00 1.428713e+00 1.457035e+00 1.719750e+00 2.412674e+00 2.337890e+00 1.837780e+00 1.816442e+00 2.019706e+00 1.556057e+00 2.238080e+00 9.728746e-01 6.823679e-02 2.241898e-01 2.695102e-01 3.589239e-01 3.268678e-01 3.681702e-01 4.568799e-01 4.575596e-01 4.338063e-01 4.488337e-01 3.161131e-01 4.136835e-01 6.513157e-02
<GCONST> 9.359523e+01
<STATE> 3
<MEAN> 39
 -6.261256e+00 -6.246607e+00 -4.295914e+00 -6.896990e+00 -2.740727e-01 -6.675018e+00 6.057453e+00 -1.754594e+00 3.371866e+00 -1.250837e+00 -8.849631e-01 -2.146030e+00 6.421170e+01 -1.244423e+00 1.772184e-01 6.972126e-01 5.478568e-03 2.399443e-01 -3.817425e-01 1.939190e-01 7.557183e-02 -4.655198e-01 -1.328138e-01 1.494399e-02 3.527524e-01 1.194392e-01 1.341549e-01 -3.322630e-02 8.908994e-03 2.224371e-02 -1.623905e-02 -4.499594e-02 -1.231752e-01 1.365587e-01 -4.034523e-02 -5.290529e-03 -1.186200e-02 -1.601423e-01 -8.812572e-03
<VARIANCE> 39
 2.081000e+01 1.337317e+01 1.367337e+01 1.345614e+01 1.556207e+01 1.780919e+01 1.213840e+01 1.751168e+01 1.678768e+01 1.062050e+01 1.008307e+01 1.336164e+01 1.680117e+01 1.572162e+00 1.183853e+00 8.457393e-01 1.246905e+00 1.117445e+00 1.559016e+00 1.675100e+00 1.820767e+00 1.401298e+00 1.202290e+00 9.756559e-01 1.640274e+00 1.066401e+00 1.634295e-01 2.275588e-01 1.706788e-01 2.422660e-01 2.154579e-01 3.173464e-01 2.648906e-01 3.229521e-01 3.099796e-01 2.631455e-01 1.746282e-01 2.836569e-01 1.486392e-01
<GCONST> 9.077698e+01
<STATE> 4
<MEAN> 39
 -9.801037e+00 -8.084472e+00 -6.113945e-01 -9.319820e+00 1.218153e+00 -7.851697e+00 3.214978e+00 1.788300e+00 1.409201e+00 -2.532862e+00 1.180986e+00 -2.028788e+00 6.497414e+01 -2.149177e-01 2.269473e-01 5.683644e-01 2.859517e-01 1.515857e-01 -9.681731e-02 -4.363340e-01 1.611079e-01 -1.607294e-02 -1.723437e-01 2.113834e-01 4.773171e-02 -3.208660e-01 3.357356e-01 1.945619e-01 -1.225547e-01 2.010826e-01 6.975628e-02 2.340296e-01 -3.063869e-02 -1.685827e-01 1.135887e-01 1.044424e-01 -2.191234e-02 -1.117178e-01 -2.502218e-01
<VARIANCE> 39
 1.374636e+01 1.193009e+01 1.829945e+01 1.302307e+01 2.256719e+01 2.077788e+01 1.987153e+01 2.847862e+01 1.205074e+01 2.317723e+01 1.628922e+01 1.939263e+01 5.886043e+00 2.685773e+00 1.439129e+00 8.392141e-01 1.203556e+00 1.627992e+00 2.509857e+00 1.625419e+00 2.371560e+00 1.638852e+00 2.483558e+00 1.205646e+00 2.040614e+00 9.128234e-01 2.244744e-01 3.127639e-01 1.478782e-01 1.890744e-01 3.695316e-01 4.910974e-01 3.552397e-01 4.461559e-01 3.363791e-01 5.360618e-01 2.196731e-01 4.900712e-01 8.785159e-02
<GCONST> 9.807545e+01
<TRANSP> 5
 0.000000e+00 1.000000e+00 0.000000e+00 0.000000e+00 0.000000e+00
 0.000000e+00 8.243527e-01 1.756473e-01 0.000000e+00 0.000000e+00
 0.000000e+00 0.000000e+00 8.187078e-01 1.812922e-01 0.000000e+00
 0.000000e+00 0.000000e+00 0.000000e+00 7.987083e-01 2.012917e-01
 0.000000e+00 0.000000e+00 0.000000e+00 0.000000e+00 0.000000e+00
<ENDHMM>
~h "d"
<BEGINHMM>
<NUMSTATES> 5
<STATE> 2
<MEAN> 39
 -1.467498e-01 -3.137962e+00 4.456774e+00 -2.624254e+00 -6.658470e-01 -4.555984e+00 1.607725e+00 -3.832281e+00 -5.521916e-01 -6.277864e+00 -2.462950e+00 -5.008332e+00 6.173684e+01 1.023923e+00 -1.521845e+00 8.094614e-01 -1.483819e+00 -1.133503e+00 -2.348075e-01 -1.296315e+00 -9.746758e-02 -1.758727e-01 2.805412e-02 -1.301398e-01 -7.945024e-01 2.305611e+00 3.502954e-01 -1.439406e-01 -3.981725e-02 -4.485558e-01 -3.840201e-01 1.023852e-01 -4.584485e-01 -2.501496e-01 -8.520924e-02 5.943229e-01 4.345318e-01 -1.192046e-01 3.909682e-01
<VARIANCE> 39
 2.365481e+01 7.162721e+01 1.309308e+01 2.940238e+01 1.116893e+01 1.170215e+01 1.229952e+01 1.697041e+01 1.461708e+01 1.341090e+01 1.731500e+01 1.647690e+01 3.008279e+01 2.732387e+00 6.890901e+00 1.249154e+00 3.972264e+00 2.081767e+00 1.519791e+00 2.330439e+00 2.305396e+00 1.648059e+00 2.951059e+00 2.458592e+00 2.458898e+00 3.106698e+00 4.948395e-01 1.200879e+00 2.621861e-01 4.395362e-01 3.391947e-01 3.880174e-01 3.886532e-01 4.739934e-01 3.567172e-01 5.425044e-01 3.898485e-01 4.166584e-01 4.885514e-01
<GCONST> 1.109231e+02
<STATE> 3
<MEAN> 39
 5.767487e+00 -1.111178e+01 6.483463e+00 -1.230121e+01 -8.331487e+00 -5.539411e+00 -8.269387e+00 -6.474570e+00 -5.949735e-01 -3.497133e-01 2.212428e+00 -8.469892e+00 7.340696e+01 2.401358e+00 -4.878642e-01 2.624264e-02 -2.655839e+00 -2.490879e+00 1.628624e+00 -2.649997e+00 -1.704403e+00 -1.397692e+00 2.927199e+00 2.521852e+00 -1.592060e+00 2.137270e+00 -2.260700e-01 9.632125e-01 -3.462701e-01 2.772931e-01 3.848414e-01 8.268599e-01 8.293894e-01 -2.299855e-01 -4.741636e-01 9.129506e-02 1.890578e-01 2.123263e-01 -1.035629e+00
<VARIANCE> 39
 6.826859e+00 7.915633e+00 8.891198e+00 1.278878e+01 8.662032e+00 1.379696e+01 1.355169e+01 1.281563e+01 9.235214e+00 1.221786e+01 1.307712e+01 9.100634e+00 6.381938e+00 1.083210e+00 3.262076e+00 1.157642e+00 1.901051e+00 9.106110e-01 2.380842e+00 1.128220e+00 1.625730e+00 1.526626e+00 1.652202e+00 1.096825e+00 1.392995e+00 1.262613e+00 2.809703e-01 3.147258e-01 1.660658e-01 2.465219e-01 2.111404e-01 3.392667e-01 3.299402e-01 2.672167e-01 2.603594e-01 4.055565e-01 2.709761e-01 3.670457e-01 9.911385e-02
<GCONST> 8.915981e+01
<STATE> 4
<MEAN> 39
 8.047759e+00 -1.174818e+01 5.745442e+00 -1.739866e+01 -1.137853e+01 1.386815e+00 -9.216768e+00 -8.480132e+00 -5.561679e+00 4.603295e+00 7.646352e+00 -1.026030e+01 7.482343e+01 6.921123e-01 7.128136e-01 -8.161749e-01 -2.161949e+00 -6.640924e-01 2.481989e+00 6.200781e-01 -1.354183e+00 -1.660290e+00 1.301670e+00 1.233330e+00 1.398504e-01 6.708036e-02 -4.889980e-01 4.892785e-01 -2.672279e-01 3.209205e-01 6.547670e-01 -1.463040e-01 9.511639e-01 1.985915e-01 2.602951e-01 -9.437357e-01 -7.319344e-01 7.320096e-01 -6.434159e-01
<VARIANCE> 39
 1.452253e+00 4.756665e+00 5.632374e+00 9.835700e+00 6.558844e+00 1.288791e+01 5.025594e+00 8.862061e+00 1.068181e+01 1.119407e+01 8.509919e+00 4.884253e+00 2.625513e+00 4.353667e-01 7.266651e-01 6.427053e-01 5.944134e-01 9.283233e-01 1.236787e+00 1.200726e+00 7.661052e-01 9.031292e-01 1.938319e+00 1.209854e+00 1.140275e+00 4.059017e-01 1.017080e-01 1.924646e-01 1.349886e-01 1.088043e-01 1.136803e-01 2.931832e-01 1.728761e-01 2.258813e-01 2.190809e-01 1.790123e-01 1.446677e-01 1.434913e-01 8.826338e-02
<GCONST> 6.891653e+01
<TRANSP> 5
 0.000000e+00 1.000000e+00 0.000000e+00 0.000000e+00 0.000000e+00
 0.000000e+00 7.998017e-01 2.001983e-01 0.000000e+00 0.000000e+00
 0.000000e+00 0.000000e+00 4.459716e-01 5.540284e-01 0.000000e+00
 0.000000e+00 0.000000e+00 0.000000e+00 5.783891e-01 4.216109e-01
 0.000000e+00 0.000000e+00 0.000000e+00 0.000000e+00 0.000000e+00
<ENDHMM>
~h "h"
<BEGINHMM>
<NUMSTATES> 5
<STATE> 2
<MEAN> 39
 -5.315858e+00 -6.363455e+00 1.733628e-01 -5.508023e+00 -9.145859e-01 -8.927155e+00 5.132514e+00 -1.671556e+00 2.344120e+00 -1.383840e+00 -3.561982e+00 -6.080158e+00 6.515929e+01 4.612102e+00 -5.278255e-01 -6.093670e-01 -1.437836e+00 -1.441840e+00 6.999137e-01 -1.621828e+00 -1.524408e+00 -8.741116e-01 7.181292e-01 -1.673880e+00 -2.715343e+00 1.593640e+00 4.800883e-01 -7.281802e-01 -1.315703e-01 -6.131586e-01 2.156371e-02 5.247421e-01 -4.780734e-01 1.338762e-01 -8.795837e-02 3.284199e-01 8.804267e-02 -4.373698e-01 8.352335e-01
<VARIANCE> 39
 3.725764e+01 1.020615e+01 1.243535e+01 1.127114e+01 1.477474e+01 1.450820e+01 1.616871e+01 1.456573e+01 1.645667e+01 1.498452e+01 1.875498e+01 2.448501e+01 5.978507e+00 1.615626e+00 2.247189e+00 1.227103e+00 1.713839e+00 1.079268e+00 1.621504e+00 1.807605e+00 1.558464e+00 1.374587e+00 1.730769e+00 1.114562e+00 1.520773e+00 1.733029e+00 7.582731e-01 3.141759e-01 2.367242e-01 1.686255e-01 3.019444e-01 2.981915e-01 2.695196e-01 4.032472e-01 2.877613e-01 2.823564e-01 3.804258e-01 4.721867e-01 1.140486e-01
<GCONST> 9.670761e+01
<STATE> 3
<MEAN> 39
 7.836631e+00 -1.611564e+01 -2.257270e+00 -1.399079e+01 -3.737352e+00 -1.734496e+00 -1.090542e+00 -3.040524e+00 7.503735e-01 3.862833e+00 -5.774693e+00 -1.551848e+01 7.525338e+01 1.345148e+00 -1.842056e+00 -5.983686e-01 -1.359020e+00 1.191994e-01 2.071670e+00 -2.999223e-01 7.192032e-01 -3.090271e-01 2.873844e-01 -4.140519e-01 -1.199803e+00 1.301172e+00 -9.034781e-01 5.757574e-01 3.101870e-02 6.121658e-01 3.922275e-01 -1.503274e-01 6.933661e-01 2.906256e-01 4.155306e-02 -4.840585e-01 9.991904e-02 7.454387e-01 -7.075165e-01
<VARIANCE> 39
 1.927539e+00 2.600229e+01 1.365188e+01 1.158307e+01 7.389059e+00 2.143827e+01 1.255396e+01 1.380208e+01 9.573693e+00 1.595052e+01 8.017230e+00 1.069730e+01 6.036032e+00 2.701161e+00 2.831887e+00 1.070016e+00 1.904709e+00 1.123802e+00 1.289891e+00 1.997045e+00 1.012799e+00 1.058797e+00 1.928056e+00 8.474078e-01 2.380785e+00 2.167959e+00 3.622064e-01 5.094323e-01 2.361288e-01 2.001688e-01 1.598081e-01 3.667738e-01 2.072370e-01 3.695978e-01 2.276326e-01 2.146358e-01 1.776861e-01 1.690440e-01 1.129687e-01
<GCONST> 8.931170e+01
<STATE> 4
<MEAN> 39
 7.498813e+00 -1.165168e+01 -3.878776e+00 -9.587649e+00 1.606259e+00 1.849319e+00 5.960749e+00 -8.498544e-01 -1.542664e+00 -9.232570e-01 -7.860312e+00 -1.168324e+01 7.065800e+01 -1.369125e-01 5.982438e-01 -4.564695e-03 7.039494e-01 5.579865e-01 -2.344444e-02 4.880033e-01 -1.294611e-01 -1.930244e-01 -4.830056e-01 6.271638e-04 5.639194e-01 -5.515984e-01 6.909378e-03 -1.215531e-01 -1.476419e-02 -1.205448e-01 -8.392418e-02 -6.056389e-02 -1.976324e-01 -9.265095e-02 -6.622337e-03 4.978040e-02 9.308646e-02 -5.552649e-02 1.019663e-01
<VARIANCE> 39
 3.530459e+00 1.869912e+01 1.175968e+01 2.831162e+01 1.282403e+01 1.648298e+01 1.906771e+01 1.369356e+01 1.127723e+01 1.186190e+01 1.524532e+01 1.188611e+01 1.006230e+01 4.350586e-01 1.827920e+00 1.234703e+00 2.947556e+00 1.128085e+00 1.137878e+00 2.421398e+00 1.235921e+00 1.147751e+00 1.130328e+00 1.333360e+00 1.190593e+00 9.535097e-01 9.386843e-02 3.507833e-01 2.510153e-01 5.736638e-01 2.220740e-01 2.881461e-01 3.448771e-01 2.279365e-01 2.539297e-01 2.160863e-01 2.629757e-01 1.990536e-01 1.675252e-01
<GCONST> 8.979866e+01
<TRANSP> 5
 0.000000e+00 1.000000e+00 0.000000e+00 0.000000e+00 0.000000e+00
 0.000000e+00 6.342922e-01 3.657078e-01 0.000000e+00 0.000000e+00
 0.000000e+00 0.000000e+00 7.580947e-01 2.419053e-01 0.000000e+00
 0.000000e+00 0.000000e+00 0.000000e+00 8.949696e-01 1.050304e-01
 0.000000e+00 0.000000e+00 0.000000e+00 0.000000e+00 0.000000e+00
<ENDHMM>
~h "k"
<BEGINHMM>
<NUMSTATES> 5
<STATE> 2
<MEAN> 39
 5.449364e+00 -6.982684e+00 1.578662e+01 -5.861301e+00 -1.863084e+01 -1.276843e+01 1.821973e-01 -5.300927e+00 -1.016977e+01 2.184345e+00 2.829462e+00 -9.855347e+00 6.971888e+01 -6.128029e-01 1.969572e+00 -3.960083e-01 1.199386e+00 1.123610e+00 2.610309e-01 3.324366e-01 -1.121069e+00 5.896695e-01 -5.381876e-01 1.135326e-02 4.211279e-01 -1.725493e+00 -2.677708e-01 -5.229899e-02 -5.728230e-02 1.195302e-01 9.619357e-02 1.703209e-01 -1.855297e-01 -1.864450e-01 2.816176e-01 -2.056858e-01 2.498697e-01 5.775005e-01 -2.208230e-01
<VARIANCE> 39
 2.178786e+00 1.830451e+01 6.108874e+00 1.117612e+01 1.092873e+01 8.847082e+00 9.211936e+00 1.173512e+01 1.415670e+01 1.067147e+01 1.506681e+01 6.539494e+00 9.690450e+00 3.360413e-01 5.862760e-01 5.341422e-01 1.280565e+00 1.014152e+00 1.015523e+00 1.140305e+00 1.309033e+00 1.460352e+00 1.011069e+00 1.064822e+00 1.592875e+00 4.196686e-01 3.539446e-02 2.536901e-01 1.496024e-01 2.627341e-01 2.228341e-01 2.301379e-01 2.648817e-01 2.226397e-01 2.596511e-01 2.703788e-01 2.246819e-01 1.752459e-01 6.061663e-02
<GCONST> 7.675150e+01
<STATE> 3
<MEAN> 39
 -5.122613e-01 -2.025405e+00 1.084078e+01 -1.927903e+00 -1.309402e+01 -1.139056e+01 -9.351181e-01 -1.068294e+01 -5.065077e+00 6.590129e-01 6.698966e+00 -1.344399e+00 6.087764e+01 -8.666483e-01 -6.250575e-03 -1.259998e+00 -2.457936e-02 7.522383e-01 1.127380e-01 -2.610377e-01 -2.124965e-01 9.695706e-01 1.499500e-01 6.295728e-01 1.421746e+00 -9.516062e-01 1.929406e-01 -4.491868e-01 -1.631610e-01 -1.934096e-01 4.799428e-02 3.890910e-02 7.547996e-02 3.572798e-01 -2.398939e-02 1.274158e-01 -3.005484e-01 -3.273469e-01 4.034665e-01
<VARIANCE> 39
 4.035953e+00 5.506683e+00 2.004284e+01 8.389456e+00 1.525812e+01 1.145449e+01 1.426359e+01 1.365066e+01 1.581201e+01 1.224372e+01 2.489494e+01 1.942709e+01 4.783671e+00 4.386496e-01 5.521446e-01 7.305003e-01 1.220328e+00 1.321676e+00 1.428715e+00 1.388113e+00 1.266137e+00 1.242835e+00 1.167575e+00 2.526592e+00 2.124481e+00 4.076407e-01 5.911844e-02 2.580768e-01 2.269649e-01 3.086361e-01 3.511380e-01 2.921034e-01 2.953431e-01 2.311658e-01 2.745256e-01 2.493807e-01 4.796703e-01 4.306867e-01 6.243470e-02
<GCONST> 8.533772e+01
<STATE> 4
<MEAN> 39
 -1.841301e+00 -1.009170e+01 2.049981e+00 -3.288506e+00 -7.488771e+00 -8.873832e+00 -4.305501e-01 -7.569843e+00 -3.435916e-01 1.987437e+00 3.798544e+00 -9.194571e-01 6.309514e+01 1.151440e-01 -1.394077e+00 -1.273489e+00 1.239991e-01 1.288918e+00 1.702418e-01 2.044523e-01 1.026847e+00 6.154685e-01 -1.349286e-02 -1.052787e+00 -8.063887e-01 7.947338e-01 -8.202639e-02 5.910032e-01 4.686964e-01 1.606944e-01 -9.276944e-02 -5.182412e-02 3.441254e-02 -1.423861e-01 -9.711140e-02 -2.706009e-01 1.012622e-01 5.018584e-02 -2.846124e-01
<VARIANCE> 39
 6.814699e+00 5.372171e+01 4.516904e+01 1.464184e+01 2.644415e+01 2.626729e+01 1.525063e+01 2.158909e+01 2.734001e+01 3.253127e+01 2.706371e+01 2.556055e+01 2.145764e+01 1.079597e+00 9.058912e+00 5.348242e+00 1.522935e+00 2.383560e+00 2.059568e+00 1.589510e+00 1.628971e+00 2.077525e+00 3.448421e+00 2.403198e+00 2.460634e+00 2.984023e+00 2.115549e-01 1.650603e+00 8.878382e-01 2.811168e-01 4.231536e-01 4.346078e-01 3.332067e-01 3.889445e-01 3.656266e-01 6.997320e-01 5.846981e-01 6.206570e-01 7.263078e-01
<GCONST> 1.156969e+02
<TRANSP> 5
 0.000000e+00 1.000000e+00 0.000000e+00 0.000000e+00 0.000000e+00
 0.000000e+00 7.795728e-01 2.204271e-01 0.000000e+00 0.000000e+00
 0.000000e+00 0.000000e+00 8.347487e-01 1.652512e-01 0.000000e+00
 0.000000e+00 0.000000e+00 0.000000e+00 8.085489e-01 1.914511e-01
 0.000000e+00 0.000000e+00 0.000000e+00 0.000000e+00 0.000000e+00
<ENDHMM>
~h "n"
<BEGINHMM>
<NUMSTATES> 5
<STATE> 2
<MEAN> 39
 7.892415e+00 1.539881e+00 3.704939e+00 -3.719360e+00 -6.550818e+00 -6.554550e+00 1.713354e+00 -3.026794e+00 2.567980e+00 -4.725601e+00 -2.960133e+00 -4.457697e+00 6.475637e+01 -5.226542e-02 4.871368e-01 -8.061004e-02 1.381962e-01 8.637490e-02 -1.157372e-01 3.494520e-01 -6.026016e-02 -3.132330e-02 2.526996e-02 -8.860100e-02 1.845262e-01 -3.353220e-01 -9.329672e-02 -1.782151e-01 1.357817e-01 -3.431938e-02 5.221680e-03 5.636764e-02 -1.661624e-01 -2.558010e-02 -5.692932e-02 4.148716e-02 1.164953e-01 -3.714370e-02 6.432462e-02
<VARIANCE> 39
 3.430857e+00 1.191774e+01 1.058777e+01 6.812613e+00 1.973411e+01 9.547657e+00 1.623207e+01 9.692147e+00 1.145687e+01 1.323564e+01 9.395602e+00 9.172998e+00 4.152083e+00 1.845318e-01 3.013710e-01 5.114274e-01 4.432356e-01 6.240984e-01 6.134563e-01 8.888059e-01 7.095901e-01 7.433894e-01 6.334440e-01 6.892666e-01 6.607980e-01 1.140420e-01 2.684356e-02 7.067785e-02 6.549197e-02 1.066737e-01 1.128652e-01 1.156536e-01 1.783187e-01 1.401812e-01 1.239195e-01 1.332302e-01 1.296180e-01 1.223644e-01 2.328578e-02
<GCONST> 6.009325e+01
<STATE> 3
<MEAN> 39
 6.151155e+00 2.934361e+00 4.704450e+00 -2.407246e+00 -4.775549e+00 -5.928188e+00 1.880323e+00 -4.546820e+00 2.392705e+00 -3.865387e+00 -3.278557e+00 -4.406340e+00 6.293964e+01 -6.199698e-01 2.792586e-02 3.815243e-01 8.376884e-01 7.826838e-01 2.194190e-01 -5.961411e-02 -2.539519e-01 -1.362589e-01 4.624723e-02 1.794987e-01 1.349825e-01 -4.758340e-01 -2.428283e-01 -3.506273e-01 7.031700e-02 2.163555e-02 1.136333e-01 2.164996e-01 -3.922066e-02 6.179689e-02 -5.154901e-02 -2.699560e-02 1.855638e-01 2.666594e-02 6.617323e-03
<VARIANCE> 39
 9.565186e+00 1.138937e+01 1.704455e+01 1.458955e+01 1.840974e+01 1.050181e+01 1.425636e+01 1.284506e+01 1.338347e+01 1.130130e+01 1.402363e+01 1.087367e+01 6.195398e+00 5.229126e-01 6.536798e-01 6.420000e-01 9.823104e-01 1.338809e+00 8.270773e-01 9.298645e-01 7.978401e-01 1.107039e+00 1.113155e+00 1.133203e+00 9.827283e-01 3.048140e-01 5.819027e-02 7.980710e-02 1.769049e-01 1.870191e-01 1.892904e-01 1.367304e-01 2.014154e-01 1.848582e-01 2.142806e-01 1.423369e-01 1.954684e-01 2.047483e-01 3.454950e-02
<GCONST> 7.582655e+01
<STATE> 4
<MEAN> 39
 3.028905e+00 2.059093e+00 4.968035e+00 -6.577073e-01 -1.669376e+00 -3.783765e+00 2.571609e+00 -4.672699e+00 9.476810e-01 -4.440731e+00 -1.657441e+00 -3.732715e+00 6.078210e+01 -8.289391e-01 -6.535911e-01 -9.145813e-02 2.131114e-01 2.908616e-01 1.457008e-01 3.685605e-02 1.956662e-01 -1.817990e-02 -8.400954e-02 3.962878e-01 3.445535e-01 -3.536834e-01 -8.650438e-02 -3.550185e-01 3.167442e-02 -2.476271e-01 -2.668490e-01 -9.171162e-02 -1.484898e-01 1.004300e-01 6.146538e-02 1.440753e-02 9.858003e-02 5.634443e-02 1.593273e-01
<VARIANCE> 39
 1.883202e+01 1.038473e+01 1.918816e+01 1.568265e+01 2.454980e+01 1.752121e+01 1.643132e+01 1.220819e+01 1.289849e+01 1.347313e+01 1.459492e+01 1.206765e+01 9.913398e+00 5.460314e-01 9.800377e-01 1.037599e+00 1.053554e+00 1.436389e+00 1.207353e+00 1.042388e+00 1.388160e+00 1.047871e+00 1.307793e+00 1.143938e+00 1.243354e+00 3.061616e-01 9.347408e-02 2.066896e-01 3.395679e-01 2.133320e-01 3.290175e-01 2.599169e-01 2.528488e-01 2.773016e-01 2.184849e-01 2.246656e-01 1.990016e-01 2.276863e-01 4.478510e-02
<GCONST> 8.561337e+01
<TRANSP> 5
 0.000000e+00 1.000000e+00 0.000000e+00 0.000000e+00 0.000000e+00
 0.000000e+00 7.771739e-01 2.228260e-01 0.000000e+00 0.000000e+00
 0.000000e+00 0.000000e+00 3.423294e-01 6.576707e-01 0.000000e+00
 0.000000e+00 0.000000e+00 0.000000e+00 4.674777e-01 5.325223e-01
 0.000000e+00 0.000000e+00 0.000000e+00 0.000000e+00 0.000000e+00
<ENDHMM>
~h "o"
<BEGINHMM>
<NUMSTATES> 5
<STATE> 2
<MEAN> 39
 9.403831e+00 -7.103678e+00 2.584571e+00 -2.261748e+01 -1.119792e+01 6.461792e+00 -4.457598e+00 -1.208582e+01 -8.224305e+00 3.362187e+00 7.441814e+00 -6.571160e+00 7.311526e+01 3.611436e-01 1.172838e+00 -7.809950e-01 -8.404726e-01 1.367831e-01 8.145947e-01 1.111404e+00 -2.165355e-01 -7.969366e-02 -8.540406e-01 -4.989836e-01 1.223914e+00 -5.752674e-01 -6.409836e-02 -5.785581e-02 4.693480e-02 4.226448e-01 1.356218e-01 -3.889676e-01 -9.603231e-02 3.555876e-01 3.774666e-01 -2.595828e-01 -2.514204e-01 4.070891e-02 -5.343359e-02
<VARIANCE> 39
 1.440841e+00 5.215664e+00 8.420369e+00 1.192044e+01 7.154105e+00 1.240051e+01 8.194340e+00 6.258155e+00 1.079407e+01 1.700838e+01 6.324663e+00 8.213308e+00 3.375258e+00 9.706764e-02 2.183459e-01 3.801062e-01 7.097332e-01 3.851478e-01 8.652570e-01 5.305800e-01 9.889932e-01 9.120479e-01 9.310749e-01 5.657132e-01 5.431547e-01 5.851400e-02 1.776497e-02 3.722282e-02 5.160832e-02 8.102378e-02 9.071696e-02 1.305429e-01 8.901273e-02 1.217045e-01 1.287435e-01 2.451463e-01 1.082733e-01 1.383086e-01 1.332206e-02
<GCONST> 5.228009e+01
<STATE> 3
<MEAN> 39
 1.008824e+01 -2.946751e+00 -1.222535e+00 -2.068755e+01 -7.437977e+00 5.945920e+00 -2.109274e+00 -1.019499e+01 -4.802490e+00 -8.976911e-01 3.616879e+00 -2.140913e+00 7.012816e+01 -1.423742e-01 1.382453e-01 -3.547974e-01 9.640557e-01 1.233056e+00 -5.185266e-01 -6.907865e-01 1.266754e-01 9.790821e-01 1.290067e-01 -4.191755e-01 -9.144792e-03 -3.094025e-01 -6.577663e-02 -1.600342e-01 1.583729e-01 2.249462e-01 1.115595e-01 -2.241678e-01 -3.658480e-01 2.532335e-03 1.245677e-01 2.160976e-01 4.298900e-02 -2.913899e-01 4.266306e-02
<VARIANCE> 39
 2.019747e+00 5.189812e+00 1.205937e+01 1.660882e+01 2.550912e+01 2.072699e+01 1.870098e+01 1.474347e+01 1.515159e+01 1.766225e+01 1.195722e+01 1.049238e+01 3.009313e+00 7.576211e-02 4.045824e-01 3.487467e-01 6.817107e-01 8.533712e-01 1.035040e+00 1.776577e+00 9.863981e-01 1.041898e+00 1.590659e+00 9.481275e-01 1.050480e+00 6.805693e-02 1.421764e-02 3.846353e-02 5.543065e-02 8.407599e-02 1.775015e-01 2.076736e-01 1.497419e-01 2.220840e-01 1.470981e-01 2.288488e-01 2.034354e-01 1.475440e-01 8.161469e-03
<GCONST> 6.477898e+01
<STATE> 4
<MEAN> 39
 8.526812e+00 -2.355206e+00 -2.777214e-02 -1.037231e+01 4.207851e-02 -8.312707e-01 -8.400078e+00 -7.747211e+00 2.558199e+00 1.750804e-01 6.905627e-01 -6.142119e+00 6.753675e+01 -1.454645e-01 7.048094e-01 3.455813e-01 1.855610e+00 2.887295e-01 -1.270235e+00 5.539281e-01 7.881319e-01 5.849833e-01 -6.277604e-01 -6.053040e-01 -3.315672e-01 -7.018033e-01 1.699462e-02 1.719654e-01 9.743005e-03 -9.162919e-02 -2.570081e-01 1.353731e-01 5.322520e-01 -3.931347e-02 -2.446441e-01 -1.486157e-01 -4.773191e-02 2.009069e-01 -6.057170e-02
<VARIANCE> 39
 1.822851e+00 1.233700e+01 1.149610e+01 2.644231e+01 1.165106e+01 1.896330e+01 2.934797e+01 1.752539e+01 1.576098e+01 1.686404e+01 1.131486e+01 1.179579e+01 5.468918e+00 1.017414e-01 5.570489e-01 6.072336e-01 1.291487e+00 1.180460e+00 1.139305e+00 4.278121e+00 1.365278e+00 1.639681e+00 1.256711e+00 9.386770e-01 1.274733e+00 1.400141e-01 1.774448e-02 9.327439e-02 8.752897e-02 2.445854e-01 1.531157e-01 2.096955e-01 6.199440e-01 2.902293e-01 2.372925e-01 2.751459e-01 1.969739e-01 1.968299e-01 3.283364e-02
<GCONST> 7.741074e+01
<TRANSP> 5
 0.000000e+00 1.000000e+00 0.000000e+00 0.000000e+00 0.000000e+00
 0.000000e+00 7.753083e-01 2.246918e-01 0.000000e+00 0.000000e+00
 0.000000e+00 0.000000e+00 8.521771e-01 1.478228e-01 0.000000e+00
 0.000000e+00 0.000000e+00 0.000000e+00 8.448030e-01 1.551971e-01
 0.000000e+00 0.000000e+00 0.000000e+00 0.000000e+00 0.000000e+00
<ENDHMM>
~h "p"
<BEGINHMM>
<NUMSTATES> 5
<STATE> 2
<MEAN> 39
 -4.849011e+00 -4.145849e+00 4.855432e-01 -1.335464e+00 -4.235896e-01 -3.467502e+00 3.842520e+00 -3.309257e+00 2.945580e+00 -2.075755e+00 2.020945e+00 5.637681e-01 5.658221e+01 6.349729e-01 -1.080658e+00 -2.084621e-01 -2.057808e-01 -8.977311e-01 5.547120e-02 5.142809e-01 -1.836126e-01 -1.630857e-01 2.318473e-01 -3.500808e-01 -3.059587e-01 1.153826e+00 9.104496e-01 -3.839631e-01 -4.805586e-01 -9.072838e-01 -3.862033e-01 2.732709e-01 8.158601e-02 7.202536e-02 -5.256563e-01 -1.790885e-01 -1.307964e-01 -6.743693e-01 9.185922e-01
<VARIANCE> 39
 4.008562e+00 9.392738e+00 1.188458e+01 7.662742e+00 1.480343e+01 1.572545e+01 1.649110e+01 1.241759e+01 1.306646e+01 1.133806e+01 1.406981e+01 1.688508e+01 4.467341e+00 1.314706e+00 1.249994e+00 1.205564e+00 1.656344e+00 1.966959e+00 1.301529e+00 1.624644e+00 1.566210e+00 1.412148e+00 1.574312e+00 1.850684e+00 1.614333e+00 1.284859e+00 1.705031e-01 2.016805e-01 2.694440e-01 4.471309e-01 2.749643e-01 3.135751e-01 3.662709e-01 2.742239e-01 4.310590e-01 3.656326e-01 3.549261e-01 4.511019e-01 1.615660e-01
<GCONST> 9.202333e+01
<STATE> 3
<MEAN> 39
 2.846666e+00 -8.653946e+00 -3.898772e+00 -7.280514e+00 -5.577317e+00 -1.594687e+00 5.653520e+00 -4.205554e+00 -4.210201e-01 -2.544166e+00 2.120318e-01 -4.435856e+00 6.514385e+01 3.918230e+00 -2.160763e+00 -2.244612e+00 -4.444615e+00 -9.482829e-01 1.900429e+00 3.579063e-01 8.455150e-01 -3.063209e+00 -2.670208e-01 5.863500e-01 -2.903103e+00 4.164597e+00 -5.172322e-02 -3.532009e-01 1.975884e-02 -4.784061e-01 5.201895e-01 3.489269e-01 -2.115196e-01 4.739481e-01 -3.501575e-01 8.111471e-02 2.589655e-01 -2.085804e-01 1.918691e-01
<VARIANCE> 39
 3.178759e+01 2.020012e+01 2.741103e+01 4.514288e+01 1.428677e+01 2.039425e+01 1.231726e+01 1.652689e+01 2.776198e+01 1.273900e+01 1.364132e+01 1.965137e+01 2.184002e+01 4.838942e-01 1.657292e+00 1.688253e+00 1.850819e+00 2.444009e+00 1.987834e+00 2.205168e+00 1.778402e+00 1.566893e+00 1.494827e+00 1.653046e+00 1.649716e+00 8.433389e-01 7.081403e-01 3.259327e-01 4.198447e-01 9.904575e-01 3.037946e-01 4.115277e-01 3.400662e-01 3.128684e-01 5.665656e-01 2.813058e-01 2.777349e-01 4.020028e-01 4.423281e-01
<GCONST> 1.048383e+02
<STATE> 4
<MEAN> 39
 9.689734e+00 -1.850597e+01 -8.597548e+00 -1.770050e+01 -3.630428e+00 3.804446e+00 6.240296e+00 3.004179e-01 -9.185621e+00 -1.136596e+00 1.467381e+00 -1.229084e+01 7.610097e+01 1.393463e-01 -1.394040e+00 -3.307297e-01 -4.453813e-01 6.503708e-01 3.675013e-01 -1.890725e-01 4.605779e-01 -3.199327e-01 3.107352e-01 -4.671100e-01 -8.381422e-01 1.024745e+00 -4.802652e-01 3.719975e-01 2.198243e-01 7.617337e-01 1.078337e-01 -3.680772e-01 -7.285478e-02 -1.819212e-01 5.750585e-01 -2.112730e-02 -2.458389e-01 3.270250e-01 -5.609235e-01
<VARIANCE> 39
 2.519400e+00 1.090565e+01 1.515339e+01 1.821557e+01 1.348988e+01 1.091775e+01 1.671856e+01 1.255067e+01 1.430616e+01 7.044838e+00 9.248740e+00 6.370231e+00 2.862666e+00 9.029797e-01 1.968645e+00 6.416030e-01 3.630043e+00 6.949024e-01 1.438464e+00 8.242244e-01 1.088562e+00 1.907121e+00 6.534207e-01 7.945547e-01 8.395280e-01 1.900668e+00 3.159292e-01 1.525836e-01 1.617263e-01 5.186579e-01 1.710297e-01 1.732154e-01 1.553159e-01 2.024712e-01 2.606660e-01 1.475329e-01 1.392963e-01 1.980042e-01 2.427930e-01
<GCONST> 8.170613e+01
<TRANSP> 5
 0.000000e+00 1.000000e+00 0.000000e+00 0.000000e+00 0.000000e+00
 0.000000e+00 6.567070e-01 3.432930e-01 0.000000e+00 0.000000e+00
 0.000000e+00 0.000000e+00 6.177217e-01 3.822783e-01 0.000000e+00
 0.000000e+00 0.000000e+00 0.000000e+00 8.238529e-01 1.761471e-01
 0.000000e+00 0.000000e+00 0.000000e+00 0.000000e+00 0.000000e+00
<ENDHMM>
~h "r"
<BEGINHMM>
<NUMSTATES> 5
<STATE> 2
<MEAN> 39
 -9.540310e+00 -9.400133e+00 7.825544e+00 -7.844041e+00 -5.355792e+00 -2.300622e+00 -9.660520e-01 -1.564893e+00 5.487206e+00 -4.604444e+00 1.518343e+00 -3.534299e+00 6.699837e+01 2.492582e+00 -1.180112e+00 -8.390635e-02 2.553742e-01 -1.737235e+00 -1.448055e+00 -5.578653e-01 2.785047e-01 1.165960e-02 -2.188078e-01 -4.942527e-01 -9.500589e-01 1.560219e+00 1.067847e+00 -4.842357e-01 -3.521650e-01 -5.223882e-02 -1.679078e-01 -1.956602e-01 -1.287416e-01 1.857428e-01 -1.864201e-01 1.831722e-01 -1.799983e-01 -3.785024e-01 2.434435e-01
<VARIANCE> 39
 4.850929e+01 8.918601e+00 1.440928e+01 1.144696e+01 3.235950e+01 3.537514e+01 1.491393e+01 1.916221e+01 1.444010e+01 1.698056e+01 2.284884e+01 2.146556e+01 9.747776e+00 1.099208e+01 1.678594e+00 2.341720e+00 1.643048e+00 2.529149e+00 3.946935e+00 2.251311e+00 2.280621e+00 1.460633e+00 1.665288e+00 2.146224e+00 1.901070e+00 1.228632e+00 1.392185e+00 2.740622e-01 2.324410e-01 4.333209e-01 6.416560e-01 8.607263e-01 4.178572e-01 4.125420e-01 2.302259e-01 3.384907e-01 3.891197e-01 2.511825e-01 2.137704e-01
<GCONST> 1.081947e+02
<STATE> 3
<MEAN> 39
 6.849597e+00 -2.095344e+01 4.450412e+00 -9.783085e+00 -1.115486e+01 -7.054103e+00 -4.821501e+00 3.266363e+00 4.265160e+00 -2.294258e+00 -1.759938e+00 -1.177393e+01 7.720971e+01 1.342203e+00 -2.400909e+00 -1.325720e+00 -1.203112e+00 7.507244e-01 1.174481e+00 6.679241e-02 1.198123e+00 -1.801680e-01 1.010337e+00 -8.989025e-01 -2.036171e+00 1.343652e+00 -9.876379e-01 4.646574e-01 -1.915687e-01 -4.257009e-02 6.343699e-01 6.901397e-01 4.565704e-01 -2.440891e-01 -1.942074e-03 -5.308184e-02 -3.728979e-02 2.155488e-01 -5.773522e-01
<VARIANCE> 39
 2.980703e+00 1.264352e+01 1.791202e+01 1.053619e+01 1.481814e+01 1.386820e+01 1.062462e+01 1.036577e+01 9.201363e+00 9.084890e+00 8.477899e+00 1.586897e+01 2.642570e+00 2.533459e+00 1.443628e+00 5.883457e-01 7.027820e-01 1.630041e+00 2.082512e+00 1.190516e+00 1.013083e+00 5.645491e-01 1.130001e+00 8.723284e-01 7.509011e-01 1.508038e+00 3.323682e-01 1.991629e-01 1.370020e-01 2.616091e-01 3.121733e-01 4.371052e-01 1.869109e-01 2.794968e-01 1.027794e-01 3.139766e-01 1.327195e-01 2.034634e-01 8.077227e-02
<GCONST> 8.168586e+01
<STATE> 4
<MEAN> 39
 8.238047e+00 -2.312946e+01 -4.528409e+00 -1.078825e+01 -3.655351e+00 5.006130e-02 1.832547e-02 3.916399e+00 1.405986e+00 -1.118256e+00 -7.002090e+00 -1.559280e+01 7.633217e+01 9.838315e-02 3.280692e-01 -3.135870e-01 3.296291e-01 1.217204e-01 -2.343369e-01 5.183604e-02 -4.574564e-02 1.280047e-01 2.990117e-03 -7.038830e-02 2.023900e-01 -2.967440e-01 -8.378432e-03 1.828437e-01 1.256559e-01 1.225349e-01 -1.018069e-01 -2.138131e-01 -1.316639e-01 -9.014775e-02 1.206179e-01 -5.536696e-02 1.184397e-01 1.906920e-01 -8.409099e-02
<VARIANCE> 39
 2.988372e+00 1.057611e+01 1.440829e+01 1.033764e+01 1.745809e+01 1.967331e+01 9.340090e+00 1.044162e+01 1.355725e+01 8.939480e+00 1.045545e+01 8.119924e+00 4.445623e+00 8.743503e-02 4.686303e-01 7.273190e-01 4.978046e-01 1.039665e+00 1.741892e+00 1.193953e+00 7.391855e-01 1.285129e+00 6.238301e-01 8.665240e-01 7.259231e-01 1.062266e-01 1.770447e-02 7.096962e-02 5.418692e-02 6.882381e-02 1.193090e-01 1.110880e-01 1.222670e-01 1.695304e-01 1.364415e-01 1.417255e-01 1.343193e-01 1.252360e-01 2.047568e-02
<GCONST> 6.222544e+01
<TRANSP> 5
 0.000000e+00 1.000000e+00 0.000000e+00 0.000000e+00 0.000000e+00
 0.000000e+00 7.934083e-01 2.065917e-01 0.000000e+00 0.000000e+00
 0.000000e+00 0.000000e+00 7.446707e-01 2.553293e-01 0.000000e+00
 0.000000e+00 0.000000e+00 0.000000e+00 9.352404e-01 6.475953e-02
 0.000000e+00 0.000000e+00 0.000000e+00 0.000000e+00 0.000000e+00
<ENDHMM>
~h "s"
<BEGINHMM>
<NUMSTATES> 5
<STATE> 2
<MEAN> 39
 -9.647604e+00 -5.543892e+00 2.259348e+00 -5.197632e+00 2.375143e+00 -7.111348e+00 2.314682e+00 1.235110e+00 2.692086e+00 -3.070962e+00 1.247776e+00 -2.086499e+00 6.416351e+01 -1.154101e+00 -3.520965e-01 -1.524958e-01 -2.079261e-01 2.946632e-01 -4.505736e-01 2.148732e-01 4.755237e-01 1.471717e-02 1.597147e-01 2.283366e-01 1.077667e-01 3.501578e-01 2.366320e-01 4.908576e-03 -5.017240e-02 7.754788e-03 -9.241273e-02 1.023638e-01 6.061928e-02 -4.804561e-02 6.813192e-02 7.733319e-02 -7.078572e-02 -3.535185e-02 -1.481945e-02
<VARIANCE> 39
 1.873915e+01 1.122362e+01 1.917976e+01 1.687603e+01 1.700357e+01 2.867581e+01 3.124825e+01 2.184995e+01 2.188206e+01 1.945119e+01 2.080373e+01 2.159852e+01 1.553993e+01 1.291488e+00 9.023670e-01 1.176350e+00 1.332972e+00 1.495522e+00 1.807580e+00 2.014254e+00 1.632535e+00 2.084005e+00 1.500724e+00 1.800195e+00 1.682622e+00 4.142572e-01 1.961106e-01 1.881881e-01 1.963753e-01 2.636298e-01 3.535429e-01 3.591760e-01 3.761272e-01 3.372146e-01 4.276977e-01 2.899890e-01 3.615847e-01 3.779810e-01 6.713408e-02
<GCONST> 9.741359e+01
<STATE> 3
<MEAN> 39
 -1.167376e+01 -7.702808e+00 -4.748166e-01 -5.488962e+00 1.872764e+00 -8.267390e+00 6.756977e+00 1.889289e+00 4.181695e+00 -9.537119e-01 1.273817e-01 -1.539547e+00 6.543862e+01 1.521478e+00 -2.869069e-01 -4.972564e-01 -3.292475e-01 -5.896517e-01 2.975867e-01 7.093626e-02 -6.636717e-01 -3.914343e-02 4.514108e-01 -8.919861e-01 -9.732525e-01 1.697177e-01 8.215983e-01 -1.426549e-01 -5.250824e-02 -2.492944e-01 -1.546179e-01 2.390810e-01 -3.912754e-01 -3.511396e-01 -2.526446e-01 4.365174e-02 -2.776242e-01 -5.053586e-01 3.131409e-01
<VARIANCE> 39
 9.805030e+00 7.884269e+00 1.245683e+01 1.407990e+01 1.366798e+01 1.789828e+01 2.234003e+01 1.681012e+01 1.534847e+01 1.427868e+01 1.542288e+01 1.707764e+01 3.540102e+00 4.546432e+00 9.174982e-01 1.034785e+00 1.388790e+00 1.374580e+00 1.405051e+00 1.953892e+00 1.967287e+00 1.606750e+00 1.450160e+00 1.775438e+00 2.930283e+00 6.944500e-01 2.118762e-01 2.230080e-01 1.792190e-01 3.435666e-01 2.165845e-01 3.113426e-01 3.332323e-01 2.727543e-01 3.555579e-01 2.856817e-01 2.906512e-01 4.639362e-01 2.590577e-01
<GCONST> 9.419778e+01
<STATE> 4
<MEAN> 39
 1.568593e+00 -1.031519e+01 -2.404233e+00 -9.859495e+00 -1.761949e+00 -5.223623e+00 1.905515e+00 -3.543350e+00 9.953809e-01 1.257720e+00 -5.467976e+00 -1.124265e+01 7.054832e+01 2.577155e+00 -2.268331e+00 -6.594926e-01 -1.836621e+00 -6.825727e-01 2.008753e+00 -1.125371e+00 -4.175079e-01 -5.036324e-01 7.818190e-01 -8.206834e-01 -2.250386e+00 2.253372e+00 -7.426754e-01 -3.636494e-01 1.155470e-01 1.110665e-01 2.105161e-01 3.122920e-01 2.831516e-01 4.792967e-01 2.104273e-01 -2.170684e-01 3.634526e-01 4.960141e-01 -9.229305e-02
<VARIANCE> 39
 7.004149e+01 3.746148e+01 1.753600e+01 2.550008e+01 1.524763e+01 2.940868e+01 1.822623e+01 1.713982e+01 1.132107e+01 1.682061e+01 1.808928e+01 2.953384e+01 2.783619e+01 5.026233e+00 3.108632e+00 1.221591e+00 2.506531e+00 1.237788e+00 2.156991e+00 2.605638e+00 2.372665e+00 2.244720e+00 1.540347e+00 1.629449e+00 3.730575e+00 2.247807e+00 6.632338e-01 5.389389e-01 2.029865e-01 4.651216e-01 2.331729e-01 3.620113e-01 3.427567e-01 3.329522e-01 2.401948e-01 3.060141e-01 2.007054e-01 4.344764e-01 4.634147e-01
<GCONST> 1.090355e+02
<TRANSP> 5
 0.000000e+00 1.000000e+00 0.000000e+00 0.000000e+00 0.000000e+00
 0.000000e+00 8.118643e-01 1.881357e-01 0.000000e+00 0.000000e+00
 0.000000e+00 0.000000e+00 6.767308e-01 3.232692e-01 0.000000e+00
 0.000000e+00 0.000000e+00 0.000000e+00 5.413429e-01 4.586572e-01
 0.000000e+00 0.000000e+00 0.000000e+00 0.000000e+00 0.000000e+00
<ENDHMM>
~h "t"
<BEGINHMM>
<NUMSTATES> 5
<STATE> 2
<MEAN> 39
 8.349191e-01 -7.061160e+00 -5.608825e+00 -6.568824e+00 -1.128375e+00 -2.178985e+00 2.313236e+00 -2.419453e+00 7.058773e+00 -3.021504e-01 -2.184337e+00 -6.235990e+00 6.132935e+01 -7.869393e-01 1.034528e-01 -1.184513e-01 -4.345483e-02 -1.117563e-01 -2.867965e-03 5.136514e-01 2.215931e-01 -1.921475e-02 -1.943706e-01 3.585640e-01 5.337849e-01 -6.802970e-01 5.900779e-02 -2.623119e-01 2.011382e-01 -3.055416e-02 -1.571445e-01 -1.788441e-01 -3.957216e-02 2.209268e-02 -2.312253e-01 -8.983436e-02 -5.023125e-02 1.493795e-04 3.273719e-01
<VARIANCE> 39
 1.231131e+01 1.126100e+01 2.272682e+01 1.518202e+01 1.689314e+01 1.566109e+01 2.141129e+01 1.489785e+01 2.089955e+01 2.026549e+01 1.461331e+01 1.715104e+01 1.101686e+01 2.546478e-01 3.764389e-01 7.523977e-01 7.569750e-01 1.022607e+00 1.125775e+00 1.311768e+00 1.086548e+00 1.813278e+00 1.806252e+00 1.539021e+00 1.237594e+00 2.344417e-01 4.020206e-02 1.565844e-01 1.402490e-01 1.717682e-01 2.416632e-01 2.890106e-01 2.467392e-01 2.976719e-01 3.877263e-01 4.071332e-01 3.432662e-01 2.513674e-01 8.467794e-02
<GCONST> 8.490391e+01
<STATE> 3
<MEAN> 39
 -3.738134e+00 -5.242329e+00 -1.673677e+00 -3.093168e+00 -2.634938e-01 -2.492526e+00 4.471844e+00 -2.604162e+00 3.357533e+00 -2.590684e+00 8.120941e-01 -1.217197e+00 5.759130e+01 -2.681164e-01 -2.012945e+00 8.323398e-01 -6.686931e-01 -1.549494e+00 -1.286839e+00 5.277448e-02 -3.205744e-01 -1.259431e+00 -6.352683e-01 5.527623e-01 1.033618e-01 1.965672e+00 3.303178e-01 -3.157259e-01 6.172662e-01 -2.255490e-01 -8.230897e-01 -4.188388e-01 -1.479829e-01 -1.873455e-01 -4.227685e-01 -2.828834e-02 -2.301729e-02 -5.043985e-01 8.862210e-01
<VARIANCE> 39
 9.269416e+00 8.637963e+00 2.756528e+01 1.855689e+01 1.097414e+01 1.555757e+01 1.662424e+01 1.276683e+01 2.105579e+01 1.213337e+01 2.394954e+01 1.530676e+01 7.710103e+00 5.982149e-01 1.591351e+00 1.322746e+00 1.421741e+00 2.430413e+00 2.962782e+00 1.353576e+00 2.577479e+00 2.955110e+00 2.294753e+00 1.824994e+00 2.019012e+00 2.298522e+00 1.735868e-01 2.157076e-01 3.597259e-01 1.597251e-01 4.061307e-01 3.434126e-01 2.953921e-01 3.653289e-01 4.084058e-01 2.920338e-01 3.122300e-01 3.377090e-01 2.418752e-01
<GCONST> 9.800871e+01
<STATE> 4
<MEAN> 39
 -3.081695e+00 -1.323782e+01 1.235317e+00 -6.655406e+00 -8.031362e+00 -8.577599e+00 4.746978e+00 -4.689744e+00 -1.200983e+00 -4.662577e+00 2.308318e+00 -2.951772e+00 6.765047e+01 1.031107e+00 -4.343240e-01 2.767921e+00 -6.028881e-01 -2.698966e+00 -9.159520e-01 -4.751516e-01 -6.237807e-01 -1.791544e+00 1.542547e-01 -3.199535e-01 -1.744727e+00 2.461950e+00 3.442149e-01 8.447313e-01 4.743890e-01 5.038714e-02 1.975572e-01 7.748551e-01 -4.336734e-01 1.566789e-01 7.490664e-02 5.608051e-01 -4.811848e-01 -5.782193e-01 -5.468806e-01
<VARIANCE> 39
 5.157822e+00 1.471326e+01 3.237447e+01 1.633260e+01 2.087184e+01 2.781645e+01 1.407427e+01 2.074751e+01 2.988497e+01 1.776363e+01 1.764127e+01 1.459434e+01 1.424339e+01 3.353706e+00 1.958396e+00 4.891225e+00 1.689264e+00 5.157435e+00 2.665395e+00 2.876290e+00 2.039117e+00 3.137575e+00 1.928774e+00 2.002202e+00 4.759902e+00 4.174655e+00 1.980545e-01 2.186056e-01 8.158995e-01 2.707151e-01 7.735371e-01 6.318281e-01 4.295257e-01 6.180560e-01 5.500075e-01 4.687088e-01 3.468422e-01 3.602033e-01 3.106994e-01
<GCONST> 1.113705e+02
<TRANSP> 5
 0.000000e+00 1.000000e+00 0.000000e+00 0.000000e+00 0.000000e+00
 0.000000e+00 7.739056e-01 2.260945e-01 0.000000e+00 0.000000e+00
 0.000000e+00 0.000000e+00 5.091862e-01 4.908138e-01 0.000000e+00
 0.000000e+00 0.000000e+00 0.000000e+00 5.352901e-01 4.647099e-01
 0.000000e+00 0.000000e+00 0.000000e+00 0.000000e+00 0.000000e+00
<ENDHMM>
~h "y"
<BEGINHMM>
<NUMSTATES> 5
<STATE> 2
<MEAN> 39
 8.148105e+00 1.383586e+00 3.945203e+00 -3.639225e+00 -8.610200e+00 -8.216152e+00 4.527568e+00 -8.689283e-01 7.010856e-01 -6.748779e+00 -9.717296e-01 -3.091187e+00 6.482578e+01 -8.331338e-01 -2.506521e+00 3.018406e+00 -2.261054e-01 -2.067233e+00 5.303560e-01 -6.027194e-01 7.714373e-01 -6.723485e-01 -4.877150e-01 1.039486e+00 -4.636909e-02 1.142642e+00 -2.446722e-01 -1.052173e+00 9.385071e-01 -1.480777e-01 -7.706949e-01 1.549894e-01 -2.915997e-01 5.661608e-03 -3.631614e-01 2.555088e-01 2.630288e-01 -1.154034e-01 5.232639e-01
<VARIANCE> 39
 2.732783e+00 7.579139e+00 8.650355e+00 4.356485e+00 7.386162e+00 1.259182e+01 6.598864e+00 9.515230e+00 1.146246e+01 1.017543e+01 1.087408e+01 8.698553e+00 2.373407e+00 1.147668e-01 1.084966e+00 1.200354e+00 7.000322e-01 9.684632e-01 1.020995e+00 7.619597e-01 1.396899e+00 1.172301e+00 9.951928e-01 1.304378e+00 5.742148e-01 2.542867e-01 3.491566e-02 7.180965e-02 1.952086e-01 1.083094e-01 1.134490e-01 1.797048e-01 1.807764e-01 1.522972e-01 1.394788e-01 1.361843e-01 1.744235e-01 1.266087e-01 1.829186e-02
<GCONST> 6.436413e+01
<STATE> 3
<MEAN> 39
 5.097466e+00 -8.890750e+00 1.563890e+01 -4.983371e+00 -1.724467e+01 -5.751219e+00 1.950101e+00 1.067252e+00 -2.944299e+00 -6.817442e+00 2.828719e+00 -4.122850e+00 6.988601e+01 -8.361866e-01 -3.560811e+00 2.965826e+00 -4.180441e-01 -2.443108e+00 2.258385e-01 -8.962805e-01 4.556090e-01 -1.423973e+00 7.994679e-01 8.385321e-01 -5.623366e-01 1.797739e+00 2.379287e-01 2.758610e-01 -8.996167e-01 1.030528e-01 5.683445e-01 -2.721094e-01 8.465564e-02 -9.600941e-02 7.668968e-02 3.194569e-01 -3.539265e-01 -7.090344e-02 -1.039655e-01
<VARIANCE> 39
 3.099433e+00 1.988111e+01 2.048235e+01 7.829756e+00 1.513069e+01 1.153435e+01 7.942654e+00 1.349853e+01 1.395639e+01 6.625669e+00 9.703437e+00 9.691873e+00 7.956451e+00 2.743601e-01 7.046571e-01 2.230757e+00 7.528858e-01 1.429520e+00 1.367942e+00 1.490334e+00 1.048802e+00 1.102828e+00 9.811852e-01 1.080341e+00 9.019604e-01 1.550264e-01 3.397829e-02 2.703223e-01 3.807945e-01 1.259441e-01 4.026527e-01 1.671019e-01 1.894366e-01 2.116618e-01 2.510527e-01 1.603631e-01 2.162662e-01 1.552283e-01 7.664661e-02
<GCONST> 7.722050e+01
<STATE> 4
<MEAN> 39
 5.260796e+00 -1.564653e+01 1.286784e+01 -4.838724e+00 -1.509730e+01 -7.412210e+00 -7.766578e-01 1.925088e+00 -3.542588e+00 -3.096870e+00 1.974247e-01 -5.927386e+00 7.331792e+01 8.689389e-02 -4.163621e-02 -8.295764e-01 1.095355e-01 9.725302e-01 -1.221805e-01 -3.173975e-01 2.469054e-02 3.734752e-01 1.943209e-01 -5.486248e-01 -1.139066e-01 -2.162412e-02 -2.847924e-02 5.210835e-01 -1.460443e-01 7.838470e-02 2.442839e-01 5.829686e-02 1.007642e-01 -1.374841e-01 1.727012e-01 -1.319352e-01 -2.489859e-02 5.220610e-02 -2.881150e-01
<VARIANCE> 39
 2.993685e+00 1.344821e+01 2.908684e+01 1.202006e+01 2.682689e+01 1.355138e+01 2.248165e+01 1.031550e+01 1.566396e+01 1.087558e+01 1.440871e+01 1.109160e+01 7.501379e+00 1.901423e-01 2.147883e+00 1.382551e+00 6.693676e-01 1.339654e+00 8.134132e-01 7.545384e-01 9.261761e-01 8.785858e-01 6.830065e-01 7.095325e-01 7.736650e-01 6.123806e-01 7.538689e-02 1.069925e-01 3.910196e-01 1.297528e-01 3.043521e-01 1.405313e-01 1.514581e-01 1.482261e-01 1.852731e-01 1.164295e-01 1.555701e-01 1.346992e-01 2.863613e-02
<GCONST> 7.594795e+01
<TRANSP> 5
 0.000000e+00 1.000000e+00 0.000000e+00 0.000000e+00 0.000000e+00
 0.000000e+00 4.463871e-01 5.536128e-01 0.000000e+00 0.000000e+00
 0.000000e+00 0.000000e+00 6.083819e-01 3.916181e-01 0.000000e+00
 0.000000e+00 0.000000e+00 0.000000e+00 8.888264e-01 1.111737e-01
 0.000000e+00 0.000000e+00 0.000000e+00 0.000000e+00 0.000000e+00
<ENDHMM>
~h "aa"
<BEGINHMM>
<NUMSTATES> 5
<STATE> 2
<MEAN> 39
 3.593345e+00 -1.326798e+01 -4.282540e+00 -1.010217e+01 1.372781e+00 3.569211e+00 2.170958e+00 -4.298610e+00 -2.733479e+00 -3.168172e+00 -2.418278e+00 -9.857710e+00 6.860929e+01 8.828464e-01 -1.703928e+00 -4.653675e-01 -1.116233e+00 1.536282e-01 1.259109e+00 -6.018110e-01 -3.976370e-02 -6.595260e-01 -1.940926e-01 -9.494067e-02 -1.044839e+00 1.632449e+00 -1.329188e-01 -3.803258e-02 2.100178e-01 1.321786e-01 -1.434629e-01 -9.225467e-02 2.696980e-02 2.145074e-01 2.231866e-01 6.080477e-02 8.245546e-02 1.679808e-01 -1.253592e-02
<VARIANCE> 39
 3.301918e+01 4.188366e+01 2.842036e+01 2.960495e+01 1.880118e+01 2.755142e+01 2.106866e+01 2.963117e+01 2.516788e+01 2.038728e+01 1.999176e+01 3.406428e+01 4.812492e+01 2.280532e+00 2.946895e+00 2.193639e+00 2.739293e+00 1.472440e+00 2.360537e+00 1.532249e+00 2.518744e+00 2.643261e+00 1.528933e+00 1.368289e+00 2.421554e+00 2.253430e+00 3.702776e-01 5.853176e-01 3.759426e-01 5.007041e-01 2.471480e-01 4.023993e-01 2.814966e-01 4.404749e-01 3.864401e-01 2.953664e-01 1.972602e-01 4.643895e-01 3.821462e-01
<GCONST> 1.115531e+02
<STATE> 3
<MEAN> 39
 7.800954e+00 -2.075815e+01 -5.956227e+00 -1.388900e+01 -1.954890e-01 4.986473e+00 4.221106e-01 -6.917287e-01 -1.630952e+00 -1.438731e+00 -5.313374e+00 -1.346708e+01 7.564053e+01 -3.005075e-02 -1.257159e-01 1.519326e-01 2.253740e-01 -9.313072e-02 -3.890028e-01 -3.929934e-01 3.872031e-01 5.391217e-01 -3.270665e-02 -2.496679e-01 1.163846e-01 3.644246e-02 -3.336965e-02 3.763254e-01 8.579417e-02 1.496936e-01 -4.475672e-02 -3.128879e-01 -1.672917e-02 -5.504861e-02 7.231473e-02 5.798724e-02 3.586767e-02 1.305428e-01 -1.955438e-01
<VARIANCE> 39
 1.097713e+01 1.960561e+01 1.917764e+01 1.550371e+01 1.597653e+01 2.773335e+01 1.554518e+01 2.061798e+01 1.691665e+01 1.221577e+01 2.051818e+01 1.257507e+01 1.244711e+01 3.811891e-01 1.278498e+00 8.139645e-01 9.603872e-01 1.062903e+00 1.887075e+00 1.099065e+00 9.087825e-01 1.104804e+00 8.603410e-01 8.421678e-01 7.048839e-01 5.269492e-01 4.584043e-02 1.633487e-01 1.231720e-01 1.711717e-01 1.648028e-01 1.677705e-01 1.734670e-01 1.812443e-01 1.644536e-01 1.405685e-01 1.832531e-01 1.428668e-01 6.408069e-02
<GCONST> 8.057069e+01
<STATE> 4
<MEAN> 39
 6.171666e+00 -1.273882e+01 -3.620697e+00 -9.725557e+00 -1.277163e+00 -2.390269e+00 -1.880634e+00 -1.241741e-01 3.095112e+00 -7.458736e-01 -4.605197e+00 -9.966288e+00 7.049274e+01 -5.828897e-01 1.696764e+00 3.125595e-01 8.179746e-01 1.295983e-01 -4.691568e-01 9.419021e-02 -6.736724e-01 3.486339e-01 -9.576183e-02 7.210177e-01 7.306346e-01 -1.166417e+00 -1.567699e-01 -7.778798e-02 -2.238668e-01 4.151629e-02 1.329804e-01 3.579001e-01 3.186387e-01 -1.305728e-01 -1.186648e-01 -1.673777e-01 1.004090e-01 -5.731905e-02 -1.161275e-01
<VARIANCE> 39
 2.976695e+01 4.750212e+01 2.564727e+01 1.712778e+01 2.298082e+01 4.527660e+01 2.919798e+01 2.722239e+01 2.493449e+01 2.160358e+01 2.609225e+01 1.869949e+01 2.743809e+01 9.875470e-01 2.382159e+00 1.369764e+00 1.394474e+00 1.791340e+00 3.137458e+00 2.701269e+00 1.992790e+00 1.630863e+00 1.766719e+00 1.275518e+00 1.465243e+00 1.308359e+00 1.656830e-01 4.036337e-01 2.957559e-01 3.063977e-01 4.083449e-01 5.960095e-01 5.076540e-01 4.546162e-01 3.640452e-01 3.820343e-01 2.876642e-01 3.126591e-01 1.504596e-01
<GCONST> 1.070371e+02
<TRANSP> 5
 0.000000e+00 1.000000e+00 0.000000e+00 0.000000e+00 0.000000e+00
 0.000000e+00 6.018608e-01 3.981392e-01 0.000000e+00 0.000000e+00
 0.000000e+00 0.000000e+00 8.265443e-01 1.734557e-01 0.000000e+00
 0.000000e+00 0.000000e+00 0.000000e+00 7.004869e-01 2.995131e-01
 0.000000e+00 0.000000e+00 0.000000e+00 0.000000e+00 0.000000e+00
<ENDHMM>
~h "cx"
<BEGINHMM>
<NUMSTATES> 5
<STATE> 2
<MEAN> 39
 -1.930767e+00 -1.688039e+00 4.123608e+00 -2.616610e+00 -1.116658e+00 -3.125158e+00 2.519357e+00 -4.036482e+00 1.539758e+00 -2.855327e+00 -1.056925e-01 -2.155183e+00 6.009938e+01 -1.048998e+00 -3.412720e-01 -3.778595e-01 3.667967e-02 8.321027e-02 1.001394e-01 -1.350641e-02 -8.545564e-02 1.811534e-01 5.683185e-02 3.267783e-01 2.616081e-02 -6.379660e-01 -5.356888e-02 -4.348407e-01 3.315604e-02 -3.798042e-01 -3.746164e-01 1.119094e-01 -2.156023e-01 8.161903e-02 -3.654437e-02 -1.426490e-01 -2.070811e-02 4.832709e-02 3.272545e-01
<VARIANCE> 39
 2.966626e+01 2.128956e+01 2.161618e+01 1.412234e+01 1.964196e+01 1.534875e+01 1.966274e+01 3.167977e+01 1.870462e+01 1.697302e+01 1.688846e+01 1.266827e+01 1.131217e+01 1.224060e+00 1.617321e+00 9.380876e-01 1.426893e+00 1.861288e+00 1.581563e+00 2.945561e+00 1.451138e+00 1.781264e+00 1.853900e+00 1.421999e+00 1.888524e+00 8.546522e-01 1.007703e-01 2.423948e-01 2.401467e-01 4.126721e-01 2.968334e-01 3.127099e-01 5.079544e-01 3.031374e-01 4.146877e-01 3.861390e-01 2.910450e-01 2.341534e-01 1.260121e-01
<GCONST> 9.821310e+01
<STATE> 3
<MEAN> 39
 -5.121409e+00 -2.664185e+00 3.931025e+00 -2.860801e+00 -9.250414e-02 -3.293402e+00 2.169093e+00 -2.440709e+00 3.095415e+00 -2.850164e+00 1.172906e+00 -1.989730e+00 5.973027e+01 -8.696933e-01 -1.205157e+00 -9.257101e-02 -7.086813e-01 -6.634780e-01 7.292895e-01 2.374408e-01 -4.011676e-02 1.184122e-01 3.394758e-02 2.544081e-01 1.075704e-01 5.406479e-02 1.238396e-01 -5.215858e-01 2.126108e-01 -4.555711e-01 -4.213614e-01 1.227441e-02 -3.217993e-01 -1.085299e-02 -6.809963e-02 -1.149088e-01 -1.602826e-01 -6.022431e-02 5.500997e-01
<VARIANCE> 39
 3.009881e+01 1.410350e+01 2.817036e+01 1.442569e+01 2.442390e+01 2.853612e+01 2.607278e+01 3.447242e+01 1.908537e+01 1.814015e+01 2.978402e+01 2.722676e+01 1.273796e+01 1.813797e+00 2.398863e+00 1.424935e+00 1.848981e+00 2.035881e+00 2.303810e+00 2.112970e+00 1.390165e+00 1.711892e+00 1.907914e+00 9.352350e-01 1.157059e+00 1.511628e+00 6.795621e-01 1.269278e-01 3.277567e-01 3.723827e-01 4.348356e-01 9.782990e-01 5.202760e-01 4.869574e-01 4.179559e-01 5.514684e-01 3.596195e-01 4.446390e-01 1.512646e-01
<GCONST> 1.069400e+02
<STATE> 4
<MEAN> 39
 -3.818288e+00 -4.179766e+00 2.493157e+00 -3.369417e+00 -2.288965e+00 -4.444901e+00 2.789576e+00 -1.795294e+00 3.423621e+00 -1.815088e+00 1.212568e+00 -3.037508e+00 6.011225e+01 1.571226e-02 -2.044616e+00 -1.954960e-01 -1.303569e+00 -9.710655e-01 2.984128e-01 -7.827083e-01 2.858948e-01 -1.566204e-02 -1.775031e-01 1.481638e-02 -2.493302e-01 9.093877e-01 -3.194076e-01 -1.530779e-01 3.431126e-01 -3.529571e-01 1.784684e-01 2.314011e-01 -3.471290e-01 1.051009e-01 8.469710e-02 -1.313976e-01 -6.298698e-02 -5.373252e-02 5.377269e-01
<VARIANCE> 39
 2.958748e+01 1.766344e+01 3.095339e+01 8.115973e+00 2.383785e+01 2.672541e+01 2.181893e+01 3.163344e+01 1.587671e+01 1.500394e+01 2.290136e+01 2.050476e+01 2.257557e+01 5.387161e+00 2.703541e+00 3.341506e+00 2.162987e+00 2.329948e+00 5.648961e+00 2.033877e+00 2.368562e+00 2.022115e+00 1.689281e+00 9.543187e-01 1.344589e+00 1.755401e+00 4.983370e-01 1.771475e-01 4.589986e-01 2.106398e-01 5.865864e-01 6.812049e-01 6.111923e-01 5.316520e-01 2.607372e-01 3.797415e-01 2.805619e-01 2.967749e-01 1.686212e-01
<GCONST> 1.086613e+02
<TRANSP> 5
 0.000000e+00 1.000000e+00 0.000000e+00 0.000000e+00 0.000000e+00
 0.000000e+00 2.952456e-01 7.047544e-01 0.000000e+00 0.000000e+00
 0.000000e+00 0.000000e+00 8.590475e-02 9.140953e-01 0.000000e+00
 0.000000e+00 0.000000e+00 0.000000e+00 1.032457e-01 8.967543e-01
 0.000000e+00 0.000000e+00 0.000000e+00 0.000000e+00 0.000000e+00
<ENDHMM>
~h "ee"
<BEGINHMM>
<NUMSTATES> 5
<STATE> 2
<MEAN> 39
 -3.583320e+00 -6.766895e+00 5.850046e+00 -5.361294e+00 -6.845207e+00 -5.721094e+00 1.776517e+00 -3.085530e+00 -1.399641e+00 -1.728244e+00 2.000118e+00 -4.082927e+00 6.022143e+01 8.600929e-01 -1.340965e+00 3.125125e+00 -9.230391e-01 -2.830792e+00 -9.506170e-01 -8.793142e-01 1.997255e-01 -1.848259e+00 1.762761e-01 2.706786e-01 -1.377186e+00 2.050115e+00 4.294854e-01 -2.490860e-01 4.818329e-01 -2.006048e-01 -5.349699e-01 -2.392047e-01 -3.196276e-01 2.183171e-02 -3.400502e-01 -5.884127e-02 6.646115e-02 -1.069524e-01 6.055735e-01
<VARIANCE> 39
 1.207821e+01 2.394036e+01 6.265371e+01 1.619195e+01 4.582696e+01 2.673040e+01 2.253524e+01 1.865324e+01 2.941547e+01 1.476154e+01 1.502079e+01 2.620794e+01 2.296815e+01 2.012902e+00 2.299394e+00 4.503762e+00 2.231664e+00 5.582461e+00 2.132013e+00 2.578252e+00 1.620469e+00 3.203208e+00 2.056563e+00 1.985230e+00 2.288911e+00 3.783188e+00 1.513710e-01 3.500516e-01 1.011679e+00 2.735613e-01 9.979200e-01 5.064858e-01 4.864710e-01 2.551144e-01 5.393239e-01 4.096192e-01 3.817441e-01 4.908980e-01 4.002873e-01
<GCONST> 1.139859e+02
<STATE> 3
<MEAN> 39
 2.844256e+00 -1.245218e+01 1.790850e+01 -9.574601e+00 -1.924752e+01 -9.685291e+00 -1.930897e+00 -1.400955e+00 -8.708893e+00 -2.009490e+00 3.564227e+00 -8.747576e+00 7.100426e+01 7.870749e-01 -8.756570e-01 1.509002e+00 -4.550105e-01 -1.151389e+00 7.373743e-02 -6.642503e-01 1.173540e-01 -8.117459e-01 3.519621e-02 3.011189e-01 4.598597e-02 1.532982e+00 -2.125618e-01 2.043748e-01 -5.054274e-01 2.141310e-01 5.099730e-01 1.612911e-01 1.043525e-01 7.237693e-03 3.586689e-01 3.064354e-02 -7.987835e-02 2.898793e-01 -3.555505e-01
<VARIANCE> 39
 5.027461e+00 1.567557e+01 2.198243e+01 1.057236e+01 9.283171e+00 1.280786e+01 1.623511e+01 9.880860e+00 1.383005e+01 8.448120e+00 1.257434e+01 6.114440e+00 1.415710e+01 7.285678e-01 1.931856e+00 1.931492e+00 9.370568e-01 1.747021e+00 1.166774e+00 1.662135e+00 1.132877e+00 1.295680e+00 1.064492e+00 1.028238e+00 9.210214e-01 1.328542e+00 1.619128e-01 4.049326e-01 4.586848e-01 2.154315e-01 4.521512e-01 2.385121e-01 3.432145e-01 2.209271e-01 2.938273e-01 2.109093e-01 1.782258e-01 2.133522e-01 3.518685e-01
<GCONST> 8.899265e+01
<STATE> 4
<MEAN> 39
 5.275838e+00 -1.427774e+01 2.011271e+01 -9.356497e+00 -2.166166e+01 -9.916663e+00 -4.017659e+00 -2.387186e+00 -9.791669e+00 -2.152442e-01 3.754898e+00 -7.013366e+00 7.495409e+01 1.855262e-01 3.654378e-01 -4.466556e-01 2.806264e-01 -9.994431e-03 -3.866127e-01 3.436684e-01 -2.535628e-01 -5.628310e-02 4.072531e-01 -6.052600e-02 -1.152521e-01 -1.900494e-01 -5.080094e-02 1.821036e-01 -1.229358e-01 6.817505e-02 1.263278e-01 -4.003852e-02 1.215305e-01 -4.024698e-02 2.287041e-03 1.846571e-02 -2.328012e-02 -1.115297e-01 -1.869072e-01
<VARIANCE> 39
 2.090450e+00 1.289153e+01 1.019885e+01 1.285977e+01 1.078312e+01 9.195731e+00 9.134733e+00 7.945724e+00 1.260748e+01 7.636286e+00 9.062397e+00 5.875766e+00 4.970630e+00 1.398731e-01 4.286232e-01 5.636668e-01 6.347309e-01 6.340119e-01 6.027079e-01 6.978899e-01 5.910095e-01 7.198861e-01 6.254190e-01 4.450480e-01 5.111393e-01 2.306042e-01 2.653480e-02 9.413105e-02 9.989651e-02 1.261811e-01 1.203306e-01 1.187959e-01 1.327206e-01 1.283307e-01 1.440036e-01 1.340864e-01 8.744644e-02 6.188278e-02 3.689997e-02
<GCONST> 5.828678e+01
<TRANSP> 5
 0.000000e+00 1.000000e+00 0.000000e+00 0.000000e+00 0.000000e+00
 0.000000e+00 7.459518e-01 2.540481e-01 0.000000e+00 0.000000e+00
 0.000000e+00 0.000000e+00 7.947712e-01 2.052288e-01 0.000000e+00
 0.000000e+00 0.000000e+00 0.000000e+00 8.970768e-01 1.029232e-01
 0.000000e+00 0.000000e+00 0.000000e+00 0.000000e+00 0.000000e+00
<ENDHMM>
~h "ii"
<BEGINHMM>
<NUMSTATES> 5
<STATE> 2
<MEAN> 39
 4.354986e+00 -1.111219e+01 2.003735e+01 -8.980039e+00 -2.013689e+01 -5.763818e+00 -3.281120e+00 -7.063960e+00 -1.057482e+01 8.090434e-01 -1.091660e+00 -1.410635e+01 7.410978e+01 1.159109e+00 2.138818e-01 2.907298e+00 -1.101435e+00 -1.826320e+00 1.269757e+00 -1.761020e+00 -4.433124e-01 -1.168556e+00 1.824916e+00 -1.672023e+00 -2.252704e+00 9.701313e-01 -6.365185e-01 2.328675e-01 -1.260533e+00 2.718716e-01 1.051795e+00 7.998337e-02 6.272614e-01 1.452782e-01 8.057939e-01 -1.333696e-01 5.618557e-03 8.815275e-01 -8.654999e-01
<VARIANCE> 39
 1.996734e+00 8.567998e+00 1.563411e+01 1.232956e+01 7.546811e+00 9.276452e+00 1.145289e+01 6.478317e+00 8.343162e+00 1.063804e+01 1.177720e+01 8.129498e+00 6.163188e+00 1.226547e+00 7.237759e-01 5.035769e+00 1.005265e+00 2.910459e+00 1.646923e+00 2.525584e+00 1.406309e+00 1.894754e+00 1.016851e+00 1.255418e+00 2.183542e+00 8.701429e-01 4.624505e-02 1.058800e-01 3.200645e-01 1.424575e-01 1.547536e-01 3.771679e-01 2.545537e-01 1.966251e-01 1.388469e-01 2.276044e-01 2.095376e-01 1.527622e-01 9.156637e-02
<GCONST> 8.153235e+01
<STATE> 3
<MEAN> 39
 4.202079e+00 -8.136545e+00 2.028701e+01 -1.028298e+01 -1.979218e+01 -2.004860e+00 -1.359628e+00 -6.677516e+00 -6.326721e+00 3.194861e+00 -4.379629e+00 -1.303757e+01 7.202186e+01 3.510726e-02 4.265118e-01 -3.897226e-01 1.631140e-01 1.575972e-01 2.746414e-02 6.154969e-01 3.797255e-01 4.941275e-01 -2.919704e-01 2.211468e-01 5.903375e-01 -4.163932e-01 2.600529e-02 6.860060e-02 -2.081234e-01 1.178687e-01 1.371056e-01 -1.605866e-01 8.800576e-02 7.965122e-02 1.036007e-03 -2.137635e-01 1.609698e-01 1.308393e-01 -7.273915e-02
<VARIANCE> 39
 2.750082e+00 8.912663e+00 1.492882e+01 1.154643e+01 1.140491e+01 1.224042e+01 1.868446e+01 1.127403e+01 1.473190e+01 1.372794e+01 1.615433e+01 1.112260e+01 4.915039e+00 1.171264e-01 3.254749e-01 6.225991e-01 5.722555e-01 5.861140e-01 8.881739e-01 5.703282e-01 7.106168e-01 9.017105e-01 9.153360e-01 9.700841e-01 4.551080e-01 1.125290e-01 2.769062e-02 8.928279e-02 1.443214e-01 9.874858e-02 1.513176e-01 1.243709e-01 1.199622e-01 1.178193e-01 1.820479e-01 1.177722e-01 1.373118e-01 1.155505e-01 3.146844e-02
<GCONST> 6.342845e+01
<STATE> 4
<MEAN> 39
 6.206879e+00 -6.442102e-01 1.103999e+01 -6.659237e+00 -1.358692e+01 -4.713340e+00 4.271173e+00 -3.648900e+00 -2.938886e+00 -2.759327e+00 -1.266389e+00 -7.066773e+00 6.637244e+01 3.359250e-01 1.380958e+00 -1.497842e+00 5.154195e-01 1.429296e+00 -1.367027e-01 2.961335e-01 -1.035220e-01 8.617417e-01 -5.261858e-01 -3.180614e-01 5.465451e-01 -8.576536e-01 -8.305233e-02 -9.232348e-02 2.166636e-01 -4.621658e-02 -7.171980e-02 1.304216e-01 -1.625289e-01 -9.187630e-02 1.085948e-01 1.666500e-01 -1.793054e-01 -7.424170e-02 5.936946e-02
<VARIANCE> 39
 2.054199e+00 1.325569e+01 1.419356e+01 1.101672e+01 2.115719e+01 1.158612e+01 1.388484e+01 1.237589e+01 1.147784e+01 1.753158e+01 1.861643e+01 8.811946e+00 4.594912e+00 1.464534e-01 6.699834e-01 1.108221e+00 7.635633e-01 1.245369e+00 1.201403e+00 9.764314e-01 1.190348e+00 9.078231e-01 1.226960e+00 1.266134e+00 9.003688e-01 1.634091e-01 2.088217e-02 1.319822e-01 1.877856e-01 1.639704e-01 2.511863e-01 2.776199e-01 1.797015e-01 2.303971e-01 2.075596e-01 2.195994e-01 2.470157e-01 1.832637e-01 2.935551e-02
<GCONST> 7.417005e+01
<TRANSP> 5
 0.000000e+00 1.000000e+00 0.000000e+00 0.000000e+00 0.000000e+00
 0.000000e+00 6.894039e-01 3.105960e-01 0.000000e+00 0.000000e+00
 0.000000e+00 0.000000e+00 9.100873e-01 8.991268e-02 0.000000e+00
 0.000000e+00 0.000000e+00 0.000000e+00 8.423116e-01 1.576885e-01
 0.000000e+00 0.000000e+00 0.000000e+00 0.000000e+00 0.000000e+00
<ENDHMM>
~h "sh"
<BEGINHMM>
<NUMSTATES> 5
<STATE> 2
<MEAN> 39
 -1.027497e+01 -1.033420e+01 7.562116e+00 -9.345543e-01 -7.409605e+00 -1.005533e+00 5.064595e-01 -7.422182e+00 7.876043e+00 -2.347941e+00 1.064599e+00 -3.545604e+00 6.687714e+01 -9.167711e-01 -8.418885e-01 -1.257768e-01 3.440602e-01 -3.820352e-01 -4.172608e-01 1.748422e-01 -1.008996e-01 5.755062e-01 3.354397e-01 3.016064e-01 -6.751527e-02 3.125527e-01 4.608919e-01 1.232769e-01 -7.240395e-02 -1.631092e-02 4.859702e-02 -2.606859e-01 -3.961285e-02 2.269373e-01 -2.081799e-01 -9.645127e-02 2.146685e-02 -1.519313e-03 -7.890747e-02
<VARIANCE> 39
 2.811799e+01 2.136276e+01 1.846064e+01 2.052330e+01 1.853738e+01 4.095924e+01 2.971530e+01 2.613478e+01 2.229071e+01 2.556606e+01 2.436572e+01 1.588274e+01 1.212964e+01 2.349438e+00 9.746169e-01 1.060800e+00 1.679365e+00 1.694168e+00 2.506007e+00 2.355518e+00 2.137365e+00 1.816971e+00 1.714502e+00 2.076588e+00 1.203348e+00 4.499931e-01 2.807314e-01 2.235732e-01 2.151613e-01 2.692268e-01 3.709430e-01 4.304000e-01 5.324232e-01 3.357903e-01 3.864954e-01 4.223827e-01 4.373697e-01 2.613123e-01 6.355241e-02
<GCONST> 1.019103e+02
<STATE> 3
<MEAN> 39
 -7.938297e+00 -1.163997e+01 7.152053e+00 1.369204e+00 -8.100669e+00 -6.409862e+00 1.572635e-01 -4.705040e+00 8.449009e+00 -2.904295e+00 1.876665e+00 -4.361298e+00 6.619167e+01 3.761939e+00 1.240389e+00 1.195438e-01 -3.469366e-01 -4.431656e-01 -1.370560e+00 -1.136591e+00 2.503201e-01 -2.030165e+00 -1.214169e+00 -5.908426e-01 -7.275277e-01 3.348122e-01 6.911049e-01 -3.420115e-02 1.697481e-01 -5.852875e-01 -4.246831e-01 1.195251e-01 -4.484014e-01 -1.305628e-01 -6.925855e-01 -1.062102e-01 -1.288004e-02 -1.341502e-01 6.768584e-01
<VARIANCE> 39
 1.530886e+01 1.366271e+01 8.775818e+00 1.070008e+01 1.743852e+01 2.044596e+01 1.831102e+01 1.400787e+01 2.077487e+01 1.982623e+01 1.758537e+01 1.273137e+01 5.543185e+00 1.762379e+00 8.425683e-01 6.121052e-01 1.609357e+00 1.501699e+00 1.537717e+00 9.949660e-01 1.227387e+00 2.260790e+00 1.718969e+00 1.070841e+00 1.266869e+00 1.281957e+00 3.481283e-01 3.807249e-01 1.127686e-01 1.759850e-01 2.092381e-01 1.974405e-01 2.255077e-01 2.084477e-01 4.148024e-01 4.030102e-01 2.486941e-01 2.608851e-01 9.312996e-02
<GCONST> 9.037610e+01
<STATE> 4
<MEAN> 39
 6.119552e+00 -1.090972e+01 9.244973e+00 -4.555786e+00 -1.394930e+01 -9.343264e+00 -5.966734e+00 -3.686197e+00 -7.854924e-01 -5.824275e+00 1.850608e+00 -6.491739e+00 7.291920e+01 1.764623e+00 -7.618706e-01 1.034168e+00 -1.107787e+00 -8.972685e-01 2.374340e-01 -1.329114e+00 7.421685e-01 -7.293164e-01 -2.223656e-01 4.116176e-02 -2.061094e-01 1.209826e+00 -9.970830e-01 1.307577e-01 -1.163920e-01 3.489707e-01 5.086614e-01 4.260530e-01 5.800195e-01 7.554424e-02 9.016933e-01 1.443077e-01 -1.468654e-01 2.186941e-01 -5.926709e-01
<VARIANCE> 39
 2.100857e+00 1.770559e+01 2.607617e+01 7.371621e+00 1.798387e+01 6.973816e+00 1.714097e+01 9.086819e+00 1.231002e+01 1.152784e+01 7.189694e+00 8.173151e+00 6.047698e+00 3.438524e+00 1.492189e+00 1.279900e+00 1.698080e+00 2.135651e+00 1.438978e+00 2.043661e+00 8.848456e-01 3.994611e+00 1.383963e+00 9.983027e-01 7.470672e-01 1.786183e+00 2.189476e-01 7.740695e-01 3.864923e-01 2.267197e-01 2.822003e-01 2.251849e-01 3.232567e-01 1.765468e-01 2.697747e-01 2.718105e-01 1.961506e-01 8.598607e-02 2.494628e-01
<GCONST> 8.947086e+01
<TRANSP> 5
 0.000000e+00 1.000000e+00 0.000000e+00 0.000000e+00 0.000000e+00
 0.000000e+00 8.859444e-01 1.140556e-01 0.000000e+00 0.000000e+00
 0.000000e+00 0.000000e+00 6.642345e-01 3.357655e-01 0.000000e+00
 0.000000e+00 0.000000e+00 0.000000e+00 7.274588e-01 2.725411e-01
 0.000000e+00 0.000000e+00 0.000000e+00 0.000000e+00 0.000000e+00
<ENDHMM>
~h "sp"
<BEGINHMM>
<NUMSTATES> 3
<STATE> 2
~s "silst"
<TRANSP> 3
 0.000000e+00 1.704952e-01 8.295048e-01
 0.000000e+00 8.520220e-01 1.479780e-01
 0.000000e+00 0.000000e+00 0.000000e+00
<ENDHMM>
~h "uu"
<BEGINHMM>
<NUMSTATES> 5
<STATE> 2
<MEAN> 39
 7.000051e+00 -1.308105e+01 6.813448e+00 -1.002203e+01 -6.175411e+00 -5.312861e-01 -1.211324e+01 -3.863254e+00 4.394156e+00 -8.374301e-01 -5.897976e-01 -9.421197e+00 7.336596e+01 1.380908e-02 -2.272311e-01 -2.414317e-01 -1.458665e+00 -1.186925e-01 1.661547e+00 -4.720870e-02 -2.653230e-01 4.195693e-03 4.543503e-01 2.428947e-01 2.021955e-01 2.466491e-01 1.112884e-01 9.371483e-01 -5.536702e-01 3.514286e-01 5.230547e-02 -1.423588e-01 9.797305e-01 -3.728935e-01 -2.529171e-01 -1.220830e-01 -9.393248e-02 3.476970e-01 -5.115470e-01
<VARIANCE> 39
 1.743292e+00 1.008612e+01 2.443152e+01 2.210065e+01 3.440773e+01 3.291347e+01 1.920648e+01 1.196536e+01 1.264393e+01 1.996137e+01 1.376413e+01 1.007782e+01 5.012716e+00 1.955456e-01 4.643919e+00 1.290803e+00 2.846116e+00 1.118265e+00 1.253491e+00 4.646429e+00 1.745641e+00 1.570291e+00 1.397610e+00 1.481711e+00 7.155070e-01 1.859137e+00 5.935027e-02 1.702661e-01 1.394222e-01 2.205736e-01 2.034987e-01 1.477845e-01 2.836619e-01 1.981053e-01 1.992413e-01 2.372270e-01 1.532972e-01 1.465527e-01 6.203280e-02
<GCONST> 8.639344e+01
<STATE> 3
<MEAN> 39
 8.471957e+00 -7.817700e+00 1.312826e+00 -1.582596e+01 -5.194036e+00 5.971450e+00 -7.318845e+00 -7.874627e+00 1.088143e+00 -1.244246e+00 1.007459e+00 -4.524187e+00 7.173448e+01 3.826816e-01 1.871825e+00 -9.689684e-01 -4.993068e-01 1.582224e-01 -9.203440e-02 1.600421e+00 4.326490e-01 -7.141392e-01 -1.439580e+00 -1.323719e-01 1.403240e+00 -8.180139e-01 8.220579e-04 4.050223e-02 6.909235e-02 2.798211e-01 -6.961268e-02 -5.544308e-01 5.449390e-02 4.151920e-01 4.946361e-02 -1.936835e-01 -1.425167e-01 -1.506404e-01 -4.792405e-02
<VARIANCE> 39
 2.463878e+00 1.150217e+01 2.570468e+01 4.611526e+01 1.712702e+01 4.419596e+01 1.880737e+01 1.722840e+01 1.662941e+01 2.706524e+01 1.245670e+01 1.790093e+01 3.696739e+00 6.805889e-02 4.902881e-01 5.412060e-01 1.363019e+00 7.430104e-01 1.749166e+00 1.042570e+00 1.847510e+00 9.128425e-01 1.450872e+00 1.125216e+00 1.030916e+00 2.432344e-01 1.112560e-02 1.021651e-01 7.830811e-02 1.242090e-01 9.959426e-02 1.150754e-01 1.649057e-01 2.395173e-01 2.144864e-01 3.620360e-01 1.771560e-01 3.309234e-01 1.934482e-02
<GCONST> 7.511193e+01
<STATE> 4
<MEAN> 39
 8.561136e+00 1.822086e+00 4.557111e-02 -1.229467e+01 -6.145189e+00 -3.233619e+00 6.084213e-01 -2.088642e+00 -1.158567e+00 -5.913819e+00 -8.440969e-01 -3.951603e+00 6.588817e+01 -3.258319e-01 5.002967e-01 1.551390e-01 7.753323e-01 1.272743e-01 -5.266308e-01 3.978142e-01 -9.385666e-03 4.095406e-02 1.391403e-01 -5.333076e-02 -9.307845e-02 -5.807989e-01 -7.796056e-02 -1.472702e-01 4.907797e-02 1.448596e-02 2.520841e-02 8.050735e-02 -1.159812e-01 -1.114464e-01 4.490210e-02 1.394364e-01 6.293623e-02 -1.507321e-03 2.804780e-02
<VARIANCE> 39
 9.929161e+00 1.107046e+01 1.586227e+01 3.197289e+01 1.583603e+01 2.223872e+01 1.571568e+01 1.902056e+01 2.058240e+01 1.349738e+01 1.476461e+01 1.403439e+01 9.843828e+00 3.528465e-01 7.556109e-01 9.169057e-01 9.130954e-01 1.001624e+00 1.636536e+00 1.506951e+00 1.779139e+00 1.566401e+00 1.190826e+00 1.286180e+00 1.224037e+00 1.401358e-01 2.244578e-02 5.622523e-02 1.015774e-01 1.733843e-01 1.454417e-01 2.103044e-01 2.379762e-01 2.915142e-01 2.785651e-01 2.578954e-01 2.541512e-01 2.301729e-01 2.171720e-02
<GCONST> 8.033920e+01
<TRANSP> 5
 0.000000e+00 1.000000e+00 0.000000e+00 0.000000e+00 0.000000e+00
 0.000000e+00 6.466870e-01 3.533130e-01 0.000000e+00 0.000000e+00
 0.000000e+00 0.000000e+00 6.927623e-01 3.072378e-01 0.000000e+00
 0.000000e+00 0.000000e+00 0.000000e+00 8.841913e-01 1.158087e-01
 0.000000e+00 0.000000e+00 0.000000e+00 0.000000e+00 0.000000e+00
<ENDHMM>
~h "sil"
<BEGINHMM>
<NUMSTATES> 5
<STATE> 2
<MEAN> 39
 -5.241778e+00 -5.258678e+00 -8.892435e-02 -5.656409e-01 1.149856e+00 -2.861741e+00 4.697972e+00 -1.642119e+00 3.828988e+00 -2.123158e+00 5.116383e-01 -1.634417e+00 5.691956e+01 -2.624951e-01 1.810204e-01 1.774086e-01 7.232311e-02 4.731790e-02 1.772723e-01 8.342849e-02 -1.459903e-01 -9.793154e-02 1.021191e-01 1.337571e-01 5.320076e-03 -2.105106e-01 1.469745e-02 -4.660458e-02 4.151265e-02 5.153446e-03 -5.076157e-02 -3.494307e-02 -4.245737e-03 -2.478926e-03 -6.786629e-02 -5.356996e-02 4.989567e-02 1.122552e-01 3.076502e-02
<VARIANCE> 39
 3.501709e+00 7.801435e+00 6.672591e+00 8.966976e+00 1.172285e+01 1.060634e+01 1.644346e+01 1.400908e+01 1.739980e+01 1.430755e+01 1.302180e+01 1.245892e+01 2.481104e+00 2.023966e-01 3.558386e-01 4.294004e-01 7.516513e-01 1.036044e+00 1.028180e+00 1.218737e+00 1.137917e+00 1.441234e+00 1.490711e+00 1.209733e+00 9.691783e-01 1.214808e-01 3.831222e-02 5.698891e-02 7.050393e-02 1.336672e-01 1.735760e-01 1.701344e-01 2.303084e-01 2.131822e-01 2.866438e-01 2.846872e-01 2.348572e-01 1.724276e-01 1.581072e-02
<GCONST> 6.911126e+01
<STATE> 3
~s "silst"
<STATE> 4
<MEAN> 39
 -6.471468e+00 -3.894168e+00 3.582065e-01 -4.751010e-01 1.584108e+00 -2.091109e+00 5.267484e+00 -2.894656e+00 1.664711e+00 -2.426735e+00 2.298429e+00 4.367568e-01 5.500246e+01 -8.778838e-03 5.090410e-03 -5.879863e-04 -3.563172e-03 3.792549e-03 -5.971859e-03 -1.251874e-02 -2.309989e-02 -2.296368e-02 -2.800625e-03 9.648377e-03 6.660302e-03 -6.419425e-03 5.885792e-04 -4.335943e-03 -6.202585e-04 -8.548798e-03 -4.094707e-03 -7.622454e-03 -1.594304e-02 -3.249700e-03 4.146377e-03 -1.254292e-03 -1.151225e-02 -1.296827e-02 9.046141e-03
<VARIANCE> 39
 9.877170e-01 2.758286e+00 4.722013e+00 6.050279e+00 8.835403e+00 9.764084e+00 1.264302e+01 1.276961e+01 1.346432e+01 1.196551e+01 1.186875e+01 1.059667e+01 6.036133e-01 1.001894e-01 2.316966e-01 4.132348e-01 6.327633e-01 7.974030e-01 9.361175e-01 1.324024e+00 1.462118e+00 1.549668e+00 1.326638e+00 1.321108e+00 1.132521e+00 3.081324e-02 2.137969e-02 4.830031e-02 8.560288e-02 1.332174e-01 1.650913e-01 1.994063e-01 2.800551e-01 3.076537e-01 3.245609e-01 2.773168e-01 2.774180e-01 2.335470e-01 6.893722e-03
<GCONST> 6.055640e+01
<TRANSP> 5
 0.000000e+00 1.000000e+00 0.000000e+00 0.000000e+00 0.000000e+00
 0.000000e+00 7.357262e-01 7.033475e-02 1.939390e-01 0.000000e+00
 0.000000e+00 0.000000e+00 9.578012e-01 4.219872e-02 0.000000e+00
 0.000000e+00 1.266288e-02 0.000000e+00 9.580745e-01 2.926260e-02
 0.000000e+00 0.000000e+00 0.000000e+00 0.000000e+00 0.000000e+00
<ENDHMM>
~h "txh"
<BEGINHMM>
<NUMSTATES> 5
<STATE> 2
<MEAN> 39
 8.573781e+00 -2.494326e+01 -5.409145e+00 -8.534279e+00 -4.019603e-01 5.882613e+00 -9.108500e-01 -6.589857e-02 -4.623751e+00 -5.733182e+00 3.141543e-01 -1.333139e+01 7.701672e+01 1.874697e-01 -2.216008e-01 -1.728109e-01 1.108450e+00 -5.336858e-01 -1.408314e+00 -8.021959e-02 1.286456e+00 9.285174e-01 -8.369163e-01 -3.202393e-01 4.413444e-01 -3.169332e-02 6.778791e-03 2.063586e-01 3.506020e-02 1.082775e-01 -3.001964e-02 -3.614852e-01 -6.974459e-02 1.493561e-01 2.205267e-01 -1.173283e-01 -1.007149e-01 2.662021e-01 -1.242665e-01
<VARIANCE> 39
 3.334364e+00 1.082740e+01 1.133513e+01 1.610443e+01 1.145221e+01 2.588416e+01 1.244267e+01 2.517878e+01 2.057288e+01 1.924121e+01 1.045759e+01 8.560156e+00 3.786809e+00 1.681997e-01 4.937015e-01 4.948709e-01 6.690431e-01 6.428762e-01 1.644063e+00 8.966584e-01 1.198912e+00 1.398109e+00 1.021296e+00 8.612871e-01 7.569249e-01 1.789055e-01 2.730900e-02 1.277874e-01 8.525526e-02 9.656192e-02 9.719696e-02 1.264422e-01 1.185033e-01 1.845697e-01 1.503972e-01 1.905034e-01 1.379067e-01 9.728940e-02 2.458480e-02
<GCONST> 6.820932e+01
<STATE> 3
<MEAN> 39
 1.020197e+01 -2.108186e+01 -5.004023e+00 -6.974047e-02 -4.950935e+00 -1.108479e+01 -3.699360e+00 9.479193e+00 4.903861e+00 -1.149193e+01 -2.384889e+00 -4.561954e+00 7.462228e+01 2.286884e-02 2.286325e+00 4.519005e-01 1.212086e+00 -7.687914e-02 -2.267398e+00 -5.806831e-01 -1.688547e-01 9.664733e-01 6.186310e-03 2.416953e-01 1.720600e+00 -1.204803e+00 -2.802823e-01 2.720135e-01 -2.182427e-02 -1.858475e-01 4.795984e-01 8.518049e-01 2.317035e-01 -7.695521e-01 -3.920521e-01 3.470834e-01 1.772224e-01 -4.507878e-01 -2.736397e-01
<VARIANCE> 39
 3.037107e+00 1.831144e+01 1.188423e+01 1.167660e+01 1.514625e+01 3.424329e+01 1.619633e+01 1.578774e+01 2.028878e+01 1.240346e+01 1.141361e+01 1.978225e+01 5.937809e+00 3.493895e-01 8.736079e-01 7.089127e-01 6.527753e-01 1.798556e+00 3.875532e+00 1.498851e+00 3.663440e+00 1.760335e+00 1.318365e+00 1.259660e+00 1.640387e+00 3.102905e-01 7.785290e-02 2.628807e-01 1.919368e-01 1.535196e-01 2.235852e-01 5.526015e-01 4.293913e-01 3.731236e-01 3.268563e-01 2.161398e-01 2.656005e-01 4.318885e-01 2.216247e-02
<GCONST> 8.727705e+01
<STATE> 4
<MEAN> 39
 2.099286e+00 -1.301383e+01 -3.365839e+00 -1.993372e+00 -2.003504e+00 -8.107985e+00 1.605291e-01 3.590447e+00 6.182423e+00 -6.054324e+00 -2.302988e-01 -2.252625e+00 6.570805e+01 -1.058601e+00 1.121904e-01 3.114267e-01 -5.193729e-01 7.769640e-02 5.588809e-01 7.923095e-01 -2.344062e-01 -1.163793e-01 5.648747e-01 5.455216e-02 7.783834e-02 -5.801383e-01 4.430252e-02 -1.165751e-01 -5.023303e-03 7.486615e-03 -9.104794e-02 -5.586846e-02 -1.097244e-02 8.153912e-02 -1.782323e-02 -4.560807e-02 -7.567842e-02 3.373606e-03 7.915908e-02
<VARIANCE> 39
 2.012131e+01 1.216744e+01 2.439870e+01 2.470520e+01 1.695967e+01 2.871205e+01 2.565000e+01 2.184026e+01 2.215537e+01 2.415804e+01 2.077472e+01 1.982937e+01 1.065993e+01 6.009735e-01 1.510987e+00 2.588207e+00 2.054345e+00 2.053221e+00 2.209704e+00 2.430133e+00 2.319806e+00 2.248458e+00 1.857175e+00 2.479999e+00 2.373201e+00 1.465256e+00 9.724968e-02 3.323939e-01 5.426685e-01 4.386963e-01 3.898911e-01 4.224649e-01 5.081945e-01 4.321764e-01 4.502600e-01 3.724150e-01 4.957573e-01 4.795887e-01 2.550122e-01
<GCONST> 1.063908e+02
<TRANSP> 5
 0.000000e+00 1.000000e+00 0.000000e+00 0.000000e+00 0.000000e+00
 0.000000e+00 8.753706e-01 1.246294e-01 0.000000e+00 0.000000e+00
 0.000000e+00 0.000000e+00 7.777686e-01 2.222313e-01 0.000000e+00
 0.000000e+00 0.000000e+00 0.000000e+00 9.104872e-01 8.951273e-02
 0.000000e+00 0.000000e+00 0.000000e+00 0.000000e+00 0.000000e+00
<ENDHMM>
