~o
<STREAMINFO> 1 39
<VECSIZE> 39<NULLD><MFCC_D_A_0><DIAGC>
~s "silst"
<MEAN> 39
 -4.636666e+00 -4.593179e+00 1.731025e+00 -2.021811e+00 -1.492261e+00 -2.927595e+00 4.304566e+00 -1.262336e+00 5.607522e+00 -1.490721e+00 1.021876e+00 -1.207865e+00 5.653460e+01 -1.340668e-01 8.016085e-02 4.732446e-02 1.085223e-01 7.741605e-02 9.927617e-02 7.041065e-02 -3.522564e-02 -5.312325e-02 -5.607824e-02 4.322531e-02 4.564916e-02 -2.162635e-01 2.146610e-02 -2.797673e-02 1.664680e-02 -3.655751e-03 -4.815529e-03 -2.446505e-02 -6.741669e-03 -1.018451e-02 -4.504900e-02 -5.158929e-02 -3.543750e-02 1.089083e-02 6.277484e-02
<VARIANCE> 39
 6.039415e+00 1.592087e+01 1.596250e+01 1.436293e+01 2.028029e+01 2.101128e+01 2.027622e+01 2.378446e+01 2.668202e+01 1.850528e+01 1.998115e+01 1.693991e+01 4.543941e+00 2.223893e-01 5.825044e-01 6.154116e-01 8.224319e-01 1.090603e+00 1.275251e+00 1.526445e+00 1.534193e+00 1.598621e+00 1.572896e+00 1.490315e+00 1.353654e+00 1.882581e-01 4.075465e-02 9.649502e-02 1.217036e-01 1.674929e-01 2.095300e-01 2.501047e-01 3.241963e-01 3.155191e-01 3.150451e-01 3.062482e-01 2.996709e-01 2.783980e-01 3.509822e-02
<GCONST> 8.302965e+01
~h "a"
<BEGINHMM>
<NUMSTATES> 5
<STATE> 2
<MEAN> 39
 6.717408e-01 -6.613811e+00 -1.690316e-01 -4.122255e+00 -3.823256e+00 -5.432547e+00 1.564137e+00 -7.512402e-01 5.870430e+00 -2.833525e+00 -2.202889e+00 -3.484090e+00 6.428474e+01 -7.740383e-01 4.058445e-01 4.096446e-01 3.038273e-01 4.245866e-01 -9.765536e-03 1.928445e-01 -1.416388e-01 1.492996e-01 -1.172433e-01 9.829417e-02 4.918326e-01 -7.040525e-01 2.898796e-03 -1.176841e-01 9.006156e-03 -3.870674e-02 2.959909e-03 4.330426e-02 2.850980e-02 8.488595e-02 -2.584814e-02 1.120145e-02 8.052313e-02 -3.146847e-02 6.850331e-02
<VARIANCE> 39
 3.815820e+01 3.773181e+01 3.694104e+01 1.956158e+01 2.966281e+01 2.723353e+01 3.460405e+01 3.351009e+01 3.022395e+01 2.330818e+01 2.459389e+01 1.825127e+01 2.323146e+01 9.115754e-01 1.830564e+00 1.532968e+00 1.386943e+00 1.943445e+00 1.959031e+00 1.976081e+00 1.917864e+00 1.973839e+00 1.904841e+00 1.958510e+00 1.547312e+00 8.981292e-01 1.885715e-01 3.315775e-01 2.711386e-01 2.649111e-01 3.703504e-01 4.167429e-01 4.023977e-01 3.833216e-01 3.914726e-01 3.378767e-01 4.006076e-01 3.348233e-01 1.726158e-01
<GCONST> 1.064214e+02
<STATE> 3
<MEAN> 39
 -3.088723e+00 -4.347815e+00 1.401948e+00 -3.527508e+00 -2.496710e+00 -6.105028e+00 3.141273e+00 -8.134998e-01 4.729151e+00 -2.367920e+00 -1.141706e+00 -1.778375e+00 6.311151e+01 -6.197539e-01 -1.864257e-01 3.154952e-01 2.312519e-01 4.554052e-01 2.949526e-02 9.051052e-02 1.946974e-01 1.628004e-01 -2.559980e-03 2.319700e-01 3.097189e-01 -2.281966e-01 1.801433e-01 -1.926203e-01 -1.620286e-01 -1.416167e-01 -1.437477e-03 1.005891e-01 -6.068173e-02 1.682214e-02 1.498969e-02 7.600247e-02 -4.535898e-02 -2.047896e-01 1.298302e-01
<VARIANCE> 39
 5.604156e+01 3.525249e+01 2.936089e+01 2.113290e+01 3.530924e+01 2.528487e+01 3.094313e+01 3.726080e+01 2.952190e+01 2.462147e+01 2.613934e+01 1.829806e+01 2.029643e+01 1.582327e+00 2.234598e+00 1.712958e+00 1.267655e+00 2.011417e+00 1.803613e+00 2.156562e+00 2.257060e+00 2.007886e+00 1.778863e+00 1.930598e+00 1.591786e+00 1.033997e+00 2.689026e-01 4.484503e-01 2.777819e-01 2.818648e-01 3.857042e-01 4.349343e-01 4.031911e-01 4.563450e-01 4.418381e-01 4.048169e-01 4.136827e-01 3.607047e-01 2.665496e-01
<GCONST> 1.095626e+02
<STATE> 4
<MEAN> 39
 -1.868301e+00 -6.301393e+00 1.760601e+00 -3.174149e+00 -2.604245e+00 -6.052135e+00 2.269278e+00 -1.034038e+00 5.076650e+00 -1.992854e+00 -1.012996e+00 -1.946910e+00 6.317446e+01 -1.457136e-02 -2.547135e-01 -1.548647e-01 -1.175508e-02 3.722396e-01 1.328351e-01 -1.214552e-01 6.441137e-02 1.628813e-01 1.551098e-01 -1.495165e-02 -1.800354e-01 3.976640e-02 8.384328e-02 8.604608e-02 -1.125247e-01 -1.323662e-01 -3.048360e-02 1.265072e-01 -4.387313e-02 -6.836375e-02 -3.943577e-02 1.601378e-02 2.256086e-02 -1.419194e-01 3.201306e-03
<VARIANCE> 39
 3.737938e+01 4.440117e+01 2.614449e+01 2.089956e+01 2.978861e+01 2.783241e+01 3.127209e+01 3.619168e+01 3.410672e+01 3.109331e+01 2.762847e+01 2.209710e+01 1.948864e+01 2.549814e+00 4.485373e+00 2.662015e+00 1.982056e+00 2.570559e+00 2.529261e+00 2.701520e+00 2.767194e+00 2.552617e+00 2.439279e+00 2.818656e+00 2.410481e+00 2.777192e+00 3.185928e-01 6.992407e-01 4.500598e-01 3.537201e-01 4.443033e-01 4.438816e-01 4.342202e-01 4.812794e-01 4.783958e-01 4.981798e-01 5.447219e-01 4.608242e-01 3.855659e-01
<GCONST> 1.179500e+02
<TRANSP> 5
 0.000000e+00 1.000000e+00 0.000000e+00 0.000000e+00 0.000000e+00
 0.000000e+00 5.092561e-01 4.907440e-01 0.000000e+00 0.000000e+00
 0.000000e+00 0.000000e+00 3.050704e-01 6.949297e-01 0.000000e+00
 0.000000e+00 0.000000e+00 0.000000e+00 4.960276e-01 5.039725e-01
 0.000000e+00 0.000000e+00 0.000000e+00 0.000000e+00 0.000000e+00
<ENDHMM>
~h "c"
<BEGINHMM>
<NUMSTATES> 5
<STATE> 2
<MEAN> 39
 8.613496e+00 -1.103385e+01 -6.852966e+00 -6.503878e+00 -1.182263e+00 -4.192616e+00 -4.033208e-02 -2.566900e+00 3.065483e+00 -1.450579e+00 -1.928605e+00 -1.024412e+01 7.160452e+01 -4.161014e-01 1.580038e+00 -5.088683e-01 8.819491e-01 9.778597e-01 8.547878e-01 7.478398e-01 -1.081120e+00 2.722993e-01 -4.778014e-01 2.228176e-01 1.147656e-01 -1.571238e+00 -2.917708e-01 -4.342641e-01 -3.764801e-01 -3.557853e-01 -1.077839e-01 3.539498e-01 5.085785e-01 2.305040e-01 1.470145e-01 -3.762005e-02 -1.562336e-01 -1.637136e-01 1.410792e-02
<VARIANCE> 39
 4.114475e+00 1.509880e+01 4.669532e+01 1.775702e+01 1.755035e+01 6.213163e+01 5.183923e+01 6.114173e+01 1.833281e+01 1.647418e+01 2.099392e+01 1.753558e+01 1.764195e+01 5.358959e-01 2.212385e+00 1.275350e+00 1.632443e+00 1.762677e+00 2.447337e+00 2.811036e+00 2.860197e+00 1.326412e+00 1.479791e+00 1.500706e+00 1.432192e+00 1.160221e+00 8.546159e-02 2.454848e-01 2.961775e-01 3.377737e-01 5.824767e-01 7.474422e-01 7.114308e-01 5.540594e-01 2.825918e-01 3.326453e-01 2.029095e-01 3.718572e-01 1.401212e-01
<GCONST> 1.032668e+02
<STATE> 3
<MEAN> 39
 8.981597e+00 -1.196037e+01 -1.458073e+01 -6.447897e+00 -1.170695e+00 4.006950e+00 7.399946e+00 -1.015086e+01 7.221242e+00 -3.747778e+00 -8.086458e-01 -1.252065e+01 7.372232e+01 -2.134469e-01 2.992230e-02 1.921755e-01 1.731731e-01 -3.248026e-01 -3.763878e-01 -2.328743e-01 9.720325e-01 2.883694e-01 -6.010736e-02 -5.572780e-01 3.154927e-01 -3.623180e-01 -5.625577e-02 -5.375817e-04 1.338040e-01 -1.156141e-01 -1.963287e-01 -2.896052e-01 -1.716162e-01 3.584096e-01 -2.589577e-02 9.602702e-02 -2.307678e-02 1.991466e-01 1.729745e-02
<VARIANCE> 39
 3.917433e+00 9.130998e+00 1.656775e+01 1.119203e+01 2.017511e+01 3.754640e+01 3.884318e+01 4.092888e+01 3.107985e+01 1.919727e+01 1.675965e+01 1.571961e+01 1.640880e+01 3.348595e-01 3.451021e-01 8.512677e-01 7.646896e-01 1.367035e+00 1.800492e+00 2.211881e+00 2.814373e+00 1.271489e+00 8.163145e-01 7.916407e-01 9.922161e-01 3.429152e-01 3.127415e-02 1.142737e-01 7.684913e-02 1.751794e-01 2.251977e-01 3.413054e-01 3.044060e-01 3.173116e-01 2.501722e-01 2.156653e-01 1.267222e-01 2.544758e-01 5.594549e-02
<GCONST> 8.402660e+01
<STATE> 4
<MEAN> 39
 2.665894e+00 -7.383299e+00 -9.623887e+00 -7.488823e+00 -9.419910e-01 -3.158537e+00 3.897736e+00 -4.419410e-01 7.029566e+00 -8.238546e-01 -4.155204e+00 -5.979230e+00 6.674342e+01 -1.548478e+00 7.941937e-01 5.177204e-01 -3.421361e-01 1.763586e-01 -5.889614e-01 3.305613e-01 2.029492e-01 -2.536049e-01 2.302462e-01 5.863594e-02 7.581078e-01 -5.414526e-01 -1.586493e-01 2.433187e-02 1.379525e-01 6.805912e-02 1.133977e-01 2.770119e-02 6.156057e-02 -1.558870e-01 -1.365146e-01 -6.197139e-02 6.275474e-02 -4.634404e-02 1.357752e-01
<VARIANCE> 39
 3.812579e+01 1.978416e+01 1.231314e+01 1.255886e+01 2.549805e+01 2.560718e+01 2.786832e+01 2.434741e+01 2.243309e+01 1.662606e+01 1.981965e+01 1.686572e+01 2.276981e+01 1.577385e+00 1.052887e+00 9.983776e-01 1.206051e+00 2.055972e+00 3.097222e+00 2.686523e+00 2.857893e+00 1.927361e+00 2.033651e+00 1.852450e+00 2.173682e+00 1.618444e+00 1.770226e-01 1.845065e-01 2.073234e-01 2.415372e-01 4.337022e-01 6.105358e-01 4.878820e-01 5.943801e-01 3.340642e-01 3.824675e-01 3.725976e-01 4.306543e-01 2.539411e-01
<GCONST> 1.047870e+02
<TRANSP> 5
 0.000000e+00 1.000000e+00 0.000000e+00 0.000000e+00 0.000000e+00
 0.000000e+00 5.453369e-01 4.546631e-01 0.000000e+00 0.000000e+00
 0.000000e+00 0.000000e+00 7.775453e-01 2.224547e-01 0.000000e+00
 0.000000e+00 0.000000e+00 0.000000e+00 8.684561e-01 1.315439e-01
 0.000000e+00 0.000000e+00 0.000000e+00 0.000000e+00 0.000000e+00
<ENDHMM>
~h "d"
<BEGINHMM>
<NUMSTATES> 5
<STATE> 2
<MEAN> 39
 -2.633460e+00 -2.830290e+00 2.974584e+00 -2.065592e+00 -5.748896e-01 -3.923402e+00 2.268864e+00 -2.909197e+00 2.634628e+00 -3.705256e+00 -1.013822e+00 -3.184598e+00 5.811993e+01 1.078365e+00 5.211642e-02 1.011936e+00 -3.545073e-01 -4.887817e-01 -3.579694e-01 -1.043523e+00 -6.418598e-01 -8.207644e-01 -7.622488e-01 -8.377324e-01 -1.121385e+00 1.263897e+00 5.009255e-01 6.386101e-02 1.220234e-01 -3.618618e-01 -3.119600e-01 -8.767445e-02 -4.454575e-01 -1.902090e-01 -2.950938e-02 2.821449e-01 8.041862e-02 -2.293455e-01 5.547580e-01
<VARIANCE> 39
 1.354029e+01 3.279792e+01 1.374877e+01 1.555283e+01 1.357530e+01 1.989771e+01 1.846630e+01 1.924514e+01 1.975844e+01 1.866238e+01 1.969264e+01 1.667243e+01 1.446227e+01 1.723592e+00 4.997647e+00 1.120964e+00 2.699135e+00 1.705375e+00 1.693708e+00 2.188004e+00 3.163028e+00 1.174217e+00 1.840238e+00 2.153172e+00 1.667430e+00 2.256255e+00 1.996747e-01 5.033648e-01 1.695467e-01 2.834722e-01 2.916152e-01 3.168490e-01 4.477813e-01 4.868125e-01 2.562870e-01 4.545383e-01 3.908505e-01 2.524470e-01 2.797366e-01
<GCONST> 1.031267e+02
<STATE> 3
<MEAN> 39
 3.853876e+00 3.273131e+00 6.516534e+00 -1.176328e+00 -1.831607e+00 -6.215456e+00 -1.290722e+00 -5.826610e+00 1.846512e+00 -4.160982e+00 -4.479525e+00 -6.926394e+00 6.090075e+01 4.817125e-01 -1.637055e-01 6.789808e-01 -4.155587e-01 8.190364e-03 1.310863e-02 -7.152972e-01 -3.040590e-01 -2.879530e-01 1.321722e-01 2.448387e-01 -1.967597e-01 8.945112e-01 -2.314718e-01 -6.518747e-01 -2.697359e-01 -4.191459e-01 -6.566806e-02 1.794983e-01 -1.167640e-01 1.572467e-01 1.401090e-01 4.014817e-01 4.450826e-01 1.820940e-01 3.091291e-01
<VARIANCE> 39
 8.931871e+00 3.524905e+01 1.473343e+01 1.422098e+01 1.314660e+01 1.462703e+01 1.208133e+01 1.371942e+01 2.054924e+01 1.497967e+01 1.282973e+01 1.169536e+01 1.202267e+01 2.198380e+00 3.469440e+00 1.131022e+00 2.084337e+00 1.756075e+00 1.337714e+00 2.057527e+00 1.931750e+00 1.344988e+00 1.538579e+00 1.200217e+00 1.559319e+00 2.142445e+00 2.685359e-01 6.178422e-01 2.897494e-01 2.943081e-01 2.982856e-01 3.331997e-01 3.759561e-01 3.758243e-01 2.803867e-01 3.672737e-01 2.927325e-01 2.587094e-01 3.884612e-01
<GCONST> 9.928696e+01
<STATE> 4
<MEAN> 39
 2.264628e+00 -4.845766e+00 7.371507e+00 -7.116083e+00 -2.122602e+00 -5.775030e+00 -5.191245e+00 -4.979949e+00 1.585101e+00 -1.806310e+00 -6.257648e-01 -6.095092e+00 6.787359e+01 1.102301e+00 -2.580620e+00 -1.164536e+00 -3.113794e+00 -1.612236e+00 4.646646e-01 -2.604614e+00 -3.846484e-01 3.015328e-01 2.494027e+00 2.128688e+00 -5.953007e-01 3.471196e+00 5.104407e-01 4.657209e-01 -5.690604e-01 -1.964764e-01 -3.774715e-01 5.598271e-01 4.958916e-02 -3.388943e-01 -1.218786e-01 2.874785e-01 4.262505e-01 -4.086477e-02 -1.619318e-01
<VARIANCE> 39
 1.035267e+01 4.489663e+01 1.550054e+01 3.008886e+01 2.515354e+01 1.768764e+01 2.700614e+01 2.117462e+01 1.867384e+01 3.246695e+01 1.487997e+01 1.035385e+01 2.917890e+01 2.172291e+00 3.934931e+00 3.334012e+00 1.638090e+00 2.306381e+00 2.818375e+00 2.118064e+00 2.407167e+00 2.201449e+00 2.285663e+00 1.622414e+00 1.887678e+00 1.193773e+00 3.176822e-01 7.786037e-01 3.989389e-01 5.040747e-01 4.312278e-01 4.689700e-01 7.445409e-01 3.353408e-01 3.877365e-01 7.541560e-01 2.477793e-01 3.830048e-01 6.998863e-01
<GCONST> 1.115568e+02
<TRANSP> 5
 0.000000e+00 1.000000e+00 0.000000e+00 0.000000e+00 0.000000e+00
 0.000000e+00 5.880213e-01 4.119788e-01 0.000000e+00 0.000000e+00
 0.000000e+00 0.000000e+00 6.930849e-01 3.069151e-01 0.000000e+00
 0.000000e+00 0.000000e+00 0.000000e+00 5.742937e-01 4.257062e-01
 0.000000e+00 0.000000e+00 0.000000e+00 0.000000e+00 0.000000e+00
<ENDHMM>
~h "h"
<BEGINHMM>
<NUMSTATES> 5
<STATE> 2
<MEAN> 39
 -1.412708e+01 -6.493560e+00 1.226504e-01 -4.134874e+00 3.333234e+00 -9.021749e+00 6.705575e+00 1.486481e+00 4.873649e+00 2.733103e-01 -1.219981e+00 -7.072960e-01 6.611597e+01 2.791703e+00 -1.041538e-01 -6.492466e-01 -8.480906e-01 -1.092644e+00 1.080798e-01 -7.179495e-01 -9.662275e-01 2.398156e-02 3.236696e-01 -1.088576e+00 -1.219250e+00 3.348126e-01 1.216837e+00 -2.764852e-02 -3.548750e-01 -4.146577e-01 -4.020715e-01 2.731027e-01 -5.004601e-01 -3.782574e-01 -6.701290e-02 1.296784e-01 -3.658679e-01 -6.307935e-01 4.988143e-01
<VARIANCE> 39
 2.287828e+01 1.015659e+01 1.153420e+01 1.361570e+01 1.849821e+01 1.755095e+01 2.178833e+01 2.101451e+01 2.142176e+01 2.216815e+01 1.765854e+01 1.999539e+01 5.965505e+00 6.706130e+00 1.164840e+00 1.407411e+00 1.522594e+00 1.695399e+00 1.702077e+00 2.564296e+00 2.355456e+00 1.863508e+00 1.653672e+00 1.806672e+00 2.213237e+00 8.369784e-01 2.874888e-01 2.975088e-01 3.059089e-01 2.884996e-01 3.374559e-01 3.546927e-01 3.846873e-01 3.416611e-01 3.462144e-01 3.559531e-01 3.259216e-01 3.207228e-01 2.018615e-01
<GCONST> 1.009260e+02
<STATE> 3
<MEAN> 39
 4.920646e+00 -7.820868e+00 -4.549386e+00 -1.033929e+01 -2.946645e+00 -5.997678e+00 -6.467581e-02 -4.378163e+00 4.176060e+00 2.280527e+00 -6.912910e+00 -9.903957e+00 7.217761e+01 3.676660e+00 -1.591610e+00 -1.545938e+00 -1.615673e+00 -8.700614e-01 2.155077e+00 -9.612055e-01 -8.208966e-01 1.167552e-01 5.075290e-01 -8.531407e-01 -1.956754e+00 2.072279e+00 -1.198686e+00 -1.541009e-01 3.232671e-01 4.081006e-01 5.510831e-01 3.101879e-01 7.098128e-01 5.173585e-01 -8.225332e-02 -3.578390e-01 4.704060e-01 4.967601e-01 -3.350079e-01
<VARIANCE> 39
 1.577913e+01 3.664837e+01 3.231866e+01 1.758529e+01 1.252976e+01 2.065682e+01 2.066282e+01 1.300388e+01 2.523003e+01 2.018685e+01 1.149731e+01 2.082911e+01 1.641105e+01 4.929951e+00 2.846285e+00 2.701259e+00 1.944458e+00 1.741620e+00 1.753352e+00 3.717952e+00 2.780411e+00 1.631054e+00 2.132296e+00 1.714800e+00 1.873522e+00 1.227707e+00 3.916855e-01 5.286596e-01 6.174185e-01 4.791351e-01 2.169109e-01 3.714056e-01 5.421840e-01 2.865847e-01 3.280584e-01 3.600495e-01 2.784171e-01 2.700509e-01 4.126013e-01
<GCONST> 1.076277e+02
<STATE> 4
<MEAN> 39
 6.241333e+00 -9.698538e+00 -3.348891e+00 -6.777070e+00 1.609280e+00 9.725214e-01 6.113432e+00 -4.387836e+00 1.478791e+00 -8.398252e-01 -4.910820e+00 -9.724812e+00 7.078086e+01 1.386126e-02 2.328878e-01 9.826830e-02 4.799506e-01 4.223655e-01 3.054415e-01 6.423154e-01 -2.578785e-01 -4.732732e-01 -4.351820e-01 3.605008e-01 2.117338e-01 -3.706564e-01 -3.172409e-02 1.434819e-02 -1.187635e-01 -1.160818e-01 -6.199576e-02 -9.758492e-02 -9.121749e-02 -2.398443e-02 -1.340728e-03 3.245207e-02 1.807486e-02 2.475053e-02 2.778183e-02
<VARIANCE> 39
 6.351348e+00 2.578477e+01 1.820425e+01 3.472794e+01 2.099842e+01 1.360480e+01 2.753188e+01 2.932051e+01 2.187534e+01 1.659303e+01 3.043426e+01 2.150575e+01 1.079768e+01 7.903277e-01 1.491555e+00 2.710948e+00 2.876575e+00 2.088142e+00 1.538474e+00 2.362117e+00 1.475429e+00 1.319522e+00 1.368933e+00 1.806572e+00 1.242648e+00 7.447791e-01 2.477455e-01 4.054631e-01 5.210819e-01 5.688673e-01 3.787265e-01 3.628140e-01 4.326179e-01 2.989664e-01 2.835878e-01 2.940584e-01 3.117546e-01 2.726307e-01 2.147033e-01
<GCONST> 1.020382e+02
<TRANSP> 5
 0.000000e+00 1.000000e+00 0.000000e+00 0.000000e+00 0.000000e+00
 0.000000e+00 7.101279e-01 2.898721e-01 0.000000e+00 0.000000e+00
 0.000000e+00 0.000000e+00 6.855479e-01 3.144521e-01 0.000000e+00
 0.000000e+00 0.000000e+00 0.000000e+00 9.054406e-01 9.455930e-02
 0.000000e+00 0.000000e+00 0.000000e+00 0.000000e+00 0.000000e+00
<ENDHMM>
~h "k"
<BEGINHMM>
<NUMSTATES> 5
<STATE> 2
<MEAN> 39
 -3.393228e+00 -4.590222e+00 4.285065e+00 -2.632890e+00 -3.974020e+00 -3.207031e+00 4.613374e+00 -1.554583e+00 3.672532e+00 -2.297549e+00 5.805218e-01 -2.124933e+00 5.795837e+01 6.851610e-01 -1.978192e+00 4.505611e+00 -2.089618e+00 -3.718847e+00 -7.259644e-01 -2.369108e+00 6.847233e-01 -2.296085e+00 4.616480e-01 1.104562e+00 -1.256124e+00 3.247185e+00 4.385979e-01 -5.985135e-01 1.311994e+00 -8.288077e-01 -1.421750e+00 -3.437458e-01 -1.006925e+00 2.105606e-01 -6.920317e-01 2.775673e-01 5.283980e-01 -3.436428e-01 1.279788e+00
<VARIANCE> 39
 1.339533e+01 2.092846e+01 3.751895e+01 1.319151e+01 5.102813e+01 2.730306e+01 2.430959e+01 2.062911e+01 3.642491e+01 1.270751e+01 1.955228e+01 1.729186e+01 2.504843e+01 1.244110e+00 2.068552e+00 3.779571e+00 2.533243e+00 5.066182e+00 2.092488e+00 3.394928e+00 2.000796e+00 2.482630e+00 1.730246e+00 2.963783e+00 1.425714e+00 2.272866e+00 1.314349e-01 1.847594e-01 5.101190e-01 3.630630e-01 5.496787e-01 3.488358e-01 4.687121e-01 3.376631e-01 2.463375e-01 2.903859e-01 3.911503e-01 2.870596e-01 3.024538e-01
<GCONST> 1.084377e+02
<STATE> 3
<MEAN> 39
 2.085861e-01 -1.194833e+01 2.079510e+01 -1.258689e+01 -1.952070e+01 -6.807003e+00 -5.554173e+00 1.161235e+00 -4.981817e+00 6.152252e-01 5.758392e+00 -7.139192e+00 7.138167e+01 1.343227e+00 -1.990380e+00 4.175734e+00 -2.127494e+00 -4.158349e+00 -7.178207e-01 -2.770539e+00 6.192726e-01 -1.961951e+00 6.972625e-01 1.518124e+00 -9.275420e-01 3.854453e+00 -4.598697e-02 5.735532e-01 -1.160852e+00 6.768782e-01 9.298456e-01 2.760363e-01 5.346787e-01 -2.918749e-01 6.133311e-01 -1.649977e-01 -2.830602e-01 4.467013e-01 -7.568384e-01
<VARIANCE> 39
 8.505483e+00 1.460312e+01 3.272205e+01 1.846910e+01 2.558138e+01 1.798075e+01 3.251340e+01 2.250101e+01 2.426399e+01 1.424328e+01 2.130357e+01 1.463278e+01 2.431302e+01 1.096724e+00 1.973864e+00 5.504478e+00 2.981890e+00 6.141270e+00 1.838245e+00 3.570365e+00 2.260979e+00 2.302375e+00 1.595644e+00 2.589846e+00 1.776978e+00 2.924428e+00 1.951844e-01 4.508006e-01 6.925882e-01 4.649006e-01 8.102242e-01 3.286389e-01 5.355331e-01 3.650627e-01 3.637210e-01 2.584386e-01 3.783551e-01 2.562716e-01 6.091315e-01
<GCONST> 1.106789e+02
<STATE> 4
<MEAN> 39
 2.768869e+00 -8.114101e+00 1.816171e+01 -9.316692e+00 -2.020541e+01 -8.457053e+00 -4.718307e+00 -3.368361e+00 -4.902618e+00 3.240950e+00 4.930156e+00 -5.575618e+00 7.020956e+01 -1.352914e-01 4.447473e-01 -6.950220e-01 4.352585e-01 5.564610e-01 -1.015104e-01 3.333939e-01 -3.785500e-01 3.096336e-01 1.106219e-01 -1.292201e-01 2.675765e-01 -6.204360e-01 -6.531297e-02 2.756957e-02 -1.251847e-01 6.557589e-02 1.622428e-01 2.438303e-02 7.785340e-02 1.979971e-02 7.501801e-02 -4.880905e-02 -5.591389e-02 2.517307e-02 -1.086449e-01
<VARIANCE> 39
 7.202073e+00 3.834508e+01 3.837229e+01 3.069097e+01 3.367979e+01 2.238099e+01 3.390534e+01 3.137287e+01 3.922277e+01 2.642291e+01 2.227160e+01 1.625840e+01 3.874437e+01 4.610255e-01 1.839928e+00 1.255561e+00 1.263073e+00 1.792317e+00 1.303478e+00 1.387556e+00 1.474240e+00 1.730486e+00 1.543548e+00 1.652920e+00 1.492839e+00 1.186190e+00 5.964008e-02 3.684556e-01 2.876650e-01 2.551062e-01 3.483656e-01 2.503529e-01 2.858431e-01 2.823110e-01 3.387080e-01 2.952768e-01 3.211894e-01 2.664045e-01 2.283107e-01
<GCONST> 1.007495e+02
<TRANSP> 5
 0.000000e+00 1.000000e+00 0.000000e+00 0.000000e+00 0.000000e+00
 0.000000e+00 3.934065e-01 6.065935e-01 0.000000e+00 0.000000e+00
 0.000000e+00 0.000000e+00 6.113799e-01 3.886201e-01 0.000000e+00
 0.000000e+00 0.000000e+00 0.000000e+00 9.518499e-01 4.815004e-02
 0.000000e+00 0.000000e+00 0.000000e+00 0.000000e+00 0.000000e+00
<ENDHMM>
~h "n"
<BEGINHMM>
<NUMSTATES> 5
<STATE> 2
<MEAN> 39
 7.531581e+00 1.119968e+00 3.042409e+00 -5.202867e+00 -8.673500e+00 -5.698414e+00 -6.270070e-01 -4.450534e+00 2.642139e+00 -2.885823e+00 -9.394909e-01 -4.780351e+00 6.541226e+01 4.148801e-02 8.542236e-01 -3.666483e-01 6.345235e-01 2.280351e-01 -3.157065e-01 7.976911e-01 -4.260243e-01 -3.089046e-02 2.491729e-02 -2.133674e-01 2.001958e-01 -6.977739e-01 -1.354259e-01 -2.416575e-01 2.498803e-01 -2.213908e-01 -8.239004e-02 1.716729e-01 -1.975833e-01 6.049509e-02 8.986734e-03 1.101516e-01 8.607054e-02 -1.010452e-02 1.010859e-01
<VARIANCE> 39
 5.316594e+00 1.278283e+01 2.216603e+01 1.594948e+01 3.308878e+01 1.347758e+01 2.277730e+01 2.007107e+01 2.137136e+01 1.847268e+01 1.401091e+01 1.071616e+01 5.497889e+00 3.599015e-01 8.630060e-01 1.624397e+00 1.473141e+00 1.617802e+00 1.463005e+00 1.413944e+00 1.464481e+00 1.470585e+00 1.173141e+00 1.163736e+00 9.072180e-01 2.288616e-01 4.770305e-02 1.163714e-01 2.016892e-01 2.324271e-01 2.729970e-01 2.326473e-01 2.773415e-01 2.935241e-01 2.278185e-01 2.005132e-01 1.642894e-01 1.940147e-01 3.656207e-02
<GCONST> 8.374184e+01
<STATE> 3
<MEAN> 39
 7.519775e+00 3.304086e+00 3.599411e+00 -3.639436e+00 -7.711242e+00 -6.213535e+00 2.072964e+00 -4.585758e+00 2.560846e+00 -3.258042e+00 -1.144323e+00 -3.861831e+00 6.389175e+01 -2.037765e-01 2.864406e-01 1.143773e-01 2.222373e-01 3.763207e-01 -9.227741e-02 1.361736e-01 -1.445140e-02 -4.032876e-02 2.181516e-02 6.173176e-02 9.991322e-02 -3.894487e-01 -9.840649e-02 -1.720009e-01 1.027147e-01 2.100423e-03 3.761045e-02 5.419788e-02 -1.193357e-01 6.862799e-02 9.899735e-03 -2.612456e-02 3.647061e-02 8.096449e-03 4.130132e-02
<VARIANCE> 39
 5.473270e+00 1.194812e+01 1.298761e+01 9.567417e+00 2.119930e+01 1.197492e+01 1.524940e+01 1.639403e+01 1.358703e+01 1.612179e+01 1.571089e+01 9.364700e+00 5.098565e+00 2.240092e-01 3.298932e-01 5.383763e-01 7.045512e-01 8.872976e-01 7.739620e-01 8.706807e-01 9.453821e-01 9.880769e-01 8.262007e-01 8.548194e-01 8.159872e-01 1.153151e-01 2.851563e-02 6.500094e-02 1.014524e-01 1.106434e-01 1.786941e-01 1.549283e-01 1.720277e-01 1.735917e-01 1.706442e-01 1.600430e-01 1.668049e-01 1.410744e-01 1.731677e-02
<GCONST> 6.759544e+01
<STATE> 4
<MEAN> 39
 3.287762e+00 2.175968e+00 4.538979e+00 -1.740372e+00 -4.316853e+00 -5.227950e+00 1.431616e+00 -4.968580e+00 2.936961e+00 -2.487859e+00 -7.585143e-02 -2.861500e+00 6.048765e+01 -6.553360e-01 -3.731407e-01 2.039914e-01 3.965543e-01 4.613685e-01 2.269864e-01 7.771163e-02 2.081996e-01 1.271693e-01 -1.709705e-01 4.410081e-02 2.326955e-01 -3.858071e-01 -7.693119e-02 -2.772893e-01 8.599805e-02 -1.689832e-01 -2.013842e-01 4.360407e-02 -8.098859e-02 1.040239e-01 5.651994e-02 -2.328991e-02 2.194769e-02 1.647296e-02 1.422287e-01
<VARIANCE> 39
 1.730703e+01 1.416322e+01 1.628556e+01 1.757563e+01 2.989545e+01 1.726578e+01 1.926765e+01 1.859606e+01 2.056411e+01 1.834984e+01 2.005229e+01 1.341068e+01 1.051781e+01 4.951843e-01 8.471170e-01 8.983562e-01 1.121971e+00 1.646917e+00 1.115215e+00 1.317179e+00 1.229949e+00 1.475163e+00 1.421432e+00 1.216746e+00 1.170934e+00 2.703892e-01 7.744276e-02 1.960153e-01 3.222861e-01 2.224940e-01 3.666708e-01 2.729978e-01 2.886876e-01 2.633110e-01 2.803350e-01 2.718817e-01 2.397569e-01 2.507914e-01 4.751578e-02
<GCONST> 8.872683e+01
<TRANSP> 5
 0.000000e+00 1.000000e+00 0.000000e+00 0.000000e+00 0.000000e+00
 0.000000e+00 5.920987e-01 4.079013e-01 0.000000e+00 0.000000e+00
 0.000000e+00 0.000000e+00 7.611681e-01 2.388318e-01 0.000000e+00
 0.000000e+00 0.000000e+00 0.000000e+00 5.688591e-01 4.311410e-01
 0.000000e+00 0.000000e+00 0.000000e+00 0.000000e+00 0.000000e+00
<ENDHMM>
~h "o"
<BEGINHMM>
<NUMSTATES> 5
<STATE> 2
<MEAN> 39
 7.990279e+00 -8.644737e+00 2.274893e+00 -1.475361e+01 -8.447618e+00 -7.057713e-01 -1.116206e+01 -7.638048e+00 7.741752e-01 5.263361e+00 6.859846e+00 -8.430378e+00 7.443354e+01 1.498349e+00 3.381996e-01 -1.362979e+00 -1.977378e+00 -1.206330e+00 2.315283e+00 1.935818e-01 -1.119393e+00 -1.222993e+00 6.749499e-01 1.987806e+00 3.170452e-01 6.413254e-01 -4.050275e-01 7.189578e-01 2.004109e-01 3.918961e-01 4.660519e-01 1.285343e-01 1.278352e+00 1.362747e-01 -2.985795e-01 -1.077698e+00 -5.698025e-01 6.433532e-01 -9.558398e-01
<VARIANCE> 39
 2.353875e+00 2.273743e+01 2.462835e+01 1.264006e+01 1.667666e+01 1.480116e+01 1.425600e+01 1.096974e+01 3.891891e+01 1.274755e+01 1.208599e+01 1.017512e+01 5.614003e+00 9.233363e-01 8.725532e-01 1.905227e+00 7.537671e-01 1.469513e+00 1.695362e+00 3.508746e+00 1.163587e+00 1.739197e+00 4.902468e+00 1.151219e+00 2.011985e+00 8.403141e-01 1.288189e-01 2.462505e-01 4.359263e-01 1.493229e-01 2.151327e-01 3.463037e-01 2.456994e-01 2.560164e-01 3.465018e-01 3.622695e-01 2.418957e-01 2.094026e-01 1.090063e-01
<GCONST> 9.115762e+01
<STATE> 3
<MEAN> 39
 9.696319e+00 -5.242344e+00 7.098227e-01 -2.080967e+01 -1.025137e+01 5.578803e+00 -4.513173e+00 -1.046459e+01 -4.529705e+00 1.529489e+00 7.743762e+00 -4.274218e+00 7.301001e+01 3.511520e-01 1.110438e+00 -5.370226e-01 -8.468099e-01 -1.612085e-01 8.186076e-01 1.233025e+00 3.440229e-02 -2.612381e-01 -1.062207e+00 -4.342575e-01 1.176436e+00 -5.761364e-01 -1.474236e-01 -3.939334e-02 1.060402e-01 3.025396e-01 1.737954e-01 -3.399427e-01 -1.941396e-01 2.497380e-01 3.236739e-01 -6.244169e-02 -3.182175e-01 -5.850196e-02 -7.958218e-02
<VARIANCE> 39
 1.984921e+00 1.334433e+01 1.415759e+01 1.949010e+01 1.420358e+01 1.460317e+01 1.453781e+01 1.317954e+01 3.395490e+01 1.879216e+01 1.010829e+01 1.693100e+01 4.926160e+00 1.100980e-01 2.750238e-01 4.264938e-01 8.276248e-01 8.532735e-01 9.673652e-01 1.147371e+00 1.140209e+00 1.132157e+00 1.193933e+00 7.024250e-01 7.398393e-01 6.608980e-02 3.368837e-02 6.902401e-02 1.045328e-01 9.591363e-02 1.401621e-01 1.585008e-01 2.343688e-01 1.703042e-01 1.635772e-01 3.071457e-01 2.066677e-01 1.621458e-01 3.297580e-02
<GCONST> 6.933477e+01
<STATE> 4
<MEAN> 39
 9.909964e+00 -9.940189e-01 -2.808246e+00 -1.621571e+01 -5.940895e+00 3.579687e+00 -5.734848e+00 -6.920002e+00 1.124390e+00 -6.264880e-01 4.216404e+00 -2.501654e+00 6.944715e+01 -1.761802e-01 1.707290e-01 3.649152e-02 1.250973e+00 4.487618e-01 -7.956941e-01 -2.161881e-01 1.874742e-01 6.388219e-01 1.598452e-01 -4.266125e-01 -4.270195e-01 -4.175716e-01 -4.214767e-02 6.001201e-04 9.113472e-02 1.538387e-01 -7.173137e-02 -1.289023e-01 1.019058e-01 -2.987156e-02 -3.318078e-02 3.828496e-02 -1.321473e-02 -5.206970e-02 -2.818448e-02
<VARIANCE> 39
 2.463148e+00 1.398414e+01 1.291532e+01 3.362324e+01 3.201354e+01 2.667088e+01 4.227757e+01 2.081914e+01 3.051595e+01 2.072445e+01 1.733985e+01 2.237145e+01 6.374515e+00 1.146986e-01 7.269050e-01 8.246450e-01 1.722331e+00 2.021092e+00 2.043875e+00 3.453552e+00 1.703554e+00 1.835521e+00 1.624709e+00 1.507101e+00 1.306676e+00 2.799666e-01 2.000815e-02 1.399392e-01 1.218545e-01 2.095760e-01 3.322842e-01 3.254335e-01 6.541126e-01 3.375227e-01 3.583477e-01 3.065491e-01 3.037539e-01 2.615926e-01 4.463585e-02
<GCONST> 8.950599e+01
<TRANSP> 5
 0.000000e+00 1.000000e+00 0.000000e+00 0.000000e+00 0.000000e+00
 0.000000e+00 5.962107e-01 4.037893e-01 0.000000e+00 0.000000e+00
 0.000000e+00 0.000000e+00 7.945452e-01 2.054548e-01 0.000000e+00
 0.000000e+00 0.000000e+00 0.000000e+00 9.123426e-01 8.765740e-02
 0.000000e+00 0.000000e+00 0.000000e+00 0.000000e+00 0.000000e+00
<ENDHMM>
~h "p"
<BEGINHMM>
<NUMSTATES> 5
<STATE> 2
<MEAN> 39
 -2.116952e+00 -3.517920e+00 -2.461565e-01 -4.372915e+00 -1.415027e+00 -7.627736e-01 5.329959e+00 -5.582005e-01 5.855592e+00 -1.629925e+00 6.143713e-01 -2.814803e+00 5.745449e+01 -4.476591e-01 8.988802e-02 2.900436e-01 2.745333e-01 1.393414e-01 1.258511e-01 2.660988e-01 3.224523e-02 7.005592e-02 5.017378e-02 9.108698e-02 1.802411e-01 -3.980756e-01 1.537757e-01 -2.009566e-01 -4.587135e-02 -8.748789e-02 -1.939215e-01 -9.072304e-02 -5.610507e-02 -1.306958e-01 -6.351095e-02 -5.312449e-02 -6.719604e-02 -8.599161e-02 3.458121e-01
<VARIANCE> 39
 1.096336e+01 8.760545e+00 2.628848e+01 1.490157e+01 1.678306e+01 2.431360e+01 1.995163e+01 1.952848e+01 2.085639e+01 1.614168e+01 1.322207e+01 1.579048e+01 6.180819e+00 2.328071e-01 6.094925e-01 5.967327e-01 6.754845e-01 7.534188e-01 9.966084e-01 1.437763e+00 1.266293e+00 1.229333e+00 1.386498e+00 1.126495e+00 1.184557e+00 2.803127e-01 1.071864e-01 1.082798e-01 1.686511e-01 2.061358e-01 2.010693e-01 2.266202e-01 3.158633e-01 2.684421e-01 2.626072e-01 3.240021e-01 2.696969e-01 2.571405e-01 1.586274e-01
<GCONST> 8.382687e+01
<STATE> 3
<MEAN> 39
 -4.105895e+00 -5.211068e+00 1.610252e+00 -2.112939e+00 -2.361473e+00 -3.369006e+00 3.922626e+00 -2.976762e+00 4.784017e+00 -1.462216e+00 7.240746e-01 -1.093934e+00 5.825034e+01 2.125072e+00 -1.509725e+00 -1.603516e+00 -1.941279e+00 -1.671769e+00 2.276330e-01 2.036843e-01 -9.786913e-01 -9.407131e-01 -2.683882e-01 1.224511e-01 -1.345539e+00 3.236673e+00 9.790375e-01 -4.421977e-01 -9.394692e-01 -9.490681e-01 -1.443200e-01 5.896794e-01 2.973238e-01 -1.404781e-01 -5.148249e-01 -1.662284e-01 2.856811e-01 -8.113381e-01 1.082783e+00
<VARIANCE> 39
 5.285128e+00 1.733909e+01 1.279557e+01 1.007412e+01 2.064220e+01 2.084389e+01 2.071680e+01 2.006089e+01 1.910702e+01 1.529327e+01 1.378508e+01 1.891881e+01 1.749093e+01 2.591101e+00 1.532739e+00 3.144035e+00 3.388280e+00 1.743880e+00 2.881114e+00 2.402179e+00 2.872852e+00 2.702025e+00 1.914543e+00 2.238245e+00 2.567642e+00 2.860831e+00 1.388071e-01 2.448498e-01 3.255031e-01 3.928123e-01 4.110569e-01 4.269581e-01 5.324091e-01 5.786081e-01 4.456508e-01 3.558409e-01 3.200286e-01 2.948852e-01 2.790269e-01
<GCONST> 1.051508e+02
<STATE> 4
<MEAN> 39
 7.604821e+00 -1.140160e+01 -7.849428e+00 -1.435352e+01 -7.146179e+00 1.975271e+00 7.129891e+00 -4.518074e+00 -2.097946e+00 -2.813627e+00 3.033831e+00 -9.248507e+00 7.227346e+01 2.654958e+00 -2.395594e+00 -2.866853e+00 -2.790839e+00 1.724819e-02 2.093213e+00 1.012491e+00 -2.674310e-01 -1.457506e+00 -5.374988e-02 7.767893e-01 -2.559637e+00 3.838328e+00 -8.082094e-01 1.323600e-01 3.936875e-01 9.169644e-01 7.899346e-01 -6.264327e-02 -1.281836e-01 1.544445e-01 5.101330e-01 1.616817e-01 -3.016902e-01 3.265398e-01 -8.021548e-01
<VARIANCE> 39
 1.244638e+01 3.049469e+01 2.355758e+01 3.191713e+01 1.616460e+01 2.784131e+01 1.646046e+01 3.222230e+01 4.865841e+01 1.136953e+01 1.595532e+01 1.244831e+01 1.937423e+01 2.820596e+00 1.919245e+00 5.071546e+00 5.166202e+00 2.425330e+00 2.275855e+00 3.456141e+00 5.304429e+00 3.595742e+00 1.943539e+00 1.861217e+00 1.681087e+00 2.234316e+00 3.227144e-01 3.580181e-01 4.857729e-01 6.001837e-01 3.936439e-01 5.827030e-01 4.068215e-01 4.713836e-01 3.674755e-01 2.513328e-01 3.384878e-01 3.351586e-01 3.230118e-01
<GCONST> 1.124503e+02
<TRANSP> 5
 0.000000e+00 1.000000e+00 0.000000e+00 0.000000e+00 0.000000e+00
 0.000000e+00 7.846039e-01 2.153961e-01 0.000000e+00 0.000000e+00
 0.000000e+00 0.000000e+00 6.510139e-01 3.489861e-01 0.000000e+00
 0.000000e+00 0.000000e+00 0.000000e+00 6.005126e-01 3.994874e-01
 0.000000e+00 0.000000e+00 0.000000e+00 0.000000e+00 0.000000e+00
<ENDHMM>
~h "r"
<BEGINHMM>
<NUMSTATES> 5
<STATE> 2
<MEAN> 39
 -1.472590e+01 -6.600107e+00 8.356646e+00 -9.037709e+00 -2.890296e+00 -1.621740e+00 -1.401165e+00 8.843706e-01 6.967371e+00 -3.652703e+00 1.422831e+00 -1.971453e+00 6.776971e+01 1.787285e+00 -7.562717e-01 2.857447e-02 1.928501e-01 -1.658612e+00 -1.181617e+00 -6.779898e-01 1.320055e-01 8.850575e-01 -6.648450e-01 -1.050914e+00 -3.043286e-01 1.642893e+00 1.852296e+00 -3.775330e-01 -7.588207e-01 2.933839e-01 -2.711392e-01 -3.764332e-01 -3.539246e-02 -4.054928e-02 1.625728e-03 -8.724397e-02 -2.889968e-01 -2.613665e-01 -2.454541e-02
<VARIANCE> 39
 3.191106e+01 1.662322e+01 1.719927e+01 1.495647e+01 2.890518e+01 2.784587e+01 1.825548e+01 2.737862e+01 2.510289e+01 2.049469e+01 2.333544e+01 2.117579e+01 8.057856e+00 1.728745e+01 1.483707e+00 3.809933e+00 1.875195e+00 2.215555e+00 3.619694e+00 2.208529e+00 1.873832e+00 2.391940e+00 1.956621e+00 2.526155e+00 1.862762e+00 1.226942e+00 1.169965e+00 2.853643e-01 6.915068e-01 5.082432e-01 6.012742e-01 6.709592e-01 4.801063e-01 4.429334e-01 4.488984e-01 3.742421e-01 5.012884e-01 3.511324e-01 2.883075e-01
<GCONST> 1.135850e+02
<STATE> 3
<MEAN> 39
 5.826344e+00 -1.509122e+01 3.818080e-01 -8.628328e+00 -9.238091e+00 -7.507153e+00 -5.626338e+00 2.710629e+00 9.601191e+00 -5.793716e+00 -3.504109e+00 -6.442734e+00 7.657901e+01 2.829359e+00 -2.349090e+00 -2.618859e+00 -2.621018e-01 5.936842e-01 6.125807e-01 2.325541e-01 4.599020e-01 4.569446e-02 6.647275e-02 -7.225740e-01 -1.571877e+00 1.635263e+00 -1.320089e+00 2.476739e-01 6.636425e-02 -7.255708e-02 7.830705e-01 8.590425e-01 6.497166e-01 -1.990067e-01 -3.681584e-01 2.222524e-01 2.376122e-01 3.134781e-02 -4.855909e-01
<VARIANCE> 39
 5.426055e+00 3.658617e+01 4.461541e+01 1.058921e+01 2.051402e+01 1.420916e+01 1.669617e+01 1.284758e+01 4.237093e+01 1.804220e+01 1.333212e+01 2.609147e+01 8.738706e+00 6.352054e+00 1.397034e+00 3.817441e+00 1.707534e+00 3.125705e+00 3.305125e+00 3.188760e+00 2.085415e+00 1.645263e+00 2.006642e+00 1.189912e+00 1.264586e+00 1.203058e+00 2.972260e-01 3.801459e-01 5.698302e-01 2.816519e-01 3.652018e-01 3.460400e-01 3.504006e-01 2.896730e-01 3.527695e-01 2.857414e-01 2.298084e-01 1.691712e-01 1.152902e-01
<GCONST> 1.028350e+02
<STATE> 4
<MEAN> 39
 8.514085e+00 -1.856261e+01 -8.603001e+00 -8.899832e+00 -2.681652e+00 3.775854e-01 1.927462e-02 8.987358e-01 5.614356e+00 -4.208510e+00 -5.451509e+00 -1.163816e+01 7.641278e+01 5.509812e-02 2.790385e-01 -1.361250e-01 1.688185e-01 -4.977603e-03 -5.991032e-02 5.722623e-02 -3.245302e-02 -3.095540e-02 9.401340e-02 -2.860532e-02 8.512492e-02 -3.229736e-01 -7.198508e-02 1.502224e-01 1.902852e-01 4.726216e-02 -8.542937e-02 -1.630558e-01 -8.773755e-02 -4.141515e-03 7.021049e-02 -3.284831e-02 7.121301e-02 1.500896e-01 -9.894980e-02
<VARIANCE> 39
 4.139413e+00 3.196078e+01 3.370327e+01 1.495938e+01 2.450412e+01 2.807741e+01 2.404003e+01 3.475882e+01 3.411172e+01 2.323353e+01 1.626670e+01 2.881042e+01 8.016566e+00 1.708020e-01 6.550858e-01 1.020797e+00 7.120704e-01 1.516187e+00 2.130457e+00 1.639337e+00 1.909421e+00 1.508969e+00 8.293120e-01 1.040987e+00 1.053228e+00 2.166449e-01 3.904912e-02 1.055807e-01 9.400963e-02 1.157198e-01 2.134311e-01 2.234761e-01 2.605885e-01 2.881507e-01 2.182416e-01 1.748839e-01 1.935663e-01 1.527448e-01 3.458940e-02
<GCONST> 8.374973e+01
<TRANSP> 5
 0.000000e+00 1.000000e+00 0.000000e+00 0.000000e+00 0.000000e+00
 0.000000e+00 7.773608e-01 2.226392e-01 0.000000e+00 0.000000e+00
 0.000000e+00 0.000000e+00 7.353384e-01 2.646616e-01 0.000000e+00
 0.000000e+00 0.000000e+00 0.000000e+00 9.388312e-01 6.116882e-02
 0.000000e+00 0.000000e+00 0.000000e+00 0.000000e+00 0.000000e+00
<ENDHMM>
~h "s"
<BEGINHMM>
<NUMSTATES> 5
<STATE> 2
<MEAN> 39
 -6.172153e+00 -6.369533e+00 1.392357e+00 -3.342238e+00 1.124248e+00 -6.762332e+00 3.202156e+00 1.031668e+00 5.016108e+00 -2.736822e+00 -1.047004e+00 -1.289424e+00 6.304815e+01 -2.124537e+00 1.641521e-01 3.198214e-01 -8.151560e-02 8.721861e-01 -1.069176e+00 6.551580e-01 6.299329e-01 -3.118032e-01 2.306597e-01 1.817872e-01 1.059825e-01 6.889817e-01 -1.220652e-01 2.045251e-01 -8.982545e-02 -1.201229e-01 -5.851963e-02 8.208029e-02 2.538648e-02 -2.379301e-02 -2.838527e-02 8.872629e-02 7.569465e-02 -2.480507e-03 7.943153e-02
<VARIANCE> 39
 2.460899e+01 1.554324e+01 2.165204e+01 2.170451e+01 1.996158e+01 3.573319e+01 3.491784e+01 2.271092e+01 2.676025e+01 2.064011e+01 2.468823e+01 2.176403e+01 1.977474e+01 1.738690e+00 1.538603e+00 1.164774e+00 1.582754e+00 1.752858e+00 2.159930e+00 2.492356e+00 2.011408e+00 2.361785e+00 1.999703e+00 2.096070e+00 1.827464e+00 7.432946e-01 2.547932e-01 2.399144e-01 2.036234e-01 2.671581e-01 3.503751e-01 5.277144e-01 4.662442e-01 3.835498e-01 4.367014e-01 3.498506e-01 3.947904e-01 3.720112e-01 1.261616e-01
<GCONST> 1.047627e+02
<STATE> 3
<MEAN> 39
 -1.528269e+01 -3.445589e+00 2.467509e-01 -4.039539e+00 3.866399e+00 -9.532336e+00 6.085627e+00 2.136012e+00 3.556629e+00 -4.575154e-01 -3.519724e-01 -4.607033e-01 6.622134e+01 -5.015072e-01 3.803462e-02 -2.040683e-01 -5.439560e-02 4.165121e-02 4.639157e-02 1.558341e-01 -3.750537e-02 3.833142e-02 2.495251e-01 -7.041554e-02 -4.663239e-02 4.307900e-02 5.870954e-01 -1.665741e-01 -5.902584e-02 -3.052102e-02 -1.861970e-01 1.474283e-01 -1.623414e-01 -1.695912e-01 7.434542e-02 -1.348617e-02 -1.696351e-01 -1.642571e-01 -4.824207e-02
<VARIANCE> 39
 1.761552e+01 1.750537e+01 1.320526e+01 1.450817e+01 1.645690e+01 1.610998e+01 2.681547e+01 2.160398e+01 2.553210e+01 1.815710e+01 1.621160e+01 1.875246e+01 5.551486e+00 1.793055e+00 1.284822e+00 7.767271e-01 9.786667e-01 1.326517e+00 1.264830e+00 1.442673e+00 1.406451e+00 1.596738e+00 1.448946e+00 1.445876e+00 1.398595e+00 3.208665e-01 2.399233e-01 1.623160e-01 1.564570e-01 2.317247e-01 2.351994e-01 2.784387e-01 3.228408e-01 3.007937e-01 3.215349e-01 3.076121e-01 2.931268e-01 3.255294e-01 7.847492e-02
<GCONST> 9.153900e+01
<STATE> 4
<MEAN> 39
 -5.686015e+00 -5.964225e+00 -2.695252e+00 -6.135422e+00 5.600623e-01 -7.810129e+00 3.823877e+00 -1.329038e+00 4.858566e+00 8.918530e-01 -4.689234e+00 -4.977024e+00 6.791036e+01 3.983946e+00 -1.010101e+00 -1.667506e+00 -1.279580e+00 -8.846608e-01 1.255800e+00 -1.082358e+00 -1.219076e+00 6.938091e-02 5.159740e-01 -1.291463e+00 -2.069416e+00 1.640398e+00 -1.060393e-03 -3.898409e-01 -1.955414e-01 -6.810691e-02 1.251441e-01 4.365633e-01 -4.247289e-03 6.879911e-02 -6.428416e-02 -1.151375e-01 2.394618e-01 -4.236114e-02 3.499033e-01
<VARIANCE> 39
 8.694177e+01 1.727200e+01 3.045213e+01 2.019319e+01 1.695923e+01 1.517974e+01 2.655885e+01 2.515608e+01 2.491401e+01 1.638239e+01 2.035486e+01 2.635328e+01 1.940693e+01 7.230402e+00 2.241147e+00 3.175452e+00 1.979123e+00 1.583848e+00 2.035667e+00 2.459983e+00 1.895179e+00 2.569122e+00 1.650745e+00 1.795430e+00 2.570260e+00 2.146468e+00 1.399707e+00 3.464745e-01 5.942731e-01 4.545080e-01 3.301537e-01 2.688813e-01 4.419628e-01 4.233556e-01 3.725215e-01 3.384215e-01 3.958129e-01 4.978070e-01 3.823120e-01
<GCONST> 1.130147e+02
<TRANSP> 5
 0.000000e+00 1.000000e+00 0.000000e+00 0.000000e+00 0.000000e+00
 0.000000e+00 7.230077e-01 2.769923e-01 0.000000e+00 0.000000e+00
 0.000000e+00 0.000000e+00 8.324458e-01 1.675542e-01 0.000000e+00
 0.000000e+00 0.000000e+00 0.000000e+00 5.940865e-01 4.059135e-01
 0.000000e+00 0.000000e+00 0.000000e+00 0.000000e+00 0.000000e+00
<ENDHMM>
~h "t"
<BEGINHMM>
<NUMSTATES> 5
<STATE> 2
<MEAN> 39
 3.765620e+00 -6.553158e+00 -5.853832e+00 -6.816853e+00 -1.292945e+00 -2.270056e+00 6.073871e-01 -2.381406e+00 7.823235e+00 5.281542e-02 -3.710654e+00 -6.171230e+00 6.380352e+01 -7.586539e-01 5.985478e-01 -2.971248e-02 -1.006879e-03 4.864236e-01 3.164836e-01 7.313294e-01 -1.383089e-01 1.831798e-01 -6.445829e-02 5.767353e-01 2.958840e-01 -1.295678e+00 -5.192342e-02 -2.896738e-01 1.627209e-02 -8.867203e-02 -9.470143e-02 6.803513e-02 9.085369e-02 1.388291e-01 -1.647254e-01 -1.052729e-01 -3.426555e-02 -6.956259e-02 2.113270e-01
<VARIANCE> 39
 1.941678e+01 1.587002e+01 2.454116e+01 1.672240e+01 2.402341e+01 2.611155e+01 2.296669e+01 1.890215e+01 2.027679e+01 2.102324e+01 2.093878e+01 2.090553e+01 2.154829e+01 4.134101e-01 9.821467e-01 9.004600e-01 1.140222e+00 1.884242e+00 1.589949e+00 1.726850e+00 1.678518e+00 1.666861e+00 1.788184e+00 1.597062e+00 1.535261e+00 8.304657e-01 7.395834e-02 1.752123e-01 1.662139e-01 2.351840e-01 4.230540e-01 3.828845e-01 3.623081e-01 3.289513e-01 3.331142e-01 3.779943e-01 3.159220e-01 3.353443e-01 1.101845e-01
<GCONST> 9.617850e+01
<STATE> 3
<MEAN> 39
 -9.513348e-01 -3.420932e+00 -2.912039e+00 -5.399958e+00 -2.907379e-01 -1.314739e+00 4.920593e+00 -1.494809e+00 5.751630e+00 -1.257831e+00 -9.288328e-01 -3.922102e+00 5.810791e+01 -6.113007e-01 -9.716258e-02 4.478074e-01 1.643472e-01 -9.217465e-02 2.351478e-02 3.491740e-01 2.282855e-01 -3.416184e-01 -3.478884e-01 2.722519e-01 4.123174e-01 -3.003966e-01 -3.572669e-02 -2.897923e-01 1.375362e-01 -6.250948e-02 -3.033744e-01 -3.449863e-01 -1.616050e-01 -1.240572e-01 -1.084909e-01 5.166344e-03 1.089349e-02 1.041868e-01 4.602577e-01
<VARIANCE> 39
 1.266040e+01 1.119085e+01 2.654596e+01 1.562826e+01 1.465723e+01 1.680710e+01 1.562789e+01 2.036193e+01 1.994587e+01 1.506674e+01 1.784575e+01 1.642955e+01 9.262542e+00 2.831273e-01 5.569686e-01 5.477374e-01 6.961989e-01 1.013975e+00 1.019653e+00 1.189430e+00 1.175162e+00 1.420452e+00 1.608227e+00 1.207855e+00 1.225963e+00 3.501384e-01 7.085212e-02 1.242596e-01 1.433318e-01 1.802375e-01 3.024967e-01 2.973059e-01 2.576607e-01 3.229815e-01 3.821529e-01 3.265563e-01 2.686031e-01 2.857898e-01 1.952291e-01
<GCONST> 8.570157e+01
<STATE> 4
<MEAN> 39
 -3.580734e+00 -4.569685e+00 -5.526071e-01 -3.881598e+00 -8.932624e-01 -2.662254e+00 4.704685e+00 -1.601669e+00 5.136698e+00 -1.667750e+00 5.959113e-01 -1.249607e+00 5.785541e+01 -5.373353e-01 -1.576400e+00 7.842351e-01 -4.969576e-01 -1.857210e+00 -1.617618e+00 -2.687489e-01 -4.907360e-01 -9.654881e-01 -3.222042e-01 2.678930e-01 4.370330e-01 2.291934e+00 2.968836e-01 -4.292999e-02 6.327422e-01 -1.014187e-01 -7.741958e-01 -3.348431e-01 -3.372853e-01 -2.223990e-01 -2.814263e-01 4.311157e-02 -7.838923e-02 -3.713799e-01 7.299316e-01
<VARIANCE> 39
 1.241108e+01 1.441452e+01 2.507824e+01 1.720336e+01 1.652368e+01 1.615668e+01 1.419846e+01 1.788831e+01 2.398865e+01 1.337023e+01 2.210792e+01 1.557141e+01 1.551612e+01 8.541985e-01 1.671113e+00 1.523116e+00 1.495599e+00 2.957320e+00 3.196880e+00 1.622886e+00 3.157641e+00 2.821393e+00 2.067572e+00 1.764211e+00 2.178122e+00 3.290506e+00 1.976476e-01 2.524937e-01 5.067545e-01 1.931752e-01 6.570194e-01 4.438687e-01 3.338971e-01 3.585603e-01 3.969447e-01 2.906818e-01 2.915086e-01 3.909965e-01 4.489869e-01
<GCONST> 1.039616e+02
<TRANSP> 5
 0.000000e+00 1.000000e+00 0.000000e+00 0.000000e+00 0.000000e+00
 0.000000e+00 7.454718e-01 2.545282e-01 0.000000e+00 0.000000e+00
 0.000000e+00 0.000000e+00 5.856304e-01 4.143696e-01 0.000000e+00
 0.000000e+00 0.000000e+00 0.000000e+00 4.872166e-01 5.127833e-01
 0.000000e+00 0.000000e+00 0.000000e+00 0.000000e+00 0.000000e+00
<ENDHMM>
~h "y"
<BEGINHMM>
<NUMSTATES> 5
<STATE> 2
<MEAN> 39
 8.703973e+00 4.153651e+00 3.539342e+00 -4.024766e+00 -8.258855e+00 -7.787533e+00 3.104856e+00 -3.353914e+00 1.398329e+00 -4.725016e+00 6.147772e-01 -3.814666e+00 6.416216e+01 -8.032964e-01 -1.851456e+00 2.828917e+00 -7.898709e-01 -2.018959e+00 8.952209e-01 -2.766290e-01 6.039225e-01 -2.994471e-01 -1.647210e-01 5.360817e-01 1.191607e-01 8.227292e-01 -3.137479e-01 -9.377108e-01 1.115722e+00 -3.305185e-01 -1.051093e+00 3.294908e-01 -4.448235e-02 1.608835e-01 -2.096204e-01 1.551324e-01 2.825271e-01 -4.693468e-02 5.343614e-01
<VARIANCE> 39
 3.432800e+00 1.273911e+01 1.060426e+01 7.845144e+00 5.225709e+00 1.382746e+01 1.111068e+01 1.964008e+01 1.356443e+01 1.483263e+01 1.260025e+01 9.242691e+00 4.818112e+00 1.361522e-01 8.468366e-01 8.738666e-01 1.245990e+00 1.111831e+00 1.282072e+00 1.063766e+00 1.442899e+00 1.262516e+00 9.625946e-01 8.818984e-01 8.499369e-01 2.032280e-01 5.039310e-02 9.149194e-02 2.524374e-01 1.881863e-01 1.638309e-01 3.175847e-01 2.088607e-01 2.765518e-01 2.093982e-01 1.836246e-01 1.651960e-01 1.640355e-01 2.033792e-02
<GCONST> 7.320182e+01
<STATE> 3
<MEAN> 39
 7.618855e+00 1.476168e+00 7.207673e+00 -5.158842e+00 -1.084482e+01 -6.135563e+00 2.211874e+00 -2.679208e+00 6.306295e-01 -4.972280e+00 1.248181e+00 -3.381632e+00 6.547916e+01 -1.240839e+00 -3.102973e+00 4.350513e+00 -1.472265e+00 -3.460963e+00 1.304112e+00 -3.731586e-01 8.235463e-01 -6.960384e-01 2.437932e-01 1.036623e+00 -7.995144e-02 1.623666e+00 -8.056416e-02 -5.546011e-01 2.778805e-01 -5.561500e-02 -6.272466e-01 -3.156464e-02 1.084370e-01 1.886378e-01 -1.709949e-01 2.179034e-01 1.571071e-01 -1.657817e-01 3.664802e-01
<VARIANCE> 39
 6.999863e+00 2.569651e+01 2.626506e+01 1.595579e+01 1.215936e+01 1.793812e+01 1.570511e+01 1.745139e+01 1.364812e+01 1.692437e+01 1.127914e+01 7.903843e+00 6.441689e+00 2.835379e-01 8.165207e-01 1.522188e+00 2.408458e+00 1.280888e+00 2.501498e+00 1.566261e+00 2.125046e+00 1.800538e+00 1.478204e+00 1.230011e+00 9.748084e-01 1.912676e-01 9.507322e-02 1.835614e-01 4.764230e-01 1.979317e-01 3.306329e-01 2.789780e-01 2.663257e-01 2.984686e-01 1.602724e-01 1.826925e-01 1.864103e-01 1.417543e-01 5.163547e-02
<GCONST> 8.595779e+01
<STATE> 4
<MEAN> 39
 5.616951e+00 -1.079849e+01 1.064314e+01 -5.819716e+00 -1.803381e+01 -4.686579e+00 1.703797e-01 2.996832e+00 6.348653e-01 -4.652911e+00 1.029756e+00 -5.390222e+00 7.214217e+01 -8.632203e-02 -7.232518e-01 -6.424519e-01 2.604599e-01 3.199058e-01 -7.507965e-03 -3.996507e-01 4.821301e-01 3.810421e-01 -7.928722e-02 -5.370171e-01 -1.297938e-01 2.746367e-01 1.487720e-02 3.977483e-01 -3.029010e-01 1.466396e-01 4.469426e-01 -7.946718e-02 3.635214e-02 -1.406979e-01 1.061880e-01 9.444542e-05 -1.051850e-01 5.477314e-02 -2.558692e-01
<VARIANCE> 39
 3.381108e+00 3.572820e+01 7.022311e+01 2.379015e+01 3.977741e+01 2.405079e+01 3.421716e+01 2.640408e+01 4.154473e+01 1.911062e+01 2.259875e+01 1.221597e+01 1.282985e+01 4.712816e-01 2.955749e+00 5.400115e+00 1.842247e+00 5.297114e+00 1.601661e+00 2.062589e+00 2.503083e+00 1.889279e+00 1.672472e+00 1.694868e+00 9.349576e-01 1.027166e+00 1.172572e-01 1.381701e-01 1.022253e+00 3.852034e-01 5.826104e-01 3.370794e-01 4.188497e-01 3.667572e-01 3.194432e-01 3.137946e-01 2.903482e-01 1.824008e-01 3.993785e-02
<GCONST> 1.034432e+02
<TRANSP> 5
 0.000000e+00 1.000000e+00 0.000000e+00 0.000000e+00 0.000000e+00
 0.000000e+00 1.447874e-02 9.855213e-01 0.000000e+00 0.000000e+00
 0.000000e+00 0.000000e+00 1.340148e-01 8.659852e-01 0.000000e+00
 0.000000e+00 0.000000e+00 0.000000e+00 9.081408e-01 9.185921e-02
 0.000000e+00 0.000000e+00 0.000000e+00 0.000000e+00 0.000000e+00
<ENDHMM>
~h "aa"
<BEGINHMM>
<NUMSTATES> 5
<STATE> 2
<MEAN> 39
 1.614120e+00 -9.738598e+00 -4.579607e+00 -7.612087e+00 -3.466330e-01 1.031214e+00 4.689489e+00 -5.138391e+00 1.859516e+00 -2.262371e+00 -5.241286e-01 -7.303869e+00 6.639666e+01 1.205478e+00 -2.064084e+00 -1.466040e+00 -1.350887e+00 4.027593e-01 1.577917e+00 -8.886241e-02 -7.079796e-01 -4.202894e-01 -1.613867e-01 -1.012937e-01 -1.706869e+00 2.439118e+00 -2.251125e-01 -3.124315e-02 2.127930e-01 6.679279e-02 7.561861e-02 7.267287e-02 -5.461850e-02 1.048245e-01 1.330916e-01 -2.366807e-04 2.706153e-02 5.996762e-02 1.094861e-01
<VARIANCE> 39
 3.941181e+01 4.278069e+01 4.790434e+01 3.740494e+01 2.237195e+01 2.723366e+01 3.239700e+01 3.534145e+01 3.773178e+01 2.032709e+01 2.447112e+01 4.378708e+01 8.101661e+01 2.695729e+00 2.968097e+00 3.117519e+00 2.733947e+00 1.916503e+00 2.881629e+00 2.404821e+00 3.302236e+00 2.622941e+00 1.868509e+00 1.593373e+00 3.584209e+00 4.511747e+00 6.944997e-01 6.615849e-01 6.646598e-01 6.117952e-01 3.249817e-01 4.785810e-01 4.629351e-01 5.225127e-01 4.131571e-01 3.406219e-01 3.426611e-01 8.033498e-01 1.087651e+00
<GCONST> 1.227849e+02
<STATE> 3
<MEAN> 39
 5.847506e+00 -1.422357e+01 -7.664802e+00 -1.071051e+01 1.998677e-01 4.993323e+00 4.188959e+00 -6.605941e+00 7.364966e-01 -2.685575e+00 -8.908635e-01 -1.114988e+01 7.304385e+01 1.269237e-01 -1.065387e+00 -2.103910e-01 -5.162192e-01 1.031109e-01 9.860084e-01 -4.148214e-01 3.412493e-02 6.044307e-02 -5.880519e-02 1.675184e-01 -4.722028e-01 1.191720e+00 -4.327360e-01 4.481855e-01 4.578663e-01 4.051787e-01 -9.147391e-02 -4.042364e-01 -5.278833e-02 2.176026e-01 1.474296e-01 2.815095e-02 -3.501851e-02 4.173819e-01 -5.100622e-01
<VARIANCE> 39
 2.379889e+01 4.301259e+01 4.614311e+01 2.667049e+01 1.791570e+01 2.693653e+01 3.929935e+01 5.108964e+01 4.533033e+01 1.809900e+01 2.301962e+01 2.948853e+01 4.480043e+01 2.073132e+00 2.350738e+00 1.868475e+00 2.098578e+00 1.636200e+00 1.587940e+00 1.930387e+00 2.336761e+00 1.446222e+00 1.142980e+00 1.224871e+00 1.128790e+00 1.658195e+00 1.932355e-01 4.317583e-01 3.390045e-01 3.555634e-01 2.396648e-01 2.592776e-01 3.671352e-01 3.792783e-01 3.238683e-01 2.319687e-01 2.010869e-01 4.045713e-01 5.460930e-01
<GCONST> 1.082319e+02
<STATE> 4
<MEAN> 39
 7.753407e+00 -1.589756e+01 -8.565283e+00 -1.101361e+01 -7.945807e-01 3.477489e+00 1.431942e+00 -2.806731e+00 1.598500e+00 -1.332860e+00 -4.030667e+00 -1.167809e+01 7.422932e+01 -1.566227e-01 3.859249e-01 2.785150e-01 3.285569e-01 -1.289982e-01 -5.249429e-01 -3.958016e-01 3.093087e-01 3.822465e-01 5.051637e-02 -2.013605e-01 3.045065e-01 -3.212969e-01 -5.958825e-02 2.200745e-01 7.011469e-02 8.847556e-02 -1.643645e-03 -1.311402e-01 3.764152e-02 -4.856026e-02 2.352532e-02 9.361183e-03 3.906012e-02 1.072511e-01 -1.677956e-01
<VARIANCE> 39
 1.502669e+01 4.281364e+01 3.200232e+01 2.419261e+01 2.059914e+01 3.275844e+01 3.317038e+01 4.516142e+01 3.545568e+01 1.626282e+01 2.412523e+01 1.785014e+01 2.247094e+01 8.448027e-01 1.592831e+00 9.276264e-01 1.223559e+00 1.380097e+00 1.921297e+00 1.650653e+00 1.788331e+00 1.317520e+00 1.156388e+00 1.284055e+00 1.075042e+00 9.776164e-01 6.141477e-02 1.974261e-01 1.512947e-01 1.863068e-01 2.773817e-01 3.118246e-01 2.968417e-01 3.218578e-01 2.280766e-01 2.381908e-01 2.425005e-01 1.856512e-01 8.863888e-02
<GCONST> 9.614477e+01
<TRANSP> 5
 0.000000e+00 1.000000e+00 0.000000e+00 0.000000e+00 0.000000e+00
 0.000000e+00 4.468986e-01 5.531014e-01 0.000000e+00 0.000000e+00
 0.000000e+00 0.000000e+00 4.154881e-01 5.845119e-01 0.000000e+00
 0.000000e+00 0.000000e+00 0.000000e+00 8.460665e-01 1.539335e-01
 0.000000e+00 0.000000e+00 0.000000e+00 0.000000e+00 0.000000e+00
<ENDHMM>
~h "cx"
<BEGINHMM>
<NUMSTATES> 5
<STATE> 2
<MEAN> 39
 -1.424212e+00 -3.071918e+00 2.844583e+00 -2.434534e+00 -2.135887e+00 -3.778024e+00 4.349915e+00 -6.547033e-01 4.724300e+00 -2.803397e+00 1.109279e-01 -1.210224e+00 5.920879e+01 -4.585197e-01 1.734930e-01 -1.990339e-02 3.004864e-01 2.585148e-01 5.338954e-02 1.641938e-01 -2.325963e-01 -8.335580e-02 -1.099122e-01 1.466683e-01 -8.207791e-03 -7.189244e-01 -1.952181e-03 -1.184977e-01 -3.476633e-02 -1.314508e-01 -1.191114e-01 -6.980684e-03 -1.021548e-01 -5.436056e-03 -1.950812e-02 5.698592e-02 9.707329e-02 2.237043e-02 1.134598e-01
<VARIANCE> 39
 1.508856e+01 3.096131e+01 2.415298e+01 1.375892e+01 1.958517e+01 1.662829e+01 1.740976e+01 2.884762e+01 2.271223e+01 1.639829e+01 2.312324e+01 1.644408e+01 1.117362e+01 5.763326e-01 8.614740e-01 6.640112e-01 8.422632e-01 1.200668e+00 1.284555e+00 1.568806e+00 1.517180e+00 1.961304e+00 2.132269e+00 1.959162e+00 1.076807e+00 3.177650e-01 6.772771e-02 1.489529e-01 1.374892e-01 2.064189e-01 2.424077e-01 2.706161e-01 3.054577e-01 3.194807e-01 4.081879e-01 4.259513e-01 3.463122e-01 2.988460e-01 3.845521e-02
<GCONST> 9.047379e+01
<STATE> 3
<MEAN> 39
 -2.418057e+00 -2.300002e+00 2.495906e+00 -1.733872e+00 -4.512302e-01 -3.737226e+00 2.908319e+00 -2.181956e+00 3.769325e+00 -2.678949e+00 4.190043e-01 -1.816163e+00 5.794793e+01 -4.898763e-01 -1.657463e-01 -3.348451e-01 -1.062020e-01 7.327961e-02 2.030079e-01 6.123843e-02 -3.021556e-01 6.454137e-02 3.144624e-01 4.158789e-01 1.931583e-01 -5.819812e-01 -1.452019e-01 -4.379352e-01 1.288074e-01 -5.021134e-01 -2.492806e-01 1.251937e-01 -2.522560e-01 1.715521e-01 8.646498e-02 3.964044e-02 3.155767e-02 2.886265e-02 4.617771e-01
<VARIANCE> 39
 1.732286e+01 1.417569e+01 2.724007e+01 1.270188e+01 2.163034e+01 1.686371e+01 1.693916e+01 2.728069e+01 1.884719e+01 1.979111e+01 2.114939e+01 1.619306e+01 1.093624e+01 7.029780e-01 1.063146e+00 9.089705e-01 1.001433e+00 1.452210e+00 1.086248e+00 1.148935e+00 1.733140e+00 1.795708e+00 1.904269e+00 1.038153e+00 1.478782e+00 4.243323e-01 5.168736e-02 1.127378e-01 1.379025e-01 1.920525e-01 3.191579e-01 2.328974e-01 2.993102e-01 3.344207e-01 2.785614e-01 4.402017e-01 2.113666e-01 2.175220e-01 5.866554e-02
<GCONST> 8.908101e+01
<STATE> 4
<MEAN> 39
 -3.449222e+00 -2.432220e+00 2.357790e+00 -2.033598e+00 -7.719810e-01 -3.920084e+00 3.611643e+00 -1.990604e+00 4.365683e+00 -1.611296e+00 1.561164e+00 -1.532850e+00 5.710789e+01 -5.854750e-01 -1.057172e+00 6.124947e-02 -1.043089e+00 -4.392160e-01 6.596557e-01 -2.461316e-01 -9.596571e-04 1.286302e-01 9.398147e-02 3.341996e-01 2.925732e-01 2.030156e-01 -4.940705e-01 -3.344524e-01 3.414363e-01 -6.238829e-01 -5.737615e-02 2.296855e-01 -4.501311e-01 2.713103e-01 4.869584e-03 -1.796435e-01 2.131313e-02 -1.066185e-01 8.084696e-01
<VARIANCE> 39
 1.147195e+01 1.071023e+01 2.428403e+01 1.324050e+01 2.032376e+01 1.714451e+01 2.180131e+01 2.737158e+01 1.747976e+01 1.565771e+01 2.156307e+01 1.415175e+01 7.425379e+00 5.446535e-01 2.055706e+00 9.483593e-01 1.615980e+00 1.453653e+00 1.523870e+00 1.172824e+00 1.308030e+00 1.317934e+00 9.738597e-01 6.417818e-01 1.170669e+00 9.197706e-01 1.131479e-01 1.672413e-01 2.286658e-01 2.305131e-01 4.053026e-01 2.915330e-01 4.189227e-01 5.890930e-01 3.376664e-01 3.424218e-01 2.977681e-01 2.733527e-01 7.987552e-02
<GCONST> 9.184889e+01
<TRANSP> 5
 0.000000e+00 1.000000e+00 0.000000e+00 0.000000e+00 0.000000e+00
 0.000000e+00 6.446068e-01 3.553932e-01 0.000000e+00 0.000000e+00
 0.000000e+00 0.000000e+00 1.326926e-01 8.673074e-01 0.000000e+00
 0.000000e+00 0.000000e+00 0.000000e+00 1.007943e-01 8.992057e-01
 0.000000e+00 0.000000e+00 0.000000e+00 0.000000e+00 0.000000e+00
<ENDHMM>
~h "ee"
<BEGINHMM>
<NUMSTATES> 5
<STATE> 2
<MEAN> 39
 -1.401236e+00 -3.010154e+00 4.801532e-01 -4.348010e+00 -2.719223e+00 -3.600930e+00 3.299956e+00 -1.083334e+00 6.444924e+00 -1.426027e+00 -6.024377e-01 -2.196707e+00 5.836558e+01 -4.892020e-01 1.486676e-01 3.535509e-01 3.285912e-01 4.730633e-01 3.427741e-01 2.440293e-01 1.573157e-02 -1.079964e-01 -7.967748e-03 2.231280e-01 -9.178670e-02 -5.507901e-01 3.794198e-02 -9.829015e-02 7.176913e-02 -6.086683e-03 -1.031624e-01 -6.200438e-02 1.213556e-02 3.897392e-02 -7.705785e-02 -4.296027e-02 -4.530971e-02 -4.104711e-02 1.668488e-01
<VARIANCE> 39
 9.971098e+00 2.657134e+01 2.586116e+01 1.370920e+01 2.343664e+01 3.282614e+01 2.047640e+01 2.713960e+01 3.230280e+01 1.936414e+01 1.807540e+01 1.316672e+01 9.298508e+00 1.868773e-01 4.675186e-01 6.184292e-01 7.320790e-01 1.324564e+00 1.546523e+00 1.376827e+00 1.443836e+00 1.707334e+00 1.675272e+00 1.475637e+00 1.422166e+00 2.490893e-01 3.616001e-02 6.366485e-02 1.250764e-01 1.294823e-01 2.659194e-01 3.024702e-01 2.943279e-01 2.903723e-01 3.037857e-01 3.825437e-01 2.927113e-01 3.424602e-01 3.811705e-02
<GCONST> 8.591377e+01
<STATE> 3
<MEAN> 39
 -3.255142e+00 -4.657902e+00 2.128817e+00 -4.191544e+00 -3.301972e+00 -3.128384e+00 3.487236e+00 -1.604912e+00 4.212751e+00 -1.742533e+00 1.288234e+00 -2.003620e+00 5.818644e+01 -3.654421e-01 -2.162574e-01 6.682374e-01 1.638473e-01 -4.406942e-01 -4.091350e-02 3.377162e-01 -7.367572e-02 -1.417984e-01 2.941258e-01 1.260313e-01 -2.144041e-01 -1.816415e-01 2.137116e-01 -3.091201e-01 6.398101e-01 -2.971137e-01 -6.543637e-01 -2.111332e-01 -2.655690e-01 1.040339e-01 -4.563679e-01 -5.865372e-02 6.187929e-03 -2.322172e-01 5.420682e-01
<VARIANCE> 39
 1.192357e+01 2.649503e+01 2.750075e+01 1.505189e+01 3.102646e+01 2.864408e+01 1.944287e+01 2.607622e+01 3.104105e+01 2.592265e+01 2.078296e+01 1.440367e+01 1.312330e+01 1.829431e-01 1.089506e+00 1.764468e+00 8.363692e-01 2.634330e+00 2.666666e+00 1.496060e+00 1.772898e+00 1.883755e+00 2.118803e+00 1.549603e+00 1.900685e+00 6.774567e-01 4.878625e-02 1.569615e-01 3.590333e-01 1.885825e-01 4.967583e-01 4.189492e-01 3.511924e-01 2.906158e-01 4.812315e-01 5.208812e-01 3.236872e-01 2.712989e-01 1.420426e-01
<GCONST> 9.803501e+01
<STATE> 4
<MEAN> 39
 -1.815085e-01 -7.711596e+00 9.571640e+00 -5.994861e+00 -1.221229e+01 -7.212901e+00 2.235434e+00 -1.483963e+00 -1.642972e+00 -1.792583e+00 1.976812e+00 -5.813429e+00 6.378943e+01 2.990371e-01 -2.751141e-01 9.850836e-01 -1.383164e-01 -8.162460e-01 -5.074493e-02 -1.433900e-02 -3.547181e-02 -4.811510e-01 -1.224479e-01 1.430391e-01 -2.192192e-01 5.036982e-01 1.765026e-01 -2.943625e-01 5.332421e-01 -3.063106e-01 -4.253289e-01 -6.564742e-02 -4.478161e-01 1.366078e-01 -2.529199e-01 4.710480e-02 1.497019e-01 -7.300771e-02 5.232541e-01
<VARIANCE> 39
 1.706711e+01 2.548191e+01 6.746146e+01 1.292029e+01 8.020479e+01 2.903530e+01 1.913612e+01 1.497797e+01 4.917740e+01 1.334448e+01 1.360683e+01 1.946572e+01 4.055222e+01 4.644628e-01 1.017133e+00 1.512067e+00 9.151443e-01 1.595443e+00 1.276082e+00 1.478827e+00 1.186670e+00 1.523809e+00 1.282394e+00 8.045791e-01 1.131873e+00 5.637205e-01 1.225709e-01 3.071139e-01 9.019367e-01 2.850199e-01 8.518462e-01 3.126384e-01 4.653811e-01 2.390555e-01 4.561850e-01 2.598149e-01 2.650517e-01 2.765048e-01 4.320889e-01
<GCONST> 1.008116e+02
<TRANSP> 5
 0.000000e+00 1.000000e+00 0.000000e+00 0.000000e+00 0.000000e+00
 0.000000e+00 7.325523e-01 2.674477e-01 0.000000e+00 0.000000e+00
 0.000000e+00 0.000000e+00 2.084633e-01 7.915367e-01 0.000000e+00
 0.000000e+00 0.000000e+00 0.000000e+00 5.543717e-01 4.456283e-01
 0.000000e+00 0.000000e+00 0.000000e+00 0.000000e+00 0.000000e+00
<ENDHMM>
~h "ii"
<BEGINHMM>
<NUMSTATES> 5
<STATE> 2
<MEAN> 39
 -1.846175e+00 -8.742775e+00 1.155267e+01 -5.421079e+00 -1.486252e+01 -8.768042e+00 3.183495e-01 -5.881186e+00 -3.418760e+00 -2.748044e+00 2.616116e+00 -4.701170e+00 7.057796e+01 2.086658e+00 -2.155096e-01 4.402036e+00 -1.067390e+00 -4.157246e+00 9.226605e-03 -2.707869e+00 -7.350146e-01 -1.623565e+00 6.878309e-01 -3.595182e-01 -2.639912e+00 2.767834e+00 1.462431e-01 3.821394e-01 7.304234e-02 3.130788e-03 4.862818e-01 7.437463e-01 -3.048511e-01 1.724102e-01 2.762534e-01 2.980592e-01 -1.968309e-01 -1.960409e-01 -8.069035e-01
<VARIANCE> 39
 2.192278e+01 2.395991e+01 6.627479e+01 1.485431e+01 5.352528e+01 1.800235e+01 4.018562e+01 1.900697e+01 2.750508e+01 1.716360e+01 1.342046e+01 3.551379e+01 1.525465e+01 9.529090e-01 1.329974e+00 2.484381e+00 1.299870e+00 2.819403e+00 3.870413e+00 3.397676e+00 2.058176e+00 2.103093e+00 2.132973e+00 2.622404e+00 2.035858e+00 2.641637e+00 4.913794e-01 2.358283e-01 1.422787e+00 2.181993e-01 1.069334e+00 4.895866e-01 8.048631e-01 4.483812e-01 3.626065e-01 3.678386e-01 3.692097e-01 7.094026e-01 2.717877e-01
<GCONST> 1.136340e+02
<STATE> 3
<MEAN> 39
 2.530852e+00 -8.959123e+00 2.363816e+01 -1.047587e+01 -2.206567e+01 -3.200752e+00 -8.903738e+00 -6.107657e+00 -6.415947e+00 9.139433e-01 -3.047871e-01 -1.347945e+01 7.412128e+01 2.009966e-01 4.410082e-01 3.760997e-01 -4.222912e-01 1.256453e-01 8.082681e-01 -1.001121e-01 -1.864309e-01 2.861444e-01 4.059140e-01 -6.877278e-01 -3.625907e-01 -2.707641e-01 -2.696337e-01 1.926985e-01 -7.371526e-01 1.990533e-01 6.008950e-01 -2.129485e-01 7.482533e-01 6.647885e-03 3.466988e-01 -1.900003e-01 3.262287e-02 5.463398e-01 -3.354512e-01
<VARIANCE> 39
 5.383792e+00 1.157032e+01 1.656326e+01 1.927456e+01 1.861617e+01 8.484149e+00 3.869013e+01 1.450951e+01 3.334914e+01 1.877875e+01 3.161348e+01 2.268209e+01 6.147221e+00 3.062703e-01 5.425282e-01 1.102395e+00 6.807343e-01 1.097432e+00 8.161390e-01 1.804470e+00 6.633981e-01 1.013017e+00 6.947769e-01 9.832504e-01 8.174390e-01 3.551131e-01 1.312410e-01 9.376717e-02 4.256719e-01 1.550276e-01 5.087100e-01 1.661726e-01 4.049312e-01 1.625315e-01 2.501453e-01 1.457341e-01 2.512496e-01 1.978557e-01 1.019803e-01
<GCONST> 8.327772e+01
<STATE> 4
<MEAN> 39
 4.395130e+00 -2.639163e+00 1.874267e+01 -1.115443e+01 -1.876143e+01 -1.972875e+00 -2.694696e+00 -5.710825e+00 -2.107732e+00 1.713915e-01 -1.073864e+00 -9.101741e+00 6.961211e+01 2.902827e-01 6.627623e-01 -1.064546e+00 -4.295595e-04 6.483857e-01 -4.606767e-02 6.242954e-01 2.982266e-01 3.042516e-01 -3.058945e-01 1.989507e-01 5.038342e-01 -5.128398e-01 2.068118e-02 3.589355e-03 -1.665969e-01 1.387067e-01 8.600360e-02 -1.038722e-01 -2.602870e-02 -9.013797e-03 -3.811656e-03 -4.840130e-02 3.028166e-02 2.848568e-02 -2.353097e-02
<VARIANCE> 39
 3.785619e+00 2.602207e+01 2.800952e+01 2.657710e+01 2.229372e+01 2.103167e+01 3.980141e+01 1.940477e+01 2.520578e+01 1.886902e+01 2.418543e+01 1.793709e+01 6.680684e+00 2.514710e-01 7.415003e-01 1.814483e+00 2.158224e+00 1.950298e+00 1.858320e+00 1.223211e+00 1.511289e+00 1.314276e+00 1.140962e+00 1.053410e+00 9.368929e-01 2.434272e-01 3.614551e-02 1.130332e-01 1.877229e-01 3.350421e-01 3.256189e-01 3.327570e-01 2.247524e-01 3.091312e-01 2.368121e-01 1.964498e-01 2.095013e-01 1.762099e-01 3.846623e-02
<GCONST> 8.760229e+01
<TRANSP> 5
 0.000000e+00 1.000000e+00 0.000000e+00 0.000000e+00 0.000000e+00
 0.000000e+00 7.398563e-01 2.601437e-01 0.000000e+00 0.000000e+00
 0.000000e+00 0.000000e+00 7.467673e-01 2.532327e-01 0.000000e+00
 0.000000e+00 0.000000e+00 0.000000e+00 9.103308e-01 8.966919e-02
 0.000000e+00 0.000000e+00 0.000000e+00 0.000000e+00 0.000000e+00
<ENDHMM>
~h "sh"
<BEGINHMM>
<NUMSTATES> 5
<STATE> 2
<MEAN> 39
 -2.831314e+00 -7.275922e+00 5.241290e+00 -1.810406e+00 -3.707319e+00 -3.148039e+00 1.016257e-01 -2.436466e+00 4.591784e+00 -4.030702e+00 -1.253025e+00 -2.130772e+00 6.369661e+01 -1.706002e+00 -1.000600e+00 8.388069e-01 8.561178e-01 -7.813662e-02 1.502119e-01 4.355435e-01 -1.812983e-01 1.257755e+00 1.106140e-01 8.951227e-02 -3.454759e-02 3.433246e-01 -2.648333e-01 -1.946455e-01 -1.232642e-01 -1.102369e-01 -2.519720e-01 -2.098982e-01 4.007734e-02 1.398731e-01 2.782677e-01 1.618378e-01 6.706686e-02 5.633647e-02 2.606592e-01
<VARIANCE> 39
 4.115394e+01 2.788978e+01 3.462868e+01 2.140785e+01 2.488900e+01 3.082782e+01 2.936450e+01 4.245259e+01 2.223970e+01 2.335334e+01 2.564935e+01 1.930285e+01 2.308783e+01 1.879906e+00 2.028566e+00 1.462141e+00 2.755667e+00 1.690804e+00 3.021076e+00 2.252990e+00 2.317137e+00 3.152040e+00 1.913313e+00 1.695200e+00 1.649112e+00 5.923078e-01 2.660664e-01 2.878492e-01 2.622586e-01 3.319247e-01 2.602930e-01 4.665394e-01 5.596350e-01 4.775508e-01 5.729403e-01 3.553543e-01 3.411925e-01 3.812470e-01 9.621990e-02
<GCONST> 1.086048e+02
<STATE> 3
<MEAN> 39
 -1.150992e+01 -1.067610e+01 8.417241e+00 -8.790596e-01 -7.094399e+00 -2.098258e+00 2.507944e+00 -2.379647e+00 9.477712e+00 -2.747626e+00 -1.207450e-01 -1.852712e+00 6.708425e+01 -1.514093e+00 -7.470405e-01 2.804714e-01 4.119969e-01 -5.249308e-01 -3.220683e-01 1.690919e-01 1.024641e-01 8.224775e-01 5.066260e-01 2.351426e-01 1.639623e-01 6.217955e-01 3.722501e-01 1.275864e-01 -1.328661e-01 5.196934e-02 4.586524e-02 -2.050050e-01 -1.317410e-01 8.472615e-02 -2.467171e-01 -6.980839e-02 -5.561222e-02 -4.752765e-02 -8.905320e-02
<VARIANCE> 39
 2.784261e+01 1.304838e+01 2.424082e+01 2.448420e+01 2.336781e+01 4.230676e+01 3.066341e+01 6.164893e+01 2.084897e+01 2.803550e+01 2.318490e+01 1.989819e+01 1.550722e+01 1.939597e+00 9.402142e-01 1.418503e+00 1.234797e+00 1.826668e+00 1.832571e+00 2.085259e+00 2.378150e+00 1.806714e+00 1.448899e+00 1.871917e+00 1.135870e+00 5.578911e-01 2.325493e-01 1.626284e-01 2.088802e-01 2.525382e-01 3.444532e-01 3.997750e-01 3.876204e-01 4.293189e-01 3.375424e-01 3.700172e-01 3.176777e-01 2.322567e-01 6.023120e-02
<GCONST> 1.012599e+02
<STATE> 4
<MEAN> 39
 -9.713901e+00 -1.169512e+01 7.739647e+00 1.595499e+00 -8.927546e+00 -7.751781e+00 -7.335215e-01 -6.525413e-01 9.616372e+00 -2.466430e+00 -7.614876e-01 -1.941292e+00 6.877795e+01 1.990040e+00 5.107559e-01 -1.882359e-01 -4.519500e-01 -6.417435e-01 -6.715609e-01 -9.546732e-01 4.755576e-02 -6.310365e-01 -3.111823e-01 -8.147562e-02 -2.941940e-01 3.709064e-01 3.092405e-01 7.547824e-02 8.381922e-03 -2.103204e-01 -7.054506e-02 1.308413e-01 -6.645914e-02 2.173276e-03 -1.149106e-01 -4.206325e-02 3.657937e-02 7.427811e-03 4.576478e-02
<VARIANCE> 39
 7.696889e+01 2.022296e+01 1.258210e+01 1.803538e+01 2.057664e+01 2.416220e+01 2.921729e+01 3.357661e+01 2.948434e+01 2.288550e+01 2.109390e+01 1.979825e+01 1.027922e+01 6.701909e+00 2.220737e+00 1.174397e+00 2.129323e+00 1.758612e+00 1.746041e+00 2.301032e+00 1.834126e+00 2.837499e+00 2.174589e+00 1.668556e+00 1.372186e+00 1.000712e+00 8.956364e-01 4.205378e-01 1.867307e-01 3.071122e-01 3.352274e-01 3.361947e-01 4.477501e-01 3.725876e-01 5.826506e-01 4.152058e-01 3.244776e-01 2.717934e-01 1.663266e-01
<GCONST> 1.078060e+02
<TRANSP> 5
 0.000000e+00 1.000000e+00 0.000000e+00 0.000000e+00 0.000000e+00
 0.000000e+00 5.791922e-01 4.208078e-01 0.000000e+00 0.000000e+00
 0.000000e+00 0.000000e+00 7.765202e-01 2.234797e-01 0.000000e+00
 0.000000e+00 0.000000e+00 0.000000e+00 8.931646e-01 1.068354e-01
 0.000000e+00 0.000000e+00 0.000000e+00 0.000000e+00 0.000000e+00
<ENDHMM>
~h "sp"
<BEGINHMM>
<NUMSTATES> 3
<STATE> 2
~s "silst"
<TRANSP> 3
 0.000000e+00 2.658386e-01 7.341614e-01
 0.000000e+00 8.671240e-01 1.328760e-01
 0.000000e+00 0.000000e+00 0.000000e+00
<ENDHMM>
~h "uu"
<BEGINHMM>
<NUMSTATES> 5
<STATE> 2
<MEAN> 39
 7.394275e+00 -9.530826e+00 4.352890e+00 -7.689384e+00 -7.018256e+00 -3.460461e+00 -1.043800e+01 -7.199368e-01 7.100101e+00 -2.452444e+00 -8.481140e-01 -6.773921e+00 7.277151e+01 2.370913e-01 -9.517306e-01 -3.504752e-01 -1.346211e+00 2.859497e-01 1.772329e+00 -8.130400e-01 3.190137e-01 1.751019e-01 3.379538e-02 5.327302e-01 -9.696054e-02 6.893740e-01 -2.608348e-01 7.134118e-01 -1.919530e-01 3.869325e-01 8.618846e-02 5.271581e-02 9.272993e-01 -5.104631e-01 -2.441100e-01 -7.993537e-02 5.074851e-02 2.941070e-01 -5.702105e-01
<VARIANCE> 39
 2.323145e+00 2.586359e+01 4.078437e+01 1.986948e+01 5.319636e+01 3.855857e+01 2.492664e+01 2.738207e+01 4.196070e+01 1.788451e+01 1.458450e+01 1.871778e+01 7.674975e+00 3.753304e-01 3.178578e+00 2.576339e+00 2.174480e+00 2.166058e+00 1.721023e+00 4.041832e+00 2.861845e+00 2.240723e+00 1.545484e+00 1.735607e+00 1.160331e+00 1.362541e+00 3.533759e-01 3.884583e-01 4.252782e-01 3.059210e-01 5.398672e-01 3.713891e-01 3.563198e-01 4.691788e-01 6.607091e-01 2.516029e-01 3.779746e-01 2.164209e-01 9.171173e-02
<GCONST> 1.046979e+02
<STATE> 3
<MEAN> 39
 8.743925e+00 -6.924864e+00 -1.703495e-01 -1.309856e+01 -5.577066e+00 4.059516e+00 -8.676535e+00 -4.491764e+00 4.177814e+00 -2.026835e+00 2.484339e+00 -3.828157e+00 7.233440e+01 3.637947e-01 1.665910e+00 -6.291528e-01 -6.313474e-01 -1.620061e-01 3.666201e-01 1.410433e+00 -3.882664e-01 -1.240451e+00 -7.546269e-01 3.711708e-01 1.291581e+00 -7.363634e-01 -2.165917e-02 2.718804e-01 2.938822e-02 2.064261e-01 -1.909651e-02 -4.732327e-01 1.921324e-01 2.288078e-01 -6.862681e-02 -1.297914e-01 -2.464192e-01 -2.543339e-02 -1.595776e-01
<VARIANCE> 39
 3.331175e+00 2.149532e+01 4.292280e+01 4.491311e+01 3.613156e+01 5.596099e+01 2.407933e+01 3.173991e+01 2.811027e+01 2.561169e+01 2.136097e+01 2.236980e+01 5.883242e+00 7.473622e-02 7.073827e-01 7.028864e-01 1.294625e+00 1.443107e+00 1.643124e+00 1.387302e+00 2.296876e+00 1.644659e+00 1.719123e+00 1.889028e+00 9.662758e-01 2.309462e-01 3.171167e-02 1.745265e-01 1.748075e-01 1.465368e-01 2.482461e-01 2.277338e-01 2.648499e-01 3.564622e-01 2.803231e-01 3.151372e-01 2.234140e-01 3.165635e-01 3.208951e-02
<GCONST> 8.883828e+01
<STATE> 4
<MEAN> 39
 8.595612e+00 2.420270e+00 -1.079707e+00 -1.325269e+01 -7.822442e+00 -2.821179e+00 -1.263486e+00 -2.700087e+00 -1.283904e+00 -4.590317e+00 4.625898e-01 -1.352484e+00 6.588483e+01 -3.329379e-01 4.173874e-01 2.581686e-01 6.252435e-01 8.172344e-02 -5.473194e-01 4.751197e-01 -1.071445e-01 -2.512624e-02 9.543517e-02 -1.599620e-01 -4.226777e-02 -6.076289e-01 -7.402436e-02 -1.342424e-01 3.313173e-02 8.632995e-02 7.966372e-02 4.721247e-02 -7.796590e-02 -4.344013e-02 1.065594e-01 1.221800e-01 4.551660e-02 -7.736723e-02 1.338611e-02
<VARIANCE> 39
 9.923186e+00 1.517511e+01 2.007583e+01 3.356867e+01 1.880038e+01 2.927172e+01 2.310964e+01 2.041850e+01 2.481745e+01 1.839893e+01 2.141213e+01 2.066452e+01 1.215743e+01 3.342523e-01 1.072175e+00 9.411318e-01 1.030463e+00 1.346403e+00 1.755201e+00 1.532221e+00 1.728279e+00 1.816026e+00 1.367358e+00 1.473618e+00 1.377209e+00 2.016543e-01 2.762353e-02 7.915824e-02 1.303295e-01 1.741115e-01 1.628819e-01 2.658983e-01 2.297477e-01 2.610708e-01 3.174870e-01 2.652678e-01 2.737845e-01 2.692267e-01 2.842759e-02
<GCONST> 8.667275e+01
<TRANSP> 5
 0.000000e+00 1.000000e+00 0.000000e+00 0.000000e+00 0.000000e+00
 0.000000e+00 6.783578e-01 3.216422e-01 0.000000e+00 0.000000e+00
 0.000000e+00 0.000000e+00 6.822614e-01 3.177385e-01 0.000000e+00
 0.000000e+00 0.000000e+00 0.000000e+00 8.844998e-01 1.155002e-01
 0.000000e+00 0.000000e+00 0.000000e+00 0.000000e+00 0.000000e+00
<ENDHMM>
~h "sil"
<BEGINHMM>
<NUMSTATES> 5
<STATE> 2
<MEAN> 39
 -6.382751e+00 -6.867333e+00 1.525296e+00 -5.754324e-01 -2.421727e-01 -4.075638e+00 4.823154e+00 1.012148e-01 4.531231e+00 -2.752278e+00 1.219607e+00 -6.045877e-01 5.766261e+01 -9.395358e-02 1.881856e-02 -3.235536e-02 -2.057400e-02 5.547585e-02 1.266851e-01 -1.121613e-01 -8.082825e-02 1.225203e-01 1.480581e-01 4.324964e-02 -8.874605e-02 -2.124245e-01 3.791014e-02 6.423709e-02 1.050602e-02 -1.059670e-02 1.113277e-02 5.244716e-02 -1.155371e-02 -8.228289e-02 -2.730663e-02 5.338286e-02 2.814311e-02 1.151266e-02 -1.806206e-02
<VARIANCE> 39
 1.798618e+01 2.255752e+01 1.985281e+01 2.847538e+01 2.223802e+01 2.124273e+01 2.323379e+01 2.731807e+01 1.868813e+01 2.132992e+01 1.699930e+01 1.428800e+01 1.406502e+01 8.079513e-01 1.113046e+00 1.079588e+00 1.353304e+00 1.625582e+00 1.466287e+00 1.638471e+00 2.152403e+00 1.704434e+00 1.640662e+00 1.403396e+00 1.297442e+00 7.306286e-01 1.369349e-01 1.892625e-01 2.152213e-01 2.655413e-01 3.036651e-01 2.716175e-01 2.792234e-01 3.302490e-01 3.009927e-01 3.138852e-01 2.291539e-01 2.492229e-01 1.058775e-01
<GCONST> 9.560980e+01
<STATE> 3
~s "silst"
<STATE> 4
<MEAN> 39
 -6.482229e+00 -3.830980e+00 1.505093e+00 -7.953824e-01 8.177811e-01 -1.899012e+00 4.744425e+00 -2.584487e+00 2.949998e+00 -2.201001e+00 2.274432e+00 2.682087e-01 5.478833e+01 -1.887805e-02 1.724749e-02 1.679366e-02 -1.060396e-02 8.946512e-03 1.606043e-02 -6.408360e-03 -2.719492e-02 -2.491120e-02 -1.538842e-02 1.275043e-02 1.536673e-02 -1.968009e-02 -9.500461e-04 -1.166953e-02 -2.391686e-03 -6.263668e-03 -1.205069e-02 -1.247844e-02 -4.111839e-03 8.810438e-03 7.199842e-03 2.151075e-03 -9.928913e-03 -1.108580e-02 1.162996e-02
<VARIANCE> 39
 1.633951e+00 4.972590e+00 8.302917e+00 7.961479e+00 1.166307e+01 1.360165e+01 1.450403e+01 1.562493e+01 1.693261e+01 1.426392e+01 1.372714e+01 1.182799e+01 2.193933e+00 1.125198e-01 2.463440e-01 4.188006e-01 6.253921e-01 8.342531e-01 1.029194e+00 1.266117e+00 1.388407e+00 1.453516e+00 1.314992e+00 1.291818e+00 1.148123e+00 4.277992e-02 2.265426e-02 4.758209e-02 8.224779e-02 1.265516e-01 1.717682e-01 2.096789e-01 2.571901e-01 2.853553e-01 3.003189e-01 2.701851e-01 2.661544e-01 2.350113e-01 8.557577e-03
<GCONST> 6.581451e+01
<TRANSP> 5
 0.000000e+00 1.000000e+00 0.000000e+00 0.000000e+00 0.000000e+00
 0.000000e+00 6.278282e-01 2.059012e-01 1.662707e-01 0.000000e+00
 0.000000e+00 0.000000e+00 8.777952e-01 1.222048e-01 0.000000e+00
 0.000000e+00 1.963844e-02 0.000000e+00 9.525332e-01 2.782838e-02
 0.000000e+00 0.000000e+00 0.000000e+00 0.000000e+00 0.000000e+00
<ENDHMM>
~h "txh"
<BEGINHMM>
<NUMSTATES> 5
<STATE> 2
<MEAN> 39
 9.149664e+00 -1.859110e+01 -9.144767e+00 -7.772241e+00 -1.027992e+00 6.083357e+00 3.670230e+00 -5.964394e+00 -3.437761e-01 -4.106392e+00 -1.055975e-01 -1.229638e+01 7.585353e+01 2.327813e-01 -3.080222e-01 -5.242901e-02 7.295839e-01 -4.804003e-01 -1.088226e+00 -2.052303e-01 1.464662e+00 2.514721e-01 -6.048217e-01 -1.554856e-01 4.457966e-01 -5.121676e-02 -3.314175e-02 2.922653e-02 9.803473e-02 8.102977e-02 -6.160728e-02 -3.440261e-01 -6.501478e-02 2.935607e-01 1.471245e-01 -1.435099e-01 -2.795211e-02 1.794207e-01 -7.468372e-02
<VARIANCE> 39
 3.097685e+00 4.669237e+01 2.272996e+01 1.499223e+01 1.371280e+01 2.378309e+01 4.554065e+01 8.310989e+01 4.421368e+01 1.724987e+01 1.217555e+01 1.207509e+01 6.347573e+00 1.590634e-01 4.926221e-01 6.006702e-01 7.951204e-01 8.504764e-01 1.844628e+00 1.536110e+00 2.592732e+00 1.597588e+00 1.207888e+00 7.998996e-01 8.265527e-01 1.710287e-01 3.196638e-02 1.321117e-01 9.230701e-02 1.209314e-01 1.446851e-01 1.916536e-01 2.532170e-01 3.439608e-01 2.154348e-01 1.973344e-01 1.444784e-01 1.478764e-01 3.307992e-02
<GCONST> 8.060761e+01
<STATE> 3
<MEAN> 39
 1.025965e+01 -1.867280e+01 -6.506811e+00 -1.296654e+00 -6.172385e+00 -9.516863e+00 1.377551e-01 7.746136e+00 4.953970e+00 -1.039786e+01 -1.338211e+00 -4.359969e+00 7.387445e+01 -1.434405e-01 1.485699e+00 6.961223e-01 1.062927e+00 -3.738242e-01 -2.270693e+00 -3.908851e-01 6.084141e-01 8.645650e-01 -3.221019e-01 2.723834e-01 1.561088e+00 -1.251533e+00 -2.757293e-01 3.795586e-01 -7.582992e-02 -1.740962e-01 5.455995e-01 8.324013e-01 1.923391e-01 -8.348916e-01 -2.527802e-01 4.399438e-01 6.437360e-02 -3.619670e-01 -3.195092e-01
<VARIANCE> 39
 3.510343e+00 2.441755e+01 1.511833e+01 1.587760e+01 2.246275e+01 3.968110e+01 4.991336e+01 2.774936e+01 2.485905e+01 1.594325e+01 1.284838e+01 2.011641e+01 1.019376e+01 4.813838e-01 1.804404e+00 8.345686e-01 9.073281e-01 2.622093e+00 4.216058e+00 2.331963e+00 5.559933e+00 1.886476e+00 1.846875e+00 1.356596e+00 1.522376e+00 4.894946e-01 6.281517e-02 2.328119e-01 1.798011e-01 2.015905e-01 3.921914e-01 6.850969e-01 5.012917e-01 4.633400e-01 3.470867e-01 2.654583e-01 2.704823e-01 3.718686e-01 4.562245e-02
<GCONST> 9.721420e+01
<STATE> 4
<MEAN> 39
 3.341514e+00 -1.208266e+01 -4.121223e+00 -2.247776e+00 -2.423599e+00 -7.602394e+00 3.172045e+00 4.525925e+00 5.824080e+00 -6.271418e+00 -2.779616e-02 -2.448062e+00 6.598676e+01 -1.160203e+00 2.699111e-01 4.505779e-01 -5.273268e-01 4.118940e-01 8.445539e-01 5.967288e-01 -2.715185e-01 -8.317067e-02 6.276988e-01 -4.539881e-03 6.943996e-02 -7.286730e-01 2.862988e-02 -1.563888e-01 9.117912e-03 -4.881006e-02 -1.267981e-01 1.696974e-02 -8.902393e-03 5.047746e-02 -2.362704e-02 -3.284897e-02 -6.537006e-02 -1.650720e-02 1.292738e-01
<VARIANCE> 39
 2.311533e+01 1.440622e+01 3.088717e+01 2.314512e+01 2.044046e+01 3.172799e+01 4.361047e+01 2.792233e+01 2.427798e+01 2.251719e+01 1.752455e+01 2.182343e+01 1.155643e+01 9.437531e-01 1.876882e+00 3.232558e+00 1.917440e+00 2.194262e+00 2.262564e+00 2.594712e+00 2.843446e+00 2.309937e+00 1.789819e+00 2.269931e+00 2.331145e+00 1.968862e+00 1.888965e-01 3.116352e-01 6.594393e-01 4.237581e-01 3.831947e-01 5.311109e-01 5.185007e-01 5.791622e-01 4.988859e-01 3.582994e-01 4.853177e-01 5.172247e-01 3.181899e-01
<GCONST> 1.109428e+02
<TRANSP> 5
 0.000000e+00 1.000000e+00 0.000000e+00 0.000000e+00 0.000000e+00
 0.000000e+00 8.848978e-01 1.151021e-01 0.000000e+00 0.000000e+00
 0.000000e+00 0.000000e+00 7.703510e-01 2.296489e-01 0.000000e+00
 0.000000e+00 0.000000e+00 0.000000e+00 8.690357e-01 1.309643e-01
 0.000000e+00 0.000000e+00 0.000000e+00 0.000000e+00 0.000000e+00
<ENDHMM>
