~o
<STREAMINFO> 1 39
<VECSIZE> 39<NULLD><MFCC_D_A_0><DIAGC>
~h "proto0"
<BEGINHMM>
<NUMSTATES> 5
<STATE> 2
<MEAN> 39
 5.795426e-01 -8.028226e+00 1.815197e+00 -5.770896e+00 -3.516546e+00 -2.909967e+00 1.436934e+00 -2.491543e+00 8.300734e-01 -2.418046e+00 -2.589389e-01 -4.871918e+00 6.483640e+01 -2.267483e-03 4.154838e-04 3.636562e-03 1.073967e-03 -2.549971e-04 3.002852e-03 -3.709080e-04 -2.776875e-03 -1.787541e-03 -1.229680e-03 1.560817e-04 -1.531230e-03 -1.558087e-04 -2.821722e-04 -2.388511e-04 -3.305204e-04 -3.357741e-04 1.008139e-05 -1.018417e-03 -8.369749e-04 -6.230643e-04 -1.165416e-03 -5.330183e-04 -7.700861e-04 8.003267e-04 1.263084e-05
<VARIANCE> 39
 5.266194e+01 5.861478e+01 5.583828e+01 4.041950e+01 5.176087e+01 3.768797e+01 3.001245e+01 2.671753e+01 3.232835e+01 2.037040e+01 2.514431e+01 3.825563e+01 6.036133e+01 1.509467e+00 1.962332e+00 1.493801e+00 1.637479e+00 1.708729e+00 1.933593e+00 1.831338e+00 1.640211e+00 1.827067e+00 1.549102e+00 1.472885e+00 1.785209e+00 1.353704e+00 1.907846e-01 2.725196e-01 2.338927e-01 2.528217e-01 2.835178e-01 3.187839e-01 3.317532e-01 3.087436e-01 3.208016e-01 2.988145e-01 2.742357e-01 3.046076e-01 1.634127e-01
<GCONST> 1.086356e+02
<STATE> 3
<MEAN> 39
 5.795426e-01 -8.028226e+00 1.815197e+00 -5.770896e+00 -3.516546e+00 -2.909967e+00 1.436934e+00 -2.491543e+00 8.300734e-01 -2.418046e+00 -2.589389e-01 -4.871918e+00 6.483640e+01 -2.267483e-03 4.154838e-04 3.636562e-03 1.073967e-03 -2.549971e-04 3.002852e-03 -3.709080e-04 -2.776875e-03 -1.787541e-03 -1.229680e-03 1.560817e-04 -1.531230e-03 -1.558087e-04 -2.821722e-04 -2.388511e-04 -3.305204e-04 -3.357741e-04 1.008139e-05 -1.018417e-03 -8.369749e-04 -6.230643e-04 -1.165416e-03 -5.330183e-04 -7.700861e-04 8.003267e-04 1.263084e-05
<VARIANCE> 39
 5.266194e+01 5.861478e+01 5.583828e+01 4.041950e+01 5.176087e+01 3.768797e+01 3.001245e+01 2.671753e+01 3.232835e+01 2.037040e+01 2.514431e+01 3.825563e+01 6.036133e+01 1.509467e+00 1.962332e+00 1.493801e+00 1.637479e+00 1.708729e+00 1.933593e+00 1.831338e+00 1.640211e+00 1.827067e+00 1.549102e+00 1.472885e+00 1.785209e+00 1.353704e+00 1.907846e-01 2.725196e-01 2.338927e-01 2.528217e-01 2.835178e-01 3.187839e-01 3.317532e-01 3.087436e-01 3.208016e-01 2.988145e-01 2.742357e-01 3.046076e-01 1.634127e-01
<GCONST> 1.086356e+02
<STATE> 4
<MEAN> 39
 5.795426e-01 -8.028226e+00 1.815197e+00 -5.770896e+00 -3.516546e+00 -2.909967e+00 1.436934e+00 -2.491543e+00 8.300734e-01 -2.418046e+00 -2.589389e-01 -4.871918e+00 6.483640e+01 -2.267483e-03 4.154838e-04 3.636562e-03 1.073967e-03 -2.549971e-04 3.002852e-03 -3.709080e-04 -2.776875e-03 -1.787541e-03 -1.229680e-03 1.560817e-04 -1.531230e-03 -1.558087e-04 -2.821722e-04 -2.388511e-04 -3.305204e-04 -3.357741e-04 1.008139e-05 -1.018417e-03 -8.369749e-04 -6.230643e-04 -1.165416e-03 -5.330183e-04 -7.700861e-04 8.003267e-04 1.263084e-05
<VARIANCE> 39
 5.266194e+01 5.861478e+01 5.583828e+01 4.041950e+01 5.176087e+01 3.768797e+01 3.001245e+01 2.671753e+01 3.232835e+01 2.037040e+01 2.514431e+01 3.825563e+01 6.036133e+01 1.509467e+00 1.962332e+00 1.493801e+00 1.637479e+00 1.708729e+00 1.933593e+00 1.831338e+00 1.640211e+00 1.827067e+00 1.549102e+00 1.472885e+00 1.785209e+00 1.353704e+00 1.907846e-01 2.725196e-01 2.338927e-01 2.528217e-01 2.835178e-01 3.187839e-01 3.317532e-01 3.087436e-01 3.208016e-01 2.988145e-01 2.742357e-01 3.046076e-01 1.634127e-01
<GCONST> 1.086356e+02
<TRANSP> 5
 0.000000e+00 1.000000e+00 0.000000e+00 0.000000e+00 0.000000e+00
 0.000000e+00 6.000000e-01 4.000000e-01 0.000000e+00 0.000000e+00
 0.000000e+00 0.000000e+00 6.000000e-01 4.000000e-01 0.000000e+00
 0.000000e+00 0.000000e+00 0.000000e+00 7.000000e-01 3.000000e-01
 0.000000e+00 0.000000e+00 0.000000e+00 0.000000e+00 0.000000e+00
<ENDHMM>
