~o
<STREAMINFO> 1 39
<VECSIZE> 39<NULLD><MFCC_D_A_0><DIAGC>
~s "silst"
<MEAN> 39
 -6.536655e+00 -4.060129e+00 4.010349e+00 -2.467666e+00 -4.413428e-01 9.892595e-02 3.003416e+00 -4.360856e+00 3.293318e+00 -3.698869e+00 2.160333e+00 9.378184e-01 5.690843e+01 -8.242254e-02 -2.663078e-02 2.982942e-02 3.321846e-02 2.550828e-02 1.159247e-01 2.819223e-02 -3.200497e-03 1.421893e-02 -2.224440e-02 3.245066e-02 4.731156e-02 -6.793103e-02 2.483203e-02 -1.095980e-02 -5.143180e-03 3.825748e-03 3.401507e-04 -1.946717e-02 2.393948e-03 1.080667e-02 -1.674868e-02 -5.153347e-03 -2.269041e-02 -2.322640e-02 2.055856e-02
<VARIANCE> 39
 2.807428e+00 5.745889e+00 1.428808e+01 1.001440e+01 1.554867e+01 2.041265e+01 1.727674e+01 1.758720e+01 1.660269e+01 1.890335e+01 1.626909e+01 1.508581e+01 1.238750e+00 1.361263e-01 2.390516e-01 5.429323e-01 7.544802e-01 8.771093e-01 1.180995e+00 1.259734e+00 1.319261e+00 1.286883e+00 1.504929e+00 1.340448e+00 1.277676e+00 4.668432e-02 2.546672e-02 4.580750e-02 9.818602e-02 1.456220e-01 1.776849e-01 2.248439e-01 2.524574e-01 2.655294e-01 2.501021e-01 3.117635e-01 2.717449e-01 2.633134e-01 1.062653e-02
<GCONST> 7.006716e+01
~h "a"
<BEGINHMM>
<NUMSTATES> 5
<STATE> 2
<MEAN> 39
 6.858506e-01 -7.183286e+00 1.113232e-01 -3.183292e+00 -2.879745e+00 -7.158026e+00 6.489067e-01 -1.486089e+00 4.116724e+00 -2.937374e+00 -1.799891e+00 -4.363303e+00 6.368305e+01 -6.515599e-01 8.194818e-01 1.561607e-01 4.162932e-01 4.436603e-01 1.926967e-01 1.064995e-01 -2.593110e-01 1.603277e-01 -1.157208e-01 2.967668e-01 5.201141e-01 -9.399977e-01 -7.410165e-02 -1.578152e-01 -8.785158e-03 -1.211995e-01 2.546982e-02 1.513697e-01 7.071646e-02 6.652436e-02 -6.046929e-02 4.615052e-02 4.868435e-02 -4.247838e-02 8.322811e-02
<VARIANCE> 39
 3.942457e+01 3.198583e+01 2.943180e+01 1.634963e+01 2.057723e+01 2.251275e+01 3.196921e+01 2.433801e+01 2.424453e+01 1.760571e+01 1.970894e+01 2.007976e+01 2.187911e+01 8.311334e-01 1.873002e+00 1.067938e+00 1.191715e+00 1.471704e+00 1.556438e+00 1.598891e+00 1.895725e+00 1.629334e+00 1.713342e+00 1.456690e+00 1.597700e+00 5.879854e-01 1.476905e-01 2.783164e-01 2.152953e-01 2.497707e-01 3.108376e-01 3.266096e-01 3.665820e-01 3.560760e-01 3.579330e-01 3.435344e-01 3.080120e-01 3.264806e-01 9.492342e-02
<GCONST> 9.968694e+01
<STATE> 3
<MEAN> 39
 -2.593524e+00 -4.929790e+00 1.879312e+00 -2.243860e+00 -1.451858e+00 -5.623477e+00 2.216088e+00 -2.001653e+00 3.268316e+00 -3.192529e+00 1.183351e-01 -1.663038e+00 6.128519e+01 -6.646409e-01 1.011857e-01 9.235630e-02 1.001696e-01 4.933278e-01 4.843047e-01 1.662541e-01 -1.128114e-01 1.026059e-01 1.230463e-02 2.515160e-01 1.492779e-01 -4.297544e-01 1.661954e-01 -2.370055e-01 -2.672872e-02 -2.620120e-01 -1.303570e-01 9.886630e-02 -7.340187e-02 -3.986721e-02 -1.063292e-01 1.206272e-02 -1.345404e-01 -2.814176e-01 3.001049e-01
<VARIANCE> 39
 3.392407e+01 2.442733e+01 2.581219e+01 1.635585e+01 2.057971e+01 2.548753e+01 2.256245e+01 2.740162e+01 1.889917e+01 1.905910e+01 2.330304e+01 2.115394e+01 1.938638e+01 1.305740e+00 1.887777e+00 1.085393e+00 1.177863e+00 1.500078e+00 1.560636e+00 2.069755e+00 1.836135e+00 1.901105e+00 1.639559e+00 1.374841e+00 1.406733e+00 6.035645e-01 2.067647e-01 3.793547e-01 2.277434e-01 2.873253e-01 3.231688e-01 3.196869e-01 3.373782e-01 4.146152e-01 3.708327e-01 3.624407e-01 3.365288e-01 3.471179e-01 1.501277e-01
<GCONST> 1.012492e+02
<STATE> 4
<MEAN> 39
 -1.960623e+00 -4.401714e+00 1.951831e+00 -2.028413e+00 -1.022125e+00 -5.273711e+00 1.756261e+00 -2.800441e+00 3.123267e+00 -3.582199e+00 -6.925110e-01 -2.921661e+00 6.148371e+01 4.375613e-02 -5.660049e-01 -7.289463e-02 -5.228205e-01 1.453963e-01 5.279006e-01 -2.503949e-01 -2.861487e-01 -1.415580e-01 1.083185e-01 8.765757e-04 -5.746282e-01 5.617558e-01 2.307487e-01 -3.543099e-01 -4.141327e-02 -3.755783e-01 -1.983467e-01 1.329461e-01 -1.855924e-01 2.067322e-02 -9.093151e-02 1.104994e-01 -6.114722e-02 -2.693495e-01 4.066000e-01
<VARIANCE> 39
 3.822639e+01 2.584210e+01 2.499246e+01 1.396503e+01 1.942787e+01 2.223667e+01 2.524813e+01 2.315665e+01 2.107139e+01 1.834564e+01 2.016592e+01 2.245036e+01 2.051912e+01 3.446078e+00 3.962788e+00 1.528781e+00 2.104889e+00 2.085273e+00 2.434148e+00 2.791391e+00 1.840972e+00 2.464992e+00 1.804281e+00 1.827026e+00 2.539458e+00 1.973908e+00 3.834057e-01 4.200917e-01 2.923009e-01 3.320119e-01 3.918438e-01 3.738992e-01 3.295898e-01 3.174205e-01 3.813530e-01 3.099993e-01 2.984734e-01 5.005398e-01 2.300874e-01
<GCONST> 1.088703e+02
<TRANSP> 5
 0.000000e+00 1.000000e+00 0.000000e+00 0.000000e+00 0.000000e+00
 0.000000e+00 5.909147e-01 4.090852e-01 0.000000e+00 0.000000e+00
 0.000000e+00 0.000000e+00 1.960458e-01 8.039542e-01 0.000000e+00
 0.000000e+00 0.000000e+00 0.000000e+00 2.698184e-01 7.301816e-01
 0.000000e+00 0.000000e+00 0.000000e+00 0.000000e+00 0.000000e+00
<ENDHMM>
~h "c"
<BEGINHMM>
<NUMSTATES> 5
<STATE> 2
<MEAN> 39
 4.522640e+00 -8.155453e+00 -7.169889e+00 -6.573662e+00 -2.761563e-01 -4.252754e+00 1.922023e+00 -9.729608e-01 3.973837e+00 -1.574664e+00 -1.793039e+00 -8.344209e+00 6.491602e+01 -1.412554e+00 3.767403e-01 -5.860821e-01 -2.905367e-01 3.868021e-03 3.004343e-01 1.109989e+00 -2.903337e-01 4.783004e-01 -9.353924e-02 3.076831e-01 7.064558e-01 -9.302648e-01 -2.008374e-01 -3.522683e-01 2.055119e-01 -2.396809e-01 -1.699126e-01 -2.215137e-01 -2.374751e-02 1.981623e-01 -1.081702e-01 6.641223e-02 -8.571046e-02 1.609612e-01 3.822328e-01
<VARIANCE> 39
 1.165893e+01 7.554289e+00 1.389536e+01 1.132296e+01 1.537975e+01 2.285773e+01 1.908799e+01 1.805443e+01 1.754410e+01 1.405171e+01 1.564375e+01 1.676978e+01 8.572480e+00 4.510015e-01 1.270869e+00 1.445031e+00 1.569945e+00 1.861689e+00 2.408385e+00 2.339432e+00 2.132416e+00 1.838752e+00 2.002980e+00 1.493119e+00 2.335759e+00 1.126179e+00 7.220846e-02 2.655782e-01 3.162975e-01 3.677906e-01 3.588397e-01 4.228756e-01 5.016299e-01 4.419132e-01 4.235977e-01 4.431663e-01 3.004516e-01 4.465587e-01 9.092724e-02
<GCONST> 9.660960e+01
<STATE> 3
<MEAN> 39
 -6.860254e+00 -5.961471e+00 -3.706760e+00 -6.962272e+00 3.083527e-01 -6.668503e+00 5.975557e+00 -1.095316e+00 3.184588e+00 -1.049991e+00 -7.831883e-01 -2.186263e+00 6.393351e+01 -1.067239e+00 1.000819e-01 6.890416e-01 4.288991e-02 2.138918e-01 -3.065487e-01 1.535596e-01 1.832598e-01 -3.910254e-01 -9.170462e-02 5.334187e-02 2.159750e-01 -2.624394e-02 1.628310e-01 -6.586985e-02 1.456686e-03 2.205560e-02 -6.221849e-02 -7.085437e-02 -1.373422e-01 7.286903e-02 -3.345867e-02 -3.146772e-02 -1.053449e-02 -1.331191e-01 -7.301675e-03
<VARIANCE> 39
 2.155271e+01 1.086166e+01 1.627440e+01 1.317197e+01 1.368945e+01 1.583735e+01 1.282023e+01 1.718778e+01 1.676906e+01 1.080872e+01 1.108576e+01 1.378371e+01 1.440765e+01 1.608622e+00 9.952831e-01 7.778423e-01 1.176959e+00 1.092068e+00 1.357792e+00 1.476614e+00 1.667208e+00 1.406433e+00 1.154680e+00 9.113621e-01 1.416703e+00 9.535441e-01 1.661273e-01 1.880088e-01 1.591958e-01 2.246179e-01 1.788109e-01 2.987878e-01 2.539357e-01 3.214523e-01 2.988477e-01 2.342030e-01 1.860966e-01 2.811739e-01 1.456146e-01
<GCONST> 8.877297e+01
<STATE> 4
<MEAN> 39
 -9.458981e+00 -8.156857e+00 -9.377434e-01 -9.331008e+00 1.133251e+00 -7.663974e+00 3.281227e+00 1.612766e+00 1.503175e+00 -2.459529e+00 1.294811e+00 -1.943317e+00 6.482866e+01 -2.432770e-01 2.070154e-01 5.824497e-01 2.883696e-01 1.121984e-01 -1.644549e-01 -5.188636e-01 4.366482e-02 -7.222241e-02 -2.267894e-01 2.067504e-01 1.314708e-01 -2.421862e-01 3.137696e-01 2.107617e-01 -1.137199e-01 1.981832e-01 8.498198e-02 2.181211e-01 -4.640999e-02 -1.562583e-01 1.168218e-01 8.862010e-02 -3.540085e-02 -1.207103e-01 -2.316930e-01
<VARIANCE> 39
 1.581682e+01 1.237956e+01 1.863616e+01 1.395116e+01 2.277391e+01 2.382501e+01 1.957259e+01 3.028490e+01 1.244936e+01 2.273867e+01 1.624492e+01 1.920919e+01 7.259555e+00 2.767834e+00 1.543123e+00 8.570194e-01 1.298528e+00 1.685302e+00 2.816908e+00 1.692950e+00 2.411395e+00 1.702884e+00 2.568269e+00 1.320982e+00 2.224745e+00 1.086224e+00 2.385522e-01 3.185861e-01 1.557511e-01 1.999186e-01 3.780802e-01 5.314084e-01 3.561612e-01 4.690757e-01 3.532720e-01 5.479979e-01 2.235051e-01 4.961488e-01 1.054245e-01
<GCONST> 1.001951e+02
<TRANSP> 5
 0.000000e+00 1.000000e+00 0.000000e+00 0.000000e+00 0.000000e+00
 0.000000e+00 8.394080e-01 1.605920e-01 0.000000e+00 0.000000e+00
 0.000000e+00 0.000000e+00 8.170263e-01 1.829737e-01 0.000000e+00
 0.000000e+00 0.000000e+00 0.000000e+00 7.884656e-01 2.115343e-01
 0.000000e+00 0.000000e+00 0.000000e+00 0.000000e+00 0.000000e+00
<ENDHMM>
~h "d"
<BEGINHMM>
<NUMSTATES> 5
<STATE> 2
<MEAN> 39
 1.528580e-02 -3.239024e+00 4.617646e+00 -2.636384e+00 -8.008055e-01 -4.594345e+00 1.531070e+00 -3.787971e+00 -6.537730e-01 -6.318719e+00 -2.537006e+00 -5.115688e+00 6.197736e+01 1.060617e+00 -1.545661e+00 8.121890e-01 -1.523908e+00 -1.157147e+00 -2.308894e-01 -1.333345e+00 -8.756000e-02 -1.535823e-01 4.929672e-02 -1.121315e-01 -8.110700e-01 2.362850e+00 3.449972e-01 -1.155141e-01 -4.675172e-02 -4.440217e-01 -3.817435e-01 1.030510e-01 -4.778329e-01 -2.746042e-01 -7.723875e-02 6.084107e-01 4.645583e-01 -1.126332e-01 3.642266e-01
<VARIANCE> 39
 2.323101e+01 7.365883e+01 1.261316e+01 3.019811e+01 1.094993e+01 1.188701e+01 1.236557e+01 1.697009e+01 1.431766e+01 1.335174e+01 1.739501e+01 1.637317e+01 2.981393e+01 2.784198e+00 6.921816e+00 1.279815e+00 4.014218e+00 2.127829e+00 1.513394e+00 2.353051e+00 2.323680e+00 1.645167e+00 3.035048e+00 2.493185e+00 2.517381e+00 3.064628e+00 5.052758e-01 1.213222e+00 2.685951e-01 4.493447e-01 3.441918e-01 3.859569e-01 3.733407e-01 4.624336e-01 3.607978e-01 5.524175e-01 3.665297e-01 4.236305e-01 4.867951e-01
<GCONST> 1.110337e+02
<STATE> 3
<MEAN> 39
 5.824039e+00 -1.116063e+01 6.562884e+00 -1.237913e+01 -8.367005e+00 -5.479232e+00 -8.380696e+00 -6.489870e+00 -6.879344e-01 -2.982149e-01 2.326681e+00 -8.550139e+00 7.346866e+01 2.389305e+00 -4.805852e-01 3.054452e-02 -2.667780e+00 -2.473074e+00 1.655691e+00 -2.634404e+00 -1.708668e+00 -1.427212e+00 2.930803e+00 2.549970e+00 -1.577134e+00 2.117946e+00 -2.417349e-01 9.551281e-01 -3.605633e-01 2.777115e-01 3.912329e-01 8.206668e-01 8.456973e-01 -2.230880e-01 -4.644028e-01 7.940753e-02 1.764526e-01 2.273261e-01 -1.039785e+00
<VARIANCE> 39
 6.571476e+00 8.205513e+00 8.533404e+00 1.291674e+01 8.550672e+00 1.358414e+01 1.326320e+01 1.219394e+01 9.440066e+00 1.233667e+01 1.361712e+01 9.089136e+00 6.438933e+00 1.078643e+00 3.203671e+00 1.133517e+00 1.871008e+00 9.327133e-01 2.364197e+00 1.130661e+00 1.605620e+00 1.506938e+00 1.645902e+00 1.060756e+00 1.403398e+00 1.249995e+00 2.848296e-01 3.180524e-01 1.576711e-01 2.459757e-01 2.102455e-01 3.386900e-01 3.265606e-01 2.594495e-01 2.611441e-01 4.140940e-01 2.777723e-01 3.756856e-01 1.010031e-01
<GCONST> 8.901616e+01
<STATE> 4
<MEAN> 39
 8.002299e+00 -1.180351e+01 5.774629e+00 -1.728819e+01 -1.141147e+01 1.305650e+00 -9.262479e+00 -8.438304e+00 -5.529668e+00 4.595526e+00 7.668187e+00 -1.030470e+01 7.486068e+01 6.917140e-01 6.756155e-01 -8.082208e-01 -2.161309e+00 -6.792840e-01 2.505612e+00 5.972106e-01 -1.347729e+00 -1.675068e+00 1.348421e+00 1.264145e+00 7.404026e-02 8.689390e-02 -4.928499e-01 4.965634e-01 -2.695496e-01 3.077663e-01 6.662562e-01 -1.241157e-01 9.605049e-01 1.939870e-01 2.558914e-01 -9.407128e-01 -7.345783e-01 7.342457e-01 -6.504560e-01
<VARIANCE> 39
 1.435252e+00 4.513791e+00 5.479781e+00 9.928182e+00 6.602696e+00 1.289872e+01 5.035463e+00 8.581401e+00 1.077882e+01 1.149395e+01 8.732697e+00 4.897627e+00 2.633464e+00 4.384123e-01 6.728358e-01 6.317058e-01 5.985523e-01 9.535263e-01 1.264982e+00 1.167690e+00 7.890160e-01 8.766539e-01 1.932585e+00 1.159876e+00 1.038225e+00 3.858590e-01 1.006575e-01 1.953244e-01 1.353076e-01 1.079220e-01 1.143384e-01 2.753745e-01 1.653895e-01 2.277681e-01 2.291492e-01 1.786554e-01 1.514512e-01 1.454954e-01 8.393564e-02
<GCONST> 6.858798e+01
<TRANSP> 5
 0.000000e+00 1.000000e+00 0.000000e+00 0.000000e+00 0.000000e+00
 0.000000e+00 7.933794e-01 2.066206e-01 0.000000e+00 0.000000e+00
 0.000000e+00 0.000000e+00 4.474592e-01 5.525408e-01 0.000000e+00
 0.000000e+00 0.000000e+00 0.000000e+00 5.565126e-01 4.434874e-01
 0.000000e+00 0.000000e+00 0.000000e+00 0.000000e+00 0.000000e+00
<ENDHMM>
~h "h"
<BEGINHMM>
<NUMSTATES> 5
<STATE> 2
<MEAN> 39
 -5.662545e+00 -6.377987e+00 1.825727e-01 -5.430203e+00 -6.462349e-01 -8.810542e+00 5.277148e+00 -1.575466e+00 2.415318e+00 -1.313178e+00 -3.358677e+00 -5.920048e+00 6.510784e+01 4.529612e+00 -4.819357e-01 -5.858527e-01 -1.388377e+00 -1.406398e+00 6.692846e-01 -1.541649e+00 -1.523013e+00 -8.856300e-01 6.612722e-01 -1.673641e+00 -2.688067e+00 1.508599e+00 5.283883e-01 -7.095447e-01 -1.427901e-01 -6.289138e-01 -1.292480e-02 5.021484e-01 -4.935071e-01 1.038398e-01 -1.077179e-01 3.281436e-01 6.502718e-02 -4.643155e-01 8.356811e-01
<VARIANCE> 39
 3.673065e+01 1.014368e+01 1.242624e+01 1.088779e+01 1.637032e+01 1.476783e+01 1.517410e+01 1.472472e+01 1.625455e+01 1.501145e+01 1.791324e+01 2.440971e+01 5.607878e+00 1.805679e+00 2.178635e+00 1.253375e+00 1.692720e+00 1.074849e+00 1.663986e+00 1.811104e+00 1.535179e+00 1.352344e+00 1.712829e+00 1.097395e+00 1.530160e+00 1.837141e+00 7.584145e-01 3.245569e-01 2.318677e-01 1.638540e-01 3.325407e-01 3.059800e-01 2.664612e-01 4.018069e-01 2.893327e-01 2.813599e-01 3.742850e-01 4.745846e-01 1.160896e-01
<GCONST> 9.681490e+01
<STATE> 3
<MEAN> 39
 7.817062e+00 -1.587849e+01 -2.167119e+00 -1.388186e+01 -3.800678e+00 -2.090945e+00 -1.190645e+00 -3.143568e+00 7.803987e-01 3.862958e+00 -5.816783e+00 -1.540705e+01 7.517150e+01 1.414352e+00 -1.974781e+00 -5.831344e-01 -1.472917e+00 5.302631e-02 2.103948e+00 -4.071287e-01 7.312278e-01 -2.720541e-01 3.703706e-01 -4.233219e-01 -1.299214e+00 1.409224e+00 -9.362296e-01 5.432093e-01 2.221805e-02 6.042626e-01 3.981169e-01 -1.098428e-01 7.025367e-01 3.191394e-01 4.148253e-02 -4.957019e-01 1.189959e-01 7.519863e-01 -7.049250e-01
<VARIANCE> 39
 1.894623e+00 2.610958e+01 1.352508e+01 1.149842e+01 7.372674e+00 2.063531e+01 1.301258e+01 1.408543e+01 9.527471e+00 1.630290e+01 8.440458e+00 1.068319e+01 6.286638e+00 2.831327e+00 2.576044e+00 1.043183e+00 1.724062e+00 1.176621e+00 1.268522e+00 1.994799e+00 1.056276e+00 1.031814e+00 1.950264e+00 8.535660e-01 2.230840e+00 2.048066e+00 3.459132e-01 5.333531e-01 2.353431e-01 2.041313e-01 1.631759e-01 3.536226e-01 2.097369e-01 3.744651e-01 2.296889e-01 2.153179e-01 1.770173e-01 1.749722e-01 1.246313e-01
<GCONST> 8.934061e+01
<STATE> 4
<MEAN> 39
 7.941110e+00 -1.368611e+01 -4.876891e+00 -1.122374e+01 1.760271e+00 2.456498e+00 4.306779e+00 -8.785651e-01 -2.122419e+00 -1.131637e+00 -7.143698e+00 -1.221801e+01 7.192460e+01 -6.804585e-02 2.983871e-01 -7.362215e-02 2.951131e-01 3.515351e-01 5.344277e-02 1.613716e-01 -2.175135e-02 -2.987108e-02 -2.919845e-01 3.927594e-02 3.107585e-01 -3.066074e-01 -2.854902e-02 -2.473557e-02 3.283713e-02 -3.056771e-02 -4.483502e-02 -7.209143e-02 -1.075181e-01 -5.331286e-02 3.329577e-02 3.975727e-02 4.451424e-02 -1.139678e-02 1.968250e-02
<VARIANCE> 39
 3.683660e+00 2.452079e+01 1.188855e+01 2.813142e+01 1.410573e+01 1.699549e+01 2.231562e+01 1.286140e+01 1.192307e+01 1.185614e+01 1.459571e+01 1.235770e+01 1.173584e+01 3.792642e-01 2.063849e+00 1.090694e+00 2.889904e+00 1.247265e+00 1.119080e+00 2.180867e+00 1.133955e+00 1.272298e+00 1.173542e+00 1.096392e+00 1.180829e+00 1.007124e+00 7.738405e-02 3.278507e-01 2.031871e-01 4.949248e-01 2.239415e-01 2.573345e-01 3.068139e-01 2.134555e-01 2.609137e-01 2.055535e-01 2.131538e-01 1.811713e-01 1.457889e-01
<GCONST> 8.889331e+01
<TRANSP> 5
 0.000000e+00 1.000000e+00 0.000000e+00 0.000000e+00 0.000000e+00
 0.000000e+00 6.433564e-01 3.566436e-01 0.000000e+00 0.000000e+00
 0.000000e+00 0.000000e+00 7.484168e-01 2.515833e-01 0.000000e+00
 0.000000e+00 0.000000e+00 0.000000e+00 9.345539e-01 6.544613e-02
 0.000000e+00 0.000000e+00 0.000000e+00 0.000000e+00 0.000000e+00
<ENDHMM>
~h "k"
<BEGINHMM>
<NUMSTATES> 5
<STATE> 2
<MEAN> 39
 5.457956e+00 -6.832699e+00 1.570339e+01 -5.805275e+00 -1.858134e+01 -1.281164e+01 1.861555e-01 -5.318381e+00 -1.012257e+01 2.179326e+00 2.763384e+00 -9.867180e+00 6.961515e+01 -6.280727e-01 2.001777e+00 -3.842169e-01 1.217351e+00 1.150458e+00 3.114386e-01 3.313108e-01 -1.154377e+00 6.538578e-01 -5.877435e-01 -7.792786e-03 4.529165e-01 -1.751517e+00 -2.759295e-01 -6.507885e-02 -5.333716e-02 1.281008e-01 9.107167e-02 1.705775e-01 -1.771891e-01 -1.991320e-01 2.750535e-01 -2.064733e-01 2.586044e-01 5.891802e-01 -2.193713e-01
<VARIANCE> 39
 2.145346e+00 1.712099e+01 5.840685e+00 1.084246e+01 1.059925e+01 8.591407e+00 9.418789e+00 1.128471e+01 1.401097e+01 1.084691e+01 1.507571e+01 6.537845e+00 9.193477e+00 3.322184e-01 5.789554e-01 5.392195e-01 1.270017e+00 1.020648e+00 9.594387e-01 1.125422e+00 1.255191e+00 1.378289e+00 9.739671e-01 1.055642e+00 1.573540e+00 4.059919e-01 3.477377e-02 2.411482e-01 1.507729e-01 2.551593e-01 2.198453e-01 2.286935e-01 2.658748e-01 2.147310e-01 2.587618e-01 2.726206e-01 2.203223e-01 1.763827e-01 5.778441e-02
<GCONST> 7.599493e+01
<STATE> 3
<MEAN> 39
 -3.550756e-01 -1.969818e+00 1.109532e+01 -1.899536e+00 -1.325689e+01 -1.145403e+01 -9.152747e-01 -1.073276e+01 -5.251114e+00 6.641023e-01 6.717088e+00 -1.531054e+00 6.104971e+01 -9.057711e-01 3.320674e-02 -1.240134e+00 2.427150e-03 7.481242e-01 8.954705e-02 -2.890093e-01 -2.565723e-01 9.756239e-01 1.497905e-01 6.788912e-01 1.490295e+00 -1.002278e+00 1.832907e-01 -4.418611e-01 -1.615584e-01 -2.093885e-01 3.624835e-02 4.054233e-02 6.864754e-02 3.609306e-01 -1.551814e-02 1.243037e-01 -2.930413e-01 -3.058008e-01 3.870713e-01
<VARIANCE> 39
 4.002116e+00 5.391833e+00 1.938828e+01 8.460703e+00 1.441797e+01 1.113921e+01 1.418144e+01 1.367657e+01 1.546602e+01 1.181541e+01 2.509630e+01 1.972685e+01 4.722363e+00 4.149739e-01 5.409709e-01 7.382770e-01 1.266782e+00 1.296335e+00 1.426969e+00 1.384211e+00 1.291549e+00 1.270950e+00 1.197429e+00 2.530399e+00 2.089543e+00 4.003918e-01 5.941433e-02 2.384087e-01 2.090523e-01 3.164492e-01 3.438846e-01 2.936538e-01 3.040972e-01 2.301535e-01 2.720032e-01 2.443375e-01 4.834239e-01 4.324726e-01 5.412212e-02
<GCONST> 8.484805e+01
<STATE> 4
<MEAN> 39
 -1.830906e+00 -9.717181e+00 2.230054e+00 -3.101196e+00 -7.473860e+00 -8.936146e+00 -4.233014e-01 -7.690339e+00 -5.784871e-01 1.702829e+00 3.748886e+00 -8.311895e-01 6.282516e+01 1.062347e-01 -1.209350e+00 -1.224201e+00 1.277758e-01 1.261140e+00 2.414948e-01 2.220652e-01 9.542761e-01 6.096249e-01 -7.367606e-02 -1.001643e+00 -7.216696e-01 6.456187e-01 -7.063846e-02 4.942970e-01 4.102305e-01 1.357572e-01 -7.938032e-02 -3.510798e-02 3.921004e-02 -1.151939e-01 -8.435610e-02 -2.194629e-01 9.546210e-02 1.867554e-02 -2.284403e-01
<VARIANCE> 39
 6.853929e+00 5.258410e+01 4.431752e+01 1.506793e+01 2.667182e+01 2.501868e+01 1.551979e+01 2.085932e+01 2.778402e+01 3.358756e+01 2.670828e+01 2.522005e+01 2.115948e+01 9.747697e-01 9.035717e+00 5.184432e+00 1.496038e+00 2.315838e+00 1.975288e+00 1.563094e+00 1.629843e+00 1.972899e+00 3.372940e+00 2.360783e+00 2.435775e+00 3.103712e+00 2.132184e-01 1.656889e+00 8.970088e-01 2.855367e-01 4.245686e-01 4.191763e-01 3.273907e-01 3.859185e-01 3.695548e-01 7.057946e-01 5.846567e-01 6.283063e-01 7.318113e-01
<GCONST> 1.153567e+02
<TRANSP> 5
 0.000000e+00 1.000000e+00 0.000000e+00 0.000000e+00 0.000000e+00
 0.000000e+00 7.667922e-01 2.332078e-01 0.000000e+00 0.000000e+00
 0.000000e+00 0.000000e+00 8.287423e-01 1.712577e-01 0.000000e+00
 0.000000e+00 0.000000e+00 0.000000e+00 8.230542e-01 1.769458e-01
 0.000000e+00 0.000000e+00 0.000000e+00 0.000000e+00 0.000000e+00
<ENDHMM>
~h "n"
<BEGINHMM>
<NUMSTATES> 5
<STATE> 2
<MEAN> 39
 7.746797e+00 1.541235e+00 3.706395e+00 -3.539902e+00 -6.322415e+00 -6.596887e+00 1.606273e+00 -2.967397e+00 2.797758e+00 -4.850981e+00 -3.050273e+00 -4.365919e+00 6.465722e+01 -1.059072e-01 4.760321e-01 6.146252e-03 1.894938e-01 1.098553e-01 -6.786560e-02 3.310074e-01 -1.216437e-01 -8.991565e-02 3.846583e-02 -4.410485e-02 1.891663e-01 -3.525217e-01 -1.010891e-01 -1.949131e-01 1.185091e-01 -3.069168e-02 2.790957e-02 7.747444e-02 -1.553474e-01 -2.812614e-02 -6.994363e-02 3.879463e-02 1.340853e-01 -2.967046e-02 5.945311e-02
<VARIANCE> 39
 4.265971e+00 1.262084e+01 1.075062e+01 6.900084e+00 1.881947e+01 1.007452e+01 1.564351e+01 1.009593e+01 1.143933e+01 1.325474e+01 9.376570e+00 9.381028e+00 4.700391e+00 2.525712e-01 3.054459e-01 5.466051e-01 5.501978e-01 7.153726e-01 6.315300e-01 9.436752e-01 7.219525e-01 7.986119e-01 6.841284e-01 7.136607e-01 6.892277e-01 1.392731e-01 3.189765e-02 7.541691e-02 7.111173e-02 1.156116e-01 1.175026e-01 1.213870e-01 1.836943e-01 1.408093e-01 1.321157e-01 1.367942e-01 1.333781e-01 1.362201e-01 2.528973e-02
<GCONST> 6.266091e+01
<STATE> 3
<MEAN> 39
 5.888163e+00 2.782869e+00 4.620447e+00 -2.008502e+00 -4.146288e+00 -5.692493e+00 1.822324e+00 -4.652452e+00 2.180476e+00 -4.086693e+00 -2.898938e+00 -4.318939e+00 6.278042e+01 -6.229585e-01 -9.336632e-02 2.856654e-01 7.778697e-01 7.877489e-01 3.239798e-01 -1.600338e-02 -2.446214e-01 -1.767642e-01 6.778570e-02 2.732212e-01 9.651135e-02 -4.412216e-01 -2.167724e-01 -3.917201e-01 6.084181e-02 -5.294263e-02 -1.653667e-03 1.618856e-01 -4.197597e-02 1.003765e-01 -3.884084e-02 -1.967889e-02 1.643655e-01 2.886693e-02 4.155897e-02
<VARIANCE> 39
 1.142524e+01 1.190436e+01 1.780575e+01 1.374672e+01 2.091711e+01 1.303945e+01 1.397454e+01 1.318788e+01 1.265007e+01 1.175455e+01 1.400079e+01 1.138352e+01 7.252898e+00 6.474349e-01 6.782345e-01 6.375176e-01 9.215035e-01 1.364402e+00 8.307259e-01 8.830657e-01 7.633830e-01 1.010842e+00 1.190905e+00 1.150415e+00 1.097636e+00 3.500481e-01 7.205138e-02 9.540713e-02 2.274774e-01 1.801512e-01 2.104081e-01 1.591455e-01 2.085259e-01 1.985877e-01 1.983268e-01 1.676242e-01 1.876794e-01 2.005987e-01 4.169186e-02
<GCONST> 7.809870e+01
<STATE> 4
<MEAN> 39
 2.773006e+00 1.925407e+00 4.822221e+00 -6.798927e-01 -1.660045e+00 -3.808091e+00 2.639916e+00 -4.565386e+00 1.033559e+00 -4.431466e+00 -1.482350e+00 -3.470825e+00 6.066127e+01 -8.484259e-01 -7.593704e-01 -6.830256e-02 1.198426e-01 1.673880e-01 9.352747e-02 -1.384816e-02 1.913790e-01 -4.821146e-02 -8.758664e-02 4.460390e-01 3.865121e-01 -3.207367e-01 -7.046404e-02 -3.354077e-01 5.232792e-02 -2.377202e-01 -2.767588e-01 -1.019478e-01 -1.343766e-01 9.778470e-02 4.624356e-02 2.393518e-02 6.842862e-02 2.350715e-02 1.627276e-01
<VARIANCE> 39
 1.967025e+01 1.046626e+01 1.793656e+01 1.514416e+01 2.328008e+01 1.634728e+01 1.594778e+01 1.222155e+01 1.315685e+01 1.321897e+01 1.549107e+01 1.312589e+01 1.034412e+01 5.724592e-01 9.502075e-01 1.222850e+00 1.049103e+00 1.523929e+00 1.202343e+00 1.023319e+00 1.427972e+00 9.941378e-01 1.311603e+00 1.175498e+00 1.199346e+00 3.268844e-01 1.010648e-01 2.363821e-01 3.457635e-01 2.032690e-01 3.439332e-01 2.605790e-01 2.404425e-01 2.696007e-01 2.268226e-01 2.200632e-01 2.121897e-01 2.348965e-01 4.806101e-02
<GCONST> 8.617938e+01
<TRANSP> 5
 0.000000e+00 1.000000e+00 0.000000e+00 0.000000e+00 0.000000e+00
 0.000000e+00 7.708074e-01 2.291926e-01 0.000000e+00 0.000000e+00
 0.000000e+00 0.000000e+00 2.573226e-01 7.426774e-01 0.000000e+00
 0.000000e+00 0.000000e+00 0.000000e+00 4.686022e-01 5.313979e-01
 0.000000e+00 0.000000e+00 0.000000e+00 0.000000e+00 0.000000e+00
<ENDHMM>
~h "o"
<BEGINHMM>
<NUMSTATES> 5
<STATE> 2
<MEAN> 39
 9.396955e+00 -7.161108e+00 2.646398e+00 -2.255979e+01 -1.119718e+01 6.410388e+00 -4.534775e+00 -1.205297e+01 -8.198881e+00 3.405832e+00 7.420619e+00 -6.624903e+00 7.313012e+01 3.628595e-01 1.185414e+00 -7.924117e-01 -8.678672e-01 1.323028e-01 8.405561e-01 1.117837e+00 -2.414868e-01 -1.010781e-01 -8.312867e-01 -4.913053e-01 1.236571e+00 -5.757936e-01 -6.897947e-02 -5.112202e-02 4.391909e-02 4.258015e-01 1.414264e-01 -3.960719e-01 -8.068057e-02 3.571045e-01 3.789149e-01 -2.790931e-01 -2.603451e-01 5.266210e-02 -5.934869e-02
<VARIANCE> 39
 1.418153e+00 5.326772e+00 8.425274e+00 1.189180e+01 7.087653e+00 1.227905e+01 8.116770e+00 6.216377e+00 1.079198e+01 1.684798e+01 6.352600e+00 8.131249e+00 3.312120e+00 9.811801e-02 2.332999e-01 3.876243e-01 7.209365e-01 3.847027e-01 8.768200e-01 5.357187e-01 1.006924e+00 9.411375e-01 9.295939e-01 5.632543e-01 5.445059e-01 5.808489e-02 1.880910e-02 4.002989e-02 5.341350e-02 8.057715e-02 9.083038e-02 1.370103e-01 1.011886e-01 1.224930e-01 1.272223e-01 2.546751e-01 1.113343e-01 1.422400e-01 1.481345e-02
<GCONST> 5.291764e+01
<STATE> 3
<MEAN> 39
 1.008508e+01 -2.959565e+00 -1.226772e+00 -2.068492e+01 -7.395885e+00 5.953519e+00 -2.153838e+00 -1.020746e+01 -4.766804e+00 -8.742861e-01 3.613894e+00 -2.150588e+00 7.013005e+01 -1.413515e-01 1.392148e-01 -3.550998e-01 9.676698e-01 1.235116e+00 -5.236580e-01 -6.970702e-01 1.285108e-01 9.862014e-01 1.232660e-01 -4.223721e-01 -1.465747e-02 -3.115710e-01 -6.537081e-02 -1.563146e-01 1.569734e-01 2.266190e-01 1.100633e-01 -2.258321e-01 -3.584055e-01 4.767159e-03 1.214309e-01 2.114387e-01 4.418676e-02 -2.888913e-01 4.110581e-02
<VARIANCE> 39
 2.024134e+00 5.199249e+00 1.196001e+01 1.644946e+01 2.575092e+01 2.068212e+01 1.905059e+01 1.466776e+01 1.516554e+01 1.768641e+01 1.200605e+01 1.054922e+01 2.982846e+00 7.644763e-02 4.040248e-01 3.444266e-01 6.839222e-01 8.578603e-01 1.039247e+00 1.800687e+00 9.900123e-01 1.038324e+00 1.591999e+00 9.437211e-01 1.070488e+00 6.782333e-02 1.396206e-02 3.891651e-02 5.436051e-02 8.422980e-02 1.767894e-01 2.079968e-01 1.562345e-01 2.209842e-01 1.473133e-01 2.344828e-01 2.006373e-01 1.487232e-01 8.427826e-03
<GCONST> 6.488453e+01
<STATE> 4
<MEAN> 39
 8.518305e+00 -2.121185e+00 -4.928634e-02 -9.912679e+00 3.198930e-02 -1.159995e+00 -7.985351e+00 -7.562584e+00 2.628473e+00 1.358181e-01 5.099741e-01 -6.154497e+00 6.731725e+01 -1.453558e-01 7.136176e-01 3.565620e-01 1.759683e+00 2.367050e-01 -1.205768e+00 6.010672e-01 7.540706e-01 5.491350e-01 -6.070333e-01 -6.275429e-01 -3.022493e-01 -6.876536e-01 1.020935e-02 1.516549e-01 1.923837e-02 -1.046010e-01 -2.410727e-01 1.387020e-01 4.644936e-01 -4.506090e-02 -2.293548e-01 -1.393940e-01 -3.223120e-02 1.834905e-01 -5.003431e-02
<VARIANCE> 39
 1.782317e+00 1.257263e+01 1.124942e+01 2.704910e+01 1.131247e+01 1.882894e+01 3.061891e+01 1.716049e+01 1.607239e+01 1.606008e+01 1.132530e+01 1.141722e+01 5.701849e+00 1.029325e-01 5.295829e-01 6.160003e-01 1.362229e+00 1.148363e+00 1.186080e+00 4.015419e+00 1.381697e+00 1.573365e+00 1.203401e+00 9.248348e-01 1.201147e+00 1.386203e-01 1.841126e-02 9.480265e-02 8.638278e-02 2.367144e-01 1.534614e-01 2.043162e-01 6.564475e-01 2.831510e-01 2.341513e-01 2.602356e-01 1.945042e-01 1.951809e-01 3.278527e-02
<GCONST> 7.711917e+01
<TRANSP> 5
 0.000000e+00 1.000000e+00 0.000000e+00 0.000000e+00 0.000000e+00
 0.000000e+00 7.797374e-01 2.202626e-01 0.000000e+00 0.000000e+00
 0.000000e+00 0.000000e+00 8.531731e-01 1.468269e-01 0.000000e+00
 0.000000e+00 0.000000e+00 0.000000e+00 8.548716e-01 1.451285e-01
 0.000000e+00 0.000000e+00 0.000000e+00 0.000000e+00 0.000000e+00
<ENDHMM>
~h "p"
<BEGINHMM>
<NUMSTATES> 5
<STATE> 2
<MEAN> 39
 -4.480866e+00 -4.113409e+00 -1.928526e-02 -1.897506e+00 -6.238801e-01 -3.504091e+00 3.955898e+00 -3.224449e+00 2.940088e+00 -1.949975e+00 2.276117e+00 5.673558e-01 5.677966e+01 5.800504e-01 -1.027087e+00 -1.568881e-01 -1.819618e-01 -9.252063e-01 1.170617e-02 4.532502e-01 -2.716317e-01 -1.827923e-01 2.182482e-01 -4.172398e-01 -3.110623e-01 1.106332e+00 8.738400e-01 -3.488586e-01 -4.539660e-01 -8.639674e-01 -3.495685e-01 2.743201e-01 5.465193e-02 3.410613e-02 -5.316666e-01 -2.017165e-01 -1.415463e-01 -6.698005e-01 8.755476e-01
<VARIANCE> 39
 6.408146e+00 9.861985e+00 1.661971e+01 1.309207e+01 1.545266e+01 1.562750e+01 1.561807e+01 1.218464e+01 1.272191e+01 1.123812e+01 1.442096e+01 1.765566e+01 4.917318e+00 1.380987e+00 1.214958e+00 1.324063e+00 1.601964e+00 1.842980e+00 1.306239e+00 1.616590e+00 1.535424e+00 1.363214e+00 1.604527e+00 1.818867e+00 1.595476e+00 1.345655e+00 2.087979e-01 1.956102e-01 3.078515e-01 5.020935e-01 2.759642e-01 2.932096e-01 3.519326e-01 2.958899e-01 4.256774e-01 3.689883e-01 3.674053e-01 4.647719e-01 1.826799e-01
<GCONST> 9.407852e+01
<STATE> 3
<MEAN> 39
 2.131255e+00 -8.320889e+00 -3.706937e+00 -6.194447e+00 -5.173507e+00 -2.177892e+00 5.628269e+00 -4.445259e+00 4.439139e-02 -2.734575e+00 -1.905714e-01 -4.144861e+00 6.437595e+01 3.984029e+00 -2.106858e+00 -2.285910e+00 -4.414902e+00 -1.016215e+00 1.779033e+00 3.818035e-01 7.773989e-01 -3.063816e+00 -3.447520e-01 5.069316e-01 -2.925907e+00 4.173597e+00 6.015964e-02 -3.710893e-01 -1.419585e-02 -6.371064e-01 4.736216e-01 4.143027e-01 -2.125590e-01 5.004278e-01 -4.173319e-01 1.044705e-01 3.114963e-01 -2.532225e-01 2.928277e-01
<VARIANCE> 39
 2.996488e+01 2.075901e+01 2.834616e+01 3.545684e+01 1.300924e+01 1.616297e+01 1.252195e+01 1.742591e+01 2.630625e+01 1.308582e+01 1.268059e+01 1.939887e+01 1.955918e+01 4.482448e-01 1.564631e+00 1.584608e+00 1.877054e+00 2.641568e+00 1.742784e+00 2.166597e+00 1.732859e+00 1.751945e+00 1.430115e+00 1.690027e+00 1.730516e+00 8.387095e-01 6.352802e-01 3.478732e-01 4.227111e-01 7.958451e-01 2.876869e-01 4.107359e-01 3.526089e-01 3.211803e-01 5.140773e-01 2.868987e-01 2.669210e-01 3.919993e-01 4.009187e-01
<GCONST> 1.034796e+02
<STATE> 4
<MEAN> 39
 9.539595e+00 -1.872723e+01 -8.434402e+00 -1.761532e+01 -3.313760e+00 3.782118e+00 5.598317e+00 5.723223e-01 -8.579673e+00 -1.296424e+00 1.286921e+00 -1.238099e+01 7.614265e+01 1.748138e-01 -1.250573e+00 -3.293163e-01 -3.169470e-01 5.588243e-01 3.327791e-01 -2.056195e-01 4.523404e-01 -1.701050e-01 2.962586e-01 -4.561489e-01 -8.165927e-01 9.226907e-01 -4.096207e-01 3.298044e-01 1.865730e-01 6.822647e-01 9.373131e-02 -3.514856e-01 -5.825883e-02 -1.263666e-01 5.224218e-01 -2.106617e-02 -2.196985e-01 2.911056e-01 -4.957216e-01
<VARIANCE> 39
 2.942911e+00 1.301843e+01 1.569576e+01 1.878703e+01 1.570909e+01 1.176992e+01 1.772681e+01 1.330649e+01 1.404456e+01 7.018834e+00 9.975674e+00 7.096520e+00 3.372427e+00 1.038952e+00 1.877306e+00 6.665723e-01 3.839332e+00 6.966385e-01 1.665144e+00 7.778828e-01 1.081670e+00 2.034489e+00 6.375263e-01 8.457681e-01 8.585945e-01 1.985890e+00 3.098971e-01 1.594326e-01 1.448474e-01 4.896097e-01 1.889143e-01 1.621143e-01 1.437724e-01 1.958133e-01 2.437145e-01 1.380420e-01 1.258491e-01 1.798723e-01 2.319784e-01
<GCONST> 8.261738e+01
<TRANSP> 5
 0.000000e+00 1.000000e+00 0.000000e+00 0.000000e+00 0.000000e+00
 0.000000e+00 6.552949e-01 3.447051e-01 0.000000e+00 0.000000e+00
 0.000000e+00 0.000000e+00 5.857177e-01 4.142823e-01 0.000000e+00
 0.000000e+00 0.000000e+00 0.000000e+00 8.621074e-01 1.378926e-01
 0.000000e+00 0.000000e+00 0.000000e+00 0.000000e+00 0.000000e+00
<ENDHMM>
~h "r"
<BEGINHMM>
<NUMSTATES> 5
<STATE> 2
<MEAN> 39
 -9.182299e+00 -9.631126e+00 7.565736e+00 -8.061707e+00 -5.224230e+00 -2.729673e+00 -8.837514e-01 -1.475094e+00 5.430301e+00 -4.288530e+00 1.534705e+00 -3.832471e+00 6.702580e+01 2.372221e+00 -1.248629e+00 1.001537e-02 2.330787e-01 -1.689582e+00 -1.201740e+00 -5.901872e-01 3.122346e-01 -1.563061e-03 -2.620549e-01 -4.992900e-01 -9.794236e-01 1.619446e+00 1.022374e+00 -4.757855e-01 -3.442966e-01 -3.969057e-02 -1.590645e-01 -1.645560e-01 -1.365504e-01 2.034406e-01 -1.520166e-01 1.499681e-01 -1.888808e-01 -3.682881e-01 2.385967e-01
<VARIANCE> 39
 5.283287e+01 1.214711e+01 1.617426e+01 1.091057e+01 3.317269e+01 3.277735e+01 1.395438e+01 1.989491e+01 1.477437e+01 1.662222e+01 2.324063e+01 2.235189e+01 1.221919e+01 1.115510e+01 1.672357e+00 2.397313e+00 1.695285e+00 2.883108e+00 3.991648e+00 2.289553e+00 2.442982e+00 1.357136e+00 1.591878e+00 2.157558e+00 1.910091e+00 1.207179e+00 1.379484e+00 2.904215e-01 2.305639e-01 4.586708e-01 6.574067e-01 7.958339e-01 4.063940e-01 4.188036e-01 2.250040e-01 3.187016e-01 3.998461e-01 2.702653e-01 2.119260e-01
<GCONST> 1.090678e+02
<STATE> 3
<MEAN> 39
 6.806656e+00 -2.142813e+01 4.533562e+00 -9.956900e+00 -1.103109e+01 -6.424217e+00 -4.881939e+00 3.378463e+00 4.271984e+00 -2.463958e+00 -1.889567e+00 -1.218618e+01 7.725547e+01 1.323241e+00 -2.300003e+00 -1.324103e+00 -1.181871e+00 7.761013e-01 1.260378e+00 1.149674e-01 1.175117e+00 -1.488563e-01 9.113889e-01 -9.265341e-01 -2.008735e+00 1.282320e+00 -9.482725e-01 5.016781e-01 -2.011147e-01 -4.218885e-02 6.116765e-01 5.922253e-01 4.646853e-01 -2.586065e-01 -1.264061e-02 -2.821563e-02 -3.401595e-02 2.447855e-01 -5.667321e-01
<VARIANCE> 39
 3.104572e+00 1.062454e+01 1.928370e+01 1.043039e+01 1.593165e+01 1.335627e+01 1.106124e+01 1.034839e+01 9.598978e+00 8.261200e+00 8.948407e+00 1.543806e+01 2.637142e+00 2.409951e+00 1.650672e+00 6.064476e-01 6.723300e-01 1.628762e+00 1.750961e+00 1.228702e+00 1.063772e+00 5.953668e-01 1.076312e+00 8.499283e-01 8.046148e-01 1.545119e+00 3.396221e-01 1.736903e-01 1.390548e-01 2.558843e-01 3.459009e-01 4.300592e-01 1.927495e-01 2.815812e-01 1.050583e-01 2.688156e-01 1.247860e-01 2.075789e-01 8.821560e-02
<GCONST> 8.162476e+01
<STATE> 4
<MEAN> 39
 8.293886e+00 -2.293426e+01 -4.571999e+00 -1.061561e+01 -3.733788e+00 -2.087609e-01 -3.865789e-02 3.907296e+00 1.601432e+00 -1.138849e+00 -6.946006e+00 -1.545215e+01 7.617593e+01 9.301375e-02 4.128551e-01 -2.739444e-01 3.812351e-01 1.003211e-01 -3.213245e-01 -1.891710e-03 -1.019732e-01 1.654350e-01 -1.351982e-02 -2.732789e-02 2.940454e-01 -3.392801e-01 -1.626083e-02 1.846254e-01 1.231522e-01 1.200670e-01 -7.995100e-02 -1.910750e-01 -1.217490e-01 -9.391999e-02 9.922998e-02 -5.903984e-02 1.092751e-01 1.844278e-01 -8.900962e-02
<VARIANCE> 39
 3.025269e+00 1.161728e+01 1.435994e+01 1.099244e+01 1.791711e+01 2.164403e+01 1.069738e+01 1.074102e+01 1.477141e+01 8.954694e+00 1.095592e+01 8.908439e+00 4.885252e+00 9.321289e-02 5.927345e-01 7.185320e-01 5.495733e-01 1.014330e+00 1.683250e+00 1.251186e+00 8.599631e-01 1.330325e+00 6.283194e-01 9.177191e-01 8.537609e-01 1.535265e-01 1.944631e-02 7.177851e-02 5.628229e-02 6.812794e-02 1.339251e-01 1.215994e-01 1.425497e-01 1.765776e-01 1.517325e-01 1.440724e-01 1.434005e-01 1.255326e-01 2.191081e-02
<GCONST> 6.494217e+01
<TRANSP> 5
 0.000000e+00 1.000000e+00 0.000000e+00 0.000000e+00 0.000000e+00
 0.000000e+00 7.828740e-01 2.171260e-01 0.000000e+00 0.000000e+00
 0.000000e+00 0.000000e+00 7.313167e-01 2.686833e-01 0.000000e+00
 0.000000e+00 0.000000e+00 0.000000e+00 9.369290e-01 6.307098e-02
 0.000000e+00 0.000000e+00 0.000000e+00 0.000000e+00 0.000000e+00
<ENDHMM>
~h "s"
<BEGINHMM>
<NUMSTATES> 5
<STATE> 2
<MEAN> 39
 -9.298096e+00 -5.550131e+00 2.337092e+00 -5.087460e+00 2.103906e+00 -6.613375e+00 2.037890e+00 1.016644e+00 2.833806e+00 -3.398714e+00 1.443387e+00 -1.707241e+00 6.392112e+01 -1.211728e+00 -3.233270e-01 -1.061110e-01 -1.787670e-01 3.886871e-01 -4.798843e-01 2.196907e-01 5.295635e-01 1.520152e-02 1.657496e-01 2.535681e-01 1.038746e-01 3.669108e-01 2.178860e-01 1.233461e-02 -5.570877e-02 2.805371e-03 -8.851814e-02 7.770434e-02 5.714979e-02 -2.722694e-02 7.857602e-02 1.008080e-01 -7.411611e-02 -5.749934e-02 -6.809177e-03
<VARIANCE> 39
 1.985436e+01 1.161900e+01 2.057849e+01 1.689399e+01 1.687669e+01 3.265332e+01 3.206842e+01 2.234529e+01 2.266461e+01 2.125968e+01 2.088515e+01 2.165121e+01 1.615635e+01 1.343442e+00 9.526276e-01 1.177317e+00 1.331810e+00 1.498228e+00 1.767131e+00 2.077816e+00 1.601009e+00 2.102987e+00 1.503030e+00 1.816960e+00 1.673965e+00 4.207286e-01 1.947358e-01 1.897638e-01 1.995146e-01 2.535518e-01 3.458037e-01 3.644700e-01 3.918134e-01 3.235016e-01 4.231596e-01 2.817217e-01 3.675932e-01 3.775117e-01 6.671223e-02
<GCONST> 9.797141e+01
<STATE> 3
<MEAN> 39
 -1.168630e+01 -7.478655e+00 -2.214427e-01 -5.560924e+00 2.231754e+00 -8.521710e+00 6.551664e+00 1.938376e+00 3.914062e+00 -1.071154e+00 -7.512569e-04 -2.027960e+00 6.560242e+01 1.276357e+00 -2.866663e-01 -5.097414e-01 -3.437458e-01 -5.753081e-01 2.877671e-01 9.292972e-02 -5.764605e-01 -6.316222e-03 4.078903e-01 -8.102905e-01 -8.526214e-01 1.546911e-01 7.642484e-01 -1.433582e-01 -5.463625e-02 -2.144803e-01 -1.734862e-01 2.236795e-01 -3.574540e-01 -3.371794e-01 -2.146970e-01 2.777542e-02 -2.475259e-01 -4.196122e-01 2.586200e-01
<VARIANCE> 39
 1.051402e+01 8.076733e+00 1.351272e+01 1.454877e+01 1.473629e+01 1.758299e+01 2.285021e+01 1.656604e+01 1.589378e+01 1.442412e+01 1.499383e+01 1.891549e+01 3.707080e+00 4.593802e+00 8.513384e-01 9.860495e-01 1.379907e+00 1.343563e+00 1.509973e+00 1.926088e+00 2.005191e+00 1.710272e+00 1.468505e+00 1.786391e+00 2.952646e+00 6.625679e-01 2.267651e-01 2.086377e-01 1.693652e-01 3.506047e-01 2.355931e-01 3.294848e-01 3.430108e-01 2.890608e-01 3.746997e-01 2.793311e-01 2.831649e-01 4.870112e-01 2.548956e-01
<GCONST> 9.484200e+01
<STATE> 4
<MEAN> 39
 2.098436e+00 -1.103135e+01 -2.589654e+00 -1.031792e+01 -1.894026e+00 -4.625682e+00 1.695763e+00 -3.514757e+00 8.916314e-01 1.392214e+00 -5.701464e+00 -1.173734e+01 7.111854e+01 2.353101e+00 -2.306650e+00 -5.864279e-01 -1.808941e+00 -6.702044e-01 2.043486e+00 -1.038275e+00 -3.028609e-01 -4.189285e-01 7.490557e-01 -7.450458e-01 -2.147723e+00 2.164159e+00 -7.756727e-01 -2.721809e-01 1.275518e-01 1.628109e-01 2.252392e-01 2.497854e-01 3.098627e-01 4.671783e-01 2.045073e-01 -2.349156e-01 3.654327e-01 5.525731e-01 -1.659356e-01
<VARIANCE> 39
 6.742546e+01 4.022062e+01 1.771816e+01 2.606819e+01 1.481156e+01 3.249445e+01 1.692383e+01 1.757026e+01 1.179198e+01 1.733267e+01 1.769598e+01 3.011889e+01 2.760618e+01 5.257412e+00 2.909914e+00 1.269800e+00 2.407975e+00 1.163635e+00 2.223010e+00 2.569937e+00 2.352593e+00 2.153791e+00 1.424360e+00 1.537014e+00 3.656092e+00 2.250432e+00 6.173581e-01 5.846249e-01 1.975562e-01 4.539776e-01 2.289658e-01 3.752574e-01 3.360442e-01 3.291494e-01 2.478567e-01 2.957165e-01 1.922859e-01 4.385300e-01 4.554158e-01
<GCONST> 1.087999e+02
<TRANSP> 5
 0.000000e+00 1.000000e+00 0.000000e+00 0.000000e+00 0.000000e+00
 0.000000e+00 8.004296e-01 1.995704e-01 0.000000e+00 0.000000e+00
 0.000000e+00 0.000000e+00 7.184908e-01 2.815092e-01 0.000000e+00
 0.000000e+00 0.000000e+00 0.000000e+00 5.687515e-01 4.312485e-01
 0.000000e+00 0.000000e+00 0.000000e+00 0.000000e+00 0.000000e+00
<ENDHMM>
~h "t"
<BEGINHMM>
<NUMSTATES> 5
<STATE> 2
<MEAN> 39
 3.991964e-01 -6.590492e+00 -5.390156e+00 -6.368572e+00 -1.107766e+00 -2.274650e+00 2.653281e+00 -2.491316e+00 6.751752e+00 -2.116497e-01 -2.051263e+00 -5.957773e+00 6.076254e+01 -7.477704e-01 1.081651e-01 -5.700766e-02 -5.890764e-04 -8.279914e-02 7.950824e-03 5.339232e-01 2.197292e-01 -6.741637e-02 -2.291639e-01 3.567771e-01 5.344810e-01 -6.310302e-01 6.311825e-02 -2.470917e-01 1.916197e-01 -2.854094e-02 -1.568058e-01 -1.666603e-01 -3.055927e-02 4.040468e-03 -2.246228e-01 -9.871884e-02 -5.288257e-02 -1.058997e-02 3.226116e-01
<VARIANCE> 39
 1.245549e+01 1.079069e+01 2.263952e+01 1.508685e+01 1.593773e+01 1.514816e+01 2.168625e+01 1.412357e+01 2.067860e+01 1.780157e+01 1.445465e+01 1.677688e+01 1.073517e+01 2.595002e-01 4.242741e-01 7.643637e-01 8.007597e-01 1.009509e+00 1.075661e+00 1.282235e+00 1.096933e+00 1.705032e+00 1.663659e+00 1.468640e+00 1.158003e+00 2.476003e-01 3.918135e-02 1.614946e-01 1.477774e-01 1.837338e-01 2.518534e-01 2.844012e-01 2.448139e-01 2.943901e-01 3.722501e-01 3.910724e-01 3.338263e-01 2.296142e-01 9.448510e-02
<GCONST> 8.450914e+01
<STATE> 3
<MEAN> 39
 -3.751487e+00 -5.143124e+00 -1.668653e+00 -3.117653e+00 -2.676970e-01 -2.522333e+00 4.534678e+00 -2.528376e+00 3.315470e+00 -2.482861e+00 8.721606e-01 -1.277961e+00 5.759755e+01 -2.742018e-01 -2.001310e+00 8.190581e-01 -6.782022e-01 -1.638915e+00 -1.331185e+00 7.255413e-02 -3.269166e-01 -1.240566e+00 -6.958613e-01 5.172482e-01 1.549888e-01 1.975292e+00 3.243627e-01 -3.205837e-01 6.077001e-01 -2.258863e-01 -8.162585e-01 -4.312041e-01 -1.650216e-01 -2.089791e-01 -4.152875e-01 -4.018049e-02 -3.825488e-02 -4.974560e-01 8.772023e-01
<VARIANCE> 39
 9.399916e+00 8.423891e+00 2.613670e+01 1.933359e+01 1.087309e+01 1.533481e+01 1.585278e+01 1.291166e+01 2.164410e+01 1.145746e+01 2.355262e+01 1.546513e+01 8.755449e+00 5.880054e-01 1.816119e+00 1.286063e+00 1.448916e+00 2.206686e+00 2.892594e+00 1.485227e+00 2.576309e+00 2.989823e+00 2.340264e+00 1.814985e+00 2.000439e+00 2.324580e+00 1.753450e-01 2.136222e-01 3.647961e-01 1.544448e-01 4.216474e-01 3.399294e-01 2.952695e-01 3.435082e-01 4.096763e-01 2.759676e-01 3.150043e-01 3.342535e-01 2.627977e-01
<GCONST> 9.809592e+01
<STATE> 4
<MEAN> 39
 -3.329106e+00 -1.301050e+01 9.857581e-01 -6.717771e+00 -7.629652e+00 -8.363440e+00 4.833572e+00 -4.353965e+00 -9.315371e-01 -4.715100e+00 2.286544e+00 -2.763914e+00 6.733603e+01 9.904854e-01 -4.121793e-01 2.640580e+00 -5.540494e-01 -2.586728e+00 -9.758952e-01 -4.154458e-01 -6.376268e-01 -1.752377e+00 5.320483e-02 -2.875758e-01 -1.644073e+00 2.381799e+00 3.763439e-01 7.976409e-01 4.995594e-01 5.360142e-02 1.568957e-01 7.631291e-01 -4.487425e-01 1.192289e-01 5.430081e-02 5.512558e-01 -4.609576e-01 -5.994747e-01 -5.091585e-01
<VARIANCE> 39
 5.526147e+00 1.447640e+01 3.076729e+01 1.711905e+01 2.184425e+01 2.836336e+01 1.392354e+01 2.025053e+01 3.050180e+01 1.863443e+01 1.906742e+01 1.389026e+01 1.663609e+01 3.231909e+00 2.229509e+00 4.897942e+00 1.764969e+00 6.009004e+00 2.776135e+00 2.784110e+00 2.124258e+00 3.266531e+00 1.895862e+00 1.876312e+00 4.607701e+00 4.781671e+00 1.897101e-01 2.921592e-01 8.229082e-01 2.695859e-01 7.675841e-01 6.361477e-01 4.207920e-01 6.140351e-01 5.937615e-01 4.759474e-01 3.834223e-01 3.581269e-01 3.527648e-01
<GCONST> 1.126391e+02
<TRANSP> 5
 0.000000e+00 1.000000e+00 0.000000e+00 0.000000e+00 0.000000e+00
 0.000000e+00 7.732936e-01 2.267064e-01 0.000000e+00 0.000000e+00
 0.000000e+00 0.000000e+00 4.776424e-01 5.223576e-01 0.000000e+00
 0.000000e+00 0.000000e+00 0.000000e+00 5.354741e-01 4.645260e-01
 0.000000e+00 0.000000e+00 0.000000e+00 0.000000e+00 0.000000e+00
<ENDHMM>
~h "y"
<BEGINHMM>
<NUMSTATES> 5
<STATE> 2
<MEAN> 39
 8.173260e+00 1.454910e+00 3.774854e+00 -3.428628e+00 -8.180864e+00 -8.033510e+00 4.424230e+00 -1.069007e+00 8.372769e-01 -6.981022e+00 -6.872010e-01 -3.236094e+00 6.479600e+01 -7.908653e-01 -2.460516e+00 2.897099e+00 -1.939588e-01 -2.047506e+00 3.596044e-01 -5.499577e-01 7.898331e-01 -8.577854e-01 -4.211667e-01 1.103905e+00 -1.796833e-01 1.123284e+00 -2.538648e-01 -1.070310e+00 9.722705e-01 -1.386740e-01 -8.325707e-01 1.314855e-01 -2.714858e-01 3.288101e-03 -3.453056e-01 2.522663e-01 2.222570e-01 -9.166887e-02 5.335139e-01
<VARIANCE> 39
 2.567749e+00 7.060440e+00 1.016604e+01 4.529778e+00 5.911899e+00 1.510134e+01 7.238749e+00 1.081546e+01 1.068478e+01 1.387618e+01 1.056658e+01 8.179973e+00 2.235803e+00 1.119299e-01 8.632045e-01 9.196391e-01 5.840970e-01 8.208833e-01 1.136280e+00 6.970221e-01 1.317584e+00 1.218293e+00 1.195258e+00 1.068107e+00 6.116295e-01 2.094106e-01 3.796464e-02 6.942463e-02 2.065477e-01 1.188961e-01 8.003831e-02 2.080658e-01 1.792038e-01 1.764788e-01 1.541161e-01 1.698273e-01 2.008689e-01 1.405686e-01 1.890678e-02
<GCONST> 6.442035e+01
<STATE> 3
<MEAN> 39
 5.580205e+00 -7.537246e+00 1.383595e+01 -5.089639e+00 -1.552438e+01 -6.278206e+00 1.784539e+00 1.417073e+00 -2.994778e+00 -6.886108e+00 2.962324e+00 -4.775839e+00 6.951738e+01 -9.026561e-01 -3.503829e+00 3.156990e+00 -4.921811e-01 -2.456277e+00 3.190390e-01 -1.010116e+00 7.076831e-01 -1.424649e+00 5.414310e-01 1.020587e+00 -4.370202e-01 1.775177e+00 1.569890e-01 8.385973e-02 -6.043407e-01 6.909260e-02 3.491236e-01 -1.715502e-01 7.503599e-02 -1.699227e-01 9.004891e-02 3.411960e-01 -4.039823e-01 4.037589e-03 -2.290550e-02
<VARIANCE> 39
 4.523480e+00 3.320915e+01 3.421799e+01 7.597939e+00 1.757381e+01 1.177584e+01 9.814842e+00 1.141077e+01 1.519466e+01 6.137072e+00 1.236355e+01 8.043474e+00 1.183118e+01 3.286445e-01 9.122334e-01 2.826446e+00 9.215427e-01 1.686185e+00 1.473151e+00 1.310872e+00 1.170862e+00 1.144393e+00 1.276434e+00 1.364631e+00 8.167899e-01 2.261977e-01 6.591946e-02 4.763771e-01 7.009250e-01 1.416003e-01 5.293748e-01 1.902677e-01 2.224330e-01 1.841336e-01 2.502694e-01 1.685220e-01 2.315674e-01 1.424716e-01 1.347318e-01
<GCONST> 8.415516e+01
<STATE> 4
<MEAN> 39
 5.357053e+00 -1.458561e+01 1.266865e+01 -4.737331e+00 -1.488553e+01 -7.276705e+00 -4.638805e-01 1.650277e+00 -3.190017e+00 -3.405839e+00 2.065757e-01 -5.601056e+00 7.269797e+01 -1.332255e-02 -1.423845e-01 -5.068788e-01 1.530715e-01 7.274454e-01 -4.644926e-02 -2.719094e-01 -3.923592e-02 2.608731e-01 2.008074e-01 -4.670611e-01 -1.316406e-01 6.785601e-03 -3.562086e-02 4.550111e-01 -1.826906e-01 8.093785e-02 2.612461e-01 2.194042e-02 8.054935e-02 -1.207542e-01 1.347348e-01 -8.488761e-02 -1.907534e-02 2.197547e-02 -2.586772e-01
<VARIANCE> 39
 3.131324e+00 2.128856e+01 3.116159e+01 1.128124e+01 3.023360e+01 1.371560e+01 2.250516e+01 1.124013e+01 1.583293e+01 1.106290e+01 1.374942e+01 1.205406e+01 9.371655e+00 2.708677e-01 3.284320e+00 2.287787e+00 7.351941e-01 2.093582e+00 8.568211e-01 9.177300e-01 9.993652e-01 1.008405e+00 7.652240e-01 7.649907e-01 8.285444e-01 9.338162e-01 8.770411e-02 1.570197e-01 4.381536e-01 1.317288e-01 3.130241e-01 1.539029e-01 1.685812e-01 1.619435e-01 1.951681e-01 1.313266e-01 1.499476e-01 1.432274e-01 3.569115e-02
<GCONST> 8.132212e+01
<TRANSP> 5
 0.000000e+00 1.000000e+00 0.000000e+00 0.000000e+00 0.000000e+00
 0.000000e+00 1.394451e-01 8.605549e-01 0.000000e+00 0.000000e+00
 0.000000e+00 0.000000e+00 5.395662e-01 4.604339e-01 0.000000e+00
 0.000000e+00 0.000000e+00 0.000000e+00 9.034882e-01 9.651183e-02
 0.000000e+00 0.000000e+00 0.000000e+00 0.000000e+00 0.000000e+00
<ENDHMM>
~h "aa"
<BEGINHMM>
<NUMSTATES> 5
<STATE> 2
<MEAN> 39
 2.984876e+00 -1.299231e+01 -4.076045e+00 -1.017802e+01 1.153636e+00 2.803023e+00 1.979753e+00 -3.625741e+00 -1.902072e+00 -2.699501e+00 -2.338460e+00 -9.871869e+00 6.846827e+01 8.087046e-01 -1.426477e+00 -5.543563e-01 -9.397683e-01 2.433209e-01 1.105362e+00 -4.810117e-01 -1.157377e-01 -6.158466e-01 -2.794749e-01 -1.465998e-01 -9.426548e-01 1.412013e+00 -8.049774e-02 -1.179552e-02 1.823559e-01 1.123777e-01 -1.377347e-01 -6.257913e-02 1.544665e-02 1.617469e-01 1.614430e-01 4.676994e-03 8.102600e-02 2.034069e-01 8.516811e-03
<VARIANCE> 39
 3.582795e+01 4.632161e+01 2.818707e+01 3.043122e+01 1.911538e+01 2.900614e+01 2.212246e+01 3.095589e+01 2.651719e+01 2.061290e+01 1.899191e+01 3.607087e+01 5.055603e+01 2.590356e+00 3.155591e+00 1.862556e+00 2.548516e+00 1.266991e+00 2.729774e+00 1.690935e+00 2.442716e+00 2.776466e+00 1.636254e+00 1.338715e+00 2.568274e+00 2.540444e+00 3.810595e-01 5.796995e-01 3.791710e-01 4.597883e-01 2.295604e-01 3.991353e-01 2.773705e-01 4.489668e-01 3.994347e-01 3.050037e-01 2.041120e-01 4.566118e-01 3.550297e-01
<GCONST> 1.122041e+02
<STATE> 3
<MEAN> 39
 7.465535e+00 -2.087957e+01 -5.791579e+00 -1.356197e+01 -2.512253e-01 5.336807e+00 2.516337e-01 -1.069629e+00 -1.179800e+00 -1.542321e+00 -5.590083e+00 -1.335893e+01 7.553221e+01 2.498806e-03 -2.284153e-01 2.297511e-01 2.088448e-01 -1.129070e-01 -3.891462e-01 -4.200364e-01 4.581650e-01 4.985422e-01 -5.929636e-02 -2.700240e-01 1.397069e-01 1.269337e-01 -4.335248e-02 3.660952e-01 1.201835e-01 1.494056e-01 -9.049961e-02 -3.447472e-01 -2.871178e-02 -4.446451e-02 8.266225e-02 1.032099e-01 5.916149e-02 1.272405e-01 -1.955247e-01
<VARIANCE> 39
 1.240994e+01 2.255041e+01 2.053365e+01 1.545143e+01 1.545141e+01 3.090775e+01 1.588874e+01 2.371471e+01 1.683803e+01 1.261596e+01 2.029468e+01 1.348175e+01 1.573555e+01 4.310232e-01 1.567850e+00 9.669140e-01 9.680774e-01 1.051770e+00 2.003761e+00 1.118801e+00 9.593709e-01 1.162524e+00 7.890244e-01 8.921791e-01 7.534135e-01 7.355960e-01 6.736457e-02 1.809209e-01 1.430319e-01 1.740587e-01 1.606038e-01 1.775389e-01 1.831540e-01 2.083956e-01 1.681963e-01 1.403380e-01 1.976151e-01 1.560714e-01 7.731765e-02
<GCONST> 8.375697e+01
<STATE> 4
<MEAN> 39
 6.313799e+00 -1.327677e+01 -3.735121e+00 -9.739017e+00 -1.376120e+00 -2.115340e+00 -1.933848e+00 -2.776692e-01 3.395789e+00 -5.377540e-01 -4.869984e+00 -1.027793e+01 7.052135e+01 -5.170537e-01 1.608144e+00 3.052309e-01 7.475938e-01 4.232490e-02 -5.000057e-01 1.489102e-02 -6.076939e-01 3.677287e-01 -1.673644e-02 7.327414e-01 7.376541e-01 -1.145125e+00 -1.552098e-01 -1.918513e-02 -1.991413e-01 5.242681e-02 1.331663e-01 3.219894e-01 3.040220e-01 -1.350277e-01 -1.260392e-01 -1.549245e-01 1.181449e-01 -2.239752e-02 -1.277587e-01
<VARIANCE> 39
 2.536648e+01 4.740226e+01 2.289779e+01 1.571313e+01 2.263184e+01 4.540948e+01 2.762268e+01 2.884129e+01 2.595946e+01 2.091762e+01 2.389721e+01 1.800539e+01 2.853585e+01 8.869234e-01 2.532502e+00 1.398536e+00 1.460842e+00 1.826573e+00 3.125237e+00 2.644824e+00 1.977274e+00 1.476344e+00 1.880145e+00 1.261695e+00 1.448040e+00 1.325518e+00 1.510454e-01 4.335916e-01 2.882438e-01 2.944336e-01 4.055500e-01 6.154381e-01 4.968215e-01 4.564831e-01 3.353805e-01 3.917958e-01 2.745240e-01 3.137500e-01 1.754559e-01
<GCONST> 1.065225e+02
<TRANSP> 5
 0.000000e+00 1.000000e+00 0.000000e+00 0.000000e+00 0.000000e+00
 0.000000e+00 5.575699e-01 4.424301e-01 0.000000e+00 0.000000e+00
 0.000000e+00 0.000000e+00 7.789882e-01 2.210118e-01 0.000000e+00
 0.000000e+00 0.000000e+00 0.000000e+00 7.026114e-01 2.973886e-01
 0.000000e+00 0.000000e+00 0.000000e+00 0.000000e+00 0.000000e+00
<ENDHMM>
~h "cx"
<BEGINHMM>
<NUMSTATES> 5
<STATE> 2
<MEAN> 39
 -2.474076e+00 -3.060547e+00 4.561029e+00 -2.760939e+00 -1.989361e+00 -2.425102e+00 1.962471e+00 -3.717927e+00 1.856489e+00 -2.853204e+00 -8.037649e-02 -1.540712e+00 6.078402e+01 -1.271579e+00 -6.230730e-01 4.380850e-02 -2.213300e-01 -2.329802e-01 5.426686e-01 -1.952377e-01 -2.636314e-02 1.330171e-01 -1.053994e-01 5.086749e-03 -1.245116e-01 -2.218706e-01 -9.471755e-02 -2.310788e-01 -2.006480e-03 -3.131799e-01 -1.736085e-01 5.996225e-02 -1.239398e-01 6.092458e-02 -5.803076e-02 -1.534035e-01 -1.988005e-02 -6.840054e-02 2.507218e-01
<VARIANCE> 39
 3.114800e+01 2.582890e+01 2.280979e+01 1.443395e+01 2.522045e+01 2.398317e+01 2.130241e+01 2.933003e+01 1.466876e+01 1.908454e+01 1.708553e+01 1.444034e+01 1.504420e+01 1.395927e+00 2.463006e+00 1.752993e+00 2.006740e+00 2.664211e+00 2.467318e+00 3.159395e+00 1.319722e+00 2.055249e+00 1.880695e+00 1.693142e+00 1.563490e+00 1.660151e+00 1.317521e-01 3.681951e-01 2.732693e-01 4.107597e-01 3.722705e-01 3.420970e-01 5.329074e-01 3.303381e-01 3.770405e-01 3.983589e-01 3.379213e-01 3.015790e-01 1.609545e-01
<GCONST> 1.044796e+02
<STATE> 3
<MEAN> 39
 -7.059890e+00 -4.049394e+00 5.240199e+00 -3.747382e+00 -1.248078e+00 -1.294604e+00 1.186475e+00 -2.284385e+00 3.512288e+00 -3.684976e+00 6.119137e-01 -1.928386e+00 6.139676e+01 -9.008956e-01 -9.356089e-01 -1.655025e-01 -6.447338e-01 -3.862790e-01 4.450147e-01 2.671306e-01 2.537703e-01 2.561124e-01 1.408122e-02 2.449609e-01 -1.406280e-01 1.631195e-01 4.602705e-01 -3.120658e-01 -3.955987e-02 -2.645654e-01 -3.050572e-01 -3.748585e-01 -1.666332e-01 -5.555752e-02 -7.077810e-02 -3.976956e-02 -6.475873e-02 -6.729783e-02 3.207755e-01
<VARIANCE> 39
 4.051839e+01 1.505860e+01 3.695383e+01 1.200999e+01 2.731092e+01 4.357029e+01 3.370896e+01 3.385020e+01 2.159338e+01 1.865920e+01 2.552246e+01 2.519189e+01 2.140550e+01 2.189773e+00 2.468826e+00 1.336053e+00 2.240942e+00 1.935752e+00 3.035369e+00 2.174242e+00 1.547235e+00 1.849582e+00 1.967239e+00 1.377423e+00 1.395573e+00 1.739738e+00 1.058844e+00 2.417608e-01 4.691087e-01 3.592004e-01 4.420227e-01 1.196274e+00 6.572070e-01 4.570908e-01 4.264920e-01 5.871694e-01 3.826340e-01 3.418814e-01 2.417943e-01
<GCONST> 1.122817e+02
<STATE> 4
<MEAN> 39
 -3.525019e+00 -6.517681e+00 3.818238e+00 -4.320952e+00 -4.371104e+00 -4.312336e+00 1.401662e+00 -1.729572e+00 3.897080e+00 -2.331924e+00 7.923608e-01 -3.504514e+00 6.306226e+01 1.158301e+00 -1.580731e+00 -6.438817e-01 -1.128369e+00 -8.027661e-01 -7.389326e-01 -6.153460e-01 3.029765e-01 -1.689691e-01 8.409935e-02 -9.984791e-02 -6.952734e-01 1.007464e+00 -2.472217e-01 -2.027451e-01 1.853738e-01 -2.811230e-01 2.284375e-01 2.478527e-01 -2.720442e-01 1.172382e-01 6.760381e-02 2.264757e-02 -4.166780e-02 -4.970427e-02 4.012427e-01
<VARIANCE> 39
 4.389892e+01 2.087996e+01 2.616608e+01 1.220546e+01 3.436524e+01 3.603637e+01 2.530395e+01 2.552724e+01 1.331069e+01 1.571199e+01 1.980561e+01 1.841601e+01 3.974797e+01 8.580101e+00 2.688872e+00 3.016473e+00 1.874476e+00 2.077598e+00 7.124038e+00 2.059967e+00 2.335959e+00 1.944178e+00 2.489202e+00 1.033689e+00 1.426419e+00 2.055794e+00 8.662795e-01 2.959643e-01 3.917735e-01 2.970428e-01 5.674579e-01 9.932724e-01 5.163741e-01 3.809579e-01 2.990772e-01 4.636927e-01 2.461541e-01 2.425568e-01 2.004657e-01
<GCONST> 1.124914e+02
<TRANSP> 5
 0.000000e+00 1.000000e+00 0.000000e+00 0.000000e+00 0.000000e+00
 0.000000e+00 3.305413e-01 6.694587e-01 0.000000e+00 0.000000e+00
 0.000000e+00 0.000000e+00 1.919286e-01 8.080714e-01 0.000000e+00
 0.000000e+00 0.000000e+00 0.000000e+00 2.581196e-01 7.418804e-01
 0.000000e+00 0.000000e+00 0.000000e+00 0.000000e+00 0.000000e+00
<ENDHMM>
~h "ee"
<BEGINHMM>
<NUMSTATES> 5
<STATE> 2
<MEAN> 39
 -3.400575e+00 -7.198973e+00 6.496035e+00 -5.592325e+00 -7.433597e+00 -5.928898e+00 1.602122e+00 -2.977349e+00 -1.810372e+00 -1.741767e+00 1.994747e+00 -4.304601e+00 6.073296e+01 9.577625e-01 -1.423019e+00 3.277715e+00 -9.894109e-01 -2.969805e+00 -1.014998e+00 -9.811776e-01 1.972570e-01 -1.939572e+00 2.141430e-01 3.079517e-01 -1.421376e+00 2.207397e+00 3.967190e-01 -2.122559e-01 4.175608e-01 -1.624562e-01 -4.517808e-01 -2.051746e-01 -3.110209e-01 9.425372e-03 -2.796112e-01 -5.045141e-02 6.059849e-02 -8.223265e-02 5.496207e-01
<VARIANCE> 39
 1.328502e+01 2.580946e+01 6.691178e+01 1.698474e+01 4.870660e+01 2.733065e+01 2.325592e+01 1.848363e+01 3.265968e+01 1.442984e+01 1.510129e+01 2.659660e+01 2.838784e+01 2.008309e+00 2.406020e+00 4.309441e+00 2.186945e+00 5.375951e+00 2.023901e+00 2.646641e+00 1.646461e+00 3.156683e+00 1.928884e+00 1.960336e+00 2.115421e+00 3.863432e+00 1.913792e-01 3.885978e-01 1.118747e+00 3.093191e-01 1.133511e+00 5.385916e-01 4.915987e-01 2.530549e-01 5.965249e-01 3.956174e-01 3.839695e-01 5.066886e-01 5.016907e-01
<GCONST> 1.155540e+02
<STATE> 3
<MEAN> 39
 2.681999e+00 -1.199606e+01 1.747453e+01 -9.430674e+00 -1.906741e+01 -9.627048e+00 -1.605319e+00 -1.490209e+00 -8.437650e+00 -2.051229e+00 3.497006e+00 -8.722415e+00 7.056164e+01 8.121835e-01 -7.911525e-01 1.469630e+00 -4.453946e-01 -1.161703e+00 1.035839e-01 -5.492649e-01 1.152239e-01 -8.062716e-01 -1.065131e-02 3.149058e-01 7.017782e-02 1.485386e+00 -2.036694e-01 1.627003e-01 -4.876952e-01 1.990819e-01 5.199636e-01 1.691153e-01 9.306280e-02 1.827079e-02 3.521040e-01 3.541282e-02 -8.351101e-02 2.969354e-01 -3.259856e-01
<VARIANCE> 39
 5.134912e+00 1.527829e+01 2.244901e+01 1.088519e+01 9.722821e+00 1.329725e+01 1.681449e+01 1.023626e+01 1.384990e+01 8.100537e+00 1.309930e+01 5.887918e+00 1.401596e+01 6.850067e-01 1.908339e+00 1.731974e+00 9.476387e-01 1.466215e+00 1.156391e+00 1.582934e+00 1.142068e+00 1.162917e+00 1.128870e+00 1.087162e+00 8.789200e-01 1.134491e+00 1.707347e-01 4.229458e-01 4.857295e-01 2.122817e-01 4.398551e-01 2.306712e-01 3.596260e-01 2.268998e-01 2.985710e-01 2.029658e-01 1.852235e-01 2.126709e-01 3.646597e-01
<GCONST> 8.875019e+01
<STATE> 4
<MEAN> 39
 5.222524e+00 -1.428527e+01 2.010613e+01 -9.390266e+00 -2.159712e+01 -9.951442e+00 -3.951143e+00 -2.319300e+00 -9.847087e+00 -2.619862e-01 3.797128e+00 -7.139112e+00 7.487052e+01 1.818478e-01 3.188753e-01 -3.785041e-01 2.615235e-01 -1.173234e-02 -3.598679e-01 2.783879e-01 -2.287477e-01 -8.264937e-02 4.018820e-01 -4.584136e-02 -1.041178e-01 -1.385085e-01 -5.838847e-02 1.975148e-01 -1.368402e-01 7.702874e-02 1.320656e-01 -3.307741e-02 1.149594e-01 -4.064072e-02 2.482545e-02 1.458638e-02 -2.399554e-02 -9.482236e-02 -2.015107e-01
<VARIANCE> 39
 2.162965e+00 1.292994e+01 1.035637e+01 1.254753e+01 1.051363e+01 9.461703e+00 9.330241e+00 8.039374e+00 1.265235e+01 8.065625e+00 9.083660e+00 6.121559e+00 5.075101e+00 1.396966e-01 5.614495e-01 6.467517e-01 6.483006e-01 6.360174e-01 6.358898e-01 8.036492e-01 6.207648e-01 7.331296e-01 6.217398e-01 4.540070e-01 5.235707e-01 3.211389e-01 2.831473e-02 1.020582e-01 1.063957e-01 1.290513e-01 1.258666e-01 1.263504e-01 1.431145e-01 1.328540e-01 1.529890e-01 1.372264e-01 9.188144e-02 6.615010e-02 4.400324e-02
<GCONST> 6.035870e+01
<TRANSP> 5
 0.000000e+00 1.000000e+00 0.000000e+00 0.000000e+00 0.000000e+00
 0.000000e+00 7.474300e-01 2.525700e-01 0.000000e+00 0.000000e+00
 0.000000e+00 0.000000e+00 7.615058e-01 2.384942e-01 0.000000e+00
 0.000000e+00 0.000000e+00 0.000000e+00 9.042832e-01 9.571685e-02
 0.000000e+00 0.000000e+00 0.000000e+00 0.000000e+00 0.000000e+00
<ENDHMM>
~h "ii"
<BEGINHMM>
<NUMSTATES> 5
<STATE> 2
<MEAN> 39
 4.239199e+00 -1.099212e+01 1.969389e+01 -8.736392e+00 -1.995698e+01 -6.003516e+00 -2.997691e+00 -7.131603e+00 -1.041267e+01 5.505755e-01 -8.764802e-01 -1.395232e+01 7.390265e+01 1.239918e+00 1.917679e-01 3.088813e+00 -1.141393e+00 -1.939830e+00 1.308304e+00 -1.856663e+00 -4.370269e-01 -1.288088e+00 1.868193e+00 -1.671970e+00 -2.410537e+00 1.073653e+00 -6.358323e-01 2.269544e-01 -1.226425e+00 2.434160e-01 1.057927e+00 1.250963e-01 5.844195e-01 1.640075e-01 7.861934e-01 -8.840062e-02 -1.661503e-02 8.599815e-01 -8.734056e-01
<VARIANCE> 39
 2.197718e+00 9.166173e+00 1.840352e+01 1.331233e+01 8.360657e+00 9.909371e+00 1.395749e+01 6.949945e+00 8.845483e+00 1.126785e+01 1.049991e+01 8.875455e+00 7.135168e+00 1.255151e+00 7.043033e-01 4.864393e+00 9.475714e-01 2.707206e+00 1.669226e+00 2.404966e+00 1.416952e+00 1.840715e+00 9.932148e-01 1.337860e+00 2.173446e+00 8.611386e-01 4.640516e-02 1.044841e-01 3.674411e-01 1.475419e-01 1.557617e-01 3.868510e-01 3.103026e-01 2.120782e-01 1.471509e-01 2.698354e-01 2.000996e-01 1.748365e-01 8.811264e-02
<GCONST> 8.315279e+01
<STATE> 3
<MEAN> 39
 4.223701e+00 -8.110893e+00 2.024074e+01 -1.028070e+01 -1.975395e+01 -2.061490e+00 -1.339555e+00 -6.626908e+00 -6.352193e+00 3.165063e+00 -4.374396e+00 -1.299515e+01 7.201040e+01 4.358232e-02 4.472870e-01 -4.089972e-01 1.690498e-01 1.757004e-01 2.318548e-02 6.196835e-01 3.750449e-01 4.949404e-01 -2.977590e-01 2.100613e-01 5.935709e-01 -4.275999e-01 2.175771e-02 7.452390e-02 -2.159698e-01 1.196577e-01 1.447898e-01 -1.583765e-01 9.250231e-02 7.431137e-02 1.053067e-02 -2.104917e-01 1.601794e-01 1.345624e-01 -7.764187e-02
<VARIANCE> 39
 2.758022e+00 9.182441e+00 1.501321e+01 1.143117e+01 1.177771e+01 1.229984e+01 1.888049e+01 1.169617e+01 1.483358e+01 1.370211e+01 1.636179e+01 1.117485e+01 5.031953e+00 1.226327e-01 3.432817e-01 6.668311e-01 5.892756e-01 6.011262e-01 8.843195e-01 5.812046e-01 7.168450e-01 8.866462e-01 9.390195e-01 1.012015e+00 4.598387e-01 1.189619e-01 2.914048e-02 9.112532e-02 1.519604e-01 1.048714e-01 1.547185e-01 1.282402e-01 1.298067e-01 1.226104e-01 1.897576e-01 1.191991e-01 1.443873e-01 1.199882e-01 3.402242e-02
<GCONST> 6.452385e+01
<STATE> 4
<MEAN> 39
 6.432807e+00 2.408259e-01 1.000077e+01 -6.214629e+00 -1.277304e+01 -4.975594e+00 4.493858e+00 -3.655592e+00 -2.228074e+00 -2.988909e+00 -1.580556e+00 -6.628398e+00 6.581171e+01 2.494922e-01 1.215706e+00 -1.258743e+00 5.069708e-01 1.287508e+00 -2.109921e-01 1.914520e-01 -4.284017e-02 8.228079e-01 -4.540271e-01 -3.508671e-01 5.019292e-01 -7.602921e-01 -9.629443e-02 -1.118189e-01 2.286184e-01 -1.626761e-02 -6.224216e-02 1.121391e-01 -1.618799e-01 -7.004300e-02 7.755652e-02 1.361724e-01 -1.248398e-01 -6.337322e-02 5.922982e-02
<VARIANCE> 39
 2.074555e+00 1.357631e+01 1.513718e+01 1.040236e+01 2.084408e+01 1.148387e+01 1.225841e+01 1.118519e+01 1.208468e+01 1.542394e+01 1.737578e+01 8.711456e+00 4.633521e+00 1.571726e-01 6.937094e-01 1.188636e+00 6.917526e-01 1.210828e+00 1.106551e+00 8.873869e-01 1.073386e+00 8.824297e-01 1.113696e+00 1.104481e+00 8.563783e-01 1.752911e-01 2.046071e-02 1.123976e-01 1.637399e-01 1.446047e-01 2.371644e-01 2.503825e-01 1.518242e-01 2.102919e-01 1.951241e-01 2.092137e-01 2.404928e-01 1.656789e-01 2.441361e-02
<GCONST> 7.205170e+01
<TRANSP> 5
 0.000000e+00 1.000000e+00 0.000000e+00 0.000000e+00 0.000000e+00
 0.000000e+00 6.888715e-01 3.111285e-01 0.000000e+00 0.000000e+00
 0.000000e+00 0.000000e+00 9.122871e-01 8.771283e-02 0.000000e+00
 0.000000e+00 0.000000e+00 0.000000e+00 8.693438e-01 1.306562e-01
 0.000000e+00 0.000000e+00 0.000000e+00 0.000000e+00 0.000000e+00
<ENDHMM>
~h "sh"
<BEGINHMM>
<NUMSTATES> 5
<STATE> 2
<MEAN> 39
 -9.943341e+00 -1.023268e+01 7.530089e+00 -1.103089e+00 -7.326647e+00 -9.970923e-01 4.610523e-01 -7.171580e+00 7.942605e+00 -2.390593e+00 1.001806e+00 -3.501717e+00 6.678621e+01 -9.443874e-01 -8.013892e-01 -5.946013e-02 3.677914e-01 -4.002784e-01 -3.808535e-01 1.827622e-01 -1.227303e-01 6.418979e-01 3.575929e-01 2.619447e-01 -7.013979e-02 3.050787e-01 4.431182e-01 1.138455e-01 -8.269219e-02 -1.414492e-02 4.357280e-02 -2.556400e-01 -4.819535e-02 2.074562e-01 -2.266859e-01 -1.151062e-01 9.018982e-03 -1.198721e-02 -6.272803e-02
<VARIANCE> 39
 3.187390e+01 2.278163e+01 1.840648e+01 2.108540e+01 1.837552e+01 3.945787e+01 2.962723e+01 2.659809e+01 2.284637e+01 2.536091e+01 2.456916e+01 1.619657e+01 1.231844e+01 2.452733e+00 1.026608e+00 1.166199e+00 1.721944e+00 1.660033e+00 2.521504e+00 2.347460e+00 2.129682e+00 1.899562e+00 1.681916e+00 2.100210e+00 1.252776e+00 4.693520e-01 3.034967e-01 2.310085e-01 2.168188e-01 2.726068e-01 3.709983e-01 4.149292e-01 5.399568e-01 3.452716e-01 4.015954e-01 4.198158e-01 4.450704e-01 2.716686e-01 6.799097e-02
<GCONST> 1.027573e+02
<STATE> 3
<MEAN> 39
 -8.213979e+00 -1.171371e+01 7.068299e+00 1.542273e+00 -7.887278e+00 -6.359987e+00 3.284131e-01 -4.916913e+00 8.390882e+00 -2.993851e+00 2.013773e+00 -4.422012e+00 6.618502e+01 3.719719e+00 1.242205e+00 9.819356e-02 -3.657774e-01 -4.589042e-01 -1.391893e+00 -1.183745e+00 2.470717e-01 -2.032826e+00 -1.269852e+00 -5.668701e-01 -7.100068e-01 3.218612e-01 7.063223e-01 -2.771804e-02 1.546231e-01 -5.896674e-01 -4.278350e-01 9.228043e-02 -4.456089e-01 -1.184417e-01 -6.651053e-01 -7.817613e-02 -1.845340e-02 -1.132816e-01 6.642792e-01
<VARIANCE> 39
 1.379675e+01 1.273195e+01 8.657338e+00 1.114367e+01 1.803759e+01 2.348446e+01 1.865081e+01 1.556023e+01 2.008330e+01 1.987300e+01 1.718341e+01 1.236957e+01 5.600862e+00 1.947892e+00 9.325994e-01 6.328611e-01 1.417612e+00 1.549218e+00 1.611948e+00 9.796900e-01 1.221967e+00 2.235677e+00 1.762902e+00 1.130614e+00 1.204894e+00 1.215714e+00 3.060893e-01 3.597248e-01 1.164124e-01 1.825084e-01 2.162000e-01 2.301580e-01 2.351554e-01 2.175429e-01 4.237896e-01 3.741468e-01 2.377061e-01 2.347523e-01 1.202716e-01
<GCONST> 9.078851e+01
<STATE> 4
<MEAN> 39
 5.945625e+00 -1.090088e+01 9.463703e+00 -4.520696e+00 -1.404455e+01 -9.222390e+00 -5.940615e+00 -3.682260e+00 -7.148056e-01 -5.927525e+00 1.723757e+00 -6.430821e+00 7.282508e+01 1.798968e+00 -6.620664e-01 9.734116e-01 -1.095646e+00 -8.403116e-01 1.990570e-01 -1.262771e+00 7.394593e-01 -7.295132e-01 -2.475780e-01 -8.358687e-03 -1.783868e-01 1.160841e+00 -9.501041e-01 1.406571e-01 -1.414675e-01 3.374609e-01 4.950516e-01 4.035704e-01 5.754312e-01 6.768819e-02 8.562768e-01 1.582484e-01 -1.354218e-01 2.182415e-01 -5.659058e-01
<VARIANCE> 39
 2.871307e+00 1.794234e+01 2.618352e+01 7.804783e+00 1.777749e+01 7.135318e+00 1.662363e+01 9.606004e+00 1.245907e+01 1.114197e+01 7.523863e+00 8.229737e+00 6.488720e+00 3.535718e+00 1.633066e+00 1.305020e+00 1.703559e+00 2.124704e+00 1.507715e+00 2.117810e+00 8.912600e-01 4.096343e+00 1.341999e+00 1.059614e+00 7.500039e-01 1.864270e+00 2.535948e-01 8.083607e-01 4.123671e-01 2.255691e-01 2.893582e-01 2.358609e-01 3.340500e-01 1.740957e-01 2.967765e-01 2.737032e-01 2.012382e-01 8.560610e-02 2.694848e-01
<GCONST> 9.086149e+01
<TRANSP> 5
 0.000000e+00 1.000000e+00 0.000000e+00 0.000000e+00 0.000000e+00
 0.000000e+00 8.900276e-01 1.099724e-01 0.000000e+00 0.000000e+00
 0.000000e+00 0.000000e+00 6.492776e-01 3.507224e-01 0.000000e+00
 0.000000e+00 0.000000e+00 0.000000e+00 7.403836e-01 2.596165e-01
 0.000000e+00 0.000000e+00 0.000000e+00 0.000000e+00 0.000000e+00
<ENDHMM>
~h "sp"
<BEGINHMM>
<NUMSTATES> 3
<STATE> 2
~s "silst"
<TRANSP> 3
 0.000000e+00 1.528621e-01 8.471379e-01
 0.000000e+00 8.452470e-01 1.547530e-01
 0.000000e+00 0.000000e+00 0.000000e+00
<ENDHMM>
~h "uu"
<BEGINHMM>
<NUMSTATES> 5
<STATE> 2
<MEAN> 39
 7.027767e+00 -1.263244e+01 6.552030e+00 -9.569477e+00 -5.744405e+00 -8.208803e-01 -1.192826e+01 -3.856058e+00 4.720442e+00 -8.855010e-01 -8.629165e-01 -9.451303e+00 7.308822e+01 -2.196076e-02 -4.960047e-01 -1.368027e-01 -1.574323e+00 -1.255904e-01 1.671289e+00 -3.219125e-01 -1.486336e-01 1.450522e-02 4.974532e-01 3.036700e-01 1.078694e-01 3.980635e-01 9.494710e-02 8.863039e-01 -5.227477e-01 3.069834e-01 2.171387e-02 -9.360231e-02 9.391394e-01 -3.836110e-01 -2.634318e-01 -1.006069e-01 -7.651205e-02 3.374656e-01 -4.939163e-01
<VARIANCE> 39
 1.724875e+00 1.231745e+01 2.214573e+01 2.274258e+01 3.272750e+01 3.074427e+01 2.045348e+01 1.116997e+01 1.256512e+01 1.840311e+01 1.340067e+01 9.623372e+00 6.126997e+00 2.102324e-01 4.835988e+00 1.334853e+00 2.970987e+00 1.194919e+00 1.358991e+00 5.037227e+00 1.657334e+00 1.530740e+00 1.382905e+00 1.492040e+00 7.394253e-01 1.904808e+00 7.150911e-02 2.137352e-01 1.398741e-01 2.733686e-01 1.964364e-01 1.639228e-01 3.560967e-01 1.967009e-01 2.129342e-01 2.182628e-01 1.579554e-01 1.407719e-01 7.415133e-02
<GCONST> 8.789412e+01
<STATE> 3
<MEAN> 39
 8.338379e+00 -8.357893e+00 1.696943e+00 -1.549976e+01 -5.213755e+00 5.846251e+00 -7.692203e+00 -7.908013e+00 1.349291e+00 -8.544282e-01 1.018081e+00 -5.000903e+00 7.191733e+01 3.845998e-01 1.888650e+00 -1.019312e+00 -5.751621e-01 2.051788e-01 7.119404e-02 1.615642e+00 2.708966e-01 -7.432235e-01 -1.348937e+00 -7.366474e-02 1.443249e+00 -8.208972e-01 8.141063e-03 8.978070e-02 4.588019e-02 2.733255e-01 -5.977328e-02 -5.582773e-01 8.694727e-02 4.215617e-01 3.017166e-02 -2.457824e-01 -1.503579e-01 -9.258823e-02 -6.726109e-02
<VARIANCE> 39
 2.446703e+00 1.241395e+01 2.696470e+01 4.545120e+01 1.729556e+01 4.608097e+01 1.973940e+01 1.762400e+01 1.602728e+01 2.732462e+01 1.281027e+01 1.841237e+01 3.874585e+00 7.170236e-02 4.948450e-01 5.316582e-01 1.360331e+00 7.132019e-01 1.674258e+00 1.072878e+00 1.976129e+00 9.038855e-01 1.572488e+00 1.133052e+00 9.465528e-01 2.563683e-01 1.168375e-02 1.235343e-01 8.450314e-02 1.229983e-01 1.048816e-01 1.129036e-01 1.814510e-01 2.374242e-01 2.125218e-01 3.569020e-01 1.761653e-01 3.424018e-01 2.338643e-02
<GCONST> 7.613013e+01
<STATE> 4
<MEAN> 39
 8.268970e+00 1.670847e+00 6.215169e-02 -1.228646e+01 -6.012084e+00 -3.045134e+00 5.897448e-01 -2.186190e+00 -1.142431e+00 -5.849534e+00 -7.653925e-01 -3.797541e+00 6.574167e+01 -3.236766e-01 4.879679e-01 1.239701e-01 7.331043e-01 1.160490e-01 -5.181776e-01 4.244623e-01 2.048228e-02 2.256206e-02 1.031391e-01 -4.116957e-02 -6.381711e-02 -5.770702e-01 -7.033893e-02 -1.439981e-01 5.448751e-02 2.380776e-02 1.682182e-02 6.491009e-02 -1.112945e-01 -9.794980e-02 5.577439e-02 1.375321e-01 5.760131e-02 -2.120076e-02 3.150084e-02
<VARIANCE> 39
 1.275237e+01 1.130853e+01 1.578244e+01 3.312059e+01 1.621946e+01 2.389232e+01 1.617409e+01 1.868776e+01 2.038044e+01 1.404232e+01 1.500609e+01 1.445389e+01 1.159515e+01 3.513712e-01 7.497627e-01 8.877472e-01 9.003027e-01 9.752577e-01 1.643823e+00 1.484065e+00 1.783224e+00 1.499300e+00 1.256117e+00 1.281927e+00 1.273421e+00 1.330979e-01 2.392409e-02 5.854617e-02 1.022840e-01 1.758900e-01 1.467076e-01 2.132898e-01 2.345912e-01 2.899583e-01 2.798575e-01 2.627366e-01 2.560107e-01 2.397625e-01 2.185309e-02
<GCONST> 8.109364e+01
<TRANSP> 5
 0.000000e+00 1.000000e+00 0.000000e+00 0.000000e+00 0.000000e+00
 0.000000e+00 6.397941e-01 3.602059e-01 0.000000e+00 0.000000e+00
 0.000000e+00 0.000000e+00 6.892834e-01 3.107167e-01 0.000000e+00
 0.000000e+00 0.000000e+00 0.000000e+00 8.902865e-01 1.097135e-01
 0.000000e+00 0.000000e+00 0.000000e+00 0.000000e+00 0.000000e+00
<ENDHMM>
~h "sil"
<BEGINHMM>
<NUMSTATES> 5
<STATE> 2
<MEAN> 39
 -4.988935e+00 -5.217301e+00 3.625995e-02 -6.417181e-01 9.313323e-01 -2.835329e+00 4.609540e+00 -1.643936e+00 4.012562e+00 -2.135250e+00 4.278132e-01 -1.539102e+00 5.698194e+01 -2.924240e-01 2.043831e-01 2.078654e-01 1.063528e-01 9.628418e-02 2.125531e-01 1.155057e-01 -1.275166e-01 -9.079982e-02 1.171167e-01 1.139679e-01 -1.436143e-02 -2.453033e-01 7.749005e-03 -4.992024e-02 3.426631e-02 2.262701e-03 -4.542909e-02 -3.887954e-02 -5.431809e-04 9.634774e-04 -8.764564e-02 -6.861005e-02 3.652480e-02 9.812296e-02 3.798238e-02
<VARIANCE> 39
 3.265313e+00 8.012807e+00 7.053493e+00 9.327545e+00 1.283267e+01 1.097791e+01 1.660357e+01 1.471208e+01 1.767380e+01 1.411990e+01 1.364369e+01 1.290584e+01 2.557927e+00 1.796838e-01 3.609881e-01 4.005118e-01 7.425570e-01 1.026379e+00 1.071894e+00 1.235665e+00 1.133405e+00 1.426658e+00 1.484328e+00 1.249995e+00 9.611129e-01 1.154714e-01 2.953568e-02 5.427893e-02 6.066232e-02 1.332463e-01 1.708206e-01 1.759585e-01 2.339489e-01 2.051819e-01 2.799183e-01 2.639615e-01 2.389834e-01 1.718266e-01 1.419400e-02
<GCONST> 6.861559e+01
<STATE> 3
~s "silst"
<STATE> 4
<MEAN> 39
 -6.479874e+00 -3.893541e+00 3.621830e-01 -4.947612e-01 1.580402e+00 -2.101059e+00 5.255245e+00 -2.883349e+00 1.649477e+00 -2.434850e+00 2.316812e+00 4.243025e-01 5.500612e+01 -1.002260e-02 2.170275e-03 -2.170829e-04 -7.709207e-03 1.921376e-03 -4.436810e-03 -1.561756e-02 -2.256737e-02 -2.287143e-02 -6.294482e-03 1.123597e-02 7.774549e-03 -5.115030e-03 4.183410e-04 -4.399269e-03 1.068926e-03 -7.044043e-03 -3.662397e-03 -5.575666e-03 -1.406742e-02 -2.567550e-03 6.428002e-03 -9.023794e-05 -1.259878e-02 -1.228224e-02 8.822758e-03
<VARIANCE> 39
 1.008575e+00 2.750542e+00 4.726358e+00 6.159737e+00 8.771131e+00 9.797146e+00 1.283177e+01 1.276406e+01 1.344356e+01 1.203259e+01 1.193717e+01 1.063033e+01 6.036133e-01 1.014800e-01 2.289370e-01 4.118124e-01 6.331260e-01 7.952954e-01 9.373542e-01 1.331761e+00 1.468240e+00 1.549333e+00 1.337268e+00 1.329655e+00 1.132118e+00 3.100571e-02 2.183725e-02 4.786213e-02 8.543541e-02 1.329733e-01 1.645520e-01 1.988174e-01 2.806916e-01 3.075516e-01 3.236723e-01 2.803677e-01 2.803778e-01 2.342857e-01 7.007600e-03
<GCONST> 6.068578e+01
<TRANSP> 5
 0.000000e+00 1.000000e+00 0.000000e+00 0.000000e+00 0.000000e+00
 0.000000e+00 6.800352e-01 1.019160e-01 2.180488e-01 0.000000e+00
 0.000000e+00 0.000000e+00 9.447739e-01 5.522611e-02 0.000000e+00
 0.000000e+00 1.825422e-02 0.000000e+00 9.525713e-01 2.917444e-02
 0.000000e+00 0.000000e+00 0.000000e+00 0.000000e+00 0.000000e+00
<ENDHMM>
~h "txh"
<BEGINHMM>
<NUMSTATES> 5
<STATE> 2
<MEAN> 39
 8.634252e+00 -2.464117e+01 -5.558517e+00 -8.759793e+00 -4.637992e-01 5.995136e+00 -6.513057e-01 -1.442839e-01 -4.737927e+00 -5.801007e+00 3.590994e-01 -1.311618e+01 7.691020e+01 1.853344e-01 -1.984122e-01 -1.931570e-01 1.039550e+00 -5.227346e-01 -1.372567e+00 -4.936405e-02 1.205603e+00 8.790360e-01 -7.279950e-01 -2.876447e-01 4.332426e-01 -1.960377e-02 -4.964750e-04 2.126495e-01 2.297023e-02 1.111282e-01 -1.315968e-02 -3.432157e-01 -7.144039e-02 1.236356e-01 2.011339e-01 -1.199460e-01 -8.240945e-02 2.460732e-01 -1.346752e-01
<VARIANCE> 39
 3.398461e+00 1.241089e+01 1.161584e+01 1.775421e+01 1.145157e+01 2.595161e+01 1.424589e+01 2.562115e+01 2.002840e+01 1.904826e+01 1.109552e+01 9.069424e+00 4.078428e+00 1.663726e-01 5.402333e-01 4.714808e-01 7.168956e-01 6.778349e-01 1.658289e+00 8.754616e-01 1.227083e+00 1.419598e+00 1.073234e+00 8.501410e-01 7.868193e-01 1.884689e-01 2.841575e-02 1.466632e-01 9.221701e-02 1.034589e-01 1.004884e-01 1.321347e-01 1.264429e-01 1.951606e-01 1.548168e-01 1.887072e-01 1.395118e-01 1.009638e-01 2.923389e-02
<GCONST> 6.986408e+01
<STATE> 3
<MEAN> 39
 1.018634e+01 -2.103834e+01 -5.025142e+00 -2.491282e-02 -4.993991e+00 -1.132790e+01 -3.777151e+00 9.715360e+00 4.968171e+00 -1.169326e+01 -2.338610e+00 -4.325257e+00 7.461580e+01 3.448808e-02 2.339233e+00 4.629193e-01 1.229968e+00 -7.519806e-02 -2.311509e+00 -6.307824e-01 -2.465605e-01 9.875256e-01 3.259538e-02 2.532701e-01 1.767849e+00 -1.206805e+00 -2.853158e-01 2.718385e-01 -1.999963e-02 -1.817694e-01 4.978105e-01 8.884373e-01 2.492996e-01 -8.047773e-01 -4.141531e-01 3.545622e-01 1.802157e-01 -4.832192e-01 -2.774688e-01
<VARIANCE> 39
 3.000405e+00 1.767418e+01 1.220233e+01 1.078121e+01 1.584866e+01 3.180071e+01 1.553549e+01 1.401736e+01 2.032282e+01 1.122762e+01 1.145818e+01 1.771548e+01 5.954522e+00 3.313101e-01 8.489841e-01 7.103888e-01 6.618301e-01 1.778228e+00 3.890516e+00 1.422016e+00 3.507710e+00 1.673834e+00 1.261334e+00 1.258651e+00 1.573720e+00 2.802014e-01 7.562982e-02 2.584941e-01 1.937809e-01 1.530657e-01 2.250895e-01 5.223961e-01 4.226417e-01 3.485510e-01 3.430938e-01 2.090766e-01 2.731437e-01 3.955787e-01 2.188725e-02
<GCONST> 8.614721e+01
<STATE> 4
<MEAN> 39
 1.892342e+00 -1.312118e+01 -3.285470e+00 -1.937654e+00 -1.986318e+00 -8.159904e+00 3.993586e-01 3.545738e+00 5.995392e+00 -6.066116e+00 -4.475884e-01 -2.225904e+00 6.559711e+01 -1.010634e+00 2.009813e-01 2.953433e-01 -4.460069e-01 1.062794e-01 5.251673e-01 7.390554e-01 -2.761229e-01 -1.130962e-01 5.587214e-01 4.575866e-02 5.026310e-02 -6.157924e-01 3.301709e-02 -1.004555e-01 1.670873e-03 -7.255616e-03 -8.516316e-02 -3.735422e-02 -1.926756e-02 8.854453e-02 -1.090355e-02 -3.336405e-02 -4.065245e-02 1.067436e-02 6.910155e-02
<VARIANCE> 39
 2.107566e+01 1.183715e+01 2.387988e+01 2.396423e+01 1.690416e+01 2.903931e+01 2.688501e+01 2.156596e+01 2.238333e+01 2.315614e+01 2.186424e+01 1.958402e+01 1.090638e+01 6.410033e-01 1.597754e+00 2.517007e+00 2.113833e+00 2.017483e+00 2.178782e+00 2.416103e+00 2.336917e+00 2.233008e+00 1.813007e+00 2.477983e+00 2.339202e+00 1.411093e+00 1.039420e-01 3.265837e-01 5.243296e-01 4.303041e-01 3.858147e-01 4.440883e-01 5.019111e-01 4.325898e-01 4.506143e-01 3.661219e-01 5.093928e-01 4.994701e-01 2.425123e-01
<GCONST> 1.064609e+02
<TRANSP> 5
 0.000000e+00 1.000000e+00 0.000000e+00 0.000000e+00 0.000000e+00
 0.000000e+00 8.913052e-01 1.086948e-01 0.000000e+00 0.000000e+00
 0.000000e+00 0.000000e+00 7.664654e-01 2.335346e-01 0.000000e+00
 0.000000e+00 0.000000e+00 0.000000e+00 9.151569e-01 8.484307e-02
 0.000000e+00 0.000000e+00 0.000000e+00 0.000000e+00 0.000000e+00
<ENDHMM>
