~o
<STREAMINFO> 1 39
<VECSIZE> 39<NULLD><MFCC_D_A_0><DIAGC>
~s "silst"
<MEAN> 39
 -4.247995e+00 -4.515702e+00 2.214884e+00 -2.224452e+00 -1.896459e+00 -2.583696e+00 3.904344e+00 -1.758442e+00 5.784307e+00 -1.795737e+00 7.840021e-01 -9.063559e-01 5.682411e+01 -2.030769e-01 9.236114e-02 5.421584e-02 1.115864e-01 1.172998e-01 1.479718e-01 1.045429e-01 -3.033995e-02 -3.501270e-02 -4.364302e-02 5.799605e-02 5.731633e-02 -2.591171e-01 2.416272e-02 -3.343083e-02 9.940052e-03 -7.996494e-03 -5.303277e-03 -3.037740e-02 -4.889789e-03 1.187072e-03 -5.047278e-02 -4.004349e-02 -3.357156e-02 -1.028364e-02 6.793086e-02
<VARIANCE> 39
 6.713836e+00 1.616188e+01 1.794913e+01 1.424737e+01 2.003367e+01 2.488513e+01 2.175807e+01 2.507682e+01 2.563496e+01 2.008622e+01 2.094212e+01 1.769395e+01 3.781350e+00 2.039782e-01 4.777581e-01 5.436448e-01 7.659941e-01 9.581904e-01 1.267502e+00 1.402977e+00 1.423560e+00 1.450504e+00 1.479715e+00 1.445971e+00 1.344874e+00 1.277183e-01 3.525026e-02 7.489731e-02 1.028656e-01 1.506652e-01 1.815437e-01 2.516234e-01 2.946580e-01 2.857640e-01 2.757315e-01 2.878614e-01 2.886566e-01 2.776451e-01 2.376800e-02
<GCONST> 8.050188e+01
~h "a"
<BEGINHMM>
<NUMSTATES> 5
<STATE> 2
<MEAN> 39
 1.956676e+00 -7.490497e+00 -7.027198e-01 -4.770772e+00 -4.804729e+00 -5.291430e+00 1.153375e+00 -4.762635e-01 5.775756e+00 -3.147019e+00 -2.636000e+00 -4.236478e+00 6.583876e+01 -8.045190e-01 4.873997e-01 4.302286e-01 2.703364e-01 3.856398e-01 -1.914860e-01 2.414487e-01 -1.564647e-01 8.346301e-02 -8.150755e-02 1.638559e-01 5.987763e-01 -7.587540e-01 -3.507986e-02 -9.129395e-02 3.344858e-02 -8.340945e-03 5.423290e-02 4.120004e-02 3.570585e-02 9.622855e-02 -7.074915e-03 3.274850e-02 9.870125e-02 -2.828119e-02 2.571581e-02
<VARIANCE> 39
 3.838444e+01 4.385357e+01 4.287202e+01 1.957231e+01 3.373819e+01 2.923158e+01 4.015245e+01 3.621288e+01 3.416587e+01 2.209199e+01 2.389114e+01 1.959149e+01 2.790221e+01 9.451338e-01 1.751893e+00 1.740260e+00 1.404265e+00 1.921343e+00 2.051991e+00 2.077405e+00 1.968653e+00 1.970011e+00 1.720081e+00 1.844339e+00 1.573274e+00 9.296665e-01 1.875618e-01 3.049277e-01 2.857938e-01 2.792392e-01 3.867581e-01 4.431724e-01 4.283976e-01 4.000383e-01 4.093686e-01 3.444192e-01 3.985888e-01 3.381516e-01 1.789707e-01
<GCONST> 1.079079e+02
<STATE> 3
<MEAN> 39
 -4.257340e+00 -3.861569e+00 1.591134e+00 -4.360877e+00 -2.589200e+00 -6.632891e+00 3.593378e+00 -1.120710e+00 3.718779e+00 -1.981948e+00 -7.652349e-01 -1.774958e+00 6.329667e+01 -6.023489e-01 -2.093684e-01 3.179794e-01 2.564305e-01 3.908872e-01 -2.369254e-02 -2.066085e-02 2.194990e-01 2.457916e-01 5.587745e-02 2.545473e-01 3.523276e-01 -2.912055e-01 2.611400e-01 -1.870130e-01 -1.320764e-01 -5.076195e-02 -1.424780e-02 9.675136e-02 -1.153214e-01 5.189182e-03 6.229601e-02 6.851391e-02 -5.855699e-02 -1.984742e-01 9.419158e-02
<VARIANCE> 39
 5.999769e+01 3.005391e+01 3.517282e+01 2.094198e+01 4.645037e+01 2.472730e+01 3.330944e+01 4.060606e+01 2.987856e+01 2.311688e+01 2.709179e+01 1.783777e+01 1.866118e+01 1.613804e+00 1.892718e+00 1.637449e+00 1.261761e+00 1.862593e+00 1.826305e+00 1.995453e+00 2.160683e+00 2.034496e+00 1.699151e+00 1.790528e+00 1.689146e+00 8.704993e-01 2.976740e-01 3.854496e-01 2.426015e-01 2.566706e-01 3.749970e-01 4.273480e-01 3.819777e-01 4.376181e-01 4.182910e-01 3.609172e-01 3.918802e-01 3.631867e-01 2.371354e-01
<GCONST> 1.085729e+02
<STATE> 4
<MEAN> 39
 -1.356789e+00 -6.688722e+00 2.360913e+00 -3.010862e+00 -3.764268e+00 -6.580096e+00 1.991442e+00 -1.516798e+00 4.600410e+00 -1.418775e+00 -4.448209e-01 -2.029612e+00 6.327618e+01 -3.707684e-02 -2.797287e-01 -2.077146e-01 1.619911e-01 4.676716e-01 1.301332e-01 -1.671863e-01 1.722793e-01 2.793384e-01 1.220822e-01 -1.014645e-01 -7.878403e-02 -1.564560e-02 4.861459e-02 1.338029e-01 -7.765134e-02 -1.063906e-01 7.800624e-03 1.378335e-01 -2.374480e-02 -5.264374e-02 -3.967662e-02 -1.579522e-02 1.022742e-02 -1.017478e-01 -5.048648e-02
<VARIANCE> 39
 3.181666e+01 4.756033e+01 2.762306e+01 1.943378e+01 3.303019e+01 2.665432e+01 3.131808e+01 3.962010e+01 3.677741e+01 3.316207e+01 3.239836e+01 2.286337e+01 1.784675e+01 2.181864e+00 4.966830e+00 2.834975e+00 1.954192e+00 2.880156e+00 2.428319e+00 2.583671e+00 2.831830e+00 2.567703e+00 2.451174e+00 3.223387e+00 2.380428e+00 2.691868e+00 2.769436e-01 7.854010e-01 4.891326e-01 3.441020e-01 4.688957e-01 4.211310e-01 4.207124e-01 4.982095e-01 4.706173e-01 4.877163e-01 6.184537e-01 4.526435e-01 3.774603e-01
<GCONST> 1.184708e+02
<TRANSP> 5
 0.000000e+00 1.000000e+00 0.000000e+00 0.000000e+00 0.000000e+00
 0.000000e+00 5.346261e-01 4.653738e-01 0.000000e+00 0.000000e+00
 0.000000e+00 0.000000e+00 3.868770e-01 6.131230e-01 0.000000e+00
 0.000000e+00 0.000000e+00 0.000000e+00 5.729403e-01 4.270597e-01
 0.000000e+00 0.000000e+00 0.000000e+00 0.000000e+00 0.000000e+00
<ENDHMM>
~h "c"
<BEGINHMM>
<NUMSTATES> 5
<STATE> 2
<MEAN> 39
 8.756377e+00 -1.186831e+01 -6.138991e+00 -7.263713e+00 -1.727636e+00 -4.732057e+00 -3.831893e-01 -6.038750e-01 3.178454e+00 -1.173866e+00 -3.056561e+00 -1.004162e+01 7.156516e+01 -3.844485e-01 1.827406e+00 -2.350537e-01 9.391451e-01 8.165468e-01 4.630141e-01 4.021418e-01 -1.189561e+00 3.027502e-01 -3.157562e-01 4.875126e-01 3.281773e-01 -1.703938e+00 -2.989817e-01 -3.219819e-01 -3.990148e-01 -2.684874e-01 2.096169e-02 4.604594e-01 4.918663e-01 4.154285e-02 2.649436e-02 -8.130705e-02 -3.571713e-02 -1.842572e-01 -5.162792e-02
<VARIANCE> 39
 3.551587e+00 2.272684e+01 3.658118e+01 1.705956e+01 1.964312e+01 5.252633e+01 4.367654e+01 5.448967e+01 1.610981e+01 1.497718e+01 2.295289e+01 1.447919e+01 1.630901e+01 5.512695e-01 1.920651e+00 1.427784e+00 1.302785e+00 1.728946e+00 3.354098e+00 3.446195e+00 1.832422e+00 1.300140e+00 1.528614e+00 1.451651e+00 1.805599e+00 6.093869e-01 6.771749e-02 3.045264e-01 2.336262e-01 3.561173e-01 6.187736e-01 8.013370e-01 6.571960e-01 5.853029e-01 3.093850e-01 3.510736e-01 2.326266e-01 3.698766e-01 1.122335e-01
<GCONST> 1.018507e+02
<STATE> 3
<MEAN> 39
 9.034890e+00 -1.203150e+01 -1.449003e+01 -6.402051e+00 -1.399446e+00 3.720931e+00 7.034801e+00 -9.558660e+00 7.294576e+00 -3.816001e+00 -1.160805e+00 -1.245138e+01 7.376835e+01 -2.103830e-01 4.475241e-02 2.646548e-01 9.506280e-02 -3.901009e-01 -6.067455e-01 -4.165469e-01 1.197184e+00 2.695401e-01 -1.565951e-02 -5.763863e-01 4.720521e-01 -3.432625e-01 -5.918827e-02 4.261139e-02 1.241669e-01 -1.099130e-01 -1.673549e-01 -2.715233e-01 -1.518636e-01 2.835876e-01 -2.130712e-02 1.319580e-01 -1.991716e-02 2.178762e-01 -4.688035e-03
<VARIANCE> 39
 3.721887e+00 8.874947e+00 1.572709e+01 1.150123e+01 2.123660e+01 3.869470e+01 4.083180e+01 4.593820e+01 3.114247e+01 1.934475e+01 1.775335e+01 1.566424e+01 1.537432e+01 2.975117e-01 3.503931e-01 8.729380e-01 8.509915e-01 1.149657e+00 2.178948e+00 2.300741e+00 3.181862e+00 1.269466e+00 9.032403e-01 7.851229e-01 1.180137e+00 2.902064e-01 2.984605e-02 1.095422e-01 6.928060e-02 1.663992e-01 2.303495e-01 3.454382e-01 3.089157e-01 4.077232e-01 2.729749e-01 2.339786e-01 1.416306e-01 2.671409e-01 6.721575e-02
<GCONST> 8.504215e+01
<STATE> 4
<MEAN> 39
 2.783237e+00 -7.140805e+00 -9.294368e+00 -7.397246e+00 -9.080356e-01 -3.136762e+00 3.796244e+00 -4.808024e-01 7.336152e+00 -4.531377e-01 -3.909166e+00 -5.678650e+00 6.596121e+01 -1.656455e+00 7.757007e-01 4.855489e-01 -3.770282e-01 2.221664e-01 -4.530627e-01 5.290639e-01 -3.385417e-03 -3.118390e-01 1.991776e-01 1.475195e-01 7.321469e-01 -5.094882e-01 -2.060385e-01 1.854851e-02 1.529827e-01 7.293107e-02 1.203152e-01 1.875463e-02 1.018765e-01 -1.377716e-01 -1.905773e-01 -1.292964e-01 3.554567e-02 -6.685892e-02 2.084859e-01
<VARIANCE> 39
 2.990078e+01 1.687783e+01 1.186882e+01 1.278137e+01 2.365446e+01 2.413222e+01 2.659319e+01 2.392964e+01 2.067365e+01 1.593096e+01 1.858628e+01 1.373984e+01 1.937330e+01 1.430413e+00 1.138748e+00 9.952637e-01 1.252468e+00 1.962079e+00 2.769279e+00 2.505630e+00 2.313526e+00 1.992613e+00 2.104971e+00 1.862475e+00 2.166266e+00 1.701838e+00 1.427814e-01 1.734079e-01 2.144492e-01 2.525446e-01 3.888167e-01 5.982861e-01 4.893152e-01 5.854430e-01 3.144064e-01 3.615113e-01 3.710162e-01 3.982477e-01 2.369728e-01
<GCONST> 1.026988e+02
<TRANSP> 5
 0.000000e+00 1.000000e+00 0.000000e+00 0.000000e+00 0.000000e+00
 0.000000e+00 6.440536e-01 3.559463e-01 0.000000e+00 0.000000e+00
 0.000000e+00 0.000000e+00 7.877180e-01 2.122820e-01 0.000000e+00
 0.000000e+00 0.000000e+00 0.000000e+00 8.577033e-01 1.422968e-01
 0.000000e+00 0.000000e+00 0.000000e+00 0.000000e+00 0.000000e+00
<ENDHMM>
~h "d"
<BEGINHMM>
<NUMSTATES> 5
<STATE> 2
<MEAN> 39
 -2.638706e+00 -1.548837e+00 2.704581e+00 -1.305403e+00 -1.911625e-01 -3.987839e+00 2.532018e+00 -2.871353e+00 3.483275e+00 -3.003211e+00 -8.758513e-01 -2.640801e+00 5.719404e+01 7.883216e-01 4.261020e-01 9.366923e-01 1.382994e-01 -2.612924e-01 -2.780612e-01 -7.294102e-01 -7.762545e-01 -8.723855e-01 -8.674095e-01 -7.901736e-01 -9.459527e-01 6.136588e-01 4.225028e-01 -4.534646e-02 1.664081e-01 -3.729111e-01 -2.481832e-01 -1.503807e-01 -3.830559e-01 -9.419848e-02 -3.394816e-02 7.809784e-02 -9.721257e-02 -2.513108e-01 5.891051e-01
<VARIANCE> 39
 1.352290e+01 1.419291e+01 1.501702e+01 1.028615e+01 1.326093e+01 2.117848e+01 1.775749e+01 2.213728e+01 2.150869e+01 1.884166e+01 2.092760e+01 1.847175e+01 7.720034e+00 1.603328e+00 3.827807e+00 9.945132e-01 1.829512e+00 1.391621e+00 1.790960e+00 1.909713e+00 2.706953e+00 1.206394e+00 1.737540e+00 2.116023e+00 1.611943e+00 8.916537e-01 1.414277e-01 4.761029e-01 1.677321e-01 2.915690e-01 2.625274e-01 3.089350e-01 3.789343e-01 4.765753e-01 2.547868e-01 3.600102e-01 3.691105e-01 2.182983e-01 2.270400e-01
<GCONST> 9.808356e+01
<STATE> 3
<MEAN> 39
 3.546423e+00 3.947001e+00 6.389711e+00 -5.237229e-01 -1.568395e+00 -5.931305e+00 -9.286397e-01 -6.037073e+00 1.873784e+00 -4.113088e+00 -4.194906e+00 -6.605639e+00 5.994887e+01 2.060306e-01 -6.103615e-01 6.360744e-01 -5.649842e-01 9.903900e-02 -6.969473e-02 -6.297298e-01 -6.679022e-02 -1.972853e-01 2.652641e-02 2.217393e-01 -1.057088e-01 1.050367e+00 -1.295763e-01 -7.277387e-01 -2.807646e-01 -5.343382e-01 -1.348425e-01 1.236490e-01 -2.329056e-01 1.721756e-01 1.707683e-01 4.257216e-01 4.118712e-01 9.540638e-02 4.869115e-01
<VARIANCE> 39
 1.113597e+01 2.033900e+01 1.709322e+01 9.816788e+00 1.397042e+01 1.505560e+01 1.473849e+01 1.517426e+01 2.079694e+01 1.496747e+01 1.410921e+01 1.272612e+01 7.082980e+00 1.748111e+00 5.062652e+00 1.197044e+00 2.108402e+00 1.516780e+00 1.494407e+00 1.651832e+00 1.969098e+00 1.367376e+00 1.525437e+00 1.542027e+00 1.519418e+00 2.105113e+00 3.387941e-01 4.072755e-01 3.442380e-01 3.356659e-01 3.355191e-01 2.872761e-01 4.552669e-01 3.451323e-01 2.456899e-01 3.446314e-01 2.830919e-01 3.026171e-01 3.727964e-01
<GCONST> 9.906354e+01
<STATE> 4
<MEAN> 39
 7.441257e-01 -7.794606e+00 6.899516e+00 -8.393706e+00 -1.908330e+00 -5.690026e+00 -4.402915e+00 -3.367983e+00 1.530645e+00 -2.422382e+00 -3.878590e-01 -5.484808e+00 6.866133e+01 1.599261e+00 -2.446693e+00 -1.004539e+00 -3.199220e+00 -1.855303e+00 2.827183e-01 -2.930620e+00 -4.584772e-01 2.615777e-01 2.437532e+00 1.831939e+00 -9.165652e-01 3.819732e+00 6.605441e-01 7.750595e-01 -4.888006e-01 -4.140729e-02 -4.439769e-01 5.857172e-01 -5.064292e-03 -5.341736e-01 -1.925105e-01 3.801892e-01 4.885740e-01 -6.811777e-02 -2.942108e-01
<VARIANCE> 39
 1.164706e+01 3.882230e+01 1.411909e+01 1.605804e+01 2.049493e+01 1.849474e+01 2.634351e+01 1.940799e+01 1.722379e+01 3.465815e+01 1.377772e+01 1.014017e+01 1.732615e+01 1.769967e+00 3.331769e+00 3.973296e+00 1.681844e+00 1.776283e+00 2.430819e+00 1.761571e+00 2.251325e+00 1.879465e+00 2.127709e+00 2.247412e+00 1.799608e+00 9.611434e-01 2.365400e-01 4.626394e-01 3.537404e-01 3.162817e-01 3.760422e-01 4.895210e-01 6.309433e-01 3.579199e-01 3.937275e-01 8.770230e-01 2.787336e-01 3.647282e-01 3.858585e-01
<GCONST> 1.069465e+02
<TRANSP> 5
 0.000000e+00 1.000000e+00 0.000000e+00 0.000000e+00 0.000000e+00
 0.000000e+00 5.431564e-01 4.568436e-01 0.000000e+00 0.000000e+00
 0.000000e+00 0.000000e+00 7.363265e-01 2.636736e-01 0.000000e+00
 0.000000e+00 0.000000e+00 0.000000e+00 5.495105e-01 4.504895e-01
 0.000000e+00 0.000000e+00 0.000000e+00 0.000000e+00 0.000000e+00
<ENDHMM>
~h "h"
<BEGINHMM>
<NUMSTATES> 5
<STATE> 2
<MEAN> 39
 -1.285038e+01 -6.220267e+00 2.249202e-01 -4.269468e+00 2.611314e+00 -8.972062e+00 6.563912e+00 1.461349e+00 4.502005e+00 -4.931866e-01 -2.004185e+00 -1.703663e+00 6.577852e+01 3.903579e+00 -2.181327e-01 -7.902393e-01 -1.050106e+00 -1.322098e+00 2.848454e-01 -1.146144e+00 -1.321821e+00 9.902418e-04 3.437110e-01 -1.444151e+00 -1.686218e+00 6.633362e-01 1.202160e+00 -9.092267e-02 -4.252939e-01 -4.606609e-01 -3.681818e-01 3.692861e-01 -5.301558e-01 -3.645813e-01 -5.204567e-02 1.752656e-01 -3.132710e-01 -6.317601e-01 6.435354e-01
<VARIANCE> 39
 2.777894e+01 1.080817e+01 1.208076e+01 1.055608e+01 2.007510e+01 1.507672e+01 2.157335e+01 2.049726e+01 2.044605e+01 1.989627e+01 1.896101e+01 2.315117e+01 4.911440e+00 5.013648e+00 1.366578e+00 1.608433e+00 1.658818e+00 1.475605e+00 1.560921e+00 2.602477e+00 1.862042e+00 1.910273e+00 1.464118e+00 1.426714e+00 2.038820e+00 1.300123e+00 4.042539e-01 3.739819e-01 2.932130e-01 2.714663e-01 3.369050e-01 3.105218e-01 3.774285e-01 3.451109e-01 3.406357e-01 3.006563e-01 3.624191e-01 3.352943e-01 1.367101e-01
<GCONST> 1.003038e+02
<STATE> 3
<MEAN> 39
 6.086457e+00 -9.493496e+00 -5.422846e+00 -1.148952e+01 -3.226869e+00 -4.627514e+00 -7.222119e-01 -4.159047e+00 4.337439e+00 2.998084e+00 -7.217497e+00 -1.082220e+01 7.358877e+01 2.922205e+00 -1.511806e+00 -1.358659e+00 -1.329766e+00 -5.380676e-01 2.253447e+00 -5.858037e-01 -4.582300e-01 4.870871e-02 1.495293e-01 -5.751709e-01 -1.555555e+00 1.717537e+00 -1.243967e+00 1.191948e-01 4.204601e-01 5.559958e-01 5.646948e-01 1.046705e-01 7.939260e-01 4.485414e-01 -1.590868e-01 -4.524468e-01 4.600121e-01 5.966982e-01 -5.449120e-01
<VARIANCE> 39
 7.364077e+00 4.453983e+01 3.152661e+01 1.441752e+01 1.042420e+01 2.338662e+01 1.821432e+01 1.366455e+01 2.580899e+01 1.718251e+01 1.018122e+01 2.379519e+01 1.260834e+01 5.466136e+00 2.521595e+00 2.672022e+00 2.012278e+00 1.800462e+00 1.437962e+00 3.671710e+00 2.773650e+00 1.601278e+00 2.475153e+00 1.705805e+00 1.954790e+00 1.643221e+00 2.956670e-01 6.086861e-01 6.250822e-01 3.855374e-01 2.062410e-01 4.401684e-01 4.277036e-01 3.214700e-01 3.220334e-01 3.063404e-01 2.994045e-01 2.168409e-01 2.993769e-01
<GCONST> 1.055993e+02
<STATE> 4
<MEAN> 39
 5.974291e+00 -9.250957e+00 -3.014990e+00 -5.936778e+00 1.912706e+00 9.172127e-01 6.433163e+00 -4.432074e+00 1.891654e+00 -1.234329e+00 -4.544950e+00 -9.244668e+00 7.053694e+01 -4.801272e-02 3.754475e-01 2.738547e-01 6.719340e-01 4.558297e-01 1.553060e-01 7.210758e-01 -3.570251e-01 -4.831976e-01 -4.186879e-01 3.954532e-01 2.987287e-01 -4.878249e-01 2.520844e-02 -2.169212e-02 -1.758438e-01 -2.063754e-01 -1.091613e-01 -8.291586e-02 -1.426594e-01 -4.931666e-02 -7.570079e-03 7.579596e-02 -1.096964e-02 -1.696990e-02 9.093402e-02
<VARIANCE> 39
 6.564812e+00 2.349192e+01 1.701011e+01 3.332449e+01 2.061078e+01 1.400380e+01 2.540818e+01 3.059390e+01 2.170405e+01 1.644447e+01 3.245832e+01 2.107226e+01 9.834218e+00 8.145395e-01 1.327700e+00 2.803589e+00 2.722379e+00 2.269338e+00 1.373223e+00 2.392281e+00 1.488071e+00 1.286735e+00 1.386184e+00 1.964757e+00 1.268299e+00 6.364341e-01 2.282250e-01 3.455187e-01 5.357803e-01 5.468372e-01 3.775955e-01 3.715850e-01 4.128291e-01 3.066135e-01 2.680066e-01 2.888565e-01 3.239356e-01 2.636615e-01 1.709906e-01
<GCONST> 1.010413e+02
<TRANSP> 5
 0.000000e+00 1.000000e+00 0.000000e+00 0.000000e+00 0.000000e+00
 0.000000e+00 6.769367e-01 3.230633e-01 0.000000e+00 0.000000e+00
 0.000000e+00 0.000000e+00 7.211699e-01 2.788301e-01 0.000000e+00
 0.000000e+00 0.000000e+00 0.000000e+00 8.949428e-01 1.050572e-01
 0.000000e+00 0.000000e+00 0.000000e+00 0.000000e+00 0.000000e+00
<ENDHMM>
~h "k"
<BEGINHMM>
<NUMSTATES> 5
<STATE> 2
<MEAN> 39
 -3.634655e+00 -4.568878e+00 4.327842e+00 -3.180344e+00 -4.191196e+00 -3.192541e+00 4.416042e+00 -1.758317e+00 3.565787e+00 -1.987729e+00 9.508437e-01 -2.120905e+00 5.787810e+01 7.536305e-01 -2.070623e+00 4.828427e+00 -2.226539e+00 -4.151753e+00 -8.112373e-01 -2.433658e+00 6.666943e-01 -2.483084e+00 5.152971e-01 1.247792e+00 -1.304513e+00 3.463079e+00 4.636334e-01 -5.521829e-01 1.169848e+00 -7.396342e-01 -1.312288e+00 -3.345307e-01 -9.295084e-01 2.070313e-01 -6.275732e-01 1.976977e-01 4.524121e-01 -3.349994e-01 1.217071e+00
<VARIANCE> 39
 8.755305e+00 1.887580e+01 3.430587e+01 1.530945e+01 4.326657e+01 2.606854e+01 2.135242e+01 2.044713e+01 3.268842e+01 1.234730e+01 2.175041e+01 1.653020e+01 1.521383e+01 1.249739e+00 2.039406e+00 3.317622e+00 2.605064e+00 4.356699e+00 2.039014e+00 3.920420e+00 2.201348e+00 2.207934e+00 1.787025e+00 2.890156e+00 1.446384e+00 2.389035e+00 1.122959e-01 2.203075e-01 6.437498e-01 3.887846e-01 6.230878e-01 3.732252e-01 4.820297e-01 3.379393e-01 2.879452e-01 3.227281e-01 4.281166e-01 2.853182e-01 2.931120e-01
<GCONST> 1.078053e+02
<STATE> 3
<MEAN> 39
 7.323196e-01 -1.274801e+01 2.206379e+01 -1.290626e+01 -2.103817e+01 -6.976358e+00 -6.731796e+00 1.454750e+00 -5.442050e+00 7.019983e-01 6.512055e+00 -7.393560e+00 7.287348e+01 1.230486e+00 -1.323860e+00 2.995171e+00 -1.361104e+00 -3.148033e+00 -3.838704e-01 -2.123285e+00 2.072612e-01 -1.386489e+00 3.537978e-01 1.124191e+00 -5.107084e-01 2.888886e+00 -1.066005e-01 6.735550e-01 -1.286463e+00 7.044036e-01 1.080491e+00 3.068796e-01 6.289975e-01 -3.371235e-01 6.764286e-01 -1.936875e-01 -3.917327e-01 4.722557e-01 -9.301315e-01
<VARIANCE> 39
 7.076587e+00 1.140815e+01 2.682060e+01 1.677814e+01 1.921325e+01 1.547524e+01 3.170096e+01 2.090024e+01 2.384213e+01 1.426282e+01 2.215326e+01 1.251815e+01 1.680641e+01 9.103672e-01 2.768759e+00 6.789841e+00 3.510106e+00 6.612393e+00 1.862688e+00 3.588262e+00 2.178066e+00 2.709069e+00 1.508814e+00 2.422914e+00 1.861305e+00 4.211653e+00 1.748830e-01 3.636678e-01 4.751660e-01 3.903069e-01 5.832414e-01 2.856169e-01 4.613965e-01 3.416079e-01 3.053793e-01 2.445696e-01 3.391120e-01 2.122450e-01 4.344513e-01
<GCONST> 1.075198e+02
<STATE> 4
<MEAN> 39
 3.495470e+00 -8.564460e+00 1.948834e+01 -1.010389e+01 -2.148680e+01 -8.235231e+00 -4.989182e+00 -2.561424e+00 -5.450103e+00 3.108385e+00 4.636488e+00 -6.305185e+00 7.144936e+01 -9.230460e-02 6.589929e-01 -5.234293e-01 4.591070e-01 4.464170e-01 -1.456406e-01 4.053852e-01 -4.976167e-01 2.387237e-01 1.275515e-01 -1.229212e-01 1.608045e-01 -7.165297e-01 -8.911720e-02 -2.345651e-03 -1.040272e-01 4.363168e-02 1.263365e-01 2.943699e-03 4.139330e-02 1.429821e-02 5.381124e-02 -2.487467e-02 9.841014e-03 4.418215e-02 -1.008983e-01
<VARIANCE> 39
 5.378121e+00 3.436919e+01 1.978767e+01 2.556981e+01 2.268296e+01 2.295164e+01 3.364177e+01 2.506199e+01 3.868254e+01 2.884569e+01 1.917972e+01 1.191986e+01 2.833670e+01 3.931968e-01 1.016261e+00 9.355006e-01 1.202225e+00 1.561881e+00 1.185508e+00 1.313731e+00 1.251876e+00 1.702504e+00 1.476290e+00 1.222323e+00 1.124952e+00 9.506155e-01 4.573060e-02 1.835386e-01 1.521995e-01 2.196602e-01 2.585468e-01 2.170156e-01 2.470110e-01 2.367996e-01 3.087719e-01 2.691603e-01 2.194763e-01 1.968131e-01 9.775868e-02
<GCONST> 9.155937e+01
<TRANSP> 5
 0.000000e+00 1.000000e+00 0.000000e+00 0.000000e+00 0.000000e+00
 0.000000e+00 4.533168e-01 5.466832e-01 0.000000e+00 0.000000e+00
 0.000000e+00 0.000000e+00 6.989275e-01 3.010725e-01 0.000000e+00
 0.000000e+00 0.000000e+00 0.000000e+00 9.431465e-01 5.685355e-02
 0.000000e+00 0.000000e+00 0.000000e+00 0.000000e+00 0.000000e+00
<ENDHMM>
~h "n"
<BEGINHMM>
<NUMSTATES> 5
<STATE> 2
<MEAN> 39
 7.655496e+00 9.219859e-01 2.949331e+00 -5.403025e+00 -8.879592e+00 -5.252425e+00 -1.073054e+00 -4.626319e+00 2.218291e+00 -2.315064e+00 5.208248e-02 -5.064149e+00 6.588871e+01 1.222816e-01 1.010558e+00 -5.364110e-01 8.580185e-01 2.057465e-01 -5.230052e-01 1.050673e+00 -4.919394e-01 -8.618674e-02 3.871964e-03 -3.084067e-01 2.409714e-01 -7.778912e-01 -1.313209e-01 -2.448309e-01 2.693475e-01 -3.067437e-01 -9.926543e-02 2.309064e-01 -2.095031e-01 5.749964e-02 2.140496e-02 1.309346e-01 1.468419e-02 -3.236132e-02 1.178455e-01
<VARIANCE> 39
 4.247739e+00 1.230793e+01 2.648063e+01 1.809381e+01 3.488958e+01 1.497912e+01 2.732398e+01 2.176977e+01 2.259362e+01 2.275043e+01 1.551811e+01 1.162272e+01 5.973238e+00 3.239131e-01 1.020900e+00 2.087351e+00 1.577667e+00 2.096288e+00 1.768929e+00 1.790208e+00 1.629506e+00 1.610909e+00 1.355502e+00 1.211072e+00 1.059607e+00 2.645091e-01 4.890604e-02 1.247897e-01 2.023723e-01 2.266758e-01 2.819978e-01 2.463631e-01 3.034703e-01 3.592775e-01 2.438691e-01 2.242782e-01 1.881806e-01 2.080907e-01 3.679825e-02
<GCONST> 8.733211e+01
<STATE> 3
<MEAN> 39
 8.010160e+00 3.002386e+00 3.394820e+00 -3.933441e+00 -7.993847e+00 -6.287406e+00 1.902223e+00 -4.535680e+00 2.310428e+00 -3.572047e+00 -1.491968e+00 -4.129427e+00 6.452689e+01 -7.603595e-02 3.844153e-01 9.533670e-03 1.146111e-01 2.653574e-01 -1.055673e-01 1.975300e-01 -7.322732e-02 -3.326421e-02 6.864417e-02 1.877778e-02 2.810553e-02 -3.467005e-01 -9.368120e-02 -1.687140e-01 1.252294e-01 -3.152781e-03 1.766428e-02 2.933893e-02 -1.460601e-01 8.329029e-02 2.561868e-02 -2.388600e-02 4.372321e-02 8.002015e-03 4.711463e-02
<VARIANCE> 39
 3.964660e+00 1.253104e+01 1.291478e+01 9.769625e+00 2.031172e+01 1.129325e+01 1.603357e+01 1.521765e+01 1.247707e+01 1.511116e+01 1.455888e+01 9.191023e+00 4.418083e+00 1.386867e-01 2.752183e-01 5.187318e-01 5.506773e-01 7.103819e-01 6.921822e-01 7.812023e-01 9.173406e-01 8.725908e-01 7.459863e-01 7.654058e-01 6.985483e-01 8.573072e-02 2.342499e-02 5.744651e-02 8.488954e-02 9.261073e-02 1.533123e-01 1.448663e-01 1.636928e-01 1.601051e-01 1.463898e-01 1.404566e-01 1.465516e-01 1.219993e-01 1.428635e-02
<GCONST> 6.283832e+01
<STATE> 4
<MEAN> 39
 4.584708e+00 2.978508e+00 4.623625e+00 -2.203113e+00 -5.236498e+00 -5.054727e+00 1.397357e+00 -5.449401e+00 2.835711e+00 -2.219909e+00 -4.214422e-01 -3.370866e+00 6.140052e+01 -7.081492e-01 -2.494414e-01 2.423525e-01 5.694616e-01 7.377497e-01 1.951581e-01 4.983403e-02 1.362516e-01 1.034783e-01 -2.624526e-01 -9.906997e-03 2.492123e-01 -5.246758e-01 -1.203313e-01 -2.787111e-01 5.755381e-02 -1.381891e-01 -9.683502e-02 7.389934e-02 -7.772737e-02 1.052579e-01 3.201782e-02 -5.056959e-02 6.314539e-02 5.673538e-02 9.416034e-02
<VARIANCE> 39
 1.285817e+01 1.203238e+01 1.822590e+01 1.870691e+01 3.416102e+01 1.641973e+01 1.905817e+01 1.975586e+01 1.964017e+01 1.768787e+01 1.811555e+01 1.268204e+01 8.631727e+00 3.697597e-01 6.951211e-01 8.071975e-01 1.185746e+00 1.598057e+00 1.088535e+00 1.306073e+00 1.225986e+00 1.322910e+00 1.349615e+00 1.144545e+00 1.112820e+00 2.252079e-01 6.168398e-02 1.612262e-01 2.934201e-01 2.519563e-01 3.783971e-01 2.433014e-01 2.783851e-01 2.440296e-01 2.873071e-01 2.571481e-01 2.072293e-01 2.290036e-01 4.189489e-02
<GCONST> 8.609108e+01
<TRANSP> 5
 0.000000e+00 1.000000e+00 0.000000e+00 0.000000e+00 0.000000e+00
 0.000000e+00 5.897525e-01 4.102475e-01 0.000000e+00 0.000000e+00
 0.000000e+00 0.000000e+00 7.463967e-01 2.536034e-01 0.000000e+00
 0.000000e+00 0.000000e+00 0.000000e+00 5.760651e-01 4.239348e-01
 0.000000e+00 0.000000e+00 0.000000e+00 0.000000e+00 0.000000e+00
<ENDHMM>
~h "o"
<BEGINHMM>
<NUMSTATES> 5
<STATE> 2
<MEAN> 39
 7.922439e+00 -8.668377e+00 2.434829e+00 -1.472007e+01 -8.508956e+00 -8.230698e-01 -1.076094e+01 -7.811887e+00 4.776119e-01 4.928791e+00 6.560833e+00 -8.399472e+00 7.429283e+01 1.537912e+00 4.196692e-01 -1.253341e+00 -1.978763e+00 -1.226227e+00 2.230101e+00 1.135835e-01 -1.219515e+00 -1.259360e+00 7.238401e-01 1.899248e+00 2.550363e-01 6.646571e-01 -4.005435e-01 6.978924e-01 1.606266e-01 3.687434e-01 4.578887e-01 1.354876e-01 1.198509e+00 1.344039e-01 -2.731673e-01 -9.815454e-01 -5.064598e-01 6.141016e-01 -9.327891e-01
<VARIANCE> 39
 2.497585e+00 2.155094e+01 2.418844e+01 1.370301e+01 1.563529e+01 1.591047e+01 1.458519e+01 1.110137e+01 3.856758e+01 1.338800e+01 1.362043e+01 9.979842e+00 5.580457e+00 1.042995e+00 9.253321e-01 1.903133e+00 8.185000e-01 1.638372e+00 1.751209e+00 3.949944e+00 1.322919e+00 1.753515e+00 5.152642e+00 1.320486e+00 2.209187e+00 9.724606e-01 1.284984e-01 2.612885e-01 4.310476e-01 1.583393e-01 2.043800e-01 3.903649e-01 2.937449e-01 2.582334e-01 3.617823e-01 4.261881e-01 3.047509e-01 2.137374e-01 1.230849e-01
<GCONST> 9.342564e+01
<STATE> 3
<MEAN> 39
 9.929013e+00 -4.370080e+00 1.333582e-01 -2.081021e+01 -1.014695e+01 5.508777e+00 -3.719457e+00 -1.007182e+01 -4.333449e+00 8.476614e-01 7.323271e+00 -3.501098e+00 7.250018e+01 3.015849e-01 1.033256e+00 -4.933402e-01 -6.972038e-01 -8.038263e-02 6.942706e-01 1.061335e+00 1.529936e-01 -1.363168e-01 -1.017536e+00 -4.680324e-01 1.063726e+00 -5.742201e-01 -1.386284e-01 -8.409072e-02 9.297308e-02 2.868892e-01 1.731357e-01 -2.856176e-01 -2.749532e-01 1.881739e-01 3.003267e-01 5.342638e-02 -2.349468e-01 -1.261100e-01 -3.616384e-02
<VARIANCE> 39
 1.907031e+00 1.461905e+01 1.369045e+01 1.835800e+01 1.407548e+01 1.495997e+01 1.632924e+01 1.465393e+01 3.204471e+01 1.833013e+01 1.091494e+01 1.794201e+01 5.498033e+00 1.024128e-01 2.929311e-01 4.068650e-01 9.023090e-01 9.534172e-01 9.518586e-01 1.284156e+00 1.069188e+00 1.106463e+00 1.076558e+00 7.301173e-01 7.515048e-01 6.505374e-02 2.592424e-02 6.035259e-02 8.535870e-02 9.343754e-02 1.481625e-01 1.717467e-01 2.181975e-01 1.867904e-01 1.511834e-01 2.863645e-01 2.101372e-01 1.579783e-01 2.640612e-02
<GCONST> 6.892815e+01
<STATE> 4
<MEAN> 39
 9.943556e+00 -1.242377e+00 -3.022017e+00 -1.707633e+01 -5.477508e+00 4.334106e+00 -6.277812e+00 -6.594235e+00 1.147545e+00 -8.334381e-01 4.354355e+00 -2.266736e+00 6.971057e+01 -1.921658e-01 2.133811e-02 -4.610214e-04 1.339221e+00 6.601589e-01 -8.317925e-01 -6.113369e-01 2.228716e-01 8.390323e-01 3.107331e-01 -4.027447e-01 -6.175146e-01 -3.389115e-01 -3.023766e-02 4.646757e-02 1.040752e-01 2.332030e-01 -1.233766e-01 -1.957007e-01 2.041253e-01 -6.699103e-02 -6.571588e-02 1.528558e-02 -1.338011e-02 -6.174998e-02 -5.620501e-02
<VARIANCE> 39
 2.408355e+00 1.469227e+01 1.439073e+01 2.440176e+01 3.093443e+01 2.412818e+01 4.480355e+01 2.146692e+01 3.033599e+01 2.073318e+01 1.810429e+01 2.146023e+01 6.182757e+00 1.063369e-01 6.775481e-01 8.285803e-01 1.644529e+00 1.724925e+00 2.036079e+00 2.822727e+00 1.691558e+00 1.723610e+00 1.570865e+00 1.577118e+00 1.193157e+00 2.742071e-01 1.868369e-02 1.439814e-01 1.286252e-01 1.626319e-01 3.145286e-01 3.133360e-01 6.668857e-01 3.274131e-01 3.731451e-01 3.177024e-01 3.285840e-01 2.644638e-01 4.558273e-02
<GCONST> 8.836212e+01
<TRANSP> 5
 0.000000e+00 1.000000e+00 0.000000e+00 0.000000e+00 0.000000e+00
 0.000000e+00 6.573534e-01 3.426466e-01 0.000000e+00 0.000000e+00
 0.000000e+00 0.000000e+00 8.231015e-01 1.768985e-01 0.000000e+00
 0.000000e+00 0.000000e+00 0.000000e+00 8.895715e-01 1.104284e-01
 0.000000e+00 0.000000e+00 0.000000e+00 0.000000e+00 0.000000e+00
<ENDHMM>
~h "p"
<BEGINHMM>
<NUMSTATES> 5
<STATE> 2
<MEAN> 39
 -2.050433e+00 -3.669861e+00 -1.010599e+00 -4.681893e+00 -9.548874e-01 -6.436737e-01 5.600985e+00 -2.054795e-01 6.114163e+00 -1.707521e+00 7.316893e-02 -3.028809e+00 5.736838e+01 -4.718077e-01 1.796045e-01 3.202431e-01 2.287522e-01 1.026311e-01 4.682384e-02 1.753372e-01 2.315412e-02 5.178365e-02 3.771940e-02 1.340546e-01 2.266003e-01 -4.340343e-01 1.571335e-01 -2.188056e-01 -5.493231e-02 -8.875774e-02 -2.056989e-01 -9.135490e-02 -7.270129e-02 -1.480437e-01 -5.414821e-02 -4.462813e-02 -3.566343e-02 -6.948429e-02 3.641306e-01
<VARIANCE> 39
 1.227829e+01 8.872379e+00 2.440289e+01 1.564059e+01 1.361765e+01 2.483047e+01 1.914474e+01 1.930074e+01 2.348200e+01 1.453973e+01 1.273347e+01 1.550862e+01 6.631577e+00 2.040265e-01 4.858149e-01 6.130478e-01 7.107896e-01 6.623638e-01 9.216720e-01 1.376941e+00 1.302325e+00 1.268269e+00 1.141907e+00 1.173978e+00 1.109218e+00 2.264394e-01 1.033691e-01 1.054702e-01 1.682704e-01 2.226363e-01 2.023835e-01 2.341117e-01 2.988433e-01 2.591543e-01 2.832006e-01 2.771741e-01 2.769028e-01 2.106188e-01 1.589119e-01
<GCONST> 8.251950e+01
<STATE> 3
<MEAN> 39
 -3.954647e+00 -5.302576e+00 1.571510e+00 -2.325548e+00 -2.531873e+00 -3.494648e+00 3.845041e+00 -2.994246e+00 4.644990e+00 -1.496767e+00 7.361560e-01 -1.253774e+00 5.849604e+01 2.146375e+00 -1.541321e+00 -1.668494e+00 -1.912472e+00 -1.659179e+00 2.985287e-01 2.941878e-01 -9.954768e-01 -9.098792e-01 -2.544072e-01 1.809731e-01 -1.344899e+00 3.242861e+00 9.463819e-01 -4.233229e-01 -9.228058e-01 -8.935948e-01 -1.196917e-01 5.923492e-01 3.086410e-01 -1.347438e-01 -4.802767e-01 -1.468251e-01 2.656375e-01 -7.901328e-01 1.037490e+00
<VARIANCE> 39
 5.729651e+00 1.797042e+01 1.300483e+01 1.119131e+01 2.110647e+01 2.122487e+01 2.004098e+01 2.049543e+01 1.880637e+01 1.496751e+01 1.366811e+01 1.958154e+01 1.910435e+01 2.702364e+00 1.567546e+00 3.572998e+00 3.509606e+00 1.764988e+00 2.832709e+00 2.475727e+00 2.961667e+00 2.760083e+00 1.978366e+00 2.218929e+00 2.777808e+00 2.923067e+00 1.505413e-01 2.511442e-01 3.396305e-01 4.353770e-01 4.147183e-01 4.451147e-01 5.210955e-01 5.720937e-01 4.669369e-01 3.535047e-01 3.242167e-01 3.174236e-01 3.043559e-01
<GCONST> 1.064061e+02
<STATE> 4
<MEAN> 39
 7.554101e+00 -9.933638e+00 -8.705407e+00 -1.327919e+01 -7.622199e+00 1.677241e+00 7.600298e+00 -5.882071e+00 -5.354608e-01 -3.103136e+00 3.389124e+00 -8.882361e+00 7.172125e+01 3.185427e+00 -2.399726e+00 -3.321625e+00 -3.098207e+00 -1.388478e-01 2.342720e+00 1.307328e+00 -4.335377e-01 -1.558875e+00 -2.017569e-01 1.019065e+00 -2.837838e+00 4.159922e+00 -8.042226e-01 4.112178e-02 4.600166e-01 8.142137e-01 9.287295e-01 -3.084550e-03 -1.648244e-01 3.324074e-01 3.888704e-01 2.131033e-01 -2.896449e-01 2.713714e-01 -8.059114e-01
<VARIANCE> 39
 1.007939e+01 2.278939e+01 1.827412e+01 2.489959e+01 1.568243e+01 2.313904e+01 1.565346e+01 2.795787e+01 4.484958e+01 1.293968e+01 1.761647e+01 1.089579e+01 1.746290e+01 1.170935e+00 1.806314e+00 4.377656e+00 5.172594e+00 2.147696e+00 2.092244e+00 3.487940e+00 5.860969e+00 4.118800e+00 2.018584e+00 1.613701e+00 1.427905e+00 1.731451e+00 2.783182e-01 3.512498e-01 3.792002e-01 5.237787e-01 3.719991e-01 5.031978e-01 3.963101e-01 3.598891e-01 3.321207e-01 2.723679e-01 3.652011e-01 2.942116e-01 3.431224e-01
<GCONST> 1.083135e+02
<TRANSP> 5
 0.000000e+00 1.000000e+00 0.000000e+00 0.000000e+00 0.000000e+00
 0.000000e+00 7.607312e-01 2.392688e-01 0.000000e+00 0.000000e+00
 0.000000e+00 0.000000e+00 6.739976e-01 3.260023e-01 0.000000e+00
 0.000000e+00 0.000000e+00 0.000000e+00 4.871766e-01 5.128233e-01
 0.000000e+00 0.000000e+00 0.000000e+00 0.000000e+00 0.000000e+00
<ENDHMM>
~h "r"
<BEGINHMM>
<NUMSTATES> 5
<STATE> 2
<MEAN> 39
 -1.475920e+01 -6.517277e+00 8.513159e+00 -9.090803e+00 -3.028464e+00 -1.673395e+00 -1.509691e+00 9.582145e-01 7.055376e+00 -3.681239e+00 1.288953e+00 -2.085603e+00 6.790736e+01 2.010438e+00 -7.568355e-01 -1.436088e-01 2.440429e-01 -1.647955e+00 -1.222395e+00 -6.712868e-01 1.477030e-01 9.266834e-01 -6.507867e-01 -1.094528e+00 -3.493837e-01 1.619506e+00 1.867186e+00 -3.949969e-01 -7.746480e-01 3.034957e-01 -2.492585e-01 -3.772339e-01 -4.915879e-02 -5.165055e-02 -9.026519e-03 -8.749498e-02 -2.700597e-01 -2.535374e-01 -2.129111e-02
<VARIANCE> 39
 3.244184e+01 1.644364e+01 1.629765e+01 1.464019e+01 2.946139e+01 2.859505e+01 1.901598e+01 2.712044e+01 2.574972e+01 2.018567e+01 2.307290e+01 2.130873e+01 7.639881e+00 1.719455e+01 1.474011e+00 3.961576e+00 1.750327e+00 2.321987e+00 3.473107e+00 2.182652e+00 1.858808e+00 2.312785e+00 1.869637e+00 2.464213e+00 1.843916e+00 1.187243e+00 1.157669e+00 2.790389e-01 6.817639e-01 4.855811e-01 6.361497e-01 6.916057e-01 4.646469e-01 4.328823e-01 4.506861e-01 3.654626e-01 5.072805e-01 3.575400e-01 2.828584e-01
<GCONST> 1.132705e+02
<STATE> 3
<MEAN> 39
 6.043819e+00 -1.535062e+01 -5.693153e-02 -8.504341e+00 -8.980958e+00 -7.452668e+00 -5.436718e+00 2.720690e+00 9.582023e+00 -5.868594e+00 -3.551212e+00 -6.516883e+00 7.669729e+01 2.638792e+00 -2.309939e+00 -2.544099e+00 -2.328718e-01 6.734101e-01 6.946605e-01 3.508596e-01 4.336147e-01 -3.624123e-02 6.390388e-02 -6.848508e-01 -1.549536e+00 1.561113e+00 -1.303182e+00 2.833351e-01 1.124044e-01 -7.584380e-02 7.335409e-01 8.377673e-01 6.152728e-01 -2.055376e-01 -3.637819e-01 2.181651e-01 2.313519e-01 3.612491e-02 -4.925879e-01
<VARIANCE> 39
 4.404519e+00 3.488554e+01 4.662985e+01 1.070669e+01 2.171739e+01 1.463427e+01 1.752882e+01 1.308344e+01 4.219006e+01 1.895550e+01 1.349016e+01 2.670823e+01 8.235129e+00 5.838242e+00 1.413937e+00 3.537467e+00 1.714105e+00 3.073981e+00 3.239869e+00 3.201663e+00 2.107076e+00 1.640833e+00 1.968659e+00 1.190673e+00 1.255188e+00 1.248082e+00 3.003823e-01 3.716690e-01 5.528362e-01 2.774469e-01 4.016754e-01 3.576589e-01 3.852709e-01 2.890892e-01 3.472993e-01 2.903568e-01 2.258857e-01 1.689377e-01 1.054202e-01
<GCONST> 1.027055e+02
<STATE> 4
<MEAN> 39
 8.562748e+00 -1.897269e+01 -8.719934e+00 -9.129564e+00 -2.331591e+00 8.543644e-01 2.810123e-01 6.794196e-01 5.188070e+00 -4.162563e+00 -5.387059e+00 -1.204697e+01 7.659075e+01 8.798306e-02 2.042545e-01 -2.296837e-01 1.179752e-01 -1.636453e-02 2.622890e-02 6.085188e-02 -4.819718e-03 -6.208256e-02 1.272019e-01 -9.385512e-02 -1.619547e-02 -2.438888e-01 -4.903142e-02 1.481261e-01 1.816337e-01 5.406429e-02 -1.352418e-01 -2.007735e-01 -1.256186e-01 1.627445e-02 1.049534e-01 -1.935580e-02 5.998526e-02 1.593904e-01 -8.502974e-02
<VARIANCE> 39
 3.849173e+00 3.173877e+01 3.475912e+01 1.418861e+01 2.345486e+01 2.482277e+01 2.126903e+01 3.559160e+01 3.363846e+01 2.292815e+01 1.631522e+01 2.742682e+01 7.050161e+00 1.282289e-01 4.968739e-01 8.058320e-01 6.399795e-01 1.499640e+00 1.952215e+00 1.502619e+00 1.780331e+00 1.407769e+00 7.594926e-01 9.600711e-01 8.514799e-01 1.211424e-01 2.617198e-02 9.579057e-02 7.844935e-02 1.088410e-01 1.700036e-01 1.854638e-01 2.202662e-01 2.804602e-01 1.945164e-01 1.587680e-01 1.657059e-01 1.447551e-01 2.949496e-02
<GCONST> 7.905740e+01
<TRANSP> 5
 0.000000e+00 1.000000e+00 0.000000e+00 0.000000e+00 0.000000e+00
 0.000000e+00 7.756803e-01 2.243197e-01 0.000000e+00 0.000000e+00
 0.000000e+00 0.000000e+00 7.422234e-01 2.577765e-01 0.000000e+00
 0.000000e+00 0.000000e+00 0.000000e+00 9.322841e-01 6.771582e-02
 0.000000e+00 0.000000e+00 0.000000e+00 0.000000e+00 0.000000e+00
<ENDHMM>
~h "s"
<BEGINHMM>
<NUMSTATES> 5
<STATE> 2
<MEAN> 39
 -5.691932e+00 -6.468969e+00 1.454946e+00 -2.611049e+00 1.464902e+00 -6.494696e+00 2.742278e+00 1.067021e+00 5.583181e+00 -2.725126e+00 -1.555672e+00 -1.318323e+00 6.287416e+01 -2.155782e+00 1.211120e-01 3.273648e-01 -1.140071e-01 9.453673e-01 -1.160507e+00 6.511847e-01 6.274568e-01 -3.439185e-01 1.997471e-01 2.113679e-01 9.571595e-02 7.424852e-01 -1.655495e-01 2.219507e-01 -9.226633e-02 -1.848514e-01 -1.080659e-01 3.777891e-02 7.410310e-02 -4.874219e-02 -6.749126e-02 1.133298e-01 1.051147e-01 7.919000e-03 1.108608e-01
<VARIANCE> 39
 2.720124e+01 1.556823e+01 2.095573e+01 2.031196e+01 2.165043e+01 3.456747e+01 3.726252e+01 2.231487e+01 3.081887e+01 2.180000e+01 2.618943e+01 2.183808e+01 1.969968e+01 1.837840e+00 1.603838e+00 1.153607e+00 1.608653e+00 1.784802e+00 2.110796e+00 2.613742e+00 2.108627e+00 2.371749e+00 2.174121e+00 2.215356e+00 1.736994e+00 7.610239e-01 2.760552e-01 2.506739e-01 2.171051e-01 2.461690e-01 3.511982e-01 5.556801e-01 5.094687e-01 3.840622e-01 4.694439e-01 3.700942e-01 4.129601e-01 3.654474e-01 1.275460e-01
<GCONST> 1.058417e+02
<STATE> 3
<MEAN> 39
 -1.523497e+01 -3.558024e+00 4.276718e-01 -4.133345e+00 3.680627e+00 -9.612074e+00 5.903725e+00 2.153723e+00 3.388730e+00 -5.105633e-01 -1.754225e-01 -4.055836e-01 6.623603e+01 -6.126027e-01 9.188653e-02 -2.346773e-01 -5.956200e-02 6.885682e-02 6.862226e-02 1.991779e-01 -5.727187e-03 5.653935e-03 2.590375e-01 -3.100273e-02 1.159177e-02 5.311548e-02 5.344892e-01 -1.640724e-01 -4.013161e-02 -7.704699e-03 -1.556104e-01 1.512695e-01 -1.338757e-01 -1.526236e-01 7.696914e-02 -1.766040e-02 -1.607308e-01 -1.358241e-01 -7.153129e-02
<VARIANCE> 39
 1.655301e+01 1.745291e+01 1.384932e+01 1.488383e+01 1.697552e+01 1.610749e+01 2.649849e+01 2.230618e+01 2.421535e+01 1.819560e+01 1.621400e+01 1.869148e+01 5.545431e+00 1.376952e+00 1.248726e+00 7.685833e-01 9.589623e-01 1.296277e+00 1.219706e+00 1.400033e+00 1.376960e+00 1.536829e+00 1.482226e+00 1.407604e+00 1.321447e+00 2.804772e-01 1.924208e-01 1.554400e-01 1.470991e-01 2.255792e-01 2.380273e-01 2.585014e-01 3.118318e-01 3.022105e-01 2.952085e-01 3.095240e-01 2.779355e-01 2.941422e-01 6.078538e-02
<GCONST> 8.994115e+01
<STATE> 4
<MEAN> 39
 -8.555570e+00 -5.369600e+00 -1.554311e+00 -5.379305e+00 1.285420e+00 -8.400749e+00 4.686110e+00 -5.219066e-01 4.740515e+00 5.245314e-01 -3.567151e+00 -3.474142e+00 6.669395e+01 3.831071e+00 -6.579223e-01 -1.455070e+00 -1.144385e+00 -8.918062e-01 9.529236e-01 -9.666994e-01 -1.298951e+00 8.182999e-02 5.519516e-01 -1.373115e+00 -1.888444e+00 1.258506e+00 3.729649e-01 -3.843502e-01 -3.369283e-01 -1.703775e-01 3.075157e-02 4.453538e-01 -1.257243e-01 -5.436596e-02 -5.920052e-02 -3.458670e-02 7.595681e-02 -2.280272e-01 4.886002e-01
<VARIANCE> 39
 7.067728e+01 1.440032e+01 2.213688e+01 1.711117e+01 1.611546e+01 1.449327e+01 2.455668e+01 2.343731e+01 2.177785e+01 1.572524e+01 2.017206e+01 2.349513e+01 1.093963e+01 7.929736e+00 1.645684e+00 3.274116e+00 1.882408e+00 1.590307e+00 1.731352e+00 2.557934e+00 1.871624e+00 2.574087e+00 1.580595e+00 1.768292e+00 2.782016e+00 2.050149e+00 1.105392e+00 3.330295e-01 5.008483e-01 4.101708e-01 3.071476e-01 2.722796e-01 3.994665e-01 3.910787e-01 3.407719e-01 3.307835e-01 4.005648e-01 4.589200e-01 2.637194e-01
<GCONST> 1.092893e+02
<TRANSP> 5
 0.000000e+00 1.000000e+00 0.000000e+00 0.000000e+00 0.000000e+00
 0.000000e+00 7.274851e-01 2.725148e-01 0.000000e+00 0.000000e+00
 0.000000e+00 0.000000e+00 8.294774e-01 1.705226e-01 0.000000e+00
 0.000000e+00 0.000000e+00 0.000000e+00 5.485089e-01 4.514911e-01
 0.000000e+00 0.000000e+00 0.000000e+00 0.000000e+00 0.000000e+00
<ENDHMM>
~h "t"
<BEGINHMM>
<NUMSTATES> 5
<STATE> 2
<MEAN> 39
 4.274512e+00 -6.984860e+00 -5.868072e+00 -6.716475e+00 -1.375598e+00 -2.562649e+00 -5.453604e-02 -2.334076e+00 7.635856e+00 1.886943e-01 -3.836282e+00 -6.242739e+00 6.449329e+01 -7.487630e-01 7.375847e-01 -1.215006e-01 3.546719e-04 5.638853e-01 3.373647e-01 7.643430e-01 -2.278757e-01 2.168551e-01 -8.079609e-02 6.442710e-01 3.413882e-01 -1.420462e+00 -7.036396e-02 -3.128014e-01 -4.350306e-03 -1.009534e-01 -7.322887e-02 1.250602e-01 1.290186e-01 1.386532e-01 -1.702690e-01 -1.289791e-01 -4.366363e-02 -1.115000e-01 1.929319e-01
<VARIANCE> 39
 2.046816e+01 1.777555e+01 2.531089e+01 1.716231e+01 2.471711e+01 2.530612e+01 2.239236e+01 1.929613e+01 2.153305e+01 2.232832e+01 2.237595e+01 2.299548e+01 2.446765e+01 4.375795e-01 1.256760e+00 9.137821e-01 1.242941e+00 1.929672e+00 1.696602e+00 1.764328e+00 1.729057e+00 1.637093e+00 1.792710e+00 1.641495e+00 1.517159e+00 8.394282e-01 8.258092e-02 1.693340e-01 1.795154e-01 2.434160e-01 4.441915e-01 4.305047e-01 3.748388e-01 3.222564e-01 3.215810e-01 3.948226e-01 3.164081e-01 3.190291e-01 1.032231e-01
<GCONST> 9.761965e+01
<STATE> 3
<MEAN> 39
 -5.678656e-01 -3.381269e+00 -3.301309e+00 -5.663501e+00 -1.590499e-01 -9.352185e-01 4.964786e+00 -1.381000e+00 5.872158e+00 -1.428154e+00 -1.166026e+00 -4.211978e+00 5.830225e+01 -6.094114e-01 1.125395e-02 4.603862e-01 1.979982e-01 -1.002278e-02 5.166888e-02 3.242340e-01 1.997126e-01 -2.836039e-01 -2.810042e-01 2.864505e-01 3.394981e-01 -3.998348e-01 -4.950745e-02 -2.940835e-01 1.297668e-01 -5.049331e-02 -2.794574e-01 -3.407395e-01 -1.669483e-01 -9.876316e-02 -8.522658e-02 3.041248e-02 3.277411e-02 1.391481e-01 4.241418e-01
<VARIANCE> 39
 1.324959e+01 1.044965e+01 2.564015e+01 1.560291e+01 1.449038e+01 1.767479e+01 1.497561e+01 2.024148e+01 1.982829e+01 1.536549e+01 1.735948e+01 1.718108e+01 9.167740e+00 2.265379e-01 3.979704e-01 5.129137e-01 6.179462e-01 9.794306e-01 9.766332e-01 1.135205e+00 1.163735e+00 1.353130e+00 1.674760e+00 1.103858e+00 1.320794e+00 1.690621e-01 6.419142e-02 1.251736e-01 1.337285e-01 1.671063e-01 2.837341e-01 2.838117e-01 2.434677e-01 3.461886e-01 3.802787e-01 3.318005e-01 2.564375e-01 2.981173e-01 1.720237e-01
<GCONST> 8.356942e+01
<STATE> 4
<MEAN> 39
 -3.755140e+00 -5.142539e+00 -4.173922e-01 -3.906217e+00 -1.033323e+00 -2.792423e+00 4.438253e+00 -1.939408e+00 4.416003e+00 -1.930066e+00 1.129876e+00 -1.205703e+00 5.817784e+01 -5.032172e-01 -1.691452e+00 8.946019e-01 -5.968579e-01 -2.036001e+00 -1.724504e+00 -2.423951e-01 -5.595185e-01 -1.068054e+00 -3.469215e-01 2.494916e-01 3.026373e-01 2.618431e+00 3.295531e-01 -6.268507e-03 7.439483e-01 -1.152379e-01 -8.670374e-01 -3.463571e-01 -3.741414e-01 -2.405353e-01 -3.089080e-01 5.269076e-02 -1.181513e-01 -4.178897e-01 7.675306e-01
<VARIANCE> 39
 1.323299e+01 1.740341e+01 2.672464e+01 1.851205e+01 1.736287e+01 1.597217e+01 1.561198e+01 1.653730e+01 2.364437e+01 1.321038e+01 2.233258e+01 1.733354e+01 1.742987e+01 9.385589e-01 1.346372e+00 1.698184e+00 1.423772e+00 3.106869e+00 2.944169e+00 1.679756e+00 3.068537e+00 2.722828e+00 2.144212e+00 1.771643e+00 2.385233e+00 2.717685e+00 2.148366e-01 2.731962e-01 4.984560e-01 2.025559e-01 5.511364e-01 3.890516e-01 3.813872e-01 3.354915e-01 3.689704e-01 3.134084e-01 3.161874e-01 4.295371e-01 3.884211e-01
<GCONST> 1.044123e+02
<TRANSP> 5
 0.000000e+00 1.000000e+00 0.000000e+00 0.000000e+00 0.000000e+00
 0.000000e+00 7.301898e-01 2.698102e-01 0.000000e+00 0.000000e+00
 0.000000e+00 0.000000e+00 6.316060e-01 3.683940e-01 0.000000e+00
 0.000000e+00 0.000000e+00 0.000000e+00 5.071746e-01 4.928253e-01
 0.000000e+00 0.000000e+00 0.000000e+00 0.000000e+00 0.000000e+00
<ENDHMM>
~h "y"
<BEGINHMM>
<NUMSTATES> 5
<STATE> 2
<MEAN> 39
 8.930617e+00 4.521957e+00 3.152944e+00 -4.049245e+00 -8.251245e+00 -7.961744e+00 3.556958e+00 -3.134825e+00 9.398794e-01 -4.652507e+00 4.954535e-01 -3.746401e+00 6.417040e+01 -6.995636e-01 -1.550223e+00 2.475652e+00 -7.777588e-01 -1.669058e+00 9.177831e-01 -2.822361e-01 4.668749e-01 -1.456253e-01 -1.494885e-01 3.870601e-01 2.213470e-01 6.753586e-01 -3.352250e-01 -9.733356e-01 1.176951e+00 -3.323632e-01 -1.056134e+00 3.865036e-01 -1.018451e-01 1.397805e-01 -1.683549e-01 1.235411e-01 2.708043e-01 -2.750070e-02 5.401068e-01
<VARIANCE> 39
 2.875873e+00 1.138309e+01 9.419603e+00 7.806379e+00 5.318589e+00 1.362348e+01 1.211779e+01 1.804203e+01 1.436955e+01 1.395865e+01 1.391654e+01 7.855859e+00 4.314717e+00 1.742109e-01 9.424852e-01 1.596168e+00 1.232909e+00 1.146234e+00 1.188860e+00 8.338722e-01 1.223185e+00 9.621235e-01 7.636854e-01 8.812316e-01 7.274809e-01 2.560323e-01 3.436040e-02 8.018539e-02 1.557580e-01 1.801098e-01 1.388063e-01 2.371707e-01 1.964839e-01 2.604179e-01 2.247176e-01 1.853185e-01 1.898870e-01 1.435857e-01 1.458337e-02
<GCONST> 7.081282e+01
<STATE> 3
<MEAN> 39
 6.459018e+00 -3.878101e-01 1.120559e+01 -6.417872e+00 -1.357761e+01 -4.204976e+00 2.125169e+00 -2.812804e+00 7.054294e-01 -4.744634e+00 1.911385e+00 -3.264629e+00 6.641790e+01 -1.222234e+00 -3.218316e+00 4.269973e+00 -1.395509e+00 -3.829299e+00 1.222546e+00 -1.148224e-01 9.837961e-01 -7.197867e-01 3.233373e-01 1.077681e+00 -1.838817e-01 1.710487e+00 8.072753e-02 -3.064030e-01 -3.055453e-01 1.900693e-01 -2.513639e-01 -3.132810e-01 1.387341e-01 2.565706e-01 -1.420246e-01 1.241946e-01 8.001466e-02 -1.977571e-01 2.202398e-01
<VARIANCE> 39
 5.990706e+00 2.875143e+01 3.897847e+01 1.937809e+01 2.500021e+01 2.207714e+01 1.308996e+01 2.224891e+01 1.293847e+01 1.697813e+01 1.059134e+01 1.017036e+01 8.104482e+00 2.936950e-01 7.779577e-01 1.476199e+00 2.165232e+00 1.563836e+00 2.272925e+00 2.172338e+00 2.378486e+00 1.913532e+00 1.573102e+00 1.397191e+00 9.670637e-01 1.982430e-01 8.438924e-02 1.795465e-01 6.874756e-01 2.741412e-01 4.351413e-01 2.814218e-01 2.356887e-01 3.542652e-01 1.688903e-01 2.505913e-01 1.713309e-01 1.708450e-01 5.808362e-02
<GCONST> 9.000490e+01
<STATE> 4
<MEAN> 39
 5.533193e+00 -1.160005e+01 1.105691e+01 -5.772079e+00 -1.877726e+01 -4.825283e+00 2.586077e-01 3.439655e+00 2.968972e-01 -4.616064e+00 1.303219e+00 -5.566529e+00 7.263782e+01 6.195189e-02 -7.643746e-01 -1.123482e+00 3.808807e-01 5.725889e-01 -1.353469e-01 -5.180279e-01 5.771093e-01 4.761031e-01 -1.572308e-01 -6.799532e-01 -1.582271e-01 3.084855e-01 4.055403e-02 4.569297e-01 -3.181552e-01 1.075718e-01 4.976977e-01 -5.096200e-02 3.736090e-03 -1.814484e-01 1.241777e-01 -6.605443e-03 -1.484742e-01 7.298861e-02 -2.850546e-01
<VARIANCE> 39
 3.202256e+00 3.263220e+01 6.380240e+01 2.401231e+01 3.730203e+01 2.322784e+01 3.457864e+01 2.333568e+01 4.263967e+01 2.016980e+01 2.209318e+01 1.170492e+01 1.179015e+01 3.132662e-01 2.055575e+00 3.927285e+00 1.604086e+00 4.090158e+00 1.406408e+00 1.937581e+00 2.287492e+00 1.821164e+00 1.694945e+00 1.505898e+00 9.411600e-01 7.199272e-01 9.821580e-02 1.111308e-01 1.053420e+00 3.962335e-01 6.149918e-01 3.255364e-01 4.200472e-01 3.270048e-01 3.210708e-01 3.244079e-01 2.920958e-01 1.700473e-01 2.956292e-02
<GCONST> 9.991364e+01
<TRANSP> 5
 0.000000e+00 1.000000e+00 0.000000e+00 0.000000e+00 0.000000e+00
 0.000000e+00 3.461882e-01 6.538118e-01 0.000000e+00 0.000000e+00
 0.000000e+00 0.000000e+00 4.567156e-01 5.432844e-01 0.000000e+00
 0.000000e+00 0.000000e+00 0.000000e+00 8.913393e-01 1.086607e-01
 0.000000e+00 0.000000e+00 0.000000e+00 0.000000e+00 0.000000e+00
<ENDHMM>
~h "aa"
<BEGINHMM>
<NUMSTATES> 5
<STATE> 2
<MEAN> 39
 9.133056e-01 -8.436132e+00 -3.711772e+00 -6.603962e+00 -4.508145e-01 2.003199e-01 4.944549e+00 -5.109220e+00 2.184848e+00 -2.346027e+00 -3.767691e-01 -6.232731e+00 6.475013e+01 1.432049e+00 -2.088951e+00 -1.610763e+00 -1.553120e+00 3.689465e-01 1.570814e+00 -1.894116e-01 -8.446990e-01 -5.073456e-01 -9.081771e-02 -1.922597e-01 -1.845780e+00 2.583901e+00 -1.734557e-01 -2.038422e-01 9.383626e-02 -4.525765e-02 1.161214e-01 1.710275e-01 -8.856591e-02 7.420564e-02 1.133070e-01 1.306105e-02 2.778252e-02 -8.868614e-02 2.989690e-01
<VARIANCE> 39
 3.975975e+01 3.762279e+01 4.698389e+01 3.626723e+01 2.248801e+01 2.929158e+01 2.996012e+01 3.424754e+01 3.632172e+01 1.994976e+01 2.637707e+01 4.179564e+01 7.672042e+01 2.883339e+00 2.877251e+00 3.147588e+00 2.574139e+00 1.983010e+00 2.858056e+00 2.600080e+00 3.284032e+00 2.699383e+00 2.021231e+00 1.565780e+00 3.733803e+00 4.285347e+00 8.016464e-01 6.381302e-01 6.886269e-01 6.500707e-01 3.285604e-01 4.854822e-01 4.572976e-01 5.572659e-01 4.491421e-01 3.433414e-01 3.867597e-01 8.397033e-01 1.066048e+00
<GCONST> 1.231813e+02
<STATE> 3
<MEAN> 39
 6.025578e+00 -1.460580e+01 -7.660247e+00 -1.098560e+01 1.250427e-01 4.865633e+00 3.758889e+00 -6.511259e+00 5.095896e-01 -2.476846e+00 -1.211837e+00 -1.158541e+01 7.353387e+01 2.214770e-01 -1.242040e+00 -2.732306e-01 -5.876874e-01 1.132431e-01 1.038858e+00 -4.294830e-01 1.145865e-01 -3.700110e-02 -4.152293e-02 1.640897e-01 -5.585265e-01 1.302473e+00 -4.934828e-01 4.286795e-01 4.510413e-01 4.631832e-01 -5.556102e-02 -3.920520e-01 1.731685e-02 2.321958e-01 1.536219e-01 -8.480483e-03 -1.293769e-03 4.630393e-01 -5.595855e-01
<VARIANCE> 39
 2.062406e+01 3.965250e+01 4.403013e+01 2.631127e+01 1.847433e+01 2.775773e+01 3.930591e+01 5.083270e+01 4.719987e+01 2.040420e+01 2.440365e+01 2.811180e+01 3.892271e+01 2.058302e+00 2.671853e+00 2.002759e+00 2.164458e+00 1.662890e+00 1.867163e+00 1.904642e+00 2.438122e+00 1.471382e+00 1.262420e+00 1.287905e+00 1.143231e+00 1.624325e+00 2.382701e-01 4.707915e-01 3.733672e-01 3.657922e-01 2.763210e-01 2.748693e-01 3.925790e-01 4.226221e-01 3.610274e-01 2.626830e-01 2.290397e-01 4.156975e-01 5.086380e-01
<GCONST> 1.097364e+02
<STATE> 4
<MEAN> 39
 7.752886e+00 -1.605847e+01 -8.669809e+00 -1.123769e+01 -7.049170e-01 3.731163e+00 1.660481e+00 -2.873643e+00 1.290481e+00 -1.377082e+00 -3.913121e+00 -1.175898e+01 7.447861e+01 -1.481907e-01 2.869581e-01 2.384806e-01 3.165612e-01 -1.514057e-01 -4.916725e-01 -3.652215e-01 3.586047e-01 3.921619e-01 2.848739e-02 -2.561874e-01 2.781408e-01 -2.618184e-01 -4.656053e-02 2.311133e-01 8.196502e-02 9.572089e-02 -1.708546e-02 -1.573689e-01 1.929358e-02 -4.277201e-02 4.668810e-02 1.837383e-02 2.295383e-02 1.129532e-01 -1.745261e-01
<VARIANCE> 39
 1.574723e+01 4.251776e+01 3.228117e+01 2.464511e+01 2.055460e+01 3.020936e+01 3.368121e+01 4.310835e+01 3.688858e+01 1.531939e+01 2.424377e+01 1.757755e+01 2.022511e+01 8.743008e-01 1.407168e+00 8.973972e-01 1.211715e+00 1.440622e+00 1.866013e+00 1.585121e+00 1.664773e+00 1.347925e+00 1.105857e+00 1.205534e+00 1.035744e+00 8.884609e-01 5.501645e-02 1.843592e-01 1.413821e-01 1.906575e-01 2.742251e-01 2.593786e-01 2.820840e-01 3.001314e-01 2.252626e-01 2.218792e-01 2.364877e-01 1.685090e-01 7.719737e-02
<GCONST> 9.462965e+01
<TRANSP> 5
 0.000000e+00 1.000000e+00 0.000000e+00 0.000000e+00 0.000000e+00
 0.000000e+00 4.621084e-01 5.378916e-01 0.000000e+00 0.000000e+00
 0.000000e+00 0.000000e+00 5.183423e-01 4.816577e-01 0.000000e+00
 0.000000e+00 0.000000e+00 0.000000e+00 8.447767e-01 1.552234e-01
 0.000000e+00 0.000000e+00 0.000000e+00 0.000000e+00 0.000000e+00
<ENDHMM>
~h "cx"
<BEGINHMM>
<NUMSTATES> 5
<STATE> 2
<MEAN> 39
 -1.002485e+00 -3.318417e+00 2.066598e+00 -2.872789e+00 -2.075556e+00 -3.766892e+00 4.229289e+00 -2.557479e-01 5.001699e+00 -2.991829e+00 -5.451973e-01 -1.485641e+00 5.972153e+01 -4.706249e-01 2.159314e-01 -4.696165e-02 3.081251e-01 3.098264e-01 2.297834e-01 2.462297e-01 -2.747604e-01 -8.163005e-02 -1.041587e-02 1.584710e-01 -9.402020e-02 -8.124216e-01 -2.145647e-02 -1.605235e-01 -3.779892e-02 -1.494137e-01 -1.476220e-01 -1.421214e-02 -8.505695e-02 1.451082e-02 -8.211513e-03 4.717015e-02 1.248163e-01 3.697757e-02 1.286984e-01
<VARIANCE> 39
 1.896308e+01 2.963214e+01 3.068469e+01 1.415631e+01 2.218443e+01 1.704907e+01 1.757192e+01 2.770271e+01 2.653256e+01 1.656263e+01 2.158167e+01 1.745371e+01 1.163512e+01 6.551442e-01 9.480975e-01 7.554468e-01 8.666648e-01 1.296472e+00 1.337616e+00 1.717871e+00 1.594872e+00 2.072990e+00 2.430722e+00 1.955911e+00 1.050153e+00 3.764569e-01 7.190134e-02 1.619183e-01 1.535585e-01 1.991522e-01 2.455051e-01 2.821481e-01 3.273692e-01 3.077125e-01 4.134016e-01 4.472447e-01 3.384051e-01 3.085120e-01 3.702000e-02
<GCONST> 9.254616e+01
<STATE> 3
<MEAN> 39
 -2.493380e+00 -2.155555e+00 2.551392e+00 -1.760558e+00 -3.021366e-01 -3.640428e+00 3.035390e+00 -2.154667e+00 4.041849e+00 -2.561682e+00 3.339776e-01 -2.168761e+00 5.785598e+01 -5.394718e-01 -1.255338e-01 -2.655963e-01 -8.665749e-02 9.526777e-02 1.081688e-01 4.767518e-02 -3.231443e-01 1.188725e-01 3.416447e-01 4.731690e-01 2.666877e-01 -6.155556e-01 -1.501548e-01 -4.568842e-01 1.496446e-01 -4.793044e-01 -2.347128e-01 7.429558e-02 -3.039835e-01 1.613286e-01 6.208692e-02 1.216315e-02 8.576643e-02 1.143758e-01 4.739461e-01
<VARIANCE> 39
 1.501745e+01 1.583146e+01 2.917558e+01 1.367685e+01 1.853962e+01 1.762976e+01 1.847173e+01 2.610786e+01 1.610110e+01 2.015283e+01 1.984381e+01 1.696180e+01 1.067434e+01 7.253903e-01 8.163305e-01 8.588651e-01 1.000497e+00 1.499211e+00 1.013487e+00 1.060472e+00 1.618728e+00 1.731936e+00 1.704122e+00 9.555283e-01 1.387117e+00 3.862938e-01 5.640572e-02 1.231247e-01 1.760289e-01 2.051582e-01 2.988068e-01 1.919187e-01 2.668881e-01 3.608825e-01 2.782174e-01 3.855221e-01 1.961045e-01 2.354278e-01 5.211734e-02
<GCONST> 8.801849e+01
<STATE> 4
<MEAN> 39
 -3.477270e+00 -2.373668e+00 2.298293e+00 -2.010053e+00 -8.579867e-01 -3.799759e+00 3.888020e+00 -1.917118e+00 4.271209e+00 -1.597244e+00 1.668787e+00 -1.573914e+00 5.699152e+01 -6.324364e-01 -1.133558e+00 2.594530e-01 -8.738518e-01 -4.209169e-01 6.105570e-01 -3.296243e-01 -2.911937e-02 1.338971e-01 6.096372e-02 4.547966e-01 4.437220e-01 2.239419e-01 -4.977234e-01 -3.642831e-01 3.662167e-01 -6.613126e-01 -7.862169e-02 2.370926e-01 -5.080772e-01 2.075563e-01 -3.406179e-02 -2.160502e-01 1.153006e-02 -1.020382e-01 8.464404e-01
<VARIANCE> 39
 9.147863e+00 1.027545e+01 2.519024e+01 1.476704e+01 1.942590e+01 1.760817e+01 2.237897e+01 2.934372e+01 1.818000e+01 1.583451e+01 2.142477e+01 1.295687e+01 6.776463e+00 5.355126e-01 1.866037e+00 1.687888e+00 1.689651e+00 1.278503e+00 1.349491e+00 1.169872e+00 1.277671e+00 1.107136e+00 1.009495e+00 6.916041e-01 1.215488e+00 8.163683e-01 1.251111e-01 1.528730e-01 2.618512e-01 2.560994e-01 3.942698e-01 3.367679e-01 4.255409e-01 6.344775e-01 3.793250e-01 3.833660e-01 2.805427e-01 2.667235e-01 7.052688e-02
<GCONST> 9.223327e+01
<TRANSP> 5
 0.000000e+00 1.000000e+00 0.000000e+00 0.000000e+00 0.000000e+00
 0.000000e+00 6.459004e-01 3.540996e-01 0.000000e+00 0.000000e+00
 0.000000e+00 0.000000e+00 1.075505e-01 8.924495e-01 0.000000e+00
 0.000000e+00 0.000000e+00 0.000000e+00 1.433600e-01 8.566400e-01
 0.000000e+00 0.000000e+00 0.000000e+00 0.000000e+00 0.000000e+00
<ENDHMM>
~h "ee"
<BEGINHMM>
<NUMSTATES> 5
<STATE> 2
<MEAN> 39
 -1.424360e+00 -2.827483e+00 6.577406e-01 -4.390691e+00 -2.749827e+00 -3.649482e+00 3.190031e+00 -1.230930e+00 6.207181e+00 -1.333625e+00 -4.576688e-01 -2.140657e+00 5.831847e+01 -4.904067e-01 1.324843e-01 3.777067e-01 3.443852e-01 4.823703e-01 3.573777e-01 2.634000e-01 5.650498e-02 -6.854805e-02 4.721042e-02 2.298292e-01 -1.257830e-01 -5.414590e-01 4.422540e-02 -8.777073e-02 5.274653e-02 -3.866024e-03 -1.058224e-01 -5.860703e-02 2.335719e-02 3.438886e-02 -6.487956e-02 -5.010992e-02 -5.273936e-02 -3.595457e-02 1.569117e-01
<VARIANCE> 39
 9.639352e+00 2.689507e+01 2.658461e+01 1.447439e+01 2.373707e+01 3.305433e+01 2.145918e+01 2.774808e+01 3.303902e+01 1.900035e+01 1.836620e+01 1.368594e+01 9.118693e+00 2.027263e-01 4.765033e-01 6.313156e-01 7.625968e-01 1.277645e+00 1.489690e+00 1.394477e+00 1.478441e+00 1.776169e+00 1.702190e+00 1.479554e+00 1.457075e+00 2.414405e-01 4.097370e-02 5.404510e-02 1.153302e-01 1.278376e-01 2.434294e-01 3.179675e-01 3.076246e-01 2.943506e-01 3.056793e-01 3.745517e-01 3.011008e-01 3.291073e-01 3.130386e-02
<GCONST> 8.594070e+01
<STATE> 3
<MEAN> 39
 -3.460880e+00 -4.542346e+00 2.347045e+00 -4.288423e+00 -3.214526e+00 -3.032172e+00 3.752726e+00 -1.473258e+00 4.139036e+00 -1.893167e+00 1.151795e+00 -2.352652e+00 5.809581e+01 -3.505022e-01 -1.148384e-01 4.854650e-01 1.989929e-01 -2.945718e-01 1.748031e-02 3.643649e-01 -7.028512e-02 6.397372e-02 3.245110e-01 1.053644e-01 -8.818047e-02 -2.688708e-01 1.911610e-01 -3.183373e-01 6.398149e-01 -2.758922e-01 -6.379598e-01 -1.520326e-01 -2.704356e-01 9.708215e-02 -4.265637e-01 -2.479333e-02 5.757090e-02 -1.739583e-01 5.338985e-01
<VARIANCE> 39
 1.114687e+01 2.618732e+01 2.841779e+01 1.737642e+01 3.420135e+01 3.437163e+01 1.825690e+01 2.530318e+01 3.031137e+01 2.738202e+01 2.052365e+01 1.682645e+01 1.328061e+01 1.838826e-01 9.577315e-01 1.328407e+00 7.708763e-01 2.551342e+00 2.663603e+00 1.383985e+00 1.952658e+00 1.416243e+00 2.172749e+00 1.577888e+00 1.836138e+00 6.406503e-01 5.461276e-02 1.503341e-01 3.577584e-01 2.067188e-01 4.872267e-01 4.168414e-01 3.999520e-01 2.735628e-01 4.443294e-01 5.433795e-01 3.311682e-01 3.152581e-01 1.329262e-01
<GCONST> 9.794104e+01
<STATE> 4
<MEAN> 39
 -2.412083e+00 -5.454237e+00 4.717434e+00 -4.462570e+00 -6.289262e+00 -5.677193e+00 3.223183e+00 -1.480175e+00 2.134648e+00 -9.947766e-01 8.847451e-01 -4.263728e+00 5.976198e+01 3.160967e-02 -3.513775e-01 1.157651e+00 -1.158178e-01 -7.766744e-01 1.060877e-01 1.172096e-01 5.092670e-02 -4.823614e-01 -1.591060e-01 1.411940e-01 -2.814550e-01 3.221549e-01 3.083536e-01 -4.931041e-01 1.071304e+00 -5.703777e-01 -9.406196e-01 -1.671588e-01 -6.758450e-01 1.520550e-01 -5.961320e-01 3.927335e-02 3.070556e-01 -1.902926e-01 9.391490e-01
<VARIANCE> 39
 1.232431e+01 2.352907e+01 5.579590e+01 1.236292e+01 5.199068e+01 3.256242e+01 2.449697e+01 1.990040e+01 4.647604e+01 1.448589e+01 1.314654e+01 2.369912e+01 2.701342e+01 4.565593e-01 7.424447e-01 1.558111e+00 1.277391e+00 1.844403e+00 1.976525e+00 1.530485e+00 1.241257e+00 1.617702e+00 1.564553e+00 8.366960e-01 1.338685e+00 5.726223e-01 1.055252e-01 2.850995e-01 8.207905e-01 2.882271e-01 9.142341e-01 4.486875e-01 5.127383e-01 3.287002e-01 4.779087e-01 3.578489e-01 3.352580e-01 3.349082e-01 3.629806e-01
<GCONST> 1.025000e+02
<TRANSP> 5
 0.000000e+00 1.000000e+00 0.000000e+00 0.000000e+00 0.000000e+00
 0.000000e+00 7.353933e-01 2.646066e-01 0.000000e+00 0.000000e+00
 0.000000e+00 0.000000e+00 1.921781e-01 8.078218e-01 0.000000e+00
 0.000000e+00 0.000000e+00 0.000000e+00 2.306330e-01 7.693670e-01
 0.000000e+00 0.000000e+00 0.000000e+00 0.000000e+00 0.000000e+00
<ENDHMM>
~h "ii"
<BEGINHMM>
<NUMSTATES> 5
<STATE> 2
<MEAN> 39
 -1.400049e+00 -8.579495e+00 1.233269e+01 -5.527243e+00 -1.563601e+01 -8.904131e+00 -1.988374e-01 -6.081443e+00 -3.670680e+00 -2.652601e+00 2.502221e+00 -5.196297e+00 7.112511e+01 2.186044e+00 -1.414096e-01 4.530281e+00 -1.082353e+00 -4.137014e+00 1.965753e-01 -2.865227e+00 -7.151449e-01 -1.621325e+00 7.353275e-01 -3.903340e-01 -2.728085e+00 2.618046e+00 7.809456e-02 3.549292e-01 -5.678640e-02 2.366696e-03 5.982432e-01 7.662238e-01 -2.273746e-01 1.987823e-01 3.159477e-01 2.799979e-01 -1.855824e-01 -1.156404e-01 -8.729087e-01
<VARIANCE> 39
 2.219361e+01 2.381305e+01 6.582839e+01 1.481674e+01 5.024635e+01 1.725221e+01 4.238799e+01 1.903983e+01 2.828594e+01 1.718414e+01 1.350784e+01 3.433187e+01 1.219436e+01 7.788631e-01 1.260908e+00 2.239919e+00 1.364913e+00 2.897938e+00 3.618273e+00 3.127773e+00 2.064618e+00 2.152567e+00 2.098250e+00 2.704265e+00 1.912675e+00 2.617030e+00 4.862453e-01 2.291480e-01 1.377256e+00 2.006693e-01 9.873997e-01 4.852526e-01 8.415684e-01 4.395398e-01 3.494917e-01 3.706982e-01 3.494006e-01 6.741955e-01 2.200179e-01
<GCONST> 1.123287e+02
<STATE> 3
<MEAN> 39
 2.579163e+00 -9.066670e+00 2.367162e+01 -1.060361e+01 -2.200673e+01 -3.114715e+00 -8.801962e+00 -6.145271e+00 -6.514153e+00 1.093110e+00 -5.399644e-01 -1.366597e+01 7.417280e+01 1.701694e-01 4.422942e-01 3.318390e-01 -3.776085e-01 1.137388e-01 7.594315e-01 -5.302268e-02 -1.568480e-01 3.304602e-01 3.828253e-01 -6.569954e-01 -3.283139e-01 -2.863534e-01 -2.528927e-01 1.826257e-01 -7.093738e-01 1.977226e-01 5.659102e-01 -2.089588e-01 7.246180e-01 6.307898e-03 3.268668e-01 -1.981377e-01 4.678756e-02 5.410982e-01 -3.204433e-01
<VARIANCE> 39
 5.437738e+00 1.076665e+01 1.625640e+01 1.885064e+01 1.753721e+01 8.564209e+00 3.756390e+01 1.385345e+01 3.231500e+01 1.889726e+01 3.180689e+01 2.164768e+01 4.753021e+00 2.731661e-01 5.133182e-01 9.783625e-01 6.630962e-01 1.031389e+00 8.028322e-01 1.660363e+00 6.533854e-01 9.848726e-01 6.799247e-01 9.728622e-01 7.870396e-01 3.268615e-01 1.288027e-01 9.384199e-02 4.138779e-01 1.505587e-01 4.992326e-01 1.643127e-01 3.980643e-01 1.561272e-01 2.534145e-01 1.456960e-01 2.500361e-01 1.966465e-01 9.756219e-02
<GCONST> 8.184690e+01
<STATE> 4
<MEAN> 39
 4.226248e+00 -2.748481e+00 1.949656e+01 -1.131917e+01 -1.914953e+01 -1.778626e+00 -2.956832e+00 -5.867050e+00 -1.959266e+00 4.131745e-01 -1.200973e+00 -9.184088e+00 6.980134e+01 2.809115e-01 6.274337e-01 -9.823459e-01 -8.139455e-02 5.801400e-01 -1.709081e-02 6.546350e-01 3.609675e-01 2.536352e-01 -3.028004e-01 2.566090e-01 4.914776e-01 -4.778664e-01 3.528209e-02 1.224076e-02 -2.209088e-01 1.585924e-01 1.106247e-01 -1.309606e-01 -1.548573e-02 -6.962478e-03 -1.098636e-02 -7.273597e-02 4.629452e-02 4.694530e-02 -3.083171e-02
<VARIANCE> 39
 3.514042e+00 2.659618e+01 2.189270e+01 2.734630e+01 2.134123e+01 2.120516e+01 4.001028e+01 1.937677e+01 2.583064e+01 1.774255e+01 2.378585e+01 1.811473e+01 5.987321e+00 2.571539e-01 6.949950e-01 1.774595e+00 2.162433e+00 1.931750e+00 1.881083e+00 1.254760e+00 1.499206e+00 1.334741e+00 1.167933e+00 1.049882e+00 9.287426e-01 2.308970e-01 3.428693e-02 1.183966e-01 1.617989e-01 3.422293e-01 3.324741e-01 3.341543e-01 2.387271e-01 3.117156e-01 2.465820e-01 1.858189e-01 2.076328e-01 1.713929e-01 3.961807e-02
<GCONST> 8.701541e+01
<TRANSP> 5
 0.000000e+00 1.000000e+00 0.000000e+00 0.000000e+00 0.000000e+00
 0.000000e+00 7.258979e-01 2.741022e-01 0.000000e+00 0.000000e+00
 0.000000e+00 0.000000e+00 7.476928e-01 2.523071e-01 0.000000e+00
 0.000000e+00 0.000000e+00 0.000000e+00 9.018081e-01 9.819184e-02
 0.000000e+00 0.000000e+00 0.000000e+00 0.000000e+00 0.000000e+00
<ENDHMM>
~h "sh"
<BEGINHMM>
<NUMSTATES> 5
<STATE> 2
<MEAN> 39
 -2.857006e+00 -7.555152e+00 5.231201e+00 -9.710433e-01 -3.094604e+00 -3.018384e+00 8.133192e-01 -2.185624e+00 5.820673e+00 -3.028610e+00 -1.263134e+00 -1.650246e+00 6.297812e+01 -1.949357e+00 -1.100149e+00 9.046685e-01 7.199172e-01 -1.111410e-01 -1.936182e-02 1.475620e-01 5.036341e-02 1.285394e+00 -9.651782e-02 5.252615e-02 2.114684e-02 5.657021e-01 -2.662161e-01 -1.102605e-01 -1.464708e-01 -2.025156e-01 -2.951010e-01 -2.139291e-01 -1.388650e-02 9.932278e-02 1.018333e-01 8.783951e-02 4.832535e-02 3.575271e-02 2.811594e-01
<VARIANCE> 39
 2.989895e+01 2.664748e+01 3.512977e+01 2.137765e+01 2.095971e+01 3.225769e+01 3.190794e+01 4.584755e+01 3.008079e+01 2.798483e+01 2.468977e+01 2.001703e+01 2.252442e+01 2.307351e+00 1.992272e+00 1.510641e+00 2.655010e+00 1.971818e+00 2.979969e+00 2.382169e+00 2.623438e+00 3.071573e+00 1.800409e+00 2.057868e+00 1.807279e+00 9.397430e-01 2.011407e-01 3.153799e-01 2.719685e-01 3.437374e-01 2.710591e-01 4.752459e-01 4.970835e-01 4.427319e-01 6.949419e-01 4.030004e-01 3.699650e-01 3.988598e-01 7.886235e-02
<GCONST> 1.098990e+02
<STATE> 3
<MEAN> 39
 -1.401968e+01 -1.218350e+01 8.625113e+00 5.054482e-01 -7.715915e+00 -4.182149e+00 1.570195e+00 -1.191938e+00 1.004858e+01 -2.605497e+00 -4.341172e-01 -1.482477e+00 6.848602e+01 -7.050120e-01 -4.495285e-01 -7.571572e-02 3.163331e-01 -3.576174e-01 -3.277584e-01 6.633794e-02 3.596304e-02 3.475521e-01 3.764079e-01 1.035568e-01 2.901740e-02 2.650548e-01 5.307101e-01 1.317065e-01 -9.694993e-02 1.088939e-02 6.246375e-02 -1.286692e-01 -6.850718e-02 6.774762e-02 -1.354119e-01 -4.040296e-02 -3.583815e-02 -4.263930e-02 -1.557364e-01
<VARIANCE> 39
 1.889787e+01 1.150453e+01 1.759360e+01 2.231531e+01 1.732894e+01 3.682025e+01 2.684321e+01 5.091228e+01 2.158689e+01 2.562031e+01 2.236262e+01 1.974203e+01 9.471374e+00 1.574621e+00 4.834008e-01 1.042134e+00 9.505218e-01 1.261426e+00 1.693695e+00 1.827565e+00 1.983436e+00 1.796499e+00 1.799639e+00 1.659807e+00 1.218773e+00 4.373458e-01 1.515724e-01 1.345628e-01 1.784160e-01 1.890612e-01 2.549555e-01 3.360566e-01 3.710255e-01 3.945254e-01 3.984974e-01 4.080003e-01 3.242603e-01 2.592338e-01 3.366937e-02
<GCONST> 9.483541e+01
<STATE> 4
<MEAN> 39
 -5.794939e+00 -1.021603e+01 7.139585e+00 1.379227e+00 -9.696580e+00 -9.121922e+00 -1.857242e+00 -9.139026e-01 8.935604e+00 -2.876718e+00 -8.605314e-01 -2.729707e+00 6.833820e+01 4.099070e+00 1.409147e+00 -2.065217e-01 -1.003675e+00 -9.654490e-01 -9.876374e-01 -1.676782e+00 -6.077729e-02 -1.304082e+00 -7.539806e-01 -1.748515e-01 -5.095329e-01 5.445652e-01 2.025467e-01 -1.630611e-02 8.176469e-02 -3.847981e-01 -2.365610e-01 2.853629e-01 -1.098889e-01 -1.217357e-02 -1.795488e-01 -3.805355e-02 9.428777e-02 4.005777e-02 2.881672e-01
<VARIANCE> 39
 7.753344e+01 2.533521e+01 9.725375e+00 2.019469e+01 2.036285e+01 1.952595e+01 3.156088e+01 2.900283e+01 3.212254e+01 2.151625e+01 2.004664e+01 1.824362e+01 1.183001e+01 2.924969e+00 2.313296e+00 1.255661e+00 2.470580e+00 2.075465e+00 1.615044e+00 1.848431e+00 1.798744e+00 2.893073e+00 1.858248e+00 1.640373e+00 1.330866e+00 1.265729e+00 1.357581e+00 6.660005e-01 1.742163e-01 3.525575e-01 3.419277e-01 3.087538e-01 5.116918e-01 3.905193e-01 6.467880e-01 3.942232e-01 3.024862e-01 2.461001e-01 1.694565e-01
<GCONST> 1.079204e+02
<TRANSP> 5
 0.000000e+00 1.000000e+00 0.000000e+00 0.000000e+00 0.000000e+00
 0.000000e+00 7.131509e-01 2.868492e-01 0.000000e+00 0.000000e+00
 0.000000e+00 0.000000e+00 8.795537e-01 1.204464e-01 0.000000e+00
 0.000000e+00 0.000000e+00 0.000000e+00 7.865801e-01 2.134198e-01
 0.000000e+00 0.000000e+00 0.000000e+00 0.000000e+00 0.000000e+00
<ENDHMM>
~h "sp"
<BEGINHMM>
<NUMSTATES> 3
<STATE> 2
~s "silst"
<TRANSP> 3
 0.000000e+00 2.969684e-01 7.030317e-01
 0.000000e+00 8.755056e-01 1.244944e-01
 0.000000e+00 0.000000e+00 0.000000e+00
<ENDHMM>
~h "uu"
<BEGINHMM>
<NUMSTATES> 5
<STATE> 2
<MEAN> 39
 7.281320e+00 -9.790272e+00 4.857283e+00 -7.527118e+00 -7.994626e+00 -4.047802e+00 -1.033856e+01 -5.132893e-01 6.800067e+00 -2.744026e+00 -6.415765e-01 -6.424389e+00 7.294083e+01 3.291017e-01 -8.119800e-01 -3.052513e-01 -1.257929e+00 1.994478e-01 1.678900e+00 -6.725515e-01 3.326592e-01 1.727174e-01 -5.552806e-02 4.431174e-01 -1.617006e-02 6.278789e-01 -3.183973e-01 7.096801e-01 -2.060423e-01 4.447973e-01 1.539170e-01 6.306244e-02 9.525220e-01 -5.127131e-01 -1.947379e-01 -6.624484e-02 2.942839e-02 2.623982e-01 -5.950293e-01
<VARIANCE> 39
 2.200541e+00 2.495846e+01 4.016249e+01 1.919854e+01 5.341873e+01 3.889526e+01 2.468297e+01 2.722960e+01 4.381900e+01 1.873561e+01 1.431538e+01 1.971303e+01 6.900651e+00 5.225769e-01 3.165265e+00 2.602500e+00 2.282919e+00 2.303360e+00 1.698711e+00 3.943689e+00 2.843126e+00 2.175979e+00 1.594564e+00 1.707474e+00 1.173659e+00 1.425711e+00 4.235043e-01 4.057983e-01 4.173255e-01 2.585601e-01 5.319644e-01 3.589240e-01 2.891340e-01 4.765502e-01 6.954405e-01 2.529592e-01 3.665311e-01 2.157124e-01 7.660091e-02
<GCONST> 1.046556e+02
<STATE> 3
<MEAN> 39
 8.995463e+00 -6.364022e+00 -1.051872e+00 -1.398202e+01 -4.997268e+00 4.877837e+00 -8.484768e+00 -4.625618e+00 3.760869e+00 -2.008881e+00 2.778203e+00 -3.524269e+00 7.218803e+01 3.524730e-01 1.604952e+00 -6.008142e-01 -6.833684e-01 -2.703280e-01 2.305736e-01 1.311978e+00 -2.474021e-01 -1.257338e+00 -7.584701e-01 3.914328e-01 1.214900e+00 -6.939510e-01 -2.676850e-02 2.207379e-01 7.417308e-02 2.106428e-01 -5.141332e-02 -4.819854e-01 1.582534e-01 2.350235e-01 -2.252550e-02 -1.082909e-01 -2.558448e-01 -5.796704e-02 -1.436152e-01
<VARIANCE> 39
 3.231797e+00 2.244183e+01 3.754905e+01 4.085810e+01 3.304038e+01 4.610659e+01 2.435157e+01 2.952563e+01 2.992080e+01 2.415433e+01 2.224697e+01 2.247601e+01 5.800207e+00 7.714365e-02 6.279626e-01 6.504307e-01 1.148767e+00 1.431711e+00 1.907248e+00 1.373582e+00 2.349259e+00 1.508776e+00 1.742939e+00 1.913309e+00 1.040899e+00 1.974341e-01 2.767021e-02 1.624139e-01 1.590939e-01 1.338848e-01 2.460057e-01 2.227879e-01 2.585806e-01 3.185767e-01 2.847535e-01 3.116583e-01 2.308571e-01 3.456753e-01 2.798698e-02
<GCONST> 8.746911e+01
<STATE> 4
<MEAN> 39
 8.756321e+00 2.626137e+00 -1.106855e+00 -1.334914e+01 -8.023123e+00 -3.098533e+00 -1.113655e+00 -2.473822e+00 -1.383383e+00 -4.683322e+00 3.054883e-01 -1.471771e+00 6.587884e+01 -3.449047e-01 4.071939e-01 2.808521e-01 6.700329e-01 1.064034e-01 -5.485687e-01 4.530124e-01 -1.620655e-01 -1.254255e-02 1.176355e-01 -1.583191e-01 -4.052724e-02 -6.180242e-01 -7.938256e-02 -1.311883e-01 2.696329e-02 8.834460e-02 8.789973e-02 5.832988e-02 -7.945140e-02 -5.875580e-02 9.258606e-02 1.217004e-01 5.794311e-02 -5.991705e-02 1.065016e-02
<VARIANCE> 39
 8.523998e+00 1.470941e+01 1.989772e+01 3.205743e+01 1.902466e+01 2.682569e+01 2.265787e+01 1.969159e+01 2.515352e+01 1.830384e+01 2.043860e+01 2.093629e+01 1.068919e+01 3.326086e-01 1.081237e+00 9.660748e-01 1.009628e+00 1.333800e+00 1.753143e+00 1.571906e+00 1.681664e+00 1.849937e+00 1.298228e+00 1.504227e+00 1.344724e+00 2.165341e-01 2.818783e-02 7.996591e-02 1.320215e-01 1.715003e-01 1.657324e-01 2.621985e-01 2.274565e-01 2.644136e-01 3.266535e-01 2.667971e-01 2.729499e-01 2.666867e-01 2.920708e-02
<GCONST> 8.626361e+01
<TRANSP> 5
 0.000000e+00 1.000000e+00 0.000000e+00 0.000000e+00 0.000000e+00
 0.000000e+00 6.866513e-01 3.133487e-01 0.000000e+00 0.000000e+00
 0.000000e+00 0.000000e+00 7.003800e-01 2.996199e-01 0.000000e+00
 0.000000e+00 0.000000e+00 0.000000e+00 8.755451e-01 1.244548e-01
 0.000000e+00 0.000000e+00 0.000000e+00 0.000000e+00 0.000000e+00
<ENDHMM>
~h "sil"
<BEGINHMM>
<NUMSTATES> 5
<STATE> 2
<MEAN> 39
 -6.827080e+00 -6.491430e+00 1.995833e+00 -5.772502e-01 -4.917826e-01 -3.755707e+00 4.555111e+00 -2.280716e-01 4.591213e+00 -2.386763e+00 1.796286e+00 -5.867378e-01 5.685488e+01 -1.951363e-02 -6.005199e-02 -3.281774e-02 -7.952864e-03 1.868787e-03 7.234862e-02 -1.097229e-01 -1.345550e-02 9.566259e-02 6.128698e-02 4.294000e-03 -4.687747e-02 -1.011334e-01 3.452371e-02 8.788119e-02 -6.227754e-04 -6.231014e-05 2.777616e-02 4.407142e-02 -2.473445e-03 -8.363636e-02 -3.605586e-02 1.947016e-02 6.627771e-03 2.526247e-02 -3.660919e-02
<VARIANCE> 39
 1.300054e+01 2.182387e+01 1.788530e+01 2.601867e+01 2.156303e+01 2.057342e+01 2.220288e+01 2.737978e+01 2.018463e+01 2.205617e+01 1.644803e+01 1.448190e+01 1.316743e+01 6.998059e-01 1.227845e+00 1.159457e+00 1.353745e+00 1.821452e+00 1.599771e+00 1.905003e+00 2.244286e+00 1.894333e+00 1.805411e+00 1.521506e+00 1.450351e+00 7.543637e-01 1.219207e-01 2.108471e-01 2.305107e-01 2.785446e-01 3.506113e-01 2.978981e-01 3.578342e-01 3.849185e-01 3.677725e-01 3.651244e-01 2.771145e-01 2.834958e-01 1.107785e-01
<GCONST> 9.728310e+01
<STATE> 3
~s "silst"
<STATE> 4
<MEAN> 39
 -6.478034e+00 -3.694618e+00 1.288774e+00 -6.924234e-01 1.031328e+00 -2.063565e+00 4.846618e+00 -2.536070e+00 2.743413e+00 -2.109567e+00 2.379303e+00 2.031001e-01 5.469217e+01 -1.263545e-02 1.854599e-02 1.131317e-02 -1.168562e-02 4.810552e-03 3.561370e-03 -1.055374e-02 -2.651500e-02 -2.718289e-02 -8.432725e-03 1.143776e-02 1.005568e-02 -1.478458e-02 -2.407338e-03 -1.368564e-02 -5.900541e-04 -7.144509e-03 -1.347961e-02 -7.266592e-03 -3.218656e-03 9.258579e-03 1.040637e-02 2.090405e-03 -9.856893e-03 -8.116002e-03 1.127163e-02
<VARIANCE> 39
 1.525785e+00 4.538771e+00 7.146528e+00 7.656703e+00 1.070749e+01 1.230938e+01 1.381259e+01 1.509147e+01 1.596321e+01 1.363771e+01 1.322810e+01 1.145228e+01 2.130639e+00 1.133438e-01 2.449612e-01 4.151645e-01 6.295063e-01 8.392212e-01 1.002649e+00 1.269346e+00 1.390399e+00 1.468065e+00 1.319409e+00 1.291139e+00 1.124398e+00 4.170873e-02 2.326660e-02 4.774803e-02 8.193478e-02 1.280178e-01 1.734072e-01 2.065531e-01 2.576593e-01 2.862169e-01 3.047972e-01 2.709390e-01 2.655158e-01 2.305100e-01 8.370042e-03
<GCONST> 6.495509e+01
<TRANSP> 5
 0.000000e+00 1.000000e+00 0.000000e+00 0.000000e+00 0.000000e+00
 0.000000e+00 7.084859e-01 1.586703e-01 1.328437e-01 0.000000e+00
 0.000000e+00 0.000000e+00 8.971710e-01 1.028290e-01 0.000000e+00
 0.000000e+00 1.851320e-02 0.000000e+00 9.520380e-01 2.944882e-02
 0.000000e+00 0.000000e+00 0.000000e+00 0.000000e+00 0.000000e+00
<ENDHMM>
~h "txh"
<BEGINHMM>
<NUMSTATES> 5
<STATE> 2
<MEAN> 39
 9.284858e+00 -1.822111e+01 -9.510408e+00 -7.441603e+00 -1.183674e+00 5.844383e+00 4.097276e+00 -6.155139e+00 9.952042e-02 -4.101545e+00 -2.111235e-01 -1.207939e+01 7.579756e+01 2.300899e-01 -3.103837e-01 -3.560257e-02 7.373580e-01 -4.583775e-01 -1.135701e+00 -2.664510e-01 1.548119e+00 2.781087e-01 -6.471431e-01 -1.873293e-01 4.806691e-01 -7.940862e-02 -3.496474e-02 1.104466e-02 1.160459e-01 6.688789e-02 -7.433929e-02 -3.543050e-01 -7.299124e-02 3.132993e-01 1.445420e-01 -1.481718e-01 -1.391004e-02 1.742699e-01 -5.726868e-02
<VARIANCE> 39
 2.844139e+00 4.678159e+01 2.148204e+01 1.374682e+01 1.388052e+01 2.413801e+01 4.518447e+01 8.553143e+01 4.438287e+01 1.720998e+01 1.221140e+01 1.291008e+01 6.520038e+00 1.498913e-01 4.579253e-01 6.106006e-01 7.913398e-01 8.458974e-01 1.849020e+00 1.567834e+00 2.785921e+00 1.610136e+00 1.231946e+00 7.766726e-01 8.610587e-01 1.559059e-01 3.051122e-02 1.201023e-01 8.318318e-02 1.137559e-01 1.499254e-01 1.930401e-01 2.609827e-01 3.457953e-01 2.324823e-01 1.963697e-01 1.513997e-01 1.521066e-01 2.880203e-02
<GCONST> 8.022073e+01
<STATE> 3
<MEAN> 39
 1.034613e+01 -1.895861e+01 -6.461560e+00 -1.175835e+00 -6.243951e+00 -9.760149e+00 -1.653420e-01 8.151860e+00 5.094193e+00 -1.061950e+01 -1.309327e+00 -4.265467e+00 7.404848e+01 -1.275349e-01 1.505878e+00 6.969562e-01 1.086520e+00 -3.906910e-01 -2.294661e+00 -3.593359e-01 6.008576e-01 8.310786e-01 -3.062328e-01 2.639754e-01 1.532102e+00 -1.281905e+00 -2.805692e-01 4.103034e-01 -8.954198e-02 -1.875807e-01 5.573816e-01 8.620117e-01 2.139976e-01 -8.725764e-01 -2.883753e-01 4.658030e-01 4.830880e-02 -3.779654e-01 -3.342202e-01
<VARIANCE> 39
 3.459288e+00 2.357895e+01 1.460048e+01 1.731128e+01 2.125605e+01 4.297014e+01 4.793001e+01 2.457370e+01 2.581789e+01 1.407740e+01 1.297748e+01 2.216368e+01 9.608730e+00 4.928964e-01 1.761814e+00 8.557085e-01 8.858153e-01 2.643526e+00 4.140311e+00 2.322729e+00 5.231037e+00 2.000104e+00 1.816009e+00 1.356386e+00 1.519147e+00 5.453110e-01 6.322076e-02 2.112719e-01 1.953699e-01 2.504723e-01 3.774895e-01 6.911174e-01 5.147667e-01 4.308669e-01 3.219403e-01 2.533645e-01 2.760919e-01 3.916306e-01 3.948222e-02
<GCONST> 9.705272e+01
<STATE> 4
<MEAN> 39
 4.125965e+00 -1.166498e+01 -4.907080e+00 -1.838472e+00 -1.924021e+00 -7.828338e+00 1.957385e+00 4.200592e+00 5.916629e+00 -6.397357e+00 -2.179001e-02 -2.688795e+00 6.569646e+01 -1.244537e+00 4.054784e-01 3.631693e-01 -7.823632e-01 4.664043e-01 1.085158e+00 6.616925e-01 -4.474272e-01 1.892169e-02 7.776692e-01 -6.888933e-03 -1.390614e-02 -8.421480e-01 3.439294e-03 -2.556030e-01 8.393079e-02 -7.391252e-02 -1.861609e-01 1.773329e-02 3.213101e-02 1.074215e-01 -9.980010e-03 -6.801528e-02 -7.963207e-02 9.545612e-03 2.226541e-01
<VARIANCE> 39
 1.819044e+01 1.184790e+01 2.628663e+01 2.208864e+01 1.886145e+01 2.775801e+01 3.600953e+01 2.236661e+01 2.100590e+01 2.243655e+01 1.525761e+01 2.047791e+01 9.915965e+00 6.297767e-01 1.619888e+00 2.960095e+00 1.576218e+00 2.081406e+00 1.894866e+00 2.427877e+00 2.292129e+00 2.038853e+00 1.519895e+00 1.763546e+00 2.242193e+00 1.690372e+00 1.397371e-01 2.412834e-01 6.107926e-01 3.936999e-01 3.470232e-01 4.553974e-01 4.711087e-01 4.569006e-01 4.153502e-01 3.167403e-01 3.572066e-01 4.752679e-01 2.448338e-01
<GCONST> 1.048355e+02
<TRANSP> 5
 0.000000e+00 1.000000e+00 0.000000e+00 0.000000e+00 0.000000e+00
 0.000000e+00 8.778726e-01 1.221274e-01 0.000000e+00 0.000000e+00
 0.000000e+00 0.000000e+00 7.681388e-01 2.318612e-01 0.000000e+00
 0.000000e+00 0.000000e+00 0.000000e+00 8.525270e-01 1.474730e-01
 0.000000e+00 0.000000e+00 0.000000e+00 0.000000e+00 0.000000e+00
<ENDHMM>
