~o
<STREAMINFO> 1 39
<VECSIZE> 39<NULLD><MFCC_D_A_0><DIAGC>
~h "a"
<BEGINHMM>
<NUMSTATES> 5
<STATE> 2
<MEAN> 39
 1.169868e-01 -5.455554e+00 3.731257e-01 -4.042556e+00 -3.181930e+00 -5.294387e+00 1.552211e+00 -1.127525e+00 4.850038e+00 -2.369715e+00 -1.297871e+00 -3.537977e+00 6.402845e+01 -4.906640e-01 1.392354e-01 1.907305e-01 7.388929e-02 2.724152e-01 -1.704697e-02 -7.465248e-03 -5.137920e-02 6.346634e-02 2.723929e-02 8.771043e-02 2.256618e-01 -2.084446e-01 4.413102e-02 -9.183900e-02 -1.106834e-02 -5.848867e-02 -1.483865e-02 4.647062e-02 1.281876e-02 1.071577e-03 -4.972789e-02 1.860650e-02 2.598003e-02 -5.175136e-02 8.454557e-02
<VARIANCE> 39
 5.184458e+01 4.548382e+01 4.196781e+01 2.425022e+01 3.683227e+01 2.770513e+01 3.486834e+01 3.344663e+01 3.062749e+01 2.414601e+01 2.331823e+01 2.369126e+01 3.326509e+01 1.381836e+00 2.378543e+00 1.741111e+00 1.654909e+00 2.244478e+00 2.132601e+00 2.327400e+00 2.410928e+00 2.021405e+00 1.990984e+00 1.867861e+00 1.854108e+00 1.541274e+00 2.052731e-01 3.391171e-01 3.175092e-01 2.978407e-01 4.003735e-01 4.092212e-01 4.288178e-01 4.389504e-01 3.721606e-01 3.619343e-01 3.572559e-01 3.499526e-01 2.247940e-01
<GCONST> 1.113097e+02
<STATE> 3
<MEAN> 39
 -6.341693e-01 -5.382972e+00 7.294443e-01 -3.984590e+00 -2.738477e+00 -5.314489e+00 1.648697e+00 -1.114294e+00 4.867393e+00 -2.285090e+00 -1.092072e+00 -3.217144e+00 6.380331e+01 -3.546185e-01 -5.929213e-02 1.079802e-01 -4.506312e-02 2.555943e-01 6.813159e-02 3.880356e-02 -7.012486e-03 -3.517878e-02 4.645739e-02 1.033184e-01 6.278132e-02 -3.888489e-02 7.240447e-02 -7.461310e-02 -4.506864e-02 -7.867390e-02 -2.929101e-02 6.444765e-02 1.418683e-02 -1.766830e-03 -5.121013e-02 1.228228e-02 6.423721e-03 -9.300927e-02 8.565066e-02
<VARIANCE> 39
 5.411767e+01 4.166868e+01 3.658126e+01 2.428295e+01 3.450088e+01 2.752032e+01 3.682691e+01 3.361932e+01 3.129047e+01 2.326721e+01 2.397030e+01 2.354275e+01 3.066215e+01 1.793925e+00 2.615298e+00 1.978865e+00 1.829518e+00 2.357289e+00 2.163761e+00 2.471133e+00 2.344534e+00 2.064413e+00 1.908437e+00 1.787375e+00 1.952904e+00 2.071773e+00 2.370925e-01 3.664160e-01 3.234705e-01 3.160781e-01 4.127791e-01 4.222899e-01 4.349574e-01 4.482273e-01 3.912553e-01 3.785642e-01 3.710080e-01 3.631433e-01 2.522522e-01
<GCONST> 1.126846e+02
<STATE> 4
<MEAN> 39
 -8.569142e-01 -5.790880e+00 8.029690e-01 -4.359577e+00 -2.438205e+00 -5.063062e+00 1.642776e+00 -1.134258e+00 4.678709e+00 -2.253186e+00 -9.849733e-01 -3.459135e+00 6.405630e+01 -1.573527e-01 -1.582085e-01 1.995615e-02 -2.220793e-01 1.584306e-01 2.137595e-01 -4.896776e-03 -5.967467e-02 -1.226079e-01 7.838430e-02 1.029680e-01 -1.427858e-01 1.459739e-01 6.644003e-02 2.137954e-03 -3.295860e-02 -7.080458e-02 -5.512595e-02 6.431912e-02 -4.534322e-03 -3.451440e-02 -3.996063e-02 2.958063e-02 1.332807e-02 -5.975813e-02 4.732271e-02
<VARIANCE> 39
 5.427396e+01 4.048235e+01 3.640778e+01 2.587048e+01 3.363777e+01 3.090300e+01 4.034783e+01 3.370111e+01 3.345808e+01 2.273053e+01 2.375667e+01 2.487020e+01 3.092496e+01 2.340637e+00 2.728778e+00 2.272705e+00 2.200259e+00 2.502088e+00 2.408847e+00 2.750622e+00 2.269501e+00 2.155971e+00 1.882020e+00 1.846828e+00 2.137056e+00 2.692128e+00 2.761807e-01 3.890684e-01 3.247759e-01 3.192392e-01 4.207907e-01 4.370438e-01 4.393850e-01 4.371801e-01 4.033890e-01 3.800851e-01 3.685555e-01 3.819157e-01 2.688386e-01
<GCONST> 1.146941e+02
<TRANSP> 5
 0.000000e+00 1.000000e+00 0.000000e+00 0.000000e+00 0.000000e+00
 0.000000e+00 3.750796e-01 6.249204e-01 0.000000e+00 0.000000e+00
 0.000000e+00 0.000000e+00 3.724166e-01 6.275834e-01 0.000000e+00
 0.000000e+00 0.000000e+00 0.000000e+00 4.415449e-01 5.584550e-01
 0.000000e+00 0.000000e+00 0.000000e+00 0.000000e+00 0.000000e+00
<ENDHMM>
~h "c"
<BEGINHMM>
<NUMSTATES> 5
<STATE> 2
<MEAN> 39
 4.382601e+00 -1.017762e+01 -8.038515e+00 -7.550223e+00 -1.884700e+00 1.705158e-02 5.668995e+00 -4.403478e+00 3.478609e+00 -2.219430e+00 -3.238190e-02 -8.211329e+00 6.877811e+01 2.287337e-01 -1.070204e-01 -7.059650e-01 -2.241041e-01 9.614047e-02 2.459974e-01 2.491968e-01 -3.333187e-01 -8.488644e-02 4.110632e-02 3.073426e-02 -2.322268e-01 4.460137e-01 -6.884704e-02 -3.430730e-02 8.750890e-03 -2.392704e-02 2.393200e-02 4.924824e-03 2.520147e-02 6.630798e-02 2.910392e-02 9.423078e-03 -4.463679e-02 -2.919732e-03 2.576942e-03
<VARIANCE> 39
 4.304899e+01 2.892653e+01 5.679394e+01 2.886572e+01 2.179290e+01 4.127005e+01 3.600732e+01 5.162857e+01 4.330254e+01 1.458835e+01 1.914605e+01 3.272132e+01 5.784018e+01 2.548074e+00 2.279776e+00 3.638623e+00 3.031620e+00 2.214625e+00 2.796819e+00 2.824866e+00 3.270288e+00 2.112884e+00 1.296274e+00 1.591082e+00 2.367262e+00 4.844293e+00 2.902606e-01 2.510207e-01 5.385430e-01 5.066504e-01 4.442827e-01 5.658484e-01 5.437578e-01 5.121078e-01 3.540936e-01 2.686925e-01 2.672426e-01 3.644523e-01 5.198880e-01
<GCONST> 1.176880e+02
<STATE> 3
<MEAN> 39
 4.670171e+00 -1.061361e+01 -9.911541e+00 -7.971449e+00 -1.135082e+00 5.317920e-01 6.257973e+00 -4.738783e+00 3.527464e+00 -1.974165e+00 -6.485860e-01 -8.864326e+00 6.990012e+01 -2.070343e-01 7.398006e-03 -1.955384e-01 -7.480820e-02 1.619345e-01 -3.530595e-02 5.417061e-02 1.221327e-01 4.718295e-02 8.012538e-02 -1.983702e-01 1.823205e-02 6.132624e-02 -9.620240e-02 1.811905e-02 1.333503e-01 9.325365e-03 -2.324702e-02 -1.078790e-01 -7.015824e-02 1.104313e-01 2.233056e-02 5.321419e-03 -4.780937e-02 7.141602e-02 -4.450623e-02
<VARIANCE> 39
 4.342126e+01 2.950096e+01 4.228638e+01 2.509355e+01 2.233337e+01 4.236631e+01 3.453424e+01 5.504775e+01 4.649100e+01 1.469256e+01 1.872807e+01 3.146808e+01 5.080493e+01 1.816326e+00 1.548944e+00 2.290992e+00 2.068523e+00 1.922033e+00 2.559695e+00 2.425174e+00 2.895885e+00 1.775799e+00 1.206008e+00 1.443991e+00 1.992308e+00 2.805564e+00 1.787018e-01 1.991961e-01 3.184166e-01 3.875358e-01 3.851021e-01 4.797607e-01 4.434147e-01 4.469444e-01 3.139413e-01 2.589068e-01 2.422892e-01 3.207905e-01 3.372665e-01
<GCONST> 1.111320e+02
<STATE> 4
<MEAN> 39
 2.895599e+00 -9.927526e+00 -8.805883e+00 -8.012115e+00 -4.573138e-01 -5.400028e-01 5.307315e+00 -2.440458e+00 4.074464e+00 -1.450211e+00 -2.144403e+00 -7.747518e+00 6.893913e+01 -5.398312e-01 2.886592e-01 3.064281e-01 2.396624e-02 4.506215e-02 -4.453250e-01 -1.641328e-01 4.181985e-01 9.196843e-02 4.994271e-02 -1.511755e-01 3.329439e-01 -2.306579e-01 -5.498873e-02 4.674737e-02 7.317483e-02 1.170263e-02 -1.094443e-02 -5.212688e-02 -2.146669e-02 1.502819e-03 -6.539064e-03 2.021375e-03 1.294277e-02 5.632538e-02 -2.220211e-02
<VARIANCE> 39
 6.055413e+01 4.119437e+01 3.491415e+01 2.164194e+01 2.262540e+01 4.750971e+01 3.203282e+01 4.758641e+01 3.906055e+01 1.532421e+01 2.171405e+01 3.333704e+01 4.777277e+01 1.729141e+00 1.467740e+00 1.186990e+00 1.635958e+00 1.784445e+00 3.065082e+00 2.306577e+00 2.895457e+00 1.693259e+00 1.434403e+00 1.583633e+00 2.010081e+00 1.677953e+00 1.675808e-01 2.024983e-01 1.894884e-01 2.996413e-01 3.570615e-01 5.604715e-01 4.133623e-01 5.044694e-01 2.853616e-01 2.918985e-01 2.812605e-01 3.740643e-01 2.236475e-01
<GCONST> 1.093742e+02
<TRANSP> 5
 0.000000e+00 1.000000e+00 0.000000e+00 0.000000e+00 0.000000e+00
 0.000000e+00 6.940894e-01 3.059106e-01 0.000000e+00 0.000000e+00
 0.000000e+00 0.000000e+00 7.088057e-01 2.911943e-01 0.000000e+00
 0.000000e+00 0.000000e+00 0.000000e+00 8.984146e-01 1.015854e-01
 0.000000e+00 0.000000e+00 0.000000e+00 0.000000e+00 0.000000e+00
<ENDHMM>
~h "d"
<BEGINHMM>
<NUMSTATES> 5
<STATE> 2
<MEAN> 39
 1.873645e+00 -3.513501e+00 2.390772e+00 -5.007803e+00 -3.561999e+00 -4.302736e+00 -1.125415e+00 -3.493574e+00 3.142001e+00 -1.469342e+00 -1.372104e+00 -5.030180e+00 6.317329e+01 8.671892e-01 2.249794e-01 2.891290e-01 -5.054052e-01 -5.202581e-01 1.841165e-01 -6.731691e-01 -5.964006e-01 -3.209609e-01 2.989343e-01 1.709966e-01 -5.035672e-01 6.414653e-01 5.295667e-02 1.197721e-01 7.552734e-04 -8.972034e-02 -2.001275e-02 1.118639e-01 3.650964e-02 -6.548367e-02 -8.146934e-02 3.022059e-02 9.904085e-02 7.095762e-02 -2.641771e-02
<VARIANCE> 39
 2.953358e+01 4.012571e+01 3.090332e+01 3.708683e+01 2.564509e+01 2.098629e+01 3.478078e+01 2.150141e+01 3.666351e+01 2.490127e+01 3.398248e+01 2.335349e+01 4.624417e+01 2.062739e+00 2.898817e+00 1.792631e+00 2.907021e+00 2.148910e+00 2.252286e+00 2.687098e+00 2.121696e+00 1.989202e+00 2.816441e+00 2.749311e+00 2.055727e+00 2.319647e+00 2.966002e-01 5.347345e-01 2.575124e-01 2.790973e-01 3.195864e-01 3.674098e-01 5.062619e-01 3.861607e-01 3.445180e-01 5.024049e-01 4.596395e-01 3.415680e-01 3.591143e-01
<GCONST> 1.142068e+02
<STATE> 3
<MEAN> 39
 3.684695e+00 -2.808869e+00 3.306210e+00 -6.142612e+00 -4.429592e+00 -3.831164e+00 -2.351929e+00 -4.645433e+00 2.294475e+00 -1.016109e+00 -8.267385e-01 -5.889571e+00 6.445100e+01 7.356986e-01 1.234187e-01 1.740894e-01 -8.021078e-01 -4.365856e-01 3.903173e-01 -5.087489e-01 -5.248968e-01 -4.088412e-01 3.033016e-01 4.417561e-01 -1.661870e-01 6.408526e-01 -8.777376e-02 -1.438164e-02 -7.416489e-02 -8.682089e-02 6.201912e-02 9.463861e-02 1.254321e-01 2.657002e-02 -1.969333e-02 -3.006339e-02 8.472504e-02 1.553540e-01 -5.315276e-02
<VARIANCE> 39
 2.504897e+01 4.736843e+01 2.986794e+01 5.025555e+01 2.632567e+01 2.413225e+01 3.342003e+01 2.206854e+01 3.810861e+01 2.756816e+01 3.994534e+01 2.020387e+01 4.670440e+01 1.777696e+00 3.399681e+00 1.696645e+00 2.664948e+00 2.086523e+00 2.327704e+00 3.025781e+00 1.947687e+00 1.883769e+00 3.203508e+00 2.662881e+00 1.650547e+00 2.279320e+00 2.854678e-01 6.115955e-01 2.497353e-01 3.109891e-01 3.388900e-01 3.355763e-01 5.938576e-01 3.751669e-01 3.209296e-01 5.784570e-01 4.613515e-01 3.126724e-01 4.290602e-01
<GCONST> 1.149431e+02
<STATE> 4
<MEAN> 39
 5.010817e+00 -2.983769e+00 3.744337e+00 -8.359116e+00 -4.988136e+00 -2.763237e+00 -3.454679e+00 -5.701200e+00 1.367729e+00 -5.185121e-01 4.633928e-01 -5.923079e+00 6.633386e+01 4.916634e-01 -2.327903e-01 -1.506180e-01 -1.144970e+00 -3.743080e-01 5.962558e-01 -3.686740e-01 -4.239545e-01 -3.666728e-01 3.229233e-01 6.816537e-01 9.818622e-02 7.799364e-01 -4.387383e-02 1.345317e-02 -1.201242e-01 -5.634335e-02 1.104304e-02 6.933924e-02 9.716924e-02 2.808921e-02 7.546024e-03 -5.119796e-02 2.286170e-02 9.615266e-02 -4.159251e-02
<VARIANCE> 39
 2.084474e+01 4.994757e+01 3.060716e+01 6.533775e+01 2.965126e+01 3.012181e+01 3.296804e+01 2.324075e+01 3.726056e+01 3.083282e+01 4.052616e+01 1.822412e+01 4.626156e+01 1.446160e+00 4.346825e+00 1.904225e+00 2.939262e+00 2.184168e+00 2.122428e+00 3.700098e+00 1.837727e+00 1.711891e+00 3.442750e+00 2.619274e+00 1.620559e+00 3.163267e+00 2.734255e-01 6.840162e-01 2.962630e-01 3.877169e-01 3.812623e-01 3.504480e-01 6.566395e-01 3.555466e-01 3.306523e-01 6.731772e-01 4.529384e-01 2.905089e-01 4.768961e-01
<GCONST> 1.169512e+02
<TRANSP> 5
 0.000000e+00 1.000000e+00 0.000000e+00 0.000000e+00 0.000000e+00
 0.000000e+00 5.430347e-01 4.569652e-01 0.000000e+00 0.000000e+00
 0.000000e+00 0.000000e+00 5.572814e-01 4.427186e-01 0.000000e+00
 0.000000e+00 0.000000e+00 0.000000e+00 7.077278e-01 2.922722e-01
 0.000000e+00 0.000000e+00 0.000000e+00 0.000000e+00 0.000000e+00
<ENDHMM>
~h "h"
<BEGINHMM>
<NUMSTATES> 5
<STATE> 2
<MEAN> 39
 -1.051789e+01 -6.660549e+00 -3.186628e-01 -5.063951e+00 1.799088e+00 -8.184133e+00 5.184194e+00 9.337851e-01 4.326581e+00 -1.158541e-01 -2.435206e+00 -3.112743e+00 6.695375e+01 1.219475e+00 -3.709193e-01 -3.482394e-01 -6.242405e-01 -3.752131e-01 2.344588e-01 -2.430307e-01 -3.696082e-01 -4.659924e-02 2.902825e-01 -6.230932e-01 -7.695125e-01 5.248331e-01 5.666924e-01 -6.363666e-02 -1.279024e-01 -1.876785e-01 -1.617188e-01 1.595168e-01 -1.756646e-01 -1.111368e-01 -4.488523e-02 1.946033e-02 -1.163985e-01 -2.294652e-01 1.662109e-01
<VARIANCE> 39
 7.788462e+01 2.460263e+01 1.583474e+01 2.221337e+01 2.465618e+01 2.523339e+01 2.912617e+01 2.390056e+01 2.382352e+01 1.962014e+01 2.325164e+01 3.537912e+01 1.389275e+01 7.065036e+00 1.964918e+00 1.339972e+00 1.836907e+00 2.074355e+00 2.061497e+00 2.321808e+00 2.049253e+00 1.808540e+00 1.507434e+00 2.046715e+00 2.793759e+00 1.358916e+00 8.566453e-01 3.457724e-01 2.427777e-01 3.446119e-01 3.835866e-01 3.226967e-01 4.583711e-01 4.241396e-01 3.621758e-01 3.087370e-01 3.737469e-01 4.847241e-01 2.755642e-01
<GCONST> 1.105527e+02
<STATE> 3
<MEAN> 39
 -3.663647e+00 -8.309829e+00 -2.123766e+00 -7.703335e+00 1.597241e-01 -5.812899e+00 3.843771e+00 -5.071421e-01 3.686098e+00 5.813892e-01 -4.699739e+00 -6.550454e+00 6.950628e+01 2.120097e+00 -5.332173e-01 -6.494042e-01 -6.864331e-01 -4.251733e-01 8.419374e-01 -3.906751e-01 -5.152611e-01 -9.840713e-02 1.760291e-01 -6.047520e-01 -9.583836e-01 7.609350e-01 7.850710e-02 -5.347776e-03 -5.020330e-02 5.009139e-02 4.561841e-02 1.400465e-01 3.183036e-02 -1.506580e-02 -1.462856e-02 -6.049145e-02 5.529347e-02 2.046952e-02 2.317740e-02
<VARIANCE> 39
 1.245181e+02 3.698840e+01 2.053368e+01 2.868068e+01 2.590218e+01 3.567757e+01 3.462419e+01 2.500141e+01 2.403942e+01 1.966313e+01 2.076265e+01 4.831202e+01 2.229592e+01 7.684453e+00 2.528269e+00 2.237505e+00 2.744510e+00 2.333205e+00 2.481499e+00 3.330839e+00 2.396113e+00 1.690192e+00 1.700011e+00 2.012739e+00 2.944602e+00 2.056408e+00 1.239120e+00 4.551286e-01 4.302381e-01 5.028080e-01 4.265742e-01 4.119270e-01 6.314795e-01 4.381958e-01 3.100270e-01 3.284487e-01 3.706543e-01 5.036948e-01 4.071022e-01
<GCONST> 1.184385e+02
<STATE> 4
<MEAN> 39
 4.673671e+00 -1.084833e+01 -5.255073e+00 -9.240783e+00 7.472163e-01 3.717186e-01 3.890860e+00 -3.049063e+00 1.480893e+00 -5.523674e-01 -4.723050e+00 -9.546430e+00 7.137900e+01 2.877634e-01 -4.860545e-02 -1.619486e-01 -6.562167e-03 2.880617e-02 2.552000e-01 -7.547230e-03 -1.519263e-01 -1.902377e-03 -8.621121e-02 7.830878e-02 -7.698093e-02 3.942000e-03 -9.374347e-02 2.790927e-02 3.408918e-02 3.630771e-02 1.205581e-02 -3.559851e-02 2.019737e-02 1.853134e-02 1.371640e-02 -7.906400e-03 3.835095e-02 4.516928e-02 -4.632064e-02
<VARIANCE> 39
 5.647452e+01 4.322455e+01 2.582789e+01 3.196906e+01 2.120991e+01 3.856639e+01 3.663622e+01 3.219960e+01 2.799691e+01 1.623275e+01 2.175347e+01 3.001666e+01 1.585126e+01 3.273883e+00 2.222359e+00 2.269175e+00 2.483715e+00 1.781400e+00 2.189163e+00 2.539919e+00 1.791300e+00 1.579977e+00 1.470149e+00 1.643558e+00 1.799917e+00 1.335280e+00 4.109111e-01 3.304508e-01 3.998543e-01 4.280406e-01 3.266571e-01 3.430184e-01 4.494014e-01 3.167831e-01 2.995498e-01 2.941913e-01 2.933362e-01 3.037305e-01 2.017434e-01
<GCONST> 1.097957e+02
<TRANSP> 5
 0.000000e+00 1.000000e+00 0.000000e+00 0.000000e+00 0.000000e+00
 0.000000e+00 6.988249e-01 3.011750e-01 0.000000e+00 0.000000e+00
 0.000000e+00 0.000000e+00 7.286513e-01 2.713488e-01 0.000000e+00
 0.000000e+00 0.000000e+00 0.000000e+00 9.642942e-01 3.570583e-02
 0.000000e+00 0.000000e+00 0.000000e+00 0.000000e+00 0.000000e+00
<ENDHMM>
~h "k"
<BEGINHMM>
<NUMSTATES> 5
<STATE> 2
<MEAN> 39
 8.034521e-01 -7.482430e+00 1.087447e+01 -6.428507e+00 -1.235478e+01 -7.011003e+00 4.546525e-01 -2.114406e+00 -2.375357e+00 -1.147249e+00 2.280047e+00 -4.908092e+00 6.522230e+01 1.970329e-01 -4.261931e-01 1.174374e+00 -2.409802e-01 -8.500478e-01 -1.235681e-01 -2.940945e-01 9.770015e-02 -5.228391e-01 1.060418e-01 2.633603e-01 -2.246474e-01 6.822535e-01 6.042016e-02 -1.307245e-01 2.304520e-01 -1.351920e-01 -2.529185e-01 -3.801688e-02 -1.752276e-01 2.228341e-03 -1.201325e-01 3.436577e-02 6.859184e-02 -6.830878e-02 2.444147e-01
<VARIANCE> 39
 2.341520e+01 4.626367e+01 8.471170e+01 2.255777e+01 8.417794e+01 3.014213e+01 3.287847e+01 1.866026e+01 6.380793e+01 1.633277e+01 1.639103e+01 2.137022e+01 6.354451e+01 1.133192e+00 1.983653e+00 5.359696e+00 2.181020e+00 4.702398e+00 1.821997e+00 2.263265e+00 1.604017e+00 2.466026e+00 1.513624e+00 1.576527e+00 1.700471e+00 3.340028e+00 1.385271e-01 3.028484e-01 8.235742e-01 3.664301e-01 7.510228e-01 3.472838e-01 5.069314e-01 2.452854e-01 4.219010e-01 3.113056e-01 2.599859e-01 3.046178e-01 4.660038e-01
<GCONST> 1.145259e+02
<STATE> 3
<MEAN> 39
 1.332021e+00 -8.496965e+00 1.343191e+01 -6.886639e+00 -1.438655e+01 -7.551919e+00 -4.609659e-01 -2.320868e+00 -3.816223e+00 -8.280183e-01 2.896253e+00 -5.216297e+00 6.696951e+01 2.593480e-01 -5.049506e-01 1.359865e+00 -4.295135e-01 -1.182074e+00 -2.194293e-01 -6.243126e-01 -4.308362e-03 -6.265447e-01 2.011852e-01 3.893082e-01 -2.504258e-01 9.399235e-01 4.634390e-02 -8.404125e-02 1.268997e-01 -1.232551e-01 -1.989796e-01 -4.287013e-02 -2.164376e-01 -4.554711e-03 -7.040506e-02 6.012569e-02 8.074202e-02 -2.665555e-02 1.872603e-01
<VARIANCE> 39
 2.024557e+01 4.288459e+01 8.373515e+01 2.662487e+01 8.155963e+01 2.862938e+01 3.732111e+01 2.294138e+01 5.935775e+01 1.385189e+01 1.926625e+01 2.174455e+01 6.620340e+01 1.279040e+00 2.515196e+00 6.832177e+00 2.821580e+00 6.160811e+00 1.756298e+00 2.881504e+00 1.629447e+00 2.671377e+00 1.396365e+00 1.904156e+00 1.953344e+00 4.323084e+00 1.634832e-01 3.570281e-01 1.077721e+00 4.744158e-01 9.509081e-01 3.488374e-01 6.285608e-01 2.724009e-01 4.333253e-01 2.853918e-01 3.221232e-01 3.336874e-01 6.513615e-01
<GCONST> 1.186240e+02
<STATE> 4
<MEAN> 39
 1.391476e+00 -7.410883e+00 1.499694e+01 -8.173213e+00 -1.691942e+01 -7.490898e+00 -3.632757e+00 -3.276060e+00 -2.388429e+00 2.668295e+00 4.212636e+00 -4.508909e+00 6.797787e+01 -2.340330e-02 1.808695e-02 -2.584388e-01 1.497776e-01 2.069352e-01 -8.940673e-02 -1.758245e-02 -9.390499e-02 1.407438e-01 1.022490e-01 -6.646090e-02 8.694275e-02 -1.017148e-01 -2.548425e-02 5.338847e-02 -1.022712e-01 6.088313e-02 1.091815e-01 2.925585e-02 5.669893e-02 8.854412e-04 5.567761e-02 -3.920903e-02 -3.602985e-02 2.180768e-02 -8.508558e-02
<VARIANCE> 39
 1.185508e+01 3.867735e+01 8.096304e+01 3.639300e+01 7.175132e+01 2.614180e+01 3.954974e+01 3.487476e+01 4.751979e+01 2.818280e+01 2.865560e+01 2.422621e+01 5.029426e+01 7.299321e-01 3.302227e+00 4.475810e+00 2.126710e+00 4.558708e+00 1.620782e+00 2.678979e+00 1.937373e+00 2.416993e+00 1.975642e+00 2.511687e+00 1.943491e+00 3.305773e+00 1.032251e-01 5.878891e-01 5.951248e-01 3.556770e-01 5.900099e-01 3.038675e-01 3.962134e-01 3.441603e-01 4.143344e-01 3.799742e-01 4.562205e-01 3.389690e-01 4.420112e-01
<GCONST> 1.167467e+02
<TRANSP> 5
 0.000000e+00 1.000000e+00 0.000000e+00 0.000000e+00 0.000000e+00
 0.000000e+00 5.329201e-01 4.670800e-01 0.000000e+00 0.000000e+00
 0.000000e+00 0.000000e+00 6.017042e-01 3.982958e-01 0.000000e+00
 0.000000e+00 0.000000e+00 0.000000e+00 9.648991e-01 3.510098e-02
 0.000000e+00 0.000000e+00 0.000000e+00 0.000000e+00 0.000000e+00
<ENDHMM>
~h "n"
<BEGINHMM>
<NUMSTATES> 5
<STATE> 2
<MEAN> 39
 3.519435e+00 -4.857073e-01 4.398750e+00 -5.460030e+00 -6.372575e+00 -4.251176e+00 -4.891971e-01 -4.185953e+00 3.084028e+00 -2.186662e+00 -7.066339e-01 -4.000988e+00 6.410668e+01 -2.167538e-01 1.782960e-01 4.988629e-03 4.206430e-01 1.920287e-01 -1.154028e-01 2.211181e-01 -8.499409e-02 9.670683e-02 -6.622676e-02 5.702360e-02 1.334741e-01 -3.726881e-01 -2.698386e-02 -9.801690e-02 6.166545e-03 -8.185037e-03 3.061381e-03 3.584046e-02 -4.238188e-02 2.456222e-02 9.975024e-03 -1.539979e-02 2.495208e-02 -5.531388e-03 2.997566e-02
<VARIANCE> 39
 4.322803e+01 3.243208e+01 5.126470e+01 4.068720e+01 4.426987e+01 2.388519e+01 3.201038e+01 2.375671e+01 3.068240e+01 1.902363e+01 2.204321e+01 2.007596e+01 2.103369e+01 8.642035e-01 1.152478e+00 1.526271e+00 1.760926e+00 1.749126e+00 1.651708e+00 1.620298e+00 1.632130e+00 1.853213e+00 1.344585e+00 1.444767e+00 1.339070e+00 4.809899e-01 9.553785e-02 1.365574e-01 1.960130e-01 2.844360e-01 2.915823e-01 3.202112e-01 3.022193e-01 3.049862e-01 3.034997e-01 2.560271e-01 2.633294e-01 2.572724e-01 5.406126e-02
<GCONST> 9.938451e+01
<STATE> 3
<MEAN> 39
 3.077023e+00 -2.300000e-01 4.400891e+00 -4.627003e+00 -5.985390e+00 -4.401560e+00 -1.538432e-01 -4.324100e+00 3.285566e+00 -2.398682e+00 -5.165673e-01 -3.740004e+00 6.334728e+01 -2.953389e-01 6.138219e-03 2.050613e-02 4.109364e-01 2.360690e-01 -7.512809e-02 1.641753e-01 -2.534498e-02 1.216446e-01 -9.465379e-02 5.516066e-02 1.207140e-01 -3.139943e-01 -3.667079e-02 -1.102353e-01 2.368225e-02 -2.412920e-02 1.140166e-02 1.479669e-02 -3.736571e-02 5.328703e-02 2.048632e-02 -1.045421e-02 -1.141199e-04 4.002045e-03 5.248109e-02
<VARIANCE> 39
 4.379881e+01 3.276280e+01 3.889022e+01 3.800340e+01 4.178353e+01 2.254998e+01 2.895103e+01 2.343919e+01 2.881997e+01 1.876669e+01 2.228728e+01 1.882134e+01 2.018428e+01 8.717583e-01 1.140840e+00 1.494066e+00 1.709047e+00 1.598493e+00 1.602385e+00 1.591388e+00 1.475193e+00 1.770943e+00 1.321063e+00 1.393937e+00 1.313798e+00 4.437541e-01 9.873857e-02 1.522618e-01 2.034350e-01 2.853637e-01 3.008080e-01 3.144716e-01 3.069652e-01 3.102540e-01 3.074534e-01 2.594059e-01 2.666819e-01 2.610727e-01 5.668603e-02
<GCONST> 9.850124e+01
<STATE> 4
<MEAN> 39
 2.813552e+00 9.290886e-02 4.555143e+00 -4.147232e+00 -5.802078e+00 -4.566093e+00 -5.279726e-02 -4.384520e+00 3.217272e+00 -2.562526e+00 -2.845202e-01 -3.510147e+00 6.269631e+01 -3.743536e-01 -2.109048e-01 4.685160e-02 4.085858e-01 2.909455e-01 -5.829311e-02 1.290582e-01 7.911453e-02 1.785865e-01 -8.130656e-02 1.073946e-02 1.495748e-01 -2.078455e-01 -2.782310e-02 -1.445953e-01 2.431073e-02 -6.430355e-02 -1.398368e-02 1.834569e-02 -6.332169e-02 7.596151e-02 3.159275e-02 -1.392952e-03 1.071024e-04 4.372925e-03 1.020702e-01
<VARIANCE> 39
 4.077937e+01 3.371327e+01 2.962038e+01 3.668045e+01 4.164937e+01 2.088284e+01 2.636287e+01 2.239923e+01 2.802311e+01 1.976087e+01 2.204190e+01 1.909077e+01 1.929123e+01 9.242839e-01 1.274095e+00 1.556428e+00 1.797695e+00 1.713961e+00 1.620881e+00 1.752054e+00 1.638983e+00 1.696132e+00 1.510555e+00 1.427035e+00 1.323628e+00 5.548717e-01 1.174017e-01 2.120725e-01 2.442632e-01 2.940131e-01 3.338317e-01 2.984694e-01 3.226494e-01 3.279501e-01 3.293614e-01 2.703137e-01 2.599694e-01 2.705530e-01 7.587645e-02
<GCONST> 1.000877e+02
<TRANSP> 5
 0.000000e+00 1.000000e+00 0.000000e+00 0.000000e+00 0.000000e+00
 0.000000e+00 4.617526e-01 5.382474e-01 0.000000e+00 0.000000e+00
 0.000000e+00 0.000000e+00 4.782123e-01 5.217876e-01 0.000000e+00
 0.000000e+00 0.000000e+00 0.000000e+00 6.049234e-01 3.950766e-01
 0.000000e+00 0.000000e+00 0.000000e+00 0.000000e+00 0.000000e+00
<ENDHMM>
~h "o"
<BEGINHMM>
<NUMSTATES> 5
<STATE> 2
<MEAN> 39
 7.026916e+00 -3.811707e+00 2.277692e+00 -1.326095e+01 -6.808599e+00 -1.019452e-01 -4.705948e+00 -7.313616e+00 -2.140644e-01 6.643037e-01 3.273237e+00 -5.362013e+00 6.932143e+01 4.916194e-01 1.778298e-01 -5.339293e-01 -1.125046e+00 -3.448334e-01 7.960207e-01 4.047870e-02 -3.411314e-01 -3.673919e-01 2.963087e-02 5.766634e-01 4.017451e-01 4.179092e-01 -5.484322e-02 1.104836e-01 -4.377205e-02 1.281062e-01 7.942836e-02 -2.012086e-02 1.314336e-01 8.909599e-02 6.335083e-02 -1.416684e-01 -1.291001e-01 7.115222e-02 -1.521060e-01
<VARIANCE> 39
 1.706990e+01 3.869659e+01 3.105470e+01 6.561913e+01 3.003755e+01 3.705895e+01 3.356879e+01 2.178041e+01 3.882246e+01 2.876411e+01 3.552847e+01 1.858217e+01 3.632008e+01 9.855456e-01 2.868338e+00 1.856605e+00 2.438276e+00 1.989646e+00 2.212003e+00 3.747749e+00 1.625411e+00 1.725546e+00 3.581640e+00 2.585507e+00 1.617754e+00 2.665539e+00 1.808059e-01 4.592230e-01 2.998269e-01 3.087964e-01 3.266889e-01 3.529033e-01 6.811369e-01 2.998963e-01 3.184808e-01 6.850485e-01 4.079900e-01 2.830521e-01 3.725638e-01
<GCONST> 1.132880e+02
<STATE> 3
<MEAN> 39
 8.441032e+00 -2.745499e+00 3.838106e-01 -1.615812e+01 -7.588301e+00 2.228203e+00 -4.116190e+00 -7.848919e+00 -1.094069e+00 1.098324e-01 4.423316e+00 -3.846012e+00 6.995977e+01 2.879456e-01 4.129147e-01 -4.792717e-01 -5.329425e-01 -3.740692e-02 5.319428e-01 2.219649e-01 -4.360615e-02 -7.051161e-02 -2.588272e-01 1.306657e-01 4.568330e-01 -2.266767e-02 -7.318078e-02 1.443851e-02 4.729437e-02 1.985872e-01 8.815783e-02 -1.161263e-01 -2.985806e-03 8.219068e-02 1.069919e-01 -3.699011e-02 -1.138724e-01 -2.478053e-02 -9.186250e-02
<VARIANCE> 39
 1.228283e+01 2.895910e+01 2.653705e+01 5.411416e+01 2.794347e+01 3.706187e+01 3.258341e+01 1.965547e+01 3.597660e+01 2.469813e+01 2.787480e+01 1.989059e+01 2.573339e+01 6.224661e-01 1.490989e+00 1.403559e+00 2.301223e+00 1.690334e+00 2.163824e+00 2.937755e+00 1.446953e+00 1.747188e+00 2.744464e+00 2.102154e+00 1.506653e+00 1.479083e+00 9.628818e-02 2.612080e-01 2.321622e-01 2.220835e-01 2.536535e-01 2.989075e-01 5.708661e-01 2.603633e-01 2.776397e-01 5.386943e-01 3.413692e-01 2.591555e-01 2.185062e-01
<GCONST> 1.045552e+02
<STATE> 4
<MEAN> 39
 8.683931e+00 -6.566136e-01 -9.141227e-01 -1.340315e+01 -6.094540e+00 1.191489e+00 -4.724454e+00 -7.044940e+00 1.107413e+00 -3.736371e-01 2.842872e+00 -3.433820e+00 6.825429e+01 -1.186763e-01 2.003624e-01 3.886036e-02 6.104013e-01 1.670870e-01 -3.629008e-01 9.250414e-02 9.857848e-02 2.888323e-01 -4.313688e-02 -2.498482e-01 -2.932687e-02 -3.332273e-01 -4.351518e-02 -1.522502e-02 5.617500e-02 6.780832e-02 5.991434e-04 -5.250812e-02 2.398049e-02 7.390067e-03 4.922569e-04 -1.148500e-03 -1.395029e-02 -1.561177e-02 -3.039558e-02
<VARIANCE> 39
 6.977146e+00 1.835966e+01 1.936388e+01 5.922081e+01 3.262417e+01 3.918133e+01 3.821100e+01 2.052958e+01 3.372252e+01 2.214935e+01 2.570189e+01 1.913945e+01 1.892390e+01 3.623597e-01 1.041367e+00 1.035869e+00 2.416886e+00 1.945647e+00 2.185578e+00 3.121318e+00 1.551191e+00 1.808841e+00 2.004236e+00 1.674595e+00 1.560876e+00 7.002233e-01 4.516889e-02 1.745362e-01 1.483669e-01 2.577529e-01 3.002000e-01 3.152288e-01 5.732347e-01 2.936407e-01 3.209734e-01 3.635875e-01 3.086527e-01 2.517154e-01 9.486916e-02
<GCONST> 9.870317e+01
<TRANSP> 5
 0.000000e+00 1.000000e+00 0.000000e+00 0.000000e+00 0.000000e+00
 0.000000e+00 6.359619e-01 3.640381e-01 0.000000e+00 0.000000e+00
 0.000000e+00 0.000000e+00 6.885220e-01 3.114780e-01 0.000000e+00
 0.000000e+00 0.000000e+00 0.000000e+00 9.441730e-01 5.582693e-02
 0.000000e+00 0.000000e+00 0.000000e+00 0.000000e+00 0.000000e+00
<ENDHMM>
~h "p"
<BEGINHMM>
<NUMSTATES> 5
<STATE> 2
<MEAN> 39
 -2.882846e-01 -5.382287e+00 -1.664942e+00 -5.332414e+00 -2.123285e+00 -1.886936e+00 4.133488e+00 -2.478637e+00 3.761071e+00 -2.391648e+00 7.342888e-01 -3.471977e+00 6.119131e+01 1.052909e-01 -3.046221e-01 -3.335756e-01 -2.961435e-01 1.131893e-01 3.512878e-01 3.235045e-01 1.115598e-01 -1.281114e-01 8.243495e-03 1.337717e-01 -1.846423e-01 1.510978e-01 9.945169e-02 -8.068405e-02 2.033478e-02 -8.614695e-02 -7.941721e-02 -2.158639e-02 -4.156442e-02 4.279055e-03 -6.457445e-02 -8.882760e-03 -6.779899e-02 -7.064818e-02 1.716335e-01
<VARIANCE> 39
 3.254263e+01 3.269547e+01 3.812920e+01 2.931651e+01 1.964353e+01 2.508512e+01 2.307379e+01 2.933485e+01 2.860131e+01 1.595759e+01 1.812718e+01 3.101695e+01 4.419224e+01 1.948686e+00 1.581974e+00 1.867463e+00 2.285376e+00 1.638733e+00 1.522426e+00 1.564826e+00 1.599989e+00 1.955022e+00 1.908777e+00 1.508458e+00 2.052023e+00 2.679874e+00 3.231377e-01 1.914309e-01 3.398148e-01 4.506576e-01 3.357015e-01 3.005431e-01 3.488749e-01 3.346447e-01 3.983830e-01 3.698767e-01 3.121771e-01 3.893985e-01 3.770780e-01
<GCONST> 1.083707e+02
<STATE> 3
<MEAN> 39
 1.814224e-01 -6.508958e+00 -2.413030e+00 -6.250726e+00 -2.081526e+00 -1.210833e+00 4.662380e+00 -2.206826e+00 3.195254e+00 -2.343184e+00 8.220261e-01 -4.148572e+00 6.201108e+01 4.147172e-01 -5.163143e-01 -3.195465e-01 -5.357746e-01 -1.243787e-01 3.066003e-01 1.932154e-01 4.693069e-02 -2.732607e-01 2.528848e-02 -1.116308e-03 -4.207002e-01 6.729911e-01 1.103641e-01 -9.761892e-02 -6.390656e-03 -8.962210e-02 -6.264886e-02 2.533216e-02 -2.447653e-02 -3.879711e-02 -7.164258e-02 1.315414e-02 -2.155711e-02 -9.679884e-02 1.967101e-01
<VARIANCE> 39
 3.478471e+01 4.021372e+01 4.009829e+01 3.529883e+01 1.908718e+01 2.482621e+01 1.954771e+01 2.836489e+01 3.662180e+01 1.388304e+01 1.585142e+01 3.607677e+01 5.801710e+01 2.558404e+00 1.580304e+00 1.951381e+00 3.348535e+00 2.091690e+00 1.881397e+00 1.636306e+00 1.482786e+00 2.350325e+00 1.555034e+00 1.516078e+00 2.398835e+00 3.536253e+00 3.852724e-01 1.970736e-01 3.539951e-01 5.757867e-01 2.880524e-01 3.337982e-01 3.338286e-01 3.103712e-01 4.474223e-01 3.151538e-01 2.902240e-01 4.280718e-01 4.538406e-01
<GCONST> 1.110644e+02
<STATE> 4
<MEAN> 39
 3.380102e+00 -1.060251e+01 -4.423063e+00 -1.036912e+01 -2.847898e+00 9.016200e-01 5.249001e+00 -1.829523e+00 -1.015034e-01 -1.982098e+00 8.846558e-01 -7.181410e+00 6.723974e+01 6.278597e-01 -9.384214e-01 -5.040081e-01 -7.560964e-01 -3.094158e-02 4.795156e-01 1.139140e-01 3.503023e-02 -4.294122e-01 6.236964e-02 -7.892119e-02 -7.709143e-01 1.225079e+00 -9.039199e-02 2.768617e-02 5.881676e-03 1.845743e-01 7.170546e-02 -5.628496e-02 -1.589655e-02 -3.851308e-02 9.828876e-02 -5.976447e-03 -5.084941e-02 3.069893e-02 -7.516671e-02
<VARIANCE> 39
 4.012169e+01 6.071092e+01 4.006305e+01 6.013132e+01 2.184797e+01 3.185623e+01 1.752731e+01 2.914387e+01 6.001596e+01 1.239036e+01 1.539010e+01 3.807497e+01 8.228575e+01 2.929384e+00 2.045450e+00 2.321147e+00 4.929142e+00 1.837761e+00 2.277890e+00 1.461457e+00 1.803401e+00 2.781597e+00 1.254678e+00 1.459855e+00 2.447725e+00 4.328230e+00 4.482428e-01 2.554981e-01 3.570692e-01 7.411385e-01 3.385978e-01 3.949893e-01 2.931247e-01 2.964165e-01 4.773870e-01 2.525119e-01 2.899285e-01 3.936136e-01 5.049766e-01
<GCONST> 1.151349e+02
<TRANSP> 5
 0.000000e+00 1.000000e+00 0.000000e+00 0.000000e+00 0.000000e+00
 0.000000e+00 5.476786e-01 4.523214e-01 0.000000e+00 0.000000e+00
 0.000000e+00 0.000000e+00 5.585684e-01 4.414316e-01 0.000000e+00
 0.000000e+00 0.000000e+00 0.000000e+00 7.336436e-01 2.663564e-01
 0.000000e+00 0.000000e+00 0.000000e+00 0.000000e+00 0.000000e+00
<ENDHMM>
~h "r"
<BEGINHMM>
<NUMSTATES> 5
<STATE> 2
<MEAN> 39
 -8.024138e+00 -9.360677e+00 4.994178e+00 -8.972573e+00 -3.839801e+00 -2.791627e+00 -1.735539e+00 1.683572e+00 6.645759e+00 -3.485582e+00 2.180630e-01 -3.994871e+00 6.940343e+01 9.190609e-01 -9.332083e-01 -1.415184e-01 -2.385711e-01 -8.684493e-01 -4.814535e-01 -6.518838e-01 3.480830e-01 5.938416e-01 -3.897323e-01 -6.671239e-01 -4.789399e-01 1.677685e+00 8.624206e-01 -1.604826e-01 -3.791517e-01 2.296733e-01 -8.620851e-02 -1.449451e-01 8.440712e-02 -5.482815e-02 2.223346e-02 -6.013056e-02 -1.834407e-01 -1.014778e-01 -9.366643e-02
<VARIANCE> 39
 1.103420e+02 5.160500e+01 3.711700e+01 1.568622e+01 3.594789e+01 3.039774e+01 2.145241e+01 2.365886e+01 2.580616e+01 2.017249e+01 2.464634e+01 3.510091e+01 3.609287e+01 1.577761e+01 2.019376e+00 4.878351e+00 2.191648e+00 3.221328e+00 3.797868e+00 2.546739e+00 1.955506e+00 2.247972e+00 1.947956e+00 2.434917e+00 1.820732e+00 1.610302e+00 2.798231e+00 3.380899e-01 7.401920e-01 4.340363e-01 7.372206e-01 8.042070e-01 5.153786e-01 3.840556e-01 4.053884e-01 3.464480e-01 4.460700e-01 2.953248e-01 2.789177e-01
<GCONST> 1.213038e+02
<STATE> 3
<MEAN> 39
 5.886643e-01 -1.397596e+01 3.565240e-01 -8.843548e+00 -5.550927e+00 -3.684213e+00 -2.693800e+00 2.313146e+00 8.249609e+00 -4.928600e+00 -2.928028e+00 -6.741566e+00 7.430074e+01 2.156574e+00 -1.153574e+00 -1.504020e+00 2.081923e-02 -7.255776e-02 7.143120e-02 -1.146500e-02 2.434229e-02 1.975747e-01 -3.061133e-01 -6.844106e-01 -7.555821e-01 1.028535e+00 -8.767487e-03 4.270755e-02 -1.935249e-01 3.190483e-02 2.381810e-01 1.879548e-01 1.934081e-01 -9.277046e-02 -1.498130e-01 6.111238e-02 7.477865e-02 -2.187146e-02 -1.955814e-01
<VARIANCE> 39
 1.094551e+02 5.924303e+01 6.947861e+01 1.389748e+01 3.092008e+01 2.871185e+01 2.522366e+01 2.027118e+01 3.652392e+01 2.229679e+01 2.061197e+01 4.610061e+01 2.468130e+01 9.856464e+00 2.036345e+00 4.401873e+00 1.408361e+00 3.557872e+00 3.608064e+00 2.775833e+00 1.863637e+00 2.162462e+00 1.602880e+00 1.832412e+00 1.532848e+00 1.563953e+00 2.248427e+00 3.351811e-01 8.075098e-01 2.740292e-01 5.924100e-01 6.364588e-01 5.099489e-01 3.107804e-01 3.648050e-01 2.562065e-01 3.367346e-01 2.348376e-01 1.746427e-01
<GCONST> 1.175994e+02
<STATE> 4
<MEAN> 39
 7.128862e+00 -1.685178e+01 -7.245548e+00 -8.267076e+00 -3.024594e+00 -7.265432e-01 -4.063752e-01 1.217150e+00 6.684231e+00 -4.795298e+00 -5.159855e+00 -9.826944e+00 7.484258e+01 4.876426e-02 1.803544e-01 -1.001015e-01 1.582828e-01 3.823031e-02 -1.070796e-01 1.250282e-01 -1.890084e-02 -1.628628e-02 4.281973e-02 -7.133983e-03 9.284335e-02 -3.232102e-01 -1.147157e-01 1.037934e-01 1.090477e-01 2.249284e-02 -1.161978e-02 -5.034108e-02 -1.540517e-02 -2.244781e-02 5.981915e-03 1.764846e-02 5.419854e-02 7.418285e-02 -8.570179e-02
<VARIANCE> 39
 1.794535e+01 3.709016e+01 4.077427e+01 1.600467e+01 2.507674e+01 3.126501e+01 2.713166e+01 3.140775e+01 3.734823e+01 2.303971e+01 1.805977e+01 3.616930e+01 2.193301e+01 1.796938e+00 1.251473e+00 2.143033e+00 9.190550e-01 1.849598e+00 2.334330e+00 1.984901e+00 1.984233e+00 1.632064e+00 1.092562e+00 1.412911e+00 1.299802e+00 6.918764e-01 2.787322e-01 1.591430e-01 2.430174e-01 1.577721e-01 3.116308e-01 3.386015e-01 3.452979e-01 3.113499e-01 2.784719e-01 2.050822e-01 2.656322e-01 1.883719e-01 7.221255e-02
<GCONST> 1.001964e+02
<TRANSP> 5
 0.000000e+00 1.000000e+00 0.000000e+00 0.000000e+00 0.000000e+00
 0.000000e+00 7.426097e-01 2.573902e-01 0.000000e+00 0.000000e+00
 0.000000e+00 0.000000e+00 7.429484e-01 2.570516e-01 0.000000e+00
 0.000000e+00 0.000000e+00 0.000000e+00 9.453600e-01 5.463998e-02
 0.000000e+00 0.000000e+00 0.000000e+00 0.000000e+00 0.000000e+00
<ENDHMM>
~h "s"
<BEGINHMM>
<NUMSTATES> 5
<STATE> 2
<MEAN> 39
 -6.462030e+00 -5.438609e+00 -9.769715e-02 -4.322724e+00 9.738898e-01 -6.952673e+00 3.547702e+00 5.978122e-01 4.129789e+00 -1.883172e+00 -1.054274e+00 -1.868954e+00 6.468542e+01 -1.293160e+00 1.025005e-02 6.206083e-02 -5.086959e-02 5.111670e-01 -5.026929e-01 4.373348e-01 2.751276e-01 -7.971116e-02 2.148034e-01 -8.492768e-02 -4.067566e-02 3.264610e-01 7.612372e-02 4.016707e-02 -7.028774e-02 -4.820018e-02 -3.973433e-02 4.560639e-02 -4.059207e-02 -3.045527e-02 3.165314e-02 4.161708e-02 -9.583875e-03 -7.577438e-02 3.319027e-02
<VARIANCE> 39
 7.252965e+01 3.050556e+01 2.913675e+01 2.287947e+01 2.490329e+01 3.607474e+01 3.216393e+01 2.560281e+01 2.757265e+01 2.191784e+01 2.181257e+01 2.674227e+01 2.394198e+01 2.867292e+00 1.866636e+00 1.134635e+00 1.677204e+00 1.771230e+00 2.569577e+00 1.908434e+00 1.933968e+00 1.996234e+00 1.813733e+00 1.697072e+00 1.971622e+00 1.070823e+00 3.577099e-01 3.001735e-01 1.954903e-01 2.979030e-01 3.283525e-01 4.904460e-01 3.655300e-01 3.435063e-01 3.697335e-01 3.626963e-01 3.444555e-01 3.784052e-01 1.765280e-01
<GCONST> 1.082923e+02
<STATE> 3
<MEAN> 39
 -8.928458e+00 -5.317318e+00 -4.084255e-01 -4.621764e+00 1.955295e+00 -7.761921e+00 4.200795e+00 9.849576e-01 4.117852e+00 -1.168809e+00 -1.502295e+00 -2.205195e+00 6.561552e+01 -6.197717e-01 -1.749030e-02 -1.308984e-01 -1.463302e-01 2.671996e-01 -1.962538e-01 1.963150e-01 1.144540e-01 -6.445485e-03 2.748085e-01 -2.021108e-01 -2.291066e-01 2.992991e-01 2.836054e-01 -3.125877e-02 -7.921681e-02 -6.036137e-02 -1.009139e-01 1.496491e-01 -9.662335e-02 -7.854302e-02 1.294415e-02 2.140638e-02 -4.005866e-02 -8.338764e-02 1.206024e-02
<VARIANCE> 39
 7.694095e+01 2.860056e+01 2.486437e+01 2.200374e+01 2.488388e+01 3.347218e+01 3.182976e+01 2.393831e+01 2.767204e+01 2.211917e+01 2.261541e+01 2.627387e+01 1.847107e+01 4.940254e+00 1.849990e+00 1.140953e+00 1.671649e+00 1.933345e+00 2.382994e+00 2.040612e+00 2.089479e+00 1.967265e+00 1.816586e+00 1.878156e+00 2.397005e+00 1.187658e+00 4.275905e-01 3.008192e-01 2.090655e-01 3.040515e-01 3.203413e-01 4.446349e-01 3.759725e-01 3.489634e-01 3.842683e-01 3.579578e-01 3.509586e-01 4.067255e-01 1.851603e-01
<GCONST> 1.091422e+02
<STATE> 4
<MEAN> 39
 -6.504587e+00 -7.385160e+00 -2.469716e+00 -6.211341e+00 1.571019e+00 -6.450532e+00 3.009826e+00 -6.718719e-02 4.567711e+00 3.068615e-01 -3.872101e+00 -4.598048e+00 6.816021e+01 1.042402e+00 -5.939622e-01 -6.036491e-01 -4.144026e-01 -2.096893e-01 6.043786e-01 -2.074214e-01 -2.894502e-01 6.199417e-02 1.496152e-01 -3.584225e-01 -6.648867e-01 6.423169e-01 1.016797e-01 -8.065329e-02 -7.400072e-02 9.500439e-03 -1.326877e-02 1.560416e-01 1.604156e-02 -2.583869e-02 -1.809863e-02 -6.933256e-02 7.720026e-02 1.327700e-02 1.496541e-02
<VARIANCE> 39
 1.138136e+02 4.831586e+01 2.911261e+01 2.897058e+01 2.312752e+01 4.137374e+01 3.068699e+01 2.391708e+01 3.055741e+01 2.201349e+01 2.514750e+01 4.029612e+01 3.095258e+01 8.105578e+00 2.573736e+00 2.286015e+00 1.860974e+00 1.893919e+00 2.774242e+00 2.395858e+00 2.073883e+00 2.031332e+00 1.773935e+00 1.990500e+00 2.835170e+00 1.896132e+00 9.073939e-01 3.434526e-01 3.578194e-01 3.313016e-01 3.494537e-01 4.027521e-01 4.370535e-01 3.607369e-01 3.821622e-01 3.628686e-01 3.725662e-01 4.570037e-01 2.650794e-01
<GCONST> 1.165738e+02
<TRANSP> 5
 0.000000e+00 1.000000e+00 0.000000e+00 0.000000e+00 0.000000e+00
 0.000000e+00 5.688901e-01 4.311099e-01 0.000000e+00 0.000000e+00
 0.000000e+00 0.000000e+00 5.888606e-01 4.111395e-01 0.000000e+00
 0.000000e+00 0.000000e+00 0.000000e+00 7.947741e-01 2.052260e-01
 0.000000e+00 0.000000e+00 0.000000e+00 0.000000e+00 0.000000e+00
<ENDHMM>
~h "t"
<BEGINHMM>
<NUMSTATES> 5
<STATE> 2
<MEAN> 39
 1.332477e+00 -5.906777e+00 -2.895525e+00 -5.648018e+00 -2.132275e+00 -2.966975e+00 2.380042e+00 -1.818079e+00 5.313008e+00 -7.933113e-01 -2.234679e+00 -4.932418e+00 6.353373e+01 -4.728539e-01 3.411376e-01 3.152652e-01 1.958276e-01 3.131031e-03 -1.413497e-01 2.409929e-01 -2.888466e-02 1.328990e-01 1.413207e-01 1.857371e-01 2.431240e-01 -5.805727e-01 4.750283e-03 -9.866732e-02 5.344825e-02 -7.029361e-02 -8.669043e-02 1.348530e-02 4.860072e-02 -3.353162e-02 -7.811134e-02 -3.655432e-02 6.544103e-03 -2.761411e-02 1.313134e-01
<VARIANCE> 39
 3.973259e+01 2.787840e+01 5.338953e+01 2.061956e+01 3.727475e+01 2.618729e+01 3.307476e+01 2.580617e+01 3.203568e+01 1.966745e+01 2.867194e+01 2.688728e+01 4.078736e+01 8.843850e-01 1.636926e+00 1.321749e+00 1.156231e+00 2.433890e+00 1.854688e+00 2.090624e+00 1.936185e+00 2.044110e+00 1.901897e+00 1.822943e+00 1.904502e+00 1.947911e+00 1.436376e-01 2.509498e-01 2.570564e-01 2.065238e-01 5.381359e-01 3.744769e-01 4.499950e-01 4.193529e-01 3.938483e-01 3.734488e-01 3.282528e-01 3.660321e-01 3.219845e-01
<GCONST> 1.083973e+02
<STATE> 3
<MEAN> 39
 4.767489e-02 -5.313096e+00 -2.082572e+00 -5.352926e+00 -2.010234e+00 -3.027144e+00 3.250344e+00 -1.799390e+00 5.474752e+00 -6.674834e-01 -1.844832e+00 -4.343397e+00 6.218587e+01 -4.229213e-01 8.422845e-02 4.164988e-01 4.198500e-02 -2.140185e-01 -1.451427e-01 2.651846e-01 -8.418101e-02 -1.060506e-01 -1.409571e-02 1.958966e-01 1.649657e-01 -2.110847e-01 5.788244e-02 -7.007374e-02 1.329604e-01 -7.214788e-02 -1.689768e-01 -1.241251e-02 -6.506497e-02 -4.015518e-02 -1.347150e-01 -6.506483e-02 -3.308317e-02 -6.218337e-02 1.849635e-01
<VARIANCE> 39
 3.695395e+01 2.438679e+01 5.172780e+01 1.832281e+01 3.670497e+01 2.540891e+01 2.975677e+01 2.598962e+01 3.394827e+01 1.929512e+01 2.564385e+01 2.486247e+01 3.410651e+01 8.985134e-01 1.607998e+00 1.376358e+00 1.181858e+00 2.944788e+00 2.018506e+00 2.167957e+00 1.962722e+00 2.259544e+00 1.959681e+00 1.780238e+00 1.942876e+00 3.089602e+00 1.560858e-01 2.260163e-01 3.200339e-01 2.027913e-01 5.207791e-01 3.901269e-01 4.756784e-01 3.898244e-01 4.066019e-01 3.871573e-01 3.357651e-01 3.686250e-01 3.208850e-01
<GCONST> 1.088046e+02
<STATE> 4
<MEAN> 39
 -1.365031e+00 -5.119164e+00 -1.110318e+00 -5.134513e+00 -2.248144e+00 -3.266759e+00 4.133660e+00 -1.726889e+00 5.165208e+00 -9.975966e-01 -1.437111e+00 -3.758138e+00 6.142577e+01 -1.893378e-01 6.732307e-04 7.293001e-01 -2.445949e-02 -5.820583e-01 -1.912614e-01 -2.666737e-02 -1.858008e-01 -3.976195e-01 -1.321678e-01 1.556639e-01 -2.156012e-06 1.545727e-01 1.026477e-01 -2.524470e-02 1.879901e-01 -3.816532e-02 -1.615917e-01 9.544317e-03 -1.620802e-01 -3.683230e-02 -1.011087e-01 -2.961757e-03 -4.774220e-02 -9.378383e-02 1.434178e-01
<VARIANCE> 39
 3.286747e+01 2.320808e+01 4.978992e+01 1.665409e+01 3.743275e+01 2.668665e+01 2.593443e+01 2.892140e+01 3.576295e+01 2.001087e+01 2.209197e+01 2.348876e+01 3.153488e+01 1.331691e+00 1.379352e+00 2.111166e+00 1.194448e+00 3.535180e+00 2.352355e+00 2.468597e+00 2.013319e+00 2.361764e+00 1.984099e+00 1.817377e+00 2.354676e+00 3.438200e+00 1.706511e-01 2.466382e-01 3.568593e-01 1.994304e-01 4.820166e-01 4.856848e-01 4.910839e-01 4.160954e-01 3.929496e-01 4.086177e-01 3.262091e-01 3.853002e-01 3.060530e-01
<GCONST> 1.103878e+02
<TRANSP> 5
 0.000000e+00 1.000000e+00 0.000000e+00 0.000000e+00 0.000000e+00
 0.000000e+00 4.723264e-01 5.276736e-01 0.000000e+00 0.000000e+00
 0.000000e+00 0.000000e+00 4.818785e-01 5.181215e-01 0.000000e+00
 0.000000e+00 0.000000e+00 0.000000e+00 5.921239e-01 4.078760e-01
 0.000000e+00 0.000000e+00 0.000000e+00 0.000000e+00 0.000000e+00
<ENDHMM>
~h "y"
<BEGINHMM>
<NUMSTATES> 5
<STATE> 2
<MEAN> 39
 -7.456392e+00 -9.926741e+00 7.391976e+00 -1.915374e-01 -7.535925e+00 -5.964457e+00 9.746226e-01 -1.440167e+00 7.778400e+00 -3.674646e+00 -3.225403e-01 -2.038610e+00 6.742309e+01 -2.654217e-01 -4.612850e-01 5.528373e-01 1.998618e-01 -6.574687e-01 -4.588849e-01 -1.706755e-01 3.584754e-01 8.561844e-02 -1.794104e-01 8.238161e-02 -1.288981e-02 4.530818e-01 2.698135e-01 7.446992e-02 -3.142985e-02 -8.692745e-02 -7.471284e-02 1.686411e-02 -9.474640e-02 9.992669e-03 -1.408627e-01 1.215031e-02 -4.825945e-02 -6.563102e-02 6.301390e-02
<VARIANCE> 39
 9.436233e+01 4.274393e+01 2.347995e+01 2.327637e+01 2.839575e+01 3.182664e+01 2.485440e+01 3.799986e+01 3.923887e+01 2.605173e+01 2.022038e+01 2.166542e+01 1.351038e+01 5.277518e+00 2.016466e+00 2.076781e+00 1.526537e+00 2.014034e+00 1.987930e+00 2.003295e+00 1.842795e+00 3.118913e+00 2.187163e+00 1.869734e+00 1.551961e+00 8.287237e-01 4.433650e-01 3.218627e-01 3.265433e-01 2.878572e-01 3.871924e-01 3.189529e-01 3.406636e-01 3.325401e-01 5.769609e-01 4.562669e-01 3.186071e-01 2.947465e-01 1.553712e-01
<GCONST> 1.104225e+02
<STATE> 3
<MEAN> 39
 -5.057972e+00 -1.010804e+01 8.554659e+00 -2.441924e-01 -1.011962e+01 -7.467825e+00 -3.978301e-01 -3.653110e-01 6.679512e+00 -3.983592e+00 -3.828647e-01 -2.698012e+00 6.903578e+01 9.370527e-01 -1.436394e-02 2.086758e-01 -1.257789e-01 -5.095103e-01 -2.596319e-01 -4.089061e-01 2.455867e-01 -3.062947e-01 -1.032193e-01 -7.811349e-02 -1.478705e-01 3.664259e-01 1.721937e-01 1.050756e-01 -9.225851e-02 -6.560870e-02 6.556642e-02 7.010202e-02 -2.271728e-02 -3.507844e-02 -3.179763e-02 1.498231e-02 -1.943895e-02 -2.145559e-03 -3.304087e-02
<VARIANCE> 39
 1.161152e+02 3.762685e+01 2.250941e+01 2.570220e+01 2.967763e+01 2.224372e+01 3.299712e+01 2.821137e+01 4.932154e+01 2.332022e+01 1.728072e+01 1.836854e+01 1.446046e+01 5.928492e+00 3.122579e+00 2.243579e+00 1.879977e+00 2.408890e+00 1.616468e+00 2.610505e+00 1.711264e+00 3.033419e+00 2.044322e+00 1.495176e+00 1.348681e+00 1.069973e+00 6.587009e-01 4.355506e-01 3.587388e-01 3.304502e-01 4.337524e-01 2.804639e-01 4.445216e-01 3.171528e-01 5.690632e-01 3.805293e-01 2.859609e-01 2.424385e-01 1.973042e-01
<GCONST> 1.117670e+02
<STATE> 4
<MEAN> 39
 4.299301e+00 -5.362842e+00 8.051023e+00 -3.033969e+00 -1.275328e+01 -6.722270e+00 2.742505e-01 -1.051391e-01 3.211281e+00 -4.890389e+00 -1.083132e-01 -3.572902e+00 6.899671e+01 2.534684e-01 9.225020e-02 -1.831072e-01 -7.681719e-02 5.224064e-02 4.914434e-02 6.631319e-03 5.702633e-02 -3.605560e-02 -1.047463e-02 -5.297111e-02 -6.455233e-02 -1.197275e-02 -5.514693e-02 2.058825e-02 -2.768269e-02 2.456252e-03 6.184884e-02 1.991699e-02 1.239827e-02 -3.088616e-02 2.040720e-02 2.229743e-02 -2.189633e-03 3.237399e-03 -3.794544e-02
<VARIANCE> 39
 5.054469e+01 6.180600e+01 4.178571e+01 1.821685e+01 3.649234e+01 1.825592e+01 3.217345e+01 3.293613e+01 3.853683e+01 1.674153e+01 1.676420e+01 1.388409e+01 1.640888e+01 2.777755e+00 3.251727e+00 3.584694e+00 1.559337e+00 3.255242e+00 1.388103e+00 2.325435e+00 2.090527e+00 1.896636e+00 1.349781e+00 1.370042e+00 9.334314e-01 9.606193e-01 3.306894e-01 4.015109e-01 5.955970e-01 2.883084e-01 5.040573e-01 2.563464e-01 3.931907e-01 3.275871e-01 3.284491e-01 2.529717e-01 2.396756e-01 1.717906e-01 1.302455e-01
<GCONST> 1.071078e+02
<TRANSP> 5
 0.000000e+00 1.000000e+00 0.000000e+00 0.000000e+00 0.000000e+00
 0.000000e+00 7.200881e-01 2.799118e-01 0.000000e+00 0.000000e+00
 0.000000e+00 0.000000e+00 7.490140e-01 2.509860e-01 0.000000e+00
 0.000000e+00 0.000000e+00 0.000000e+00 9.612129e-01 3.878707e-02
 0.000000e+00 0.000000e+00 0.000000e+00 0.000000e+00 0.000000e+00
<ENDHMM>
~h "aa"
<BEGINHMM>
<NUMSTATES> 5
<STATE> 2
<MEAN> 39
 3.137096e+00 -1.107483e+01 -4.854267e+00 -8.136479e+00 -8.567300e-01 6.640477e-01 2.978316e+00 -3.045592e+00 3.122573e+00 -1.635011e+00 -1.825476e+00 -8.051524e+00 6.837129e+01 1.198410e-01 -4.265722e-01 -2.765599e-01 -9.765439e-02 1.404553e-01 4.639319e-01 1.197312e-01 -7.394043e-02 -7.671704e-02 -1.102383e-01 8.282221e-02 -2.715644e-01 2.923228e-01 -9.626392e-02 5.404066e-02 4.004195e-02 1.114316e-02 -8.015027e-03 -4.736066e-02 -3.220708e-02 1.291165e-02 2.531930e-02 -6.216825e-03 -1.601163e-02 5.758451e-02 3.417399e-03
<VARIANCE> 39
 4.249210e+01 6.139108e+01 5.024300e+01 3.601022e+01 2.338291e+01 4.055623e+01 2.966602e+01 3.481754e+01 3.768134e+01 1.834413e+01 2.427907e+01 3.967476e+01 7.065091e+01 2.152117e+00 1.930320e+00 2.178625e+00 1.852241e+00 1.577947e+00 2.217415e+00 1.753623e+00 2.021432e+00 1.842076e+00 1.445247e+00 1.532720e+00 2.038711e+00 2.365771e+00 3.397001e-01 3.195280e-01 3.657584e-01 3.400995e-01 2.976373e-01 3.755791e-01 3.270605e-01 3.617064e-01 3.285038e-01 2.859332e-01 2.723375e-01 3.731010e-01 3.476108e-01
<GCONST> 1.124836e+02
<STATE> 3
<MEAN> 39
 3.694584e+00 -1.193513e+01 -5.656718e+00 -8.246513e+00 -6.973593e-01 1.538113e+00 3.070615e+00 -3.352984e+00 3.023659e+00 -1.886938e+00 -1.838831e+00 -8.632642e+00 6.919456e+01 3.305722e-02 -2.771982e-01 -1.435429e-01 -9.105878e-02 2.670370e-02 2.407485e-01 -6.536361e-02 -1.790355e-02 2.978513e-02 -7.219447e-02 2.138410e-05 -1.461290e-01 3.017232e-01 -6.599348e-02 6.745300e-02 7.288242e-02 9.372373e-03 -5.020317e-02 -9.062747e-02 -7.426848e-02 3.116876e-02 3.754784e-02 2.323259e-03 -2.392948e-02 6.313191e-02 5.080567e-03
<VARIANCE> 39
 4.204612e+01 6.257770e+01 4.960530e+01 3.119376e+01 2.174685e+01 4.290182e+01 3.210387e+01 4.047934e+01 3.577470e+01 1.842899e+01 2.388163e+01 3.729117e+01 6.845496e+01 2.104907e+00 2.012505e+00 2.035004e+00 1.925829e+00 1.567399e+00 2.441475e+00 1.835665e+00 2.181929e+00 1.732627e+00 1.326956e+00 1.429436e+00 1.979640e+00 2.604415e+00 2.594351e-01 3.084843e-01 3.245589e-01 3.162332e-01 2.681592e-01 3.681676e-01 3.269340e-01 3.799474e-01 2.978655e-01 2.702776e-01 2.655811e-01 3.342787e-01 3.370032e-01
<GCONST> 1.115514e+02
<STATE> 4
<MEAN> 39
 4.890419e+00 -1.308596e+01 -6.783123e+00 -8.201364e+00 -1.135863e+00 1.487891e+00 2.205920e+00 -2.788330e+00 3.340778e+00 -2.070435e+00 -2.549617e+00 -9.210177e+00 7.063515e+01 -1.557110e-01 1.054638e-01 1.127425e-01 1.202081e-01 -1.165893e-01 -2.168729e-01 -1.535704e-01 1.974181e-01 1.586680e-01 -1.006304e-02 3.723409e-04 1.620594e-01 -8.118360e-02 -5.945277e-02 8.492995e-02 4.792495e-02 3.229453e-02 -3.044631e-02 -7.517526e-02 -3.809786e-05 2.067059e-02 2.366561e-02 -2.692984e-04 1.396374e-02 6.958140e-02 -6.509824e-02
<VARIANCE> 39
 3.925058e+01 5.535595e+01 4.173280e+01 2.403631e+01 2.126130e+01 4.895184e+01 3.270132e+01 4.577028e+01 3.447204e+01 1.909277e+01 2.557452e+01 3.084340e+01 5.481101e+01 1.702537e+00 2.227999e+00 1.736188e+00 1.723530e+00 1.693891e+00 2.830958e+00 2.034900e+00 2.492484e+00 1.680005e+00 1.451906e+00 1.486419e+00 1.811474e+00 2.499243e+00 2.270377e-01 2.987700e-01 2.879715e-01 2.867672e-01 3.126302e-01 4.449143e-01 3.643764e-01 4.378519e-01 2.964495e-01 2.910309e-01 2.839762e-01 3.252262e-01 2.654166e-01
<GCONST> 1.109618e+02
<TRANSP> 5
 0.000000e+00 1.000000e+00 0.000000e+00 0.000000e+00 0.000000e+00
 0.000000e+00 5.195023e-01 4.804976e-01 0.000000e+00 0.000000e+00
 0.000000e+00 0.000000e+00 5.543975e-01 4.456024e-01 0.000000e+00
 0.000000e+00 0.000000e+00 0.000000e+00 7.664878e-01 2.335122e-01
 0.000000e+00 0.000000e+00 0.000000e+00 0.000000e+00 0.000000e+00
<ENDHMM>
~h "cx"
<BEGINHMM>
<NUMSTATES> 5
<STATE> 2
<MEAN> 39
 -1.912830e+00 -3.510592e+00 2.582293e+00 -4.688614e+00 -2.745346e+00 -3.465034e+00 1.504755e+00 -1.677520e+00 4.367386e+00 -2.704834e+00 8.980031e-01 -1.225755e+00 6.070076e+01 -7.452806e-01 -5.638639e-02 2.362396e-01 5.552249e-02 2.763107e-01 8.357227e-02 8.582189e-02 9.155510e-02 4.751166e-03 -1.274979e-01 6.257286e-02 -5.281326e-02 -2.733624e-01 6.671652e-02 -6.597570e-02 3.479921e-04 -5.636315e-02 -6.083580e-02 -2.022436e-02 -6.064506e-02 4.591119e-02 2.722259e-02 4.371190e-02 1.589816e-02 -2.617216e-02 8.963054e-02
<VARIANCE> 39
 3.437244e+01 3.977768e+01 3.980922e+01 2.265453e+01 1.841513e+01 2.453193e+01 2.577501e+01 2.516701e+01 2.080035e+01 1.679041e+01 2.621487e+01 2.175790e+01 2.836734e+01 1.112687e+00 1.409588e+00 1.065021e+00 1.632571e+00 1.539308e+00 2.062372e+00 1.882505e+00 1.786641e+00 1.520006e+00 1.813595e+00 1.774617e+00 1.176611e+00 9.526552e-01 2.290721e-01 2.459048e-01 2.272584e-01 2.994371e-01 2.652407e-01 4.926183e-01 3.704946e-01 3.622414e-01 2.849559e-01 3.695446e-01 3.562611e-01 2.415445e-01 1.333208e-01
<GCONST> 1.025845e+02
<STATE> 3
<MEAN> 39
 -3.484810e+00 -4.517424e+00 2.869333e+00 -4.217147e+00 -2.237338e+00 -3.415598e+00 1.777706e+00 -1.141024e+00 4.667996e+00 -2.853619e+00 5.649279e-01 -1.911566e+00 6.096654e+01 -4.432401e-01 -2.267257e-01 1.805780e-01 -6.543471e-02 4.505265e-02 -4.779090e-02 1.504095e-04 1.683518e-01 7.955459e-02 -5.175967e-03 9.184161e-02 -1.484216e-02 -7.602189e-02 1.251097e-01 -1.075704e-01 3.143480e-03 -6.854331e-02 -6.467972e-02 -1.889286e-04 -2.251645e-02 6.442294e-02 3.503777e-02 6.456484e-02 2.709315e-02 -1.462522e-02 1.373463e-01
<VARIANCE> 39
 3.752578e+01 3.505043e+01 4.148262e+01 2.063801e+01 2.155343e+01 2.546017e+01 2.507725e+01 2.556997e+01 1.961770e+01 1.773615e+01 2.280519e+01 1.858123e+01 3.401770e+01 2.260554e+00 1.744492e+00 1.270778e+00 1.619509e+00 1.790532e+00 2.073793e+00 1.817806e+00 1.673710e+00 1.541200e+00 1.729674e+00 1.726874e+00 1.431902e+00 1.324414e+00 4.746004e-01 2.246908e-01 2.484868e-01 3.255878e-01 3.165406e-01 4.374403e-01 3.553690e-01 3.812268e-01 2.774454e-01 3.678366e-01 3.340929e-01 2.420226e-01 1.903672e-01
<GCONST> 1.053107e+02
<STATE> 4
<MEAN> 39
 -2.908585e+00 -6.700136e+00 3.283902e+00 -4.765840e+00 -3.527706e+00 -4.316729e+00 1.157040e+00 -4.953108e-01 4.716846e+00 -3.017348e+00 2.527515e-01 -2.860935e+00 6.320853e+01 3.635654e-01 -6.274634e-01 -5.448490e-02 -1.913913e-01 -5.695612e-02 -1.520262e-01 5.012455e-03 3.244928e-01 5.509449e-02 2.285629e-01 -1.264980e-02 -3.002445e-01 3.458689e-01 -6.137004e-02 -1.157426e-01 -3.094012e-02 -1.407812e-01 9.116110e-02 1.982574e-01 -2.029671e-02 5.452164e-02 -1.100980e-02 6.583122e-02 -2.329112e-03 -8.999243e-02 1.594982e-01
<VARIANCE> 39
 4.532906e+01 4.678050e+01 3.995190e+01 2.281560e+01 3.644930e+01 2.631760e+01 2.631507e+01 2.488102e+01 1.837624e+01 1.920365e+01 2.439512e+01 2.336961e+01 5.664948e+01 4.854065e+00 2.528517e+00 1.645764e+00 1.869383e+00 2.159971e+00 3.124505e+00 1.856352e+00 1.818303e+00 1.474515e+00 1.895883e+00 1.758685e+00 1.785642e+00 2.259111e+00 7.754459e-01 2.827820e-01 2.615221e-01 3.492523e-01 4.166882e-01 4.442291e-01 3.451517e-01 3.804728e-01 2.908088e-01 3.849623e-01 3.100652e-01 2.855039e-01 2.762994e-01
<GCONST> 1.119675e+02
<TRANSP> 5
 0.000000e+00 1.000000e+00 0.000000e+00 0.000000e+00 0.000000e+00
 0.000000e+00 4.231410e-01 5.768589e-01 0.000000e+00 0.000000e+00
 0.000000e+00 0.000000e+00 3.564225e-01 6.435775e-01 0.000000e+00
 0.000000e+00 0.000000e+00 0.000000e+00 4.549522e-01 5.450479e-01
 0.000000e+00 0.000000e+00 0.000000e+00 0.000000e+00 0.000000e+00
<ENDHMM>
~h "ee"
<BEGINHMM>
<NUMSTATES> 5
<STATE> 2
<MEAN> 39
 -6.998954e-01 -5.038438e+00 2.400087e+00 -5.244736e+00 -6.033151e+00 -5.627617e+00 2.538791e+00 -1.553467e+00 2.052504e+00 -1.997795e+00 -4.691660e-02 -3.181357e+00 6.124255e+01 -2.815710e-01 5.325007e-02 6.465583e-01 9.600138e-02 -4.259351e-01 -1.709142e-01 1.271493e-02 -1.448181e-01 -1.913476e-01 1.939556e-01 4.047573e-01 -3.350928e-02 -2.579921e-01 1.017150e-01 -6.065770e-02 2.185965e-01 -7.023689e-02 -1.553938e-01 -5.337020e-02 -8.854891e-02 3.914964e-02 -4.356095e-02 -4.198314e-03 2.494493e-02 -4.050545e-02 1.817433e-01
<VARIANCE> 39
 2.289010e+01 4.320905e+01 3.882126e+01 2.087922e+01 4.263746e+01 3.402677e+01 2.236116e+01 2.703988e+01 4.260283e+01 1.965623e+01 1.882159e+01 2.042505e+01 3.010028e+01 6.543974e-01 1.013066e+00 1.600637e+00 1.088975e+00 3.113137e+00 1.928975e+00 1.737145e+00 1.637102e+00 2.039177e+00 1.451167e+00 1.511084e+00 1.562296e+00 1.150544e+00 9.970582e-02 1.502107e-01 3.461477e-01 1.801096e-01 4.690087e-01 3.709895e-01 3.456791e-01 3.204886e-01 4.480304e-01 3.445001e-01 3.268713e-01 3.042201e-01 1.507373e-01
<GCONST> 1.031152e+02
<STATE> 3
<MEAN> 39
 -8.365551e-01 -5.194074e+00 4.525457e+00 -5.259319e+00 -7.593425e+00 -5.979352e+00 2.427715e+00 -1.876830e+00 1.211490e+00 -1.732018e+00 8.492965e-01 -3.622254e+00 6.139242e+01 -3.705703e-02 -9.303064e-02 9.889498e-01 -5.309052e-02 -6.411179e-01 -1.069289e-01 -1.648364e-01 -8.600609e-02 -2.902759e-01 1.082305e-01 3.779246e-01 -1.105537e-01 1.091158e-01 1.101358e-01 -1.413969e-01 2.403336e-01 -1.182558e-01 -1.825227e-01 9.810186e-03 -7.338723e-02 8.397444e-02 -9.780767e-02 -2.898918e-02 5.875527e-03 -6.526208e-02 2.426092e-01
<VARIANCE> 39
 2.030766e+01 3.731057e+01 5.588715e+01 1.884756e+01 6.149531e+01 3.330931e+01 2.034165e+01 2.468074e+01 4.395766e+01 1.923909e+01 1.811247e+01 2.229961e+01 3.352399e+01 7.209569e-01 1.110973e+00 2.231446e+00 1.303939e+00 3.145508e+00 1.990236e+00 2.070944e+00 1.522284e+00 2.229295e+00 1.584864e+00 1.427522e+00 1.447690e+00 1.517884e+00 1.134455e-01 1.975694e-01 5.114808e-01 2.149626e-01 5.923149e-01 4.076845e-01 3.904704e-01 2.952778e-01 4.358109e-01 3.610485e-01 3.215617e-01 3.167962e-01 2.420031e-01
<GCONST> 1.064590e+02
<STATE> 4
<MEAN> 39
 1.309785e+00 -7.075408e+00 1.049423e+01 -6.842289e+00 -1.327616e+01 -7.258188e+00 2.915717e-01 -2.143235e+00 -2.345269e+00 -1.519030e+00 1.989386e+00 -5.020836e+00 6.546001e+01 1.876568e-01 -2.591054e-01 8.543426e-01 -1.547195e-01 -5.908875e-01 -9.303794e-02 -1.860427e-01 4.761794e-02 -3.995647e-01 9.265281e-02 2.223563e-01 -1.406882e-01 4.252308e-01 3.506492e-02 -8.045989e-02 9.977028e-02 -5.836580e-02 -8.510318e-02 1.143635e-03 -3.499601e-02 4.395813e-02 -5.833692e-02 4.831617e-03 5.097920e-03 -4.273120e-02 1.308069e-01
<VARIANCE> 39
 2.158412e+01 4.711082e+01 8.513416e+01 1.963727e+01 8.210899e+01 2.929007e+01 2.628811e+01 1.877390e+01 5.281525e+01 1.595290e+01 1.603772e+01 2.099448e+01 5.270010e+01 7.945819e-01 1.477379e+00 3.646773e+00 1.581493e+00 3.034208e+00 1.643618e+00 2.023439e+00 1.419895e+00 2.211394e+00 1.577243e+00 1.258140e+00 1.428594e+00 1.981446e+00 1.101385e-01 2.357382e-01 5.791018e-01 2.553215e-01 5.622661e-01 3.118674e-01 3.595214e-01 2.508424e-01 3.811434e-01 2.982566e-01 2.488701e-01 2.793439e-01 2.864363e-01
<GCONST> 1.078245e+02
<TRANSP> 5
 0.000000e+00 1.000000e+00 0.000000e+00 0.000000e+00 0.000000e+00
 0.000000e+00 4.232541e-01 5.767458e-01 0.000000e+00 0.000000e+00
 0.000000e+00 0.000000e+00 4.295982e-01 5.704018e-01 0.000000e+00
 0.000000e+00 0.000000e+00 0.000000e+00 6.673573e-01 3.326426e-01
 0.000000e+00 0.000000e+00 0.000000e+00 0.000000e+00 0.000000e+00
<ENDHMM>
~h "ii"
<BEGINHMM>
<NUMSTATES> 5
<STATE> 2
<MEAN> 39
 -7.810495e-01 -5.372833e+00 1.005274e+01 -5.118689e+00 -1.041003e+01 -5.135330e+00 6.596619e-01 -4.589189e+00 -1.215336e+00 -9.906805e-01 4.704159e-01 -5.638292e+00 6.540500e+01 5.281304e-01 -1.701273e-01 1.658400e+00 -4.712255e-01 -1.459597e+00 1.246214e-01 -1.037567e+00 -3.596026e-01 -6.492299e-01 2.100786e-01 -1.828847e-01 -7.542557e-01 1.004101e+00 -1.042487e-02 6.539315e-02 -5.907021e-02 -1.044825e-02 1.458676e-01 1.199345e-01 -1.042338e-02 7.957833e-02 1.472826e-01 1.576987e-02 -1.012394e-02 3.222702e-02 -1.712827e-01
<VARIANCE> 39
 1.936847e+01 2.880757e+01 9.070578e+01 2.272642e+01 9.340986e+01 2.168308e+01 4.648187e+01 2.499080e+01 4.963033e+01 2.060182e+01 2.397461e+01 4.013730e+01 7.065233e+01 1.470347e+00 1.259608e+00 6.033265e+00 1.301848e+00 6.092873e+00 2.546523e+00 4.272357e+00 1.826287e+00 2.328587e+00 1.875765e+00 2.129081e+00 2.938793e+00 3.723819e+00 2.186758e-01 1.933681e-01 9.073950e-01 1.753763e-01 8.798681e-01 5.080413e-01 6.246907e-01 3.205802e-01 3.802254e-01 3.308363e-01 3.230911e-01 4.822789e-01 5.422024e-01
<GCONST> 1.184983e+02
<STATE> 3
<MEAN> 39
 1.250058e+00 -5.010831e+00 1.482460e+01 -6.885603e+00 -1.430062e+01 -4.015771e+00 -2.078819e+00 -5.440614e+00 -2.138324e+00 -2.377200e-02 -4.227488e-01 -7.977334e+00 6.768291e+01 2.265053e-01 2.242544e-01 6.164478e-01 -2.830118e-01 -3.985077e-01 3.052430e-01 -2.690111e-01 -4.334881e-02 8.730332e-02 7.397362e-02 -1.136474e-01 -2.123013e-01 9.993007e-02 -7.147070e-02 5.508262e-02 -2.433558e-01 4.333732e-02 2.098469e-01 -1.081198e-02 2.043214e-01 5.290494e-02 1.114212e-01 -5.512046e-02 3.253910e-02 1.454552e-01 -1.438289e-01
<VARIANCE> 39
 1.702333e+01 2.712229e+01 8.907178e+01 2.696525e+01 9.530351e+01 1.880765e+01 5.649277e+01 1.997944e+01 4.104208e+01 1.971486e+01 3.099492e+01 3.973556e+01 6.088789e+01 8.402690e-01 9.298435e-01 3.456254e+00 1.017766e+00 3.972391e+00 1.700233e+00 3.065279e+00 1.374509e+00 1.618507e+00 1.276414e+00 1.453555e+00 1.876961e+00 1.808214e+00 1.355960e-01 1.357115e-01 5.427310e-01 1.545981e-01 6.458392e-01 3.419481e-01 5.111241e-01 2.519908e-01 2.776785e-01 2.186037e-01 2.661518e-01 3.071789e-01 2.775697e-01
<GCONST> 1.080977e+02
<STATE> 4
<MEAN> 39
 2.702656e+00 -1.618838e+00 1.333118e+01 -6.650672e+00 -1.353572e+01 -3.499368e+00 -2.218664e-02 -5.010336e+00 -3.733456e-01 -8.232651e-01 -3.636268e-01 -6.428047e+00 6.568834e+01 7.860665e-02 3.643540e-01 -3.377954e-01 6.982291e-02 3.440100e-01 -1.782739e-02 1.970215e-01 1.093140e-01 1.953105e-01 -1.392665e-01 6.675055e-03 2.054969e-01 -2.725784e-01 -1.089191e-02 -6.841655e-03 -6.322538e-02 1.817015e-02 4.618946e-02 -2.402866e-02 -1.922659e-03 7.421251e-03 -2.638977e-03 -1.073764e-02 4.271886e-03 1.568373e-02 -1.312974e-02
<VARIANCE> 39
 1.860243e+01 2.752235e+01 7.361440e+01 3.193080e+01 8.495889e+01 1.908279e+01 4.309131e+01 1.682956e+01 2.558305e+01 1.574449e+01 2.027097e+01 3.187615e+01 4.077092e+01 5.532427e-01 9.014937e-01 2.284405e+00 1.367438e+00 3.100703e+00 1.738917e+00 1.659373e+00 1.331735e+00 1.306006e+00 1.164654e+00 1.187940e+00 1.430864e+00 1.014958e+00 7.541643e-02 1.227664e-01 2.848948e-01 2.041650e-01 4.925636e-01 3.261717e-01 2.980209e-01 2.504578e-01 2.326501e-01 2.152332e-01 2.293050e-01 2.650472e-01 1.335719e-01
<GCONST> 9.996059e+01
<TRANSP> 5
 0.000000e+00 1.000000e+00 0.000000e+00 0.000000e+00 0.000000e+00
 0.000000e+00 7.760518e-01 2.239482e-01 0.000000e+00 0.000000e+00
 0.000000e+00 0.000000e+00 7.427387e-01 2.572613e-01 0.000000e+00
 0.000000e+00 0.000000e+00 0.000000e+00 9.337561e-01 6.624388e-02
 0.000000e+00 0.000000e+00 0.000000e+00 0.000000e+00 0.000000e+00
<ENDHMM>
~h "sh"
<BEGINHMM>
<NUMSTATES> 5
<STATE> 2
<MEAN> 39
 2.446681e-01 -6.424151e+00 1.903211e+00 -4.281631e+00 -6.206209e+00 -2.879392e+00 1.465988e+00 -3.082829e+00 4.800546e+00 -2.945067e+00 4.482073e-01 -3.522261e+00 6.569743e+01 -4.991939e-01 -1.999057e-01 4.122072e-01 3.123837e-01 -2.106797e-01 7.699113e-02 2.509398e-01 8.765125e-02 2.097044e-01 8.710041e-02 8.170687e-02 2.311467e-01 5.876038e-02 -7.872843e-02 -7.205813e-02 1.035212e-01 -4.268166e-02 -9.231070e-02 -5.715783e-02 -1.815182e-01 1.070655e-01 1.205034e-01 3.811325e-02 -3.220278e-02 3.116017e-02 1.215065e-01
<VARIANCE> 39
 6.956769e+01 5.447287e+01 5.314508e+01 3.431746e+01 3.563049e+01 3.768205e+01 2.885583e+01 3.853369e+01 3.306913e+01 2.408900e+01 2.197388e+01 2.174472e+01 3.829434e+01 2.182304e+00 2.355448e+00 1.914210e+00 1.471776e+00 2.042454e+00 2.872517e+00 2.240154e+00 2.258059e+00 2.677450e+00 1.416084e+00 1.640015e+00 1.167489e+00 1.039991e+00 2.646164e-01 2.960936e-01 2.972593e-01 2.726567e-01 3.320257e-01 4.474218e-01 4.956015e-01 3.867417e-01 4.353106e-01 2.750677e-01 3.161582e-01 2.514232e-01 1.855174e-01
<GCONST> 1.112646e+02
<STATE> 3
<MEAN> 39
 -4.273015e-01 -7.059923e+00 2.655253e+00 -3.821577e+00 -6.657090e+00 -2.935233e+00 1.412719e+00 -2.687033e+00 5.406830e+00 -2.821355e+00 4.342841e-01 -3.263695e+00 6.616933e+01 -4.779092e-01 -2.420617e-01 5.118989e-01 1.518611e-01 -2.945639e-01 -5.164036e-02 -1.429877e-01 2.228095e-01 2.825817e-01 5.583190e-02 -1.180169e-02 1.849155e-01 2.424744e-01 -9.286288e-03 7.077442e-03 1.810982e-02 -7.121532e-02 -3.086125e-04 -4.913787e-02 -2.186497e-01 4.057849e-02 -7.559224e-03 -2.961489e-02 -5.201017e-02 -5.144096e-02 8.983918e-02
<VARIANCE> 39
 7.476556e+01 5.430856e+01 5.493719e+01 3.551091e+01 3.764370e+01 3.898206e+01 2.741189e+01 3.994055e+01 3.758226e+01 2.336899e+01 2.158219e+01 2.195133e+01 3.402083e+01 3.316473e+00 2.435807e+00 2.374426e+00 1.445009e+00 2.158252e+00 2.906307e+00 2.590740e+00 2.432899e+00 2.868069e+00 1.432737e+00 1.810518e+00 1.287919e+00 1.205370e+00 3.457834e-01 2.721818e-01 3.512809e-01 2.564714e-01 3.459854e-01 4.400575e-01 4.868971e-01 3.588230e-01 4.331671e-01 2.614708e-01 2.928312e-01 2.338687e-01 1.760875e-01
<GCONST> 1.127705e+02
<STATE> 4
<MEAN> 39
 -8.692349e-01 -7.900515e+00 3.661781e+00 -3.415779e+00 -7.497882e+00 -3.494309e+00 4.588352e-01 -2.111914e+00 5.892234e+00 -2.879396e+00 5.355719e-01 -3.377639e+00 6.707411e+01 -7.366002e-02 -8.147956e-02 3.654591e-01 -4.324418e-02 -1.522800e-01 -1.345482e-01 -5.939760e-01 2.364794e-01 5.822960e-03 -1.474560e-01 -1.513466e-01 -5.187140e-02 3.906771e-01 3.817882e-02 5.446901e-02 -8.054052e-02 -8.250122e-02 6.094561e-02 1.473438e-02 -1.249796e-01 -4.281678e-02 -6.924519e-02 -3.995658e-02 -4.733140e-02 -8.503337e-02 2.604165e-02
<VARIANCE> 39
 8.033228e+01 5.246014e+01 5.383382e+01 3.346707e+01 3.899172e+01 4.214756e+01 3.106855e+01 4.201927e+01 4.308883e+01 2.421486e+01 2.289755e+01 2.403005e+01 3.052622e+01 5.351549e+00 2.183731e+00 2.470708e+00 1.615315e+00 2.080497e+00 2.596028e+00 2.896725e+00 2.155819e+00 2.899335e+00 1.578518e+00 1.858308e+00 1.297317e+00 1.414606e+00 4.312392e-01 3.005205e-01 3.604049e-01 2.769318e-01 3.520540e-01 4.175619e-01 4.714755e-01 4.081008e-01 5.058402e-01 2.682844e-01 2.874203e-01 2.463452e-01 1.957703e-01
<GCONST> 1.146973e+02
<TRANSP> 5
 0.000000e+00 1.000000e+00 0.000000e+00 0.000000e+00 0.000000e+00
 0.000000e+00 3.026981e-01 6.973020e-01 0.000000e+00 0.000000e+00
 0.000000e+00 0.000000e+00 3.081863e-01 6.918137e-01 0.000000e+00
 0.000000e+00 0.000000e+00 0.000000e+00 4.098839e-01 5.901161e-01
 0.000000e+00 0.000000e+00 0.000000e+00 0.000000e+00 0.000000e+00
<ENDHMM>
~h "uu"
<BEGINHMM>
<NUMSTATES> 5
<STATE> 2
<MEAN> 39
 5.914487e+00 -6.603968e+00 1.191353e+00 -9.315356e+00 -5.071796e+00 5.134623e-01 -6.136278e+00 -3.088980e+00 5.274243e+00 -2.442845e+00 1.000338e-01 -5.189095e+00 7.020782e+01 4.237054e-02 -1.737559e-01 -2.281858e-01 -8.710676e-01 -8.150174e-02 7.643047e-01 -3.829771e-01 4.528379e-02 -2.640875e-01 -8.442249e-02 4.300728e-01 2.032017e-01 3.718605e-01 -3.137488e-02 2.254956e-01 -3.834915e-02 1.023331e-01 -5.024355e-02 -1.331954e-01 2.973844e-01 -5.712204e-02 -1.294869e-01 -4.176839e-02 -5.858028e-03 1.190173e-01 -1.879054e-01
<VARIANCE> 39
 4.373117e+01 4.827991e+01 4.393001e+01 4.706540e+01 3.411010e+01 4.791405e+01 5.389891e+01 3.676752e+01 4.455838e+01 1.901040e+01 2.445998e+01 2.483444e+01 2.430292e+01 1.369824e+00 3.082301e+00 1.947045e+00 2.409308e+00 1.877436e+00 3.218526e+00 3.585135e+00 2.604012e+00 2.531938e+00 1.611665e+00 1.915368e+00 1.502442e+00 1.302908e+00 1.569052e-01 4.466817e-01 3.250915e-01 2.970544e-01 3.211629e-01 4.467959e-01 5.631142e-01 5.376024e-01 4.299018e-01 2.520621e-01 3.123996e-01 2.762383e-01 1.371183e-01
<GCONST> 1.132543e+02
<STATE> 3
<MEAN> 39
 6.504577e+00 -5.387866e+00 6.246853e-02 -1.144554e+01 -5.709750e+00 1.596310e+00 -5.493019e+00 -2.926339e+00 3.578765e+00 -3.127371e+00 1.242256e+00 -3.815543e+00 7.013160e+01 -3.007544e-03 4.797505e-01 -1.605916e-01 -3.343326e-01 -2.271833e-01 4.028331e-02 3.231131e-01 3.458719e-02 -4.370083e-01 -2.341057e-01 1.651958e-01 4.168588e-01 -1.657764e-01 -1.802798e-02 1.223795e-01 3.172830e-02 1.637267e-01 -2.072595e-02 -2.007320e-01 1.628397e-01 2.556370e-03 -1.179759e-02 -1.016180e-02 -8.250518e-02 1.357369e-02 -1.284366e-01
<VARIANCE> 39
 5.018125e+01 5.069676e+01 4.053514e+01 5.204027e+01 3.045650e+01 5.174223e+01 4.761029e+01 3.492074e+01 4.483796e+01 2.131026e+01 2.695015e+01 2.332055e+01 2.131506e+01 7.681049e-01 2.029956e+00 1.282739e+00 1.803357e+00 1.609043e+00 2.853508e+00 2.360414e+00 2.121662e+00 2.306643e+00 1.683127e+00 1.812574e+00 1.583403e+00 8.206320e-01 9.894263e-02 3.048538e-01 2.167120e-01 2.143072e-01 2.702975e-01 3.861599e-01 4.507697e-01 4.119467e-01 3.752417e-01 2.750540e-01 2.889813e-01 2.862832e-01 9.027101e-02
<GCONST> 1.072656e+02
<STATE> 4
<MEAN> 39
 7.730960e+00 4.539781e-01 -7.972410e-01 -1.282472e+01 -7.364744e+00 -1.645701e+00 -3.170883e+00 -2.437847e+00 2.933950e-01 -4.021950e+00 6.892766e-01 -2.138361e+00 6.683211e+01 -2.796548e-01 3.407660e-01 1.470313e-01 3.887753e-01 -2.214441e-02 -4.548381e-01 4.044825e-01 -7.692152e-02 -9.982132e-02 2.018807e-02 -1.062656e-01 1.322323e-01 -4.672935e-01 -5.539571e-02 -7.005148e-02 2.681427e-02 8.054298e-02 5.938824e-02 4.504970e-03 4.842476e-03 -1.412830e-02 5.688516e-02 4.653861e-02 1.179185e-02 -3.007489e-02 -1.666108e-02
<VARIANCE> 39
 2.807197e+01 3.942227e+01 2.457416e+01 4.435609e+01 2.290721e+01 4.359584e+01 3.267258e+01 2.715311e+01 3.745476e+01 2.073291e+01 2.390145e+01 1.992743e+01 2.117607e+01 4.666022e-01 1.316321e+00 9.592077e-01 1.429834e+00 1.427600e+00 2.023947e+00 1.650690e+00 1.806600e+00 2.150039e+00 1.604826e+00 1.615679e+00 1.551406e+00 3.959503e-01 5.282774e-02 1.542330e-01 1.562740e-01 1.924305e-01 2.007391e-01 3.238521e-01 2.986760e-01 3.074281e-01 3.338285e-01 2.811345e-01 2.829082e-01 2.835076e-01 5.112811e-02
<GCONST> 9.716365e+01
<TRANSP> 5
 0.000000e+00 1.000000e+00 0.000000e+00 0.000000e+00 0.000000e+00
 0.000000e+00 5.629593e-01 4.370407e-01 0.000000e+00 0.000000e+00
 0.000000e+00 0.000000e+00 5.909572e-01 4.090428e-01 0.000000e+00
 0.000000e+00 0.000000e+00 0.000000e+00 8.675646e-01 1.324354e-01
 0.000000e+00 0.000000e+00 0.000000e+00 0.000000e+00 0.000000e+00
<ENDHMM>
~h "sil"
<BEGINHMM>
<NUMSTATES> 5
<STATE> 2
<MEAN> 39
 -4.969483e+00 -4.847458e+00 1.214222e+00 -1.427008e+00 -8.191259e-01 -3.579360e+00 5.002707e+00 -5.251818e-01 4.558496e+00 -2.077884e+00 9.578514e-01 -9.475476e-01 5.748876e+01 -1.568729e-01 5.109099e-02 1.465565e-02 1.965611e-02 1.291128e-01 1.178230e-01 -4.804634e-02 -7.476653e-02 2.308230e-02 6.225199e-02 9.553963e-02 -2.350642e-02 -2.636872e-01 2.297396e-02 1.284821e-03 -2.322901e-03 -2.691447e-02 -3.848877e-02 1.289982e-02 1.960492e-02 -2.730408e-02 -2.140583e-02 3.522904e-02 1.758897e-02 -1.264066e-02 1.618709e-02
<VARIANCE> 39
 2.018974e+01 1.812155e+01 1.723258e+01 1.993264e+01 2.413694e+01 1.843814e+01 2.052651e+01 2.390420e+01 1.772274e+01 1.851889e+01 1.652956e+01 1.403768e+01 1.256149e+01 6.464695e-01 8.583813e-01 7.814686e-01 1.064013e+00 1.338943e+00 1.376755e+00 1.604667e+00 1.806886e+00 1.503108e+00 1.482301e+00 1.290992e+00 1.123322e+00 4.921156e-01 9.900274e-02 1.328128e-01 1.425046e-01 2.047831e-01 2.327413e-01 2.456091e-01 2.653533e-01 2.983089e-01 2.697860e-01 2.578948e-01 2.063733e-01 1.951931e-01 7.290947e-02
<GCONST> 8.909074e+01
<STATE> 3
<MEAN> 39
 -5.428472e+00 -4.658899e+00 1.257984e+00 -1.356095e+00 -2.490713e-01 -2.865746e+00 4.432522e+00 -1.474784e+00 4.292398e+00 -1.969893e+00 1.644143e+00 -7.667257e-01 5.633757e+01 -1.256334e-01 6.420903e-02 5.687112e-03 1.739981e-02 1.147140e-02 1.051385e-01 7.812321e-02 -1.002589e-01 -5.047320e-02 9.986725e-02 7.701266e-02 -5.351896e-04 -1.972203e-01 2.393884e-03 4.257767e-03 1.226236e-02 -9.228982e-03 -3.054443e-02 -1.571291e-02 1.558955e-02 9.083247e-03 -1.059306e-02 -1.313757e-03 -1.092358e-02 2.011843e-02 2.440238e-02
<VARIANCE> 39
 9.526604e+00 1.330521e+01 1.669473e+01 1.608741e+01 1.838970e+01 1.938335e+01 1.770549e+01 2.103028e+01 2.284272e+01 1.640538e+01 1.621449e+01 1.409695e+01 8.550944e+00 3.322857e-01 6.164564e-01 7.916012e-01 1.034529e+00 1.192648e+00 1.494675e+00 1.415720e+00 1.902703e+00 1.833440e+00 1.588914e+00 1.354408e+00 1.117689e+00 3.127993e-01 6.164622e-02 1.030806e-01 1.577452e-01 2.033543e-01 2.477792e-01 2.935602e-01 3.041605e-01 3.934404e-01 3.851723e-01 3.281583e-01 2.693386e-01 2.296808e-01 4.707674e-02
<GCONST> 8.636895e+01
<STATE> 4
<MEAN> 39
 -6.416685e+00 -4.262831e+00 1.619591e+00 -9.305516e-01 3.671030e-01 -2.067945e+00 4.654558e+00 -2.326093e+00 3.468873e+00 -2.194556e+00 2.040452e+00 3.522876e-02 5.506964e+01 -2.237405e-02 1.034608e-02 1.742929e-02 -1.051319e-02 -3.022192e-03 1.059848e-02 -7.183164e-03 -2.217266e-02 -1.539145e-02 -1.224807e-02 2.020691e-04 9.827065e-03 -1.779286e-02 2.726235e-03 -5.919643e-03 1.568247e-03 -3.460587e-03 -3.407212e-03 -7.236473e-03 -5.260505e-03 4.797699e-04 -2.311514e-03 -4.593006e-03 -6.197378e-03 -4.185496e-03 1.044813e-02
<VARIANCE> 39
 2.670841e+00 7.846948e+00 9.977093e+00 1.032298e+01 1.460942e+01 1.574876e+01 1.588935e+01 1.786809e+01 2.056274e+01 1.545100e+01 1.542242e+01 1.344765e+01 3.029952e+00 1.447525e-01 3.285653e-01 4.853214e-01 6.905609e-01 9.129630e-01 1.083456e+00 1.328134e+00 1.435363e+00 1.504414e+00 1.380874e+00 1.357490e+00 1.234143e+00 8.201846e-02 2.945904e-02 6.160297e-02 9.512950e-02 1.406201e-01 1.872029e-01 2.179783e-01 2.722788e-01 2.914827e-01 3.084575e-01 2.827446e-01 2.773013e-01 2.533394e-01 1.648783e-02
<GCONST> 7.232864e+01
<TRANSP> 5
 0.000000e+00 1.000000e+00 0.000000e+00 0.000000e+00 0.000000e+00
 0.000000e+00 7.454739e-01 2.545261e-01 0.000000e+00 0.000000e+00
 0.000000e+00 0.000000e+00 6.896815e-01 3.103185e-01 0.000000e+00
 0.000000e+00 0.000000e+00 0.000000e+00 9.762764e-01 2.372358e-02
 0.000000e+00 0.000000e+00 0.000000e+00 0.000000e+00 0.000000e+00
<ENDHMM>
~h "txh"
<BEGINHMM>
<NUMSTATES> 5
<STATE> 2
<MEAN> 39
 4.990943e+00 -1.515902e+01 -4.816903e+00 -5.649386e+00 -1.435050e+00 1.552592e+00 3.280859e+00 -1.729104e+00 1.769683e+00 -3.851319e+00 -4.594957e-01 -8.066525e+00 6.976542e+01 7.067141e-03 1.694827e-01 2.076026e-02 5.632734e-01 -8.929744e-02 -6.259519e-01 5.293319e-02 6.425602e-01 2.636523e-01 -4.108382e-01 -3.885596e-02 4.355120e-01 -3.072365e-01 -3.901704e-02 8.949558e-02 3.765310e-02 8.304309e-03 -1.425162e-02 -1.389284e-01 -5.561028e-02 7.760545e-02 7.312126e-02 -3.814153e-02 -5.714770e-03 6.239294e-02 -7.111642e-02
<VARIANCE> 39
 3.175706e+01 8.217378e+01 2.828821e+01 2.002836e+01 1.636346e+01 5.595358e+01 3.366823e+01 6.340527e+01 4.473314e+01 2.495773e+01 1.271420e+01 3.588744e+01 6.616147e+01 3.782552e-01 1.318015e+00 8.268486e-01 1.078822e+00 1.078696e+00 2.876493e+00 1.495705e+00 2.960655e+00 1.988707e+00 1.385580e+00 1.146903e+00 1.517745e+00 9.534155e-01 5.867831e-02 2.072829e-01 1.493512e-01 1.738444e-01 1.949941e-01 3.778899e-01 2.911407e-01 4.612209e-01 3.183725e-01 2.413806e-01 2.146011e-01 2.742527e-01 1.597478e-01
<GCONST> 1.011238e+02
<STATE> 3
<MEAN> 39
 4.237634e+00 -1.334711e+01 -4.229814e+00 -3.596380e+00 -1.661682e+00 -1.893321e+00 3.027402e+00 8.149648e-01 3.541203e+00 -5.219818e+00 -5.707586e-01 -5.636985e+00 6.756593e+01 -1.921762e-01 4.091045e-01 1.355156e-01 3.767910e-01 -2.126413e-02 -6.118248e-01 -4.789233e-02 4.276796e-01 3.217333e-01 -3.276214e-01 2.408415e-02 4.874306e-01 -4.820844e-01 -1.739793e-02 1.787591e-03 -1.618597e-02 -7.311198e-02 1.911915e-02 5.131989e-02 -4.328387e-03 -9.609949e-02 -1.471706e-02 3.438582e-02 2.516209e-02 -5.507994e-02 2.664893e-02
<VARIANCE> 39
 3.635424e+01 7.371280e+01 2.870520e+01 2.045659e+01 1.954047e+01 5.937830e+01 3.363393e+01 6.530368e+01 3.630949e+01 3.043876e+01 1.337005e+01 3.104346e+01 6.908096e+01 5.273853e-01 1.659434e+00 1.003530e+00 1.232939e+00 1.394491e+00 3.468056e+00 1.692397e+00 3.506682e+00 2.066961e+00 1.724671e+00 1.232334e+00 1.972472e+00 1.044499e+00 7.495612e-02 2.641492e-01 2.080079e-01 1.922787e-01 2.691393e-01 5.201291e-01 3.440369e-01 5.788326e-01 3.501559e-01 2.969218e-01 2.474388e-01 3.800072e-01 2.129275e-01
<GCONST> 1.067122e+02
<STATE> 4
<MEAN> 39
 3.311778e+00 -1.216691e+01 -4.937872e+00 -3.521588e+00 -1.651218e+00 -2.489579e+00 5.073386e+00 -4.442117e-01 5.438080e+00 -5.279852e+00 1.227343e-01 -4.292478e+00 6.706564e+01 -1.880823e-01 1.350684e-01 1.153606e-01 2.642662e-02 8.645291e-03 -7.850995e-02 6.569836e-02 5.779982e-02 6.706651e-02 3.712727e-02 1.936685e-02 1.486071e-01 -1.898087e-01 -1.033198e-02 -6.346360e-03 2.520372e-02 -2.580666e-02 -8.802827e-03 2.125539e-02 -1.276308e-02 -2.947000e-02 -1.958339e-02 3.098675e-02 3.039329e-03 -2.634460e-02 1.846001e-02
<VARIANCE> 39
 3.646897e+01 3.670112e+01 4.062333e+01 2.309506e+01 2.019151e+01 5.471666e+01 4.018601e+01 9.002572e+01 2.962656e+01 2.557665e+01 1.695780e+01 3.863181e+01 5.539913e+01 1.151395e+00 2.617026e+00 1.987523e+00 1.757663e+00 1.603698e+00 3.423585e+00 2.253664e+00 4.311222e+00 2.119109e+00 1.905270e+00 1.734186e+00 2.749873e+00 2.967394e+00 1.309947e-01 4.129830e-01 3.295778e-01 2.955895e-01 3.166710e-01 5.518337e-01 4.332595e-01 6.503451e-01 3.956102e-01 3.613582e-01 3.556134e-01 5.192351e-01 4.333642e-01
<GCONST> 1.156998e+02
<TRANSP> 5
 0.000000e+00 1.000000e+00 0.000000e+00 0.000000e+00 0.000000e+00
 0.000000e+00 7.481942e-01 2.518059e-01 0.000000e+00 0.000000e+00
 0.000000e+00 0.000000e+00 7.374080e-01 2.625920e-01 0.000000e+00
 0.000000e+00 0.000000e+00 0.000000e+00 9.523543e-01 4.764570e-02
 0.000000e+00 0.000000e+00 0.000000e+00 0.000000e+00 0.000000e+00
<ENDHMM>
