~o
<STREAMINFO> 1 39
<VECSIZE> 39<NULLD><MFCC_D_A_0><DIAGC>
~s "silst"
<MEAN> 39
 -6.305703e+00 -3.891294e+00 4.093471e+00 -2.677498e+00 -6.458744e-01 5.707890e-02 2.929408e+00 -4.255910e+00 3.297231e+00 -3.832009e+00 2.072473e+00 9.041455e-01 5.694344e+01 -1.267749e-01 -4.447710e-02 3.383994e-02 3.714571e-02 5.888230e-02 1.390343e-01 4.388701e-02 2.850582e-02 1.512808e-02 -2.782641e-02 4.344356e-02 5.797091e-02 -9.129064e-02 2.596379e-02 -1.052440e-02 -4.793656e-03 5.536173e-03 4.676621e-03 -2.203942e-02 8.497039e-03 1.366293e-02 -1.559856e-02 -4.833674e-03 -3.268220e-02 -4.169893e-02 2.909496e-02
<VARIANCE> 39
 3.510892e+00 5.729609e+00 1.436849e+01 1.021124e+01 1.524346e+01 2.151224e+01 1.786744e+01 1.795182e+01 1.712312e+01 1.900069e+01 1.680090e+01 1.545990e+01 1.231742e+00 1.381264e-01 2.371160e-01 5.311528e-01 7.402871e-01 8.549880e-01 1.204186e+00 1.335876e+00 1.306091e+00 1.297055e+00 1.528859e+00 1.374813e+00 1.297889e+00 5.162404e-02 2.211019e-02 4.407926e-02 9.188059e-02 1.443036e-01 1.722613e-01 2.268475e-01 2.637034e-01 2.580492e-01 2.469618e-01 3.125259e-01 2.852676e-01 2.703690e-01 1.063297e-02
<GCONST> 7.046313e+01
~h "a"
<BEGINHMM>
<NUMSTATES> 5
<STATE> 2
<MEAN> 39
 1.810102e+00 -8.533730e+00 -1.530873e-01 -3.656426e+00 -3.185133e+00 -7.139293e+00 2.548212e-01 -8.450792e-01 4.200620e+00 -2.988908e+00 -2.447406e+00 -5.282060e+00 6.510778e+01 -6.026567e-01 1.043117e+00 1.733641e-01 5.060918e-01 4.668922e-01 8.786938e-02 1.468214e-02 -3.732793e-01 1.895616e-01 -1.804648e-01 2.724795e-01 5.462415e-01 -1.019333e+00 -1.144246e-01 -8.805625e-02 3.593999e-03 -9.453227e-02 4.303126e-02 1.690295e-01 7.068568e-02 3.085424e-02 -6.056013e-02 4.787470e-02 8.831799e-02 5.034612e-03 1.626927e-02
<VARIANCE> 39
 4.046979e+01 3.916869e+01 3.120893e+01 1.595325e+01 2.075039e+01 2.427797e+01 3.420402e+01 2.588294e+01 2.399470e+01 1.775163e+01 1.836023e+01 2.137818e+01 2.202658e+01 8.698040e-01 2.081854e+00 1.164052e+00 1.312347e+00 1.602945e+00 1.803382e+00 1.755123e+00 1.990701e+00 1.688299e+00 1.689870e+00 1.568934e+00 1.794951e+00 6.775551e-01 1.578749e-01 3.021669e-01 2.154738e-01 2.560577e-01 3.174697e-01 3.401521e-01 3.870410e-01 3.709886e-01 3.651580e-01 3.470662e-01 3.150595e-01 3.356700e-01 1.090203e-01
<GCONST> 1.017726e+02
<STATE> 3
<MEAN> 39
 -2.813215e+00 -5.127162e+00 1.673103e+00 -2.277222e+00 -1.493171e+00 -5.642464e+00 2.396431e+00 -2.073990e+00 3.334640e+00 -2.624237e+00 6.540781e-01 -1.396709e+00 6.099774e+01 -6.716847e-01 1.796608e-01 1.095966e-01 1.481437e-01 4.772090e-01 5.313126e-01 2.050976e-01 -9.487507e-02 1.517168e-01 3.704676e-02 2.856264e-01 2.315235e-01 -5.428537e-01 1.544580e-01 -1.975618e-01 -4.758688e-02 -2.247518e-01 -1.220950e-01 4.346266e-02 -7.709387e-02 -4.956651e-02 -9.346206e-02 -1.787430e-02 -1.501009e-01 -2.643413e-01 2.550010e-01
<VARIANCE> 39
 2.995510e+01 2.282561e+01 2.409759e+01 1.850183e+01 2.054880e+01 2.710339e+01 2.249692e+01 2.692205e+01 2.168929e+01 1.914459e+01 2.135676e+01 2.005718e+01 1.613429e+01 1.145794e+00 1.757131e+00 1.082375e+00 1.253541e+00 1.458799e+00 1.469374e+00 2.111905e+00 1.878774e+00 1.857843e+00 1.684700e+00 1.334149e+00 1.437212e+00 5.957663e-01 1.846074e-01 3.194086e-01 2.031872e-01 2.582452e-01 2.905605e-01 3.107587e-01 3.283081e-01 4.053549e-01 3.682943e-01 3.642204e-01 3.327865e-01 3.174042e-01 1.194451e-01
<GCONST> 9.974163e+01
<STATE> 4
<MEAN> 39
 -1.879830e+00 -4.138093e+00 2.338144e+00 -2.027904e+00 -1.080557e+00 -5.297299e+00 1.403116e+00 -2.902719e+00 3.254039e+00 -3.657020e+00 -7.740586e-01 -3.130085e+00 6.165487e+01 2.279214e-02 -4.783033e-01 -6.943172e-02 -4.797369e-01 7.196103e-02 4.190509e-01 -3.357621e-01 -3.110849e-01 -7.826568e-02 1.226341e-01 3.331872e-02 -5.322501e-01 4.718999e-01 2.277926e-01 -3.722539e-01 -8.112805e-02 -3.724753e-01 -1.961693e-01 1.281866e-01 -1.576988e-01 1.721585e-02 -9.492764e-02 1.175565e-01 -4.946712e-02 -2.322979e-01 3.752486e-01
<VARIANCE> 39
 3.874782e+01 2.492157e+01 2.504033e+01 1.360680e+01 1.906673e+01 2.003507e+01 2.797477e+01 2.153428e+01 2.084567e+01 1.793292e+01 1.971487e+01 2.349544e+01 2.065040e+01 3.469504e+00 3.758749e+00 1.422095e+00 2.084173e+00 1.995505e+00 2.346803e+00 2.786663e+00 1.721924e+00 2.189551e+00 1.756287e+00 1.824071e+00 2.299645e+00 1.826755e+00 3.877978e-01 4.147632e-01 2.877009e-01 3.358502e-01 3.897275e-01 3.694880e-01 3.517501e-01 3.078180e-01 3.521942e-01 3.016162e-01 2.853496e-01 5.096791e-01 2.224118e-01
<GCONST> 1.079686e+02
<TRANSP> 5
 0.000000e+00 1.000000e+00 0.000000e+00 0.000000e+00 0.000000e+00
 0.000000e+00 6.011572e-01 3.988428e-01 0.000000e+00 0.000000e+00
 0.000000e+00 0.000000e+00 3.462714e-01 6.537287e-01 0.000000e+00
 0.000000e+00 0.000000e+00 0.000000e+00 2.965225e-01 7.034775e-01
 0.000000e+00 0.000000e+00 0.000000e+00 0.000000e+00 0.000000e+00
<ENDHMM>
~h "c"
<BEGINHMM>
<NUMSTATES> 5
<STATE> 2
<MEAN> 39
 4.584434e+00 -7.944580e+00 -7.682795e+00 -6.471533e+00 1.909622e-01 -3.432167e+00 2.274803e+00 -7.483616e-01 4.158257e+00 -1.427650e+00 -1.679537e+00 -8.722337e+00 6.430126e+01 -1.376544e+00 1.704883e-01 -6.333553e-01 -4.437196e-01 -1.928998e-01 2.135054e-01 1.068206e+00 -1.212392e-01 5.820481e-01 -1.862021e-02 3.003164e-01 7.292278e-01 -9.304873e-01 -2.001821e-01 -3.683601e-01 2.934628e-01 -2.556511e-01 -2.402030e-01 -3.638044e-01 -1.069138e-01 1.565429e-01 -1.415486e-01 4.082279e-02 -7.210364e-02 2.430981e-01 4.520196e-01
<VARIANCE> 39
 7.541893e+00 6.050513e+00 1.269168e+01 1.122666e+01 1.380328e+01 2.071951e+01 1.670212e+01 1.698489e+01 1.720306e+01 1.472540e+01 1.759433e+01 1.611537e+01 6.512352e+00 3.848208e-01 1.007193e+00 1.397926e+00 1.367384e+00 1.565998e+00 2.470439e+00 2.318993e+00 1.764451e+00 1.790457e+00 1.992908e+00 1.587712e+00 2.184764e+00 9.060687e-01 6.937131e-02 2.123267e-01 2.559626e-01 3.556934e-01 3.154812e-01 3.578335e-01 4.503506e-01 4.579331e-01 4.334022e-01 4.505893e-01 3.172697e-01 4.123443e-01 6.174117e-02
<GCONST> 9.286940e+01
<STATE> 3
<MEAN> 39
 -5.668974e+00 -6.557654e+00 -4.743042e+00 -6.872526e+00 -7.884273e-01 -6.660368e+00 6.013884e+00 -1.950281e+00 3.571547e+00 -1.325474e+00 -9.625128e-01 -2.206171e+00 6.443748e+01 -1.351614e+00 1.809794e-01 7.091249e-01 -5.034269e-02 1.933712e-01 -4.995061e-01 2.469229e-01 3.123343e-03 -5.352451e-01 -2.086928e-01 -8.341628e-03 4.695200e-01 2.638212e-01 1.038028e-01 1.665788e-02 2.851664e-02 3.226563e-02 4.033185e-02 -1.638552e-02 -1.237941e-01 1.584115e-01 -4.599480e-02 5.642466e-03 -4.286747e-03 -1.843816e-01 -2.647518e-02
<VARIANCE> 39
 2.031579e+01 1.633744e+01 1.161592e+01 1.407715e+01 1.487992e+01 1.745042e+01 1.205427e+01 1.725727e+01 1.570849e+01 1.066716e+01 9.599451e+00 1.313240e+01 1.784260e+01 1.609868e+00 1.285422e+00 9.283903e-01 1.310327e+00 1.199046e+00 1.740889e+00 1.728388e+00 1.893672e+00 1.446431e+00 1.314139e+00 9.785931e-01 1.709738e+00 1.239851e+00 1.625464e-01 2.680485e-01 1.784392e-01 2.528847e-01 2.328040e-01 3.219710e-01 2.712424e-01 3.164949e-01 3.144991e-01 2.853455e-01 1.787157e-01 2.780617e-01 1.740085e-01
<GCONST> 9.209348e+01
<STATE> 4
<MEAN> 39
 -1.016339e+01 -7.790359e+00 -5.420576e-01 -9.306793e+00 1.316887e+00 -7.878720e+00 3.396024e+00 1.808347e+00 1.477500e+00 -2.455405e+00 1.095152e+00 -2.064228e+00 6.498522e+01 -2.233867e-01 1.925962e-01 6.003813e-01 3.106340e-01 2.199351e-01 9.087481e-03 -4.386993e-01 2.507422e-01 3.264780e-02 -1.067886e-01 2.428660e-01 -2.067012e-02 -4.115007e-01 3.799983e-01 1.439237e-01 -1.369096e-01 1.979206e-01 3.042395e-02 2.306538e-01 -3.159785e-02 -1.758441e-01 1.087726e-01 8.952123e-02 -3.022246e-02 -8.579834e-02 -2.360171e-01
<VARIANCE> 39
 1.185740e+01 1.046845e+01 1.736919e+01 1.274985e+01 2.196699e+01 1.981760e+01 2.022284e+01 2.744853e+01 1.264179e+01 2.313277e+01 1.647671e+01 1.968792e+01 4.956445e+00 2.548449e+00 1.334499e+00 7.771268e-01 1.123368e+00 1.565450e+00 2.213022e+00 1.624822e+00 2.285948e+00 1.544632e+00 2.425415e+00 1.168597e+00 1.946479e+00 6.474642e-01 2.014249e-01 2.994111e-01 1.427411e-01 1.818031e-01 3.650165e-01 4.701732e-01 3.473093e-01 4.334100e-01 3.330870e-01 5.270762e-01 2.201220e-01 4.893020e-01 7.336733e-02
<GCONST> 9.600943e+01
<TRANSP> 5
 0.000000e+00 1.000000e+00 0.000000e+00 0.000000e+00 0.000000e+00
 0.000000e+00 8.175758e-01 1.824242e-01 0.000000e+00 0.000000e+00
 0.000000e+00 0.000000e+00 8.098440e-01 1.901561e-01 0.000000e+00
 0.000000e+00 0.000000e+00 0.000000e+00 8.000194e-01 1.999805e-01
 0.000000e+00 0.000000e+00 0.000000e+00 0.000000e+00 0.000000e+00
<ENDHMM>
~h "d"
<BEGINHMM>
<NUMSTATES> 5
<STATE> 2
<MEAN> 39
 -1.701083e-01 -2.985353e+00 4.387143e+00 -2.524512e+00 -5.320659e-01 -4.434616e+00 1.654521e+00 -3.837122e+00 -5.679353e-01 -6.291771e+00 -2.451352e+00 -4.943069e+00 6.158597e+01 9.828726e-01 -1.503974e+00 8.057387e-01 -1.459681e+00 -1.102874e+00 -2.241573e-01 -1.256199e+00 -8.482502e-02 -1.878372e-01 1.050109e-03 -1.515464e-01 -7.851947e-01 2.250319e+00 3.596077e-01 -1.455192e-01 -3.247999e-02 -4.544950e-01 -3.971083e-01 7.452045e-02 -4.607392e-01 -2.470997e-01 -7.963108e-02 5.900463e-01 4.201413e-01 -1.271625e-01 4.040270e-01
<VARIANCE> 39
 2.370650e+01 7.080664e+01 1.309673e+01 2.891225e+01 1.172037e+01 1.162432e+01 1.229228e+01 1.676506e+01 1.455231e+01 1.351293e+01 1.761291e+01 1.666070e+01 2.964748e+01 2.682975e+00 6.854161e+00 1.235960e+00 3.946969e+00 2.083351e+00 1.519943e+00 2.329438e+00 2.231688e+00 1.692105e+00 2.906878e+00 2.433307e+00 2.427539e+00 3.166288e+00 4.958685e-01 1.173534e+00 2.583324e-01 4.310092e-01 3.427309e-01 3.839901e-01 3.825519e-01 4.653657e-01 3.555916e-01 5.326855e-01 4.015076e-01 4.164061e-01 4.747698e-01
<GCONST> 1.107664e+02
<STATE> 3
<MEAN> 39
 5.649674e+00 -1.108437e+01 6.421594e+00 -1.218743e+01 -8.225296e+00 -5.639681e+00 -8.101558e+00 -6.374368e+00 -5.075870e-01 -4.404086e-01 2.103645e+00 -8.401273e+00 7.330737e+01 2.427795e+00 -4.853013e-01 3.530291e-02 -2.631290e+00 -2.498200e+00 1.578346e+00 -2.662487e+00 -1.722632e+00 -1.370300e+00 2.918421e+00 2.478577e+00 -1.606606e+00 2.166795e+00 -2.077898e-01 9.696746e-01 -3.438853e-01 2.721374e-01 3.692871e-01 8.403193e-01 8.120267e-01 -2.441353e-01 -4.798129e-01 1.018727e-01 2.027500e-01 2.032325e-01 -1.028038e+00
<VARIANCE> 39
 7.502988e+00 7.884728e+00 9.104277e+00 1.284975e+01 9.159200e+00 1.415079e+01 1.425834e+01 1.349138e+01 8.845116e+00 1.238288e+01 1.271213e+01 8.941149e+00 6.498448e+00 1.111044e+00 3.307564e+00 1.170147e+00 1.963173e+00 8.946103e-01 2.412615e+00 1.145153e+00 1.661629e+00 1.500700e+00 1.653264e+00 1.167517e+00 1.363619e+00 1.291762e+00 2.785149e-01 3.135766e-01 1.706923e-01 2.476252e-01 2.178288e-01 3.461781e-01 3.309317e-01 2.670273e-01 2.598180e-01 4.042705e-01 2.724779e-01 3.555172e-01 9.844635e-02
<GCONST> 8.960110e+01
<STATE> 4
<MEAN> 39
 8.057449e+00 -1.174438e+01 5.761506e+00 -1.741994e+01 -1.135952e+01 1.389287e+00 -9.214598e+00 -8.478680e+00 -5.602445e+00 4.579056e+00 7.660772e+00 -1.024646e+01 7.481950e+01 6.985592e-01 7.230192e-01 -8.115880e-01 -2.164653e+00 -6.619025e-01 2.476995e+00 6.178011e-01 -1.354660e+00 -1.661908e+00 1.286289e+00 1.238181e+00 1.553109e-01 6.855068e-02 -4.905972e-01 4.882255e-01 -2.678359e-01 3.244146e-01 6.518301e-01 -1.484559e-01 9.486009e-01 2.019009e-01 2.647725e-01 -9.412920e-01 -7.293188e-01 7.335365e-01 -6.448642e-01
<VARIANCE> 39
 1.464393e+00 4.772831e+00 5.645548e+00 9.720683e+00 6.542522e+00 1.306273e+01 5.032401e+00 8.997503e+00 1.056118e+01 1.110977e+01 8.432762e+00 4.964408e+00 2.615818e+00 4.402963e-01 7.384282e-01 6.449820e-01 5.955957e-01 9.305937e-01 1.233661e+00 1.220330e+00 7.743115e-01 9.221771e-01 1.937129e+00 1.232311e+00 1.169124e+00 4.187388e-01 1.032380e-01 1.906416e-01 1.327547e-01 1.088379e-01 1.133867e-01 3.003147e-01 1.755665e-01 2.263942e-01 2.125386e-01 1.793254e-01 1.437608e-01 1.433702e-01 9.186626e-02
<GCONST> 6.911777e+01
<TRANSP> 5
 0.000000e+00 1.000000e+00 0.000000e+00 0.000000e+00 0.000000e+00
 0.000000e+00 8.033723e-01 1.966277e-01 0.000000e+00 0.000000e+00
 0.000000e+00 0.000000e+00 4.512704e-01 5.487295e-01 0.000000e+00
 0.000000e+00 0.000000e+00 0.000000e+00 5.861210e-01 4.138790e-01
 0.000000e+00 0.000000e+00 0.000000e+00 0.000000e+00 0.000000e+00
<ENDHMM>
~h "h"
<BEGINHMM>
<NUMSTATES> 5
<STATE> 2
<MEAN> 39
 -5.327917e+00 -6.441300e+00 2.473975e-01 -5.527418e+00 -1.066219e+00 -8.967537e+00 4.891771e+00 -1.722278e+00 2.476971e+00 -1.431703e+00 -3.327191e+00 -6.183862e+00 6.509791e+01 4.720231e+00 -4.906560e-01 -5.942429e-01 -1.436528e+00 -1.494867e+00 7.545650e-01 -1.539117e+00 -1.595901e+00 -9.020814e-01 6.795315e-01 -1.771865e+00 -2.759966e+00 1.625261e+00 4.665509e-01 -7.135274e-01 -1.149238e-01 -5.955661e-01 3.267369e-02 5.416597e-01 -4.480234e-01 1.350143e-01 -8.314038e-02 3.170878e-01 6.161251e-02 -4.222897e-01 8.345776e-01
<VARIANCE> 39
 3.543125e+01 1.086403e+01 1.281397e+01 1.153313e+01 1.359094e+01 1.414253e+01 1.771345e+01 1.428179e+01 1.534240e+01 1.502057e+01 1.958320e+01 2.441338e+01 5.912017e+00 1.289231e+00 2.298026e+00 1.196907e+00 1.690595e+00 1.103711e+00 1.622690e+00 2.103249e+00 1.503594e+00 1.352492e+00 1.765806e+00 1.198462e+00 1.475646e+00 1.674003e+00 7.544275e-01 3.298597e-01 2.249875e-01 1.745411e-01 2.828922e-01 2.979495e-01 2.934513e-01 3.967120e-01 2.723020e-01 2.944422e-01 4.153590e-01 4.631185e-01 1.109995e-01
<GCONST> 9.666325e+01
<STATE> 3
<MEAN> 39
 7.872425e+00 -1.612575e+01 -2.301748e+00 -1.409247e+01 -3.770247e+00 -1.414102e+00 -9.208671e-01 -3.001475e+00 7.889618e-01 3.686663e+00 -5.818785e+00 -1.550791e+01 7.521949e+01 1.305285e+00 -1.641445e+00 -5.888449e-01 -1.221455e+00 1.222828e-01 1.975145e+00 -1.143045e-01 6.813543e-01 -3.512630e-01 2.229498e-01 -4.838838e-01 -1.050803e+00 1.171809e+00 -8.827620e-01 5.918537e-01 4.926432e-02 6.134192e-01 3.917414e-01 -1.974601e-01 6.675196e-01 2.894914e-01 3.946594e-02 -4.545866e-01 1.102180e-01 7.394026e-01 -7.007578e-01
<VARIANCE> 39
 1.975763e+00 2.632580e+01 1.366218e+01 1.063386e+01 7.119049e+00 2.344932e+01 1.221136e+01 1.327863e+01 9.407185e+00 1.566741e+01 7.979473e+00 1.023800e+01 6.088875e+00 2.635047e+00 3.140952e+00 1.022246e+00 2.000677e+00 1.126080e+00 1.368394e+00 2.167152e+00 1.009260e+00 1.012205e+00 1.866514e+00 8.779936e-01 2.460719e+00 2.262918e+00 3.649974e-01 4.875127e-01 2.248738e-01 1.910130e-01 1.609028e-01 3.756675e-01 2.081517e-01 3.761953e-01 2.169333e-01 2.175142e-01 1.908009e-01 1.567379e-01 1.016472e-01
<GCONST> 8.920645e+01
<STATE> 4
<MEAN> 39
 7.030592e+00 -1.117689e+01 -2.669430e+00 -8.292155e+00 1.176960e+00 1.232845e+00 6.702129e+00 -7.267772e-01 -7.792287e-01 -9.459960e-01 -8.480414e+00 -1.121767e+01 7.020531e+01 -2.082918e-01 7.289518e-01 1.247558e-01 9.632133e-01 6.584356e-01 -1.537433e-01 5.639662e-01 -2.214650e-01 -2.685585e-01 -5.513130e-01 -6.878147e-02 7.157297e-01 -6.739130e-01 5.690794e-02 -1.985780e-01 -6.476116e-02 -2.488211e-01 -9.046264e-02 -3.315144e-02 -2.912930e-01 -1.111690e-01 -8.074919e-02 6.242942e-02 1.197464e-01 -1.138057e-01 1.881731e-01
<VARIANCE> 39
 3.513720e+00 1.685975e+01 7.328206e+00 2.760296e+01 1.368021e+01 1.405628e+01 1.831906e+01 1.447143e+01 9.719048e+00 1.331199e+01 1.486831e+01 1.452017e+01 1.008363e+01 4.223680e-01 1.494601e+00 1.014069e+00 2.599481e+00 1.188112e+00 9.749640e-01 2.563738e+00 1.398885e+00 1.220060e+00 9.895325e-01 1.429066e+00 1.119566e+00 8.072803e-01 1.048267e-01 2.944616e-01 2.579620e-01 6.095097e-01 2.380307e-01 2.696808e-01 3.178603e-01 2.601629e-01 2.587472e-01 1.696357e-01 2.818151e-01 2.085873e-01 1.629377e-01
<GCONST> 8.849287e+01
<TRANSP> 5
 0.000000e+00 1.000000e+00 0.000000e+00 0.000000e+00 0.000000e+00
 0.000000e+00 6.333443e-01 3.666557e-01 0.000000e+00 0.000000e+00
 0.000000e+00 0.000000e+00 7.763140e-01 2.236860e-01 0.000000e+00
 0.000000e+00 0.000000e+00 0.000000e+00 8.750507e-01 1.249493e-01
 0.000000e+00 0.000000e+00 0.000000e+00 0.000000e+00 0.000000e+00
<ENDHMM>
~h "k"
<BEGINHMM>
<NUMSTATES> 5
<STATE> 2
<MEAN> 39
 5.449968e+00 -7.070712e+00 1.583154e+01 -5.869280e+00 -1.866930e+01 -1.276686e+01 1.760087e-01 -5.286835e+00 -1.018868e+01 2.181522e+00 2.873971e+00 -9.833172e+00 6.977014e+01 -6.087817e-01 1.954351e+00 -4.021307e-01 1.185533e+00 1.112664e+00 2.371424e-01 3.307729e-01 -1.108454e+00 5.580150e-01 -5.130965e-01 1.822439e-02 4.033954e-01 -1.712298e+00 -2.649096e-01 -4.769790e-02 -5.818550e-02 1.158474e-01 9.726513e-02 1.724325e-01 -1.868122e-01 -1.822329e-01 2.843944e-01 -2.048884e-01 2.450773e-01 5.690608e-01 -2.210653e-01
<VARIANCE> 39
 2.199395e+00 1.895226e+01 6.285913e+00 1.122795e+01 1.103016e+01 8.896432e+00 9.064453e+00 1.186626e+01 1.414853e+01 1.055337e+01 1.497544e+01 6.501955e+00 9.966336e+00 3.417183e-01 5.885223e-01 5.319968e-01 1.287802e+00 1.000767e+00 1.024994e+00 1.140084e+00 1.312278e+00 1.480860e+00 1.027708e+00 1.065766e+00 1.610139e+00 4.270404e-01 3.537210e-02 2.592828e-01 1.491230e-01 2.628582e-01 2.215397e-01 2.308923e-01 2.611161e-01 2.219990e-01 2.595482e-01 2.667738e-01 2.253521e-01 1.753424e-01 6.215493e-02
<GCONST> 7.693645e+01
<STATE> 3
<MEAN> 39
 -6.275406e-01 -2.111309e+00 1.067193e+01 -1.976484e+00 -1.304373e+01 -1.131697e+01 -9.209808e-01 -1.068528e+01 -4.906196e+00 6.517572e-01 6.630975e+00 -1.205042e+00 6.076945e+01 -8.363907e-01 -3.949804e-02 -1.262406e+00 -2.907884e-02 7.591095e-01 1.172620e-01 -2.497046e-01 -1.840431e-01 9.683311e-01 1.577524e-01 6.038423e-01 1.367574e+00 -9.137393e-01 1.990906e-01 -4.503224e-01 -1.610824e-01 -1.762397e-01 6.182091e-02 3.709261e-02 7.375263e-02 3.513775e-01 -3.444491e-02 1.216246e-01 -3.040019e-01 -3.372380e-01 4.149059e-01
<VARIANCE> 39
 4.176335e+00 5.763183e+00 2.021906e+01 8.470889e+00 1.542386e+01 1.187365e+01 1.418498e+01 1.344235e+01 1.625230e+01 1.245726e+01 2.530548e+01 1.973192e+01 4.810855e+00 4.485555e-01 5.888443e-01 7.291917e-01 1.217897e+00 1.363186e+00 1.415824e+00 1.385878e+00 1.260729e+00 1.234090e+00 1.153297e+00 2.501979e+00 2.151701e+00 4.209785e-01 5.987557e-02 2.696062e-01 2.380816e-01 3.116819e-01 3.579215e-01 2.905698e-01 2.911406e-01 2.357192e-01 2.766401e-01 2.512859e-01 4.863740e-01 4.374131e-01 6.767128e-02
<GCONST> 8.591702e+01
<STATE> 4
<MEAN> 39
 -1.832256e+00 -1.035757e+01 1.915152e+00 -3.330197e+00 -7.321069e+00 -8.870574e+00 -4.317813e-01 -7.341803e+00 -2.633604e-01 2.109241e+00 3.829495e+00 -1.030509e+00 6.334028e+01 1.137410e-01 -1.509587e+00 -1.306828e+00 1.179467e-01 1.323413e+00 1.238802e-01 1.949185e-01 1.085137e+00 6.097388e-01 -1.643075e-03 -1.116671e+00 -8.665195e-01 9.036102e-01 -9.481295e-02 6.571674e-01 5.035110e-01 1.648158e-01 -1.145957e-01 -6.425504e-02 3.068280e-02 -1.631041e-01 -9.340000e-02 -2.904316e-01 1.164083e-01 7.448386e-02 -3.307604e-01
<VARIANCE> 39
 7.103017e+00 5.497833e+01 4.587847e+01 1.451431e+01 2.600453e+01 2.707539e+01 1.518785e+01 2.237197e+01 2.734681e+01 3.269511e+01 2.709142e+01 2.523982e+01 2.157204e+01 1.205062e+00 9.129449e+00 5.519998e+00 1.534669e+00 2.369663e+00 2.183045e+00 1.605867e+00 1.631716e+00 2.146247e+00 3.550744e+00 2.384161e+00 2.476488e+00 2.857966e+00 2.108008e-01 1.653505e+00 8.833115e-01 2.797705e-01 4.144337e-01 4.406480e-01 3.357314e-01 3.919044e-01 3.646888e-01 7.147520e-01 5.793356e-01 6.046246e-01 7.138506e-01
<GCONST> 1.160130e+02
<TRANSP> 5
 0.000000e+00 1.000000e+00 0.000000e+00 0.000000e+00 0.000000e+00
 0.000000e+00 7.858383e-01 2.141617e-01 0.000000e+00 0.000000e+00
 0.000000e+00 0.000000e+00 8.396658e-01 1.603341e-01 0.000000e+00
 0.000000e+00 0.000000e+00 0.000000e+00 7.974811e-01 2.025189e-01
 0.000000e+00 0.000000e+00 0.000000e+00 0.000000e+00 0.000000e+00
<ENDHMM>
~h "n"
<BEGINHMM>
<NUMSTATES> 5
<STATE> 2
<MEAN> 39
 7.952945e+00 1.482469e+00 3.775331e+00 -3.798106e+00 -6.723730e+00 -6.500959e+00 1.818018e+00 -3.059592e+00 2.404438e+00 -4.711361e+00 -2.952872e+00 -4.508868e+00 6.484397e+01 -1.921756e-02 4.921821e-01 -1.339495e-01 1.322687e-01 9.550611e-02 -1.296250e-01 3.511265e-01 -4.657117e-02 3.758438e-03 1.893765e-02 -1.121368e-01 1.752457e-01 -3.290806e-01 -8.875955e-02 -1.792032e-01 1.428041e-01 -4.401313e-02 -1.354320e-02 3.842639e-02 -1.748033e-01 -1.535452e-02 -4.299953e-02 4.416251e-02 1.068339e-01 -4.189077e-02 7.248724e-02
<VARIANCE> 39
 3.266322e+00 1.160212e+01 1.108749e+01 6.774510e+00 2.042522e+01 9.521783e+00 1.660169e+01 9.665614e+00 1.120594e+01 1.336011e+01 9.338806e+00 9.058002e+00 3.918020e+00 1.527690e-01 3.035269e-01 4.820069e-01 4.252792e-01 6.122018e-01 6.083471e-01 8.535960e-01 6.855824e-01 7.459965e-01 6.418190e-01 6.822557e-01 6.311644e-01 1.030839e-01 2.557601e-02 6.762207e-02 6.510495e-02 1.040289e-01 1.073351e-01 1.183171e-01 1.740705e-01 1.432420e-01 1.171179e-01 1.359323e-01 1.262110e-01 1.178203e-01 2.203783e-02
<GCONST> 5.918494e+01
<STATE> 3
<MEAN> 39
 6.267524e+00 2.917251e+00 4.586994e+00 -2.680498e+00 -5.064109e+00 -5.842354e+00 2.068547e+00 -4.544501e+00 2.502223e+00 -3.590512e+00 -3.336192e+00 -4.550903e+00 6.301658e+01 -5.843766e-01 1.201088e-01 4.158991e-01 8.013563e-01 6.990608e-01 1.366750e-01 -6.160452e-02 -2.365473e-01 -7.157320e-02 3.192141e-02 1.193381e-01 1.487205e-01 -4.768238e-01 -2.397134e-01 -3.056113e-01 1.099272e-01 6.638338e-02 1.624611e-01 2.043179e-01 -7.465814e-02 3.407374e-02 -8.772935e-02 -4.465473e-02 1.942202e-01 4.002382e-02 -8.270318e-03
<VARIANCE> 39
 8.716588e+00 1.102305e+01 1.502562e+01 1.366011e+01 1.737112e+01 1.035980e+01 1.519063e+01 1.275750e+01 1.454402e+01 1.171668e+01 1.362189e+01 1.079609e+01 5.710416e+00 4.316587e-01 5.997041e-01 6.231129e-01 9.793460e-01 1.313385e+00 8.136145e-01 9.279567e-01 8.140720e-01 1.160529e+00 1.063754e+00 1.113168e+00 9.829216e-01 2.658953e-01 4.982404e-02 8.198532e-02 1.554209e-01 1.669110e-01 1.794498e-01 1.401120e-01 1.928157e-01 1.730746e-01 2.293425e-01 1.401162e-01 1.989904e-01 2.005719e-01 3.293492e-02
<GCONST> 7.450634e+01
<STATE> 4
<MEAN> 39
 3.251438e+00 2.209305e+00 4.999076e+00 -7.055871e-01 -1.711787e+00 -3.853201e+00 2.506090e+00 -4.793962e+00 1.020321e+00 -4.416437e+00 -1.822173e+00 -3.868341e+00 6.089356e+01 -8.181573e-01 -6.034437e-01 -4.524314e-02 2.796597e-01 3.541265e-01 1.868271e-01 3.674054e-02 1.761357e-01 -1.979628e-02 -1.110586e-01 3.729591e-01 3.234180e-01 -3.674876e-01 -1.008552e-01 -3.782367e-01 2.564908e-02 -2.506371e-01 -2.581930e-01 -6.379031e-02 -1.468085e-01 1.099072e-01 5.044424e-02 1.545333e-02 1.190875e-01 6.533591e-02 1.594945e-01
<VARIANCE> 39
 1.822467e+01 1.041400e+01 1.978197e+01 1.597240e+01 2.496270e+01 1.777940e+01 1.657314e+01 1.221402e+01 1.286015e+01 1.328001e+01 1.468100e+01 1.173572e+01 9.714869e+00 5.262190e-01 9.669708e-01 9.717419e-01 1.054198e+00 1.437138e+00 1.185456e+00 1.074374e+00 1.359186e+00 1.043535e+00 1.324493e+00 1.128585e+00 1.263064e+00 3.014507e-01 8.814811e-02 1.937665e-01 3.470025e-01 2.192554e-01 3.138846e-01 2.652412e-01 2.647340e-01 2.782232e-01 2.149384e-01 2.206981e-01 1.895390e-01 2.252930e-01 4.380384e-02
<GCONST> 8.531680e+01
<TRANSP> 5
 0.000000e+00 1.000000e+00 0.000000e+00 0.000000e+00 0.000000e+00
 0.000000e+00 7.762957e-01 2.237043e-01 0.000000e+00 0.000000e+00
 0.000000e+00 0.000000e+00 4.039002e-01 5.960999e-01 0.000000e+00
 0.000000e+00 0.000000e+00 0.000000e+00 4.650344e-01 5.349656e-01
 0.000000e+00 0.000000e+00 0.000000e+00 0.000000e+00 0.000000e+00
<ENDHMM>
~h "o"
<BEGINHMM>
<NUMSTATES> 5
<STATE> 2
<MEAN> 39
 9.408829e+00 -7.072952e+00 2.556530e+00 -2.264814e+01 -1.120058e+01 6.488097e+00 -4.422304e+00 -1.209872e+01 -8.218145e+00 3.345394e+00 7.429346e+00 -6.547971e+00 7.310649e+01 3.592891e-01 1.167440e+00 -7.781053e-01 -8.280994e-01 1.369507e-01 8.056706e-01 1.106081e+00 -2.085719e-01 -6.935474e-02 -8.594106e-01 -5.044011e-01 1.219377e+00 -5.757787e-01 -6.279735e-02 -6.149114e-02 4.754686e-02 4.222026e-01 1.345270e-01 -3.856952e-01 -1.006434e-01 3.532308e-01 3.748500e-01 -2.524998e-01 -2.470775e-01 3.645913e-02 -5.108811e-02
<VARIANCE> 39
 1.453986e+00 5.192987e+00 8.429437e+00 1.193417e+01 7.211086e+00 1.244733e+01 8.272103e+00 6.229801e+00 1.085798e+01 1.708088e+01 6.318062e+00 8.269206e+00 3.398495e+00 9.688529e-02 2.159053e-01 3.780429e-01 7.121488e-01 3.892518e-01 8.658929e-01 5.328123e-01 9.817919e-01 9.094644e-01 9.330357e-01 5.661840e-01 5.440723e-01 5.867002e-02 1.734961e-02 3.587594e-02 5.129135e-02 8.133965e-02 9.068190e-02 1.291955e-01 8.730424e-02 1.216252e-01 1.297669e-01 2.442698e-01 1.077673e-01 1.374146e-01 1.282157e-02
<GCONST> 5.218520e+01
<STATE> 3
<MEAN> 39
 1.009779e+01 -2.929188e+00 -1.235663e+00 -2.069956e+01 -7.484849e+00 5.927886e+00 -2.053318e+00 -1.017200e+01 -4.819376e+00 -9.273661e-01 3.623895e+00 -2.129004e+00 7.012167e+01 -1.432746e-01 1.383323e-01 -3.592019e-01 9.627392e-01 1.235381e+00 -5.139548e-01 -6.846634e-01 1.227002e-01 9.758924e-01 1.299006e-01 -4.137829e-01 -6.088680e-04 -3.079178e-01 -6.672474e-02 -1.627638e-01 1.597646e-01 2.230187e-01 1.143078e-01 -2.218895e-01 -3.718230e-01 -2.686820e-03 1.232593e-01 2.229393e-01 4.390863e-02 -2.919730e-01 4.441395e-02
<VARIANCE> 39
 2.005740e+00 5.194860e+00 1.204326e+01 1.653394e+01 2.516758e+01 2.067792e+01 1.828459e+01 1.481016e+01 1.519998e+01 1.766434e+01 1.188807e+01 1.039791e+01 3.013669e+00 7.491872e-02 4.045255e-01 3.459437e-01 6.802359e-01 8.493477e-01 1.032845e+00 1.766966e+00 9.894053e-01 1.048558e+00 1.592405e+00 9.485247e-01 1.028839e+00 6.806835e-02 1.418233e-02 3.764812e-02 5.566310e-02 8.325543e-02 1.769098e-01 2.064915e-01 1.463882e-01 2.205455e-01 1.468942e-01 2.242299e-01 2.032380e-01 1.463352e-01 7.863991e-03
<GCONST> 6.454333e+01
<STATE> 4
<MEAN> 39
 8.543880e+00 -2.460623e+00 -3.274836e-02 -1.062758e+01 3.154040e-02 -6.597890e-01 -8.526858e+00 -7.809322e+00 2.497560e+00 2.090540e-01 7.687877e-01 -6.110462e+00 6.765266e+01 -1.419101e-01 6.902506e-01 3.388059e-01 1.877934e+00 3.196909e-01 -1.286450e+00 5.126812e-01 8.029469e-01 5.955763e-01 -6.436598e-01 -6.027133e-01 -3.579747e-01 -7.028885e-01 2.354662e-02 1.816112e-01 5.627632e-03 -8.195060e-02 -2.684704e-01 1.269652e-01 5.512003e-01 -3.367758e-02 -2.470168e-01 -1.503667e-01 -5.282048e-02 2.032002e-01 -6.319130e-02
<VARIANCE> 39
 1.819371e+00 1.218883e+01 1.160688e+01 2.633585e+01 1.178514e+01 1.938263e+01 2.923983e+01 1.771017e+01 1.593387e+01 1.726205e+01 1.139675e+01 1.214498e+01 5.350683e+00 1.018112e-01 5.737060e-01 6.047041e-01 1.270252e+00 1.191482e+00 1.124334e+00 4.416421e+00 1.366590e+00 1.654336e+00 1.252805e+00 9.361647e-01 1.300552e+00 1.432363e-01 1.572237e-02 9.138177e-02 8.810220e-02 2.487035e-01 1.522085e-01 2.100521e-01 6.121934e-01 2.958215e-01 2.389399e-01 2.805508e-01 1.981647e-01 2.009580e-01 3.193408e-02
<GCONST> 7.748467e+01
<TRANSP> 5
 0.000000e+00 1.000000e+00 0.000000e+00 0.000000e+00 0.000000e+00
 0.000000e+00 7.750522e-01 2.249479e-01 0.000000e+00 0.000000e+00
 0.000000e+00 0.000000e+00 8.504001e-01 1.495998e-01 0.000000e+00
 0.000000e+00 0.000000e+00 0.000000e+00 8.408003e-01 1.591997e-01
 0.000000e+00 0.000000e+00 0.000000e+00 0.000000e+00 0.000000e+00
<ENDHMM>
~h "p"
<BEGINHMM>
<NUMSTATES> 5
<STATE> 2
<MEAN> 39
 -5.015670e+00 -4.187169e+00 6.200016e-01 -1.203924e+00 -3.307506e-01 -3.186758e+00 3.993091e+00 -3.327374e+00 2.925076e+00 -2.320104e+00 1.942365e+00 6.780316e-01 5.647844e+01 7.247694e-01 -1.080472e+00 -2.196323e-01 -2.533672e-01 -9.733540e-01 -2.579961e-03 5.174580e-01 -1.666009e-01 -1.308775e-01 2.425154e-01 -3.656302e-01 -3.169663e-01 1.232834e+00 9.422548e-01 -4.302722e-01 -5.282650e-01 -9.568305e-01 -3.902503e-01 2.829563e-01 7.634354e-02 6.769385e-02 -5.487643e-01 -1.395980e-01 -1.152698e-01 -7.124895e-01 9.625530e-01
<VARIANCE> 39
 3.416309e+00 7.974266e+00 1.156096e+01 7.527679e+00 1.510425e+01 1.461736e+01 1.606177e+01 1.183630e+01 1.254994e+01 1.060593e+01 1.444704e+01 1.615893e+01 4.036468e+00 1.302601e+00 1.300838e+00 1.269749e+00 1.761918e+00 1.874639e+00 1.318689e+00 1.607808e+00 1.596079e+00 1.419687e+00 1.342373e+00 1.847093e+00 1.647992e+00 1.255279e+00 1.572912e-01 1.820180e-01 2.366895e-01 4.296934e-01 2.662939e-01 3.183375e-01 3.650191e-01 2.664115e-01 4.198680e-01 2.779557e-01 3.410488e-01 3.963194e-01 1.365161e-01
<GCONST> 9.021993e+01
<STATE> 3
<MEAN> 39
 2.930052e+00 -8.789377e+00 -3.987543e+00 -7.368228e+00 -5.611567e+00 -1.588691e+00 5.710841e+00 -4.253297e+00 -5.240306e-01 -2.468998e+00 2.360087e-01 -4.539141e+00 6.526305e+01 3.883987e+00 -2.164751e+00 -2.237912e+00 -4.409275e+00 -9.276090e-01 1.901254e+00 3.974007e-01 8.522000e-01 -3.073520e+00 -2.418783e-01 5.866765e-01 -2.887325e+00 4.143592e+00 -6.117914e-02 -3.383108e-01 2.699105e-02 -4.609134e-01 5.242591e-01 3.376517e-01 -2.181831e-01 4.759272e-01 -3.367573e-01 6.389813e-02 2.513247e-01 -1.933460e-01 1.774202e-01
<VARIANCE> 39
 3.152430e+01 2.046287e+01 2.724289e+01 4.512547e+01 1.411455e+01 2.039257e+01 1.236446e+01 1.681030e+01 2.826806e+01 1.328095e+01 1.353454e+01 1.973826e+01 2.151288e+01 5.693857e-01 1.650050e+00 1.701204e+00 2.022742e+00 2.438970e+00 1.975928e+00 2.270650e+00 1.780652e+00 1.557109e+00 1.532490e+00 1.644299e+00 1.651756e+00 8.879851e-01 7.031788e-01 3.295302e-01 4.167464e-01 9.867991e-01 2.978279e-01 4.175489e-01 3.404337e-01 3.236231e-01 5.630656e-01 3.105394e-01 2.698170e-01 4.055378e-01 4.330217e-01
<GCONST> 1.053033e+02
<STATE> 4
<MEAN> 39
 9.905566e+00 -1.808983e+01 -8.505715e+00 -1.788588e+01 -4.120741e+00 3.688941e+00 6.597144e+00 2.450627e-01 -9.372486e+00 -1.256656e+00 1.750754e+00 -1.215032e+01 7.600668e+01 2.003415e-01 -1.606243e+00 -3.749336e-01 -7.022061e-01 6.935436e-01 5.291550e-01 -1.665136e-01 5.066588e-01 -5.081859e-01 3.501023e-01 -4.180637e-01 -9.179833e-01 1.249114e+00 -5.964425e-01 3.888461e-01 2.650360e-01 8.651013e-01 1.420150e-01 -3.793177e-01 -8.702513e-02 -2.406350e-01 6.423991e-01 -8.834115e-03 -2.705003e-01 3.810474e-01 -6.454543e-01
<VARIANCE> 39
 2.042843e+00 9.621625e+00 1.391392e+01 1.788855e+01 1.308228e+01 1.056039e+01 1.625269e+01 1.278327e+01 1.559490e+01 7.297043e+00 9.430953e+00 5.841496e+00 2.775007e+00 1.051507e+00 2.116713e+00 6.935108e-01 3.978632e+00 7.558967e-01 1.447254e+00 9.151557e-01 1.195125e+00 1.962810e+00 6.877863e-01 8.599045e-01 9.267783e-01 2.065607e+00 3.133297e-01 1.647342e-01 1.806510e-01 5.441742e-01 1.892921e-01 1.889015e-01 1.773205e-01 2.081504e-01 2.830184e-01 1.624681e-01 1.542116e-01 2.122300e-01 2.452338e-01
<GCONST> 8.317596e+01
<TRANSP> 5
 0.000000e+00 1.000000e+00 0.000000e+00 0.000000e+00 0.000000e+00
 0.000000e+00 6.414673e-01 3.585327e-01 0.000000e+00 0.000000e+00
 0.000000e+00 0.000000e+00 6.208450e-01 3.791550e-01 0.000000e+00
 0.000000e+00 0.000000e+00 0.000000e+00 7.796966e-01 2.203034e-01
 0.000000e+00 0.000000e+00 0.000000e+00 0.000000e+00 0.000000e+00
<ENDHMM>
~h "r"
<BEGINHMM>
<NUMSTATES> 5
<STATE> 2
<MEAN> 39
 -1.009135e+01 -9.059589e+00 8.123016e+00 -7.790336e+00 -4.847582e+00 -2.124610e+00 -1.065517e+00 -1.580403e+00 5.567849e+00 -4.383816e+00 1.283253e+00 -3.576516e+00 6.705043e+01 2.573549e+00 -1.184251e+00 -2.114097e-01 3.244164e-01 -1.745440e+00 -1.560806e+00 -5.242460e-01 2.989416e-01 7.193561e-02 -1.739084e-01 -5.568486e-01 -9.646444e-01 1.491080e+00 1.154020e+00 -4.836699e-01 -3.784449e-01 -4.254210e-02 -2.083687e-01 -2.502426e-01 -1.321855e-01 1.994040e-01 -2.073775e-01 1.493035e-01 -1.689591e-01 -3.566746e-01 2.196320e-01
<VARIANCE> 39
 4.492619e+01 9.385423e+00 1.197194e+01 1.099657e+01 3.517371e+01 3.753549e+01 1.533785e+01 1.871353e+01 1.474747e+01 1.764588e+01 2.231890e+01 2.106562e+01 7.207039e+00 1.074810e+01 1.647271e+00 2.364668e+00 1.414968e+00 2.609305e+00 4.378245e+00 2.396443e+00 2.227873e+00 1.724909e+00 1.657520e+00 2.076767e+00 1.859385e+00 1.208593e+00 1.320462e+00 2.805298e-01 2.440698e-01 3.972550e-01 7.011722e-01 9.943876e-01 4.497859e-01 4.243074e-01 2.804729e-01 3.562476e-01 3.880131e-01 2.690714e-01 2.179233e-01
<GCONST> 1.084898e+02
<STATE> 3
<MEAN> 39
 6.846177e+00 -2.068232e+01 4.349853e+00 -9.553906e+00 -1.118980e+01 -7.384551e+00 -4.826499e+00 3.169350e+00 4.298066e+00 -2.374450e+00 -1.691980e+00 -1.151735e+01 7.706183e+01 1.433386e+00 -2.460761e+00 -1.358531e+00 -1.163790e+00 7.492409e-01 1.088391e+00 4.684105e-02 1.253709e+00 -1.761463e-01 9.937918e-01 -8.749060e-01 -2.062188e+00 1.394839e+00 -1.021733e+00 4.559458e-01 -1.724260e-01 -5.722240e-02 6.488297e-01 7.545549e-01 4.755673e-01 -2.537123e-01 5.835821e-03 -3.726629e-02 -4.841259e-02 1.934709e-01 -5.776334e-01
<VARIANCE> 39
 2.874894e+00 1.329936e+01 1.820505e+01 1.090474e+01 1.497604e+01 1.504978e+01 1.047153e+01 1.049743e+01 8.860868e+00 9.291897e+00 8.286119e+00 1.556419e+01 3.004030e+00 2.709400e+00 1.395788e+00 6.983867e-01 7.483237e-01 1.736480e+00 2.282937e+00 1.274829e+00 9.811876e-01 5.547656e-01 1.181102e+00 9.315714e-01 7.365934e-01 1.522027e+00 3.162054e-01 2.123466e-01 1.592378e-01 2.653982e-01 3.107130e-01 4.417922e-01 1.875366e-01 2.915921e-01 1.059015e-01 3.149830e-01 1.300722e-01 2.017676e-01 7.827520e-02
<GCONST> 8.265776e+01
<STATE> 4
<MEAN> 39
 8.231548e+00 -2.323141e+01 -4.554314e+00 -1.083736e+01 -3.598056e+00 1.361072e-01 3.428640e-02 3.881324e+00 1.334773e+00 -1.175212e+00 -7.020204e+00 -1.564720e+01 7.640765e+01 9.959277e-02 2.850388e-01 -3.523093e-01 2.907110e-01 1.510734e-01 -1.553686e-01 1.118560e-01 -1.949347e-02 5.933001e-02 1.207491e-02 -1.175866e-01 1.301911e-01 -2.755484e-01 -7.615879e-03 1.771805e-01 1.329755e-01 1.167184e-01 -1.216064e-01 -2.274966e-01 -1.380814e-01 -8.286458e-02 1.262985e-01 -4.403868e-02 1.213922e-01 1.879315e-01 -7.834363e-02
<VARIANCE> 39
 3.039192e+00 9.980293e+00 1.495856e+01 1.046743e+01 1.748802e+01 1.936013e+01 9.046089e+00 1.025866e+01 1.332740e+01 8.754605e+00 1.016425e+01 7.911880e+00 4.195893e+00 8.699811e-02 4.363753e-01 7.164515e-01 4.560522e-01 1.024818e+00 1.687221e+00 1.059701e+00 6.979097e-01 1.130940e+00 6.023555e-01 8.119916e-01 6.229970e-01 9.525061e-02 1.736478e-02 6.537996e-02 5.182096e-02 6.781430e-02 1.064926e-01 1.033400e-01 1.149447e-01 1.621189e-01 1.331166e-01 1.295908e-01 1.311271e-01 1.241426e-01 1.847317e-02
<GCONST> 6.042534e+01
<TRANSP> 5
 0.000000e+00 1.000000e+00 0.000000e+00 0.000000e+00 0.000000e+00
 0.000000e+00 7.977836e-01 2.022164e-01 0.000000e+00 0.000000e+00
 0.000000e+00 0.000000e+00 7.488437e-01 2.511563e-01 0.000000e+00
 0.000000e+00 0.000000e+00 0.000000e+00 9.341397e-01 6.586028e-02
 0.000000e+00 0.000000e+00 0.000000e+00 0.000000e+00 0.000000e+00
<ENDHMM>
~h "s"
<BEGINHMM>
<NUMSTATES> 5
<STATE> 2
<MEAN> 39
 -9.973639e+00 -5.510103e+00 2.094030e+00 -5.310397e+00 2.682182e+00 -7.380562e+00 2.605244e+00 1.236124e+00 2.476762e+00 -2.810161e+00 1.171814e+00 -2.217185e+00 6.418201e+01 -1.094275e+00 -3.305638e-01 -1.786732e-01 -2.249907e-01 2.387600e-01 -3.756121e-01 2.663703e-01 4.088861e-01 4.625175e-02 1.699182e-01 1.896166e-01 1.226403e-01 3.332426e-01 2.501042e-01 -7.586880e-03 -3.717068e-02 1.528011e-02 -1.006274e-01 1.149977e-01 6.601797e-02 -4.600624e-02 6.948204e-02 5.842498e-02 -7.737610e-02 -1.701263e-02 -1.767351e-02
<VARIANCE> 39
 1.766735e+01 1.091837e+01 1.957857e+01 1.690056e+01 1.647217e+01 2.698242e+01 3.143103e+01 2.246631e+01 2.146018e+01 1.880123e+01 2.038516e+01 2.127925e+01 1.510835e+01 1.274529e+00 8.938695e-01 1.219245e+00 1.290139e+00 1.402144e+00 1.810355e+00 1.977581e+00 1.671258e+00 2.015377e+00 1.529215e+00 1.788424e+00 1.686763e+00 4.126550e-01 1.860341e-01 1.807670e-01 1.988891e-01 2.478215e-01 3.257596e-01 3.420065e-01 3.631068e-01 3.477404e-01 4.063962e-01 2.980506e-01 3.515123e-01 3.736510e-01 6.370616e-02
<GCONST> 9.667999e+01
<STATE> 3
<MEAN> 39
 -1.151127e+01 -7.716316e+00 -5.995679e-01 -5.449900e+00 1.450459e+00 -8.092624e+00 7.037190e+00 1.889241e+00 4.445397e+00 -9.914337e-01 -6.484741e-02 -1.306577e+00 6.540767e+01 1.709458e+00 -3.181620e-01 -4.586656e-01 -3.347776e-01 -6.108078e-01 2.889611e-01 -3.039775e-02 -7.055604e-01 -8.043772e-02 4.898037e-01 -9.728662e-01 -1.102566e+00 1.893324e-01 8.515482e-01 -1.596348e-01 -6.771588e-02 -2.778866e-01 -1.153095e-01 2.373185e-01 -4.555955e-01 -3.802152e-01 -2.977701e-01 8.590759e-02 -2.685157e-01 -5.846490e-01 3.614034e-01
<VARIANCE> 39
 9.844069e+00 7.770867e+00 1.279021e+01 1.391444e+01 1.235365e+01 1.936139e+01 2.068029e+01 1.651403e+01 1.467460e+01 1.417871e+01 1.458323e+01 1.631384e+01 3.668340e+00 4.502112e+00 9.831828e-01 1.071398e+00 1.422403e+00 1.396417e+00 1.381312e+00 1.923691e+00 1.966786e+00 1.601246e+00 1.368788e+00 1.738700e+00 2.875799e+00 7.466938e-01 2.095057e-01 2.395261e-01 1.819469e-01 3.541939e-01 2.094339e-01 3.014783e-01 2.925700e-01 2.443232e-01 3.528466e-01 2.716276e-01 2.799659e-01 4.235456e-01 2.668585e-01
<GCONST> 9.368171e+01
<STATE> 4
<MEAN> 39
 1.128612e+00 -1.007931e+01 -2.444272e+00 -9.623303e+00 -1.622019e+00 -5.621869e+00 2.059971e+00 -3.633337e+00 1.025195e+00 1.354814e+00 -5.391561e+00 -1.083804e+01 7.033042e+01 2.625938e+00 -2.350288e+00 -6.571776e-01 -1.824517e+00 -6.553077e-01 1.969279e+00 -1.257942e+00 -4.821967e-01 -5.176542e-01 8.490411e-01 -7.606123e-01 -2.307837e+00 2.293234e+00 -7.180874e-01 -3.921496e-01 1.201037e-01 8.822490e-02 1.946104e-01 3.613483e-01 2.550991e-01 4.563445e-01 2.140591e-01 -2.162295e-01 3.590120e-01 4.578240e-01 -6.217515e-02
<VARIANCE> 39
 7.247924e+01 3.669225e+01 1.683698e+01 2.515221e+01 1.591353e+01 2.754703e+01 1.915463e+01 1.712453e+01 1.135630e+01 1.610099e+01 1.894529e+01 3.154148e+01 2.801093e+01 4.990236e+00 2.987622e+00 1.272425e+00 2.688770e+00 1.270846e+00 2.224355e+00 2.349006e+00 2.309581e+00 2.349563e+00 1.569189e+00 1.503337e+00 3.802320e+00 2.310683e+00 6.787585e-01 5.414099e-01 2.104831e-01 4.897576e-01 2.502978e-01 3.396997e-01 3.556553e-01 3.318751e-01 2.358840e-01 3.057885e-01 1.932432e-01 4.470139e-01 4.666579e-01
<GCONST> 1.092544e+02
<TRANSP> 5
 0.000000e+00 1.000000e+00 0.000000e+00 0.000000e+00 0.000000e+00
 0.000000e+00 8.235772e-01 1.764227e-01 0.000000e+00 0.000000e+00
 0.000000e+00 0.000000e+00 6.338599e-01 3.661400e-01 0.000000e+00
 0.000000e+00 0.000000e+00 0.000000e+00 5.148463e-01 4.851536e-01
 0.000000e+00 0.000000e+00 0.000000e+00 0.000000e+00 0.000000e+00
<ENDHMM>
~h "t"
<BEGINHMM>
<NUMSTATES> 5
<STATE> 2
<MEAN> 39
 9.634964e-01 -7.207232e+00 -5.681798e+00 -6.620617e+00 -1.089520e+00 -2.105463e+00 2.240332e+00 -2.394157e+00 7.052774e+00 -3.979160e-01 -2.263673e+00 -6.339142e+00 6.149273e+01 -7.964758e-01 1.081039e-01 -1.417523e-01 -5.042293e-02 -1.163071e-01 -1.071872e-02 4.971907e-01 2.237069e-01 1.271410e-02 -1.725610e-01 3.595020e-01 5.263122e-01 -6.995825e-01 5.633606e-02 -2.659819e-01 2.062977e-01 -3.040558e-02 -1.679792e-01 -1.933011e-01 -4.413801e-02 2.150513e-02 -2.290697e-01 -7.275508e-02 -4.427882e-02 1.115560e-02 3.297802e-01
<VARIANCE> 39
 1.258955e+01 1.176511e+01 2.281863e+01 1.512144e+01 1.698860e+01 1.594091e+01 2.130201e+01 1.504994e+01 2.082346e+01 2.101093e+01 1.497672e+01 1.783337e+01 1.143294e+01 2.569544e-01 3.692982e-01 7.703901e-01 7.537872e-01 1.020535e+00 1.157602e+00 1.335519e+00 1.076237e+00 1.837385e+00 1.849332e+00 1.544895e+00 1.259127e+00 2.402178e-01 4.067218e-02 1.569770e-01 1.434493e-01 1.722676e-01 2.452692e-01 2.953745e-01 2.501521e-01 3.040845e-01 3.939759e-01 4.201861e-01 3.455413e-01 2.595638e-01 8.267494e-02
<GCONST> 8.543085e+01
<STATE> 3
<MEAN> 39
 -3.729578e+00 -5.324349e+00 -1.670757e+00 -3.124536e+00 -3.466442e-01 -2.484137e+00 4.467093e+00 -2.677097e+00 3.362136e+00 -2.609892e+00 8.119565e-01 -1.255148e+00 5.763078e+01 -2.577722e-01 -2.007284e+00 8.320875e-01 -6.558930e-01 -1.532065e+00 -1.303194e+00 5.759602e-02 -3.316687e-01 -1.262792e+00 -6.186706e-01 5.603902e-01 8.859976e-02 1.970751e+00 3.356178e-01 -3.115543e-01 6.159984e-01 -2.248524e-01 -8.160483e-01 -4.130035e-01 -1.491740e-01 -1.750215e-01 -4.211237e-01 -2.592742e-02 -2.422697e-02 -5.026709e-01 8.838171e-01
<VARIANCE> 39
 9.283957e+00 8.964113e+00 2.783720e+01 1.831085e+01 1.154838e+01 1.570823e+01 1.675844e+01 1.273991e+01 2.123122e+01 1.216861e+01 2.353687e+01 1.543179e+01 7.679236e+00 6.038427e-01 1.569392e+00 1.329208e+00 1.424589e+00 2.478580e+00 2.948377e+00 1.330491e+00 2.581334e+00 2.975749e+00 2.274975e+00 1.816597e+00 2.045888e+00 2.296418e+00 1.734239e-01 2.191356e-01 3.679594e-01 1.633226e-01 4.063531e-01 3.430611e-01 2.911819e-01 3.721128e-01 4.125189e-01 2.908319e-01 3.072959e-01 3.434154e-01 2.376156e-01
<GCONST> 9.816793e+01
<STATE> 4
<MEAN> 39
 -2.966120e+00 -1.323385e+01 1.460852e+00 -6.585809e+00 -8.164141e+00 -8.644630e+00 4.672662e+00 -4.750205e+00 -1.370300e+00 -4.634912e+00 2.345251e+00 -3.080581e+00 6.779006e+01 1.088020e+00 -4.347260e-01 2.840066e+00 -6.363307e-01 -2.786822e+00 -9.181813e-01 -5.252444e-01 -6.414829e-01 -1.830320e+00 2.083332e-01 -3.584542e-01 -1.811657e+00 2.511488e+00 3.338831e-01 8.531099e-01 4.617704e-01 4.310906e-02 2.068675e-01 7.795618e-01 -4.288305e-01 1.602227e-01 7.710844e-02 5.604414e-01 -4.887371e-01 -5.636274e-01 -5.622408e-01
<VARIANCE> 39
 5.553703e+00 1.555023e+01 3.327148e+01 1.643683e+01 2.100730e+01 2.753592e+01 1.399863e+01 2.060566e+01 2.887847e+01 1.789603e+01 1.713518e+01 1.523642e+01 1.329581e+01 3.370472e+00 1.896685e+00 4.780281e+00 1.669466e+00 4.986689e+00 2.558612e+00 2.876035e+00 2.009215e+00 3.049868e+00 1.995408e+00 2.078184e+00 4.888467e+00 3.971766e+00 2.020686e-01 2.124968e-01 8.193033e-01 2.652990e-01 7.700526e-01 6.306124e-01 4.348542e-01 6.206011e-01 5.361804e-01 4.749835e-01 3.354513e-01 3.772480e-01 2.960626e-01
<GCONST> 1.112425e+02
<TRANSP> 5
 0.000000e+00 1.000000e+00 0.000000e+00 0.000000e+00 0.000000e+00
 0.000000e+00 7.765971e-01 2.234029e-01 0.000000e+00 0.000000e+00
 0.000000e+00 0.000000e+00 5.191354e-01 4.808646e-01 0.000000e+00
 0.000000e+00 0.000000e+00 0.000000e+00 5.289618e-01 4.710382e-01
 0.000000e+00 0.000000e+00 0.000000e+00 0.000000e+00 0.000000e+00
<ENDHMM>
~h "y"
<BEGINHMM>
<NUMSTATES> 5
<STATE> 2
<MEAN> 39
 8.119853e+00 1.332341e+00 4.215556e+00 -3.765343e+00 -8.784337e+00 -8.009295e+00 4.451237e+00 -7.940671e-01 5.559971e-01 -6.705812e+00 -8.682045e-01 -3.109701e+00 6.488091e+01 -8.610614e-01 -2.556959e+00 3.056338e+00 -2.499703e-01 -2.074242e+00 5.700861e-01 -6.148082e-01 7.369309e-01 -6.376793e-01 -4.616860e-01 9.964858e-01 -7.831598e-02 1.172152e+00 -2.323286e-01 -1.034784e+00 8.924028e-01 -1.155828e-01 -7.560835e-01 1.294536e-01 -2.742152e-01 2.466068e-04 -3.486087e-01 2.444233e-01 2.534119e-01 -1.185680e-01 5.125775e-01
<VARIANCE> 39
 2.682651e+00 7.868437e+00 9.624486e+00 4.542440e+00 8.498185e+00 1.255431e+01 6.733271e+00 1.007901e+01 1.279317e+01 9.448517e+00 1.152620e+01 8.387572e+00 2.485920e+00 1.351843e-01 1.133373e+00 1.260285e+00 6.914024e-01 9.801824e-01 1.099689e+00 8.118508e-01 1.367024e+00 1.144851e+00 9.602277e-01 1.295529e+00 5.664969e-01 2.793957e-01 3.469218e-02 7.396204e-02 2.071544e-01 1.119714e-01 1.195289e-01 1.791980e-01 1.966189e-01 1.541119e-01 1.464899e-01 1.293826e-01 1.794261e-01 1.357833e-01 1.880840e-02
<GCONST> 6.562148e+01
<STATE> 3
<MEAN> 39
 4.905180e+00 -9.557391e+00 1.624964e+01 -5.160820e+00 -1.778903e+01 -5.762227e+00 1.938093e+00 8.641835e-01 -3.204264e+00 -6.459220e+00 2.859514e+00 -4.214422e+00 7.016426e+01 -7.229242e-01 -3.396928e+00 2.640112e+00 -3.540927e-01 -2.269397e+00 9.216210e-02 -8.260120e-01 3.782086e-01 -1.413995e+00 8.875604e-01 7.731640e-01 -5.473576e-01 1.718438e+00 2.613218e-01 3.722494e-01 -1.003981e+00 1.152372e-01 6.739037e-01 -2.753955e-01 7.915658e-02 -7.228497e-02 1.273977e-01 2.810384e-01 -3.710929e-01 -4.876946e-02 -1.520487e-01
<VARIANCE> 39
 2.661360e+00 1.543940e+01 1.850936e+01 8.645077e+00 1.383033e+01 1.187488e+01 7.767157e+00 1.330226e+01 1.320516e+01 7.659993e+00 8.748619e+00 9.715456e+00 7.147082e+00 3.054913e-01 9.010354e-01 2.593203e+00 7.785136e-01 1.644426e+00 1.304373e+00 1.568867e+00 1.085609e+00 1.078736e+00 9.306427e-01 1.058448e+00 9.685528e-01 1.994891e-01 2.646393e-02 2.045989e-01 2.953337e-01 1.290719e-01 3.272938e-01 1.650984e-01 1.667551e-01 2.067807e-01 2.542190e-01 1.756574e-01 1.956269e-01 1.449558e-01 6.241837e-02
<GCONST> 7.614146e+01
<STATE> 4
<MEAN> 39
 5.256232e+00 -1.593209e+01 1.283290e+01 -4.792280e+00 -1.510897e+01 -7.397835e+00 -8.691847e-01 1.976820e+00 -3.603517e+00 -3.069090e+00 1.696310e-01 -5.954101e+00 7.348879e+01 9.516777e-02 -4.033526e-02 -8.827067e-01 9.664440e-02 1.045668e+00 -1.212995e-01 -3.401912e-01 6.986378e-02 4.167069e-01 1.687856e-01 -5.832884e-01 -9.614259e-02 -2.366978e-02 -3.115688e-02 5.188352e-01 -1.184548e-01 6.675972e-02 2.228751e-01 6.124206e-02 1.020013e-01 -1.365466e-01 1.741662e-01 -1.358648e-01 -2.190553e-02 5.030431e-02 -2.865312e-01
<VARIANCE> 39
 2.967798e+00 1.199346e+01 2.797516e+01 1.193689e+01 2.554842e+01 1.319481e+01 2.236710e+01 1.011487e+01 1.550494e+01 1.118400e+01 1.463408e+01 1.105829e+01 7.114568e+00 1.839844e-01 1.858358e+00 1.305207e+00 6.526316e-01 1.219308e+00 7.886099e-01 6.968970e-01 8.433678e-01 8.139129e-01 6.533328e-01 6.851959e-01 7.518959e-01 5.347158e-01 7.110395e-02 1.064970e-01 3.549007e-01 1.277701e-01 2.903985e-01 1.356677e-01 1.528197e-01 1.435879e-01 1.773703e-01 1.133505e-01 1.520086e-01 1.357810e-01 2.962284e-02
<GCONST> 7.444502e+01
<TRANSP> 5
 0.000000e+00 1.000000e+00 0.000000e+00 0.000000e+00 0.000000e+00
 0.000000e+00 4.994244e-01 5.005756e-01 0.000000e+00 0.000000e+00
 0.000000e+00 0.000000e+00 6.319000e-01 3.681000e-01 0.000000e+00
 0.000000e+00 0.000000e+00 0.000000e+00 8.822137e-01 1.177863e-01
 0.000000e+00 0.000000e+00 0.000000e+00 0.000000e+00 0.000000e+00
<ENDHMM>
~h "aa"
<BEGINHMM>
<NUMSTATES> 5
<STATE> 2
<MEAN> 39
 3.976385e+00 -1.361030e+01 -4.275283e+00 -1.036711e+01 1.380207e+00 3.965737e+00 1.917100e+00 -4.439149e+00 -3.034060e+00 -3.278777e+00 -2.544855e+00 -1.004847e+01 6.905003e+01 8.443107e-01 -1.825077e+00 -3.994984e-01 -1.222627e+00 9.171961e-02 1.301898e+00 -6.628168e-01 4.176723e-02 -6.638460e-01 -1.567466e-01 -1.362719e-02 -1.052422e+00 1.703799e+00 -1.659278e-01 -6.683744e-03 1.967666e-01 1.764802e-01 -1.293927e-01 -1.059607e-01 5.106259e-02 2.154290e-01 2.486579e-01 7.165675e-02 9.181849e-02 1.541545e-01 -5.515750e-02
<VARIANCE> 39
 3.038002e+01 4.170585e+01 2.700080e+01 2.791727e+01 1.829182e+01 2.818218e+01 2.109895e+01 2.852180e+01 2.476218e+01 2.003655e+01 2.038605e+01 3.157235e+01 4.694704e+01 2.187935e+00 2.751543e+00 2.382674e+00 2.601263e+00 1.478077e+00 2.143684e+00 1.468819e+00 2.470606e+00 2.433891e+00 1.528075e+00 1.347932e+00 2.234815e+00 1.977257e+00 3.432350e-01 5.789981e-01 3.708088e-01 4.776866e-01 2.396996e-01 3.971403e-01 2.741018e-01 4.161096e-01 3.658550e-01 2.881781e-01 1.957052e-01 4.477892e-01 3.839964e-01
<GCONST> 1.102633e+02
<STATE> 3
<MEAN> 39
 7.921250e+00 -2.060817e+01 -6.191033e+00 -1.410545e+01 -1.668826e-01 4.902770e+00 6.543136e-01 -4.925510e-01 -1.943826e+00 -1.423292e+00 -5.070740e+00 -1.345961e+01 7.562258e+01 -4.473132e-02 -6.271649e-02 1.201515e-01 2.572640e-01 -6.175621e-02 -3.999543e-01 -3.538348e-01 3.749914e-01 5.355078e-01 -3.122565e-02 -2.630427e-01 1.018322e-01 3.855750e-04 -2.805745e-02 3.717193e-01 7.887951e-02 1.596305e-01 -3.149064e-02 -3.048159e-01 -1.505064e-02 -5.467526e-02 7.370099e-02 4.582534e-02 2.531816e-02 1.301059e-01 -1.883214e-01
<VARIANCE> 39
 1.018306e+01 1.995573e+01 1.971192e+01 1.519672e+01 1.599557e+01 2.641301e+01 1.560102e+01 1.951354e+01 1.819062e+01 1.210147e+01 2.096483e+01 1.254506e+01 1.180120e+01 3.906731e-01 1.109505e+00 7.488511e-01 9.447767e-01 1.045116e+00 1.837147e+00 1.064813e+00 8.612186e-01 1.087877e+00 8.910012e-01 8.474808e-01 6.828372e-01 4.376367e-01 3.819579e-02 1.679547e-01 1.217457e-01 1.674644e-01 1.624652e-01 1.662205e-01 1.744832e-01 1.731568e-01 1.593488e-01 1.484797e-01 1.804738e-01 1.394643e-01 5.948850e-02
<GCONST> 7.957101e+01
<STATE> 4
<MEAN> 39
 6.180951e+00 -1.241633e+01 -3.487703e+00 -9.709135e+00 -1.244517e+00 -2.454177e+00 -1.652695e+00 -1.074460e-01 2.847305e+00 -8.360626e-01 -4.580539e+00 -9.879951e+00 7.045660e+01 -6.468078e-01 1.754664e+00 3.110138e-01 8.915044e-01 1.915697e-01 -4.667022e-01 1.220055e-01 -6.901692e-01 3.738965e-01 -1.330467e-01 7.131815e-01 7.351055e-01 -1.196078e+00 -1.611942e-01 -1.018467e-01 -2.443444e-01 3.357910e-02 1.383360e-01 3.693032e-01 3.170975e-01 -1.190520e-01 -9.289728e-02 -1.680693e-01 9.020212e-02 -6.805342e-02 -1.173651e-01
<VARIANCE> 39
 3.106994e+01 4.968816e+01 2.659676e+01 1.725164e+01 2.339905e+01 4.503479e+01 3.067325e+01 2.681386e+01 2.527758e+01 2.127488e+01 2.616168e+01 1.871155e+01 2.725332e+01 1.016181e+00 2.170090e+00 1.372390e+00 1.332553e+00 1.804847e+00 3.120980e+00 2.696823e+00 2.005257e+00 1.647040e+00 1.686957e+00 1.260165e+00 1.447422e+00 1.244944e+00 1.702110e-01 3.912439e-01 2.784305e-01 3.157758e-01 3.947504e-01 5.733349e-01 5.050588e-01 4.552165e-01 3.766318e-01 3.705361e-01 2.874376e-01 3.060879e-01 1.349059e-01
<GCONST> 1.067600e+02
<TRANSP> 5
 0.000000e+00 1.000000e+00 0.000000e+00 0.000000e+00 0.000000e+00
 0.000000e+00 6.373792e-01 3.626208e-01 0.000000e+00 0.000000e+00
 0.000000e+00 0.000000e+00 8.372303e-01 1.627697e-01 0.000000e+00
 0.000000e+00 0.000000e+00 0.000000e+00 6.994493e-01 3.005507e-01
 0.000000e+00 0.000000e+00 0.000000e+00 0.000000e+00 0.000000e+00
<ENDHMM>
~h "cx"
<BEGINHMM>
<NUMSTATES> 5
<STATE> 2
<MEAN> 39
 -1.551996e+00 -9.953722e-01 3.499731e+00 -2.348344e+00 -9.538769e-01 -3.347974e+00 2.943565e+00 -3.557252e+00 1.407217e+00 -3.515386e+00 2.676540e-02 -2.086340e+00 5.945778e+01 -8.057505e-01 -4.515282e-01 -5.887694e-01 1.327461e-01 4.578415e-02 -8.366555e-03 1.449567e-01 -1.980446e-01 1.778774e-01 2.220120e-01 5.069068e-01 1.151217e-01 -7.941943e-01 -6.279565e-03 -4.829744e-01 3.367893e-02 -4.303086e-01 -4.120628e-01 1.006864e-01 -2.771596e-01 2.763422e-02 1.072538e-02 -8.738508e-02 -2.133875e-02 1.029216e-01 3.383306e-01
<VARIANCE> 39
 2.499709e+01 1.746817e+01 2.279915e+01 9.283601e+00 1.845222e+01 1.585495e+01 1.872352e+01 3.143680e+01 1.713425e+01 1.429049e+01 1.657815e+01 1.431947e+01 9.717546e+00 8.743166e-01 1.072013e+00 6.288630e-01 1.192183e+00 1.592591e+00 1.260958e+00 2.751737e+00 1.592111e+00 1.658886e+00 1.848783e+00 1.329486e+00 1.659116e+00 4.959663e-01 6.377800e-02 1.809776e-01 2.276816e-01 2.983951e-01 3.051013e-01 3.461502e-01 4.566786e-01 2.923557e-01 3.734210e-01 4.112696e-01 2.994311e-01 2.485625e-01 8.403607e-02
<GCONST> 9.308384e+01
<STATE> 3
<MEAN> 39
 -3.319575e+00 -2.939265e+00 3.259605e+00 -1.881449e+00 -4.177147e-01 -4.199946e+00 2.554538e+00 -2.819544e+00 2.637953e+00 -2.138511e+00 1.584987e+00 -2.189876e+00 5.901777e+01 -7.211558e-01 -1.306432e+00 -2.684229e-01 -9.523321e-01 -8.269241e-01 5.151118e-01 -9.808913e-02 -1.239304e-01 1.301276e-01 -8.110195e-03 3.301724e-01 3.486279e-01 -1.728651e-01 -1.999392e-01 -4.961698e-01 4.001594e-01 -6.417147e-01 -3.807910e-01 2.288929e-01 -3.854485e-01 5.743538e-02 -1.159112e-02 -1.970343e-01 -1.635585e-01 1.465910e-02 6.695506e-01
<VARIANCE> 39
 1.765015e+01 1.417169e+01 2.922253e+01 1.440469e+01 2.877873e+01 1.870664e+01 2.314219e+01 3.398868e+01 1.406564e+01 1.452344e+01 2.966326e+01 2.862651e+01 8.145123e+00 1.027016e+00 2.093136e+00 1.406253e+00 1.459879e+00 1.450780e+00 1.647781e+00 1.613047e+00 1.230435e+00 1.424307e+00 1.885044e+00 4.741084e-01 9.524452e-01 9.930930e-01 6.396363e-02 1.005243e-01 1.878125e-01 2.463788e-01 4.152226e-01 3.617972e-01 4.337051e-01 4.948454e-01 3.087892e-01 4.913699e-01 2.693131e-01 4.314115e-01 9.053175e-02
<GCONST> 9.559156e+01
<STATE> 4
<MEAN> 39
 -3.632782e+00 -2.903610e+00 2.073229e+00 -3.191200e+00 -1.757342e+00 -4.438933e+00 3.242132e+00 -1.884499e+00 3.390902e+00 -2.079910e+00 1.604306e+00 -2.378789e+00 5.824363e+01 -8.271725e-01 -2.073278e+00 4.148968e-01 -1.709829e+00 -1.072871e+00 1.039133e+00 -6.825302e-01 -1.158357e-02 2.016902e-01 -1.327932e-01 1.330314e-01 2.512784e-01 8.617383e-01 -4.616594e-01 -1.225766e-01 5.713177e-01 -4.048709e-01 7.939152e-02 2.708501e-01 -3.782722e-01 1.010212e-01 1.801903e-02 -1.963182e-01 -9.224188e-02 -9.477613e-02 7.061297e-01
<VARIANCE> 39
 1.227602e+01 9.962658e+00 2.814350e+01 9.145528e+00 1.610065e+01 1.966836e+01 2.071105e+01 3.460914e+01 1.738869e+01 1.511824e+01 2.284058e+01 1.850127e+01 4.682935e+00 8.229451e-01 2.663769e+00 1.783099e+00 1.704710e+00 1.276400e+00 1.677638e+00 1.930862e+00 1.813769e+00 1.299818e+00 1.458186e+00 6.839774e-01 1.002445e+00 1.628668e+00 9.097514e-02 1.487071e-01 1.865838e-01 2.225101e-01 4.085550e-01 2.416832e-01 4.778802e-01 5.097712e-01 2.840614e-01 3.615814e-01 2.900232e-01 3.182697e-01 5.682375e-02
<GCONST> 9.345186e+01
<TRANSP> 5
 0.000000e+00 1.000000e+00 0.000000e+00 0.000000e+00 0.000000e+00
 0.000000e+00 3.746513e-01 6.253487e-01 0.000000e+00 0.000000e+00
 0.000000e+00 0.000000e+00 4.223389e-03 9.957766e-01 0.000000e+00
 0.000000e+00 0.000000e+00 0.000000e+00 1.308496e-03 9.986915e-01
 0.000000e+00 0.000000e+00 0.000000e+00 0.000000e+00 0.000000e+00
<ENDHMM>
~h "ee"
<BEGINHMM>
<NUMSTATES> 5
<STATE> 2
<MEAN> 39
 -3.586345e+00 -6.390471e+00 5.310011e+00 -5.309525e+00 -6.356326e+00 -5.459885e+00 1.880588e+00 -3.172497e+00 -1.042141e+00 -1.762688e+00 2.003293e+00 -3.824676e+00 5.990134e+01 7.609953e-01 -1.266466e+00 2.982070e+00 -8.481246e-01 -2.677328e+00 -8.826851e-01 -7.876399e-01 1.798435e-01 -1.711781e+00 2.031632e-01 2.583510e-01 -1.337698e+00 1.895243e+00 4.345540e-01 -2.781724e-01 5.185808e-01 -2.146012e-01 -5.827562e-01 -2.559810e-01 -3.184260e-01 4.059614e-02 -3.743476e-01 -6.323800e-02 6.260266e-02 -1.334280e-01 6.312793e-01
<VARIANCE> 39
 1.235070e+01 2.339372e+01 6.148973e+01 1.640306e+01 4.486247e+01 2.612411e+01 2.188107e+01 1.875956e+01 2.886024e+01 1.537098e+01 1.488548e+01 2.492368e+01 2.087794e+01 2.045086e+00 2.163112e+00 4.626022e+00 2.318501e+00 5.706261e+00 2.234984e+00 2.616362e+00 1.538543e+00 3.616554e+00 2.224144e+00 1.941593e+00 2.393400e+00 3.852923e+00 1.444851e-01 3.058470e-01 9.546105e-01 2.668823e-01 9.149220e-01 4.875735e-01 4.849719e-01 2.558446e-01 5.361915e-01 4.429221e-01 3.882617e-01 4.945702e-01 3.684645e-01
<GCONST> 1.136944e+02
<STATE> 3
<MEAN> 39
 2.860578e+00 -1.267322e+01 1.809689e+01 -9.610065e+00 -1.932479e+01 -9.729545e+00 -2.135190e+00 -1.328615e+00 -8.838961e+00 -1.981469e+00 3.634500e+00 -8.799508e+00 7.118882e+01 7.722327e-01 -9.215685e-01 1.542494e+00 -4.613170e-01 -1.169209e+00 5.867001e-02 -7.075065e-01 1.451490e-01 -8.121963e-01 6.502602e-02 2.875792e-01 8.971114e-03 1.554890e+00 -2.072086e-01 2.308317e-01 -5.037702e-01 2.093225e-01 5.003900e-01 1.499982e-01 1.165479e-01 -7.367949e-03 3.435593e-01 2.959081e-02 -7.709396e-02 2.884035e-01 -3.620782e-01
<VARIANCE> 39
 5.102899e+00 1.621244e+01 2.222688e+01 1.031369e+01 9.400509e+00 1.235797e+01 1.566732e+01 9.743245e+00 1.352407e+01 8.443533e+00 1.238960e+01 6.598733e+00 1.467267e+01 7.464888e-01 1.943945e+00 2.046956e+00 9.197140e-01 1.961366e+00 1.149772e+00 1.605611e+00 1.144111e+00 1.334369e+00 1.021925e+00 1.008897e+00 9.915185e-01 1.368921e+00 1.540950e-01 4.004962e-01 4.391061e-01 2.068206e-01 4.542998e-01 2.394148e-01 3.294449e-01 2.183794e-01 2.791529e-01 2.075904e-01 1.713752e-01 2.169754e-01 3.279074e-01
<GCONST> 8.889957e+01
<STATE> 4
<MEAN> 39
 5.307558e+00 -1.423257e+01 2.006640e+01 -9.339162e+00 -2.167115e+01 -9.907061e+00 -4.028953e+00 -2.450415e+00 -9.728273e+00 -1.692028e-01 3.707458e+00 -6.927019e+00 7.496437e+01 1.883671e-01 3.936250e-01 -4.955356e-01 2.981276e-01 -1.016703e-02 -4.074989e-01 3.856813e-01 -2.701446e-01 -4.235290e-02 4.052385e-01 -6.456573e-02 -1.204654e-01 -2.238361e-01 -4.457323e-02 1.711927e-01 -1.156047e-01 6.386466e-02 1.238858e-01 -4.147657e-02 1.199847e-01 -3.744698e-02 -9.854171e-03 1.858601e-02 -2.334988e-02 -1.216470e-01 -1.757950e-01
<VARIANCE> 39
 2.065645e+00 1.280805e+01 1.007616e+01 1.303463e+01 1.102777e+01 9.198686e+00 9.163831e+00 7.873836e+00 1.269547e+01 7.535446e+00 8.960468e+00 5.709239e+00 4.958193e+00 1.416765e-01 3.663743e-01 4.989103e-01 6.297818e-01 6.407058e-01 5.874566e-01 6.477308e-01 5.824667e-01 7.159782e-01 6.323594e-01 4.439342e-01 5.080211e-01 1.764202e-01 2.462894e-02 8.881813e-02 9.486999e-02 1.261764e-01 1.173258e-01 1.152584e-01 1.288095e-01 1.265464e-01 1.410536e-01 1.347685e-01 8.622470e-02 6.014499e-02 3.264362e-02
<GCONST> 5.712411e+01
<TRANSP> 5
 0.000000e+00 1.000000e+00 0.000000e+00 0.000000e+00 0.000000e+00
 0.000000e+00 7.489589e-01 2.510411e-01 0.000000e+00 0.000000e+00
 0.000000e+00 0.000000e+00 8.120497e-01 1.879503e-01 0.000000e+00
 0.000000e+00 0.000000e+00 0.000000e+00 8.922446e-01 1.077554e-01
 0.000000e+00 0.000000e+00 0.000000e+00 0.000000e+00 0.000000e+00
<ENDHMM>
~h "ii"
<BEGINHMM>
<NUMSTATES> 5
<STATE> 2
<MEAN> 39
 4.371016e+00 -1.118273e+01 2.016560e+01 -9.108216e+00 -2.021611e+01 -5.662370e+00 -3.373657e+00 -7.082377e+00 -1.067994e+01 9.383981e-01 -1.194460e+00 -1.418359e+01 7.421100e+01 1.102113e+00 2.157256e-01 2.816901e+00 -1.066837e+00 -1.730788e+00 1.284195e+00 -1.707134e+00 -4.329443e-01 -1.100541e+00 1.804550e+00 -1.653854e+00 -2.152259e+00 9.135632e-01 -6.323953e-01 2.291601e-01 -1.265865e+00 2.811462e-01 1.046917e+00 5.966501e-02 6.379341e-01 1.391556e-01 8.154005e-01 -1.506080e-01 1.700164e-02 8.836492e-01 -8.563114e-01
<VARIANCE> 39
 2.020798e+00 7.884542e+00 1.470239e+01 1.180009e+01 7.020977e+00 9.327957e+00 1.121961e+01 6.476262e+00 7.744791e+00 1.065695e+01 1.232349e+01 7.932533e+00 5.617466e+00 1.200255e+00 7.153806e-01 5.215752e+00 1.017438e+00 2.902298e+00 1.592267e+00 2.605436e+00 1.392757e+00 1.899851e+00 9.625223e-01 1.218336e+00 2.178602e+00 8.750703e-01 4.744806e-02 1.012964e-01 3.081054e-01 1.417691e-01 1.488145e-01 3.692028e-01 2.524868e-01 1.977149e-01 1.286942e-01 2.184755e-01 2.118627e-01 1.466631e-01 9.209934e-02
<GCONST> 8.077826e+01
<STATE> 3
<MEAN> 39
 4.193439e+00 -8.148037e+00 2.033204e+01 -1.028534e+01 -1.978835e+01 -1.983023e+00 -1.413313e+00 -6.737660e+00 -6.328679e+00 3.271940e+00 -4.460339e+00 -1.308667e+01 7.204810e+01 1.885564e-02 3.994101e-01 -3.405577e-01 1.368937e-01 1.229666e-01 6.062875e-02 6.060501e-01 3.860195e-01 4.931921e-01 -2.774147e-01 2.217259e-01 5.896875e-01 -3.992985e-01 2.622570e-02 5.689612e-02 -1.966804e-01 1.194429e-01 1.221340e-01 -1.650903e-01 9.010750e-02 9.019925e-02 -1.227198e-02 -2.189749e-01 1.726960e-01 1.298623e-01 -6.621990e-02
<VARIANCE> 39
 2.756549e+00 8.821123e+00 1.506185e+01 1.168544e+01 1.100827e+01 1.228628e+01 1.855705e+01 1.104883e+01 1.488265e+01 1.349335e+01 1.573398e+01 1.118226e+01 4.877347e+00 1.056103e-01 3.057836e-01 5.145425e-01 5.395209e-01 5.398907e-01 8.380289e-01 5.604207e-01 7.167385e-01 9.082155e-01 8.942980e-01 9.461566e-01 4.605925e-01 1.000720e-01 2.691804e-02 8.523893e-02 1.396402e-01 9.434246e-02 1.432790e-01 1.227253e-01 1.142127e-01 1.107222e-01 1.772844e-01 1.134437e-01 1.270512e-01 1.114158e-01 2.978705e-02
<GCONST> 6.207046e+01
<STATE> 4
<MEAN> 39
 6.043371e+00 -1.416636e+00 1.183739e+01 -7.038761e+00 -1.430999e+01 -4.667049e+00 3.938039e+00 -3.522589e+00 -3.359974e+00 -2.629770e+00 -1.014290e+00 -7.442994e+00 6.685233e+01 3.931904e-01 1.478287e+00 -1.670941e+00 5.468054e-01 1.518123e+00 -1.889028e-01 3.923008e-01 -1.072749e-01 8.437568e-01 -5.956773e-01 -2.558791e-01 5.915953e-01 -9.208350e-01 -6.560406e-02 -5.101199e-02 1.762615e-01 -6.314080e-02 -4.720894e-02 1.735198e-01 -1.487467e-01 -1.320217e-01 1.411096e-01 1.806017e-01 -2.213333e-01 -8.194751e-02 4.381458e-02
<VARIANCE> 39
 2.139941e+00 1.402245e+01 1.561688e+01 1.173906e+01 2.314182e+01 1.257557e+01 1.447052e+01 1.305383e+01 1.098083e+01 1.776820e+01 1.942781e+01 9.079532e+00 4.625619e+00 1.410576e-01 6.297110e-01 1.058869e+00 8.385772e-01 1.188290e+00 1.319428e+00 1.014722e+00 1.235038e+00 9.323844e-01 1.219455e+00 1.339552e+00 8.867677e-01 1.584190e-01 2.298274e-02 1.502457e-01 2.154638e-01 1.731157e-01 2.779530e-01 2.677774e-01 1.866452e-01 2.357858e-01 2.081118e-01 2.094655e-01 2.536107e-01 1.901120e-01 3.382023e-02
<GCONST> 7.554577e+01
<TRANSP> 5
 0.000000e+00 1.000000e+00 0.000000e+00 0.000000e+00 0.000000e+00
 0.000000e+00 6.924205e-01 3.075795e-01 0.000000e+00 0.000000e+00
 0.000000e+00 0.000000e+00 9.071365e-01 9.286350e-02 0.000000e+00
 0.000000e+00 0.000000e+00 0.000000e+00 8.289209e-01 1.710791e-01
 0.000000e+00 0.000000e+00 0.000000e+00 0.000000e+00 0.000000e+00
<ENDHMM>
~h "sh"
<BEGINHMM>
<NUMSTATES> 5
<STATE> 2
<MEAN> 39
 -1.038229e+01 -1.039482e+01 7.551520e+00 -8.787342e-01 -7.437049e+00 -1.021599e+00 5.153944e-01 -7.432380e+00 7.893328e+00 -2.344543e+00 1.070201e+00 -3.570511e+00 6.690223e+01 -8.945273e-01 -8.428780e-01 -1.423732e-01 3.381970e-01 -3.780753e-01 -4.331264e-01 1.670881e-01 -9.451629e-02 5.563024e-01 3.273283e-01 3.077291e-01 -6.789802e-02 3.093223e-01 4.716448e-01 1.317265e-01 -6.866200e-02 -1.966436e-02 4.857609e-02 -2.587895e-01 -4.235361e-02 2.258338e-01 -2.079544e-01 -9.353399e-02 2.213725e-02 -9.615385e-04 -8.182581e-02
<VARIANCE> 39
 2.675949e+01 2.084660e+01 1.844507e+01 2.031640e+01 1.852067e+01 4.111811e+01 2.958188e+01 2.621047e+01 2.229270e+01 2.568283e+01 2.426486e+01 1.579698e+01 1.206001e+01 2.353654e+00 9.700966e-01 1.021106e+00 1.658097e+00 1.704267e+00 2.487793e+00 2.356496e+00 2.142421e+00 1.796697e+00 1.725592e+00 2.074084e+00 1.195419e+00 4.528647e-01 2.736368e-01 2.191799e-01 2.142378e-01 2.666314e-01 3.722594e-01 4.316970e-01 5.322032e-01 3.366819e-01 3.869529e-01 4.228630e-01 4.360498e-01 2.611839e-01 6.244115e-02
<GCONST> 1.016880e+02
<STATE> 3
<MEAN> 39
 -7.889272e+00 -1.163699e+01 7.163381e+00 1.347237e+00 -8.103556e+00 -6.466226e+00 1.286656e-01 -4.708714e+00 8.438972e+00 -2.899978e+00 1.876818e+00 -4.354885e+00 6.616884e+01 3.788729e+00 1.251274e+00 1.175416e-01 -3.530218e-01 -4.553147e-01 -1.369146e+00 -1.133836e+00 2.462908e-01 -2.044537e+00 -1.218902e+00 -5.936389e-01 -7.333422e-01 3.483196e-01 6.869481e-01 -4.140456e-02 1.743361e-01 -5.888271e-01 -4.293757e-01 1.255842e-01 -4.452387e-01 -1.318852e-01 -6.959531e-01 -1.078049e-01 -8.788519e-03 -1.312057e-01 6.843603e-01
<VARIANCE> 39
 1.535246e+01 1.375932e+01 8.877821e+00 1.058194e+01 1.756650e+01 2.008267e+01 1.825313e+01 1.394558e+01 2.077301e+01 1.987179e+01 1.777129e+01 1.280014e+01 5.487825e+00 1.715990e+00 8.387358e-01 6.171018e-01 1.626978e+00 1.482869e+00 1.535430e+00 1.000892e+00 1.229055e+00 2.260995e+00 1.718600e+00 1.075789e+00 1.272793e+00 1.279134e+00 3.517173e-01 3.799503e-01 1.119477e-01 1.742878e-01 2.080073e-01 1.925896e-01 2.254611e-01 2.047383e-01 4.155872e-01 4.071504e-01 2.500883e-01 2.630430e-01 8.829433e-02
<GCONST> 9.027911e+01
<STATE> 4
<MEAN> 39
 6.157197e+00 -1.076995e+01 8.949053e+00 -4.511086e+00 -1.383412e+01 -9.460983e+00 -5.947573e+00 -3.780138e+00 -7.136425e-01 -5.773000e+00 1.863128e+00 -6.501241e+00 7.285947e+01 1.827486e+00 -8.577575e-01 1.076889e+00 -1.167121e+00 -9.649639e-01 2.164317e-01 -1.422701e+00 7.461064e-01 -8.189824e-01 -1.918547e-01 8.546240e-02 -2.383812e-01 1.300310e+00 -1.042133e+00 8.232178e-02 -7.249036e-02 3.452498e-01 5.007489e-01 4.587891e-01 5.646710e-01 8.477457e-02 9.301324e-01 1.539021e-01 -1.393720e-01 2.224901e-01 -5.852264e-01
<VARIANCE> 39
 2.107652e+00 1.765174e+01 2.460139e+01 7.386468e+00 1.812142e+01 6.881228e+00 1.729603e+01 8.962306e+00 1.221621e+01 1.136309e+01 7.195902e+00 8.193494e+00 6.110006e+00 3.464247e+00 1.309919e+00 1.250256e+00 1.633811e+00 2.095464e+00 1.474024e+00 1.856821e+00 8.789564e-01 3.931687e+00 1.401043e+00 9.668679e-01 7.375394e-01 1.642116e+00 1.747798e-01 7.413239e-01 3.496771e-01 2.315937e-01 2.867015e-01 2.033146e-01 3.219505e-01 1.773896e-01 2.535169e-01 2.757175e-01 1.985657e-01 8.707160e-02 2.557323e-01
<GCONST> 8.854974e+01
<TRANSP> 5
 0.000000e+00 1.000000e+00 0.000000e+00 0.000000e+00 0.000000e+00
 0.000000e+00 8.851393e-01 1.148606e-01 0.000000e+00 0.000000e+00
 0.000000e+00 0.000000e+00 6.608988e-01 3.391012e-01 0.000000e+00
 0.000000e+00 0.000000e+00 0.000000e+00 7.163526e-01 2.836474e-01
 0.000000e+00 0.000000e+00 0.000000e+00 0.000000e+00 0.000000e+00
<ENDHMM>
~h "sp"
<BEGINHMM>
<NUMSTATES> 3
<STATE> 2
~s "silst"
<TRANSP> 3
 0.000000e+00 1.816787e-01 8.183212e-01
 0.000000e+00 8.534872e-01 1.465128e-01
 0.000000e+00 0.000000e+00 0.000000e+00
<ENDHMM>
~h "uu"
<BEGINHMM>
<NUMSTATES> 5
<STATE> 2
<MEAN> 39
 6.927829e+00 -1.328374e+01 7.087709e+00 -1.015976e+01 -6.632885e+00 -4.701522e-01 -1.201652e+01 -3.829381e+00 4.125042e+00 -8.771144e-01 -4.634070e-01 -9.330823e+00 7.351369e+01 3.847268e-02 -3.559700e-02 -2.939916e-01 -1.348487e+00 -9.265851e-02 1.610794e+00 1.233740e-01 -2.912426e-01 2.604744e-02 3.876004e-01 1.949589e-01 2.630752e-01 1.277040e-01 1.212388e-01 9.673142e-01 -5.740272e-01 3.727448e-01 9.079746e-02 -1.672495e-01 9.795039e-01 -3.593132e-01 -2.358633e-01 -1.447962e-01 -1.011445e-01 3.459897e-01 -5.252886e-01
<VARIANCE> 39
 1.770975e+00 8.980050e+00 2.674992e+01 2.284799e+01 3.492354e+01 3.466237e+01 2.012184e+01 1.218908e+01 1.374772e+01 2.131584e+01 1.382650e+01 1.047093e+01 4.569951e+00 1.843133e-01 4.356087e+00 1.232920e+00 2.803450e+00 1.106436e+00 1.228197e+00 4.261321e+00 1.776176e+00 1.596494e+00 1.424318e+00 1.477160e+00 6.814970e-01 1.722865e+00 4.795340e-02 1.497868e-01 1.463941e-01 1.984740e-01 2.042306e-01 1.459108e-01 2.809989e-01 1.991689e-01 2.063965e-01 2.418921e-01 1.545820e-01 1.493528e-01 5.929317e-02
<GCONST> 8.589704e+01
<STATE> 3
<MEAN> 39
 8.561534e+00 -7.533654e+00 1.107212e+00 -1.598284e+01 -5.198650e+00 5.957790e+00 -7.036402e+00 -7.775060e+00 8.848283e-01 -1.549235e+00 1.040373e+00 -4.228621e+00 7.162998e+01 3.781149e-01 1.854618e+00 -9.456069e-01 -4.422231e-01 1.294901e-01 -1.828410e-01 1.595535e+00 5.165636e-01 -6.847909e-01 -1.468358e+00 -1.615268e-01 1.345560e+00 -8.148347e-01 -4.499957e-03 1.728608e-02 8.019345e-02 2.810616e-01 -7.293582e-02 -5.464745e-01 3.478604e-02 4.031819e-01 6.645115e-02 -1.502037e-01 -1.461003e-01 -1.848594e-01 -3.803663e-02
<VARIANCE> 39
 2.538265e+00 1.158592e+01 2.572651e+01 4.566563e+01 1.688787e+01 4.300758e+01 1.847713e+01 1.747396e+01 1.706221e+01 2.746305e+01 1.271332e+01 1.791601e+01 3.601867e+00 6.847151e-02 4.910368e-01 5.470889e-01 1.356245e+00 7.642646e-01 1.771450e+00 1.021588e+00 1.791941e+00 9.119084e-01 1.371784e+00 1.085206e+00 1.131540e+00 2.360440e-01 1.102125e-02 9.299064e-02 7.600393e-02 1.235694e-01 9.894217e-02 1.166211e-01 1.621383e-01 2.449401e-01 2.119803e-01 3.729495e-01 1.744595e-01 3.208261e-01 1.747641e-02
<GCONST> 7.484760e+01
<STATE> 4
<MEAN> 39
 8.658175e+00 1.903395e+00 6.089916e-02 -1.230485e+01 -6.216035e+00 -3.377429e+00 6.255912e-01 -1.982565e+00 -1.130440e+00 -5.940743e+00 -8.977281e-01 -4.030039e+00 6.593787e+01 -3.230861e-01 5.080075e-01 1.628304e-01 7.884036e-01 1.382857e-01 -5.221589e-01 3.923528e-01 -2.812335e-02 3.250849e-02 1.545433e-01 -5.901870e-02 -8.985259e-02 -5.814440e-01 -8.288362e-02 -1.503071e-01 4.740049e-02 1.577483e-02 3.145804e-02 9.390255e-02 -1.132971e-01 -1.186796e-01 4.139640e-02 1.380476e-01 6.899258e-02 9.323427e-03 2.541282e-02
<VARIANCE> 39
 9.196253e+00 1.080231e+01 1.579866e+01 3.068759e+01 1.568654e+01 2.114229e+01 1.562305e+01 1.905310e+01 2.083488e+01 1.321920e+01 1.438721e+01 1.367430e+01 9.026447e+00 3.479579e-01 7.411488e-01 9.251059e-01 9.117562e-01 1.005955e+00 1.633707e+00 1.505040e+00 1.767646e+00 1.552030e+00 1.150601e+00 1.303753e+00 1.193817e+00 1.435561e-01 2.201538e-02 5.658627e-02 1.021989e-01 1.752899e-01 1.440992e-01 2.070409e-01 2.407308e-01 2.936617e-01 2.764212e-01 2.518589e-01 2.547935e-01 2.224964e-01 2.123391e-02
<GCONST> 7.983226e+01
<TRANSP> 5
 0.000000e+00 1.000000e+00 0.000000e+00 0.000000e+00 0.000000e+00
 0.000000e+00 6.529303e-01 3.470697e-01 0.000000e+00 0.000000e+00
 0.000000e+00 0.000000e+00 6.988766e-01 3.011234e-01 0.000000e+00
 0.000000e+00 0.000000e+00 0.000000e+00 8.805723e-01 1.194277e-01
 0.000000e+00 0.000000e+00 0.000000e+00 0.000000e+00 0.000000e+00
<ENDHMM>
~h "sil"
<BEGINHMM>
<NUMSTATES> 5
<STATE> 2
<MEAN> 39
 -5.426494e+00 -5.190011e+00 -1.489360e-01 -5.661488e-01 1.327982e+00 -2.835597e+00 4.688614e+00 -1.700563e+00 3.666488e+00 -2.106076e+00 7.277570e-01 -1.540371e+00 5.685250e+01 -2.359168e-01 1.566732e-01 1.577688e-01 5.423918e-02 2.164144e-02 1.736527e-01 7.561658e-02 -1.552273e-01 -8.519837e-02 1.031003e-01 1.309180e-01 2.089735e-02 -1.874453e-01 2.177884e-02 -4.232157e-02 4.339439e-02 7.165707e-03 -5.633732e-02 -3.319184e-02 -9.241641e-03 -1.397255e-02 -6.122739e-02 -4.637558e-02 4.243367e-02 1.101717e-01 2.366214e-02
<VARIANCE> 39
 3.666989e+00 7.786765e+00 6.369618e+00 8.778358e+00 1.142864e+01 1.046349e+01 1.643988e+01 1.372100e+01 1.682668e+01 1.430244e+01 1.329252e+01 1.236954e+01 2.436057e+00 2.228945e-01 3.587894e-01 4.570200e-01 7.673181e-01 1.039495e+00 1.012810e+00 1.243200e+00 1.147394e+00 1.428981e+00 1.488835e+00 1.210866e+00 9.633076e-01 1.207822e-01 4.473410e-02 5.888456e-02 7.893156e-02 1.392481e-01 1.791975e-01 1.714107e-01 2.399576e-01 2.205681e-01 2.849738e-01 2.921762e-01 2.369743e-01 1.743389e-01 1.674022e-02
<GCONST> 6.972560e+01
<STATE> 3
~s "silst"
<STATE> 4
<MEAN> 39
 -6.468608e+00 -3.893683e+00 3.673557e-01 -4.759177e-01 1.569416e+00 -2.086248e+00 5.256887e+00 -2.919509e+00 1.664131e+00 -2.425850e+00 2.303095e+00 4.564440e-01 5.499862e+01 -7.151616e-03 6.428648e-03 4.670260e-04 -6.910199e-04 6.492076e-03 -6.758321e-03 -1.121791e-02 -2.192430e-02 -2.254526e-02 -3.897580e-03 7.588136e-03 3.794612e-03 -6.521011e-03 2.866445e-04 -4.069499e-03 -1.218798e-03 -8.578576e-03 -3.289327e-03 -7.451889e-03 -1.484038e-02 -1.003877e-03 4.292380e-03 -1.502579e-03 -1.127239e-02 -1.386671e-02 9.415145e-03
<VARIANCE> 39
 9.706612e-01 2.732206e+00 4.745142e+00 6.056138e+00 8.880155e+00 9.773062e+00 1.261438e+01 1.282569e+01 1.349881e+01 1.193322e+01 1.190695e+01 1.056722e+01 6.036133e-01 9.872647e-02 2.312949e-01 4.144545e-01 6.323622e-01 7.966328e-01 9.390379e-01 1.319386e+00 1.466943e+00 1.550186e+00 1.322907e+00 1.321103e+00 1.133754e+00 3.030246e-02 2.091620e-02 4.839140e-02 8.578780e-02 1.333873e-01 1.649205e-01 1.999141e-01 2.790090e-01 3.083741e-01 3.248084e-01 2.762743e-01 2.768863e-01 2.333474e-01 6.785301e-03
<GCONST> 6.047526e+01
<TRANSP> 5
 0.000000e+00 1.000000e+00 0.000000e+00 0.000000e+00 0.000000e+00
 0.000000e+00 7.574747e-01 5.692430e-02 1.856010e-01 0.000000e+00
 0.000000e+00 0.000000e+00 9.613060e-01 3.869406e-02 0.000000e+00
 0.000000e+00 1.292932e-02 0.000000e+00 9.576075e-01 2.946320e-02
 0.000000e+00 0.000000e+00 0.000000e+00 0.000000e+00 0.000000e+00
<ENDHMM>
~h "txh"
<BEGINHMM>
<NUMSTATES> 5
<STATE> 2
<MEAN> 39
 8.561822e+00 -2.519353e+01 -5.343075e+00 -8.254928e+00 -5.193169e-01 5.728350e+00 -9.985782e-01 7.957186e-02 -4.559101e+00 -5.801035e+00 3.807201e-01 -1.341429e+01 7.708422e+01 1.879812e-01 -2.202668e-01 -1.613849e-01 1.144945e+00 -5.539333e-01 -1.451477e+00 -9.814733e-02 1.327924e+00 9.769800e-01 -9.133722e-01 -3.432881e-01 4.629811e-01 -4.619323e-02 1.132303e-02 1.979708e-01 5.107461e-02 9.967938e-02 -4.078572e-02 -3.733230e-01 -7.110418e-02 1.649217e-01 2.333218e-01 -1.142242e-01 -1.108509e-01 2.763809e-01 -1.157241e-01
<VARIANCE> 39
 3.430642e+00 9.668156e+00 1.120078e+01 1.405082e+01 1.122131e+01 2.576975e+01 1.251163e+01 2.429157e+01 2.093859e+01 1.941997e+01 1.018532e+01 8.372129e+00 3.707209e+00 1.728425e-01 4.829235e-01 5.082554e-01 6.620921e-01 6.102029e-01 1.611737e+00 8.908947e-01 1.207301e+00 1.344367e+00 9.516920e-01 8.569298e-01 7.643476e-01 1.751919e-01 2.758521e-02 1.121726e-01 7.826742e-02 8.882935e-02 9.107848e-02 1.207417e-01 1.191643e-01 1.780141e-01 1.492473e-01 1.901662e-01 1.385956e-01 9.537470e-02 2.094640e-02
<GCONST> 6.708643e+01
<STATE> 3
<MEAN> 39
 1.021595e+01 -2.107636e+01 -4.987333e+00 -6.823087e-02 -4.895645e+00 -1.097756e+01 -3.702759e+00 9.325598e+00 4.871913e+00 -1.143983e+01 -2.405319e+00 -4.599546e+00 7.462399e+01 1.470741e-02 2.264538e+00 4.470606e-01 1.203596e+00 -6.836581e-02 -2.242132e+00 -5.610214e-01 -1.485360e-01 9.577265e-01 4.422518e-03 2.380053e-01 1.686740e+00 -1.203753e+00 -2.776206e-01 2.700180e-01 -2.544157e-02 -1.885440e-01 4.661278e-01 8.323070e-01 2.254008e-01 -7.532715e-01 -3.836578e-01 3.448848e-01 1.776222e-01 -4.391758e-01 -2.711235e-01
<VARIANCE> 39
 3.061356e+00 1.880520e+01 1.176951e+01 1.198974e+01 1.495835e+01 3.510228e+01 1.636999e+01 1.678689e+01 2.030410e+01 1.265242e+01 1.136078e+01 2.030662e+01 5.968713e+00 3.584383e-01 8.974599e-01 7.149016e-01 6.495010e-01 1.818578e+00 3.909438e+00 1.535311e+00 3.724342e+00 1.827033e+00 1.346813e+00 1.280295e+00 1.678865e+00 3.271622e-01 7.880948e-02 2.694652e-01 1.897005e-01 1.549962e-01 2.255704e-01 5.674390e-01 4.283164e-01 3.794720e-01 3.213165e-01 2.167070e-01 2.624966e-01 4.426241e-01 2.261794e-02
<GCONST> 8.783034e+01
<STATE> 4
<MEAN> 39
 2.215478e+00 -1.293618e+01 -3.427315e+00 -1.968425e+00 -2.031715e+00 -8.133498e+00 -3.410655e-02 3.560536e+00 6.279125e+00 -6.095368e+00 -1.491500e-01 -2.232148e+00 6.569741e+01 -1.103973e+00 6.476769e-02 3.263610e-01 -5.931359e-01 5.746004e-02 5.996963e-01 8.265638e-01 -1.961389e-01 -1.029021e-01 5.937005e-01 7.669266e-02 1.164075e-01 -5.602164e-01 4.446044e-02 -1.324171e-01 -4.453729e-03 1.720421e-02 -8.852385e-02 -6.067920e-02 3.431724e-03 9.184484e-02 -2.439610e-02 -5.576709e-02 -9.075754e-02 2.644961e-03 8.691024e-02
<VARIANCE> 39
 1.941142e+01 1.176569e+01 2.458656e+01 2.491464e+01 1.707840e+01 2.864637e+01 2.425555e+01 2.178331e+01 2.213813e+01 2.449825e+01 2.046290e+01 1.979901e+01 1.065324e+01 5.429832e-01 1.456586e+00 2.655657e+00 1.963007e+00 2.066340e+00 2.202749e+00 2.429537e+00 2.282793e+00 2.254300e+00 1.846472e+00 2.492619e+00 2.321139e+00 1.490769e+00 9.419537e-02 3.265490e-01 5.588124e-01 4.434600e-01 3.957030e-01 4.199874e-01 5.030651e-01 4.290281e-01 4.516893e-01 3.770731e-01 4.918810e-01 4.788573e-01 2.600925e-01
<GCONST> 1.061133e+02
<TRANSP> 5
 0.000000e+00 1.000000e+00 0.000000e+00 0.000000e+00 0.000000e+00
 0.000000e+00 8.644183e-01 1.355817e-01 0.000000e+00 0.000000e+00
 0.000000e+00 0.000000e+00 7.840134e-01 2.159866e-01 0.000000e+00
 0.000000e+00 0.000000e+00 0.000000e+00 9.066078e-01 9.339221e-02
 0.000000e+00 0.000000e+00 0.000000e+00 0.000000e+00 0.000000e+00
<ENDHMM>
