~o
<STREAMINFO> 1 39
<VECSIZE> 39<NULLD><MFCC_D_A_0><DIAGC>
~s "silst"
<MEAN> 39
 -4.336823e+00 -4.555032e+00 2.024240e+00 -2.165626e+00 -1.763850e+00 -2.710355e+00 3.992353e+00 -1.617592e+00 5.739349e+00 -1.679978e+00 8.394135e-01 -1.023675e+00 5.672291e+01 -1.810552e-01 9.720190e-02 4.673051e-02 1.102036e-01 1.143576e-01 1.439550e-01 1.009476e-01 -3.111999e-02 -4.485064e-02 -5.340890e-02 5.643059e-02 5.786264e-02 -2.491818e-01 2.458042e-02 -3.205406e-02 1.276170e-02 -7.951534e-03 -3.938914e-03 -2.958808e-02 -7.276488e-03 -3.689537e-03 -5.088225e-02 -4.910835e-02 -3.705379e-02 -4.303196e-03 6.941636e-02
<VARIANCE> 39
 6.383848e+00 1.627924e+01 1.716456e+01 1.417527e+01 2.006474e+01 2.403062e+01 2.143691e+01 2.482542e+01 2.604424e+01 1.970895e+01 2.049763e+01 1.756795e+01 3.925650e+00 2.109457e-01 5.152426e-01 5.663673e-01 7.809989e-01 9.918386e-01 1.264685e+00 1.438567e+00 1.456449e+00 1.487006e+00 1.520861e+00 1.459271e+00 1.349241e+00 1.451386e-01 3.719798e-02 8.258515e-02 1.092784e-01 1.543222e-01 1.874033e-01 2.514444e-01 3.056224e-01 2.937919e-01 2.842904e-01 2.928482e-01 2.928300e-01 2.769144e-01 2.802546e-02
<GCONST> 8.135401e+01
~h "a"
<BEGINHMM>
<NUMSTATES> 5
<STATE> 2
<MEAN> 39
 1.439549e+00 -7.029488e+00 -4.753043e-01 -4.558227e+00 -4.453163e+00 -5.320319e+00 1.337542e+00 -6.576211e-01 5.833625e+00 -2.934820e+00 -2.431595e+00 -3.941125e+00 6.514072e+01 -7.850150e-01 4.353895e-01 4.185289e-01 2.869152e-01 4.011908e-01 -1.239219e-01 2.311960e-01 -1.221506e-01 1.086983e-01 -1.003478e-01 1.277720e-01 5.493130e-01 -7.354921e-01 -2.005502e-02 -1.158381e-01 2.228584e-02 -2.087272e-02 4.120901e-02 4.568632e-02 2.712537e-02 9.340488e-02 -1.698841e-02 1.946926e-02 8.379652e-02 -4.002210e-02 5.205069e-02
<VARIANCE> 39
 3.933723e+01 4.114929e+01 4.092073e+01 1.904085e+01 3.192416e+01 2.805698e+01 3.806329e+01 3.522593e+01 3.222063e+01 2.197828e+01 2.460720e+01 1.900135e+01 2.625133e+01 9.016615e-01 1.737979e+00 1.632296e+00 1.414235e+00 1.892448e+00 2.012574e+00 2.012348e+00 1.935500e+00 1.938701e+00 1.777055e+00 1.869859e+00 1.550118e+00 8.909806e-01 1.906289e-01 3.096164e-01 2.693967e-01 2.642390e-01 3.757213e-01 4.387385e-01 4.030030e-01 3.893608e-01 4.032745e-01 3.346498e-01 4.008524e-01 3.379988e-01 1.769541e-01
<GCONST> 1.070092e+02
<STATE> 3
<MEAN> 39
 -3.847652e+00 -4.009439e+00 1.501625e+00 -4.003905e+00 -2.524733e+00 -6.502765e+00 3.482409e+00 -9.068853e-01 4.103548e+00 -2.174076e+00 -9.177809e-01 -1.730702e+00 6.326243e+01 -6.354772e-01 -2.419543e-01 3.190106e-01 2.593741e-01 4.522041e-01 3.422108e-04 1.612653e-02 2.176988e-01 2.059291e-01 5.841215e-02 2.429923e-01 3.479828e-01 -2.508694e-01 2.318040e-01 -1.963429e-01 -1.495481e-01 -9.507751e-02 -8.606193e-03 1.054682e-01 -9.988061e-02 1.299071e-02 5.079783e-02 7.660613e-02 -6.491953e-02 -2.059787e-01 1.109085e-01
<VARIANCE> 39
 5.999375e+01 3.211947e+01 3.275506e+01 2.110212e+01 4.216166e+01 2.490518e+01 3.267070e+01 3.917119e+01 2.929811e+01 2.383280e+01 2.693678e+01 1.778777e+01 1.889581e+01 1.555627e+00 2.073346e+00 1.683700e+00 1.250546e+00 1.943156e+00 1.816379e+00 2.064271e+00 2.213844e+00 2.012451e+00 1.735269e+00 1.850522e+00 1.613682e+00 9.285781e-01 2.906824e-01 4.242986e-01 2.485851e-01 2.633761e-01 3.760013e-01 4.362688e-01 3.951249e-01 4.418162e-01 4.257399e-01 3.783470e-01 4.108605e-01 3.599649e-01 2.528419e-01
<GCONST> 1.090324e+02
<STATE> 4
<MEAN> 39
 -1.502262e+00 -6.619582e+00 2.155754e+00 -3.074068e+00 -3.389970e+00 -6.498135e+00 1.937128e+00 -1.511877e+00 4.670376e+00 -1.491232e+00 -7.063278e-01 -2.048192e+00 6.330794e+01 -2.174477e-02 -2.654239e-01 -1.832808e-01 1.047112e-01 4.293593e-01 1.303257e-01 -1.610466e-01 1.535186e-01 2.612794e-01 1.384457e-01 -9.319100e-02 -1.129466e-01 1.028504e-03 5.438784e-02 1.442389e-01 -7.606307e-02 -1.112860e-01 -1.563882e-02 1.359747e-01 -2.621586e-02 -5.641788e-02 -3.112995e-02 -6.450240e-03 3.079038e-02 -1.010729e-01 -5.478582e-02
<VARIANCE> 39
 3.372044e+01 4.746246e+01 2.712216e+01 2.021495e+01 3.253012e+01 2.701778e+01 3.074675e+01 3.801145e+01 3.659622e+01 3.331202e+01 3.152836e+01 2.268573e+01 1.806184e+01 2.278944e+00 5.022326e+00 2.816306e+00 1.924540e+00 2.840723e+00 2.455130e+00 2.603442e+00 2.770000e+00 2.516502e+00 2.442469e+00 3.155386e+00 2.386444e+00 2.743931e+00 2.864170e-01 7.806595e-01 4.879828e-01 3.501064e-01 4.756460e-01 4.314910e-01 4.228646e-01 4.856412e-01 4.657378e-01 4.995104e-01 5.961151e-01 4.561479e-01 3.766941e-01
<GCONST> 1.184981e+02
<TRANSP> 5
 0.000000e+00 1.000000e+00 0.000000e+00 0.000000e+00 0.000000e+00
 0.000000e+00 5.219658e-01 4.780342e-01 0.000000e+00 0.000000e+00
 0.000000e+00 0.000000e+00 3.203548e-01 6.796452e-01 0.000000e+00
 0.000000e+00 0.000000e+00 0.000000e+00 5.573349e-01 4.426651e-01
 0.000000e+00 0.000000e+00 0.000000e+00 0.000000e+00 0.000000e+00
<ENDHMM>
~h "c"
<BEGINHMM>
<NUMSTATES> 5
<STATE> 2
<MEAN> 39
 8.727416e+00 -1.141550e+01 -6.261204e+00 -7.064945e+00 -1.466893e+00 -4.616451e+00 -3.154496e-01 -1.085037e+00 3.173133e+00 -1.221771e+00 -2.729463e+00 -9.962399e+00 7.132336e+01 -4.310884e-01 1.771828e+00 -3.452283e-01 9.482267e-01 9.023719e-01 6.821439e-01 5.412030e-01 -1.202598e+00 2.975419e-01 -3.972424e-01 4.371953e-01 2.277231e-01 -1.722207e+00 -3.074320e-01 -3.792522e-01 -4.022120e-01 -3.060671e-01 -3.768790e-02 4.173953e-01 4.903374e-01 1.070890e-01 7.433041e-02 -6.260397e-02 -7.512300e-02 -1.845321e-01 -2.550426e-02
<VARIANCE> 39
 3.697285e+00 1.948932e+01 3.801559e+01 1.671697e+01 1.841048e+01 5.508425e+01 4.622909e+01 5.454739e+01 1.664115e+01 1.495376e+01 2.201889e+01 1.499344e+01 1.623634e+01 5.186024e-01 1.979928e+00 1.326066e+00 1.292529e+00 1.667677e+00 2.811088e+00 3.344757e+00 1.899554e+00 1.320459e+00 1.430301e+00 1.475842e+00 1.706071e+00 6.376556e-01 6.890876e-02 2.637486e-01 2.442125e-01 3.505962e-01 5.793313e-01 8.169589e-01 6.863610e-01 5.605447e-01 2.840659e-01 3.464518e-01 2.238099e-01 3.802355e-01 1.077678e-01
<GCONST> 1.011567e+02
<STATE> 3
<MEAN> 39
 9.025948e+00 -1.202564e+01 -1.454719e+01 -6.381517e+00 -1.361715e+00 3.829196e+00 7.157489e+00 -9.862816e+00 7.313834e+00 -3.797313e+00 -1.046005e+00 -1.251028e+01 7.374849e+01 -2.123699e-01 2.917531e-02 2.438708e-01 1.216812e-01 -3.700428e-01 -5.540448e-01 -3.668563e-01 1.132345e+00 2.670950e-01 -2.047063e-02 -5.552341e-01 4.236884e-01 -3.412568e-01 -5.810807e-02 3.397405e-02 1.280017e-01 -1.132027e-01 -1.762638e-01 -2.823955e-01 -1.568408e-01 3.176071e-01 -2.487523e-02 1.197116e-01 -1.975803e-02 2.193459e-01 4.799076e-03
<VARIANCE> 39
 3.778862e+00 9.042576e+00 1.580797e+01 1.135272e+01 2.049406e+01 3.873106e+01 4.012798e+01 4.273704e+01 3.120613e+01 1.946419e+01 1.763718e+01 1.565085e+01 1.556636e+01 3.026856e-01 3.413189e-01 8.542915e-01 8.065806e-01 1.155245e+00 2.058498e+00 2.225877e+00 3.072077e+00 1.250837e+00 8.616756e-01 7.544215e-01 1.096301e+00 2.947226e-01 2.975694e-02 1.096838e-01 6.961877e-02 1.664229e-01 2.234147e-01 3.439594e-01 3.080848e-01 3.609216e-01 2.699927e-01 2.292974e-01 1.404021e-01 2.651850e-01 6.357916e-02
<GCONST> 8.433366e+01
<STATE> 4
<MEAN> 39
 2.575515e+00 -7.151135e+00 -9.405418e+00 -7.511842e+00 -8.520548e-01 -3.222629e+00 3.853017e+00 -3.919836e-01 7.246929e+00 -5.793682e-01 -3.967654e+00 -5.708265e+00 6.623030e+01 -1.645009e+00 7.926171e-01 5.071174e-01 -3.707468e-01 2.088803e-01 -5.150358e-01 4.575104e-01 6.861016e-02 -2.950478e-01 2.047352e-01 9.814107e-02 7.459189e-01 -4.902927e-01 -1.796008e-01 2.000484e-02 1.554461e-01 8.568896e-02 1.241913e-01 2.843502e-02 8.366323e-02 -1.471794e-01 -1.718176e-01 -1.031221e-01 4.439649e-02 -6.684176e-02 1.767853e-01
<VARIANCE> 39
 3.376351e+01 1.807655e+01 1.175971e+01 1.265946e+01 2.442424e+01 2.431818e+01 2.733328e+01 2.390380e+01 2.131726e+01 1.617960e+01 1.868777e+01 1.431226e+01 2.028342e+01 1.495170e+00 1.108364e+00 1.009246e+00 1.244720e+00 1.961255e+00 2.863861e+00 2.595946e+00 2.508210e+00 1.982589e+00 2.097771e+00 1.876003e+00 2.153303e+00 1.674028e+00 1.597441e-01 1.751774e-01 2.135514e-01 2.427612e-01 3.900511e-01 5.895131e-01 4.914097e-01 5.947257e-01 3.196346e-01 3.664232e-01 3.703863e-01 3.991902e-01 2.477288e-01
<GCONST> 1.033872e+02
<TRANSP> 5
 0.000000e+00 1.000000e+00 0.000000e+00 0.000000e+00 0.000000e+00
 0.000000e+00 6.172541e-01 3.827459e-01 0.000000e+00 0.000000e+00
 0.000000e+00 0.000000e+00 7.834808e-01 2.165192e-01 0.000000e+00
 0.000000e+00 0.000000e+00 0.000000e+00 8.610018e-01 1.389982e-01
 0.000000e+00 0.000000e+00 0.000000e+00 0.000000e+00 0.000000e+00
<ENDHMM>
~h "d"
<BEGINHMM>
<NUMSTATES> 5
<STATE> 2
<MEAN> 39
 -2.787922e+00 -2.280237e+00 2.711679e+00 -1.627510e+00 -2.577696e-01 -3.862916e+00 2.484953e+00 -3.019084e+00 2.989822e+00 -3.242483e+00 -7.731271e-01 -2.722013e+00 5.751992e+01 8.925450e-01 1.989252e-01 9.443936e-01 -9.996432e-02 -3.232061e-01 -3.080342e-01 -8.704591e-01 -7.385926e-01 -8.556656e-01 -8.393472e-01 -8.708818e-01 -1.039512e+00 8.969730e-01 4.818316e-01 2.681498e-02 1.647148e-01 -3.752411e-01 -2.984165e-01 -1.507299e-01 -4.364482e-01 -1.326207e-01 -3.919719e-02 1.534022e-01 -3.481757e-02 -2.696373e-01 6.011349e-01
<VARIANCE> 39
 1.340203e+01 2.330339e+01 1.475269e+01 1.308493e+01 1.373736e+01 2.042426e+01 1.850056e+01 1.985106e+01 2.062885e+01 1.833135e+01 2.007216e+01 1.776776e+01 1.039562e+01 1.636696e+00 4.589412e+00 1.064633e+00 2.322578e+00 1.501062e+00 1.713731e+00 2.084859e+00 2.858237e+00 1.210913e+00 1.767027e+00 2.130839e+00 1.641892e+00 1.495241e+00 1.703977e-01 5.153461e-01 1.644813e-01 2.986510e-01 2.827531e-01 3.059312e-01 4.202191e-01 4.991837e-01 2.536674e-01 3.527863e-01 3.621872e-01 2.361765e-01 2.485184e-01
<GCONST> 1.007273e+02
<STATE> 3
<MEAN> 39
 3.701699e+00 3.641336e+00 6.400148e+00 -8.089870e-01 -1.727606e+00 -5.994332e+00 -1.081121e+00 -5.902642e+00 1.970399e+00 -4.105422e+00 -4.406329e+00 -6.760067e+00 6.034739e+01 3.406402e-01 -3.644909e-01 6.616929e-01 -4.633239e-01 4.961823e-02 -6.855910e-02 -6.385749e-01 -1.651833e-01 -2.661436e-01 3.917826e-02 2.086788e-01 -1.631130e-01 9.843867e-01 -1.750129e-01 -6.975814e-01 -2.720037e-01 -4.805638e-01 -1.034704e-01 1.470284e-01 -1.865991e-01 1.685914e-01 1.563661e-01 4.102179e-01 4.385384e-01 1.328260e-01 4.153798e-01
<VARIANCE> 39
 1.015901e+01 2.723118e+01 1.651061e+01 1.149616e+01 1.294252e+01 1.525968e+01 1.270657e+01 1.459703e+01 2.047773e+01 1.467584e+01 1.251989e+01 1.187662e+01 8.595619e+00 1.995000e+00 4.372187e+00 1.191541e+00 2.001588e+00 1.579574e+00 1.468787e+00 1.731298e+00 2.033957e+00 1.277899e+00 1.457375e+00 1.399686e+00 1.630491e+00 2.136809e+00 2.994090e-01 4.977182e-01 3.281639e-01 3.314655e-01 3.175960e-01 3.049270e-01 4.181637e-01 3.420232e-01 2.692045e-01 3.471828e-01 2.784427e-01 2.716554e-01 3.692834e-01
<GCONST> 9.890544e+01
<STATE> 4
<MEAN> 39
 1.396955e+00 -6.505494e+00 7.187227e+00 -7.914828e+00 -1.866375e+00 -5.806783e+00 -4.750493e+00 -4.093330e+00 1.406563e+00 -2.289306e+00 -5.113146e-01 -5.753889e+00 6.845589e+01 1.390494e+00 -2.528464e+00 -1.053963e+00 -3.252715e+00 -1.784039e+00 3.861970e-01 -2.876742e+00 -4.108050e-01 3.127795e-01 2.513793e+00 2.036178e+00 -7.678733e-01 3.709675e+00 5.974875e-01 6.519594e-01 -5.299343e-01 -1.041463e-01 -4.205440e-01 5.883044e-01 1.775848e-02 -4.515234e-01 -1.558774e-01 3.703552e-01 4.686894e-01 -4.979993e-02 -2.653676e-01
<VARIANCE> 39
 1.101514e+01 4.107705e+01 1.348377e+01 2.259253e+01 2.294743e+01 1.814586e+01 2.747078e+01 2.164588e+01 1.777340e+01 3.578786e+01 1.382541e+01 9.869659e+00 2.211916e+01 1.967404e+00 3.643798e+00 3.758065e+00 1.549249e+00 2.036844e+00 2.495358e+00 1.744614e+00 2.301627e+00 2.117669e+00 2.090292e+00 1.743055e+00 1.767780e+00 1.073673e+00 2.706784e-01 5.750232e-01 3.627900e-01 3.900406e-01 3.948554e-01 4.761645e-01 6.753368e-01 3.560477e-01 3.874743e-01 8.808530e-01 2.763872e-01 3.762288e-01 5.131454e-01
<GCONST> 1.089121e+02
<TRANSP> 5
 0.000000e+00 1.000000e+00 0.000000e+00 0.000000e+00 0.000000e+00
 0.000000e+00 5.521101e-01 4.478900e-01 0.000000e+00 0.000000e+00
 0.000000e+00 0.000000e+00 7.245091e-01 2.754909e-01 0.000000e+00
 0.000000e+00 0.000000e+00 0.000000e+00 5.558136e-01 4.441864e-01
 0.000000e+00 0.000000e+00 0.000000e+00 0.000000e+00 0.000000e+00
<ENDHMM>
~h "h"
<BEGINHMM>
<NUMSTATES> 5
<STATE> 2
<MEAN> 39
 -1.378149e+01 -6.370429e+00 8.288623e-02 -4.159553e+00 2.946216e+00 -8.993433e+00 6.665162e+00 1.602417e+00 4.645158e+00 -1.426791e-01 -1.599638e+00 -1.214600e+00 6.587242e+01 3.446126e+00 -1.878459e-01 -7.254469e-01 -9.579338e-01 -1.248664e+00 1.458530e-01 -1.013702e+00 -1.137301e+00 7.055438e-02 3.326227e-01 -1.297989e+00 -1.484811e+00 5.044538e-01 1.243399e+00 -4.166313e-02 -3.966145e-01 -4.313674e-01 -3.809271e-01 3.135745e-01 -5.067382e-01 -3.874911e-01 -4.492291e-02 1.524583e-01 -3.544498e-01 -6.447017e-01 5.854713e-01
<VARIANCE> 39
 2.301518e+01 1.021784e+01 1.180882e+01 1.174068e+01 1.875592e+01 1.589308e+01 2.131694e+01 2.053209e+01 2.025318e+01 2.051251e+01 1.799374e+01 2.083290e+01 4.802610e+00 5.804523e+00 1.192630e+00 1.545258e+00 1.587906e+00 1.544163e+00 1.646984e+00 2.615402e+00 2.111902e+00 1.900891e+00 1.502689e+00 1.594971e+00 2.036737e+00 1.120566e+00 3.025356e-01 3.151516e-01 2.959102e-01 2.728998e-01 3.463588e-01 3.448381e-01 3.962820e-01 3.336387e-01 3.528169e-01 3.120113e-01 3.287428e-01 3.209754e-01 1.651596e-01
<GCONST> 9.991867e+01
<STATE> 3
<MEAN> 39
 5.525222e+00 -8.646955e+00 -5.014848e+00 -1.082861e+01 -3.280305e+00 -5.383544e+00 -4.976388e-01 -4.172102e+00 4.361671e+00 2.626729e+00 -7.103310e+00 -1.032475e+01 7.296059e+01 3.313265e+00 -1.584744e+00 -1.437230e+00 -1.472228e+00 -6.765154e-01 2.231635e+00 -7.755447e-01 -6.030724e-01 7.770281e-02 2.916997e-01 -7.020418e-01 -1.776058e+00 1.920804e+00 -1.251199e+00 -1.516990e-02 3.805215e-01 4.790239e-01 5.832036e-01 2.075633e-01 7.615783e-01 4.871827e-01 -1.315247e-01 -4.204392e-01 4.746438e-01 5.447870e-01 -4.556976e-01
<VARIANCE> 39
 1.065021e+01 4.159789e+01 3.251348e+01 1.637245e+01 1.091302e+01 2.258760e+01 1.885073e+01 1.288293e+01 2.538665e+01 1.877741e+01 1.038335e+01 2.208198e+01 1.505914e+01 5.362380e+00 2.610852e+00 2.716723e+00 1.951068e+00 1.846532e+00 1.548514e+00 3.617652e+00 2.835286e+00 1.641429e+00 2.360085e+00 1.763047e+00 1.889274e+00 1.372238e+00 3.059512e-01 5.905854e-01 6.184039e-01 4.366068e-01 1.975535e-01 4.129105e-01 4.683556e-01 2.939970e-01 3.236793e-01 3.303255e-01 2.957848e-01 2.425779e-01 3.647136e-01
<GCONST> 1.065330e+02
<STATE> 4
<MEAN> 39
 6.056770e+00 -9.423213e+00 -3.129843e+00 -6.209899e+00 1.753257e+00 9.004900e-01 6.215501e+00 -4.384511e+00 1.858812e+00 -1.105482e+00 -4.661519e+00 -9.399266e+00 7.069074e+01 -1.708343e-02 3.352605e-01 2.147684e-01 5.970598e-01 4.407535e-01 2.300658e-01 7.089226e-01 -3.274650e-01 -4.943008e-01 -4.405903e-01 3.844840e-01 2.793232e-01 -4.496792e-01 2.845161e-03 5.623139e-05 -1.568906e-01 -1.712596e-01 -8.849982e-02 -9.228973e-02 -1.166371e-01 -4.377786e-02 -1.324958e-02 6.186893e-02 -1.281742e-04 4.747603e-03 6.409049e-02
<VARIANCE> 39
 6.462025e+00 2.468251e+01 1.772885e+01 3.438623e+01 2.055714e+01 1.398527e+01 2.678239e+01 3.021104e+01 2.174081e+01 1.712269e+01 3.184076e+01 2.200085e+01 1.055439e+01 8.098956e-01 1.328737e+00 2.805594e+00 2.788237e+00 2.209182e+00 1.467518e+00 2.377203e+00 1.490247e+00 1.285287e+00 1.397801e+00 1.927648e+00 1.254304e+00 6.618471e-01 2.393553e-01 3.774117e-01 5.494356e-01 5.666792e-01 3.788615e-01 3.768618e-01 4.261233e-01 3.077626e-01 2.717998e-01 2.941131e-01 3.235667e-01 2.779953e-01 1.952556e-01
<GCONST> 1.018573e+02
<TRANSP> 5
 0.000000e+00 1.000000e+00 0.000000e+00 0.000000e+00 0.000000e+00
 0.000000e+00 6.913831e-01 3.086168e-01 0.000000e+00 0.000000e+00
 0.000000e+00 0.000000e+00 7.087638e-01 2.912362e-01 0.000000e+00
 0.000000e+00 0.000000e+00 0.000000e+00 9.000915e-01 9.990846e-02
 0.000000e+00 0.000000e+00 0.000000e+00 0.000000e+00 0.000000e+00
<ENDHMM>
~h "k"
<BEGINHMM>
<NUMSTATES> 5
<STATE> 2
<MEAN> 39
 -3.488389e+00 -4.561549e+00 4.463206e+00 -3.011611e+00 -4.191685e+00 -3.154632e+00 4.329605e+00 -1.674934e+00 3.474354e+00 -2.180062e+00 7.890404e-01 -2.106121e+00 5.798191e+01 7.501156e-01 -2.063414e+00 4.721519e+00 -2.167099e+00 -4.010471e+00 -7.824286e-01 -2.397442e+00 6.669949e-01 -2.422989e+00 4.562908e-01 1.191180e+00 -1.271112e+00 3.410685e+00 4.391053e-01 -5.751061e-01 1.223384e+00 -7.701328e-01 -1.336173e+00 -3.231771e-01 -9.278587e-01 1.993554e-01 -6.479057e-01 2.270817e-01 4.790459e-01 -3.451549e-01 1.234242e+00
<VARIANCE> 39
 1.080330e+01 1.979555e+01 3.519503e+01 1.459272e+01 4.627794e+01 2.535302e+01 2.340684e+01 1.992633e+01 3.449473e+01 1.242177e+01 2.036951e+01 1.660512e+01 2.036047e+01 1.267681e+00 1.858990e+00 3.370824e+00 2.543351e+00 4.599240e+00 2.081845e+00 3.547967e+00 2.061914e+00 2.433040e+00 1.815843e+00 2.917503e+00 1.441936e+00 2.146727e+00 1.295705e-01 1.932952e-01 5.633977e-01 3.692476e-01 6.167246e-01 3.581963e-01 5.043608e-01 3.268780e-01 2.665196e-01 3.064398e-01 3.961383e-01 2.801266e-01 2.975260e-01
<GCONST> 1.078500e+02
<STATE> 3
<MEAN> 39
 5.560315e-01 -1.259947e+01 2.187100e+01 -1.286009e+01 -2.070318e+01 -6.902769e+00 -6.346485e+00 1.365251e+00 -5.310062e+00 6.890051e-01 6.298867e+00 -7.351534e+00 7.249133e+01 1.279865e+00 -1.651394e+00 3.477140e+00 -1.670106e+00 -3.567708e+00 -5.433854e-01 -2.425122e+00 3.806744e-01 -1.606631e+00 4.959722e-01 1.286004e+00 -6.894872e-01 3.319934e+00 -9.730845e-02 6.726708e-01 -1.284771e+00 7.199264e-01 1.066685e+00 3.104616e-01 6.189525e-01 -3.394628e-01 6.761723e-01 -1.812326e-01 -3.483149e-01 4.934668e-01 -9.107678e-01
<VARIANCE> 39
 7.424439e+00 1.188631e+01 2.644494e+01 1.745734e+01 1.965113e+01 1.633316e+01 3.097985e+01 2.157146e+01 2.314913e+01 1.558197e+01 2.084732e+01 1.305789e+01 1.804052e+01 9.659268e-01 2.408070e+00 6.294323e+00 3.397659e+00 6.303349e+00 1.805063e+00 3.665209e+00 2.202912e+00 2.541783e+00 1.546579e+00 2.540756e+00 1.859569e+00 3.625850e+00 1.864710e-01 3.855128e-01 5.248162e-01 4.235049e-01 6.499864e-01 3.019753e-01 4.947994e-01 3.596761e-01 3.257284e-01 2.571804e-01 3.715186e-01 2.213247e-01 4.775254e-01
<GCONST> 1.083846e+02
<STATE> 4
<MEAN> 39
 3.284885e+00 -8.269432e+00 1.925472e+01 -9.846483e+00 -2.117926e+01 -8.320773e+00 -4.986914e+00 -2.881667e+00 -5.330278e+00 3.143413e+00 4.806402e+00 -6.146582e+00 7.103301e+01 -1.290050e-01 6.469811e-01 -5.966646e-01 4.624303e-01 4.775176e-01 -1.256960e-01 3.812504e-01 -4.920693e-01 2.849931e-01 1.182360e-01 -8.562256e-02 2.419795e-01 -7.477111e-01 -7.979848e-02 2.758093e-04 -1.268137e-01 4.653613e-02 1.421779e-01 7.733006e-03 5.938276e-02 2.242095e-02 5.975199e-02 -2.789789e-02 -1.399966e-02 4.224812e-02 -1.004268e-01
<VARIANCE> 39
 5.935360e+00 3.580145e+01 2.245727e+01 2.784363e+01 2.511516e+01 2.283916e+01 3.388082e+01 2.854481e+01 3.879834e+01 2.754714e+01 1.987988e+01 1.264503e+01 3.275339e+01 4.201852e-01 9.888917e-01 9.108177e-01 1.228353e+00 1.565913e+00 1.229244e+00 1.320297e+00 1.288172e+00 1.700589e+00 1.477152e+00 1.289300e+00 1.250102e+00 8.800864e-01 4.938772e-02 1.993060e-01 1.817484e-01 2.368603e-01 2.843124e-01 2.253809e-01 2.618808e-01 2.511015e-01 3.171203e-01 2.753988e-01 2.427819e-01 2.065081e-01 1.270806e-01
<GCONST> 9.365179e+01
<TRANSP> 5
 0.000000e+00 1.000000e+00 0.000000e+00 0.000000e+00 0.000000e+00
 0.000000e+00 4.420113e-01 5.579887e-01 0.000000e+00 0.000000e+00
 0.000000e+00 0.000000e+00 6.600979e-01 3.399021e-01 0.000000e+00
 0.000000e+00 0.000000e+00 0.000000e+00 9.460320e-01 5.396796e-02
 0.000000e+00 0.000000e+00 0.000000e+00 0.000000e+00 0.000000e+00
<ENDHMM>
~h "n"
<BEGINHMM>
<NUMSTATES> 5
<STATE> 2
<MEAN> 39
 7.640439e+00 1.051821e+00 3.030969e+00 -5.304385e+00 -8.877131e+00 -5.426969e+00 -9.586987e-01 -4.510662e+00 2.313895e+00 -2.587610e+00 -3.555695e-01 -4.970139e+00 6.574107e+01 1.015016e-01 9.611068e-01 -4.896547e-01 7.686120e-01 2.068447e-01 -4.226615e-01 9.585986e-01 -4.652444e-01 -6.751448e-02 2.779725e-02 -2.845881e-01 2.283988e-01 -7.453668e-01 -1.373403e-01 -2.554389e-01 2.717676e-01 -2.782293e-01 -8.779375e-02 2.128070e-01 -2.183016e-01 5.945731e-02 1.988906e-02 1.318019e-01 5.203640e-02 -2.572566e-02 1.154529e-01
<VARIANCE> 39
 4.363702e+00 1.218236e+01 2.433464e+01 1.722990e+01 3.434813e+01 1.407960e+01 2.554535e+01 2.081665e+01 2.180994e+01 2.091015e+01 1.460849e+01 1.096942e+01 5.892501e+00 3.227924e-01 9.774045e-01 1.965883e+00 1.505772e+00 1.859448e+00 1.638023e+00 1.621288e+00 1.567350e+00 1.525468e+00 1.277104e+00 1.204455e+00 9.913655e-01 2.516446e-01 4.909777e-02 1.210582e-01 2.029823e-01 2.271559e-01 2.690207e-01 2.351991e-01 2.988089e-01 3.397902e-01 2.286602e-01 2.075698e-01 1.776767e-01 2.050358e-01 3.686068e-02
<GCONST> 8.565146e+01
<STATE> 3
<MEAN> 39
 7.881013e+00 3.186377e+00 3.476043e+00 -3.804630e+00 -7.919924e+00 -6.277332e+00 2.033266e+00 -4.559779e+00 2.342002e+00 -3.459051e+00 -1.364570e+00 -4.057634e+00 6.430991e+01 -1.190064e-01 3.482229e-01 5.266395e-02 1.479932e-01 3.196450e-01 -1.013653e-01 1.685654e-01 -4.695547e-02 -3.430817e-02 4.838277e-02 4.175888e-02 5.773510e-02 -3.565537e-01 -9.778564e-02 -1.721435e-01 1.169497e-01 3.410491e-03 2.611694e-02 3.619421e-02 -1.377585e-01 7.938648e-02 2.204034e-02 -2.906168e-02 4.163127e-02 1.143707e-02 4.367634e-02
<VARIANCE> 39
 4.277435e+00 1.229655e+01 1.264570e+01 9.276119e+00 1.997429e+01 1.134951e+01 1.557871e+01 1.546510e+01 1.262533e+01 1.558804e+01 1.498791e+01 8.910186e+00 4.604106e+00 1.664156e-01 2.832944e-01 5.234578e-01 6.138867e-01 7.608558e-01 7.138321e-01 8.062785e-01 9.188470e-01 8.933727e-01 7.784657e-01 7.892194e-01 7.337161e-01 9.392305e-02 2.439916e-02 5.898471e-02 9.009288e-02 9.526645e-02 1.692090e-01 1.464473e-01 1.635271e-01 1.636036e-01 1.536636e-01 1.447205e-01 1.535740e-01 1.252742e-01 1.482780e-02
<GCONST> 6.405292e+01
<STATE> 4
<MEAN> 39
 4.187222e+00 2.635711e+00 4.607561e+00 -1.987986e+00 -4.916427e+00 -5.110376e+00 1.414344e+00 -5.342646e+00 2.809315e+00 -2.369209e+00 -4.310668e-01 -3.230693e+00 6.118611e+01 -7.146545e-01 -3.229189e-01 2.104672e-01 5.231376e-01 6.648816e-01 2.114399e-01 3.950389e-02 1.628345e-01 1.275955e-01 -2.439402e-01 5.459368e-03 2.544916e-01 -4.921588e-01 -1.091008e-01 -2.849320e-01 7.317264e-02 -1.588162e-01 -1.524031e-01 7.109781e-02 -7.279586e-02 1.068857e-01 4.610439e-02 -4.500309e-02 3.903027e-02 3.631137e-02 1.151266e-01
<VARIANCE> 39
 1.421653e+01 1.279603e+01 1.837676e+01 1.839539e+01 3.330769e+01 1.694245e+01 1.919117e+01 1.994337e+01 2.028703e+01 1.748946e+01 1.800543e+01 1.322090e+01 9.079755e+00 3.996392e-01 7.182036e-01 8.389816e-01 1.181965e+00 1.664031e+00 1.082717e+00 1.310811e+00 1.252374e+00 1.367982e+00 1.370336e+00 1.133271e+00 1.115154e+00 2.378387e-01 6.856878e-02 1.754049e-01 3.204949e-01 2.529958e-01 3.745850e-01 2.547722e-01 2.842222e-01 2.547869e-01 2.859184e-01 2.664835e-01 2.169645e-01 2.407293e-01 4.545334e-02
<GCONST> 8.726598e+01
<TRANSP> 5
 0.000000e+00 1.000000e+00 0.000000e+00 0.000000e+00 0.000000e+00
 0.000000e+00 5.930551e-01 4.069449e-01 0.000000e+00 0.000000e+00
 0.000000e+00 0.000000e+00 7.544426e-01 2.455574e-01 0.000000e+00
 0.000000e+00 0.000000e+00 0.000000e+00 5.446776e-01 4.553224e-01
 0.000000e+00 0.000000e+00 0.000000e+00 0.000000e+00 0.000000e+00
<ENDHMM>
~h "o"
<BEGINHMM>
<NUMSTATES> 5
<STATE> 2
<MEAN> 39
 7.946663e+00 -8.613058e+00 2.344215e+00 -1.465564e+01 -8.527245e+00 -8.253428e-01 -1.095195e+01 -7.711472e+00 6.352730e-01 4.995028e+00 6.677591e+00 -8.438100e+00 7.432514e+01 1.548368e+00 3.701183e-01 -1.299799e+00 -1.957789e+00 -1.230693e+00 2.272340e+00 1.318947e-01 -1.181209e+00 -1.236943e+00 7.139832e-01 1.958298e+00 2.720796e-01 6.667471e-01 -4.059664e-01 6.964630e-01 1.765224e-01 3.739718e-01 4.679372e-01 1.412740e-01 1.241230e+00 1.294798e-01 -2.857225e-01 -1.015184e+00 -5.310891e-01 6.317215e-01 -9.456738e-01
<VARIANCE> 39
 2.487227e+00 2.246752e+01 2.470042e+01 1.285561e+01 1.614441e+01 1.536113e+01 1.454524e+01 1.105720e+01 3.818075e+01 1.349776e+01 1.297371e+01 1.034425e+01 5.612700e+00 1.000441e+00 8.604540e-01 1.937418e+00 7.644719e-01 1.591576e+00 1.758274e+00 3.725435e+00 1.258222e+00 1.756186e+00 5.165955e+00 1.201487e+00 2.154858e+00 8.982962e-01 1.318149e-01 2.610261e-01 4.381792e-01 1.531626e-01 2.056357e-01 3.676448e-01 2.699596e-01 2.604160e-01 3.414189e-01 4.093424e-01 2.647870e-01 2.123240e-01 1.152529e-01
<GCONST> 9.247511e+01
<STATE> 3
<MEAN> 39
 9.808293e+00 -4.820036e+00 4.430484e-01 -2.079008e+01 -1.020894e+01 5.524598e+00 -4.108162e+00 -1.026085e+01 -4.458088e+00 1.209050e+00 7.505184e+00 -3.872901e+00 7.275728e+01 3.243907e-01 1.075283e+00 -5.165458e-01 -7.627466e-01 -1.244926e-01 7.486293e-01 1.160304e+00 8.703694e-02 -2.007130e-01 -1.030801e+00 -4.450220e-01 1.115682e+00 -5.760024e-01 -1.425975e-01 -5.912288e-02 9.762280e-02 2.912734e-01 1.713594e-01 -3.113021e-01 -2.364040e-01 2.159223e-01 3.129731e-01 -3.338464e-03 -2.746414e-01 -9.544022e-02 -5.718559e-02
<VARIANCE> 39
 1.912867e+00 1.407802e+01 1.383120e+01 1.916424e+01 1.423631e+01 1.481466e+01 1.558710e+01 1.396161e+01 3.267100e+01 1.854807e+01 1.057052e+01 1.754297e+01 5.208434e+00 1.029799e-01 2.851726e-01 4.097398e-01 8.715985e-01 8.825638e-01 9.765027e-01 1.213384e+00 1.111059e+00 1.102586e+00 1.116843e+00 6.994272e-01 7.306719e-01 6.496761e-02 2.829844e-02 6.513904e-02 9.208432e-02 9.587647e-02 1.456063e-01 1.663436e-01 2.243652e-01 1.779794e-01 1.576355e-01 3.022668e-01 2.098921e-01 1.606621e-01 2.939100e-02
<GCONST> 6.903227e+01
<STATE> 4
<MEAN> 39
 9.965025e+00 -1.063564e+00 -2.944347e+00 -1.680584e+01 -5.780675e+00 4.037734e+00 -5.949065e+00 -6.736797e+00 1.136660e+00 -7.765548e-01 4.368639e+00 -2.279148e+00 6.956171e+01 -1.878402e-01 9.323248e-02 1.242559e-02 1.297590e+00 5.645002e-01 -8.101774e-01 -4.424217e-01 1.896627e-01 7.455996e-01 2.430159e-01 -4.144583e-01 -5.469215e-01 -3.736330e-01 -3.508857e-02 2.559880e-02 9.911229e-02 2.016812e-01 -9.576784e-02 -1.656962e-01 1.572518e-01 -5.003697e-02 -5.089230e-02 2.662846e-02 -1.565024e-02 -6.168693e-02 -4.191975e-02
<VARIANCE> 39
 2.463735e+00 1.454831e+01 1.355832e+01 2.729467e+01 3.168128e+01 2.485161e+01 4.378077e+01 2.095580e+01 3.046410e+01 2.076948e+01 1.762633e+01 2.231578e+01 6.315034e+00 1.115939e-01 7.090705e-01 8.224696e-01 1.707184e+00 1.906809e+00 2.073780e+00 3.145375e+00 1.715383e+00 1.793762e+00 1.592713e+00 1.544992e+00 1.259688e+00 2.792807e-01 1.876315e-02 1.421465e-01 1.246844e-01 1.834626e-01 3.369995e-01 3.268872e-01 6.597857e-01 3.299453e-01 3.699214e-01 3.124673e-01 3.195962e-01 2.624142e-01 4.522068e-02
<GCONST> 8.906376e+01
<TRANSP> 5
 0.000000e+00 1.000000e+00 0.000000e+00 0.000000e+00 0.000000e+00
 0.000000e+00 6.311098e-01 3.688901e-01 0.000000e+00 0.000000e+00
 0.000000e+00 0.000000e+00 8.113445e-01 1.886555e-01 0.000000e+00
 0.000000e+00 0.000000e+00 0.000000e+00 9.012406e-01 9.875935e-02
 0.000000e+00 0.000000e+00 0.000000e+00 0.000000e+00 0.000000e+00
<ENDHMM>
~h "p"
<BEGINHMM>
<NUMSTATES> 5
<STATE> 2
<MEAN> 39
 -2.061461e+00 -3.600886e+00 -4.895628e-01 -4.579506e+00 -1.410730e+00 -5.952447e-01 5.479692e+00 -3.632478e-01 6.119514e+00 -1.688354e+00 3.269517e-01 -2.930931e+00 5.742286e+01 -4.658001e-01 1.325099e-01 3.159800e-01 2.524315e-01 1.196730e-01 9.387508e-02 2.172286e-01 9.291105e-03 7.400601e-02 4.301123e-02 1.014331e-01 2.175090e-01 -4.123278e-01 1.487073e-01 -2.113230e-01 -4.943291e-02 -8.105808e-02 -1.892126e-01 -8.734997e-02 -6.362720e-02 -1.386365e-01 -6.134028e-02 -3.697708e-02 -4.702153e-02 -7.710787e-02 3.454054e-01
<VARIANCE> 39
 1.158472e+01 8.438862e+00 2.711913e+01 1.530634e+01 1.633905e+01 2.441949e+01 1.950744e+01 1.916415e+01 2.225831e+01 1.569749e+01 1.313399e+01 1.521428e+01 6.262879e+00 2.069441e-01 5.259019e-01 6.084125e-01 7.091193e-01 6.898048e-01 9.621379e-01 1.428526e+00 1.276123e+00 1.248457e+00 1.230417e+00 1.119742e+00 1.151008e+00 2.471722e-01 1.025814e-01 1.052924e-01 1.698425e-01 2.160317e-01 2.014412e-01 2.285336e-01 3.101393e-01 2.644958e-01 2.716176e-01 2.903464e-01 2.624542e-01 2.220602e-01 1.578794e-01
<GCONST> 8.296582e+01
<STATE> 3
<MEAN> 39
 -4.005611e+00 -5.272148e+00 1.602921e+00 -2.224646e+00 -2.467908e+00 -3.496939e+00 3.851928e+00 -2.974708e+00 4.705706e+00 -1.472914e+00 7.379431e-01 -1.179975e+00 5.840161e+01 2.143807e+00 -1.538374e+00 -1.655011e+00 -1.933564e+00 -1.672035e+00 2.778777e-01 2.576491e-01 -9.857194e-01 -9.178680e-01 -2.554895e-01 1.715542e-01 -1.348206e+00 3.251263e+00 9.593242e-01 -4.281414e-01 -9.302382e-01 -9.190777e-01 -1.298408e-01 6.005175e-01 3.070706e-01 -1.379677e-01 -4.963884e-01 -1.559440e-01 2.730031e-01 -8.018174e-01 1.055958e+00
<VARIANCE> 39
 5.557712e+00 1.787404e+01 1.269779e+01 1.053460e+01 2.068115e+01 2.136968e+01 2.035349e+01 2.022615e+01 1.889644e+01 1.503394e+01 1.381319e+01 1.902889e+01 1.842842e+01 2.660599e+00 1.585757e+00 3.455524e+00 3.489141e+00 1.767122e+00 2.853423e+00 2.461353e+00 2.946142e+00 2.748737e+00 1.939838e+00 2.253758e+00 2.740884e+00 2.923028e+00 1.474535e-01 2.519540e-01 3.275549e-01 4.105318e-01 4.113460e-01 4.437297e-01 5.262658e-01 5.731591e-01 4.561539e-01 3.506042e-01 3.231904e-01 3.027214e-01 2.926277e-01
<GCONST> 1.059287e+02
<STATE> 4
<MEAN> 39
 7.567521e+00 -1.045958e+01 -8.295097e+00 -1.372342e+01 -7.512808e+00 1.793595e+00 7.415214e+00 -5.420911e+00 -1.039838e+00 -3.004392e+00 3.286810e+00 -8.995702e+00 7.193484e+01 3.023890e+00 -2.406317e+00 -3.184471e+00 -3.024696e+00 -9.835867e-02 2.273525e+00 1.207663e+00 -3.935900e-01 -1.529048e+00 -1.479869e-01 9.427177e-01 -2.779465e+00 4.083491e+00 -8.165610e-01 7.205867e-02 4.276999e-01 8.593869e-01 8.840328e-01 -2.904089e-02 -1.420348e-01 2.746481e-01 4.395892e-01 1.945175e-01 -2.953869e-01 2.904105e-01 -8.045726e-01
<VARIANCE> 39
 1.106115e+01 2.612195e+01 2.073059e+01 2.777642e+01 1.579837e+01 2.395084e+01 1.609884e+01 2.998800e+01 4.595886e+01 1.221867e+01 1.701972e+01 1.151600e+01 1.813208e+01 1.748969e+00 1.834659e+00 4.505527e+00 5.101044e+00 2.195669e+00 2.160945e+00 3.528497e+00 5.686587e+00 3.914134e+00 2.033324e+00 1.683916e+00 1.455789e+00 1.732964e+00 3.007400e-01 3.562022e-01 4.550200e-01 5.487487e-01 3.813811e-01 5.143336e-01 4.019196e-01 4.137271e-01 3.548823e-01 2.589391e-01 3.602697e-01 3.120631e-01 3.347993e-01
<GCONST> 1.099876e+02
<TRANSP> 5
 0.000000e+00 1.000000e+00 0.000000e+00 0.000000e+00 0.000000e+00
 0.000000e+00 7.786406e-01 2.213594e-01 0.000000e+00 0.000000e+00
 0.000000e+00 0.000000e+00 6.650462e-01 3.349538e-01 0.000000e+00
 0.000000e+00 0.000000e+00 0.000000e+00 5.307292e-01 4.692708e-01
 0.000000e+00 0.000000e+00 0.000000e+00 0.000000e+00 0.000000e+00
<ENDHMM>
~h "r"
<BEGINHMM>
<NUMSTATES> 5
<STATE> 2
<MEAN> 39
 -1.481383e+01 -6.528108e+00 8.513756e+00 -9.086491e+00 -3.002095e+00 -1.674519e+00 -1.482489e+00 9.695719e-01 7.069691e+00 -3.665317e+00 1.296739e+00 -2.072690e+00 6.789832e+01 1.995626e+00 -7.530792e-01 -1.223909e-01 2.480592e-01 -1.652747e+00 -1.223182e+00 -6.636903e-01 1.448471e-01 9.227214e-01 -6.539741e-01 -1.093353e+00 -3.470134e-01 1.617217e+00 1.876605e+00 -3.957827e-01 -7.748229e-01 3.031966e-01 -2.560009e-01 -3.777106e-01 -5.123687e-02 -5.152714e-02 -9.027053e-03 -8.855580e-02 -2.737660e-01 -2.556166e-01 -2.093129e-02
<VARIANCE> 39
 3.185105e+01 1.648086e+01 1.632725e+01 1.460865e+01 2.943862e+01 2.851070e+01 1.894773e+01 2.725841e+01 2.544951e+01 2.021421e+01 2.312497e+01 2.142868e+01 7.611498e+00 1.710653e+01 1.475167e+00 3.870080e+00 1.762877e+00 2.308920e+00 3.480287e+00 2.172686e+00 1.856141e+00 2.312365e+00 1.869005e+00 2.468211e+00 1.847740e+00 1.190560e+00 1.142557e+00 2.776579e-01 6.840791e-01 4.870281e-01 6.327150e-01 6.841796e-01 4.651084e-01 4.350757e-01 4.500504e-01 3.664782e-01 5.066006e-01 3.577647e-01 2.836811e-01
<GCONST> 1.132031e+02
<STATE> 3
<MEAN> 39
 5.984661e+00 -1.525339e+01 8.654490e-02 -8.544010e+00 -9.070862e+00 -7.499039e+00 -5.509503e+00 2.723914e+00 9.595984e+00 -5.843675e+00 -3.544915e+00 -6.472027e+00 7.664603e+01 2.700855e+00 -2.334414e+00 -2.565045e+00 -2.417742e-01 6.414456e-01 6.578175e-01 3.154757e-01 4.484606e-01 -1.007632e-02 6.841171e-02 -6.989802e-01 -1.558719e+00 1.592831e+00 -1.315060e+00 2.688470e-01 9.961222e-02 -7.530232e-02 7.522666e-01 8.489528e-01 6.302723e-01 -2.039849e-01 -3.688444e-01 2.215830e-01 2.334827e-01 3.264072e-02 -4.909963e-01
<VARIANCE> 39
 4.590840e+00 3.523620e+01 4.582837e+01 1.063824e+01 2.132193e+01 1.442362e+01 1.720794e+01 1.295992e+01 4.243108e+01 1.857859e+01 1.339831e+01 2.646664e+01 8.410911e+00 5.966513e+00 1.391738e+00 3.642998e+00 1.722061e+00 3.113045e+00 3.256153e+00 3.208579e+00 2.092468e+00 1.639031e+00 1.983727e+00 1.201273e+00 1.258343e+00 1.229574e+00 2.945008e-01 3.736679e-01 5.579586e-01 2.791363e-01 3.868801e-01 3.526450e-01 3.698366e-01 2.899185e-01 3.481133e-01 2.886419e-01 2.265368e-01 1.685237e-01 1.082138e-01
<GCONST> 1.026531e+02
<STATE> 4
<MEAN> 39
 8.531518e+00 -1.881827e+01 -8.660068e+00 -9.030438e+00 -2.450301e+00 6.562917e-01 2.176772e-01 7.813096e-01 5.335979e+00 -4.214788e+00 -5.394820e+00 -1.187205e+01 7.653694e+01 7.734632e-02 2.353686e-01 -1.935351e-01 1.452503e-01 -2.558101e-02 -4.349880e-03 4.628613e-02 -1.768219e-02 -3.729052e-02 1.172881e-01 -6.478173e-02 3.248831e-02 -2.733138e-01 -5.749359e-02 1.537130e-01 1.852184e-01 5.472318e-02 -1.153852e-01 -1.870975e-01 -1.113598e-01 7.281274e-03 9.168132e-02 -2.388000e-02 6.362733e-02 1.583258e-01 -9.231110e-02
<VARIANCE> 39
 3.952748e+00 3.179240e+01 3.439052e+01 1.452104e+01 2.372604e+01 2.579794e+01 2.239507e+01 3.512379e+01 3.344914e+01 2.338790e+01 1.634811e+01 2.834547e+01 7.337240e+00 1.409191e-01 5.636840e-01 8.762314e-01 6.761176e-01 1.509598e+00 2.018137e+00 1.552995e+00 1.826842e+00 1.483747e+00 7.830495e-01 9.951296e-01 9.414741e-01 1.535389e-01 2.946048e-02 1.006507e-01 8.441052e-02 1.099600e-01 1.887508e-01 1.948753e-01 2.395533e-01 2.832427e-01 2.020462e-01 1.669203e-01 1.773199e-01 1.460588e-01 3.208509e-02
<GCONST> 8.093800e+01
<TRANSP> 5
 0.000000e+00 1.000000e+00 0.000000e+00 0.000000e+00 0.000000e+00
 0.000000e+00 7.745456e-01 2.254543e-01 0.000000e+00 0.000000e+00
 0.000000e+00 0.000000e+00 7.385445e-01 2.614555e-01 0.000000e+00
 0.000000e+00 0.000000e+00 0.000000e+00 9.351872e-01 6.481282e-02
 0.000000e+00 0.000000e+00 0.000000e+00 0.000000e+00 0.000000e+00
<ENDHMM>
~h "s"
<BEGINHMM>
<NUMSTATES> 5
<STATE> 2
<MEAN> 39
 -5.853675e+00 -6.458349e+00 1.398425e+00 -2.962656e+00 1.327076e+00 -6.675997e+00 2.858665e+00 1.043517e+00 5.395579e+00 -2.735981e+00 -1.469981e+00 -1.339929e+00 6.304424e+01 -2.177493e+00 1.582886e-01 3.307740e-01 -1.319558e-01 9.105378e-01 -1.171665e+00 6.623663e-01 6.437032e-01 -3.668592e-01 1.939105e-01 2.050285e-01 9.738900e-02 7.292776e-01 -1.476910e-01 2.200412e-01 -9.286363e-02 -1.553984e-01 -8.726164e-02 6.460886e-02 5.708618e-02 -4.512976e-02 -5.264659e-02 1.048746e-01 1.005805e-01 7.545380e-03 9.640259e-02
<VARIANCE> 39
 2.636680e+01 1.544692e+01 2.135398e+01 2.129829e+01 2.199664e+01 3.499229e+01 3.653071e+01 2.247763e+01 2.958332e+01 2.121314e+01 2.556037e+01 2.227353e+01 2.014764e+01 1.795070e+00 1.591247e+00 1.164852e+00 1.623128e+00 1.816295e+00 2.127906e+00 2.571203e+00 2.046477e+00 2.399999e+00 2.084410e+00 2.168072e+00 1.795594e+00 7.668731e-01 2.753210e-01 2.482999e-01 2.173548e-01 2.607363e-01 3.650855e-01 5.451908e-01 4.937513e-01 3.851799e-01 4.636614e-01 3.604235e-01 4.075240e-01 3.809440e-01 1.305462e-01
<GCONST> 1.058400e+02
<STATE> 3
<MEAN> 39
 -1.525924e+01 -3.502398e+00 3.848941e-01 -4.135184e+00 3.706912e+00 -9.569335e+00 5.955312e+00 2.120620e+00 3.372058e+00 -5.230817e-01 -1.946571e-01 -3.986072e-01 6.623336e+01 -5.385510e-01 6.672312e-02 -2.241157e-01 -5.223751e-02 4.607182e-02 6.098866e-02 1.828861e-01 -1.347718e-02 2.120757e-02 2.539798e-01 -5.610962e-02 -1.931221e-02 3.647935e-02 5.628987e-01 -1.684467e-01 -4.991869e-02 -1.534970e-02 -1.657301e-01 1.532759e-01 -1.424825e-01 -1.603373e-01 8.077031e-02 -1.331085e-02 -1.705742e-01 -1.535813e-01 -5.945690e-02
<VARIANCE> 39
 1.671737e+01 1.732276e+01 1.367942e+01 1.462831e+01 1.677003e+01 1.601178e+01 2.699645e+01 2.213942e+01 2.499147e+01 1.812653e+01 1.631418e+01 1.883661e+01 5.499195e+00 1.534257e+00 1.267989e+00 7.810199e-01 9.787486e-01 1.332723e+00 1.196092e+00 1.429076e+00 1.384939e+00 1.574499e+00 1.467350e+00 1.407201e+00 1.346479e+00 2.912687e-01 2.146469e-01 1.585550e-01 1.547225e-01 2.320316e-01 2.390151e-01 2.583040e-01 3.162646e-01 2.992986e-01 3.059547e-01 3.090606e-01 2.834052e-01 3.141541e-01 6.967319e-02
<GCONST> 9.067669e+01
<STATE> 4
<MEAN> 39
 -6.995132e+00 -5.612755e+00 -2.154560e+00 -5.805838e+00 9.094912e-01 -8.158238e+00 4.283567e+00 -1.005182e+00 4.728971e+00 7.095779e-01 -4.188800e+00 -4.276907e+00 6.722831e+01 3.941554e+00 -8.264494e-01 -1.591661e+00 -1.250282e+00 -9.021614e-01 1.101174e+00 -1.044124e+00 -1.308628e+00 4.008919e-02 5.562163e-01 -1.350940e+00 -2.026280e+00 1.491300e+00 1.691418e-01 -4.165171e-01 -2.631389e-01 -1.201246e-01 7.627603e-02 4.571002e-01 -6.680934e-02 1.274704e-02 -5.789970e-02 -7.839938e-02 1.680927e-01 -1.331438e-01 4.363992e-01
<VARIANCE> 39
 8.084760e+01 1.569700e+01 2.604744e+01 1.911413e+01 1.633633e+01 1.485741e+01 2.585208e+01 2.537532e+01 2.296231e+01 1.597261e+01 2.036693e+01 2.491895e+01 1.472585e+01 7.620821e+00 1.961486e+00 3.233756e+00 1.929764e+00 1.550756e+00 1.861713e+00 2.498763e+00 1.837402e+00 2.593230e+00 1.619192e+00 1.796326e+00 2.733133e+00 2.112283e+00 1.255779e+00 3.324147e-01 5.282711e-01 4.441854e-01 3.179229e-01 2.631422e-01 4.256308e-01 4.201619e-01 3.500726e-01 3.393080e-01 3.823106e-01 4.478086e-01 2.986563e-01
<GCONST> 1.110999e+02
<TRANSP> 5
 0.000000e+00 1.000000e+00 0.000000e+00 0.000000e+00 0.000000e+00
 0.000000e+00 7.274817e-01 2.725184e-01 0.000000e+00 0.000000e+00
 0.000000e+00 0.000000e+00 8.302126e-01 1.697874e-01 0.000000e+00
 0.000000e+00 0.000000e+00 0.000000e+00 5.612391e-01 4.387609e-01
 0.000000e+00 0.000000e+00 0.000000e+00 0.000000e+00 0.000000e+00
<ENDHMM>
~h "t"
<BEGINHMM>
<NUMSTATES> 5
<STATE> 2
<MEAN> 39
 4.093029e+00 -6.780605e+00 -5.880476e+00 -6.720595e+00 -1.245430e+00 -2.403303e+00 1.638411e-01 -2.396724e+00 7.710622e+00 1.551801e-01 -3.748696e+00 -6.203096e+00 6.417277e+01 -7.607834e-01 6.667628e-01 -9.901668e-02 -2.544045e-02 5.311227e-01 3.487755e-01 7.739603e-01 -1.897042e-01 1.941078e-01 -1.040599e-01 6.171278e-01 3.131858e-01 -1.377476e+00 -6.143695e-02 -3.078249e-01 6.902589e-03 -9.531694e-02 -9.020403e-02 1.012002e-01 1.135378e-01 1.502347e-01 -1.673598e-01 -1.193127e-01 -4.570504e-02 -1.029591e-01 2.068396e-01
<VARIANCE> 39
 1.952816e+01 1.672497e+01 2.524268e+01 1.654065e+01 2.406604e+01 2.586696e+01 2.247888e+01 1.887989e+01 2.113138e+01 2.173588e+01 2.168884e+01 2.231842e+01 2.304669e+01 4.287126e-01 1.109421e+00 9.145576e-01 1.184310e+00 1.913123e+00 1.637988e+00 1.718884e+00 1.731283e+00 1.669121e+00 1.795849e+00 1.609622e+00 1.515782e+00 8.266961e-01 7.927603e-02 1.677337e-01 1.778812e-01 2.369906e-01 4.271476e-01 4.106151e-01 3.650897e-01 3.247506e-01 3.223290e-01 3.944635e-01 3.148386e-01 3.234966e-01 9.728940e-02
<GCONST> 9.676674e+01
<STATE> 3
<MEAN> 39
 -7.611862e-01 -3.319994e+00 -3.068343e+00 -5.494601e+00 -1.625297e-01 -1.051888e+00 5.045349e+00 -1.344339e+00 5.773526e+00 -1.439205e+00 -1.064086e+00 -4.109919e+00 5.815277e+01 -6.112863e-01 -3.344485e-02 4.577490e-01 1.856790e-01 -4.652793e-02 2.815924e-02 3.210344e-01 2.109555e-01 -2.895158e-01 -2.804514e-01 2.970330e-01 3.942829e-01 -3.574674e-01 -5.139717e-02 -3.053949e-01 1.273131e-01 -6.029759e-02 -2.953681e-01 -3.568256e-01 -1.780680e-01 -1.180585e-01 -8.871435e-02 2.708697e-02 3.420867e-02 1.437979e-01 4.449199e-01
<VARIANCE> 39
 1.261548e+01 1.063921e+01 2.594178e+01 1.564018e+01 1.421489e+01 1.702836e+01 1.466575e+01 2.008263e+01 1.979873e+01 1.521097e+01 1.708641e+01 1.659188e+01 8.829618e+00 2.430608e-01 4.442424e-01 5.335233e-01 6.100579e-01 9.721302e-01 9.860901e-01 1.139348e+00 1.159369e+00 1.362839e+00 1.666196e+00 1.129277e+00 1.241320e+00 2.094606e-01 6.689478e-02 1.265959e-01 1.346469e-01 1.701286e-01 2.859975e-01 2.821161e-01 2.424936e-01 3.316261e-01 3.761183e-01 3.257118e-01 2.535941e-01 2.873443e-01 1.781021e-01
<GCONST> 8.374277e+01
<STATE> 4
<MEAN> 39
 -3.777662e+00 -4.961171e+00 -4.241750e-01 -3.830242e+00 -8.731453e-01 -2.690833e+00 4.485048e+00 -1.850933e+00 4.580226e+00 -1.862642e+00 1.030317e+00 -1.203432e+00 5.793233e+01 -5.253144e-01 -1.712394e+00 8.495747e-01 -6.047115e-01 -2.029071e+00 -1.751819e+00 -2.611488e-01 -5.472180e-01 -1.057845e+00 -3.658639e-01 2.548695e-01 3.549803e-01 2.600395e+00 3.240032e-01 -1.718383e-02 7.195800e-01 -1.141383e-01 -8.513429e-01 -3.528217e-01 -3.648983e-01 -2.444977e-01 -3.134310e-01 4.594021e-02 -1.091765e-01 -4.169311e-01 7.749699e-01
<VARIANCE> 39
 1.222403e+01 1.633170e+01 2.677488e+01 1.875018e+01 1.662634e+01 1.521196e+01 1.485252e+01 1.630218e+01 2.279600e+01 1.295303e+01 2.235513e+01 1.688235e+01 1.589844e+01 9.308342e-01 1.379495e+00 1.688105e+00 1.385158e+00 2.978792e+00 2.935584e+00 1.714231e+00 3.100936e+00 2.749321e+00 2.107853e+00 1.790523e+00 2.319118e+00 2.678574e+00 2.053628e-01 2.575425e-01 4.909858e-01 2.029266e-01 5.603081e-01 3.814542e-01 3.615370e-01 3.336066e-01 3.740509e-01 3.066099e-01 2.947489e-01 4.099869e-01 3.908339e-01
<GCONST> 1.035846e+02
<TRANSP> 5
 0.000000e+00 1.000000e+00 0.000000e+00 0.000000e+00 0.000000e+00
 0.000000e+00 7.360256e-01 2.639743e-01 0.000000e+00 0.000000e+00
 0.000000e+00 0.000000e+00 6.150716e-01 3.849284e-01 0.000000e+00
 0.000000e+00 0.000000e+00 0.000000e+00 4.881770e-01 5.118230e-01
 0.000000e+00 0.000000e+00 0.000000e+00 0.000000e+00 0.000000e+00
<ENDHMM>
~h "y"
<BEGINHMM>
<NUMSTATES> 5
<STATE> 2
<MEAN> 39
 8.873090e+00 4.500608e+00 3.072564e+00 -4.049291e+00 -8.166467e+00 -8.043624e+00 3.319141e+00 -3.244839e+00 1.209119e+00 -4.575339e+00 4.842256e-01 -3.762326e+00 6.412234e+01 -7.440105e-01 -1.636876e+00 2.629211e+00 -8.119335e-01 -1.721286e+00 9.802601e-01 -3.011034e-01 4.753132e-01 -1.484562e-01 -1.817194e-01 3.894156e-01 2.356457e-01 7.077654e-01 -3.360152e-01 -9.983768e-01 1.198046e+00 -3.317012e-01 -1.087726e+00 3.902868e-01 -8.114405e-02 1.471773e-01 -1.922368e-01 1.151511e-01 2.796472e-01 -1.743943e-02 5.518618e-01
<VARIANCE> 39
 3.121987e+00 1.126766e+01 9.432313e+00 7.795129e+00 4.941722e+00 1.355867e+01 1.117255e+01 1.901497e+01 1.401671e+01 1.436904e+01 1.413347e+01 8.186728e+00 4.519957e+00 1.372091e-01 7.291270e-01 1.127434e+00 1.198295e+00 1.009426e+00 1.082227e+00 8.489859e-01 1.258351e+00 1.011882e+00 7.543089e-01 9.191890e-01 7.647902e-01 1.948527e-01 3.737001e-02 7.715433e-02 1.702027e-01 1.870544e-01 1.297082e-01 2.547897e-01 1.939729e-01 2.669496e-01 2.211505e-01 1.891457e-01 1.921824e-01 1.464654e-01 1.430178e-02
<GCONST> 6.990041e+01
<STATE> 3
<MEAN> 39
 6.972239e+00 3.831105e-01 9.350856e+00 -5.674318e+00 -1.233975e+01 -4.816731e+00 2.048204e+00 -2.870414e+00 7.852439e-01 -4.979752e+00 1.498065e+00 -3.181559e+00 6.592831e+01 -1.276735e+00 -3.190783e+00 4.390351e+00 -1.459401e+00 -3.720833e+00 1.295026e+00 -2.299265e-01 8.927510e-01 -7.069789e-01 3.401482e-01 1.108378e+00 -1.518284e-01 1.679667e+00 4.857287e-03 -4.297487e-01 -2.612215e-02 5.902338e-02 -4.078690e-01 -2.153138e-01 1.245099e-01 2.462325e-01 -1.997211e-01 1.867151e-01 1.339713e-01 -2.040950e-01 2.939926e-01
<VARIANCE> 39
 5.655082e+00 2.757190e+01 3.088786e+01 1.603702e+01 2.013882e+01 2.099434e+01 1.270716e+01 2.127967e+01 1.358530e+01 1.585047e+01 1.028204e+01 9.368549e+00 7.334158e+00 2.731051e-01 7.236030e-01 1.404911e+00 2.283448e+00 1.554493e+00 2.315910e+00 1.845606e+00 2.243214e+00 1.906391e+00 1.642864e+00 1.242282e+00 9.841695e-01 1.889227e-01 7.612494e-02 1.580914e-01 5.125482e-01 1.891771e-01 3.687514e-01 2.604555e-01 2.581027e-01 3.388232e-01 1.619058e-01 1.986741e-01 1.574018e-01 1.532370e-01 4.726209e-02
<GCONST> 8.668665e+01
<STATE> 4
<MEAN> 39
 5.534636e+00 -1.129445e+01 1.087024e+01 -5.852928e+00 -1.851887e+01 -4.738114e+00 1.912383e-01 3.277573e+00 5.098571e-01 -4.627409e+00 1.182255e+00 -5.512528e+00 7.245832e+01 2.766825e-03 -7.643558e-01 -9.219351e-01 3.192391e-01 4.685578e-01 -9.053361e-02 -4.663712e-01 5.486124e-01 4.259796e-01 -1.158155e-01 -6.240729e-01 -1.381576e-01 2.973443e-01 3.603074e-02 4.381277e-01 -3.208104e-01 1.335048e-01 4.814739e-01 -6.955265e-02 2.687367e-02 -1.605184e-01 1.216176e-01 -6.569884e-03 -1.312171e-01 6.890903e-02 -2.769974e-01
<VARIANCE> 39
 3.282409e+00 3.382895e+01 6.866242e+01 2.429738e+01 3.794258e+01 2.366646e+01 3.500333e+01 2.443753e+01 4.288887e+01 1.991656e+01 2.249834e+01 1.214253e+01 1.216677e+01 3.637693e-01 2.401530e+00 4.475138e+00 1.676920e+00 4.662540e+00 1.500401e+00 2.037846e+00 2.396375e+00 1.859031e+00 1.691043e+00 1.588259e+00 9.586815e-01 8.600900e-01 1.061021e-01 1.151524e-01 1.060885e+00 4.039759e-01 6.012020e-01 3.357632e-01 4.267824e-01 3.448145e-01 3.177815e-01 3.239681e-01 2.921787e-01 1.787310e-01 3.194739e-02
<GCONST> 1.016060e+02
<TRANSP> 5
 0.000000e+00 1.000000e+00 0.000000e+00 0.000000e+00 0.000000e+00
 0.000000e+00 2.095082e-01 7.904918e-01 0.000000e+00 0.000000e+00
 0.000000e+00 0.000000e+00 3.784820e-01 6.215181e-01 0.000000e+00
 0.000000e+00 0.000000e+00 0.000000e+00 8.992155e-01 1.007845e-01
 0.000000e+00 0.000000e+00 0.000000e+00 0.000000e+00 0.000000e+00
<ENDHMM>
~h "aa"
<BEGINHMM>
<NUMSTATES> 5
<STATE> 2
<MEAN> 39
 1.082730e+00 -8.941213e+00 -3.983019e+00 -6.967113e+00 -4.050969e-01 5.817375e-01 4.935302e+00 -5.114196e+00 2.018262e+00 -2.379757e+00 -3.242126e-01 -6.623948e+00 6.526543e+01 1.330438e+00 -2.115511e+00 -1.572380e+00 -1.483412e+00 4.085116e-01 1.566049e+00 -1.411167e-01 -8.139516e-01 -4.614345e-01 -1.052291e-01 -1.628568e-01 -1.813022e+00 2.569939e+00 -1.812036e-01 -1.425044e-01 1.387535e-01 -7.864311e-03 9.941752e-02 1.314829e-01 -8.520127e-02 8.028533e-02 1.234377e-01 1.379440e-02 2.050785e-02 -3.887909e-02 2.357095e-01
<VARIANCE> 39
 3.962748e+01 3.986609e+01 4.737959e+01 3.670702e+01 2.272400e+01 2.874944e+01 3.083558e+01 3.521949e+01 3.718923e+01 2.004170e+01 2.494292e+01 4.311094e+01 7.988324e+01 2.691498e+00 2.913703e+00 3.127989e+00 2.597379e+00 1.941190e+00 2.903148e+00 2.512170e+00 3.368811e+00 2.679151e+00 1.981768e+00 1.546849e+00 3.613096e+00 4.306269e+00 7.695402e-01 6.626975e-01 6.915547e-01 6.432081e-01 3.262334e-01 4.884109e-01 4.626031e-01 5.631525e-01 4.447466e-01 3.447516e-01 3.695997e-01 8.580881e-01 1.117715e+00
<GCONST> 1.232424e+02
<STATE> 3
<MEAN> 39
 5.966915e+00 -1.448828e+01 -7.698040e+00 -1.079633e+01 1.733415e-01 4.979519e+00 3.888741e+00 -6.650430e+00 6.359428e-01 -2.644169e+00 -1.023717e+00 -1.145561e+01 7.337086e+01 1.602216e-01 -1.150010e+00 -2.139266e-01 -5.585639e-01 1.096760e-01 9.929987e-01 -4.451185e-01 1.228975e-01 -1.653518e-02 -4.241192e-02 1.766061e-01 -5.085173e-01 1.234357e+00 -4.677666e-01 4.367261e-01 4.479404e-01 4.427151e-01 -6.452233e-02 -4.034631e-01 2.371926e-03 2.271792e-01 1.457987e-01 6.795453e-03 -1.823652e-02 4.427248e-01 -5.433717e-01
<VARIANCE> 39
 2.169346e+01 4.024134e+01 4.582230e+01 2.626472e+01 1.832791e+01 2.747662e+01 3.944641e+01 5.216743e+01 4.668172e+01 1.970806e+01 2.396331e+01 2.908805e+01 4.015143e+01 2.022455e+00 2.553660e+00 1.939670e+00 2.126971e+00 1.673591e+00 1.770066e+00 1.929233e+00 2.392714e+00 1.449551e+00 1.236856e+00 1.269164e+00 1.098703e+00 1.572353e+00 2.056239e-01 4.594307e-01 3.652743e-01 3.638401e-01 2.636183e-01 2.661231e-01 3.838807e-01 4.102746e-01 3.516912e-01 2.525097e-01 2.209965e-01 4.123957e-01 5.228488e-01
<GCONST> 1.091525e+02
<STATE> 4
<MEAN> 39
 7.759860e+00 -1.601412e+01 -8.631301e+00 -1.118148e+01 -7.447762e-01 3.602628e+00 1.609339e+00 -2.814753e+00 1.380442e+00 -1.339261e+00 -3.999431e+00 -1.172382e+01 7.443528e+01 -1.499565e-01 3.219410e-01 2.541077e-01 3.231202e-01 -1.459191e-01 -5.090823e-01 -3.722778e-01 3.415731e-01 3.917565e-01 3.635893e-02 -2.416103e-01 2.974349e-01 -2.838205e-01 -4.973824e-02 2.300960e-01 7.591441e-02 9.451699e-02 -9.775707e-03 -1.444771e-01 2.718987e-02 -4.839534e-02 3.873829e-02 1.356671e-02 3.031095e-02 1.093178e-01 -1.755621e-01
<VARIANCE> 39
 1.559461e+01 4.244156e+01 3.222309e+01 2.468790e+01 2.082685e+01 3.098600e+01 3.351370e+01 4.358435e+01 3.661762e+01 1.556294e+01 2.418864e+01 1.771834e+01 2.058920e+01 8.708994e-01 1.472992e+00 9.011245e-01 1.221653e+00 1.437063e+00 1.892785e+00 1.600602e+00 1.700249e+00 1.345045e+00 1.124034e+00 1.230042e+00 1.055329e+00 9.132004e-01 5.649737e-02 1.873023e-01 1.438074e-01 1.900694e-01 2.847547e-01 2.765960e-01 2.871390e-01 3.062961e-01 2.304019e-01 2.265006e-01 2.380001e-01 1.730198e-01 7.901587e-02
<GCONST> 9.516736e+01
<TRANSP> 5
 0.000000e+00 1.000000e+00 0.000000e+00 0.000000e+00 0.000000e+00
 0.000000e+00 4.603092e-01 5.396908e-01 0.000000e+00 0.000000e+00
 0.000000e+00 0.000000e+00 4.817578e-01 5.182422e-01 0.000000e+00
 0.000000e+00 0.000000e+00 0.000000e+00 8.460075e-01 1.539924e-01
 0.000000e+00 0.000000e+00 0.000000e+00 0.000000e+00 0.000000e+00
<ENDHMM>
~h "cx"
<BEGINHMM>
<NUMSTATES> 5
<STATE> 2
<MEAN> 39
 -1.107148e+00 -3.111557e+00 2.382991e+00 -2.715346e+00 -2.099537e+00 -3.672415e+00 4.307039e+00 -4.981598e-01 4.805854e+00 -2.930069e+00 -1.980781e-01 -1.315757e+00 5.946252e+01 -4.686825e-01 1.903024e-01 -2.908436e-02 2.946809e-01 2.803223e-01 1.760022e-01 2.348057e-01 -2.449104e-01 -9.362166e-02 -5.157259e-02 1.491002e-01 -8.723292e-02 -7.623758e-01 -1.635328e-02 -1.437502e-01 -3.076871e-02 -1.380707e-01 -1.457175e-01 -1.901164e-02 -9.010001e-02 1.407487e-02 -8.480032e-03 5.162429e-02 1.087847e-01 3.017625e-02 1.243685e-01
<VARIANCE> 39
 1.760918e+01 3.022279e+01 2.972690e+01 1.416038e+01 2.134353e+01 1.710185e+01 1.738292e+01 2.893092e+01 2.427474e+01 1.618933e+01 2.208720e+01 1.676638e+01 1.101341e+01 6.135863e-01 8.985138e-01 6.943377e-01 8.355361e-01 1.222135e+00 1.341427e+00 1.663687e+00 1.570487e+00 2.039048e+00 2.257498e+00 1.947372e+00 1.053522e+00 3.424912e-01 7.001574e-02 1.561408e-01 1.461074e-01 1.993241e-01 2.502643e-01 2.785201e-01 3.159496e-01 3.138590e-01 4.122353e-01 4.315916e-01 3.507517e-01 3.108457e-01 3.713172e-02
<GCONST> 9.163041e+01
<STATE> 3
<MEAN> 39
 -2.377631e+00 -2.212321e+00 2.452928e+00 -1.736073e+00 -2.664991e-01 -3.640103e+00 3.038766e+00 -2.219757e+00 3.849619e+00 -2.577693e+00 3.270138e-01 -2.232018e+00 5.793189e+01 -5.471689e-01 -1.724911e-01 -3.083790e-01 -9.221583e-02 7.128572e-02 1.439210e-01 6.097935e-02 -3.099680e-01 1.416777e-01 3.383381e-01 4.695377e-01 2.811013e-01 -5.977895e-01 -1.523427e-01 -4.573081e-01 1.453415e-01 -4.968659e-01 -2.437605e-01 8.942955e-02 -2.984533e-01 1.608749e-01 8.071900e-02 3.174445e-02 7.833550e-02 9.737196e-02 4.734040e-01
<VARIANCE> 39
 1.578092e+01 1.511571e+01 2.906326e+01 1.310660e+01 1.907413e+01 1.712159e+01 1.783371e+01 2.610145e+01 1.669336e+01 2.017771e+01 2.050042e+01 1.756826e+01 1.096484e+01 7.186322e-01 9.061428e-01 8.984875e-01 1.000944e+00 1.452272e+00 1.048201e+00 1.126949e+00 1.658378e+00 1.775109e+00 1.828284e+00 9.833120e-01 1.463078e+00 3.912162e-01 5.356352e-02 1.244244e-01 1.630296e-01 2.093357e-01 3.004077e-01 2.098930e-01 2.703699e-01 3.478204e-01 2.783413e-01 4.246413e-01 1.985091e-01 2.286330e-01 5.596030e-02
<GCONST> 8.861238e+01
<STATE> 4
<MEAN> 39
 -3.493940e+00 -2.417564e+00 2.188076e+00 -2.108624e+00 -8.463523e-01 -3.805909e+00 3.915475e+00 -1.868293e+00 4.340725e+00 -1.604067e+00 1.591486e+00 -1.545486e+00 5.700518e+01 -6.313115e-01 -1.131577e+00 2.589291e-01 -9.075361e-01 -4.433663e-01 6.287920e-01 -3.092373e-01 -6.354431e-03 1.208219e-01 4.671636e-02 4.301694e-01 4.219426e-01 2.308050e-01 -5.045382e-01 -3.528868e-01 3.739811e-01 -6.459067e-01 -6.678142e-02 2.232241e-01 -5.149937e-01 2.090977e-01 -3.583950e-02 -2.095341e-01 2.200206e-02 -1.053102e-01 8.412799e-01
<VARIANCE> 39
 9.208792e+00 1.025255e+01 2.569580e+01 1.456137e+01 1.916146e+01 1.762735e+01 2.217156e+01 2.802040e+01 1.802543e+01 1.566604e+01 2.144541e+01 1.304520e+01 6.923694e+00 5.406648e-01 1.943150e+00 1.670541e+00 1.737550e+00 1.308641e+00 1.410803e+00 1.182779e+00 1.299968e+00 1.128147e+00 1.005763e+00 6.792770e-01 1.139361e+00 8.541230e-01 1.213416e-01 1.520678e-01 2.633305e-01 2.478095e-01 3.723983e-01 3.234109e-01 4.178924e-01 6.312796e-01 3.846508e-01 3.808956e-01 2.749636e-01 2.675127e-01 7.302899e-02
<GCONST> 9.216817e+01
<TRANSP> 5
 0.000000e+00 1.000000e+00 0.000000e+00 0.000000e+00 0.000000e+00
 0.000000e+00 6.456798e-01 3.543201e-01 0.000000e+00 0.000000e+00
 0.000000e+00 0.000000e+00 1.256799e-01 8.743202e-01 0.000000e+00
 0.000000e+00 0.000000e+00 0.000000e+00 1.393584e-01 8.606415e-01
 0.000000e+00 0.000000e+00 0.000000e+00 0.000000e+00 0.000000e+00
<ENDHMM>
~h "ee"
<BEGINHMM>
<NUMSTATES> 5
<STATE> 2
<MEAN> 39
 -1.425238e+00 -2.848969e+00 6.875033e-01 -4.320249e+00 -2.737091e+00 -3.630041e+00 3.216094e+00 -1.263633e+00 6.246253e+00 -1.323377e+00 -4.663503e-01 -2.129827e+00 5.831147e+01 -4.946599e-01 1.369433e-01 3.635777e-01 3.366834e-01 4.801538e-01 3.612368e-01 2.687709e-01 5.324401e-02 -7.847480e-02 2.323992e-02 2.333370e-01 -1.101393e-01 -5.439664e-01 4.482222e-02 -9.209922e-02 5.521885e-02 -5.891765e-03 -1.050534e-01 -6.457938e-02 1.998127e-02 4.033595e-02 -6.946297e-02 -4.565143e-02 -5.218840e-02 -4.126603e-02 1.619920e-01
<VARIANCE> 39
 9.634089e+00 2.666090e+01 2.642749e+01 1.418647e+01 2.324850e+01 3.245044e+01 2.066376e+01 2.768474e+01 3.250979e+01 1.942385e+01 1.828996e+01 1.325160e+01 9.037110e+00 1.907372e-01 4.663809e-01 6.212022e-01 7.543635e-01 1.301439e+00 1.533097e+00 1.399839e+00 1.467277e+00 1.749313e+00 1.681277e+00 1.478124e+00 1.438451e+00 2.441900e-01 3.720045e-02 5.946698e-02 1.172637e-01 1.278895e-01 2.462972e-01 3.033094e-01 2.972880e-01 2.972394e-01 3.055828e-01 3.774638e-01 2.976107e-01 3.310294e-01 3.365408e-02
<GCONST> 8.572059e+01
<STATE> 3
<MEAN> 39
 -3.327322e+00 -4.693321e+00 2.117479e+00 -4.244525e+00 -3.216261e+00 -3.114225e+00 3.579678e+00 -1.433309e+00 4.297123e+00 -1.775770e+00 1.150866e+00 -2.280495e+00 5.818083e+01 -3.649952e-01 -1.633837e-01 6.022943e-01 1.666982e-01 -3.803075e-01 3.710162e-03 3.622534e-01 -3.910164e-02 -1.736256e-02 3.126119e-01 1.061136e-01 -1.557023e-01 -2.188987e-01 2.054409e-01 -3.094544e-01 6.464435e-01 -2.866368e-01 -6.554500e-01 -1.940751e-01 -2.761713e-01 9.067863e-02 -4.404172e-01 -4.436823e-02 4.065052e-02 -1.915094e-01 5.363579e-01
<VARIANCE> 39
 1.165372e+01 2.639216e+01 2.845594e+01 1.661983e+01 3.312486e+01 3.081951e+01 1.987828e+01 2.579721e+01 3.088044e+01 2.661807e+01 1.982065e+01 1.587512e+01 1.315355e+01 1.821329e-01 9.718190e-01 1.623139e+00 8.188292e-01 2.607827e+00 2.680323e+00 1.414786e+00 1.921815e+00 1.568839e+00 2.153656e+00 1.559927e+00 1.884198e+00 6.386253e-01 5.047608e-02 1.552830e-01 3.498743e-01 1.982610e-01 5.067965e-01 4.212753e-01 3.656940e-01 2.789239e-01 4.493581e-01 5.305048e-01 3.237889e-01 2.935407e-01 1.381873e-01
<GCONST> 9.800742e+01
<STATE> 4
<MEAN> 39
 -1.311158e+00 -6.764876e+00 7.569911e+00 -5.733883e+00 -9.548481e+00 -6.349592e+00 2.539882e+00 -1.497261e+00 1.183569e-02 -1.356611e+00 1.278262e+00 -5.176477e+00 6.203271e+01 2.362034e-01 -2.925365e-01 1.113993e+00 -1.144740e-01 -8.363524e-01 2.984441e-02 -1.386454e-02 -3.012861e-02 -5.284287e-01 -1.820504e-01 1.983091e-01 -2.189647e-01 4.642698e-01 2.354136e-01 -4.233862e-01 7.487090e-01 -4.030570e-01 -6.394440e-01 -9.739582e-02 -5.680931e-01 1.488539e-01 -3.836797e-01 1.887343e-02 2.069505e-01 -1.094455e-01 7.153429e-01
<VARIANCE> 39
 1.412489e+01 2.490934e+01 6.774343e+01 1.425813e+01 6.977097e+01 2.856239e+01 2.071604e+01 1.638883e+01 4.800944e+01 1.349844e+01 1.431247e+01 2.223063e+01 3.595963e+01 5.303167e-01 1.004350e+00 1.487636e+00 1.066023e+00 1.681825e+00 1.441995e+00 1.454425e+00 1.204572e+00 1.482723e+00 1.384450e+00 8.855800e-01 1.178144e+00 5.939884e-01 1.247799e-01 2.728469e-01 9.564931e-01 3.136297e-01 9.110004e-01 3.737774e-01 4.743131e-01 2.771238e-01 4.730010e-01 3.134505e-01 3.267186e-01 3.144287e-01 4.051002e-01
<GCONST> 1.023972e+02
<TRANSP> 5
 0.000000e+00 1.000000e+00 0.000000e+00 0.000000e+00 0.000000e+00
 0.000000e+00 7.388551e-01 2.611449e-01 0.000000e+00 0.000000e+00
 0.000000e+00 0.000000e+00 2.080874e-01 7.919126e-01 0.000000e+00
 0.000000e+00 0.000000e+00 0.000000e+00 4.219117e-01 5.780883e-01
 0.000000e+00 0.000000e+00 0.000000e+00 0.000000e+00 0.000000e+00
<ENDHMM>
~h "ii"
<BEGINHMM>
<NUMSTATES> 5
<STATE> 2
<MEAN> 39
 -1.622158e+00 -8.635653e+00 1.199816e+01 -5.472091e+00 -1.535342e+01 -8.887897e+00 8.548285e-02 -6.021834e+00 -3.573584e+00 -2.723605e+00 2.575501e+00 -4.972579e+00 7.090050e+01 2.151490e+00 -1.685913e-01 4.477650e+00 -1.079586e+00 -4.149153e+00 1.393349e-01 -2.791135e+00 -7.371805e-01 -1.629243e+00 7.238818e-01 -3.642747e-01 -2.694347e+00 2.677630e+00 1.099735e-01 3.670821e-01 3.376752e-03 4.457040e-03 5.557203e-01 7.644223e-01 -2.674884e-01 1.916315e-01 3.041497e-01 2.894152e-01 -1.933474e-01 -1.512835e-01 -8.483384e-01
<VARIANCE> 39
 2.194347e+01 2.412424e+01 6.563145e+01 1.455523e+01 5.104691e+01 1.765662e+01 4.131535e+01 1.913716e+01 2.773227e+01 1.710979e+01 1.362618e+01 3.478697e+01 1.360715e+01 8.398507e-01 1.278147e+00 2.408495e+00 1.328865e+00 2.836701e+00 3.685213e+00 3.290757e+00 2.072175e+00 2.137838e+00 2.096544e+00 2.664708e+00 1.980932e+00 2.631150e+00 4.924523e-01 2.331966e-01 1.401389e+00 2.018288e-01 1.021427e+00 4.853076e-01 8.158612e-01 4.418383e-01 3.509462e-01 3.691736e-01 3.631916e-01 6.795382e-01 2.402578e-01
<GCONST> 1.128358e+02
<STATE> 3
<MEAN> 39
 2.538387e+00 -9.055976e+00 2.367072e+01 -1.056136e+01 -2.200242e+01 -3.132440e+00 -8.800101e+00 -6.126696e+00 -6.510200e+00 1.025265e+00 -4.591526e-01 -1.360089e+01 7.413831e+01 1.839979e-01 4.324127e-01 3.556306e-01 -4.033927e-01 1.141233e-01 7.838686e-01 -8.935583e-02 -1.691431e-01 3.045021e-01 3.903081e-01 -6.693767e-01 -3.475581e-01 -2.706683e-01 -2.598133e-01 1.861701e-01 -7.220010e-01 2.003017e-01 5.835035e-01 -2.119972e-01 7.322140e-01 5.825688e-03 3.383355e-01 -1.942338e-01 3.910709e-02 5.419721e-01 -3.274140e-01
<VARIANCE> 39
 5.373061e+00 1.106776e+01 1.636393e+01 1.910678e+01 1.847365e+01 8.539815e+00 3.851838e+01 1.399740e+01 3.245451e+01 1.884744e+01 3.174592e+01 2.199256e+01 5.991861e+00 2.865109e-01 5.222335e-01 1.048553e+00 6.657395e-01 1.041829e+00 7.958862e-01 1.721764e+00 6.541327e-01 1.002559e+00 6.976771e-01 9.842839e-01 8.021242e-01 3.430220e-01 1.306107e-01 9.354189e-02 4.257671e-01 1.509461e-01 4.982476e-01 1.617106e-01 4.036422e-01 1.579894e-01 2.506292e-01 1.451004e-01 2.495426e-01 1.960352e-01 1.005702e-01
<GCONST> 8.257349e+01
<STATE> 4
<MEAN> 39
 4.263708e+00 -2.727848e+00 1.929560e+01 -1.123270e+01 -1.905156e+01 -1.852636e+00 -2.840938e+00 -5.809378e+00 -2.003794e+00 3.449855e-01 -1.136088e+00 -9.165695e+00 6.973414e+01 2.858416e-01 6.434228e-01 -1.013438e+00 -5.605477e-02 6.191560e-01 -2.997609e-02 6.469490e-01 3.439880e-01 2.698188e-01 -3.080865e-01 2.406837e-01 4.971033e-01 -4.906006e-01 3.057490e-02 9.955969e-03 -2.045775e-01 1.506611e-01 1.043831e-01 -1.221285e-01 -2.020283e-02 -1.044056e-02 -5.463656e-03 -6.249605e-02 3.923433e-02 4.025964e-02 -2.885736e-02
<VARIANCE> 39
 3.606789e+00 2.637698e+01 2.315977e+01 2.732939e+01 2.164363e+01 2.126442e+01 4.020227e+01 1.954433e+01 2.561928e+01 1.818895e+01 2.398307e+01 1.814243e+01 6.408755e+00 2.545767e-01 7.226327e-01 1.784381e+00 2.162822e+00 1.972428e+00 1.881090e+00 1.245330e+00 1.500399e+00 1.328048e+00 1.168327e+00 1.050078e+00 9.371259e-01 2.370543e-01 3.465544e-02 1.171095e-01 1.686564e-01 3.418721e-01 3.292685e-01 3.347046e-01 2.348934e-01 3.133580e-01 2.439069e-01 1.917500e-01 2.080972e-01 1.740997e-01 3.922045e-02
<GCONST> 8.734261e+01
<TRANSP> 5
 0.000000e+00 1.000000e+00 0.000000e+00 0.000000e+00 0.000000e+00
 0.000000e+00 7.300686e-01 2.699314e-01 0.000000e+00 0.000000e+00
 0.000000e+00 0.000000e+00 7.483708e-01 2.516292e-01 0.000000e+00
 0.000000e+00 0.000000e+00 0.000000e+00 9.045197e-01 9.548029e-02
 0.000000e+00 0.000000e+00 0.000000e+00 0.000000e+00 0.000000e+00
<ENDHMM>
~h "sh"
<BEGINHMM>
<NUMSTATES> 5
<STATE> 2
<MEAN> 39
 -2.382950e+00 -7.205228e+00 4.889365e+00 -1.128630e+00 -3.123672e+00 -3.298466e+00 2.919226e-01 -2.471037e+00 5.075474e+00 -3.325215e+00 -1.365351e+00 -1.948480e+00 6.297010e+01 -1.849117e+00 -1.088003e+00 9.292544e-01 8.217757e-01 -4.250281e-03 4.537512e-02 2.659093e-01 -1.425430e-03 1.322521e+00 -7.409677e-02 5.040472e-02 1.994015e-02 4.632108e-01 -2.972715e-01 -1.646321e-01 -1.222338e-01 -1.844361e-01 -2.892842e-01 -1.962440e-01 2.581275e-02 1.396103e-01 1.952720e-01 1.135538e-01 6.750029e-02 4.256420e-02 3.004795e-01
<VARIANCE> 39
 3.198252e+01 2.580257e+01 3.404291e+01 2.142543e+01 2.290911e+01 3.127649e+01 3.066109e+01 4.262043e+01 2.678851e+01 2.589697e+01 2.454904e+01 1.990461e+01 2.330987e+01 2.228481e+00 2.047824e+00 1.449097e+00 2.830058e+00 1.895144e+00 3.224185e+00 2.398436e+00 2.596955e+00 3.302181e+00 1.871915e+00 1.945593e+00 1.820240e+00 7.829568e-01 2.087406e-01 2.904426e-01 2.648129e-01 3.425797e-01 2.582634e-01 4.797984e-01 5.314797e-01 4.342904e-01 6.399158e-01 3.823598e-01 3.618480e-01 3.985122e-01 7.915964e-02
<GCONST> 1.093893e+02
<STATE> 3
<MEAN> 39
 -1.317642e+01 -1.155241e+01 8.626971e+00 1.718900e-01 -7.448237e+00 -3.352181e+00 1.812446e+00 -1.458362e+00 9.945510e+00 -2.735031e+00 -3.786259e-01 -1.659848e+00 6.801182e+01 -9.964381e-01 -5.466194e-01 4.782279e-02 3.391154e-01 -4.402768e-01 -3.018395e-01 1.369989e-01 4.325410e-02 4.703467e-01 4.106650e-01 1.398959e-01 5.615100e-02 3.860726e-01 4.648234e-01 1.081084e-01 -1.242649e-01 1.660079e-02 4.946057e-02 -1.498494e-01 -7.458615e-02 8.113739e-02 -1.659997e-01 -2.517975e-02 -3.249577e-02 -4.629797e-02 -1.434751e-01
<VARIANCE> 39
 1.930626e+01 1.080096e+01 1.935427e+01 2.351367e+01 1.859224e+01 3.771749e+01 2.963048e+01 5.543438e+01 2.112747e+01 2.627027e+01 2.269239e+01 1.803470e+01 1.056152e+01 1.693061e+00 5.778884e-01 1.204376e+00 9.755087e-01 1.383026e+00 1.755009e+00 1.949400e+00 2.101032e+00 1.741713e+00 1.684260e+00 1.785176e+00 1.107937e+00 4.884768e-01 1.564161e-01 1.264453e-01 1.844755e-01 2.024788e-01 2.744805e-01 3.644086e-01 3.886516e-01 4.036874e-01 3.833108e-01 3.875906e-01 3.318042e-01 2.429812e-01 3.606706e-02
<GCONST> 9.615082e+01
<STATE> 4
<MEAN> 39
 -8.109007e+00 -1.127046e+01 7.423401e+00 1.466252e+00 -9.288763e+00 -8.822887e+00 -1.241679e+00 -5.847495e-01 9.356791e+00 -2.622453e+00 -8.317845e-01 -2.144694e+00 6.863457e+01 3.181397e+00 1.014467e+00 -2.440910e-01 -7.480682e-01 -7.766886e-01 -8.666497e-01 -1.392945e+00 -6.803986e-03 -9.922259e-01 -5.501906e-01 -1.338893e-01 -4.050289e-01 4.234725e-01 2.993952e-01 5.791844e-02 5.657211e-02 -3.021702e-01 -1.646991e-01 2.061829e-01 -1.015779e-01 -2.558651e-02 -1.588039e-01 -5.683938e-02 5.697022e-02 2.365960e-02 1.806984e-01
<VARIANCE> 39
 8.564602e+01 2.536053e+01 1.086324e+01 1.907713e+01 1.955099e+01 1.996921e+01 2.965425e+01 2.948207e+01 3.037470e+01 2.207679e+01 1.994283e+01 2.153638e+01 1.162653e+01 5.222722e+00 2.353109e+00 1.145990e+00 2.352290e+00 1.911376e+00 1.591141e+00 1.926603e+00 1.768072e+00 2.993336e+00 2.051145e+00 1.576997e+00 1.468107e+00 1.179783e+00 1.153341e+00 5.692098e-01 1.827529e-01 3.339843e-01 3.293994e-01 3.182445e-01 4.669889e-01 3.814567e-01 6.243191e-01 4.221864e-01 3.013960e-01 2.749825e-01 1.769381e-01
<GCONST> 1.083636e+02
<TRANSP> 5
 0.000000e+00 1.000000e+00 0.000000e+00 0.000000e+00 0.000000e+00
 0.000000e+00 6.553215e-01 3.446784e-01 0.000000e+00 0.000000e+00
 0.000000e+00 0.000000e+00 8.624824e-01 1.375176e-01 0.000000e+00
 0.000000e+00 0.000000e+00 0.000000e+00 8.377755e-01 1.622246e-01
 0.000000e+00 0.000000e+00 0.000000e+00 0.000000e+00 0.000000e+00
<ENDHMM>
~h "sp"
<BEGINHMM>
<NUMSTATES> 3
<STATE> 2
~s "silst"
<TRANSP> 3
 0.000000e+00 2.836293e-01 7.163708e-01
 0.000000e+00 8.772592e-01 1.227408e-01
 0.000000e+00 0.000000e+00 0.000000e+00
<ENDHMM>
~h "uu"
<BEGINHMM>
<NUMSTATES> 5
<STATE> 2
<MEAN> 39
 7.303946e+00 -9.734952e+00 4.754510e+00 -7.593588e+00 -7.793560e+00 -3.898582e+00 -1.036314e+01 -5.477961e-01 6.840905e+00 -2.678683e+00 -6.874877e-01 -6.510006e+00 7.291949e+01 3.073949e-01 -8.580379e-01 -3.138536e-01 -1.280715e+00 2.182321e-01 1.702011e+00 -7.225632e-01 3.452239e-01 1.740727e-01 -3.781281e-02 4.664544e-01 -3.885948e-02 6.508498e-01 -3.070056e-01 7.097568e-01 -2.019798e-01 4.374568e-01 1.392772e-01 6.165083e-02 9.491842e-01 -5.122039e-01 -1.990440e-01 -7.337956e-02 3.415225e-02 2.722060e-01 -5.919524e-01
<VARIANCE> 39
 2.242024e+00 2.534637e+01 4.082050e+01 1.915222e+01 5.411768e+01 3.898643e+01 2.463850e+01 2.722061e+01 4.401969e+01 1.860857e+01 1.439887e+01 1.930203e+01 7.090176e+00 4.786390e-01 3.144355e+00 2.630497e+00 2.241134e+00 2.308210e+00 1.701816e+00 3.933424e+00 2.825491e+00 2.234004e+00 1.592405e+00 1.721677e+00 1.161044e+00 1.414343e+00 4.075349e-01 3.996503e-01 4.203528e-01 2.653037e-01 5.412244e-01 3.662739e-01 3.009370e-01 4.759934e-01 6.974638e-01 2.517034e-01 3.708117e-01 2.169954e-01 7.941167e-02
<GCONST> 1.047408e+02
<STATE> 3
<MEAN> 39
 8.908440e+00 -6.604906e+00 -7.583578e-01 -1.368580e+01 -5.157425e+00 4.630223e+00 -8.601593e+00 -4.608797e+00 3.946709e+00 -1.978118e+00 2.664144e+00 -3.631516e+00 7.226570e+01 3.583249e-01 1.626366e+00 -6.129584e-01 -6.706820e-01 -2.330768e-01 2.898637e-01 1.351019e+00 -3.075685e-01 -1.260343e+00 -7.588086e-01 3.940322e-01 1.244548e+00 -7.073553e-01 -2.450534e-02 2.436765e-01 5.867124e-02 2.062633e-01 -4.087378e-02 -4.790562e-01 1.729889e-01 2.367162e-01 -4.102682e-02 -1.166789e-01 -2.520577e-01 -4.737667e-02 -1.506188e-01
<VARIANCE> 39
 3.231351e+00 2.190593e+01 3.894743e+01 4.300072e+01 3.424621e+01 4.981858e+01 2.393974e+01 3.028934e+01 2.920188e+01 2.461498e+01 2.188325e+01 2.261137e+01 5.740860e+00 7.457238e-02 6.422542e-01 6.544462e-01 1.196146e+00 1.436315e+00 1.829169e+00 1.374220e+00 2.364534e+00 1.542857e+00 1.749561e+00 1.902026e+00 1.008623e+00 2.058919e-01 2.885422e-02 1.671036e-01 1.664152e-01 1.386676e-01 2.487477e-01 2.244201e-01 2.585086e-01 3.323709e-01 2.831003e-01 3.133483e-01 2.278175e-01 3.395942e-01 2.885459e-02
<GCONST> 8.787230e+01
<STATE> 4
<MEAN> 39
 8.722475e+00 2.566787e+00 -1.125188e+00 -1.335442e+01 -7.949035e+00 -2.978910e+00 -1.170475e+00 -2.539927e+00 -1.365343e+00 -4.651536e+00 3.842484e-01 -1.423136e+00 6.589817e+01 -3.415992e-01 4.133207e-01 2.766229e-01 6.567806e-01 9.203508e-02 -5.525891e-01 4.604065e-01 -1.445604e-01 -1.453483e-02 1.095544e-01 -1.610608e-01 -3.932434e-02 -6.164808e-01 -7.798913e-02 -1.332453e-01 2.812612e-02 8.950102e-02 8.414832e-02 5.265897e-02 -7.851335e-02 -5.465332e-02 9.746578e-02 1.227638e-01 5.158392e-02 -6.735508e-02 1.171618e-02
<VARIANCE> 39
 8.854425e+00 1.481906e+01 1.999503e+01 3.224324e+01 1.895941e+01 2.766356e+01 2.271720e+01 1.975497e+01 2.497891e+01 1.831342e+01 2.086540e+01 2.085484e+01 1.110581e+01 3.343646e-01 1.084210e+00 9.595355e-01 1.023385e+00 1.339311e+00 1.751993e+00 1.559606e+00 1.682963e+00 1.835250e+00 1.321908e+00 1.496824e+00 1.355416e+00 2.126045e-01 2.784592e-02 7.907492e-02 1.311554e-01 1.715201e-01 1.651110e-01 2.631527e-01 2.265145e-01 2.622617e-01 3.242503e-01 2.676762e-01 2.772456e-01 2.678997e-01 2.896673e-02
<GCONST> 8.637280e+01
<TRANSP> 5
 0.000000e+00 1.000000e+00 0.000000e+00 0.000000e+00 0.000000e+00
 0.000000e+00 6.836939e-01 3.163061e-01 0.000000e+00 0.000000e+00
 0.000000e+00 0.000000e+00 6.924092e-01 3.075908e-01 0.000000e+00
 0.000000e+00 0.000000e+00 0.000000e+00 8.786341e-01 1.213659e-01
 0.000000e+00 0.000000e+00 0.000000e+00 0.000000e+00 0.000000e+00
<ENDHMM>
~h "sil"
<BEGINHMM>
<NUMSTATES> 5
<STATE> 2
<MEAN> 39
 -6.845041e+00 -6.664813e+00 1.903063e+00 -4.987248e-01 -3.368797e-01 -3.856069e+00 4.639349e+00 -1.157237e-01 4.543046e+00 -2.486220e+00 1.731434e+00 -4.710105e-01 5.716746e+01 -3.962886e-02 -5.792037e-02 -2.834293e-02 -1.400387e-02 -1.078844e-04 7.406583e-02 -1.122463e-01 -2.990848e-02 1.189811e-01 1.026078e-01 1.599379e-02 -6.381771e-02 -1.303250e-01 3.504788e-02 8.649513e-02 2.252654e-03 -5.670499e-03 2.119319e-02 4.871572e-02 -2.000116e-03 -8.052927e-02 -2.972646e-02 3.984186e-02 1.721649e-02 2.258400e-02 -3.837022e-02
<VARIANCE> 39
 1.518545e+01 2.197227e+01 1.868156e+01 2.699719e+01 2.187630e+01 2.038393e+01 2.321699e+01 2.752253e+01 1.960349e+01 2.158650e+01 1.709361e+01 1.404955e+01 1.430566e+01 7.593825e-01 1.226149e+00 1.142641e+00 1.360462e+00 1.799956e+00 1.565521e+00 1.807812e+00 2.279578e+00 1.874891e+00 1.749478e+00 1.514483e+00 1.418260e+00 7.778802e-01 1.298689e-01 2.110450e-01 2.283337e-01 2.797559e-01 3.480848e-01 2.885932e-01 3.305249e-01 3.747999e-01 3.597032e-01 3.544364e-01 2.666961e-01 2.823484e-01 1.138990e-01
<GCONST> 9.743086e+01
<STATE> 3
~s "silst"
<STATE> 4
<MEAN> 39
 -6.490157e+00 -3.729165e+00 1.354188e+00 -7.249703e-01 9.821211e-01 -2.005786e+00 4.824293e+00 -2.564624e+00 2.789995e+00 -2.139935e+00 2.352829e+00 2.346044e-01 5.471817e+01 -1.419467e-02 1.694406e-02 1.293498e-02 -1.013130e-02 5.802697e-03 5.694231e-03 -1.066603e-02 -2.767732e-02 -2.848921e-02 -1.088690e-02 1.150628e-02 9.607701e-03 -1.593767e-02 -1.949957e-03 -1.313348e-02 -1.787680e-03 -6.866140e-03 -1.305907e-02 -9.357974e-03 -3.895209e-03 9.182122e-03 9.479123e-03 2.523043e-03 -9.594128e-03 -9.371743e-03 1.119041e-02
<VARIANCE> 39
 1.549754e+00 4.602239e+00 7.448748e+00 7.778791e+00 1.091336e+01 1.268228e+01 1.397557e+01 1.519540e+01 1.613894e+01 1.384279e+01 1.339335e+01 1.152277e+01 2.155577e+00 1.129411e-01 2.442051e-01 4.152867e-01 6.294672e-01 8.381628e-01 1.012225e+00 1.268018e+00 1.385624e+00 1.464975e+00 1.318443e+00 1.290051e+00 1.129898e+00 4.159036e-02 2.319015e-02 4.743780e-02 8.195865e-02 1.277822e-01 1.730771e-01 2.080127e-01 2.569722e-01 2.855989e-01 3.037901e-01 2.706149e-01 2.656298e-01 2.320398e-01 8.278972e-03
<GCONST> 6.514159e+01
<TRANSP> 5
 0.000000e+00 1.000000e+00 0.000000e+00 0.000000e+00 0.000000e+00
 0.000000e+00 6.857872e-01 1.812110e-01 1.330018e-01 0.000000e+00
 0.000000e+00 0.000000e+00 8.942289e-01 1.057711e-01 0.000000e+00
 0.000000e+00 1.744447e-02 0.000000e+00 9.534742e-01 2.908136e-02
 0.000000e+00 0.000000e+00 0.000000e+00 0.000000e+00 0.000000e+00
<ENDHMM>
~h "txh"
<BEGINHMM>
<NUMSTATES> 5
<STATE> 2
<MEAN> 39
 9.241570e+00 -1.834664e+01 -9.396325e+00 -7.567654e+00 -1.126029e+00 5.948467e+00 3.951543e+00 -6.076943e+00 -5.788350e-02 -4.102359e+00 -1.672600e-01 -1.215369e+01 7.581541e+01 2.308965e-01 -3.137707e-01 -4.299194e-02 7.376111e-01 -4.604664e-01 -1.117365e+00 -2.531886e-01 1.527814e+00 2.714193e-01 -6.371472e-01 -1.755760e-01 4.648876e-01 -7.065432e-02 -3.356919e-02 1.697868e-02 1.104056e-01 7.346887e-02 -7.200544e-02 -3.514844e-01 -6.973793e-02 3.064788e-01 1.448493e-01 -1.492047e-01 -1.859153e-02 1.770029e-01 -6.262442e-02
<VARIANCE> 39
 2.911188e+00 4.669159e+01 2.191681e+01 1.425358e+01 1.385235e+01 2.406570e+01 4.520595e+01 8.437771e+01 4.442736e+01 1.712039e+01 1.223746e+01 1.265371e+01 6.482028e+00 1.522213e-01 4.638431e-01 6.119311e-01 7.921076e-01 8.491597e-01 1.843175e+00 1.548173e+00 2.725132e+00 1.596451e+00 1.227050e+00 7.796956e-01 8.467498e-01 1.603644e-01 3.073587e-02 1.214941e-01 8.535520e-02 1.162101e-01 1.500975e-01 1.920731e-01 2.585832e-01 3.441457e-01 2.281069e-01 1.966040e-01 1.484977e-01 1.492567e-01 2.959752e-02
<GCONST> 8.027169e+01
<STATE> 3
<MEAN> 39
 1.034744e+01 -1.892665e+01 -6.483640e+00 -1.205152e+00 -6.237784e+00 -9.718498e+00 -1.435081e-01 8.055429e+00 5.089253e+00 -1.057223e+01 -1.326315e+00 -4.277696e+00 7.402842e+01 -1.247002e-01 1.499452e+00 6.951098e-01 1.081019e+00 -3.948105e-01 -2.288042e+00 -3.649973e-01 6.138323e-01 8.426171e-01 -3.071160e-01 2.631022e-01 1.535865e+00 -1.276112e+00 -2.805428e-01 4.069965e-01 -8.556127e-02 -1.831329e-01 5.527970e-01 8.528540e-01 2.145436e-01 -8.627323e-01 -2.826805e-01 4.618476e-01 5.368626e-02 -3.747104e-01 -3.325099e-01
<VARIANCE> 39
 3.429298e+00 2.340200e+01 1.462995e+01 1.707625e+01 2.149546e+01 4.279358e+01 4.801369e+01 2.497978e+01 2.576062e+01 1.422986e+01 1.292159e+01 2.188084e+01 9.638903e+00 4.863366e-01 1.773106e+00 8.439828e-01 8.876769e-01 2.629953e+00 4.162605e+00 2.334971e+00 5.325087e+00 1.964364e+00 1.825667e+00 1.348866e+00 1.524761e+00 5.419669e-01 6.316871e-02 2.131671e-01 1.918930e-01 2.400205e-01 3.801418e-01 6.974245e-01 5.112691e-01 4.363825e-01 3.265242e-01 2.540949e-01 2.745446e-01 3.889599e-01 4.017232e-02
<GCONST> 9.701979e+01
<STATE> 4
<MEAN> 39
 3.556569e+00 -1.190534e+01 -4.340143e+00 -2.082767e+00 -2.209223e+00 -7.774225e+00 2.593115e+00 4.470279e+00 5.849703e+00 -6.309334e+00 6.459928e-02 -2.578648e+00 6.588797e+01 -1.217584e+00 3.378551e-01 4.140508e-01 -6.559991e-01 4.403223e-01 9.607548e-01 6.320677e-01 -3.917350e-01 -4.599958e-02 6.918287e-01 1.448506e-03 7.066820e-03 -7.683007e-01 2.833405e-02 -2.062690e-01 3.875221e-02 -4.982442e-02 -1.551508e-01 1.303419e-02 6.109054e-03 7.336447e-02 -1.944442e-02 -5.650133e-02 -7.883403e-02 3.148768e-03 1.705606e-01
<VARIANCE> 39
 2.152055e+01 1.318316e+01 2.875207e+01 2.247161e+01 1.899059e+01 2.836069e+01 3.919889e+01 2.324644e+01 2.320753e+01 2.227025e+01 1.624064e+01 2.107219e+01 1.045206e+01 8.422231e-01 1.743226e+00 3.140800e+00 1.730366e+00 2.070547e+00 2.108234e+00 2.501961e+00 2.563013e+00 2.239932e+00 1.638239e+00 1.999669e+00 2.262102e+00 1.833513e+00 1.801670e-01 2.767023e-01 6.370233e-01 4.105441e-01 3.514610e-01 4.819506e-01 4.952918e-01 5.317830e-01 4.746879e-01 3.328709e-01 4.118396e-01 4.936647e-01 2.883089e-01
<GCONST> 1.080228e+02
<TRANSP> 5
 0.000000e+00 1.000000e+00 0.000000e+00 0.000000e+00 0.000000e+00
 0.000000e+00 8.797913e-01 1.202087e-01 0.000000e+00 0.000000e+00
 0.000000e+00 0.000000e+00 7.692935e-01 2.307065e-01 0.000000e+00
 0.000000e+00 0.000000e+00 0.000000e+00 8.632993e-01 1.367007e-01
 0.000000e+00 0.000000e+00 0.000000e+00 0.000000e+00 0.000000e+00
<ENDHMM>
