~o
<STREAMINFO> 1 39
<VECSIZE> 39<NULLD><MFCC_D_A_0><DIAGC>
~h "a"
<BEGINHMM>
<NUMSTATES> 5
<STATE> 2
<MEAN> 39
 -8.910061e-01 -5.972160e+00 1.368368e+00 -3.437083e+00 -2.026965e+00 -5.863472e+00 9.878392e-01 -2.130747e+00 3.042788e+00 -3.270953e+00 -6.228718e-01 -3.587023e+00 6.326165e+01 -4.471381e-01 5.542251e-02 7.120469e-02 5.276413e-02 1.863411e-01 1.220743e-01 7.465205e-02 -1.204578e-01 8.417636e-03 -1.824588e-02 1.109064e-01 2.543745e-01 -2.332869e-01 5.523934e-02 -1.072735e-01 -4.957179e-03 -1.101636e-01 -5.006216e-02 7.306185e-02 9.637897e-03 2.134440e-02 -6.421940e-02 3.092379e-02 -1.626287e-02 -6.334362e-02 9.656890e-02
<VARIANCE> 39
 4.767147e+01 4.110325e+01 3.017953e+01 2.330590e+01 2.637830e+01 2.853819e+01 2.681171e+01 2.760108e+01 2.260677e+01 2.063522e+01 2.019549e+01 2.342134e+01 2.756694e+01 1.346051e+00 2.476219e+00 1.383055e+00 1.618942e+00 1.704418e+00 1.705571e+00 1.967995e+00 2.010462e+00 1.786842e+00 1.752604e+00 1.614243e+00 1.912557e+00 1.191139e+00 1.980596e-01 3.548761e-01 2.616988e-01 3.084777e-01 3.644802e-01 3.523273e-01 3.672480e-01 3.955132e-01 3.368816e-01 3.265567e-01 3.053442e-01 3.691776e-01 2.036138e-01
<GCONST> 1.064261e+02
<STATE> 3
<MEAN> 39
 -1.539427e+00 -5.961030e+00 1.389330e+00 -3.490464e+00 -1.819589e+00 -5.550305e+00 1.274789e+00 -2.133783e+00 2.901536e+00 -3.250701e+00 -4.444293e-01 -3.182954e+00 6.291328e+01 -3.038093e-01 -1.622029e-01 1.533504e-02 -1.634108e-01 1.064964e-01 2.415874e-01 6.456216e-02 -6.860423e-02 -9.821455e-02 2.425543e-02 7.709609e-02 8.039934e-02 -1.187720e-02 1.061197e-01 -1.195830e-01 1.869826e-02 -1.340158e-01 -6.863176e-02 7.958513e-02 -3.339908e-02 8.773791e-03 -5.373023e-02 5.402885e-02 -1.238383e-02 -1.481959e-01 1.555409e-01
<VARIANCE> 39
 4.672112e+01 3.859832e+01 2.773762e+01 2.261587e+01 2.624130e+01 2.775305e+01 2.592878e+01 2.666298e+01 2.230380e+01 1.992589e+01 2.098589e+01 2.505078e+01 2.772793e+01 1.684001e+00 2.637533e+00 1.400670e+00 1.831105e+00 1.894270e+00 1.757794e+00 2.099792e+00 1.759019e+00 1.847231e+00 1.645651e+00 1.518738e+00 1.951540e+00 1.687618e+00 2.473823e-01 3.802295e-01 2.688456e-01 3.217331e-01 3.956316e-01 3.537745e-01 3.743125e-01 3.758049e-01 3.610644e-01 3.276393e-01 3.217772e-01 3.804430e-01 2.327511e-01
<GCONST> 1.076615e+02
<STATE> 4
<MEAN> 39
 -1.640016e+00 -6.512747e+00 1.310420e+00 -3.978058e+00 -1.703787e+00 -5.096677e+00 1.183652e+00 -2.250075e+00 2.633973e+00 -3.170855e+00 -4.572727e-01 -3.371542e+00 6.322802e+01 -5.325707e-02 -3.763242e-01 8.029769e-02 -3.930421e-01 -2.274463e-02 3.641455e-01 -5.935882e-02 -1.090526e-01 -1.696281e-01 1.740218e-01 6.927838e-02 -2.573757e-01 3.335803e-01 1.389883e-01 -9.866961e-02 6.941449e-02 -1.384902e-01 -1.172694e-01 7.268903e-02 -7.255442e-02 -1.440867e-02 -4.869736e-02 9.068897e-02 1.583827e-02 -1.719404e-01 1.755429e-01
<VARIANCE> 39
 4.732897e+01 3.839388e+01 2.816334e+01 2.498759e+01 2.614397e+01 2.949670e+01 2.802542e+01 2.617505e+01 2.408936e+01 1.905624e+01 2.086502e+01 2.705619e+01 2.961406e+01 2.410211e+00 2.956442e+00 1.685477e+00 2.211949e+00 2.416271e+00 2.105503e+00 2.484215e+00 1.770513e+00 2.063437e+00 1.630217e+00 1.629915e+00 2.143475e+00 2.466703e+00 3.354029e-01 4.094021e-01 2.888916e-01 3.386962e-01 4.032778e-01 3.758262e-01 3.920849e-01 3.519655e-01 3.789225e-01 3.389675e-01 3.357897e-01 4.034505e-01 2.587783e-01
<GCONST> 1.110123e+02
<TRANSP> 5
 0.000000e+00 1.000000e+00 0.000000e+00 0.000000e+00 0.000000e+00
 0.000000e+00 3.498395e-01 6.501604e-01 0.000000e+00 0.000000e+00
 0.000000e+00 0.000000e+00 3.421339e-01 6.578661e-01 0.000000e+00
 0.000000e+00 0.000000e+00 0.000000e+00 3.915481e-01 6.084519e-01
 0.000000e+00 0.000000e+00 0.000000e+00 0.000000e+00 0.000000e+00
<ENDHMM>
~h "c"
<BEGINHMM>
<NUMSTATES> 5
<STATE> 2
<MEAN> 39
 -2.931598e-01 -7.572711e+00 -5.344275e+00 -6.940376e+00 -1.797190e-01 -5.112107e+00 3.690841e+00 -6.298552e-01 3.197964e+00 -1.139052e+00 -1.103752e+00 -4.955813e+00 6.442531e+01 -1.020287e+00 4.752134e-01 7.115842e-02 7.768059e-02 1.321007e-01 1.195753e-01 5.563912e-01 -1.734691e-01 2.564653e-02 -4.472037e-02 3.452419e-01 4.902116e-01 -5.513033e-01 -3.718127e-02 -1.553240e-01 5.106204e-02 -8.575439e-02 -4.637385e-02 -3.738512e-02 -2.022902e-02 7.646222e-02 -2.853465e-02 -4.226148e-03 -8.053963e-02 -4.759709e-02 1.431402e-01
<VARIANCE> 39
 4.644318e+01 1.665884e+01 1.864631e+01 1.602200e+01 1.389813e+01 2.296817e+01 2.454802e+01 2.026974e+01 1.792658e+01 1.265937e+01 1.441254e+01 2.361094e+01 2.101755e+01 1.175434e+00 1.568050e+00 1.467588e+00 1.737142e+00 1.494782e+00 2.406531e+00 2.199504e+00 2.203303e+00 1.871723e+00 1.652999e+00 1.333713e+00 1.757042e+00 1.383616e+00 1.620749e-01 2.640954e-01 2.879129e-01 3.551113e-01 3.172456e-01 5.065349e-01 4.603125e-01 4.450238e-01 3.812748e-01 3.641312e-01 2.514153e-01 3.613849e-01 1.854431e-01
<GCONST> 1.021117e+02
<STATE> 3
<MEAN> 39
 -3.816100e+00 -6.520885e+00 -3.810725e+00 -6.797947e+00 3.513786e-01 -5.326389e+00 4.793687e+00 -1.716462e-01 2.883429e+00 -1.192441e+00 -3.708562e-01 -3.594973e+00 6.311253e+01 -7.953727e-01 1.344667e-01 2.488423e-01 -9.448318e-02 1.689284e-03 -1.315355e-01 2.018349e-01 7.807017e-03 -6.115248e-02 -6.584468e-02 2.128329e-01 3.420892e-01 -2.202073e-01 5.171144e-02 -9.159387e-02 4.681016e-02 -3.584650e-02 -2.384986e-02 -5.981706e-02 -7.516971e-02 4.050644e-02 -4.639075e-02 -1.161164e-02 -2.626367e-02 -2.798034e-02 1.154629e-01
<VARIANCE> 39
 4.174361e+01 1.622902e+01 1.870201e+01 1.805640e+01 1.559204e+01 2.120437e+01 1.860014e+01 2.053595e+01 1.850086e+01 1.322484e+01 1.510453e+01 2.307593e+01 2.069210e+01 1.711573e+00 1.241765e+00 1.093632e+00 1.613578e+00 1.394306e+00 2.085051e+00 1.789477e+00 2.046256e+00 1.898924e+00 1.700554e+00 1.218873e+00 1.818622e+00 1.329003e+00 1.807441e-01 2.282753e-01 2.010924e-01 3.371064e-01 2.715768e-01 4.323658e-01 3.492645e-01 4.219798e-01 3.762703e-01 3.642437e-01 2.494975e-01 3.729401e-01 1.926920e-01
<GCONST> 1.001426e+02
<STATE> 4
<MEAN> 39
 -3.567778e+00 -9.023356e+00 -2.888938e+00 -8.587747e+00 -9.089875e-02 -3.911726e+00 3.889973e+00 3.776025e-01 1.441842e+00 -1.912063e+00 8.814772e-01 -4.085535e+00 6.487469e+01 -2.499852e-01 -1.177836e-01 2.524057e-01 -1.047619e-01 7.850396e-02 -3.081433e-02 -1.517214e-01 3.613605e-02 -1.148094e-01 -1.359460e-01 9.432331e-02 1.843586e-02 1.524385e-01 8.605327e-02 2.920726e-02 2.306350e-02 8.665964e-02 1.409138e-02 2.172848e-02 -4.604555e-02 -2.564660e-02 8.881983e-03 -1.109921e-02 -5.362200e-02 -4.316747e-02 -2.125156e-02
<VARIANCE> 39
 5.584293e+01 4.200521e+01 1.672831e+01 3.263149e+01 1.883652e+01 4.397134e+01 1.812184e+01 2.410106e+01 2.122473e+01 1.607552e+01 1.578264e+01 2.944641e+01 3.616817e+01 2.527472e+00 2.236475e+00 9.370437e-01 3.001949e+00 1.526055e+00 2.963807e+00 1.706589e+00 2.159797e+00 1.919892e+00 1.849411e+00 1.487037e+00 2.317342e+00 2.298713e+00 2.715462e-01 3.045107e-01 1.643002e-01 4.892070e-01 2.921931e-01 5.443583e-01 3.289015e-01 3.991702e-01 3.644258e-01 3.817645e-01 2.953424e-01 4.242946e-01 2.806162e-01
<GCONST> 1.088148e+02
<TRANSP> 5
 0.000000e+00 1.000000e+00 0.000000e+00 0.000000e+00 0.000000e+00
 0.000000e+00 7.468451e-01 2.531548e-01 0.000000e+00 0.000000e+00
 0.000000e+00 0.000000e+00 7.493632e-01 2.506368e-01 0.000000e+00
 0.000000e+00 0.000000e+00 0.000000e+00 8.765106e-01 1.234894e-01
 0.000000e+00 0.000000e+00 0.000000e+00 0.000000e+00 0.000000e+00
<ENDHMM>
~h "d"
<BEGINHMM>
<NUMSTATES> 5
<STATE> 2
<MEAN> 39
 1.464691e+00 -4.377607e+00 3.992568e+00 -4.779404e+00 -2.892519e+00 -4.293428e+00 -9.931498e-01 -4.947721e+00 -7.706040e-01 -3.631997e+00 3.714059e-01 -5.300475e+00 6.373013e+01 1.067163e+00 -6.520655e-01 5.404958e-01 -1.252073e+00 -9.544207e-01 4.882137e-01 -1.036565e+00 -5.784868e-01 -6.297786e-01 4.042715e-01 3.326952e-01 -8.743495e-01 1.502622e+00 9.309705e-02 7.452139e-02 -6.361312e-02 -2.465508e-01 -8.196125e-02 1.574663e-01 6.232770e-03 -7.213282e-02 -8.895600e-02 1.878014e-01 1.177881e-01 3.557497e-02 4.416363e-02
<VARIANCE> 39
 3.281264e+01 5.749652e+01 1.375399e+01 4.631365e+01 2.386707e+01 1.681038e+01 3.238669e+01 1.620051e+01 1.982252e+01 2.540423e+01 3.166954e+01 2.703650e+01 5.133908e+01 2.384141e+00 5.458309e+00 1.380643e+00 3.632971e+00 2.102821e+00 2.095099e+00 2.959934e+00 2.275123e+00 1.892128e+00 3.800936e+00 3.587881e+00 2.658778e+00 2.871794e+00 4.459606e-01 9.060018e-01 2.665546e-01 4.239531e-01 3.564671e-01 3.724993e-01 6.525121e-01 4.098248e-01 3.440186e-01 6.773978e-01 6.008294e-01 5.167077e-01 6.046270e-01
<GCONST> 1.181445e+02
<STATE> 3
<MEAN> 39
 4.572068e+00 -6.998486e+00 5.191339e+00 -9.852280e+00 -5.960821e+00 -2.493518e+00 -4.136434e+00 -6.327131e+00 -2.491088e+00 -1.659866e+00 2.021960e+00 -7.400948e+00 6.872513e+01 9.579854e-01 -5.853003e-01 7.155093e-02 -1.913570e+00 -1.047642e+00 1.039283e+00 -8.128183e-01 -7.122632e-01 -7.429844e-01 9.740518e-01 8.450840e-01 -4.476675e-01 1.321156e+00 -7.832307e-02 2.555915e-01 -1.909279e-01 -1.283638e-02 1.110607e-01 1.439143e-01 2.600180e-01 -3.164661e-02 -1.920057e-02 -3.006943e-03 -9.021437e-03 2.147372e-01 -2.649280e-01
<VARIANCE> 39
 2.371922e+01 5.915610e+01 1.117140e+01 6.687403e+01 3.063046e+01 2.564175e+01 3.256960e+01 1.818539e+01 2.168400e+01 3.787306e+01 3.760406e+01 1.640496e+01 4.733388e+01 1.929031e+00 5.166526e+00 1.236016e+00 2.905851e+00 2.141850e+00 2.366270e+00 3.522477e+00 2.043687e+00 2.020510e+00 4.038242e+00 2.919666e+00 1.984289e+00 3.105472e+00 3.683918e-01 8.507342e-01 1.939591e-01 4.325379e-01 4.148425e-01 3.993572e-01 7.333176e-01 4.110633e-01 3.711406e-01 8.636181e-01 5.352879e-01 4.120801e-01 5.906381e-01
<GCONST> 1.179354e+02
<STATE> 4
<MEAN> 39
 7.366850e+00 -7.359084e+00 4.212317e+00 -1.597312e+01 -8.731981e+00 1.729841e+00 -5.096560e+00 -8.863069e+00 -4.932044e+00 9.718368e-01 4.438403e+00 -7.469453e+00 7.158723e+01 5.693576e-01 3.097472e-01 -4.702809e-01 -1.357302e+00 -4.262433e-01 1.103296e+00 1.581614e-01 -6.381577e-01 -5.447672e-01 3.756398e-01 3.904495e-01 3.299612e-01 2.762878e-01 -1.081568e-01 1.837121e-01 -1.058049e-01 2.170950e-01 2.038802e-01 -9.682544e-02 2.262798e-01 1.184089e-01 1.337765e-01 -2.594136e-01 -2.035146e-01 1.861752e-01 -2.381694e-01
<VARIANCE> 39
 1.163775e+01 3.925535e+01 1.422196e+01 6.590955e+01 2.662761e+01 3.578356e+01 2.394993e+01 1.683163e+01 2.015897e+01 3.387986e+01 3.282970e+01 1.249778e+01 2.553526e+01 1.019478e+00 3.134864e+00 9.633165e-01 2.712849e+00 1.931188e+00 2.505629e+00 2.957288e+00 1.619810e+00 1.814406e+00 3.279864e+00 2.296726e+00 1.749138e+00 2.154664e+00 1.738138e-01 4.864090e-01 1.450348e-01 3.160566e-01 3.062713e-01 4.257268e-01 5.263614e-01 3.061657e-01 3.000982e-01 6.047084e-01 3.749580e-01 2.998659e-01 3.085955e-01
<GCONST> 1.080108e+02
<TRANSP> 5
 0.000000e+00 1.000000e+00 0.000000e+00 0.000000e+00 0.000000e+00
 0.000000e+00 6.688504e-01 3.311496e-01 0.000000e+00 0.000000e+00
 0.000000e+00 0.000000e+00 6.490911e-01 3.509089e-01 0.000000e+00
 0.000000e+00 0.000000e+00 0.000000e+00 7.547350e-01 2.452650e-01
 0.000000e+00 0.000000e+00 0.000000e+00 0.000000e+00 0.000000e+00
<ENDHMM>
~h "h"
<BEGINHMM>
<NUMSTATES> 5
<STATE> 2
<MEAN> 39
 -3.261410e+00 -9.370470e+00 -2.733710e-01 -7.457815e+00 -9.229851e-01 -6.505698e+00 3.926263e+00 -9.028909e-01 2.573292e+00 -8.318126e-01 -2.729843e+00 -7.357949e+00 6.756386e+01 2.930667e+00 -7.310670e-01 -4.928142e-01 -1.093748e+00 -8.481072e-01 8.030719e-01 -6.519046e-01 -6.771782e-01 -5.003057e-01 4.685926e-01 -1.119072e+00 -1.862793e+00 1.059107e+00 2.986704e-01 -1.901290e-01 -7.609393e-02 -2.476099e-01 -5.449686e-03 2.498313e-01 -1.805667e-01 1.306683e-02 -1.407171e-01 4.772121e-02 -6.017666e-02 -2.074744e-01 3.281909e-01
<VARIANCE> 39
 7.505466e+01 2.521649e+01 1.331831e+01 2.676776e+01 1.963247e+01 2.712264e+01 2.458945e+01 1.990938e+01 1.445427e+01 1.834514e+01 2.532307e+01 3.708570e+01 2.343990e+01 4.382861e+00 2.890873e+00 1.164055e+00 2.694744e+00 1.966144e+00 2.006450e+00 2.891778e+00 2.402140e+00 1.459148e+00 1.604068e+00 1.727898e+00 2.764308e+00 2.462521e+00 1.135011e+00 5.455393e-01 2.230770e-01 5.063290e-01 4.069504e-01 3.542694e-01 5.479785e-01 5.205359e-01 3.081177e-01 3.099014e-01 3.872248e-01 6.462873e-01 5.036768e-01
<GCONST> 1.131873e+02
<STATE> 3
<MEAN> 39
 5.241880e+00 -1.264859e+01 -2.242544e+00 -1.101303e+01 -1.920766e+00 -1.938208e+00 2.493577e+00 -1.557552e+00 3.985112e-01 3.150220e-01 -5.912855e+00 -1.250241e+01 7.167256e+01 1.570052e+00 -8.167969e-01 -4.294418e-01 -6.816392e-01 -8.647352e-02 1.087827e+00 -1.833400e-01 -3.350956e-02 -4.273704e-01 2.248069e-01 -5.753781e-01 -9.273160e-01 8.358548e-01 -3.767585e-01 6.057909e-02 3.645676e-02 1.642253e-01 1.696369e-01 -3.822919e-03 1.459304e-01 1.447049e-01 4.430916e-02 -9.443764e-02 1.249698e-01 2.710208e-01 -1.443480e-01
<VARIANCE> 39
 3.377964e+01 3.927816e+01 1.260596e+01 2.840925e+01 1.550646e+01 3.085354e+01 2.634531e+01 1.883782e+01 1.190478e+01 1.983521e+01 1.877553e+01 2.347310e+01 2.368945e+01 5.019697e+00 3.560119e+00 1.098621e+00 3.694845e+00 1.799019e+00 2.255447e+00 3.095616e+00 2.190351e+00 1.279255e+00 1.650322e+00 1.502644e+00 3.440547e+00 2.853437e+00 5.976952e-01 6.249079e-01 2.242228e-01 5.503439e-01 2.750837e-01 3.856655e-01 4.818043e-01 4.158333e-01 2.564362e-01 2.907196e-01 2.562178e-01 4.119385e-01 4.522143e-01
<GCONST> 1.103148e+02
<STATE> 4
<MEAN> 39
 6.127858e+00 -1.420578e+01 -4.590237e+00 -1.160846e+01 5.477737e-01 1.267778e+00 2.103806e+00 -1.095296e+00 -3.089763e-01 -7.071728e-01 -5.684882e+00 -1.184301e+01 7.201985e+01 1.198883e-02 6.986530e-02 -5.507046e-02 6.053585e-02 6.090027e-02 5.100329e-02 -7.942291e-02 -4.223980e-03 8.620021e-02 -5.648964e-02 4.346810e-02 5.731239e-02 -9.839608e-02 -5.942910e-02 4.945825e-02 1.639546e-02 4.134795e-02 -4.349710e-03 -3.985769e-02 1.550161e-02 -7.517864e-03 3.073516e-02 -7.750479e-03 2.718655e-02 4.341500e-02 -4.806852e-02
<VARIANCE> 39
 3.267823e+01 3.947440e+01 1.345857e+01 2.480855e+01 1.855696e+01 3.484206e+01 2.838529e+01 1.740896e+01 2.107332e+01 1.479984e+01 1.642094e+01 1.995437e+01 1.812409e+01 1.605102e+00 2.831705e+00 1.067010e+00 2.359416e+00 1.357775e+00 1.951765e+00 1.908873e+00 1.347224e+00 1.494279e+00 1.414014e+00 1.198031e+00 1.692086e+00 1.419600e+00 2.117193e-01 3.800162e-01 2.036984e-01 3.883102e-01 2.483770e-01 3.030818e-01 3.127486e-01 2.595643e-01 2.758239e-01 2.769288e-01 2.190362e-01 2.771188e-01 1.957854e-01
<GCONST> 1.007590e+02
<TRANSP> 5
 0.000000e+00 1.000000e+00 0.000000e+00 0.000000e+00 0.000000e+00
 0.000000e+00 7.280242e-01 2.719758e-01 0.000000e+00 0.000000e+00
 0.000000e+00 0.000000e+00 7.457730e-01 2.542270e-01 0.000000e+00
 0.000000e+00 0.000000e+00 0.000000e+00 9.714106e-01 2.858937e-02
 0.000000e+00 0.000000e+00 0.000000e+00 0.000000e+00 0.000000e+00
<ENDHMM>
~h "k"
<BEGINHMM>
<NUMSTATES> 5
<STATE> 2
<MEAN> 39
 3.857898e+00 -7.411064e+00 1.541717e+01 -5.333012e+00 -1.760560e+01 -1.159774e+01 -8.024760e-01 -6.187741e+00 -8.872217e+00 1.119516e+00 3.893008e+00 -6.951065e+00 6.859673e+01 -5.598789e-01 1.037091e+00 -6.509410e-01 6.318134e-01 7.592456e-01 2.691428e-02 2.284429e-01 -7.592009e-01 4.332154e-01 -4.527017e-02 2.165921e-01 5.605867e-01 -1.201146e+00 -1.013617e-01 -7.530446e-02 -6.178830e-02 -2.928249e-02 3.307743e-02 6.022633e-02 -7.572872e-02 1.201754e-03 1.156457e-01 -3.342647e-02 7.889171e-02 1.638492e-01 -5.173130e-02
<VARIANCE> 39
 1.029838e+01 3.101942e+01 2.114355e+01 1.832664e+01 2.541788e+01 1.186695e+01 1.179408e+01 1.894989e+01 2.161607e+01 1.182607e+01 1.936896e+01 2.016253e+01 3.246008e+01 5.265415e-01 1.443418e+00 8.529540e-01 1.405604e+00 1.155021e+00 1.121923e+00 1.165440e+00 1.183454e+00 1.500973e+00 1.317502e+00 1.448027e+00 2.204859e+00 7.694809e-01 7.042939e-02 2.657189e-01 1.642468e-01 2.847445e-01 2.162784e-01 2.168641e-01 2.335291e-01 2.417050e-01 2.634570e-01 2.815680e-01 2.824448e-01 3.674693e-01 1.212662e-01
<GCONST> 9.163016e+01
<STATE> 3
<MEAN> 39
 1.315188e+00 -4.574645e+00 1.253272e+01 -3.501843e+00 -1.467914e+01 -1.109952e+01 -4.674495e-01 -8.650225e+00 -6.577979e+00 8.242445e-01 5.024120e+00 -4.008622e+00 6.425706e+01 -7.198927e-01 4.468628e-01 -9.195321e-01 3.544938e-01 7.547345e-01 1.435385e-01 -2.308664e-02 -5.036931e-01 7.284044e-01 -1.667087e-02 3.436722e-01 8.923906e-01 -1.039597e+00 3.261603e-02 -2.437020e-01 -7.714325e-02 -9.694021e-02 3.640682e-03 1.953828e-02 -4.675534e-02 1.576834e-01 4.312323e-02 3.792395e-02 -4.171982e-02 -2.766281e-02 1.598711e-01
<VARIANCE> 39
 1.372985e+01 2.168006e+01 3.014467e+01 1.457979e+01 2.617306e+01 1.587394e+01 1.386951e+01 2.000795e+01 2.728195e+01 1.357580e+01 2.606638e+01 3.142494e+01 2.890887e+01 5.294312e-01 2.295223e+00 1.282934e+00 1.607304e+00 1.337258e+00 1.305574e+00 1.428408e+00 1.567694e+00 1.612783e+00 1.473093e+00 2.213787e+00 2.685420e+00 1.174346e+00 9.867477e-02 3.567850e-01 2.484906e-01 3.119568e-01 2.805665e-01 2.646990e-01 2.999775e-01 2.815906e-01 3.085127e-01 3.138860e-01 4.502040e-01 5.268975e-01 1.757469e-01
<GCONST> 9.970409e+01
<STATE> 4
<MEAN> 39
 -6.525743e-01 -7.122017e+00 7.508873e+00 -3.689762e+00 -1.019105e+01 -8.986395e+00 -2.277791e-01 -7.375470e+00 -3.288182e+00 1.007434e+00 4.045423e+00 -2.682897e+00 6.343843e+01 -1.007599e-01 -2.094090e-01 -6.278463e-01 9.691381e-02 6.324064e-01 2.088387e-01 2.630867e-02 2.274721e-01 4.375709e-01 -1.010470e-02 -2.335238e-01 1.445304e-02 -7.202539e-02 1.304550e-02 3.708358e-02 6.837286e-02 1.390531e-02 4.991096e-03 3.663173e-02 3.979951e-02 3.649484e-02 -1.107960e-02 -4.432513e-02 -4.463420e-02 -5.249347e-02 7.636783e-03
<VARIANCE> 39
 1.140948e+01 3.841062e+01 7.896777e+01 2.053925e+01 4.730482e+01 2.273752e+01 1.564172e+01 2.063063e+01 3.170915e+01 2.355359e+01 2.662568e+01 3.975843e+01 3.209189e+01 9.560977e-01 4.838552e+00 4.356059e+00 1.406843e+00 2.741476e+00 1.615760e+00 1.588213e+00 1.820719e+00 1.959325e+00 2.376689e+00 2.505287e+00 3.174801e+00 2.773202e+00 1.578976e-01 9.794536e-01 7.035257e-01 2.708382e-01 4.325461e-01 3.276218e-01 3.206888e-01 3.457078e-01 3.324106e-01 4.877908e-01 4.780794e-01 5.273138e-01 4.807230e-01
<GCONST> 1.138771e+02
<TRANSP> 5
 0.000000e+00 1.000000e+00 0.000000e+00 0.000000e+00 0.000000e+00
 0.000000e+00 6.888806e-01 3.111194e-01 0.000000e+00 0.000000e+00
 0.000000e+00 0.000000e+00 6.888489e-01 3.111511e-01 0.000000e+00
 0.000000e+00 0.000000e+00 0.000000e+00 9.242945e-01 7.570553e-02
 0.000000e+00 0.000000e+00 0.000000e+00 0.000000e+00 0.000000e+00
<ENDHMM>
~h "n"
<BEGINHMM>
<NUMSTATES> 5
<STATE> 2
<MEAN> 39
 3.453119e+00 -4.367652e-01 4.719482e+00 -3.521015e+00 -4.411759e+00 -4.264420e+00 2.485873e-01 -4.933607e+00 2.681850e+00 -3.649816e+00 -2.486384e+00 -4.483839e+00 6.396636e+01 -2.831749e-01 1.712650e-01 4.987396e-02 4.452986e-01 1.819380e-01 -7.010097e-02 1.729799e-01 -1.278082e-01 3.040962e-03 -6.135973e-02 5.893638e-02 1.321997e-01 -3.375306e-01 -2.572252e-02 -1.451607e-01 1.422883e-02 -7.766770e-02 -7.205590e-03 2.131283e-02 -5.151598e-02 4.259223e-02 -3.112407e-02 3.461765e-02 1.018198e-01 -2.799067e-02 3.388164e-02
<VARIANCE> 39
 4.884827e+01 3.536216e+01 2.753250e+01 2.303574e+01 3.083486e+01 2.126246e+01 2.429245e+01 1.449851e+01 2.316991e+01 1.575543e+01 2.055058e+01 1.446460e+01 1.680337e+01 8.100848e-01 9.704607e-01 9.616337e-01 1.147771e+00 1.200961e+00 1.375875e+00 1.508399e+00 1.108847e+00 1.365771e+00 1.162561e+00 1.244350e+00 1.104469e+00 3.300954e-01 1.183586e-01 1.373319e-01 1.432473e-01 1.974806e-01 1.989988e-01 2.617781e-01 2.730817e-01 2.491294e-01 2.358747e-01 2.256277e-01 2.435053e-01 2.144567e-01 4.481748e-02
<GCONST> 9.057872e+01
<STATE> 3
<MEAN> 39
 2.764880e+00 -2.849145e-01 4.813742e+00 -2.814366e+00 -4.028473e+00 -4.221642e+00 6.243079e-01 -5.115626e+00 2.513828e+00 -3.731808e+00 -2.091757e+00 -4.212744e+00 6.325225e+01 -3.660777e-01 -9.150337e-02 5.743662e-03 2.973488e-01 2.067301e-01 -5.799471e-02 1.169607e-01 -1.056271e-03 -1.449213e-02 -4.141081e-02 2.236032e-01 1.110384e-01 -2.881090e-01 -1.091150e-02 -1.390519e-01 -1.463356e-02 -9.611038e-02 -2.261982e-02 -1.189816e-02 -4.736503e-02 7.946213e-02 5.695776e-03 -3.459757e-03 5.195348e-02 8.106504e-04 4.001418e-02
<VARIANCE> 39
 4.909259e+01 3.648561e+01 2.434232e+01 2.318828e+01 3.010398e+01 1.984711e+01 2.149861e+01 1.453103e+01 1.989798e+01 1.498586e+01 2.169014e+01 1.566623e+01 1.819687e+01 1.068885e+00 1.128707e+00 9.429187e-01 1.197497e+00 1.152167e+00 1.488613e+00 1.388787e+00 1.288081e+00 1.294990e+00 1.261829e+00 1.249001e+00 1.174254e+00 3.785714e-01 1.321983e-01 1.502984e-01 1.600674e-01 2.161615e-01 2.244288e-01 2.552435e-01 2.613737e-01 2.620874e-01 2.348283e-01 2.334357e-01 2.578793e-01 2.291157e-01 4.885349e-02
<GCONST> 9.182636e+01
<STATE> 4
<MEAN> 39
 2.146344e+00 -3.304796e-01 4.871420e+00 -2.485487e+00 -3.585610e+00 -4.359636e+00 7.594515e-01 -4.942057e+00 2.392560e+00 -3.936549e+00 -1.776726e+00 -3.977617e+00 6.258092e+01 -4.403384e-01 -3.270202e-01 -9.366588e-02 1.639804e-01 2.122239e-01 -8.010869e-02 5.711733e-02 1.314809e-01 5.451578e-02 -3.578992e-02 2.719211e-01 1.714126e-01 -2.340771e-01 2.907145e-02 -1.131023e-01 -8.676464e-03 -1.102571e-01 -5.812742e-02 6.158228e-03 -6.040129e-02 4.446483e-02 -4.372160e-03 -1.726812e-03 2.059016e-03 3.499318e-03 7.535825e-02
<VARIANCE> 39
 4.624435e+01 3.666886e+01 2.144037e+01 2.300618e+01 2.892401e+01 1.902722e+01 1.942585e+01 1.550851e+01 1.967619e+01 1.500538e+01 2.087123e+01 1.615022e+01 1.928719e+01 1.322319e+00 1.369486e+00 9.536858e-01 1.342588e+00 1.297605e+00 1.571562e+00 1.499652e+00 1.505814e+00 1.274719e+00 1.318345e+00 1.324958e+00 1.295640e+00 4.722236e-01 1.550171e-01 1.933507e-01 1.770585e-01 2.516104e-01 2.667714e-01 2.732666e-01 2.753911e-01 2.589657e-01 2.569934e-01 2.300410e-01 2.467828e-01 2.211402e-01 6.578995e-02
<GCONST> 9.414194e+01
<TRANSP> 5
 0.000000e+00 1.000000e+00 0.000000e+00 0.000000e+00 0.000000e+00
 0.000000e+00 4.190997e-01 5.809003e-01 0.000000e+00 0.000000e+00
 0.000000e+00 0.000000e+00 4.337658e-01 5.662342e-01 0.000000e+00
 0.000000e+00 0.000000e+00 0.000000e+00 5.394289e-01 4.605711e-01
 0.000000e+00 0.000000e+00 0.000000e+00 0.000000e+00 0.000000e+00
<ENDHMM>
~h "o"
<BEGINHMM>
<NUMSTATES> 5
<STATE> 2
<MEAN> 39
 9.385418e+00 -5.838897e+00 1.520942e+00 -2.101242e+01 -9.520007e+00 5.677525e+00 -3.911541e+00 -1.059240e+01 -6.082823e+00 1.434983e+00 5.396011e+00 -5.150229e+00 7.193891e+01 2.438855e-01 7.931657e-01 -6.159874e-01 -2.682573e-01 3.682657e-01 3.977841e-01 5.100822e-01 -3.788625e-02 1.569817e-01 -4.433323e-01 -3.483250e-01 6.812555e-01 -4.074416e-01 -1.038411e-01 -4.655641e-02 5.439471e-02 3.264530e-01 1.627267e-01 -2.712233e-01 -6.756744e-02 1.819766e-01 2.212698e-01 -1.049284e-01 -1.323458e-01 -3.844555e-02 -6.562828e-02
<VARIANCE> 39
 3.253853e+00 1.379362e+01 1.539679e+01 2.276472e+01 1.984503e+01 2.183642e+01 1.972320e+01 1.177560e+01 1.883321e+01 2.050315e+01 1.513223e+01 1.396127e+01 7.439182e+00 2.803222e-01 6.404454e-01 5.157435e-01 1.852685e+00 1.098866e+00 2.056931e+00 1.738076e+00 1.261394e+00 1.541155e+00 1.834087e+00 1.116046e+00 1.227339e+00 3.044887e-01 4.007237e-02 1.088080e-01 7.923435e-02 1.189280e-01 1.703630e-01 2.184932e-01 3.136044e-01 2.050799e-01 1.745530e-01 3.893580e-01 2.120101e-01 2.260712e-01 6.509709e-02
<GCONST> 8.158492e+01
<STATE> 3
<MEAN> 39
 9.625667e+00 -3.713073e+00 -7.421184e-02 -1.950903e+01 -7.043993e+00 4.998121e+00 -3.560584e+00 -9.746702e+00 -4.004108e+00 5.575991e-02 3.685508e+00 -3.717315e+00 7.033079e+01 -2.162680e-02 4.732406e-01 -2.814245e-01 7.321523e-01 7.370618e-01 -4.069238e-01 -6.570981e-02 3.029480e-01 6.864571e-01 -2.904703e-01 -4.576127e-01 1.910455e-01 -4.395521e-01 -5.795877e-02 -6.988759e-02 9.463986e-02 2.321597e-01 6.046394e-02 -1.783621e-01 -1.104360e-01 5.883349e-02 8.770560e-02 4.833616e-02 -1.582157e-02 -1.263788e-01 -5.802823e-03
<VARIANCE> 39
 2.547150e+00 1.045231e+01 1.439151e+01 3.517577e+01 2.884038e+01 2.754774e+01 2.586617e+01 1.505512e+01 2.879296e+01 1.889923e+01 1.490538e+01 1.334484e+01 7.158375e+00 1.486909e-01 5.569783e-01 5.568733e-01 1.596518e+00 1.062644e+00 1.559643e+00 2.309740e+00 1.104435e+00 1.342610e+00 1.557983e+00 9.039550e-01 1.314917e+00 1.368517e-01 1.895487e-02 7.745738e-02 6.840351e-02 1.321852e-01 1.752302e-01 2.089727e-01 3.835262e-01 2.228085e-01 2.025400e-01 2.999749e-01 1.891316e-01 1.994477e-01 2.349680e-02
<GCONST> 7.831779e+01
<STATE> 4
<MEAN> 39
 8.586750e+00 -1.245178e+00 1.390219e-03 -1.210115e+01 -2.716223e+00 -9.430432e-02 -4.621284e+00 -7.944784e+00 -1.737159e-02 -5.884573e-01 8.526772e-01 -4.825705e+00 6.721651e+01 -2.131707e-01 3.945512e-01 1.980991e-01 1.147411e+00 3.933690e-01 -6.622965e-01 1.935477e-01 3.411820e-01 4.578983e-01 -2.508125e-01 -4.206171e-01 -7.524692e-02 -4.823046e-01 -3.171698e-02 2.176917e-03 5.579954e-02 -1.123047e-03 -6.229746e-02 1.948761e-02 7.700213e-02 -1.618516e-02 -6.012421e-02 -9.496844e-03 1.127829e-02 8.385878e-03 -8.506743e-03
<VARIANCE> 39
 4.130913e+00 1.576676e+01 1.332133e+01 5.492760e+01 2.592104e+01 3.146489e+01 3.500299e+01 1.941267e+01 2.915627e+01 1.933864e+01 1.518350e+01 1.519343e+01 1.146823e+01 2.065363e-01 7.582327e-01 6.634234e-01 1.603531e+00 1.418538e+00 1.386413e+00 3.153971e+00 1.293016e+00 1.481888e+00 1.552640e+00 1.052171e+00 1.303956e+00 2.636237e-01 3.078224e-02 1.198461e-01 8.451899e-02 2.057291e-01 1.962682e-01 2.261805e-01 5.412949e-01 2.374907e-01 2.356189e-01 2.750924e-01 2.018220e-01 2.263905e-01 3.731184e-02
<GCONST> 8.606488e+01
<TRANSP> 5
 0.000000e+00 1.000000e+00 0.000000e+00 0.000000e+00 0.000000e+00
 0.000000e+00 6.962631e-01 3.037370e-01 0.000000e+00 0.000000e+00
 0.000000e+00 0.000000e+00 7.495683e-01 2.504317e-01 0.000000e+00
 0.000000e+00 0.000000e+00 0.000000e+00 9.190137e-01 8.098623e-02
 0.000000e+00 0.000000e+00 0.000000e+00 0.000000e+00 0.000000e+00
<ENDHMM>
~h "p"
<BEGINHMM>
<NUMSTATES> 5
<STATE> 2
<MEAN> 39
 1.070186e-01 -6.924655e+00 -2.468591e+00 -5.593596e+00 -1.604092e+00 -2.193888e+00 3.276638e+00 -2.728615e+00 1.200473e+00 -2.284673e+00 1.064281e+00 -3.011895e+00 6.198708e+01 5.073161e-01 -7.887403e-01 -5.789131e-01 -6.366917e-01 -1.205252e-03 3.670261e-01 3.526942e-01 3.455166e-01 -6.325706e-01 1.018045e-01 1.536494e-01 -4.653841e-01 7.887703e-01 1.749427e-01 -1.079824e-01 -4.500818e-03 -1.811074e-01 -9.106947e-02 2.805509e-02 -4.386050e-02 7.177874e-03 -1.279056e-01 -7.392585e-02 -1.093526e-01 -1.767727e-01 2.142299e-01
<VARIANCE> 39
 4.334812e+01 4.054242e+01 3.658284e+01 4.573943e+01 1.450103e+01 2.224981e+01 1.872409e+01 1.799028e+01 2.914653e+01 1.175329e+01 1.705698e+01 3.289661e+01 5.347339e+01 3.248148e+00 1.578000e+00 1.963176e+00 3.337340e+00 1.490541e+00 1.319963e+00 1.626732e+00 1.421147e+00 2.459836e+00 1.675303e+00 1.574764e+00 2.778328e+00 2.905917e+00 4.851479e-01 2.072850e-01 3.300650e-01 6.624467e-01 3.173772e-01 2.135895e-01 3.097252e-01 2.938017e-01 5.021552e-01 3.317906e-01 3.303815e-01 4.583605e-01 3.742621e-01
<GCONST> 1.097327e+02
<STATE> 3
<MEAN> 39
 2.424042e+00 -9.761475e+00 -4.427895e+00 -8.231391e+00 -2.038161e+00 -1.036907e+00 4.221807e+00 -1.782073e+00 -1.383019e+00 -2.327940e+00 8.316723e-01 -5.210119e+00 6.531708e+01 8.788328e-01 -1.017775e+00 -5.923721e-01 -1.035033e+00 -2.223234e-01 4.087629e-01 1.976354e-01 2.635012e-01 -8.537379e-01 3.821775e-02 -1.248184e-01 -8.779325e-01 1.270443e+00 7.687952e-02 -6.642477e-02 1.562941e-02 -1.079177e-01 -4.173089e-02 3.578697e-02 -4.470774e-02 -2.808863e-02 -4.327091e-02 1.311787e-02 -6.898625e-02 -1.082468e-01 1.231738e-01
<VARIANCE> 39
 5.005673e+01 5.107557e+01 3.879541e+01 5.662537e+01 1.499498e+01 2.244654e+01 1.782030e+01 1.892306e+01 4.062567e+01 1.066225e+01 1.336375e+01 4.012017e+01 7.122591e+01 3.430085e+00 1.667929e+00 1.764084e+00 4.872993e+00 1.927534e+00 1.696115e+00 1.574090e+00 1.427970e+00 3.127270e+00 1.304921e+00 1.331105e+00 2.635375e+00 3.400529e+00 5.791468e-01 2.600992e-01 3.224244e-01 9.031164e-01 2.645844e-01 3.272161e-01 3.083137e-01 2.815326e-01 6.313797e-01 2.910326e-01 2.513254e-01 4.958828e-01 4.890929e-01
<GCONST> 1.127453e+02
<STATE> 4
<MEAN> 39
 7.059504e+00 -1.530282e+01 -7.499390e+00 -1.352910e+01 -2.465045e+00 1.438591e+00 5.559578e+00 -6.650916e-01 -6.165041e+00 -1.445110e+00 1.829292e-01 -1.008485e+01 7.225745e+01 5.804877e-01 -1.031082e+00 -4.288943e-01 -6.473477e-01 1.651119e-01 2.721975e-01 2.110642e-02 3.155123e-01 -4.163749e-01 2.187493e-01 -3.738997e-01 -8.715974e-01 1.106417e+00 -1.595185e-01 1.300662e-01 1.031340e-01 2.469536e-01 6.173655e-02 -1.316423e-01 -7.221793e-02 -2.638591e-03 2.345161e-01 2.220027e-03 -8.066229e-02 1.072014e-01 -1.907196e-01
<VARIANCE> 39
 2.875445e+01 4.243141e+01 2.807989e+01 4.867937e+01 1.609167e+01 2.105447e+01 1.957812e+01 1.984437e+01 3.740321e+01 9.722915e+00 1.363943e+01 2.820853e+01 4.943100e+01 2.507120e+00 2.032775e+00 1.352466e+00 5.281524e+00 1.421210e+00 1.969136e+00 1.204766e+00 1.359984e+00 3.261178e+00 9.375355e-01 1.040572e+00 1.816323e+00 3.169778e+00 4.026019e-01 2.574027e-01 2.168386e-01 7.855855e-01 2.149711e-01 2.993771e-01 2.115718e-01 2.793024e-01 4.687816e-01 2.053145e-01 1.702138e-01 3.230492e-01 3.710297e-01
<GCONST> 1.057250e+02
<TRANSP> 5
 0.000000e+00 1.000000e+00 0.000000e+00 0.000000e+00 0.000000e+00
 0.000000e+00 6.164558e-01 3.835442e-01 0.000000e+00 0.000000e+00
 0.000000e+00 0.000000e+00 6.394106e-01 3.605895e-01 0.000000e+00
 0.000000e+00 0.000000e+00 0.000000e+00 8.485823e-01 1.514177e-01
 0.000000e+00 0.000000e+00 0.000000e+00 0.000000e+00 0.000000e+00
<ENDHMM>
~h "r"
<BEGINHMM>
<NUMSTATES> 5
<STATE> 2
<MEAN> 39
 -4.721017e+00 -1.321291e+01 5.012444e+00 -9.089950e+00 -5.196495e+00 -2.821050e+00 -1.398332e+00 4.693951e-01 4.948210e+00 -3.386883e+00 -9.224117e-02 -6.691527e+00 6.972440e+01 1.552241e+00 -1.146028e+00 -7.955461e-02 -4.013079e-02 -1.016921e+00 -5.339336e-01 -4.921627e-01 3.219281e-01 6.608289e-02 -6.191767e-02 -4.951437e-01 -9.335462e-01 1.348099e+00 5.499446e-01 -1.981876e-01 -2.107418e-01 2.767541e-02 -7.869561e-02 -8.152211e-02 -1.415690e-02 9.959889e-02 -7.946109e-02 9.324086e-02 -1.050489e-01 -1.901391e-01 3.180432e-02
<VARIANCE> 39
 9.957030e+01 4.469401e+01 3.360583e+01 1.181784e+01 3.921833e+01 3.228645e+01 1.628840e+01 2.306079e+01 1.591017e+01 1.439589e+01 2.520749e+01 3.794884e+01 3.329971e+01 9.320868e+00 2.283182e+00 2.232079e+00 1.575134e+00 3.389683e+00 3.884394e+00 2.032382e+00 2.152379e+00 1.077083e+00 1.381755e+00 1.692026e+00 1.747007e+00 1.564291e+00 1.782612e+00 3.392223e-01 2.641442e-01 3.511896e-01 7.600910e-01 8.015391e-01 4.233133e-01 4.125298e-01 1.932795e-01 2.618285e-01 3.096214e-01 2.654161e-01 2.390650e-01
<GCONST> 1.132000e+02
<STATE> 3
<MEAN> 39
 4.782653e+00 -1.972146e+01 1.767633e+00 -1.003947e+01 -7.465795e+00 -3.420226e+00 -2.803085e+00 2.611130e+00 3.902415e+00 -2.570156e+00 -3.237566e+00 -1.223384e+01 7.510952e+01 1.413943e+00 -1.238739e+00 -8.118563e-01 -3.661022e-01 2.255704e-02 3.775379e-01 -1.091715e-01 4.982593e-01 -1.767365e-01 2.708821e-01 -5.862952e-01 -1.080777e+00 8.086899e-01 -3.244527e-01 1.414577e-01 -9.142893e-02 -3.437925e-02 2.743225e-01 2.077101e-01 1.672988e-01 -2.899132e-02 -1.760348e-02 3.687746e-02 1.860902e-02 9.183387e-02 -2.082708e-01
<VARIANCE> 39
 4.185703e+01 3.882145e+01 3.832834e+01 1.325291e+01 3.057416e+01 2.504253e+01 1.719717e+01 1.500185e+01 1.458427e+01 1.037542e+01 1.687055e+01 2.688641e+01 1.904024e+01 4.750974e+00 2.598224e+00 1.063413e+00 1.216293e+00 2.710289e+00 2.837839e+00 1.597744e+00 1.572992e+00 8.038605e-01 1.040678e+00 1.094056e+00 1.730778e+00 1.724726e+00 8.311576e-01 3.037156e-01 1.615095e-01 2.286640e-01 4.361451e-01 5.059301e-01 2.973267e-01 3.232717e-01 1.430545e-01 2.017785e-01 1.925800e-01 2.183518e-01 1.978727e-01
<GCONST> 1.014521e+02
<STATE> 4
<MEAN> 39
 7.792730e+00 -2.061111e+01 -3.848148e+00 -9.434464e+00 -4.116142e+00 -1.677202e+00 -9.334261e-01 3.174252e+00 3.057104e+00 -1.808366e+00 -6.300263e+00 -1.391332e+01 7.450412e+01 -3.200448e-02 5.576098e-01 -1.382317e-01 3.702654e-01 1.274481e-01 -3.185180e-01 -2.510849e-02 -1.402556e-01 2.312236e-01 -6.886733e-02 3.108473e-02 3.719099e-01 -4.394729e-01 -6.410968e-02 1.271747e-01 6.192730e-02 6.432118e-02 -1.526037e-02 -8.226877e-02 -2.147003e-02 -6.872419e-02 1.695870e-02 -3.238413e-02 6.061680e-02 1.155894e-01 -7.671972e-02
<VARIANCE> 39
 7.272141e+00 3.545608e+01 1.624342e+01 1.436952e+01 1.766662e+01 2.768459e+01 1.770359e+01 1.544684e+01 2.198964e+01 1.224024e+01 1.399677e+01 1.936423e+01 1.759351e+01 4.732664e-01 1.252430e+00 8.718174e-01 7.781643e-01 1.147490e+00 1.793358e+00 1.468333e+00 1.302981e+00 1.484392e+00 9.174972e-01 1.008087e+00 1.283525e+00 4.218276e-01 7.627560e-02 1.319820e-01 9.079638e-02 1.156358e-01 1.837384e-01 2.026573e-01 2.098691e-01 2.280962e-01 2.254763e-01 1.811000e-01 1.591093e-01 1.679757e-01 5.536996e-02
<GCONST> 8.351525e+01
<TRANSP> 5
 0.000000e+00 1.000000e+00 0.000000e+00 0.000000e+00 0.000000e+00
 0.000000e+00 7.483201e-01 2.516799e-01 0.000000e+00 0.000000e+00
 0.000000e+00 0.000000e+00 6.668202e-01 3.331797e-01 0.000000e+00
 0.000000e+00 0.000000e+00 0.000000e+00 9.415225e-01 5.847748e-02
 0.000000e+00 0.000000e+00 0.000000e+00 0.000000e+00 0.000000e+00
<ENDHMM>
~h "s"
<BEGINHMM>
<NUMSTATES> 5
<STATE> 2
<MEAN> 39
 -7.446019e+00 -6.594767e+00 1.582802e+00 -4.813379e+00 1.140477e+00 -6.529509e+00 2.700074e+00 -1.593148e-01 2.807900e+00 -3.570053e+00 3.847302e-01 -1.794757e+00 6.425184e+01 -9.764954e-01 -3.653331e-01 -1.129509e-01 -2.393233e-01 3.473381e-01 -3.738513e-01 3.483275e-01 3.322595e-01 1.772007e-01 2.261887e-01 -4.416322e-02 -1.962177e-01 3.471496e-01 1.861592e-01 4.586741e-02 -8.056988e-02 -5.936767e-02 -5.221166e-02 5.667519e-02 -6.350403e-03 5.634666e-03 2.243142e-02 7.083582e-02 -3.220674e-02 -9.686464e-02 1.487443e-02
<VARIANCE> 39
 3.714581e+01 2.258846e+01 2.909576e+01 2.030258e+01 1.786753e+01 4.065138e+01 3.810541e+01 2.039343e+01 2.212415e+01 2.174814e+01 2.140227e+01 2.345524e+01 1.756217e+01 2.937575e+00 1.739864e+00 1.228316e+00 1.596091e+00 1.643263e+00 2.130645e+00 2.280330e+00 1.453123e+00 2.038699e+00 1.743072e+00 1.715914e+00 2.142395e+00 8.042410e-01 2.897447e-01 3.415211e-01 2.112637e-01 3.384336e-01 3.267392e-01 4.119683e-01 4.196008e-01 2.671848e-01 4.017881e-01 2.923484e-01 3.421132e-01 4.067925e-01 1.443980e-01
<GCONST> 1.052089e+02
<STATE> 3
<MEAN> 39
 -8.262491e+00 -7.428443e+00 2.396536e-01 -5.839868e+00 1.374803e+00 -7.282290e+00 4.020081e+00 4.271085e-01 2.992756e+00 -2.255721e+00 -4.055007e-01 -3.038062e+00 6.566106e+01 -3.499573e-02 -3.767647e-01 -3.436991e-01 -3.872886e-01 2.134690e-02 1.047326e-01 2.153883e-01 1.095093e-01 6.079378e-02 3.547138e-01 -2.596178e-01 -5.545350e-01 3.941780e-01 3.134974e-01 -2.797423e-02 -5.054291e-02 -5.799586e-02 -8.472251e-02 1.532448e-01 -1.068694e-01 -7.730361e-02 -5.215170e-02 2.435016e-02 -4.950188e-02 -1.021008e-01 4.342576e-02
<VARIANCE> 39
 4.443548e+01 2.187278e+01 2.390086e+01 2.160058e+01 1.742613e+01 3.319170e+01 3.385899e+01 2.158654e+01 2.070184e+01 2.113942e+01 2.527981e+01 3.126654e+01 1.571162e+01 5.058730e+00 1.759512e+00 1.161399e+00 1.841248e+00 1.663663e+00 2.183131e+00 2.023948e+00 1.919447e+00 2.068255e+00 1.649724e+00 2.006674e+00 3.022437e+00 1.222704e+00 3.953589e-01 3.351493e-01 2.021823e-01 3.472102e-01 3.052994e-01 3.898943e-01 3.758690e-01 3.017861e-01 4.125466e-01 3.008757e-01 3.647760e-01 5.097902e-01 2.054895e-01
<GCONST> 1.077565e+02
<STATE> 4
<MEAN> 39
 -8.318158e-01 -1.296457e+01 -2.651627e+00 -9.964933e+00 2.880275e-02 -2.877043e+00 2.380857e+00 -1.072465e+00 1.725908e+00 -7.140577e-02 -4.584718e+00 -8.772680e+00 7.068204e+01 8.832146e-01 -7.825048e-01 -3.694591e-01 -5.421118e-01 -1.734277e-01 7.607679e-01 -2.316428e-01 -1.529752e-01 -1.369445e-01 1.753390e-01 -3.869839e-01 -7.214510e-01 6.499424e-01 -5.114007e-02 2.637645e-02 1.311233e-02 5.280541e-02 2.392005e-02 4.776166e-02 1.830081e-02 2.487080e-02 1.189485e-02 -5.906852e-02 7.810443e-02 1.229428e-01 -6.851216e-02
<VARIANCE> 39
 8.832602e+01 5.739839e+01 2.184892e+01 3.189746e+01 1.714303e+01 5.565705e+01 2.924256e+01 2.097084e+01 2.050842e+01 1.982485e+01 3.333376e+01 5.008628e+01 3.855096e+01 4.695704e+00 2.787411e+00 1.052544e+00 2.094740e+00 1.483093e+00 2.986504e+00 2.241700e+00 1.959829e+00 1.716543e+00 1.445714e+00 1.899185e+00 3.459639e+00 2.020877e+00 6.494085e-01 3.934724e-01 1.765533e-01 3.368585e-01 2.577833e-01 4.210185e-01 3.858039e-01 3.628799e-01 3.125238e-01 2.809348e-01 3.336329e-01 5.515041e-01 2.713739e-01
<GCONST> 1.131371e+02
<TRANSP> 5
 0.000000e+00 1.000000e+00 0.000000e+00 0.000000e+00 0.000000e+00
 0.000000e+00 6.064364e-01 3.935636e-01 0.000000e+00 0.000000e+00
 0.000000e+00 0.000000e+00 5.945724e-01 4.054276e-01 0.000000e+00
 0.000000e+00 0.000000e+00 0.000000e+00 8.052527e-01 1.947473e-01
 0.000000e+00 0.000000e+00 0.000000e+00 0.000000e+00 0.000000e+00
<ENDHMM>
~h "t"
<BEGINHMM>
<NUMSTATES> 5
<STATE> 2
<MEAN> 39
 -6.407855e-01 -6.264771e+00 -2.118395e+00 -4.849477e+00 -1.462655e+00 -3.513872e+00 3.307977e+00 -2.495528e+00 4.341926e+00 -9.885378e-01 -9.041187e-01 -4.652122e+00 6.126471e+01 -5.276743e-01 -6.805398e-02 2.550890e-01 -5.962540e-02 -3.240752e-01 -5.741778e-02 3.564033e-01 -1.650191e-02 -2.099925e-01 -4.630565e-02 2.470239e-01 2.224361e-01 -2.035512e-01 9.218317e-02 -1.592646e-01 1.639331e-01 -1.168019e-01 -2.213525e-01 -2.820921e-02 -6.375560e-02 -5.608132e-02 -2.015590e-01 -8.485179e-02 -4.542972e-02 -7.091027e-02 2.702560e-01
<VARIANCE> 39
 2.304647e+01 2.401262e+01 3.984901e+01 1.915110e+01 2.780354e+01 1.965501e+01 2.150632e+01 1.707146e+01 3.104103e+01 1.866716e+01 2.225561e+01 2.658085e+01 2.316673e+01 8.340015e-01 1.742712e+00 1.605636e+00 1.376910e+00 2.502280e+00 1.754428e+00 1.643999e+00 1.694197e+00 2.551178e+00 1.886804e+00 1.604057e+00 2.017598e+00 2.282015e+00 1.127989e-01 2.989227e-01 3.173992e-01 2.157335e-01 4.690433e-01 3.848462e-01 3.269645e-01 3.616779e-01 4.370417e-01 3.787535e-01 3.114184e-01 3.813591e-01 3.039844e-01
<GCONST> 1.049316e+02
<STATE> 3
<MEAN> 39
 -1.902857e+00 -6.563334e+00 -1.231177e+00 -5.012757e+00 -2.296746e+00 -3.481669e+00 4.123402e+00 -2.652377e+00 3.374158e+00 -1.564900e+00 -3.811430e-01 -3.996810e+00 6.099583e+01 -2.584145e-01 -3.200839e-01 6.179999e-01 -2.244652e-01 -7.049183e-01 -1.712601e-01 1.354946e-01 -1.800587e-01 -6.043424e-01 -2.418636e-01 1.244065e-01 2.271338e-02 3.645088e-01 1.571010e-01 -5.043840e-02 2.270608e-01 -5.641418e-02 -2.187785e-01 -3.472294e-02 -1.265603e-01 -6.923877e-02 -1.588239e-01 -2.463428e-02 -9.957314e-02 -1.573971e-01 2.348432e-01
<VARIANCE> 39
 1.854327e+01 2.301906e+01 4.451709e+01 1.886059e+01 3.231437e+01 2.092180e+01 2.019219e+01 1.870555e+01 3.596886e+01 1.905884e+01 1.875683e+01 2.324476e+01 2.522699e+01 1.249418e+00 1.935413e+00 2.251286e+00 1.412452e+00 3.602140e+00 2.116576e+00 2.094104e+00 1.802945e+00 2.781089e+00 1.978100e+00 1.702280e+00 2.715899e+00 3.658261e+00 1.457292e-01 3.159637e-01 4.182495e-01 2.217667e-01 5.674805e-01 4.093934e-01 3.804647e-01 3.583986e-01 4.477538e-01 4.149120e-01 3.234720e-01 4.023653e-01 3.600517e-01
<GCONST> 1.090337e+02
<STATE> 4
<MEAN> 39
 -2.705140e+00 -7.099134e+00 6.728221e-01 -5.085880e+00 -3.847395e+00 -3.944716e+00 4.572951e+00 -3.098114e+00 1.979462e+00 -2.256857e+00 -1.352115e-01 -3.778491e+00 6.154519e+01 2.188048e-01 -2.863840e-01 1.088624e+00 -2.023920e-01 -1.087045e+00 -2.883411e-01 -2.467095e-01 -2.698012e-01 -8.353390e-01 -1.660811e-01 -2.940851e-02 -4.067117e-01 7.523975e-01 1.535133e-01 6.342720e-02 1.957917e-01 8.640883e-03 -1.041370e-01 7.830782e-02 -1.437376e-01 -3.721513e-02 -5.448963e-02 9.928861e-02 -1.174640e-01 -1.700847e-01 7.705355e-02
<VARIANCE> 39
 1.571133e+01 2.380091e+01 5.520120e+01 1.773021e+01 4.373591e+01 2.682307e+01 2.067500e+01 2.122696e+01 3.858804e+01 1.950546e+01 1.757730e+01 2.341058e+01 3.558069e+01 1.811763e+00 1.777719e+00 3.360208e+00 1.499796e+00 4.526960e+00 2.864993e+00 2.415414e+00 1.959808e+00 2.733509e+00 2.247415e+00 1.993064e+00 3.550701e+00 3.757387e+00 1.740993e-01 3.553772e-01 5.001204e-01 2.171536e-01 5.706934e-01 6.423030e-01 4.349245e-01 3.972749e-01 4.506159e-01 4.484172e-01 3.459859e-01 4.293629e-01 3.944317e-01
<GCONST> 1.136563e+02
<TRANSP> 5
 0.000000e+00 1.000000e+00 0.000000e+00 0.000000e+00 0.000000e+00
 0.000000e+00 5.235411e-01 4.764589e-01 0.000000e+00 0.000000e+00
 0.000000e+00 0.000000e+00 5.289772e-01 4.710228e-01 0.000000e+00
 0.000000e+00 0.000000e+00 0.000000e+00 6.386313e-01 3.613687e-01
 0.000000e+00 0.000000e+00 0.000000e+00 0.000000e+00 0.000000e+00
<ENDHMM>
~h "y"
<BEGINHMM>
<NUMSTATES> 5
<STATE> 2
<MEAN> 39
 -3.774030e+00 -9.801622e+00 7.115131e+00 -7.566915e-01 -8.816626e+00 -7.204649e+00 -5.495827e-01 -4.930332e+00 5.930251e+00 -4.220521e+00 1.309748e+00 -4.499928e+00 6.770078e+01 1.649570e+00 1.060728e-01 4.299558e-01 -3.478461e-01 -6.587399e-01 -7.353230e-01 -5.816231e-01 4.999237e-01 -9.074804e-01 -4.810528e-01 -6.902161e-03 -2.956418e-01 5.190965e-01 2.527330e-01 -2.363955e-02 1.267169e-01 -1.901984e-01 -1.319079e-01 1.472141e-01 -1.252055e-01 2.004007e-02 -2.347738e-01 2.264992e-02 -3.182304e-02 -4.996790e-02 1.739877e-01
<VARIANCE> 39
 7.611853e+01 4.115286e+01 1.389657e+01 1.807767e+01 2.046233e+01 2.377444e+01 2.470154e+01 1.811550e+01 3.903528e+01 1.581373e+01 1.508468e+01 1.233538e+01 1.253567e+01 5.475209e+00 2.275661e+00 1.288303e+00 1.432078e+00 1.953687e+00 1.919661e+00 1.960067e+00 1.243533e+00 3.889429e+00 2.012571e+00 1.500252e+00 1.037054e+00 1.386593e+00 6.618719e-01 4.611640e-01 2.456810e-01 3.108301e-01 3.857526e-01 3.070726e-01 3.464339e-01 2.614507e-01 7.652186e-01 3.973098e-01 2.716849e-01 2.040829e-01 2.987785e-01
<GCONST> 1.063136e+02
<STATE> 3
<MEAN> 39
 4.251578e+00 -8.646737e+00 8.887556e+00 -3.461284e+00 -1.173243e+01 -8.040681e+00 -2.505539e+00 -2.690849e+00 1.205953e+00 -5.681728e+00 9.086981e-01 -5.452913e+00 6.997372e+01 1.215241e+00 -3.974947e-02 5.268366e-01 -4.880677e-01 -5.857374e-01 -2.487642e-02 -3.321638e-01 4.864027e-01 -6.748243e-01 -2.393928e-01 -1.221156e-01 -1.365161e-01 4.804249e-01 -2.923707e-01 2.296512e-02 -9.255182e-02 8.175664e-02 1.237341e-01 1.476018e-01 2.075834e-01 -2.384127e-02 2.278724e-01 8.463693e-02 -3.546813e-02 7.912429e-02 -1.355564e-01
<VARIANCE> 39
 3.280408e+01 4.225827e+01 2.399531e+01 1.502771e+01 2.481959e+01 1.162515e+01 3.518016e+01 1.428099e+01 2.526823e+01 1.180358e+01 1.119879e+01 1.201990e+01 1.782927e+01 3.674684e+00 3.598948e+00 2.496101e+00 1.625778e+00 2.463636e+00 1.314617e+00 2.995749e+00 1.104136e+00 3.293506e+00 1.269727e+00 1.202462e+00 8.389271e-01 2.003747e+00 5.071056e-01 6.554794e-01 4.563597e-01 3.181666e-01 4.491986e-01 2.519609e-01 5.002710e-01 2.030645e-01 6.162716e-01 2.385519e-01 2.159728e-01 1.467923e-01 3.819484e-01
<GCONST> 1.048257e+02
<STATE> 4
<MEAN> 39
 5.915950e+00 -7.740504e+00 9.670873e+00 -3.868700e+00 -1.218556e+01 -7.195157e+00 5.006143e-01 -2.783836e-01 -7.823118e-01 -5.294332e+00 -2.633898e-01 -4.795822e+00 6.951382e+01 -1.478383e-01 -2.137315e-02 -8.637115e-02 5.700553e-02 2.075309e-01 2.597669e-02 3.198363e-02 1.560559e-02 3.322706e-02 9.789280e-02 -7.723766e-02 -2.544414e-02 -6.554572e-02 -5.862637e-02 1.268529e-02 -4.022219e-02 4.212091e-03 4.773742e-02 1.267936e-02 -5.120704e-03 -3.821128e-02 3.139656e-02 2.032809e-02 7.971704e-03 6.854843e-03 -3.096755e-02
<VARIANCE> 39
 1.313921e+01 5.608156e+01 3.843512e+01 9.303780e+00 2.822256e+01 1.221440e+01 2.300740e+01 1.480581e+01 1.834427e+01 1.389865e+01 1.325556e+01 1.155245e+01 1.726637e+01 9.115131e-01 3.862084e+00 3.037878e+00 7.778256e-01 2.312453e+00 8.548784e-01 1.613448e+00 1.142636e+00 1.385930e+00 9.315674e-01 1.141274e+00 7.466250e-01 1.142856e+00 1.218036e-01 4.631192e-01 4.828388e-01 1.517042e-01 3.419093e-01 1.594937e-01 2.738579e-01 1.857855e-01 2.366055e-01 1.733766e-01 1.939030e-01 1.314430e-01 1.319466e-01
<GCONST> 9.262956e+01
<TRANSP> 5
 0.000000e+00 1.000000e+00 0.000000e+00 0.000000e+00 0.000000e+00
 0.000000e+00 7.274088e-01 2.725912e-01 0.000000e+00 0.000000e+00
 0.000000e+00 0.000000e+00 7.074423e-01 2.925577e-01 0.000000e+00
 0.000000e+00 0.000000e+00 0.000000e+00 9.601879e-01 3.981215e-02
 0.000000e+00 0.000000e+00 0.000000e+00 0.000000e+00 0.000000e+00
<ENDHMM>
~h "aa"
<BEGINHMM>
<NUMSTATES> 5
<STATE> 2
<MEAN> 39
 4.128372e+00 -1.496719e+01 -4.239844e+00 -1.045140e+01 -6.103668e-01 1.333811e+00 1.486249e+00 -1.384213e+00 2.030405e-01 -1.298881e+00 -3.344921e+00 -1.039811e+01 7.024416e+01 1.018656e-01 -2.731389e-01 -1.520909e-01 -1.473760e-02 1.447860e-01 2.581264e-01 -1.421554e-01 6.330075e-02 1.141976e-01 -1.141518e-01 -1.210845e-01 -1.515766e-01 1.453240e-01 -1.306472e-02 7.511400e-02 4.918296e-02 3.416083e-02 -4.296928e-02 -8.372535e-02 -4.223890e-02 -2.233675e-02 9.969753e-03 -2.933271e-02 2.031519e-02 7.924014e-02 -3.033719e-02
<VARIANCE> 39
 3.736317e+01 6.702866e+01 2.999017e+01 3.448542e+01 2.162180e+01 4.439542e+01 2.459060e+01 2.661017e+01 3.245299e+01 1.583050e+01 2.155898e+01 3.599204e+01 6.374395e+01 1.551695e+00 2.492830e+00 1.294202e+00 1.961671e+00 1.345597e+00 2.669492e+00 1.683543e+00 1.791716e+00 1.979577e+00 1.366072e+00 1.385873e+00 2.069192e+00 2.128476e+00 2.157703e-01 3.491600e-01 2.190909e-01 3.145629e-01 2.408710e-01 3.849837e-01 3.144374e-01 3.536245e-01 3.059877e-01 2.710907e-01 2.432608e-01 3.327329e-01 2.295102e-01
<GCONST> 1.080061e+02
<STATE> 3
<MEAN> 39
 4.704138e+00 -1.535216e+01 -4.552780e+00 -1.019489e+01 -4.042856e-01 1.391168e+00 7.853808e-01 -1.210111e+00 6.446631e-01 -1.641034e+00 -3.683999e+00 -1.051454e+01 7.051791e+01 1.870334e-02 -2.392842e-02 1.277033e-02 1.079662e-01 1.599392e-02 -3.580397e-02 -2.083133e-01 3.766798e-02 1.690478e-01 -9.736389e-02 1.677620e-02 5.251675e-02 -3.489188e-03 -4.899963e-02 7.523764e-02 4.911764e-02 4.348335e-02 -4.975548e-02 -7.695109e-02 -8.395725e-03 -2.943080e-02 -2.762255e-03 -8.141277e-03 6.459384e-02 7.793399e-02 -3.839537e-02
<VARIANCE> 39
 3.158497e+01 6.807493e+01 2.678396e+01 2.655474e+01 1.914724e+01 4.878982e+01 2.403740e+01 3.032299e+01 3.123307e+01 1.660916e+01 2.285453e+01 2.997083e+01 5.655256e+01 1.452310e+00 2.887062e+00 1.451097e+00 1.778882e+00 1.358972e+00 2.799578e+00 1.870446e+00 1.894303e+00 1.883944e+00 1.349379e+00 1.391403e+00 1.851421e+00 2.147030e+00 1.640400e-01 3.867180e-01 2.460276e-01 2.924287e-01 2.454912e-01 4.167550e-01 3.458052e-01 3.811065e-01 2.928358e-01 2.827925e-01 2.527888e-01 3.003125e-01 2.152717e-01
<GCONST> 1.074899e+02
<STATE> 4
<MEAN> 39
 5.157078e+00 -1.522382e+01 -4.817974e+00 -9.379509e+00 -6.310235e-01 8.427775e-01 1.728022e-02 -1.406708e+00 1.385220e+00 -1.957696e+00 -3.441071e+00 -1.014299e+01 7.042523e+01 -2.183457e-01 2.404241e-01 2.846281e-02 3.052253e-01 -1.028126e-01 -3.083819e-01 -2.724989e-02 -1.493983e-02 2.009697e-01 -9.484856e-02 2.881762e-01 2.830676e-01 -2.620682e-01 -7.412060e-02 3.547474e-02 5.813948e-03 4.012636e-02 -3.427414e-02 -5.056784e-02 6.728806e-02 5.872910e-03 6.612570e-03 -2.311813e-02 4.260973e-02 6.241175e-02 -4.639836e-02
<VARIANCE> 39
 2.943836e+01 6.301418e+01 2.234306e+01 2.063757e+01 1.822100e+01 5.439791e+01 2.331706e+01 2.988200e+01 3.409142e+01 1.883014e+01 2.358668e+01 2.594178e+01 4.696416e+01 1.262241e+00 3.202377e+00 1.484089e+00 1.709047e+00 1.575900e+00 3.086122e+00 2.069106e+00 2.101593e+00 1.820367e+00 1.522870e+00 1.411560e+00 1.724877e+00 2.161839e+00 1.562138e-01 4.147286e-01 2.794540e-01 2.906632e-01 2.984982e-01 5.103123e-01 3.853146e-01 4.074068e-01 3.185551e-01 3.108633e-01 2.649767e-01 3.112945e-01 2.125504e-01
<GCONST> 1.082352e+02
<TRANSP> 5
 0.000000e+00 1.000000e+00 0.000000e+00 0.000000e+00 0.000000e+00
 0.000000e+00 5.870889e-01 4.129111e-01 0.000000e+00 0.000000e+00
 0.000000e+00 0.000000e+00 5.956676e-01 4.043324e-01 0.000000e+00
 0.000000e+00 0.000000e+00 0.000000e+00 7.556344e-01 2.443657e-01
 0.000000e+00 0.000000e+00 0.000000e+00 0.000000e+00 0.000000e+00
<ENDHMM>
~h "cx"
<BEGINHMM>
<NUMSTATES> 5
<STATE> 2
<MEAN> 39
 -4.764079e+00 -6.791360e+00 4.440778e+00 -5.192333e+00 -3.199512e+00 -2.410667e+00 5.228823e-01 -3.052550e+00 2.936218e+00 -3.731314e+00 5.395539e-01 -2.122871e+00 6.312407e+01 -1.230302e+00 -4.396361e-01 4.707223e-01 -4.454226e-01 -4.843270e-02 2.711335e-01 -1.675881e-01 3.908236e-01 2.418149e-01 -5.502064e-02 1.045536e-01 -2.431505e-01 4.113590e-01 1.854645e-01 2.172472e-02 -1.645602e-02 -1.606689e-02 -5.572812e-02 -1.226221e-01 4.431732e-02 7.242218e-02 8.969843e-02 1.130837e-01 2.386970e-02 -1.154168e-01 6.812031e-02
<VARIANCE> 39
 3.680840e+01 4.264928e+01 3.615627e+01 1.966007e+01 1.948641e+01 3.764968e+01 2.545808e+01 3.107772e+01 1.501004e+01 1.766798e+01 1.910129e+01 2.138130e+01 2.827692e+01 2.337368e+00 2.045542e+00 1.620372e+00 1.881936e+00 2.073188e+00 3.103137e+00 1.915296e+00 1.417008e+00 1.970090e+00 1.890450e+00 1.749998e+00 1.707919e+00 1.538997e+00 4.662068e-01 4.422863e-01 3.587708e-01 4.381063e-01 3.388019e-01 6.159204e-01 3.976844e-01 3.334415e-01 3.481100e-01 4.112620e-01 3.765615e-01 3.085625e-01 2.265887e-01
<GCONST> 1.095917e+02
<STATE> 3
<MEAN> 39
 -6.517282e+00 -7.701465e+00 5.248053e+00 -5.946954e+00 -3.578336e+00 -2.439140e+00 3.050320e-01 -2.193166e+00 3.542700e+00 -3.739440e+00 5.678502e-01 -2.767799e+00 6.437694e+01 -4.250192e-01 -5.486276e-01 2.041260e-01 -3.879060e-01 -2.627535e-01 -1.639468e-01 -3.156532e-02 5.458000e-01 3.251362e-01 2.072486e-01 1.414918e-01 -2.877224e-01 5.137192e-01 4.921437e-01 -6.679957e-02 -1.278106e-01 2.107741e-02 -1.037517e-01 -1.712279e-01 4.768269e-02 2.682620e-02 -1.868912e-02 9.186831e-02 -2.473031e-02 -6.310797e-02 3.674514e-02
<VARIANCE> 39
 4.724079e+01 3.685843e+01 3.509368e+01 1.576400e+01 2.504694e+01 4.301088e+01 2.619351e+01 3.016985e+01 1.559970e+01 1.847146e+01 2.127486e+01 2.210376e+01 3.027810e+01 5.195615e+00 2.283406e+00 1.990747e+00 2.116003e+00 2.285354e+00 3.966816e+00 2.115030e+00 1.648896e+00 1.936947e+00 1.994249e+00 1.890393e+00 1.847160e+00 1.860598e+00 9.169471e-01 4.026123e-01 3.897767e-01 4.005429e-01 4.057809e-01 8.885480e-01 4.029726e-01 3.572997e-01 3.653498e-01 4.079888e-01 3.809222e-01 3.303145e-01 2.445385e-01
<GCONST> 1.137285e+02
<STATE> 4
<MEAN> 39
 -1.889664e+00 -1.196283e+01 4.666346e+00 -6.875134e+00 -6.725058e+00 -5.296509e+00 -8.010951e-01 9.995103e-02 4.051064e+00 -2.741342e+00 -1.236537e-01 -5.550032e+00 6.938065e+01 1.551283e+00 -1.280405e+00 -7.681601e-01 -3.968846e-01 -2.032023e-01 -6.200039e-01 -5.323460e-02 8.116745e-01 -1.356770e-01 4.370414e-01 -4.094191e-01 -9.793558e-01 9.224803e-01 2.310429e-02 -6.053941e-02 -1.288393e-01 -6.778522e-02 2.126152e-01 2.860579e-01 4.415758e-02 -4.370742e-02 -7.482385e-02 -4.214459e-03 -7.369080e-02 -9.145896e-02 -4.429212e-02
<VARIANCE> 39
 7.695210e+01 4.783932e+01 3.232341e+01 1.543021e+01 3.564622e+01 4.143639e+01 2.156824e+01 2.217541e+01 1.145744e+01 1.878185e+01 2.063349e+01 3.064357e+01 4.473080e+01 7.208288e+00 2.945592e+00 2.262522e+00 1.893283e+00 3.121934e+00 6.045892e+00 1.970994e+00 1.865766e+00 1.396879e+00 2.179743e+00 1.868058e+00 2.044131e+00 2.100962e+00 1.533934e+00 3.802420e-01 3.057764e-01 3.174369e-01 5.242099e-01 1.098292e+00 4.018429e-01 3.425992e-01 2.823574e-01 4.358074e-01 3.104733e-01 2.981122e-01 2.724223e-01
<GCONST> 1.159540e+02
<TRANSP> 5
 0.000000e+00 1.000000e+00 0.000000e+00 0.000000e+00 0.000000e+00
 0.000000e+00 3.294046e-01 6.705953e-01 0.000000e+00 0.000000e+00
 0.000000e+00 0.000000e+00 3.618934e-01 6.381066e-01 0.000000e+00
 0.000000e+00 0.000000e+00 0.000000e+00 6.826782e-01 3.173218e-01
 0.000000e+00 0.000000e+00 0.000000e+00 0.000000e+00 0.000000e+00
<ENDHMM>
~h "ee"
<BEGINHMM>
<NUMSTATES> 5
<STATE> 2
<MEAN> 39
 2.535140e-01 -9.925303e+00 1.114614e+01 -7.600351e+00 -1.324573e+01 -7.726962e+00 -1.095930e-01 -1.907261e+00 -4.343295e+00 -1.836352e+00 2.170142e+00 -5.975448e+00 6.623086e+01 5.476249e-01 -6.760042e-01 1.806348e+00 -4.825981e-01 -1.619809e+00 -4.146155e-01 -5.447285e-01 -2.003256e-02 -9.390925e-01 1.982491e-01 3.814255e-01 -5.132964e-01 1.194089e+00 9.735402e-02 -2.690175e-02 2.195243e-02 8.460822e-03 1.991291e-02 -8.498271e-03 -8.398835e-02 4.324238e-02 -8.092497e-03 -2.435104e-02 -1.064436e-02 2.009961e-02 1.107298e-01
<VARIANCE> 39
 1.895646e+01 3.168051e+01 7.755022e+01 1.645855e+01 5.870466e+01 1.930463e+01 2.248231e+01 1.560179e+01 3.135795e+01 1.048253e+01 1.464368e+01 1.848746e+01 4.663545e+01 1.390345e+00 2.227055e+00 3.885858e+00 1.640445e+00 4.254396e+00 1.706573e+00 2.175749e+00 1.300404e+00 2.740393e+00 1.297273e+00 1.261738e+00 1.790364e+00 3.115363e+00 1.885817e-01 3.208986e-01 7.151979e-01 2.292048e-01 7.438831e-01 3.409126e-01 3.743861e-01 2.128444e-01 4.837448e-01 2.583498e-01 2.465642e-01 3.320055e-01 4.256341e-01
<GCONST> 1.086317e+02
<STATE> 3
<MEAN> 39
 2.695658e+00 -1.199156e+01 1.619753e+01 -8.782115e+00 -1.769254e+01 -8.784389e+00 -2.130758e+00 -1.932199e+00 -7.124392e+00 -1.412946e+00 3.243649e+00 -6.936933e+00 7.049102e+01 4.705104e-01 -4.161593e-01 9.517036e-01 -1.715831e-01 -8.850783e-01 -2.753570e-01 -3.859783e-01 -1.612008e-02 -5.250019e-01 1.896270e-01 2.091163e-01 -1.997829e-01 8.127747e-01 -2.634720e-02 8.220773e-02 -1.569814e-01 6.189616e-02 1.493953e-01 2.051067e-02 5.987898e-02 -1.205275e-02 5.244187e-02 -1.036966e-03 -4.560059e-02 2.945876e-02 -9.928286e-02
<VARIANCE> 39
 1.501461e+01 2.741001e+01 5.996770e+01 1.517784e+01 4.391299e+01 1.437148e+01 2.009896e+01 1.099203e+01 2.753269e+01 1.045499e+01 1.062950e+01 1.329792e+01 4.032170e+01 8.562923e-01 1.916383e+00 3.446950e+00 1.267744e+00 2.900823e+00 1.172063e+00 1.672602e+00 1.028088e+00 2.119946e+00 1.068527e+00 9.829997e-01 1.398082e+00 2.300218e+00 1.369343e-01 2.738692e-01 4.836625e-01 1.950537e-01 4.802782e-01 2.468143e-01 2.922969e-01 1.838655e-01 3.627752e-01 2.284299e-01 1.723738e-01 2.593423e-01 3.073476e-01
<GCONST> 9.889293e+01
<STATE> 4
<MEAN> 39
 4.342426e+00 -1.243564e+01 1.803142e+01 -8.599082e+00 -1.991443e+01 -1.035751e+01 -2.881629e+00 -2.707893e+00 -9.218498e+00 -1.478170e-01 3.764845e+00 -7.607823e+00 7.254375e+01 1.857579e-01 2.143665e-01 1.291086e-01 1.969334e-01 -1.722680e-01 -2.494858e-01 5.869663e-02 -2.510757e-01 -2.369590e-01 1.991408e-01 3.537289e-02 -8.601983e-02 5.123501e-02 -7.583807e-02 1.388884e-01 -1.445393e-01 7.587407e-02 1.461015e-01 2.718040e-02 6.784201e-02 -6.239052e-02 7.940579e-02 -2.264496e-02 -1.060297e-02 5.447058e-02 -1.721279e-01
<VARIANCE> 39
 7.880815e+00 2.488453e+01 3.312688e+01 1.545565e+01 2.495787e+01 1.204255e+01 1.366454e+01 1.183943e+01 2.057907e+01 1.112482e+01 1.174694e+01 1.173397e+01 2.444529e+01 5.915059e-01 1.832824e+00 2.620549e+00 1.130505e+00 2.057518e+00 9.478934e-01 1.239582e+00 1.052129e+00 1.643011e+00 1.095972e+00 8.315728e-01 1.258711e+00 1.880075e+00 7.703464e-02 2.216382e-01 3.152041e-01 1.813195e-01 2.729656e-01 1.876421e-01 2.197720e-01 1.805048e-01 2.861148e-01 2.318676e-01 1.657438e-01 2.442216e-01 1.594727e-01
<GCONST> 9.002074e+01
<TRANSP> 5
 0.000000e+00 1.000000e+00 0.000000e+00 0.000000e+00 0.000000e+00
 0.000000e+00 7.755349e-01 2.244651e-01 0.000000e+00 0.000000e+00
 0.000000e+00 0.000000e+00 7.551683e-01 2.448317e-01 0.000000e+00
 0.000000e+00 0.000000e+00 0.000000e+00 9.019552e-01 9.804474e-02
 0.000000e+00 0.000000e+00 0.000000e+00 0.000000e+00 0.000000e+00
<ENDHMM>
~h "ii"
<BEGINHMM>
<NUMSTATES> 5
<STATE> 2
<MEAN> 39
 1.875053e+00 -8.846642e+00 1.487922e+01 -7.792845e+00 -1.523266e+01 -4.253200e+00 -4.163899e-01 -5.865963e+00 -6.424850e+00 5.406628e-01 -1.699155e+00 -1.042354e+01 6.964204e+01 5.624040e-01 5.491773e-02 1.314116e+00 -4.253655e-01 -1.000075e+00 3.727798e-01 -4.810890e-01 -2.182351e-01 -4.555438e-01 5.621514e-01 -5.507299e-01 -7.742486e-01 5.928181e-01 -1.379660e-01 9.641349e-02 -3.122099e-01 7.934356e-02 3.157572e-01 2.307821e-02 1.532674e-01 9.605491e-02 2.504797e-01 -3.575026e-02 4.163970e-02 2.191885e-01 -2.525899e-01
<VARIANCE> 39
 1.438456e+01 2.026333e+01 9.233283e+01 2.550840e+01 6.931967e+01 1.582404e+01 3.284727e+01 1.289658e+01 3.532671e+01 2.194831e+01 2.217700e+01 3.882456e+01 5.078352e+01 1.143976e+00 1.230223e+00 5.906849e+00 1.113099e+00 3.743083e+00 1.716902e+00 2.793189e+00 1.161536e+00 2.667647e+00 1.888834e+00 1.851469e+00 3.174457e+00 2.412372e+00 1.794543e-01 1.702850e-01 8.741891e-01 1.583029e-01 5.545078e-01 3.330933e-01 4.179446e-01 1.847536e-01 3.875622e-01 3.250135e-01 2.663345e-01 4.956722e-01 3.524107e-01
<GCONST> 1.101803e+02
<STATE> 3
<MEAN> 39
 4.034369e+00 -6.737552e+00 1.732580e+01 -8.666767e+00 -1.759124e+01 -2.949901e+00 2.014709e-01 -6.048656e+00 -5.424117e+00 2.020264e+00 -3.356400e+00 -1.151548e+01 7.016421e+01 1.017364e-01 5.783899e-01 -4.354073e-01 1.310034e-01 3.124602e-01 1.002281e-01 4.209053e-01 1.670488e-01 5.455250e-01 -1.703006e-01 -5.562823e-03 4.227923e-01 -4.374503e-01 -4.694035e-02 1.913729e-02 -1.518206e-01 6.678428e-02 1.277861e-01 -6.371662e-02 5.248836e-02 4.920364e-02 5.889581e-02 -1.226267e-01 1.060787e-01 1.310133e-01 -6.573057e-02
<VARIANCE> 39
 7.707096e+00 1.875358e+01 4.073898e+01 1.901074e+01 4.071964e+01 1.365910e+01 2.403924e+01 1.384152e+01 2.040100e+01 1.808545e+01 1.974669e+01 2.072727e+01 2.215099e+01 2.644051e-01 6.563535e-01 1.455911e+00 6.645228e-01 1.390417e+00 9.085824e-01 1.003857e+00 9.595158e-01 1.164844e+00 1.266279e+00 1.285488e+00 1.044538e+00 3.613199e-01 5.586758e-02 1.049647e-01 2.652927e-01 1.075380e-01 2.327666e-01 1.771925e-01 2.040509e-01 1.671245e-01 2.383129e-01 2.000905e-01 1.967428e-01 2.036350e-01 6.492011e-02
<GCONST> 8.427427e+01
<STATE> 4
<MEAN> 39
 4.619771e+00 -1.529350e+00 1.170345e+01 -5.505615e+00 -1.266033e+01 -4.034029e+00 3.486103e+00 -4.620534e+00 -1.887855e+00 -1.065259e+00 -2.365325e+00 -7.441507e+00 6.593333e+01 9.602334e-03 5.962964e-01 -6.358740e-01 3.544847e-01 7.726135e-01 -1.516929e-01 1.203604e-01 1.290651e-01 3.895606e-01 -3.857855e-01 1.556925e-02 4.596239e-01 -4.947377e-01 -3.086214e-02 -3.476540e-02 1.669250e-02 1.516784e-02 2.608348e-02 -1.045431e-02 -5.999333e-02 -2.090700e-02 -2.490576e-02 -1.986377e-03 -6.714427e-03 -1.142469e-02 1.652191e-03
<VARIANCE> 39
 1.234410e+01 2.664341e+01 4.048219e+01 1.910405e+01 6.133008e+01 1.474303e+01 1.467252e+01 1.315718e+01 1.830117e+01 1.884003e+01 1.613671e+01 2.136537e+01 2.252383e+01 3.553421e-01 7.619287e-01 1.255440e+00 7.318515e-01 1.630974e+00 1.142708e+00 9.011521e-01 9.327409e-01 1.125495e+00 1.031739e+00 1.137896e+00 1.086931e+00 3.235379e-01 4.158878e-02 1.096318e-01 1.782591e-01 1.220881e-01 2.537518e-01 2.340799e-01 1.433283e-01 1.733403e-01 2.009769e-01 1.947650e-01 2.135106e-01 2.002228e-01 3.697941e-02
<GCONST> 8.385821e+01
<TRANSP> 5
 0.000000e+00 1.000000e+00 0.000000e+00 0.000000e+00 0.000000e+00
 0.000000e+00 8.524884e-01 1.475116e-01 0.000000e+00 0.000000e+00
 0.000000e+00 0.000000e+00 7.852830e-01 2.147170e-01 0.000000e+00
 0.000000e+00 0.000000e+00 0.000000e+00 9.193491e-01 8.065096e-02
 0.000000e+00 0.000000e+00 0.000000e+00 0.000000e+00 0.000000e+00
<ENDHMM>
~h "sh"
<BEGINHMM>
<NUMSTATES> 5
<STATE> 2
<MEAN> 39
 -3.916156e+00 -8.251402e+00 5.313903e+00 -1.914381e+00 -6.515904e+00 -2.683106e+00 2.417746e-01 -4.943924e+00 5.914333e+00 -2.566646e+00 7.383271e-01 -3.101070e+00 6.572885e+01 -4.579183e-01 -3.270964e-01 6.611941e-01 2.423669e-01 -3.653561e-01 1.795643e-01 -8.959281e-02 -1.264601e-01 2.509701e-01 7.529028e-02 1.545151e-01 -2.417118e-02 1.173270e-01 8.787607e-02 1.137763e-02 -1.490554e-02 -8.728652e-02 -4.361090e-02 -6.561020e-02 -2.022858e-01 2.766534e-02 -7.898559e-02 -9.822934e-02 -2.249718e-02 -6.862444e-02 1.124267e-01
<VARIANCE> 39
 6.219427e+01 3.540807e+01 3.168932e+01 2.788993e+01 2.504789e+01 3.332512e+01 2.659272e+01 3.134868e+01 3.024213e+01 2.253596e+01 1.682254e+01 1.639762e+01 1.994144e+01 4.925652e+00 2.441072e+00 1.709325e+00 1.408508e+00 1.823962e+00 3.223653e+00 2.644224e+00 1.979947e+00 2.512141e+00 1.660232e+00 1.638404e+00 1.252702e+00 9.147156e-01 5.326050e-01 2.882079e-01 2.276833e-01 2.815796e-01 3.618398e-01 4.045384e-01 6.588680e-01 2.819188e-01 4.751037e-01 3.379493e-01 3.207959e-01 2.688938e-01 1.425254e-01
<GCONST> 1.091452e+02
<STATE> 3
<MEAN> 39
 -2.820706e+00 -8.404980e+00 6.319848e+00 -2.195180e+00 -7.373824e+00 -2.923255e+00 -6.376323e-01 -4.522394e+00 5.552916e+00 -3.196334e+00 5.132662e-01 -3.545196e+00 6.643979e+01 -6.898782e-02 -1.490818e-01 5.467586e-01 -1.091749e-02 -3.886048e-01 -3.029255e-02 -4.618395e-01 -1.481723e-01 -8.381346e-02 -1.161614e-01 3.212623e-02 -1.781295e-01 3.493927e-01 8.580679e-03 -1.784201e-02 -1.540301e-01 -9.601630e-02 2.532031e-02 -8.315593e-02 -7.687078e-02 -1.218045e-02 -4.022477e-02 -3.920443e-03 4.579269e-03 -7.003843e-02 1.153534e-01
<VARIANCE> 39
 5.896757e+01 3.135921e+01 3.442029e+01 2.762100e+01 3.212284e+01 4.590274e+01 2.865768e+01 2.988450e+01 2.831564e+01 2.048215e+01 1.644782e+01 1.503478e+01 1.794474e+01 8.424716e+00 2.389008e+00 1.578612e+00 1.615006e+00 2.132227e+00 2.713760e+00 3.385074e+00 2.008580e+00 3.121820e+00 1.716936e+00 1.596263e+00 1.156917e+00 1.239408e+00 5.523069e-01 3.288563e-01 2.671703e-01 2.543957e-01 3.933242e-01 4.298848e-01 6.700373e-01 2.932792e-01 4.938364e-01 2.924228e-01 3.443010e-01 2.260512e-01 1.990892e-01
<GCONST> 1.110826e+02
<STATE> 4
<MEAN> 39
 -1.518597e+00 -8.658452e+00 7.183067e+00 -3.019551e+00 -8.588095e+00 -3.592486e+00 -2.103609e+00 -4.397843e+00 4.692708e+00 -3.978170e+00 5.494808e-01 -4.275600e+00 6.781554e+01 -1.087779e-01 -1.683525e-01 1.552822e-01 -2.360784e-01 -1.751337e-01 -5.058998e-02 -3.710327e-01 -1.740320e-01 6.395463e-03 4.325932e-02 8.106605e-02 -2.280073e-01 4.042298e-01 -9.879289e-02 3.971516e-02 -2.187378e-01 -2.938060e-02 1.192402e-01 1.525838e-03 1.728916e-01 1.020119e-02 9.499552e-02 5.988234e-02 -2.738541e-02 2.036992e-02 -7.094494e-02
<VARIANCE> 39
 7.172647e+01 2.775381e+01 3.497623e+01 2.509769e+01 3.020578e+01 4.704369e+01 3.123726e+01 2.711592e+01 2.964654e+01 1.670620e+01 1.555355e+01 1.491375e+01 1.973269e+01 6.765984e+00 2.160381e+00 1.335165e+00 1.829353e+00 2.058081e+00 2.080438e+00 3.650797e+00 1.652082e+00 2.743672e+00 1.276389e+00 1.875957e+00 1.091828e+00 1.371279e+00 6.155313e-01 3.754166e-01 2.296744e-01 2.578823e-01 3.759606e-01 3.665369e-01 5.959990e-01 2.772551e-01 4.997432e-01 2.733690e-01 3.263265e-01 1.841714e-01 2.643886e-01
<GCONST> 1.095920e+02
<TRANSP> 5
 0.000000e+00 1.000000e+00 0.000000e+00 0.000000e+00 0.000000e+00
 0.000000e+00 4.964511e-01 5.035489e-01 0.000000e+00 0.000000e+00
 0.000000e+00 0.000000e+00 4.340319e-01 5.659680e-01 0.000000e+00
 0.000000e+00 0.000000e+00 0.000000e+00 4.906688e-01 5.093312e-01
 0.000000e+00 0.000000e+00 0.000000e+00 0.000000e+00 0.000000e+00
<ENDHMM>
~h "uu"
<BEGINHMM>
<NUMSTATES> 5
<STATE> 2
<MEAN> 39
 5.723738e+00 -7.842319e+00 3.401087e+00 -1.021617e+01 -4.558781e+00 8.102717e-01 -7.137252e+00 -5.815448e+00 3.612504e+00 -1.496729e+00 -6.068151e-01 -6.712835e+00 6.998510e+01 -1.090563e-01 -3.154533e-01 -3.299772e-02 -1.094373e+00 -1.762430e-01 8.279018e-01 -3.001860e-01 -6.490251e-02 -1.037804e-01 1.334569e-01 3.421349e-01 1.503606e-01 4.111185e-01 -1.056234e-02 2.418967e-01 -1.335888e-01 1.138078e-01 -1.608413e-02 -7.782198e-02 3.257318e-01 9.635095e-03 -8.451045e-02 -8.913177e-02 -4.223904e-02 1.434366e-01 -1.818256e-01
<VARIANCE> 39
 4.293602e+01 3.853215e+01 2.435064e+01 5.290619e+01 1.707059e+01 4.191934e+01 4.871896e+01 1.719858e+01 2.677134e+01 1.922517e+01 2.145477e+01 2.092691e+01 1.607885e+01 1.068417e+00 3.491626e+00 1.208165e+00 3.040438e+00 1.113958e+00 2.765723e+00 4.146040e+00 1.823337e+00 1.638702e+00 1.794007e+00 1.307386e+00 1.428709e+00 1.322783e+00 1.803815e-01 4.591256e-01 1.932226e-01 3.567953e-01 2.051763e-01 3.098436e-01 5.747263e-01 3.600428e-01 2.557551e-01 2.780334e-01 2.265816e-01 2.310560e-01 1.359420e-01
<GCONST> 1.053447e+02
<STATE> 3
<MEAN> 39
 5.935431e+00 -6.214125e+00 2.353166e+00 -1.281615e+01 -5.454086e+00 1.994976e+00 -5.284007e+00 -5.343803e+00 2.151618e+00 -2.411259e+00 1.036775e-01 -5.051699e+00 6.977309e+01 -5.288250e-02 5.525948e-01 -2.704487e-01 -2.376932e-01 -1.692602e-01 1.888305e-02 5.717814e-01 1.064280e-01 -2.050832e-01 -2.983967e-01 6.883979e-02 3.770940e-01 -2.114434e-01 3.895376e-02 1.176571e-01 -3.558323e-02 1.982785e-01 4.204002e-03 -1.978594e-01 1.258097e-01 5.123722e-02 -1.376750e-02 -6.780456e-02 -3.961957e-02 9.801890e-03 -1.024522e-01
<VARIANCE> 39
 5.114588e+01 4.201408e+01 2.296808e+01 5.547672e+01 1.528533e+01 4.989644e+01 4.690623e+01 2.179704e+01 2.989536e+01 2.328352e+01 1.909126e+01 1.912327e+01 1.369499e+01 5.721918e-01 2.119387e+00 8.844344e-01 2.051782e+00 8.895814e-01 2.624387e+00 2.034884e+00 1.876836e+00 1.502236e+00 2.117754e+00 1.190121e+00 1.552111e+00 6.980522e-01 9.158831e-02 2.884847e-01 1.403548e-01 2.215269e-01 1.655278e-01 2.938451e-01 4.054806e-01 3.478264e-01 2.498996e-01 3.248854e-01 2.090214e-01 2.690917e-01 8.049059e-02
<GCONST> 9.952246e+01
<STATE> 4
<MEAN> 39
 7.251015e+00 -3.443952e-01 1.126780e+00 -1.223159e+01 -6.126210e+00 -1.426096e+00 -1.404780e+00 -3.316117e+00 8.025420e-02 -4.981775e+00 -5.745550e-01 -4.064773e+00 6.668321e+01 -3.227319e-01 3.895204e-01 1.369313e-02 5.539966e-01 1.300940e-02 -4.237413e-01 4.749218e-01 2.387350e-02 -6.469737e-02 -1.016358e-01 -7.370874e-03 1.346875e-01 -4.625195e-01 -4.943184e-02 -8.485580e-02 2.680951e-02 5.158422e-02 2.961870e-02 4.375718e-03 -3.335020e-02 -1.574986e-02 2.420047e-02 5.045867e-02 2.990705e-02 -1.632353e-02 -2.710960e-03
<VARIANCE> 39
 3.287440e+01 3.325931e+01 1.617353e+01 4.175216e+01 1.539107e+01 4.085649e+01 2.780470e+01 2.509085e+01 2.562382e+01 1.988999e+01 1.643667e+01 1.490988e+01 1.457149e+01 5.389111e-01 1.065232e+00 7.373078e-01 1.247642e+00 8.911998e-01 1.817245e+00 1.443480e+00 1.941472e+00 1.491736e+00 1.673883e+00 1.230085e+00 1.375355e+00 2.514046e-01 5.302764e-02 1.029309e-01 1.084759e-01 1.834958e-01 1.457408e-01 2.616464e-01 2.683667e-01 3.395754e-01 2.736865e-01 2.884958e-01 2.249629e-01 2.408055e-01 3.106853e-02
<GCONST> 8.981403e+01
<TRANSP> 5
 0.000000e+00 1.000000e+00 0.000000e+00 0.000000e+00 0.000000e+00
 0.000000e+00 6.502330e-01 3.497670e-01 0.000000e+00 0.000000e+00
 0.000000e+00 0.000000e+00 6.418514e-01 3.581487e-01 0.000000e+00
 0.000000e+00 0.000000e+00 0.000000e+00 8.662574e-01 1.337426e-01
 0.000000e+00 0.000000e+00 0.000000e+00 0.000000e+00 0.000000e+00
<ENDHMM>
~h "sil"
<BEGINHMM>
<NUMSTATES> 5
<STATE> 2
<MEAN> 39
 -5.044159e+00 -4.849353e+00 4.108329e-01 -8.175452e-01 1.164805e+00 -2.566185e+00 3.998366e+00 -2.129592e+00 3.834910e+00 -2.282529e+00 1.095736e+00 -5.728948e-01 5.708360e+01 -2.285971e-01 2.179336e-01 2.014298e-01 1.544706e-01 1.359948e-01 2.077763e-01 1.057425e-01 -1.322411e-01 -3.884410e-02 1.375792e-01 1.366215e-01 -1.491169e-02 -2.491124e-01 1.921467e-02 -5.519261e-02 2.409627e-02 -3.824749e-03 -5.411385e-02 -5.294913e-02 -7.454599e-04 -3.482886e-04 -5.740445e-02 -5.186943e-02 4.700422e-04 4.861950e-02 5.011909e-02
<VARIANCE> 39
 3.123052e+00 7.553815e+00 8.911729e+00 8.687538e+00 1.246676e+01 1.316137e+01 1.285293e+01 1.513925e+01 1.794666e+01 1.481344e+01 1.386224e+01 1.321185e+01 2.814403e+00 1.418250e-01 3.269028e-01 4.218684e-01 7.033617e-01 9.481463e-01 1.105339e+00 1.076489e+00 1.121672e+00 1.445863e+00 1.435261e+00 1.174682e+00 1.009836e+00 9.886804e-02 2.392984e-02 5.076162e-02 6.662129e-02 1.273413e-01 1.587438e-01 1.867974e-01 1.925694e-01 2.195716e-01 2.848467e-01 2.553343e-01 2.079280e-01 1.712868e-01 1.270097e-02
<GCONST> 6.743614e+01
<STATE> 3
<MEAN> 39
 -6.214942e+00 -4.112534e+00 1.328668e+00 -7.202715e-01 1.141034e+00 -1.909532e+00 4.279760e+00 -3.261025e+00 2.689394e+00 -2.452876e+00 1.960838e+00 1.357265e-01 5.611720e+01 -8.764532e-02 9.589978e-03 2.991129e-02 2.026444e-02 -4.229524e-02 9.932542e-02 1.390884e-01 -1.311382e-01 -1.161116e-01 -5.554581e-02 2.285214e-02 8.378272e-02 -5.907278e-02 2.387105e-02 -2.833013e-02 -3.849649e-02 -3.665447e-02 -4.282385e-02 -2.519065e-02 9.621846e-03 1.292985e-02 -1.057862e-02 -1.519515e-02 -3.792189e-02 1.376868e-03 2.134862e-02
<VARIANCE> 39
 1.797787e+00 5.099713e+00 1.192743e+01 7.400798e+00 1.261398e+01 1.323824e+01 1.280087e+01 1.541371e+01 1.550822e+01 1.272847e+01 1.245472e+01 1.313624e+01 2.060371e+00 1.421165e-01 2.936379e-01 5.154184e-01 7.032358e-01 8.764543e-01 9.511752e-01 1.170439e+00 1.506563e+00 1.484419e+00 1.357471e+00 1.213401e+00 1.129367e+00 5.109795e-02 2.686475e-02 5.933419e-02 1.018632e-01 1.451373e-01 1.859297e-01 1.998995e-01 2.462154e-01 3.207315e-01 3.194142e-01 2.871865e-01 2.593251e-01 2.311605e-01 9.814642e-03
<GCONST> 6.780344e+01
<STATE> 4
<MEAN> 39
 -6.612317e+00 -4.022010e+00 1.250741e+00 -9.550704e-01 1.124719e+00 -1.477732e+00 4.783298e+00 -3.180755e+00 2.044544e+00 -2.786633e+00 2.266387e+00 5.450671e-01 5.539503e+01 -1.711560e-02 -4.467350e-03 1.754256e-02 -9.814564e-03 -2.504006e-03 1.120193e-02 -1.975018e-02 -9.369511e-03 -1.029326e-02 -1.357467e-02 8.630710e-03 5.829723e-03 -3.970619e-03 -2.646479e-04 -1.557898e-03 1.960126e-03 -4.875776e-04 2.028555e-03 -7.498216e-03 -1.185224e-02 7.659707e-04 -8.285427e-04 -1.182555e-03 -3.526465e-03 -8.534626e-03 4.296016e-03
<VARIANCE> 39
 1.298923e+00 3.415397e+00 9.103799e+00 7.958767e+00 1.085203e+01 1.344330e+01 1.527728e+01 1.408921e+01 1.475047e+01 1.422131e+01 1.286549e+01 1.183785e+01 1.062421e+00 1.112665e-01 2.280351e-01 4.389572e-01 6.581835e-01 8.188356e-01 1.000400e+00 1.330797e+00 1.418515e+00 1.491516e+00 1.376983e+00 1.339867e+00 1.167120e+00 3.383574e-02 2.279616e-02 4.600041e-02 8.527232e-02 1.346554e-01 1.665586e-01 2.028284e-01 2.746720e-01 2.907447e-01 3.057379e-01 2.882023e-01 2.782814e-01 2.406682e-01 7.115420e-03
<GCONST> 6.421722e+01
<TRANSP> 5
 0.000000e+00 1.000000e+00 0.000000e+00 0.000000e+00 0.000000e+00
 0.000000e+00 7.659376e-01 2.340624e-01 0.000000e+00 0.000000e+00
 0.000000e+00 0.000000e+00 7.582634e-01 2.417366e-01 0.000000e+00
 0.000000e+00 0.000000e+00 0.000000e+00 9.752417e-01 2.475832e-02
 0.000000e+00 0.000000e+00 0.000000e+00 0.000000e+00 0.000000e+00
<ENDHMM>
~h "txh"
<BEGINHMM>
<NUMSTATES> 5
<STATE> 2
<MEAN> 39
 8.214886e+00 -2.225282e+01 -5.515029e+00 -6.777485e+00 -1.301019e+00 2.238997e+00 -8.240489e-01 1.341316e+00 -2.172668e+00 -6.837482e+00 5.908510e-02 -1.085214e+01 7.490246e+01 9.793393e-02 2.219262e-01 4.248434e-03 8.334414e-01 -3.345532e-01 -1.213049e+00 -7.599974e-02 8.703077e-01 7.437404e-01 -5.872663e-01 -1.571234e-01 6.763486e-01 -1.882822e-01 -4.277089e-02 1.814900e-01 3.693565e-02 1.241764e-02 3.067593e-02 -1.233828e-01 -3.146170e-02 -2.784008e-03 1.081158e-01 2.876111e-03 -3.105145e-02 1.157255e-01 -1.209372e-01
<VARIANCE> 39
 7.958977e+00 4.001147e+01 1.137504e+01 2.263481e+01 1.614827e+01 7.023609e+01 1.589605e+01 3.933487e+01 3.942021e+01 1.685074e+01 1.209587e+01 2.261970e+01 2.198727e+01 3.277006e-01 1.545029e+00 7.160805e-01 9.989645e-01 1.107613e+00 3.135700e+00 1.287296e+00 2.300039e+00 1.963201e+00 1.298347e+00 9.553038e-01 1.615377e+00 6.462600e-01 4.907015e-02 1.861853e-01 1.286117e-01 1.422725e-01 1.996715e-01 3.979276e-01 2.238900e-01 4.011005e-01 2.798415e-01 2.135064e-01 1.805137e-01 2.529234e-01 5.496084e-02
<GCONST> 9.146757e+01
<STATE> 3
<MEAN> 39
 7.539236e+00 -1.893697e+01 -5.129744e+00 -3.090825e+00 -2.268029e+00 -3.962708e+00 -1.215962e+00 4.301531e+00 2.122512e+00 -8.432618e+00 -7.813330e-01 -6.834413e+00 7.214483e+01 -2.601056e-01 7.869212e-01 1.205715e-01 5.923647e-01 -9.457792e-02 -1.034449e+00 -6.591868e-02 3.565858e-01 7.534443e-01 -2.521220e-01 -7.339626e-02 8.098463e-01 -6.817119e-01 -6.734486e-02 6.113478e-02 8.833736e-03 -9.340826e-02 4.358670e-02 1.018988e-01 2.667644e-02 -1.467071e-01 -5.358124e-02 1.062182e-01 5.123769e-02 -3.081008e-02 -6.640273e-02
<VARIANCE> 39
 1.556451e+01 5.435020e+01 1.361251e+01 2.535808e+01 1.709369e+01 7.630533e+01 2.107782e+01 3.734574e+01 4.430381e+01 2.015920e+01 1.519216e+01 2.882859e+01 3.587753e+01 5.835471e-01 1.887782e+00 9.830418e-01 1.440171e+00 1.737446e+00 4.411506e+00 1.777422e+00 3.198560e+00 2.141182e+00 1.814312e+00 1.358313e+00 2.053018e+00 7.615452e-01 6.730585e-02 2.682379e-01 2.029507e-01 1.853247e-01 3.346475e-01 6.158242e-01 3.595176e-01 5.283116e-01 3.697680e-01 2.803546e-01 2.670874e-01 4.086652e-01 8.702410e-02
<GCONST> 1.034312e+02
<STATE> 4
<MEAN> 39
 2.155961e+00 -1.370762e+01 -3.091864e+00 -2.002269e+00 -2.130847e+00 -6.692649e+00 8.777680e-01 3.471318e+00 4.699669e+00 -6.522942e+00 -4.535298e-01 -2.740414e+00 6.591021e+01 -5.557754e-01 5.266291e-01 2.431964e-01 2.241657e-02 9.509206e-02 1.476551e-02 2.233809e-01 -2.110418e-01 1.011226e-01 2.425834e-01 1.010347e-01 2.872148e-01 -6.090631e-01 -1.912049e-03 -4.026170e-02 1.792741e-02 -5.014046e-02 1.118741e-02 8.914909e-02 1.592897e-02 -4.697802e-02 -6.756515e-02 2.715124e-02 -6.902213e-03 -5.893587e-02 4.673302e-02
<VARIANCE> 39
 3.368116e+01 4.040053e+01 2.121385e+01 2.286352e+01 1.606686e+01 4.874375e+01 2.728695e+01 2.922040e+01 3.126173e+01 2.805287e+01 2.036042e+01 2.326155e+01 4.013074e+01 6.913649e-01 2.165170e+00 1.771619e+00 1.983966e+00 1.622553e+00 3.436802e+00 1.976910e+00 2.456926e+00 2.243648e+00 1.861186e+00 2.123194e+00 2.278856e+00 1.173859e+00 1.019775e-01 3.221658e-01 3.686615e-01 3.210920e-01 3.266199e-01 5.428307e-01 3.998997e-01 4.944070e-01 4.158034e-01 3.691552e-01 4.346593e-01 4.947549e-01 1.925339e-01
<GCONST> 1.092175e+02
<TRANSP> 5
 0.000000e+00 1.000000e+00 0.000000e+00 0.000000e+00 0.000000e+00
 0.000000e+00 8.040481e-01 1.959519e-01 0.000000e+00 0.000000e+00
 0.000000e+00 0.000000e+00 7.560618e-01 2.439382e-01 0.000000e+00
 0.000000e+00 0.000000e+00 0.000000e+00 9.353331e-01 6.466700e-02
 0.000000e+00 0.000000e+00 0.000000e+00 0.000000e+00 0.000000e+00
<ENDHMM>
