~o
<STREAMINFO> 1 39
<VECSIZE> 39<NULLD><MFCC_D_A_0><DIAGC>
~h "a"
<BEGINHMM>
<NUMSTATES> 5
<STATE> 2
<MEAN> 39
 9.899112e-01 -8.321927e+00 1.822193e+00 -5.977743e+00 -3.744097e+00 -3.139478e+00 1.230558e+00 -2.414232e+00 6.566381e-01 -2.486819e+00 -3.813496e-01 -5.106612e+00 6.537096e+01 1.147728e-02 -1.145641e-03 -3.831095e-03 -1.504698e-02 -1.863803e-03 4.819532e-03 -1.929180e-03 -1.463859e-03 -3.929433e-03 4.045160e-03 -2.203524e-03 -6.417901e-03 8.674487e-03 6.622743e-04 -8.048931e-04 4.942738e-05 -1.061284e-03 -4.997691e-04 8.297687e-04 -8.352895e-04 -4.071103e-04 -5.678578e-04 5.356289e-04 2.115623e-04 -7.959332e-04 1.200861e-03
<VARIANCE> 39
 5.237554e+01 6.200020e+01 5.841479e+01 4.076828e+01 5.361581e+01 3.970486e+01 3.032681e+01 2.762433e+01 3.325208e+01 2.092794e+01 2.543427e+01 3.807981e+01 5.952887e+01 1.588183e+00 2.112477e+00 1.561416e+00 1.713271e+00 1.780142e+00 2.001177e+00 1.877032e+00 1.648053e+00 1.835981e+00 1.554671e+00 1.479035e+00 1.838166e+00 1.476565e+00 2.009681e-01 2.932358e-01 2.441348e-01 2.630158e-01 2.923830e-01 3.277297e-01 3.370617e-01 3.109632e-01 3.199963e-01 3.001686e-01 2.729002e-01 3.114224e-01 1.791662e-01
<GCONST> 1.097673e+02
<STATE> 3
<MEAN> 39
 1.037198e+00 -8.331625e+00 1.806959e+00 -6.038885e+00 -3.751670e+00 -3.117307e+00 1.217483e+00 -2.420375e+00 6.401443e-01 -2.467762e+00 -3.917519e-01 -5.137131e+00 6.541110e+01 1.342138e-02 -3.958230e-03 -3.276848e-03 -1.845879e-02 -3.385016e-03 7.957452e-03 -5.320918e-03 -2.987016e-03 -5.625008e-03 5.777888e-03 -1.370086e-03 -9.160429e-03 1.279480e-02 4.609821e-04 -6.654832e-04 1.898099e-04 -4.383189e-04 -1.756862e-04 1.008537e-03 -6.207502e-04 -5.130138e-04 -3.697714e-04 4.529808e-04 1.787915e-04 -6.076600e-04 1.012585e-03
<VARIANCE> 39
 5.225528e+01 6.191924e+01 5.851622e+01 4.096761e+01 5.351180e+01 3.978983e+01 3.022002e+01 2.752384e+01 3.322969e+01 2.075902e+01 2.560687e+01 3.817733e+01 5.950861e+01 1.590239e+00 2.123881e+00 1.565528e+00 1.726207e+00 1.784547e+00 2.006321e+00 1.868607e+00 1.647766e+00 1.840073e+00 1.547701e+00 1.483716e+00 1.842487e+00 1.487495e+00 2.013893e-01 2.948009e-01 2.447045e-01 2.642091e-01 2.932683e-01 3.284178e-01 3.346880e-01 3.108813e-01 3.211440e-01 2.987115e-01 2.738560e-01 3.113169e-01 1.803852e-01
<GCONST> 1.098120e+02
<STATE> 4
<MEAN> 39
 1.176810e+00 -8.387878e+00 1.782719e+00 -6.175319e+00 -3.798973e+00 -3.080462e+00 1.147701e+00 -2.436611e+00 6.003163e-01 -2.434836e+00 -4.295977e-01 -5.231956e+00 6.555067e+01 1.339556e-02 -4.321144e-03 -1.882887e-03 -1.916384e-02 -3.497012e-03 1.155744e-02 -7.790348e-03 -4.400500e-03 -5.181928e-03 7.142034e-03 -3.548848e-04 -1.034552e-02 1.436828e-02 -8.643823e-05 1.541778e-04 3.228948e-04 2.932216e-04 7.914683e-06 9.364419e-04 1.204379e-04 -4.006330e-04 2.522543e-04 3.250692e-04 1.093332e-05 -1.221465e-04 1.212933e-04
<VARIANCE> 39
 5.195815e+01 6.225979e+01 5.888289e+01 4.157287e+01 5.337846e+01 4.041625e+01 3.031412e+01 2.762855e+01 3.344318e+01 2.067163e+01 2.593239e+01 3.824723e+01 5.908855e+01 1.591735e+00 2.144178e+00 1.573108e+00 1.751788e+00 1.790914e+00 2.030489e+00 1.864270e+00 1.656523e+00 1.842443e+00 1.543501e+00 1.490562e+00 1.861699e+00 1.504557e+00 2.014242e-01 2.976520e-01 2.453388e-01 2.661231e-01 2.945011e-01 3.308639e-01 3.323894e-01 3.119244e-01 3.211364e-01 2.971530e-01 2.751085e-01 3.133140e-01 1.818825e-01
<GCONST> 1.099775e+02
<TRANSP> 5
 0.000000e+00 1.000000e+00 0.000000e+00 0.000000e+00 0.000000e+00
 0.000000e+00 7.284386e-01 2.715614e-01 0.000000e+00 0.000000e+00
 0.000000e+00 0.000000e+00 7.284383e-01 2.715617e-01 0.000000e+00
 0.000000e+00 0.000000e+00 0.000000e+00 8.486708e-01 1.513292e-01
 0.000000e+00 0.000000e+00 0.000000e+00 0.000000e+00 0.000000e+00
<ENDHMM>
~h "c"
<BEGINHMM>
<NUMSTATES> 5
<STATE> 2
<MEAN> 39
 -4.427379e-02 -9.112948e+00 -1.710872e+00 -7.046103e+00 -1.142344e+00 -2.558259e+00 2.285215e+00 -1.343475e+00 9.487587e-01 -2.165698e+00 -2.943094e-01 -4.844345e+00 6.479201e+01 -3.991650e-02 -2.695761e-02 -1.308095e-02 9.098832e-03 1.241575e-02 -2.169200e-02 3.073228e-02 -5.627035e-03 -1.383098e-02 1.552024e-02 7.144608e-03 6.039823e-03 -1.329344e-03 3.104078e-03 -5.779357e-04 -7.730739e-04 -6.660568e-04 -2.544413e-03 8.072939e-04 3.559520e-04 -1.743159e-03 -2.701847e-04 1.126352e-03 -8.867859e-04 -1.811495e-03 1.011416e-03
<VARIANCE> 39
 5.863426e+01 6.031964e+01 4.778149e+01 4.147018e+01 3.037189e+01 3.441542e+01 2.735045e+01 2.743648e+01 3.149022e+01 1.843093e+01 2.056987e+01 3.928074e+01 6.773141e+01 1.592765e+00 2.009841e+00 1.408419e+00 2.239799e+00 1.415033e+00 2.090838e+00 1.773916e+00 1.738857e+00 1.917718e+00 1.592727e+00 1.375759e+00 1.913720e+00 1.801080e+00 1.925281e-01 2.638800e-01 2.284979e-01 3.712814e-01 2.581574e-01 3.609802e-01 3.241270e-01 3.184951e-01 3.324274e-01 3.296779e-01 2.652195e-01 3.297131e-01 1.921127e-01
<GCONST> 1.090947e+02
<STATE> 3
<MEAN> 39
 -1.753202e-01 -9.224264e+00 -1.771628e+00 -7.022886e+00 -1.109151e+00 -2.635286e+00 2.401656e+00 -1.369737e+00 8.994486e-01 -2.100108e+00 -2.769462e-01 -4.834384e+00 6.480458e+01 -2.782062e-02 -2.927117e-02 -1.627403e-02 5.488543e-03 3.150935e-03 -1.836359e-02 3.101931e-02 -1.115629e-02 -1.402143e-02 1.995505e-02 3.765903e-03 -1.433359e-03 3.777219e-03 2.804433e-03 -6.498182e-04 -9.843976e-04 -1.446753e-03 -2.493103e-03 6.928161e-04 -1.080830e-04 -9.861758e-04 -1.676753e-05 1.165477e-03 -7.490090e-04 -2.090107e-03 1.943380e-03
<VARIANCE> 39
 5.862939e+01 5.984068e+01 4.565882e+01 4.241529e+01 3.079367e+01 3.509589e+01 2.712751e+01 2.713064e+01 3.115743e+01 1.857892e+01 2.073632e+01 3.974899e+01 6.859970e+01 1.622583e+00 2.032405e+00 1.395048e+00 2.277366e+00 1.433095e+00 2.101802e+00 1.791423e+00 1.735311e+00 1.926460e+00 1.606984e+00 1.410250e+00 1.929770e+00 1.828964e+00 1.956713e-01 2.692136e-01 2.280180e-01 3.756100e-01 2.592685e-01 3.623610e-01 3.289633e-01 3.181444e-01 3.354248e-01 3.341805e-01 2.729549e-01 3.321119e-01 1.955794e-01
<GCONST> 1.093761e+02
<STATE> 4
<MEAN> 39
 -2.077664e-01 -9.487249e+00 -1.932455e+00 -7.093546e+00 -1.149651e+00 -2.712761e+00 2.575566e+00 -1.391182e+00 8.341492e-01 -2.002463e+00 -3.333909e-01 -4.950786e+00 6.499892e+01 -1.452333e-02 -3.198139e-02 -2.062236e-02 -1.697837e-03 -6.322518e-03 -1.489206e-02 2.917952e-02 -1.252146e-02 -1.145136e-02 2.597485e-02 -1.121319e-03 -1.242858e-02 1.496896e-02 2.136611e-03 -1.462300e-04 -4.451250e-04 -1.481090e-03 -1.814177e-03 4.800423e-04 -6.555261e-04 4.694081e-05 3.954406e-04 1.016302e-03 -4.404683e-04 -1.974388e-03 2.274752e-03
<VARIANCE> 39
 5.883176e+01 5.962559e+01 4.211540e+01 4.369409e+01 3.073237e+01 3.654770e+01 2.673371e+01 2.677707e+01 3.103587e+01 1.888885e+01 2.135195e+01 4.071711e+01 6.948227e+01 1.711316e+00 2.090339e+00 1.390704e+00 2.352629e+00 1.472073e+00 2.151870e+00 1.825025e+00 1.743969e+00 1.951294e+00 1.640457e+00 1.473132e+00 1.983478e+00 1.891490e+00 2.059630e-01 2.814635e-01 2.296043e-01 3.843704e-01 2.635201e-01 3.707124e-01 3.365371e-01 3.223444e-01 3.405057e-01 3.424942e-01 2.845338e-01 3.397764e-01 2.040130e-01
<GCONST> 1.100841e+02
<TRANSP> 5
 0.000000e+00 1.000000e+00 0.000000e+00 0.000000e+00 0.000000e+00
 0.000000e+00 7.286447e-01 2.713552e-01 0.000000e+00 0.000000e+00
 0.000000e+00 0.000000e+00 7.286445e-01 2.713555e-01 0.000000e+00
 0.000000e+00 0.000000e+00 0.000000e+00 8.489078e-01 1.510923e-01
 0.000000e+00 0.000000e+00 0.000000e+00 0.000000e+00 0.000000e+00
<ENDHMM>
~h "d"
<BEGINHMM>
<NUMSTATES> 5
<STATE> 2
<MEAN> 39
 2.247596e+00 -6.559076e+00 1.837273e+00 -7.241557e+00 -4.223242e+00 -2.787437e+00 6.243753e-01 -3.989083e+00 -6.842571e-02 -1.410725e+00 4.291949e-01 -5.081581e+00 6.514528e+01 5.525569e-02 5.823674e-02 4.497184e-04 -2.734551e-02 2.148822e-02 2.693372e-02 -3.784451e-02 -3.359055e-02 -2.893760e-02 3.428342e-03 4.503150e-02 1.387781e-02 3.934990e-03 -9.326584e-04 8.062124e-04 1.986954e-03 2.133122e-03 -7.568877e-04 -1.295603e-03 -1.951911e-04 -3.424572e-05 -4.114081e-04 -2.039643e-03 -1.732898e-03 1.085931e-03 -6.294794e-04
<VARIANCE> 39
 4.914488e+01 5.041733e+01 5.188706e+01 5.117717e+01 4.793321e+01 3.672109e+01 3.392717e+01 2.508416e+01 3.339446e+01 2.179317e+01 3.033338e+01 3.132445e+01 5.404554e+01 1.253190e+00 2.179335e+00 1.490762e+00 2.022801e+00 1.753610e+00 1.734056e+00 2.158495e+00 1.605059e+00 1.835575e+00 1.827454e+00 1.653281e+00 1.729201e+00 1.564371e+00 1.612747e-01 3.237248e-01 2.269138e-01 2.701561e-01 2.790276e-01 2.779050e-01 3.814810e-01 2.965027e-01 3.164639e-01 3.596968e-01 3.109402e-01 3.027300e-01 2.023148e-01
<GCONST> 1.095893e+02
<STATE> 3
<MEAN> 39
 2.443308e+00 -6.338117e+00 1.857833e+00 -7.330531e+00 -4.155474e+00 -2.703523e+00 4.931021e-01 -4.109051e+00 -1.776393e-01 -1.401309e+00 5.693780e-01 -5.031273e+00 6.515646e+01 4.811541e-02 6.366065e-02 1.070959e-02 -1.647888e-02 1.783946e-02 2.036240e-02 -3.143323e-02 -2.980001e-02 -2.712047e-02 -1.281056e-03 3.365579e-02 1.541266e-02 -1.544962e-03 -2.592839e-03 1.436482e-03 2.878005e-03 3.591812e-03 -9.364822e-04 -1.951546e-03 2.407385e-03 1.367537e-03 6.375849e-04 -1.119282e-03 -3.347766e-03 1.075494e-04 -1.913557e-03
<VARIANCE> 39
 4.808680e+01 5.043514e+01 4.952128e+01 5.371117e+01 4.793004e+01 3.654819e+01 3.390614e+01 2.538045e+01 3.326707e+01 2.199379e+01 2.964900e+01 3.042225e+01 5.347665e+01 1.217179e+00 2.154380e+00 1.467290e+00 2.070356e+00 1.786529e+00 1.753567e+00 2.154346e+00 1.623445e+00 1.832277e+00 1.876926e+00 1.629281e+00 1.692247e+00 1.561740e+00 1.572407e-01 3.179888e-01 2.233580e-01 2.688911e-01 2.828000e-01 2.793676e-01 3.791333e-01 2.994455e-01 3.129297e-01 3.689753e-01 3.051050e-01 2.967490e-01 2.008271e-01
<GCONST> 1.094382e+02
<STATE> 4
<MEAN> 39
 2.704642e+00 -5.962595e+00 1.930195e+00 -7.413721e+00 -4.101383e+00 -2.648896e+00 3.416529e-01 -4.244323e+00 -3.314745e-01 -1.379277e+00 7.016036e-01 -4.981788e+00 6.514655e+01 3.042232e-02 7.387884e-02 2.326856e-02 8.194154e-04 1.472812e-02 1.136472e-02 -1.977980e-02 -1.966704e-02 -1.882525e-02 -2.679355e-03 1.888189e-02 1.510042e-02 -1.544348e-02 -4.028662e-03 1.381925e-03 2.293656e-03 4.023980e-03 -5.400387e-04 -1.751759e-03 2.648110e-03 1.876242e-03 1.450885e-03 -5.493247e-04 -2.476364e-03 4.487834e-05 -2.935053e-03
<VARIANCE> 39
 4.675746e+01 5.030587e+01 4.666384e+01 5.711695e+01 4.791859e+01 3.597604e+01 3.399875e+01 2.586810e+01 3.338549e+01 2.220018e+01 2.820368e+01 2.879226e+01 5.244033e+01 1.172050e+00 2.104613e+00 1.421781e+00 2.131751e+00 1.816765e+00 1.758353e+00 2.171466e+00 1.661074e+00 1.813522e+00 1.908424e+00 1.596323e+00 1.640550e+00 1.544692e+00 1.507716e-01 3.086697e-01 2.161036e-01 2.679159e-01 2.848382e-01 2.777947e-01 3.833964e-01 3.072670e-01 3.047583e-01 3.731441e-01 2.955140e-01 2.889890e-01 1.971055e-01
<GCONST> 1.090722e+02
<TRANSP> 5
 0.000000e+00 1.000000e+00 0.000000e+00 0.000000e+00 0.000000e+00
 0.000000e+00 7.289284e-01 2.710716e-01 0.000000e+00 0.000000e+00
 0.000000e+00 0.000000e+00 7.289288e-01 2.710712e-01 0.000000e+00
 0.000000e+00 0.000000e+00 0.000000e+00 8.491625e-01 1.508376e-01
 0.000000e+00 0.000000e+00 0.000000e+00 0.000000e+00 0.000000e+00
<ENDHMM>
~h "h"
<BEGINHMM>
<NUMSTATES> 5
<STATE> 2
<MEAN> 39
 2.123992e+00 -9.955040e+00 -6.565580e-01 -8.816584e+00 -1.465074e+00 -2.103275e+00 2.017208e+00 -1.480536e+00 3.845868e-01 -1.666880e+00 -2.914032e+00 -8.221178e+00 6.827632e+01 3.416377e-02 -3.384425e-02 -3.424502e-02 -2.964534e-02 2.337820e-03 4.827331e-02 2.595672e-02 -2.297165e-02 9.827551e-03 2.416680e-02 -4.274916e-02 -5.587843e-02 1.865162e-02 -1.469631e-03 3.378950e-04 -1.753461e-04 1.275696e-03 2.262394e-06 -1.156482e-03 -7.274036e-04 -1.127731e-03 6.237488e-04 -1.051871e-03 1.095137e-03 1.711104e-03 -1.065144e-03
<VARIANCE> 39
 6.076966e+01 5.264624e+01 4.166595e+01 3.604874e+01 3.765179e+01 4.623049e+01 3.138173e+01 2.328016e+01 2.690742e+01 1.897694e+01 2.743409e+01 3.882273e+01 4.040638e+01 2.452000e+00 2.367741e+00 1.246497e+00 2.105184e+00 1.723993e+00 2.090883e+00 2.059544e+00 1.610619e+00 1.778372e+00 1.481531e+00 1.595123e+00 2.105134e+00 1.430564e+00 2.899152e-01 3.374465e-01 2.204245e-01 3.365098e-01 3.030789e-01 3.426258e-01 3.539754e-01 3.007389e-01 3.319032e-01 2.821614e-01 2.849785e-01 3.404832e-01 1.968260e-01
<GCONST> 1.100097e+02
<STATE> 3
<MEAN> 39
 2.253419e+00 -1.009140e+01 -7.868657e-01 -8.928395e+00 -1.455651e+00 -1.919637e+00 2.108645e+00 -1.571248e+00 4.223968e-01 -1.580773e+00 -3.066600e+00 -8.425509e+00 6.835176e+01 2.993877e-02 -3.276318e-02 -3.440706e-02 -2.480861e-02 1.456794e-03 4.435736e-02 2.232204e-02 -2.722627e-02 1.198553e-02 1.953515e-02 -3.726247e-02 -4.844661e-02 1.512629e-02 -1.789230e-03 1.629496e-04 2.638708e-04 1.715402e-03 -4.476199e-04 -1.402336e-03 -1.134413e-03 -5.730200e-04 1.103420e-03 -1.286828e-03 2.110373e-03 2.398846e-03 -1.035123e-03
<VARIANCE> 39
 5.974963e+01 5.183724e+01 4.175675e+01 3.497012e+01 3.812083e+01 4.587673e+01 3.117177e+01 2.331710e+01 2.690173e+01 1.853470e+01 2.746606e+01 3.807427e+01 3.943298e+01 2.421519e+00 2.367695e+00 1.242475e+00 2.110223e+00 1.701653e+00 2.086632e+00 2.037090e+00 1.624171e+00 1.794108e+00 1.481182e+00 1.587287e+00 2.113453e+00 1.438995e+00 2.875059e-01 3.352086e-01 2.205899e-01 3.375701e-01 2.998450e-01 3.422201e-01 3.511699e-01 3.023484e-01 3.351885e-01 2.828386e-01 2.847782e-01 3.426330e-01 1.960388e-01
<GCONST> 1.098528e+02
<STATE> 4
<MEAN> 39
 2.459238e+00 -1.033323e+01 -9.526403e-01 -9.097275e+00 -1.476703e+00 -1.682074e+00 2.179259e+00 -1.708125e+00 4.811140e-01 -1.482092e+00 -3.256959e+00 -8.693966e+00 6.851810e+01 2.936538e-02 -3.334717e-02 -3.341935e-02 -1.708871e-02 -1.837017e-03 4.369435e-02 1.470369e-02 -3.300658e-02 1.417300e-02 1.254505e-02 -2.662924e-02 -3.696172e-02 1.095159e-02 -1.467078e-03 3.972250e-04 8.198282e-04 2.767645e-03 -8.726952e-04 -1.205274e-03 -1.484745e-03 -2.942384e-04 1.333868e-03 -1.473793e-03 2.764866e-03 3.137624e-03 -1.549112e-03
<VARIANCE> 39
 5.835368e+01 5.108499e+01 4.246050e+01 3.326075e+01 3.915328e+01 4.525910e+01 3.074205e+01 2.371480e+01 2.742228e+01 1.804282e+01 2.747928e+01 3.685151e+01 3.771735e+01 2.403973e+00 2.375137e+00 1.260101e+00 2.116635e+00 1.688151e+00 2.094868e+00 2.001406e+00 1.645915e+00 1.817635e+00 1.483786e+00 1.575939e+00 2.130009e+00 1.463594e+00 2.866581e-01 3.337077e-01 2.246231e-01 3.394048e-01 2.973213e-01 3.443070e-01 3.453820e-01 3.053415e-01 3.376708e-01 2.837625e-01 2.838798e-01 3.454562e-01 1.968949e-01
<GCONST> 1.097769e+02
<TRANSP> 5
 0.000000e+00 1.000000e+00 0.000000e+00 0.000000e+00 0.000000e+00
 0.000000e+00 7.273945e-01 2.726055e-01 0.000000e+00 0.000000e+00
 0.000000e+00 0.000000e+00 7.273949e-01 2.726051e-01 0.000000e+00
 0.000000e+00 0.000000e+00 0.000000e+00 8.473848e-01 1.526152e-01
 0.000000e+00 0.000000e+00 0.000000e+00 0.000000e+00 0.000000e+00
<ENDHMM>
~h "k"
<BEGINHMM>
<NUMSTATES> 5
<STATE> 2
<MEAN> 39
 6.779186e-01 -9.005257e+00 5.187114e+00 -5.293764e+00 -7.771845e+00 -6.194347e+00 8.818958e-01 -3.551330e+00 -1.911438e+00 -1.511808e+00 1.284353e+00 -4.612256e+00 6.518138e+01 -3.497009e-02 8.980458e-03 -3.193056e-02 3.150899e-02 3.645782e-02 -1.107111e-02 -5.585125e-03 -2.917668e-02 9.155663e-03 2.691968e-02 2.252899e-02 2.308807e-02 -5.397870e-02 -8.146332e-04 2.998968e-03 2.866253e-03 -9.508038e-04 -2.574261e-04 1.471408e-03 1.121104e-03 1.828932e-03 8.210874e-04 -7.634469e-04 1.189926e-03 -2.157438e-04 -5.866244e-04
<VARIANCE> 39
 3.874615e+01 5.244341e+01 8.147785e+01 3.322949e+01 8.188571e+01 3.858125e+01 2.588240e+01 2.714007e+01 3.757799e+01 2.107097e+01 3.266029e+01 3.551318e+01 6.048470e+01 1.121204e+00 2.239152e+00 2.213919e+00 1.326649e+00 2.039259e+00 1.684200e+00 1.752764e+00 1.548715e+00 1.865650e+00 1.651733e+00 1.482218e+00 1.980128e+00 1.659060e+00 1.476492e-01 3.389238e-01 3.201562e-01 2.083893e-01 3.021563e-01 2.830322e-01 3.400078e-01 2.933199e-01 3.122328e-01 3.289716e-01 2.733897e-01 3.356833e-01 2.112369e-01
<GCONST> 1.098965e+02
<STATE> 3
<MEAN> 39
 5.311731e-01 -8.950768e+00 5.095282e+00 -5.170641e+00 -7.645982e+00 -6.233754e+00 8.725139e-01 -3.651411e+00 -1.876385e+00 -1.412600e+00 1.386116e+00 -4.517217e+00 6.497124e+01 -3.633988e-02 1.877304e-02 -1.946405e-02 2.646388e-02 3.358802e-02 -5.279785e-03 -1.381524e-03 -2.062630e-02 8.684848e-03 2.259784e-02 2.518068e-02 2.112932e-02 -5.314497e-02 1.984404e-05 2.639048e-03 4.320791e-03 -1.777950e-03 -1.755237e-03 1.337220e-03 7.769116e-04 2.437428e-03 -5.627765e-04 -1.305340e-03 1.004383e-03 -7.083429e-04 8.024584e-04
<VARIANCE> 39
 3.825710e+01 5.082253e+01 8.273782e+01 3.288552e+01 8.191616e+01 3.760625e+01 2.537450e+01 2.680057e+01 3.817160e+01 2.073017e+01 3.186078e+01 3.565741e+01 6.094041e+01 1.112733e+00 2.248924e+00 2.279952e+00 1.320846e+00 2.083007e+00 1.679648e+00 1.781296e+00 1.552173e+00 1.910582e+00 1.642456e+00 1.502911e+00 1.980825e+00 1.697411e+00 1.471994e-01 3.433223e-01 3.297927e-01 2.084938e-01 3.094486e-01 2.853732e-01 3.485899e-01 2.939119e-01 3.207567e-01 3.256808e-01 2.794268e-01 3.361490e-01 2.183464e-01
<GCONST> 1.100720e+02
<STATE> 4
<MEAN> 39
 3.648852e-01 -8.832468e+00 5.198047e+00 -5.061811e+00 -7.676219e+00 -6.350675e+00 8.247611e-01 -3.764962e+00 -1.922162e+00 -1.283254e+00 1.577532e+00 -4.416906e+00 6.476151e+01 -3.497908e-02 2.768247e-02 3.431613e-03 1.827266e-02 2.415556e-02 1.569292e-03 1.185567e-03 -1.038261e-02 2.048361e-03 1.614445e-02 2.715531e-02 1.742188e-02 -4.471644e-02 1.007314e-03 1.807640e-03 4.804411e-03 -2.435480e-03 -2.309108e-03 1.545728e-03 -2.054427e-04 2.193542e-03 -1.135412e-03 -1.621661e-03 3.530737e-04 -1.112172e-03 2.231223e-03
<VARIANCE> 39
 3.730867e+01 4.824644e+01 8.532607e+01 3.201790e+01 8.268942e+01 3.609795e+01 2.504024e+01 2.609576e+01 3.950234e+01 2.029516e+01 3.001425e+01 3.552525e+01 6.084662e+01 1.114358e+00 2.279058e+00 2.412283e+00 1.329670e+00 2.211387e+00 1.670135e+00 1.812736e+00 1.543066e+00 1.980488e+00 1.611637e+00 1.530731e+00 1.999024e+00 1.793442e+00 1.483376e-01 3.517142e-01 3.469863e-01 2.107165e-01 3.292981e-01 2.893943e-01 3.561275e-01 2.915449e-01 3.334278e-01 3.167602e-01 2.877217e-01 3.394367e-01 2.328265e-01
<GCONST> 1.104156e+02
<TRANSP> 5
 0.000000e+00 1.000000e+00 0.000000e+00 0.000000e+00 0.000000e+00
 0.000000e+00 7.313972e-01 2.686028e-01 0.000000e+00 0.000000e+00
 0.000000e+00 0.000000e+00 7.313970e-01 2.686029e-01 0.000000e+00
 0.000000e+00 0.000000e+00 0.000000e+00 8.519874e-01 1.480127e-01
 0.000000e+00 0.000000e+00 0.000000e+00 0.000000e+00 0.000000e+00
<ENDHMM>
~h "n"
<BEGINHMM>
<NUMSTATES> 5
<STATE> 2
<MEAN> 39
 1.547364e+00 -6.412232e+00 3.887985e+00 -5.394226e+00 -5.060813e+00 -3.125481e+00 9.314696e-01 -3.492647e+00 1.488373e-01 -2.529416e+00 -5.143850e-02 -4.715271e+00 6.509847e+01 6.184891e-03 1.808892e-02 1.568377e-02 4.461254e-03 -1.194296e-02 -7.649262e-03 -8.727897e-03 -5.816856e-03 6.928014e-03 -1.453657e-02 -9.705666e-03 -4.510344e-03 5.460988e-03 -3.124907e-06 -2.349888e-04 -8.765018e-04 -9.588189e-04 6.273425e-05 -4.530274e-04 -7.417497e-04 6.393122e-05 1.039079e-03 3.101326e-04 9.154391e-04 1.095950e-03 -9.093562e-05
<VARIANCE> 39
 4.982882e+01 5.281155e+01 5.681947e+01 4.545221e+01 6.012474e+01 3.618576e+01 3.265786e+01 2.579331e+01 3.395448e+01 2.164880e+01 2.296635e+01 3.033815e+01 5.380810e+01 1.394827e+00 1.968100e+00 1.628596e+00 1.674474e+00 1.868387e+00 1.887259e+00 1.963555e+00 1.610812e+00 1.822384e+00 1.605712e+00 1.465264e+00 1.633297e+00 1.329988e+00 1.701153e-01 2.724997e-01 2.449196e-01 2.381539e-01 2.903945e-01 3.083051e-01 3.517389e-01 2.995159e-01 3.116445e-01 3.029328e-01 2.678333e-01 2.836180e-01 1.609427e-01
<GCONST> 1.082774e+02
<STATE> 3
<MEAN> 39
 1.576211e+00 -6.338233e+00 3.940878e+00 -5.382398e+00 -5.102261e+00 -3.155723e+00 8.971963e-01 -3.515743e+00 1.803250e-01 -2.581552e+00 -8.233275e-02 -4.722164e+00 6.511539e+01 7.629610e-03 1.737496e-02 1.211354e-02 3.060412e-04 -1.160026e-02 -9.283152e-03 -1.082764e-02 -5.062252e-03 9.395581e-03 -1.306877e-02 -6.345577e-03 -4.094135e-04 5.426248e-03 7.151997e-04 -3.525641e-04 -9.695695e-04 -1.395283e-03 -1.082854e-04 -4.642080e-04 -7.448252e-04 3.103489e-04 5.426350e-04 4.517021e-04 7.574941e-04 8.797055e-04 2.633939e-04
<VARIANCE> 39
 5.009045e+01 5.300877e+01 5.589117e+01 4.571743e+01 5.995721e+01 3.639056e+01 3.301627e+01 2.562221e+01 3.372924e+01 2.162414e+01 2.292240e+01 2.995681e+01 5.321402e+01 1.415845e+00 1.984709e+00 1.613372e+00 1.687078e+00 1.851634e+00 1.892992e+00 1.967822e+00 1.613603e+00 1.816489e+00 1.600580e+00 1.453278e+00 1.625406e+00 1.318638e+00 1.727083e-01 2.752750e-01 2.437687e-01 2.410021e-01 2.873690e-01 3.090779e-01 3.514468e-01 3.009894e-01 3.113675e-01 3.014036e-01 2.652781e-01 2.832904e-01 1.603746e-01
<GCONST> 1.082490e+02
<STATE> 4
<MEAN> 39
 1.720791e+00 -6.209674e+00 3.995228e+00 -5.456340e+00 -5.180410e+00 -3.187253e+00 8.027896e-01 -3.564944e+00 2.099989e-01 -2.637163e+00 -1.392680e-01 -4.751553e+00 6.518674e+01 1.369449e-02 1.637443e-02 7.737145e-03 -8.190066e-03 -1.188319e-02 -9.437135e-03 -1.345524e-02 -2.344557e-03 8.962370e-03 -1.032799e-02 -4.638840e-03 1.212159e-03 7.044158e-03 1.164572e-03 -8.702829e-04 -8.912701e-04 -1.911680e-03 -3.790914e-04 -1.135622e-04 -8.397433e-04 6.259826e-04 -1.819256e-04 6.295863e-04 2.254304e-04 -5.184661e-05 7.209841e-04
<VARIANCE> 39
 4.988815e+01 5.343210e+01 5.477588e+01 4.665599e+01 5.943764e+01 3.658134e+01 3.353406e+01 2.557186e+01 3.306171e+01 2.165609e+01 2.305507e+01 2.963256e+01 5.204980e+01 1.434634e+00 2.027703e+00 1.606203e+00 1.721141e+00 1.840463e+00 1.904442e+00 1.973360e+00 1.614524e+00 1.806316e+00 1.597098e+00 1.441700e+00 1.627074e+00 1.319800e+00 1.757146e-01 2.822848e-01 2.437200e-01 2.460260e-01 2.854066e-01 3.106821e-01 3.495581e-01 3.017894e-01 3.106356e-01 2.995030e-01 2.623997e-01 2.839309e-01 1.615693e-01
<GCONST> 1.083056e+02
<TRANSP> 5
 0.000000e+00 1.000000e+00 0.000000e+00 0.000000e+00 0.000000e+00
 0.000000e+00 7.279035e-01 2.720965e-01 0.000000e+00 0.000000e+00
 0.000000e+00 0.000000e+00 7.279036e-01 2.720964e-01 0.000000e+00
 0.000000e+00 0.000000e+00 0.000000e+00 8.481053e-01 1.518947e-01
 0.000000e+00 0.000000e+00 0.000000e+00 0.000000e+00 0.000000e+00
<ENDHMM>
~h "o"
<BEGINHMM>
<NUMSTATES> 5
<STATE> 2
<MEAN> 39
 2.755900e+00 -5.576535e+00 2.091985e+00 -7.336190e+00 -4.005788e+00 -2.586971e+00 2.817601e-01 -4.314272e+00 -3.679950e-01 -1.416506e+00 7.649677e-01 -4.878376e+00 6.499829e+01 7.443661e-03 7.869786e-02 3.383392e-02 2.374002e-02 1.266073e-02 3.162014e-03 -5.730152e-03 -1.221040e-02 -1.173040e-02 -7.914688e-03 9.566246e-03 1.740276e-02 -3.175219e-02 -4.442488e-03 3.710635e-05 1.483182e-03 3.394427e-03 -6.420725e-04 -1.500730e-03 2.303377e-03 1.134891e-03 1.213112e-03 -1.957051e-04 -1.304911e-03 1.832318e-04 -2.627827e-03
<VARIANCE> 39
 4.574614e+01 4.954691e+01 4.433831e+01 5.988288e+01 4.813209e+01 3.527005e+01 3.437490e+01 2.599645e+01 3.348475e+01 2.227165e+01 2.666279e+01 2.759980e+01 5.202736e+01 1.142500e+00 2.027057e+00 1.376193e+00 2.160005e+00 1.837209e+00 1.777663e+00 2.194956e+00 1.677206e+00 1.804603e+00 1.925705e+00 1.562089e+00 1.604757e+00 1.498897e+00 1.467370e-01 2.940176e-01 2.100736e-01 2.653780e-01 2.866797e-01 2.821731e-01 3.917442e-01 3.107471e-01 3.013372e-01 3.757039e-01 2.864034e-01 2.842965e-01 1.896089e-01
<GCONST> 1.086724e+02
<STATE> 3
<MEAN> 39
 2.756490e+00 -5.278008e+00 2.224770e+00 -7.235347e+00 -3.962953e+00 -2.582927e+00 2.680955e-01 -4.360545e+00 -4.000178e-01 -1.447118e+00 7.922673e-01 -4.809237e+00 6.486227e+01 -8.176317e-03 7.750610e-02 3.826709e-02 3.438766e-02 1.009872e-02 -1.340939e-03 1.618637e-03 -1.100160e-02 -7.953394e-03 -9.619718e-03 5.996869e-03 1.882916e-02 -4.038338e-02 -3.807926e-03 -1.114325e-03 7.460468e-04 1.941596e-03 -8.590831e-04 -1.016281e-03 1.533347e-03 2.190092e-05 8.986535e-04 -1.989616e-04 -6.169212e-04 3.258079e-04 -1.618171e-03
<VARIANCE> 39
 4.535139e+01 4.867680e+01 4.297232e+01 6.144788e+01 4.837182e+01 3.459345e+01 3.459622e+01 2.617063e+01 3.360855e+01 2.235523e+01 2.553716e+01 2.672896e+01 5.161589e+01 1.136118e+00 1.984240e+00 1.341818e+00 2.171477e+00 1.838482e+00 1.785496e+00 2.209420e+00 1.690311e+00 1.789508e+00 1.926964e+00 1.540907e+00 1.592821e+00 1.467383e+00 1.454867e-01 2.863624e-01 2.051301e-01 2.643031e-01 2.859462e-01 2.853085e-01 3.974189e-01 3.135532e-01 2.972378e-01 3.747258e-01 2.798649e-01 2.841109e-01 1.845897e-01
<GCONST> 1.083880e+02
<STATE> 4
<MEAN> 39
 2.754253e+00 -4.846629e+00 2.402291e+00 -7.134569e+00 -3.948581e+00 -2.596187e+00 2.328777e-01 -4.491199e+00 -4.558437e-01 -1.474637e+00 8.137523e-01 -4.726820e+00 6.467714e+01 -2.115373e-02 6.964738e-02 4.014425e-02 3.638465e-02 5.315701e-03 -1.337088e-03 5.619812e-03 -1.737675e-02 -4.370166e-03 -1.138904e-02 1.111217e-03 1.847883e-02 -4.271741e-02 -1.910088e-03 -2.891447e-03 -2.584216e-04 -5.075886e-04 -1.155652e-03 6.384146e-05 3.323292e-04 -9.586009e-04 5.495485e-04 -1.686631e-05 -4.612008e-04 -3.173086e-04 6.643619e-04
<VARIANCE> 39
 4.497157e+01 4.687909e+01 4.113460e+01 6.354067e+01 4.824990e+01 3.357708e+01 3.470399e+01 2.648725e+01 3.360194e+01 2.258550e+01 2.425008e+01 2.576198e+01 5.061286e+01 1.158867e+00 1.968886e+00 1.299854e+00 2.200134e+00 1.835431e+00 1.802449e+00 2.235646e+00 1.702149e+00 1.751516e+00 1.931428e+00 1.528819e+00 1.606915e+00 1.443929e+00 1.478136e-01 2.845053e-01 1.988027e-01 2.653730e-01 2.844382e-01 2.927808e-01 4.057367e-01 3.154111e-01 2.878797e-01 3.733144e-01 2.741557e-01 2.897417e-01 1.807551e-01
<GCONST> 1.081736e+02
<TRANSP> 5
 0.000000e+00 1.000000e+00 0.000000e+00 0.000000e+00 0.000000e+00
 0.000000e+00 7.289224e-01 2.710777e-01 0.000000e+00 0.000000e+00
 0.000000e+00 0.000000e+00 7.289230e-01 2.710771e-01 0.000000e+00
 0.000000e+00 0.000000e+00 0.000000e+00 8.491509e-01 1.508491e-01
 0.000000e+00 0.000000e+00 0.000000e+00 0.000000e+00 0.000000e+00
<ENDHMM>
~h "p"
<BEGINHMM>
<NUMSTATES> 5
<STATE> 2
<MEAN> 39
 1.269713e+00 -8.345853e+00 -9.111526e-01 -6.918778e+00 -1.964420e+00 -1.999411e+00 1.767463e+00 -1.728638e+00 1.111484e+00 -2.289423e+00 -5.489260e-01 -5.187578e+00 6.460981e+01 -1.283767e-02 -2.727923e-02 -4.644303e-02 -2.455469e-02 2.297041e-02 4.430633e-03 1.432118e-02 2.234292e-02 -2.682773e-03 -4.825208e-03 4.440568e-04 1.570108e-02 1.718613e-02 -5.067757e-03 1.147918e-03 2.219181e-03 2.154498e-03 2.360057e-03 -3.344129e-03 -1.103951e-03 -2.021732e-03 -1.245441e-03 4.566743e-04 1.539137e-03 2.444996e-03 -1.467483e-03
<VARIANCE> 39
 5.379544e+01 6.579565e+01 5.363906e+01 4.137665e+01 3.015652e+01 3.256186e+01 2.780968e+01 2.771163e+01 3.159311e+01 1.690144e+01 2.232713e+01 3.910013e+01 6.735413e+01 1.540640e+00 1.849501e+00 1.388374e+00 2.064710e+00 1.378501e+00 1.974512e+00 1.782413e+00 1.826156e+00 1.923563e+00 1.465331e+00 1.457567e+00 1.863923e+00 1.621338e+00 2.062997e-01 2.242668e-01 2.185321e-01 3.356068e-01 2.511838e-01 3.403414e-01 3.287630e-01 3.569480e-01 3.372790e-01 2.887737e-01 2.809520e-01 3.252887e-01 1.716049e-01
<GCONST> 1.083816e+02
<STATE> 3
<MEAN> 39
 1.205393e+00 -8.450716e+00 -1.082270e+00 -6.997186e+00 -1.859315e+00 -2.006792e+00 1.797379e+00 -1.660219e+00 1.106160e+00 -2.296334e+00 -5.397171e-01 -5.138743e+00 6.467061e+01 -2.929474e-02 -2.448472e-02 -3.928033e-02 -1.737203e-02 3.032113e-02 -8.424463e-03 6.011554e-03 1.604292e-02 -1.850842e-03 -6.764043e-04 5.653394e-03 1.807296e-02 1.171380e-02 -4.044479e-03 4.959885e-04 1.994626e-03 1.923510e-03 1.718541e-03 -3.418658e-03 -2.295029e-03 -1.424384e-03 3.388907e-04 1.138706e-03 1.202145e-03 2.261457e-04 -1.377787e-03
<VARIANCE> 39
 5.428852e+01 6.554617e+01 5.386346e+01 4.104588e+01 2.935899e+01 3.246896e+01 2.767050e+01 2.746381e+01 3.197955e+01 1.691397e+01 2.198624e+01 3.921442e+01 6.708433e+01 1.538023e+00 1.870939e+00 1.403521e+00 2.091143e+00 1.375814e+00 2.000494e+00 1.737625e+00 1.780279e+00 1.934073e+00 1.467106e+00 1.449014e+00 1.868273e+00 1.648780e+00 2.027600e-01 2.279319e-01 2.211985e-01 3.428077e-01 2.522014e-01 3.441066e-01 3.175519e-01 3.441116e-01 3.368250e-01 2.906258e-01 2.781319e-01 3.246868e-01 1.743126e-01
<GCONST> 1.083341e+02
<STATE> 4
<MEAN> 39
 1.111170e+00 -8.624785e+00 -1.269527e+00 -7.100738e+00 -1.730949e+00 -2.060923e+00 1.816705e+00 -1.582582e+00 1.089169e+00 -2.308229e+00 -5.265005e-01 -5.132756e+00 6.478915e+01 -4.480422e-02 -2.604835e-02 -3.413015e-02 -9.950289e-03 3.434651e-02 -1.870876e-02 8.694096e-03 1.720619e-02 -1.051116e-03 2.106058e-03 9.694681e-03 1.329996e-02 8.163244e-03 -2.882179e-03 1.598331e-04 1.836687e-03 1.651340e-03 4.821282e-04 -1.695192e-03 6.742078e-04 -1.051894e-05 -1.297430e-04 5.054996e-04 7.931713e-04 -2.896673e-04 -1.084251e-03
<VARIANCE> 39
 5.482992e+01 6.525538e+01 5.370667e+01 4.098772e+01 2.883612e+01 3.274298e+01 2.745672e+01 2.746252e+01 3.256608e+01 1.716477e+01 2.128255e+01 3.899183e+01 6.689210e+01 1.539199e+00 1.918682e+00 1.425599e+00 2.147544e+00 1.375669e+00 2.040284e+00 1.711245e+00 1.746708e+00 1.941647e+00 1.495143e+00 1.397702e+00 1.871965e+00 1.698425e+00 1.977682e-01 2.359540e-01 2.252835e-01 3.545533e-01 2.531785e-01 3.502783e-01 3.104425e-01 3.314660e-01 3.346944e-01 2.990067e-01 2.660211e-01 3.223747e-01 1.795592e-01
<GCONST> 1.084048e+02
<TRANSP> 5
 0.000000e+00 1.000000e+00 0.000000e+00 0.000000e+00 0.000000e+00
 0.000000e+00 7.286585e-01 2.713415e-01 0.000000e+00 0.000000e+00
 0.000000e+00 0.000000e+00 7.286589e-01 2.713412e-01 0.000000e+00
 0.000000e+00 0.000000e+00 0.000000e+00 8.489361e-01 1.510639e-01
 0.000000e+00 0.000000e+00 0.000000e+00 0.000000e+00 0.000000e+00
<ENDHMM>
~h "r"
<BEGINHMM>
<NUMSTATES> 5
<STATE> 2
<MEAN> 39
 7.328216e-01 -1.137855e+01 1.217803e+00 -6.585739e+00 -3.997792e+00 -2.699458e+00 2.747352e-01 -6.967254e-01 2.812940e+00 -2.499491e+00 -1.743771e+00 -6.905994e+00 6.689139e+01 3.657068e-02 -3.947004e-02 -1.283889e-02 -1.975850e-02 1.266688e-03 1.309424e-02 -2.971383e-02 2.362449e-02 3.109036e-02 -1.576692e-02 -2.857031e-02 -2.989006e-02 4.114259e-02 3.684652e-03 3.354860e-03 4.576725e-04 7.910273e-05 -8.540279e-04 6.755139e-04 1.798357e-03 -1.578167e-03 -1.304774e-03 1.964641e-04 4.197472e-04 1.672753e-03 -2.165804e-04
<VARIANCE> 39
 6.059330e+01 7.190324e+01 5.420221e+01 2.604243e+01 3.714964e+01 3.208773e+01 2.622269e+01 2.924265e+01 2.735255e+01 1.938009e+01 2.481216e+01 4.839602e+01 6.346517e+01 2.476739e+00 2.018785e+00 1.635750e+00 1.380745e+00 1.930648e+00 2.091763e+00 1.831031e+00 1.676488e+00 1.636908e+00 1.484697e+00 1.427934e+00 1.852789e+00 1.355070e+00 3.702078e-01 2.459080e-01 2.436099e-01 2.382445e-01 3.306713e-01 3.660802e-01 3.195867e-01 3.108235e-01 2.835677e-01 2.873541e-01 2.535495e-01 2.808539e-01 1.419663e-01
<GCONST> 1.088900e+02
<STATE> 3
<MEAN> 39
 9.027199e-01 -1.151646e+01 1.160448e+00 -6.653520e+00 -3.996307e+00 -2.651814e+00 1.739801e-01 -6.203846e-01 2.913202e+00 -2.554534e+00 -1.853499e+00 -7.012218e+00 6.704956e+01 4.813530e-02 -2.483427e-02 -1.197590e-02 -1.670629e-02 -2.821043e-04 1.428331e-02 -2.080223e-02 1.731437e-02 2.475095e-02 -1.349412e-02 -2.620336e-02 -2.215525e-02 3.701703e-02 2.552832e-03 3.977645e-03 -1.544178e-04 1.159172e-03 -3.986950e-04 2.506290e-04 2.632348e-03 -2.396102e-03 -2.015088e-03 7.712446e-04 7.857493e-04 2.475188e-03 -1.644029e-03
<VARIANCE> 39
 6.075611e+01 7.172099e+01 5.458793e+01 2.582751e+01 3.721614e+01 3.215481e+01 2.630150e+01 2.889749e+01 2.768234e+01 1.920810e+01 2.522868e+01 4.776049e+01 6.340826e+01 2.432810e+00 1.998713e+00 1.623374e+00 1.360707e+00 1.920617e+00 2.051576e+00 1.832766e+00 1.664569e+00 1.665264e+00 1.485307e+00 1.401861e+00 1.848279e+00 1.332532e+00 3.627104e-01 2.411108e-01 2.389091e-01 2.347852e-01 3.280645e-01 3.555987e-01 3.182772e-01 3.102247e-01 2.890670e-01 2.899399e-01 2.461005e-01 2.805626e-01 1.393764e-01
<GCONST> 1.086502e+02
<STATE> 4
<MEAN> 39
 1.308269e+00 -1.173230e+01 9.893430e-01 -6.797269e+00 -4.029618e+00 -2.592373e+00 4.547632e-02 -5.368140e-01 3.011601e+00 -2.617968e+00 -2.046523e+00 -7.186111e+00 6.736168e+01 5.616598e-02 -1.232621e-03 -1.436284e-02 -5.753580e-03 1.596258e-03 9.994453e-03 -6.071319e-03 5.773042e-03 1.171496e-02 -6.821852e-03 -2.106085e-02 -7.438713e-03 2.247952e-02 1.923938e-05 4.818127e-03 -1.216325e-04 2.252905e-03 3.582576e-04 -5.362686e-04 2.744069e-03 -3.233028e-03 -2.676880e-03 1.181655e-03 1.444501e-03 3.756624e-03 -3.662590e-03
<VARIANCE> 39
 6.014244e+01 7.224126e+01 5.454987e+01 2.604662e+01 3.691721e+01 3.256081e+01 2.635254e+01 2.866795e+01 2.839354e+01 1.886857e+01 2.591653e+01 4.687658e+01 6.289314e+01 2.333898e+00 1.976652e+00 1.593023e+00 1.349410e+00 1.889844e+00 2.016673e+00 1.830716e+00 1.651006e+00 1.709873e+00 1.470782e+00 1.380694e+00 1.833312e+00 1.306663e+00 3.460372e-01 2.348577e-01 2.307485e-01 2.316382e-01 3.219336e-01 3.423861e-01 3.168029e-01 3.081054e-01 2.951349e-01 2.892580e-01 2.398057e-01 2.784372e-01 1.364886e-01
<GCONST> 1.082865e+02
<TRANSP> 5
 0.000000e+00 1.000000e+00 0.000000e+00 0.000000e+00 0.000000e+00
 0.000000e+00 7.249087e-01 2.750913e-01 0.000000e+00 0.000000e+00
 0.000000e+00 0.000000e+00 7.249085e-01 2.750914e-01 0.000000e+00
 0.000000e+00 0.000000e+00 0.000000e+00 8.445800e-01 1.554200e-01
 0.000000e+00 0.000000e+00 0.000000e+00 0.000000e+00 0.000000e+00
<ENDHMM>
~h "s"
<BEGINHMM>
<NUMSTATES> 5
<STATE> 2
<MEAN> 39
 5.802481e-01 -8.961167e+00 -7.374156e-02 -6.983496e+00 -1.554576e+00 -3.004040e+00 1.624633e+00 -1.645285e+00 1.033080e+00 -2.095854e+00 -1.359470e+00 -5.882661e+00 6.634185e+01 5.187037e-03 -1.683140e-02 -2.724297e-02 -4.027527e-02 3.268952e-02 3.002076e-02 1.835696e-03 1.784845e-02 5.970414e-03 1.754373e-02 -2.760482e-02 -3.818045e-02 2.292812e-02 8.533524e-04 -5.514459e-04 -4.867586e-04 -4.140326e-04 5.633109e-04 1.564987e-03 -1.237737e-03 -5.481415e-04 5.070367e-04 6.598895e-04 1.809772e-04 6.939576e-06 -4.056050e-04
<VARIANCE> 39
 6.134654e+01 5.986597e+01 4.345789e+01 4.395600e+01 3.765736e+01 4.333348e+01 3.204203e+01 2.351659e+01 3.001826e+01 2.117837e+01 2.718568e+01 4.169944e+01 5.453042e+01 2.138832e+00 2.293679e+00 1.305258e+00 1.834935e+00 1.681571e+00 2.235150e+00 1.850515e+00 1.582924e+00 1.743005e+00 1.571490e+00 1.542773e+00 2.038623e+00 1.434530e+00 2.478073e-01 3.334807e-01 2.199976e-01 2.858595e-01 2.923305e-01 3.695455e-01 3.286711e-01 3.042137e-01 3.120857e-01 3.036978e-01 2.821222e-01 3.371176e-01 1.848451e-01
<GCONST> 1.101418e+02
<STATE> 3
<MEAN> 39
 6.016111e-01 -9.018890e+00 -1.759033e-01 -7.132056e+00 -1.428674e+00 -2.886525e+00 1.620682e+00 -1.593910e+00 1.051451e+00 -2.036972e+00 -1.461136e+00 -6.010674e+00 6.641998e+01 7.822375e-03 -1.714436e-02 -2.971272e-02 -4.057712e-02 3.255462e-02 3.499939e-02 -4.732212e-04 1.327386e-02 5.265831e-03 1.582010e-02 -2.761605e-02 -3.588962e-02 2.033694e-02 9.594554e-04 -2.451389e-05 -7.009581e-04 -1.232962e-04 -4.184611e-04 1.170457e-03 -3.486616e-04 -1.344726e-03 -3.577966e-04 -6.201413e-04 1.740518e-04 7.352530e-04 -6.560914e-04
<VARIANCE> 39
 6.140461e+01 5.949263e+01 4.260842e+01 4.412704e+01 3.656788e+01 4.319745e+01 3.204018e+01 2.337279e+01 2.953747e+01 2.111046e+01 2.754424e+01 4.195199e+01 5.420216e+01 2.175370e+00 2.290679e+00 1.290790e+00 1.862416e+00 1.678386e+00 2.223339e+00 1.863609e+00 1.591924e+00 1.725154e+00 1.563928e+00 1.559294e+00 2.056566e+00 1.432140e+00 2.525493e-01 3.338103e-01 2.181415e-01 2.908732e-01 2.935615e-01 3.663055e-01 3.312591e-01 3.050176e-01 3.093774e-01 3.007021e-01 2.850391e-01 3.393550e-01 1.852282e-01
<GCONST> 1.101382e+02
<STATE> 4
<MEAN> 39
 6.768836e-01 -9.111770e+00 -3.219597e-01 -7.372817e+00 -1.313869e+00 -2.708699e+00 1.601637e+00 -1.556805e+00 1.071267e+00 -1.968202e+00 -1.596133e+00 -6.189003e+00 6.655766e+01 1.071041e-02 -1.742344e-02 -3.474822e-02 -3.998690e-02 2.781376e-02 4.128470e-02 3.954689e-03 8.093785e-03 9.305403e-03 1.496261e-02 -2.602826e-02 -3.246504e-02 1.558192e-02 9.205841e-04 -1.770477e-04 -7.751397e-04 2.066465e-04 -1.246015e-03 1.005722e-03 9.109340e-04 -1.256393e-03 3.198504e-04 -2.607146e-04 4.066559e-04 4.204253e-04 -7.143510e-04
<VARIANCE> 39
 6.163941e+01 5.907027e+01 4.176831e+01 4.384925e+01 3.521067e+01 4.326328e+01 3.197572e+01 2.320170e+01 2.909030e+01 2.113231e+01 2.824123e+01 4.281784e+01 5.379781e+01 2.217628e+00 2.278524e+00 1.277322e+00 1.901460e+00 1.673200e+00 2.206780e+00 1.887272e+00 1.600219e+00 1.732497e+00 1.567904e+00 1.583606e+00 2.084377e+00 1.427089e+00 2.583100e-01 3.320753e-01 2.165164e-01 2.985576e-01 2.943444e-01 3.605392e-01 3.342809e-01 3.058537e-01 3.134125e-01 2.992783e-01 2.889412e-01 3.419581e-01 1.851333e-01
<GCONST> 1.102138e+02
<TRANSP> 5
 0.000000e+00 1.000000e+00 0.000000e+00 0.000000e+00 0.000000e+00
 0.000000e+00 7.276102e-01 2.723898e-01 0.000000e+00 0.000000e+00
 0.000000e+00 0.000000e+00 7.276102e-01 2.723897e-01 0.000000e+00
 0.000000e+00 0.000000e+00 0.000000e+00 8.476869e-01 1.523131e-01
 0.000000e+00 0.000000e+00 0.000000e+00 0.000000e+00 0.000000e+00
<ENDHMM>
~h "t"
<BEGINHMM>
<NUMSTATES> 5
<STATE> 2
<MEAN> 39
 1.042537e-01 -7.625866e+00 1.743119e+00 -5.876151e+00 -3.100862e+00 -2.668063e+00 1.983351e+00 -2.327262e+00 1.085074e+00 -1.711879e+00 -5.560975e-01 -5.130064e+00 6.444695e+01 -1.336069e-02 2.902632e-02 3.657138e-02 1.791131e-02 -6.212839e-03 1.005472e-02 2.343561e-02 -1.289367e-02 -1.395871e-02 5.900671e-04 7.560471e-03 1.486668e-02 -1.772101e-02 -1.129467e-03 4.232467e-04 1.209258e-03 1.624315e-03 1.396788e-04 -1.636079e-03 3.186494e-04 -7.738855e-04 -1.865767e-03 -1.008488e-03 9.573711e-04 1.074520e-03 -1.273990e-03
<VARIANCE> 39
 4.860400e+01 5.714524e+01 6.474398e+01 3.984668e+01 5.526941e+01 3.369260e+01 2.884120e+01 2.399209e+01 3.195636e+01 2.019993e+01 2.664130e+01 4.356527e+01 5.902752e+01 1.458682e+00 1.929180e+00 1.645061e+00 1.508334e+00 1.934741e+00 1.961915e+00 1.788053e+00 1.651011e+00 1.898949e+00 1.592860e+00 1.495911e+00 2.024354e+00 1.469523e+00 1.796855e-01 2.768368e-01 2.501318e-01 2.308795e-01 3.182110e-01 3.278641e-01 3.326947e-01 3.244890e-01 3.375993e-01 3.048250e-01 2.721776e-01 3.377740e-01 1.783924e-01
<GCONST> 1.093723e+02
<STATE> 3
<MEAN> 39
 4.377681e-02 -7.523710e+00 1.881743e+00 -5.807695e+00 -3.130749e+00 -2.642897e+00 2.073325e+00 -2.382822e+00 1.021083e+00 -1.718910e+00 -5.333992e-01 -5.078207e+00 6.437742e+01 -1.830865e-02 2.845824e-02 3.745414e-02 2.066050e-02 -6.967016e-03 6.119314e-03 2.487404e-02 -1.546376e-02 -1.821388e-02 -4.381127e-03 6.653239e-03 1.631485e-02 -2.150003e-02 -1.327447e-03 -4.257919e-04 -2.443943e-04 2.219375e-04 -3.520149e-04 -9.901441e-04 2.045516e-04 -3.347562e-04 -6.003614e-04 -1.288964e-03 -5.201574e-04 8.916075e-05 -8.912727e-04
<VARIANCE> 39
 4.824290e+01 5.691743e+01 6.599763e+01 3.898548e+01 5.640205e+01 3.347281e+01 2.853691e+01 2.392433e+01 3.163622e+01 2.018079e+01 2.631248e+01 4.380214e+01 5.887642e+01 1.437037e+00 1.897873e+00 1.642539e+00 1.465914e+00 1.955970e+00 1.972855e+00 1.779750e+00 1.643271e+00 1.873548e+00 1.596442e+00 1.474482e+00 2.017130e+00 1.463917e+00 1.765028e-01 2.725191e-01 2.478441e-01 2.234387e-01 3.205850e-01 3.321182e-01 3.318569e-01 3.230182e-01 3.313737e-01 3.043808e-01 2.664815e-01 3.366014e-01 1.777433e-01
<GCONST> 1.091400e+02
<STATE> 4
<MEAN> 39
 -3.705239e-02 -7.479312e+00 2.041317e+00 -5.751737e+00 -3.223657e+00 -2.646640e+00 2.199241e+00 -2.450117e+00 9.370000e-01 -1.745180e+00 -5.557809e-01 -5.065327e+00 6.434086e+01 -2.207435e-02 2.222039e-02 3.278254e-02 1.920143e-02 -9.374890e-03 2.705627e-03 2.490223e-02 -1.467768e-02 -1.419345e-02 -1.011911e-02 -1.559573e-03 1.244949e-02 -2.172959e-02 -5.370759e-04 -1.168488e-03 -1.295716e-03 -5.661732e-04 -2.684565e-04 -5.638970e-04 -3.130890e-04 5.148178e-04 1.011619e-03 -9.143547e-04 -9.562491e-04 -4.619235e-04 -9.695501e-05
<VARIANCE> 39
 4.811657e+01 5.727511e+01 6.747246e+01 3.744371e+01 5.773536e+01 3.339264e+01 2.811674e+01 2.393445e+01 3.133075e+01 2.024919e+01 2.584897e+01 4.402620e+01 5.868490e+01 1.432593e+00 1.868346e+00 1.636484e+00 1.423795e+00 1.969175e+00 1.991394e+00 1.779642e+00 1.630678e+00 1.836952e+00 1.609169e+00 1.455384e+00 2.028661e+00 1.461312e+00 1.750949e-01 2.686053e-01 2.448917e-01 2.169267e-01 3.202541e-01 3.389198e-01 3.314749e-01 3.198127e-01 3.221093e-01 3.053661e-01 2.615264e-01 3.385690e-01 1.773570e-01
<GCONST> 1.089493e+02
<TRANSP> 5
 0.000000e+00 1.000000e+00 0.000000e+00 0.000000e+00 0.000000e+00
 0.000000e+00 7.280201e-01 2.719799e-01 0.000000e+00 0.000000e+00
 0.000000e+00 0.000000e+00 7.280207e-01 2.719792e-01 0.000000e+00
 0.000000e+00 0.000000e+00 0.000000e+00 8.481694e-01 1.518307e-01
 0.000000e+00 0.000000e+00 0.000000e+00 0.000000e+00 0.000000e+00
<ENDHMM>
~h "y"
<BEGINHMM>
<NUMSTATES> 5
<STATE> 2
<MEAN> 39
 1.391611e+00 -8.430549e+00 5.981300e+00 -3.744693e+00 -7.829642e+00 -5.057272e+00 4.529744e-01 -2.146192e+00 1.255499e+00 -4.027850e+00 1.682279e-01 -4.633496e+00 6.727722e+01 4.181249e-02 2.516869e-02 2.972704e-02 1.572053e-02 -4.516568e-02 -5.948203e-02 1.684212e-02 3.034859e-02 -1.506040e-02 -1.523864e-03 -1.835969e-03 3.355063e-03 4.042780e-03 3.685670e-03 1.396312e-04 -2.351435e-03 -3.604912e-03 2.007873e-03 2.423573e-03 6.908393e-04 3.899570e-04 -3.520677e-03 1.446546e-03 -1.630944e-03 -4.264235e-04 -2.795543e-04
<VARIANCE> 39
 6.006071e+01 5.443024e+01 5.316180e+01 2.481949e+01 5.065909e+01 3.459179e+01 3.000147e+01 2.360572e+01 3.476859e+01 2.038744e+01 1.909947e+01 2.137440e+01 3.894568e+01 2.157707e+00 2.469122e+00 1.954455e+00 1.285128e+00 1.876837e+00 1.717739e+00 2.025373e+00 1.477182e+00 2.104796e+00 1.372506e+00 1.479558e+00 1.220128e+00 1.192637e+00 2.500140e-01 3.423776e-01 3.149815e-01 2.249089e-01 3.015902e-01 2.692583e-01 3.702369e-01 2.708878e-01 3.789844e-01 2.587033e-01 2.772991e-01 2.176768e-01 1.649523e-01
<GCONST> 1.070640e+02
<STATE> 3
<MEAN> 39
 1.572289e+00 -8.340829e+00 6.070411e+00 -3.713980e+00 -7.975696e+00 -5.248269e+00 5.221214e-01 -2.032292e+00 1.166655e+00 -4.019417e+00 1.506458e-01 -4.625728e+00 6.728896e+01 5.214324e-02 2.373799e-02 1.994973e-02 2.131356e-03 -3.550638e-02 -4.852305e-02 1.764766e-02 3.117122e-02 -2.695154e-02 4.903117e-03 -7.603619e-03 1.221825e-03 2.798766e-03 2.194362e-03 -4.868296e-04 -2.783625e-03 -3.690853e-03 3.139968e-03 3.478595e-03 2.019890e-04 -2.151558e-04 -3.335289e-03 1.601745e-03 -1.531178e-03 -6.335502e-04 -5.373188e-04
<VARIANCE> 39
 5.851626e+01 5.405139e+01 5.344981e+01 2.381130e+01 5.146524e+01 3.258550e+01 2.964882e+01 2.242904e+01 3.352190e+01 2.003423e+01 1.887189e+01 2.104358e+01 3.886043e+01 2.110768e+00 2.525098e+00 1.984960e+00 1.271185e+00 1.888345e+00 1.662892e+00 2.002659e+00 1.449467e+00 2.071500e+00 1.345896e+00 1.450404e+00 1.203344e+00 1.193011e+00 2.478444e-01 3.503837e-01 3.218195e-01 2.241721e-01 3.027237e-01 2.630298e-01 3.637342e-01 2.678063e-01 3.749722e-01 2.531109e-01 2.695846e-01 2.147657e-01 1.660216e-01
<GCONST> 1.065998e+02
<STATE> 4
<MEAN> 39
 1.894402e+00 -8.244992e+00 6.204071e+00 -3.748898e+00 -8.177899e+00 -5.438386e+00 6.142358e-01 -1.883887e+00 9.332675e-01 -3.982893e+00 1.041407e-01 -4.633520e+00 6.732421e+01 5.513633e-02 1.625407e-02 3.310332e-03 -1.665032e-02 -1.527049e-02 -2.798332e-02 1.419680e-02 2.828495e-02 -4.055591e-02 1.700524e-02 -1.377703e-02 -3.363425e-03 5.313713e-05 -5.993294e-04 -1.360966e-03 -3.260829e-03 -3.344633e-03 4.391220e-03 4.137318e-03 -8.009339e-04 -1.370584e-03 -2.199624e-03 1.809098e-03 -1.072250e-03 -8.120210e-04 -7.960404e-04
<VARIANCE> 39
 5.529695e+01 5.394683e+01 5.449961e+01 2.307978e+01 5.312602e+01 3.000915e+01 2.893791e+01 2.086357e+01 3.184674e+01 1.962746e+01 1.869579e+01 2.091991e+01 3.926924e+01 1.990043e+00 2.604290e+00 2.024103e+00 1.251816e+00 1.895506e+00 1.576602e+00 1.944117e+00 1.403188e+00 1.989706e+00 1.302249e+00 1.405099e+00 1.186393e+00 1.190840e+00 2.387048e-01 3.587189e-01 3.298277e-01 2.215816e-01 3.024257e-01 2.523886e-01 3.494478e-01 2.606831e-01 3.609973e-01 2.444912e-01 2.581735e-01 2.112657e-01 1.653006e-01
<GCONST> 1.058022e+02
<TRANSP> 5
 0.000000e+00 1.000000e+00 0.000000e+00 0.000000e+00 0.000000e+00
 0.000000e+00 7.207247e-01 2.792753e-01 0.000000e+00 0.000000e+00
 0.000000e+00 0.000000e+00 7.207253e-01 2.792747e-01 0.000000e+00
 0.000000e+00 0.000000e+00 0.000000e+00 8.396725e-01 1.603275e-01
 0.000000e+00 0.000000e+00 0.000000e+00 0.000000e+00 0.000000e+00
<ENDHMM>
~h "aa"
<BEGINHMM>
<NUMSTATES> 5
<STATE> 2
<MEAN> 39
 7.227128e-01 -9.885264e+00 -5.183487e-01 -6.855886e+00 -1.917163e+00 -1.954577e+00 1.599799e+00 -1.604056e+00 1.604833e+00 -2.312009e+00 -1.183075e+00 -5.949010e+00 6.573349e+01 -1.227995e-02 -2.316001e-02 -2.775236e-02 -1.781404e-03 1.754407e-02 7.758227e-03 -2.363060e-03 1.006119e-02 1.598844e-02 -2.879266e-03 -1.190554e-03 -9.166260e-04 -1.467526e-03 -2.805995e-04 1.306629e-03 1.645467e-03 1.632340e-03 4.351733e-04 4.717847e-05 -2.727541e-04 7.821069e-04 2.355361e-04 -1.723134e-03 6.610575e-04 1.139925e-03 -8.479069e-04
<VARIANCE> 39
 5.551057e+01 6.453705e+01 4.564911e+01 3.874732e+01 3.479741e+01 3.986652e+01 2.825343e+01 2.771721e+01 3.010013e+01 1.964819e+01 2.564018e+01 4.507981e+01 6.208456e+01 1.787681e+00 2.052498e+00 1.331976e+00 1.791876e+00 1.592229e+00 2.170794e+00 1.790492e+00 1.717362e+00 1.818654e+00 1.531802e+00 1.494254e+00 2.004217e+00 1.455361e+00 2.311691e-01 2.763537e-01 2.205769e-01 2.894231e-01 2.833897e-01 3.557826e-01 3.274004e-01 3.203149e-01 3.218330e-01 2.976670e-01 2.801018e-01 3.417405e-01 1.695850e-01
<GCONST> 1.093134e+02
<STATE> 3
<MEAN> 39
 6.776919e-01 -9.967794e+00 -6.138914e-01 -6.851099e+00 -1.849149e+00 -1.921270e+00 1.593733e+00 -1.565227e+00 1.659226e+00 -2.338754e+00 -1.182467e+00 -5.944504e+00 6.572549e+01 -1.327183e-02 -1.921660e-02 -2.170720e-02 4.808547e-03 1.678288e-02 6.358166e-03 -1.789766e-03 1.008776e-02 1.411765e-02 -9.602640e-03 1.877008e-03 4.308400e-03 -4.466024e-03 1.361637e-05 1.155395e-03 1.773732e-03 1.671038e-03 -3.947561e-04 -3.081798e-04 3.847164e-04 -3.094456e-04 -7.450999e-04 -1.712719e-03 7.232558e-04 1.361856e-03 -8.123936e-04
<VARIANCE> 39
 5.573836e+01 6.438043e+01 4.533709e+01 3.820006e+01 3.420152e+01 3.974892e+01 2.835152e+01 2.802784e+01 3.019356e+01 1.976734e+01 2.560311e+01 4.516471e+01 6.235128e+01 1.786829e+00 2.045393e+00 1.337797e+00 1.783581e+00 1.592309e+00 2.173481e+00 1.788435e+00 1.715537e+00 1.822835e+00 1.532749e+00 1.487753e+00 2.010572e+00 1.459532e+00 2.310651e-01 2.756620e-01 2.211461e-01 2.887100e-01 2.842861e-01 3.550916e-01 3.260624e-01 3.195999e-01 3.214605e-01 2.983738e-01 2.790136e-01 3.417207e-01 1.697289e-01
<GCONST> 1.092919e+02
<STATE> 4
<MEAN> 39
 6.748144e-01 -1.012602e+01 -7.321184e-01 -6.857169e+00 -1.793761e+00 -1.869324e+00 1.576953e+00 -1.517265e+00 1.716673e+00 -2.418560e+00 -1.184646e+00 -5.948556e+00 6.577329e+01 -1.119827e-02 -1.719461e-02 -1.675309e-02 1.146486e-02 1.183913e-02 9.599405e-04 1.283449e-03 7.695800e-03 1.043325e-02 -1.393504e-02 3.982123e-03 9.413728e-03 -5.759548e-03 4.884431e-04 9.253872e-04 1.452455e-03 1.175475e-03 -1.035801e-03 -8.596409e-04 7.793222e-04 -7.722590e-04 -1.007347e-03 -5.712452e-04 3.454317e-04 8.927934e-04 -4.612118e-04
<VARIANCE> 39
 5.606513e+01 6.450780e+01 4.493384e+01 3.738361e+01 3.352107e+01 3.999255e+01 2.865621e+01 2.858305e+01 3.049405e+01 2.005658e+01 2.560320e+01 4.551768e+01 6.257996e+01 1.789920e+00 2.045725e+00 1.346769e+00 1.776868e+00 1.590718e+00 2.183278e+00 1.797559e+00 1.722454e+00 1.840088e+00 1.535376e+00 1.479324e+00 2.022241e+00 1.475495e+00 2.314468e-01 2.751072e-01 2.220045e-01 2.883141e-01 2.840854e-01 3.541742e-01 3.264149e-01 3.208229e-01 3.232480e-01 2.994131e-01 2.774470e-01 3.416161e-01 1.712867e-01
<GCONST> 1.093768e+02
<TRANSP> 5
 0.000000e+00 1.000000e+00 0.000000e+00 0.000000e+00 0.000000e+00
 0.000000e+00 7.282737e-01 2.717263e-01 0.000000e+00 0.000000e+00
 0.000000e+00 0.000000e+00 7.282725e-01 2.717275e-01 0.000000e+00
 0.000000e+00 0.000000e+00 0.000000e+00 8.484747e-01 1.515253e-01
 0.000000e+00 0.000000e+00 0.000000e+00 0.000000e+00 0.000000e+00
<ENDHMM>
~h "cx"
<BEGINHMM>
<NUMSTATES> 5
<STATE> 2
<MEAN> 39
 8.300999e-01 -9.260542e+00 1.962523e+00 -6.333255e+00 -4.181188e+00 -2.858267e+00 8.453851e-01 -1.706228e+00 1.801200e+00 -2.464562e+00 -1.038293e+00 -5.758365e+00 6.590477e+01 -1.699793e-02 -1.057022e-01 -2.932907e-02 -7.251649e-04 -2.437891e-03 4.490651e-03 -1.237812e-02 3.784540e-02 3.541699e-02 1.877949e-02 -1.559544e-02 -3.779161e-02 3.908607e-02 -2.737866e-03 2.029252e-03 7.957938e-04 -4.845434e-04 1.365469e-03 1.280622e-04 -1.267115e-03 -1.496547e-03 -5.981259e-04 1.183470e-04 -9.107665e-04 -1.024688e-03 -2.687146e-03
<VARIANCE> 39
 5.380812e+01 7.861448e+01 5.215563e+01 3.551815e+01 4.130197e+01 3.188072e+01 2.628261e+01 2.650020e+01 2.744695e+01 1.925768e+01 2.413092e+01 4.871308e+01 6.624297e+01 2.145953e+00 2.026560e+00 1.513327e+00 1.622350e+00 1.710733e+00 2.193415e+00 1.719820e+00 1.654544e+00 1.588040e+00 1.550040e+00 1.558747e+00 1.696303e+00 1.381401e+00 3.102633e-01 2.496348e-01 2.329852e-01 2.584445e-01 2.923901e-01 3.856570e-01 3.147655e-01 2.970695e-01 2.713368e-01 2.921808e-01 2.947034e-01 2.831643e-01 1.502836e-01
<GCONST> 1.089121e+02
<STATE> 3
<MEAN> 39
 7.478732e-01 -9.626125e+00 1.869062e+00 -6.342045e+00 -4.178250e+00 -2.841230e+00 8.010640e-01 -1.559569e+00 1.932712e+00 -2.408873e+00 -1.104396e+00 -5.904948e+00 6.603210e+01 -2.424197e-02 -9.506463e-02 -2.742616e-02 3.145927e-04 6.522792e-03 5.483979e-03 -1.130027e-02 3.912373e-02 3.491009e-02 1.458222e-02 -1.862266e-02 -3.883547e-02 2.999078e-02 -1.716763e-03 3.310096e-03 8.796356e-04 2.392618e-04 2.167077e-03 2.146639e-04 1.069774e-04 4.971190e-04 5.674199e-05 -1.421348e-03 -6.140014e-04 -9.553670e-05 -2.333758e-03
<VARIANCE> 39
 5.486234e+01 7.871251e+01 5.183963e+01 3.396752e+01 3.998069e+01 3.221365e+01 2.592385e+01 2.748382e+01 2.730825e+01 1.949556e+01 2.412417e+01 4.959060e+01 6.631945e+01 2.214437e+00 2.025672e+00 1.528665e+00 1.584061e+00 1.736228e+00 2.213863e+00 1.730041e+00 1.648566e+00 1.567754e+00 1.529699e+00 1.556357e+00 1.711041e+00 1.381434e+00 3.227656e-01 2.498388e-01 2.346095e-01 2.560287e-01 2.966675e-01 3.892300e-01 3.161846e-01 2.948730e-01 2.663519e-01 2.871201e-01 2.927745e-01 2.799973e-01 1.492935e-01
<GCONST> 1.089315e+02
<STATE> 4
<MEAN> 39
 6.513036e-01 -1.010181e+01 1.732275e+00 -6.426861e+00 -4.154028e+00 -2.792939e+00 7.075236e-01 -1.311661e+00 2.150218e+00 -2.378803e+00 -1.226095e+00 -6.139608e+00 6.624734e+01 -2.266994e-02 -8.443840e-02 -2.976197e-02 -9.789441e-04 1.210464e-02 3.937042e-03 -1.075859e-02 4.328444e-02 3.749023e-02 7.013625e-03 -2.186828e-02 -4.190039e-02 2.748942e-02 6.023791e-04 2.671335e-03 1.878944e-04 -3.390138e-04 7.981273e-04 -1.576247e-04 -6.109521e-04 5.147670e-05 2.456004e-04 -1.533854e-03 -3.951594e-04 1.109578e-05 -6.029590e-04
<VARIANCE> 39
 5.679869e+01 7.814198e+01 5.162620e+01 3.189190e+01 3.855776e+01 3.276278e+01 2.601478e+01 2.867267e+01 2.707106e+01 1.969746e+01 2.421912e+01 5.017795e+01 6.566160e+01 2.324074e+00 2.038705e+00 1.566066e+00 1.536781e+00 1.792654e+00 2.229979e+00 1.765156e+00 1.663810e+00 1.573225e+00 1.521492e+00 1.539650e+00 1.741129e+00 1.389910e+00 3.428670e-01 2.526094e-01 2.402380e-01 2.529660e-01 3.067493e-01 3.920906e-01 3.203254e-01 2.991011e-01 2.668146e-01 2.851321e-01 2.863795e-01 2.768114e-01 1.491360e-01
<GCONST> 1.091649e+02
<TRANSP> 5
 0.000000e+00 1.000000e+00 0.000000e+00 0.000000e+00 0.000000e+00
 0.000000e+00 7.249227e-01 2.750773e-01 0.000000e+00 0.000000e+00
 0.000000e+00 0.000000e+00 7.249230e-01 2.750770e-01 0.000000e+00
 0.000000e+00 0.000000e+00 0.000000e+00 8.446097e-01 1.553902e-01
 0.000000e+00 0.000000e+00 0.000000e+00 0.000000e+00 0.000000e+00
<ENDHMM>
~h "ee"
<BEGINHMM>
<NUMSTATES> 5
<STATE> 2
<MEAN> 39
 9.802152e-01 -8.814391e+00 5.534955e+00 -5.702495e+00 -7.918234e+00 -5.774449e+00 1.100950e+00 -3.052108e+00 -1.764268e+00 -1.979517e+00 9.452541e-01 -4.857219e+00 6.568679e+01 4.458559e-03 -4.345481e-02 -1.813130e-02 1.266183e-02 -1.957691e-02 -4.113877e-02 -1.457825e-02 -2.236436e-02 -4.380867e-02 2.971986e-02 1.475703e-02 -1.254155e-03 -1.009377e-03 -3.040930e-03 4.034581e-03 -3.529400e-03 2.109948e-03 6.839193e-03 3.173570e-03 -1.312199e-03 -1.603085e-03 3.819393e-03 -4.968833e-05 -1.935196e-03 2.885857e-03 -5.379027e-03
<VARIANCE> 39
 4.218997e+01 5.591373e+01 7.630443e+01 3.458910e+01 8.150182e+01 3.980104e+01 3.080198e+01 2.636925e+01 3.581238e+01 2.171954e+01 3.283223e+01 3.399367e+01 5.838763e+01 1.208267e+00 2.141470e+00 2.056605e+00 1.369449e+00 2.001289e+00 1.677764e+00 1.692069e+00 1.513993e+00 1.808311e+00 1.520236e+00 1.415931e+00 1.906098e+00 1.590580e+00 1.574824e-01 3.113040e-01 2.981943e-01 2.088216e-01 2.935280e-01 2.750405e-01 3.080346e-01 2.862267e-01 3.020551e-01 2.986986e-01 2.539232e-01 3.192219e-01 1.943041e-01
<GCONST> 1.091600e+02
<STATE> 3
<MEAN> 39
 9.695476e-01 -8.940978e+00 5.469860e+00 -5.637176e+00 -7.960027e+00 -5.915821e+00 1.026821e+00 -3.163273e+00 -1.886297e+00 -1.862416e+00 1.007890e+00 -4.838698e+00 6.564190e+01 -8.636729e-03 -2.797654e-02 -2.919732e-02 2.132388e-02 4.905483e-03 -3.095035e-02 -1.750258e-02 -3.112377e-02 -2.365967e-02 2.965464e-02 1.319565e-02 8.964435e-03 -2.121234e-02 -3.183366e-03 4.162902e-03 -1.921864e-03 1.870089e-03 5.740862e-03 2.681653e-03 -7.451407e-04 -1.944786e-03 5.251312e-03 -1.460286e-04 -2.590138e-04 2.303436e-03 -4.853796e-03
<VARIANCE> 39
 4.105870e+01 5.556689e+01 7.782726e+01 3.420956e+01 8.183427e+01 3.989986e+01 2.930575e+01 2.685760e+01 3.604296e+01 2.162829e+01 3.327420e+01 3.447472e+01 5.891889e+01 1.178244e+00 2.168483e+00 2.081652e+00 1.359543e+00 2.002713e+00 1.678655e+00 1.694403e+00 1.524786e+00 1.804748e+00 1.573875e+00 1.430730e+00 1.941177e+00 1.598643e+00 1.535778e-01 3.179446e-01 3.014838e-01 2.089364e-01 2.943296e-01 2.756564e-01 3.139768e-01 2.883825e-01 3.007307e-01 3.119130e-01 2.583399e-01 3.262577e-01 1.969217e-01
<GCONST> 1.093479e+02
<STATE> 4
<MEAN> 39
 9.331968e-01 -9.019202e+00 5.432568e+00 -5.554124e+00 -8.045709e+00 -6.137780e+00 8.786949e-01 -3.360662e+00 -1.991199e+00 -1.684250e+00 1.137109e+00 -4.792599e+00 6.552086e+01 -2.717657e-02 -6.630307e-03 -3.080295e-02 3.223374e-02 2.170542e-02 -2.457321e-02 -1.375927e-02 -3.676255e-02 -1.610646e-03 3.244446e-02 2.357162e-02 2.106938e-02 -4.420158e-02 -2.448976e-03 3.593356e-03 -6.141260e-05 8.679389e-04 2.899603e-03 1.885460e-03 1.004284e-03 1.214014e-04 3.269915e-03 -2.050412e-04 9.885810e-04 1.266748e-03 -3.108925e-03
<VARIANCE> 39
 3.926090e+01 5.432355e+01 8.066016e+01 3.372193e+01 8.240779e+01 3.964362e+01 2.699842e+01 2.722425e+01 3.707269e+01 2.141507e+01 3.306077e+01 3.499700e+01 5.930616e+01 1.139850e+00 2.214119e+00 2.162974e+00 1.343917e+00 2.034754e+00 1.685484e+00 1.716820e+00 1.541523e+00 1.835062e+00 1.626583e+00 1.455975e+00 1.978588e+00 1.640625e+00 1.490977e-01 3.296947e-01 3.112697e-01 2.085917e-01 2.994044e-01 2.799996e-01 3.259355e-01 2.918799e-01 3.055614e-01 3.238162e-01 2.664545e-01 3.346695e-01 2.054842e-01
<GCONST> 1.097094e+02
<TRANSP> 5
 0.000000e+00 1.000000e+00 0.000000e+00 0.000000e+00 0.000000e+00
 0.000000e+00 7.314050e-01 2.685950e-01 0.000000e+00 0.000000e+00
 0.000000e+00 0.000000e+00 7.314050e-01 2.685951e-01 0.000000e+00
 0.000000e+00 0.000000e+00 0.000000e+00 8.520045e-01 1.479955e-01
 0.000000e+00 0.000000e+00 0.000000e+00 0.000000e+00 0.000000e+00
<ENDHMM>
~h "ii"
<BEGINHMM>
<NUMSTATES> 5
<STATE> 2
<MEAN> 39
 8.624375e-03 -5.485347e+00 5.330053e+00 -4.313022e+00 -5.533193e+00 -3.491158e+00 2.522882e+00 -3.424773e+00 -2.096254e-01 -1.728862e+00 -5.155647e-02 -4.532085e+00 6.312077e+01 -3.177607e-02 5.009519e-02 4.482221e-02 3.421243e-02 -1.279473e-03 1.268479e-03 2.718197e-02 -2.591150e-02 -1.414477e-02 -1.588306e-02 -1.075627e-02 2.543830e-02 -4.816338e-02 -1.101998e-03 -2.081689e-03 -3.217766e-03 -7.093683e-04 2.014767e-03 3.935524e-04 -6.758554e-04 1.419615e-03 2.975319e-03 -1.448236e-03 -6.937794e-04 -1.580952e-04 -3.130132e-04
<VARIANCE> 39
 3.697468e+01 4.185479e+01 7.363268e+01 3.118523e+01 7.769774e+01 2.504696e+01 2.322077e+01 2.282744e+01 3.185389e+01 2.046042e+01 2.133547e+01 3.890540e+01 5.295770e+01 9.149181e-01 1.601584e+00 2.025189e+00 1.191408e+00 2.294605e+00 1.710081e+00 1.586673e+00 1.482481e+00 1.859157e+00 1.641592e+00 1.412248e+00 1.977586e+00 1.364983e+00 1.137217e-01 2.370619e-01 2.847918e-01 1.774143e-01 3.425730e-01 3.185884e-01 3.002221e-01 2.882134e-01 3.182113e-01 3.061696e-01 2.526423e-01 3.363193e-01 1.633428e-01
<GCONST> 1.058501e+02
<STATE> 3
<MEAN> 39
 -1.141195e-01 -5.311795e+00 5.486276e+00 -4.183750e+00 -5.523246e+00 -3.484104e+00 2.618302e+00 -3.499815e+00 -2.365637e-01 -1.797168e+00 -8.917040e-02 -4.441531e+00 6.294666e+01 -3.443535e-02 4.234073e-02 3.343172e-02 3.288737e-02 8.095549e-03 2.513254e-03 2.439160e-02 -1.830024e-02 -4.208368e-03 -1.991091e-02 -9.873573e-03 2.500516e-02 -4.793749e-02 -8.204733e-04 -2.303244e-03 -3.126428e-03 -6.815960e-04 2.666883e-03 6.522797e-04 -7.235141e-04 2.204256e-03 2.645198e-03 -9.320493e-04 5.761369e-04 -1.008105e-04 2.449673e-04
<VARIANCE> 39
 3.664264e+01 4.056545e+01 7.201324e+01 3.005675e+01 7.884841e+01 2.482265e+01 2.263965e+01 2.238196e+01 3.126031e+01 2.055610e+01 2.093972e+01 3.870641e+01 5.234681e+01 9.012811e-01 1.543545e+00 1.990079e+00 1.167301e+00 2.248487e+00 1.689773e+00 1.562587e+00 1.485511e+00 1.815203e+00 1.633530e+00 1.392121e+00 1.949766e+00 1.315341e+00 1.115879e-01 2.287968e-01 2.786857e-01 1.754367e-01 3.331566e-01 3.180555e-01 2.952987e-01 2.894548e-01 3.104125e-01 3.033892e-01 2.494479e-01 3.333732e-01 1.570051e-01
<GCONST> 1.052078e+02
<STATE> 4
<MEAN> 39
 -2.583786e-01 -5.181272e+00 5.677233e+00 -4.041063e+00 -5.514708e+00 -3.488842e+00 2.725050e+00 -3.537123e+00 -2.464417e-01 -1.895396e+00 -1.339156e-01 -4.381512e+00 6.279641e+01 -3.300136e-02 3.016892e-02 1.995250e-02 2.864510e-02 2.052074e-02 4.745835e-03 2.028840e-02 -4.893699e-03 2.681017e-03 -2.146165e-02 -4.839328e-03 2.160971e-02 -4.030776e-02 2.378249e-06 -2.818879e-03 -3.319066e-03 -1.511288e-03 2.582263e-03 7.953077e-04 -8.140834e-04 2.247298e-03 1.148606e-03 -2.098863e-04 1.001132e-03 -4.294285e-04 1.381065e-03
<VARIANCE> 39
 3.641081e+01 4.012372e+01 7.024046e+01 2.890029e+01 8.057920e+01 2.476402e+01 2.209567e+01 2.199436e+01 3.083295e+01 2.057141e+01 2.077398e+01 3.878971e+01 5.174571e+01 9.115967e-01 1.491801e+00 1.959734e+00 1.160971e+00 2.208038e+00 1.672360e+00 1.547645e+00 1.498030e+00 1.765545e+00 1.594100e+00 1.369947e+00 1.916762e+00 1.283801e+00 1.128476e-01 2.203769e-01 2.739951e-01 1.772409e-01 3.241934e-01 3.185393e-01 2.910970e-01 2.921102e-01 3.005982e-01 2.943175e-01 2.459989e-01 3.286417e-01 1.530005e-01
<GCONST> 1.047103e+02
<TRANSP> 5
 0.000000e+00 1.000000e+00 0.000000e+00 0.000000e+00 0.000000e+00
 0.000000e+00 7.282133e-01 2.717867e-01 0.000000e+00 0.000000e+00
 0.000000e+00 0.000000e+00 7.282133e-01 2.717867e-01 0.000000e+00
 0.000000e+00 0.000000e+00 0.000000e+00 8.483708e-01 1.516292e-01
 0.000000e+00 0.000000e+00 0.000000e+00 0.000000e+00 0.000000e+00
<ENDHMM>
~h "sh"
<BEGINHMM>
<NUMSTATES> 5
<STATE> 2
<MEAN> 39
 9.551291e-01 -8.131551e+00 3.987421e+00 -4.933310e+00 -5.832432e+00 -3.345244e+00 6.787106e-01 -3.002046e+00 1.262101e+00 -3.150814e+00 1.225138e-01 -4.272352e+00 6.620924e+01 5.292924e-02 -5.259990e-02 5.277038e-02 -1.864471e-02 -6.029802e-02 1.940738e-02 -1.687341e-02 2.013447e-02 -2.791069e-02 -2.472880e-02 -2.237898e-02 -3.473463e-02 7.463749e-02 -2.376418e-04 -4.834432e-04 1.369089e-03 4.233926e-04 -1.364134e-03 -4.115796e-04 -7.474692e-04 6.984588e-05 -2.065192e-03 -1.408380e-03 1.288668e-03 1.347865e-03 -1.333469e-04
<VARIANCE> 39
 5.753448e+01 5.262491e+01 5.947777e+01 3.510054e+01 5.570673e+01 3.657909e+01 2.913492e+01 2.982007e+01 3.629515e+01 1.923092e+01 2.066818e+01 3.146965e+01 5.009253e+01 1.986963e+00 2.193821e+00 1.965478e+00 1.618126e+00 1.909021e+00 1.858103e+00 1.985482e+00 1.609454e+00 1.995472e+00 1.434292e+00 1.484639e+00 1.462930e+00 1.352410e+00 2.419069e-01 3.024900e-01 3.100252e-01 2.617464e-01 3.212203e-01 2.921539e-01 3.713550e-01 2.897363e-01 3.495959e-01 2.789861e-01 2.809652e-01 2.435322e-01 1.717286e-01
<GCONST> 1.093559e+02
<STATE> 3
<MEAN> 39
 1.138725e+00 -8.318293e+00 4.191710e+00 -4.980761e+00 -6.058633e+00 -3.301486e+00 6.078603e-01 -2.919917e+00 1.144473e+00 -3.255668e+00 5.742383e-02 -4.386676e+00 6.647580e+01 4.697122e-02 -4.952468e-02 5.535300e-02 -9.760347e-03 -5.897300e-02 1.018380e-02 -1.931617e-02 2.022412e-02 -3.251280e-02 -2.950994e-02 -1.823510e-02 -3.067207e-02 6.984360e-02 -2.207038e-03 1.363220e-03 4.284555e-04 2.984698e-03 7.944651e-04 -2.904069e-03 -3.894038e-04 -7.468648e-05 -6.617873e-04 -1.059119e-03 1.144963e-03 1.183293e-03 -1.894112e-03
<VARIANCE> 39
 5.707557e+01 5.361758e+01 6.137847e+01 3.517587e+01 5.546872e+01 3.735825e+01 2.899368e+01 2.996440e+01 3.701541e+01 1.947699e+01 2.069770e+01 3.142869e+01 4.975932e+01 1.981917e+00 2.207173e+00 1.985338e+00 1.602048e+00 1.921448e+00 1.845756e+00 1.969616e+00 1.586735e+00 1.993728e+00 1.412755e+00 1.507333e+00 1.441925e+00 1.358517e+00 2.395967e-01 3.000149e-01 3.097121e-01 2.583371e-01 3.220064e-01 2.880891e-01 3.682408e-01 2.802891e-01 3.480637e-01 2.740402e-01 2.858927e-01 2.392519e-01 1.706317e-01
<GCONST> 1.092990e+02
<STATE> 4
<MEAN> 39
 1.315671e+00 -8.552422e+00 4.526012e+00 -4.961174e+00 -6.382521e+00 -3.344281e+00 4.669188e-01 -2.783876e+00 1.010377e+00 -3.428366e+00 2.435464e-02 -4.524277e+00 6.682169e+01 2.610268e-02 -3.809448e-02 5.412833e-02 1.247068e-02 -4.979063e-02 -1.424494e-02 -2.047716e-02 2.348655e-02 -2.017137e-02 -3.123804e-02 -8.595875e-03 -2.472773e-02 5.476702e-02 -4.210651e-03 2.625350e-03 -7.335963e-04 4.001054e-03 1.999065e-03 -4.143950e-03 2.807138e-04 1.796171e-04 2.724641e-03 2.612571e-04 1.716802e-03 1.319243e-03 -3.469441e-03
<VARIANCE> 39
 5.705501e+01 5.526031e+01 6.328207e+01 3.520630e+01 5.513963e+01 3.870608e+01 2.859310e+01 2.988574e+01 3.832142e+01 1.999617e+01 2.064969e+01 3.040808e+01 4.890419e+01 1.981004e+00 2.225834e+00 1.971706e+00 1.551572e+00 1.921920e+00 1.844965e+00 1.955527e+00 1.546124e+00 2.003579e+00 1.380507e+00 1.533237e+00 1.394732e+00 1.342181e+00 2.353652e-01 2.976575e-01 3.039220e-01 2.497611e-01 3.215380e-01 2.851037e-01 3.662713e-01 2.680909e-01 3.472039e-01 2.661824e-01 2.928244e-01 2.317238e-01 1.665788e-01
<GCONST> 1.090671e+02
<TRANSP> 5
 0.000000e+00 1.000000e+00 0.000000e+00 0.000000e+00 0.000000e+00
 0.000000e+00 7.207437e-01 2.792563e-01 0.000000e+00 0.000000e+00
 0.000000e+00 0.000000e+00 7.207438e-01 2.792562e-01 0.000000e+00
 0.000000e+00 0.000000e+00 0.000000e+00 8.397085e-01 1.602915e-01
 0.000000e+00 0.000000e+00 0.000000e+00 0.000000e+00 0.000000e+00
<ENDHMM>
~h "uu"
<BEGINHMM>
<NUMSTATES> 5
<STATE> 2
<MEAN> 39
 2.857067e+00 -7.123161e+00 3.263125e+00 -6.335921e+00 -5.539402e+00 -2.905767e+00 -3.654914e-01 -3.250163e+00 8.979304e-01 -3.273680e+00 -4.535293e-01 -4.926455e+00 6.674860e+01 1.636714e-03 2.631398e-02 4.596518e-02 6.300776e-03 -3.651236e-02 -1.499940e-02 -1.667242e-02 8.409630e-03 -8.191245e-04 -1.853045e-02 1.687920e-02 3.486767e-03 9.450085e-04 -3.618679e-03 2.005945e-04 4.590218e-04 1.974643e-03 3.211214e-04 -1.196967e-03 1.380167e-03 7.273441e-04 7.540338e-04 -1.116530e-04 1.724301e-03 8.455893e-04 -1.927884e-03
<VARIANCE> 39
 5.115701e+01 5.840173e+01 5.354131e+01 4.639533e+01 5.005280e+01 4.531079e+01 3.428601e+01 2.769823e+01 3.629083e+01 2.067876e+01 2.330449e+01 2.827068e+01 4.392173e+01 1.586710e+00 2.209804e+00 1.618317e+00 1.801667e+00 1.651470e+00 2.045907e+00 2.047820e+00 1.679434e+00 1.934889e+00 1.551592e+00 1.469005e+00 1.570515e+00 1.255713e+00 1.874655e-01 2.971413e-01 2.506627e-01 2.651891e-01 2.742426e-01 3.010069e-01 3.566587e-01 3.063922e-01 3.399629e-01 2.915588e-01 2.791494e-01 2.667868e-01 1.495842e-01
<GCONST> 1.087983e+02
<STATE> 3
<MEAN> 39
 2.836028e+00 -7.023652e+00 3.441811e+00 -6.303453e+00 -5.682568e+00 -2.973975e+00 -4.175847e-01 -3.216124e+00 9.007214e-01 -3.340653e+00 -3.751985e-01 -4.906445e+00 6.674076e+01 -1.090363e-02 2.565663e-02 4.777911e-02 1.216395e-02 -3.686510e-02 -1.814495e-02 -1.099405e-02 1.000264e-02 1.636433e-03 -1.906800e-02 2.231600e-02 6.483300e-03 -4.919483e-03 -3.344313e-03 -2.458929e-04 3.900028e-04 1.484980e-03 3.557804e-05 -8.854381e-04 1.478788e-03 7.054424e-04 8.559002e-04 -2.068763e-04 1.605547e-03 8.078417e-04 -1.496934e-03
<VARIANCE> 39
 5.142860e+01 5.842243e+01 5.300940e+01 4.619837e+01 4.963647e+01 4.581506e+01 3.433721e+01 2.740723e+01 3.654754e+01 2.102605e+01 2.296319e+01 2.757707e+01 4.276021e+01 1.593714e+00 2.206992e+00 1.606004e+00 1.770078e+00 1.645525e+00 2.047683e+00 2.051187e+00 1.671845e+00 1.938149e+00 1.558250e+00 1.468125e+00 1.556573e+00 1.231619e+00 1.867192e-01 2.963020e-01 2.483656e-01 2.602319e-01 2.733320e-01 3.003342e-01 3.572454e-01 3.048405e-01 3.397623e-01 2.916152e-01 2.790244e-01 2.656928e-01 1.468282e-01
<GCONST> 1.086225e+02
<STATE> 4
<MEAN> 39
 2.794268e+00 -6.816628e+00 3.693166e+00 -6.295575e+00 -5.911888e+00 -3.083448e+00 -4.886502e-01 -3.165505e+00 9.177489e-01 -3.454015e+00 -2.382173e-01 -4.861698e+00 6.669910e+01 -2.346823e-02 2.307460e-02 5.070366e-02 1.871959e-02 -4.098913e-02 -2.303515e-02 1.211746e-03 1.110879e-02 1.366754e-04 -2.020936e-02 2.799477e-02 1.021764e-02 -1.107958e-02 -2.080294e-03 -6.641251e-04 -1.468963e-04 1.238907e-03 6.785861e-05 -9.593794e-04 2.175820e-03 6.998664e-04 -1.589069e-04 -9.013107e-06 9.072358e-04 4.085903e-04 -1.064306e-03
<VARIANCE> 39
 5.234938e+01 5.840219e+01 5.146421e+01 4.596493e+01 4.869495e+01 4.661717e+01 3.461097e+01 2.694091e+01 3.686333e+01 2.159078e+01 2.242288e+01 2.633211e+01 4.088396e+01 1.609082e+00 2.212245e+00 1.590135e+00 1.725655e+00 1.637150e+00 2.061463e+00 2.069345e+00 1.665096e+00 1.952625e+00 1.574224e+00 1.464652e+00 1.539237e+00 1.200494e+00 1.862434e-01 2.970184e-01 2.453470e-01 2.536826e-01 2.711790e-01 3.014315e-01 3.604228e-01 3.036838e-01 3.430844e-01 2.915071e-01 2.779534e-01 2.651112e-01 1.440004e-01
<GCONST> 1.084227e+02
<TRANSP> 5
 0.000000e+00 1.000000e+00 0.000000e+00 0.000000e+00 0.000000e+00
 0.000000e+00 7.272117e-01 2.727883e-01 0.000000e+00 0.000000e+00
 0.000000e+00 0.000000e+00 7.272107e-01 2.727893e-01 0.000000e+00
 0.000000e+00 0.000000e+00 0.000000e+00 8.474282e-01 1.525718e-01
 0.000000e+00 0.000000e+00 0.000000e+00 0.000000e+00 0.000000e+00
<ENDHMM>
~h "sil"
<BEGINHMM>
<NUMSTATES> 5
<STATE> 2
<MEAN> 39
 -6.120280e+00 -4.249496e+00 6.866950e-01 -1.122758e+00 1.183521e+00 -1.890866e+00 4.603271e+00 -2.775958e+00 2.273182e+00 -2.520593e+00 2.063705e+00 4.929781e-02 5.583002e+01 -7.259315e-02 4.040240e-02 8.651716e-02 9.629633e-02 2.033901e-02 8.034845e-02 3.553325e-02 -5.435266e-02 2.807702e-02 1.756071e-03 7.565336e-02 -3.663560e-02 -4.324694e-02 7.814509e-03 -1.095736e-02 -1.119779e-02 -9.099407e-03 -6.946122e-03 -1.392997e-02 4.566845e-03 -3.842194e-02 -3.067035e-02 -9.755435e-03 -2.351488e-02 2.782048e-02 5.615856e-03
<VARIANCE> 39
 4.380547e+00 5.255906e+00 9.648221e+00 8.351290e+00 9.908287e+00 1.390313e+01 1.374178e+01 1.373166e+01 1.524761e+01 1.385578e+01 1.348620e+01 1.379228e+01 4.368752e+00 1.474240e-01 3.211321e-01 4.702748e-01 6.546249e-01 8.500079e-01 1.101808e+00 1.180379e+00 1.498168e+00 1.534976e+00 1.337326e+00 1.227964e+00 1.056080e+00 8.850925e-02 2.426601e-02 5.771666e-02 8.056986e-02 1.196354e-01 1.531830e-01 2.054375e-01 2.098690e-01 3.030217e-01 3.120534e-01 2.415142e-01 2.299561e-01 1.937936e-01 1.303638e-02
<GCONST> 6.878941e+01
<STATE> 3
<MEAN> 39
 -6.315260e+00 -4.180233e+00 8.795571e-01 -9.236622e-01 1.151736e+00 -1.692584e+00 4.784329e+00 -3.025405e+00 2.254271e+00 -2.566525e+00 2.197974e+00 6.786251e-02 5.570648e+01 -4.553457e-02 4.402455e-03 3.995569e-02 3.699987e-02 -1.965536e-02 3.397178e-02 4.401655e-02 -6.368665e-02 -1.791316e-02 -6.480013e-03 6.760112e-03 1.138683e-02 -2.071775e-02 2.560529e-03 -1.071382e-02 -1.406138e-02 -1.518581e-02 -6.948358e-03 -2.019226e-02 -7.507283e-03 9.407423e-03 -9.549557e-03 -2.106965e-03 -1.889946e-02 7.925936e-03 5.263879e-03
<VARIANCE> 39
 3.140621e+00 4.682472e+00 9.441088e+00 7.919809e+00 1.038720e+01 1.362009e+01 1.387790e+01 1.357575e+01 1.478300e+01 1.255031e+01 1.308708e+01 1.331368e+01 2.960571e+00 1.446027e-01 2.979850e-01 4.668070e-01 6.564714e-01 8.388380e-01 1.055017e+00 1.246267e+00 1.577095e+00 1.612729e+00 1.279462e+00 1.232794e+00 1.082329e+00 7.058361e-02 2.697425e-02 5.841686e-02 9.212339e-02 1.304139e-01 1.668056e-01 2.230768e-01 2.588353e-01 3.388399e-01 3.402795e-01 2.688589e-01 2.637996e-01 2.180490e-01 1.138493e-02
<GCONST> 6.860554e+01
<STATE> 4
<MEAN> 39
 -6.467149e+00 -4.215219e+00 1.006424e+00 -9.317632e-01 1.026096e+00 -1.577274e+00 4.878797e+00 -3.106813e+00 2.190616e+00 -2.563813e+00 2.157499e+00 1.441693e-01 5.564250e+01 -5.332506e-02 -1.119647e-02 2.888709e-02 6.507915e-03 -1.003707e-02 -1.182163e-02 -2.484346e-02 -1.544164e-02 -3.498248e-02 9.650443e-04 -2.822466e-02 1.453351e-02 -1.101213e-02 -6.994779e-03 3.356190e-04 -8.373598e-04 -1.713957e-05 7.206960e-03 -1.611161e-02 -2.458947e-02 2.559766e-03 -1.264061e-02 -8.504041e-03 -5.797862e-03 -6.090078e-04 8.602649e-04
<VARIANCE> 39
 2.434460e+00 4.544644e+00 8.910276e+00 8.041409e+00 1.110780e+01 1.321083e+01 1.544418e+01 1.469012e+01 1.477136e+01 1.286639e+01 1.289815e+01 1.255626e+01 2.129143e+00 1.592298e-01 2.917439e-01 4.650679e-01 6.838218e-01 8.463064e-01 1.067181e+00 1.401148e+00 1.562431e+00 1.618867e+00 1.320921e+00 1.336711e+00 1.132095e+00 5.983967e-02 2.627222e-02 5.443595e-02 8.987132e-02 1.271733e-01 1.603255e-01 2.075085e-01 2.646117e-01 3.016980e-01 3.045703e-01 2.638979e-01 2.696672e-01 2.188241e-01 9.455035e-03
<GCONST> 6.771630e+01
<TRANSP> 5
 0.000000e+00 1.000000e+00 0.000000e+00 0.000000e+00 0.000000e+00
 0.000000e+00 7.283739e-01 2.716261e-01 0.000000e+00 0.000000e+00
 0.000000e+00 0.000000e+00 7.283729e-01 2.716272e-01 0.000000e+00
 0.000000e+00 0.000000e+00 0.000000e+00 8.484890e-01 1.515110e-01
 0.000000e+00 0.000000e+00 0.000000e+00 0.000000e+00 0.000000e+00
<ENDHMM>
~h "txh"
<BEGINHMM>
<NUMSTATES> 5
<STATE> 2
<MEAN> 39
 -4.880935e-02 -1.036342e+01 -9.138319e-01 -4.807491e+00 -1.340611e+00 -1.518162e+00 1.581638e+00 -1.574712e+00 1.890207e+00 -3.960860e+00 2.701398e-01 -4.010446e+00 6.377570e+01 -2.661539e-02 2.959371e-02 9.408749e-04 4.625704e-02 1.741308e-02 -3.395883e-02 1.160172e-02 1.624274e-02 -3.821985e-03 -3.435863e-02 2.167941e-02 5.274851e-02 -4.438181e-02 -7.710714e-04 -1.437064e-04 6.519758e-04 -1.033670e-03 -8.271421e-04 -3.503394e-04 1.571425e-03 -2.209545e-03 -6.884227e-04 2.601177e-03 -6.203838e-04 -1.131864e-03 3.063305e-04
<VARIANCE> 39
 4.676209e+01 6.881570e+01 3.555886e+01 3.474306e+01 2.838803e+01 4.879438e+01 2.617772e+01 3.549663e+01 3.343814e+01 2.092310e+01 1.970184e+01 4.260757e+01 6.703571e+01 8.834975e-01 1.863671e+00 1.170147e+00 1.544990e+00 1.491367e+00 2.309215e+00 1.726968e+00 1.803253e+00 1.976607e+00 1.505207e+00 1.555334e+00 2.181773e+00 1.348962e+00 1.098556e-01 2.581113e-01 2.050017e-01 2.422199e-01 2.732243e-01 3.370441e-01 3.303110e-01 3.310181e-01 3.396052e-01 2.934215e-01 3.100101e-01 4.013851e-01 1.615434e-01
<GCONST> 1.071272e+02
<STATE> 3
<MEAN> 39
 -1.380945e-01 -1.027199e+01 -9.200504e-01 -4.647314e+00 -1.286078e+00 -1.648605e+00 1.632834e+00 -1.525428e+00 1.868240e+00 -4.071172e+00 3.413016e-01 -3.832379e+00 6.363028e+01 -2.520376e-02 2.502027e-02 2.322359e-03 3.918032e-02 1.338623e-02 -3.221191e-02 1.531387e-02 8.679257e-03 -7.414249e-03 -2.411360e-02 1.803396e-02 4.396048e-02 -3.758099e-02 8.594089e-04 -1.948555e-03 3.747129e-04 -2.368054e-03 -1.099471e-03 1.266266e-03 7.117731e-04 -2.169368e-03 -1.269466e-03 3.119507e-03 -6.536318e-04 -3.093017e-03 2.587221e-03
<VARIANCE> 39
 4.672123e+01 6.849986e+01 3.529540e+01 3.330951e+01 2.757534e+01 4.881124e+01 2.604372e+01 3.585439e+01 3.370588e+01 2.125054e+01 1.965475e+01 4.195879e+01 6.669447e+01 9.099093e-01 1.887330e+00 1.180687e+00 1.548570e+00 1.478043e+00 2.315265e+00 1.712303e+00 1.808817e+00 2.010348e+00 1.513058e+00 1.586991e+00 2.164799e+00 1.383539e+00 1.128743e-01 2.599609e-01 2.071307e-01 2.440728e-01 2.708993e-01 3.388250e-01 3.262272e-01 3.328756e-01 3.467391e-01 2.946154e-01 3.172472e-01 3.943547e-01 1.654316e-01
<GCONST> 1.072465e+02
<STATE> 4
<MEAN> 39
 -1.170359e-01 -1.034058e+01 -9.555624e-01 -4.511729e+00 -1.238918e+00 -1.750068e+00 1.653312e+00 -1.486049e+00 1.788315e+00 -4.208286e+00 3.731388e-01 -3.753227e+00 6.364922e+01 -6.860572e-03 2.412972e-03 5.934346e-04 2.390994e-02 6.792579e-03 -2.135737e-02 1.152013e-02 5.591867e-03 -1.699094e-02 -1.577057e-02 1.230430e-02 2.030033e-02 -7.107295e-03 3.151366e-03 -3.870282e-03 3.839757e-04 -2.917533e-03 -1.103619e-03 2.740101e-03 -9.233602e-04 -8.382336e-04 -1.817587e-03 2.088765e-03 -2.816400e-04 -4.636414e-03 5.397460e-03
<VARIANCE> 39
 4.696408e+01 6.907906e+01 3.487939e+01 3.158496e+01 2.659635e+01 4.983216e+01 2.552215e+01 3.650155e+01 3.447721e+01 2.176032e+01 1.944845e+01 4.160881e+01 6.663467e+01 9.888624e-01 1.994936e+00 1.215838e+00 1.588499e+00 1.458834e+00 2.364636e+00 1.683265e+00 1.856289e+00 2.054293e+00 1.535074e+00 1.625025e+00 2.133392e+00 1.485000e+00 1.223172e-01 2.706230e-01 2.145692e-01 2.508843e-01 2.666675e-01 3.463378e-01 3.163746e-01 3.414717e-01 3.568026e-01 2.971795e-01 3.255230e-01 3.812305e-01 1.752921e-01
<GCONST> 1.078014e+02
<TRANSP> 5
 0.000000e+00 1.000000e+00 0.000000e+00 0.000000e+00 0.000000e+00
 0.000000e+00 7.318524e-01 2.681476e-01 0.000000e+00 0.000000e+00
 0.000000e+00 0.000000e+00 7.318524e-01 2.681477e-01 0.000000e+00
 0.000000e+00 0.000000e+00 0.000000e+00 8.525368e-01 1.474632e-01
 0.000000e+00 0.000000e+00 0.000000e+00 0.000000e+00 0.000000e+00
<ENDHMM>
