~o
<STREAMINFO> 1 39
<VECSIZE> 39<NULLD><MFCC_D_A_0><DIAGC>
~s "silst"
<MEAN> 39
 -6.262057e+00 -3.874979e+00 4.069411e+00 -2.682020e+00 -6.637499e-01 1.903469e-02 2.924142e+00 -4.249042e+00 3.295429e+00 -3.837297e+00 2.055434e+00 8.960086e-01 5.695538e+01 -1.356222e-01 -4.640369e-02 3.340530e-02 3.743703e-02 5.983095e-02 1.403892e-01 4.804219e-02 2.727884e-02 1.067815e-02 -2.742379e-02 4.799745e-02 6.098596e-02 -9.516346e-02 2.717968e-02 -9.734630e-03 -3.923107e-03 5.824272e-03 5.037648e-03 -2.243104e-02 8.952567e-03 1.514777e-02 -1.379080e-02 -3.480855e-03 -3.215018e-02 -4.420628e-02 2.993704e-02
<VARIANCE> 39
 3.646141e+00 5.767043e+00 1.443338e+01 1.015043e+01 1.517219e+01 2.170414e+01 1.794574e+01 1.788639e+01 1.714083e+01 1.892757e+01 1.677681e+01 1.549197e+01 1.242074e+00 1.408676e-01 2.412017e-01 5.297553e-01 7.388784e-01 8.598589e-01 1.206311e+00 1.338480e+00 1.297253e+00 1.293262e+00 1.537181e+00 1.381922e+00 1.307372e+00 5.287993e-02 2.198987e-02 4.427370e-02 9.232377e-02 1.445657e-01 1.727307e-01 2.279958e-01 2.645935e-01 2.561458e-01 2.466358e-01 3.158412e-01 2.875124e-01 2.727324e-01 1.068213e-02
<GCONST> 7.063054e+01
~h "a"
<BEGINHMM>
<NUMSTATES> 5
<STATE> 2
<MEAN> 39
 2.163131e+00 -9.032757e+00 -1.342735e-01 -3.848605e+00 -3.297949e+00 -7.143712e+00 8.909054e-02 -5.479969e-01 4.228463e+00 -3.057907e+00 -2.608827e+00 -5.518173e+00 6.565943e+01 -5.715604e-01 1.085025e+00 1.756959e-01 5.392187e-01 4.366595e-01 2.183922e-02 1.905240e-03 -4.124143e-01 2.127919e-01 -2.231529e-01 2.399301e-01 5.365935e-01 -1.030512e+00 -1.223321e-01 -4.990951e-02 -2.138489e-03 -7.458836e-02 5.700682e-02 1.810581e-01 7.201090e-02 1.248951e-02 -6.356493e-02 4.524709e-02 8.753361e-02 7.648534e-03 -1.628764e-02
<VARIANCE> 39
 4.073711e+01 4.186769e+01 3.197740e+01 1.638918e+01 2.167800e+01 2.498336e+01 3.424596e+01 2.717562e+01 2.389714e+01 1.828282e+01 1.829571e+01 2.313266e+01 2.155748e+01 9.146485e-01 2.179428e+00 1.210105e+00 1.378861e+00 1.672349e+00 1.860179e+00 1.852381e+00 2.051941e+00 1.825363e+00 1.671320e+00 1.644296e+00 1.970853e+00 7.088745e-01 1.616669e-01 3.266421e-01 2.200884e-01 2.683290e-01 3.285391e-01 3.450443e-01 4.067068e-01 3.855707e-01 3.814220e-01 3.443400e-01 3.175752e-01 3.553239e-01 1.163487e-01
<GCONST> 1.031652e+02
<STATE> 3
<MEAN> 39
 -2.785516e+00 -5.046437e+00 1.361608e+00 -2.358521e+00 -1.471102e+00 -5.637865e+00 2.474708e+00 -2.091780e+00 3.317776e+00 -2.597545e+00 6.111097e-01 -1.455333e+00 6.076160e+01 -6.525881e-01 2.128636e-01 9.636441e-02 1.634051e-01 4.585559e-01 5.359083e-01 2.045671e-01 -7.932615e-02 1.291429e-01 5.283585e-02 3.080237e-01 2.605447e-01 -5.905924e-01 1.428761e-01 -1.963206e-01 -4.570110e-02 -2.087576e-01 -1.161530e-01 2.601654e-02 -7.212167e-02 -3.528834e-02 -7.690001e-02 -9.167836e-03 -1.213442e-01 -2.379522e-01 2.446798e-01
<VARIANCE> 39
 2.746348e+01 2.261655e+01 2.377342e+01 1.782785e+01 1.981879e+01 2.537512e+01 2.215401e+01 2.637257e+01 2.239110e+01 1.897780e+01 2.047572e+01 1.872772e+01 1.506830e+01 1.034984e+00 1.650694e+00 1.041496e+00 1.206172e+00 1.440444e+00 1.432518e+00 2.107605e+00 1.840389e+00 1.818434e+00 1.565975e+00 1.364082e+00 1.473144e+00 5.704666e-01 1.687444e-01 2.840976e-01 1.873686e-01 2.468138e-01 2.805157e-01 3.058855e-01 3.140145e-01 3.847949e-01 3.658069e-01 3.633417e-01 3.310924e-01 2.925726e-01 1.061687e-01
<GCONST> 9.821343e+01
<STATE> 4
<MEAN> 39
 -1.870542e+00 -4.046378e+00 2.424297e+00 -2.059108e+00 -1.080937e+00 -5.270178e+00 1.336461e+00 -2.953615e+00 3.131820e+00 -3.599806e+00 -7.618441e-01 -3.293190e+00 6.163800e+01 3.099825e-02 -4.896459e-01 -7.740282e-02 -4.910892e-01 7.291737e-02 4.323920e-01 -3.439593e-01 -3.209109e-01 -8.147300e-02 1.340088e-01 4.196434e-02 -5.577191e-01 4.899538e-01 2.235642e-01 -3.790644e-01 -8.592137e-02 -3.610474e-01 -1.910749e-01 1.264224e-01 -1.520032e-01 9.134318e-03 -8.900942e-02 1.248424e-01 -4.641079e-02 -2.202294e-01 3.772474e-01
<VARIANCE> 39
 3.861665e+01 2.410267e+01 2.494918e+01 1.319882e+01 1.908297e+01 2.029502e+01 2.821831e+01 2.139669e+01 2.031754e+01 1.701473e+01 2.006985e+01 2.288542e+01 2.102205e+01 3.506899e+00 3.695477e+00 1.390411e+00 2.073845e+00 1.938537e+00 2.451345e+00 2.818613e+00 1.689423e+00 2.185973e+00 1.799490e+00 1.743276e+00 2.096009e+00 1.837894e+00 3.928147e-01 4.046802e-01 2.883731e-01 3.319935e-01 3.793118e-01 3.825900e-01 3.592482e-01 3.077558e-01 3.537195e-01 3.021559e-01 2.850730e-01 4.957687e-01 2.224741e-01
<GCONST> 1.076942e+02
<TRANSP> 5
 0.000000e+00 1.000000e+00 0.000000e+00 0.000000e+00 0.000000e+00
 0.000000e+00 5.979636e-01 4.020364e-01 0.000000e+00 0.000000e+00
 0.000000e+00 0.000000e+00 4.344207e-01 5.655793e-01 0.000000e+00
 0.000000e+00 0.000000e+00 0.000000e+00 3.051103e-01 6.948897e-01
 0.000000e+00 0.000000e+00 0.000000e+00 0.000000e+00 0.000000e+00
<ENDHMM>
~h "c"
<BEGINHMM>
<NUMSTATES> 5
<STATE> 2
<MEAN> 39
 4.707703e+00 -8.112335e+00 -7.724733e+00 -6.396585e+00 1.943415e-01 -3.091855e+00 2.370159e+00 -7.387007e-01 4.164292e+00 -1.468130e+00 -1.784622e+00 -8.917369e+00 6.435717e+01 -1.375577e+00 1.310477e-01 -6.728163e-01 -4.789613e-01 -2.695265e-01 1.287531e-01 1.010488e+00 -9.631073e-02 6.068981e-01 4.781239e-02 3.286138e-01 7.420058e-01 -9.442247e-01 -2.098854e-01 -3.702591e-01 2.996290e-01 -2.609859e-01 -2.570071e-01 -4.198711e-01 -1.409692e-01 1.342146e-01 -1.422399e-01 4.952530e-02 -5.946250e-02 2.780696e-01 4.659845e-01
<VARIANCE> 39
 6.856948e+00 7.596376e+00 1.256971e+01 1.131919e+01 1.358292e+01 2.117264e+01 1.657811e+01 1.648135e+01 1.684336e+01 1.524206e+01 1.960159e+01 1.635203e+01 6.985863e+00 3.825614e-01 9.008015e-01 1.366179e+00 1.297008e+00 1.449811e+00 2.755821e+00 2.364712e+00 1.695006e+00 1.710175e+00 1.967986e+00 1.683500e+00 2.234447e+00 8.379287e-01 7.179884e-02 2.068139e-01 2.504683e-01 3.529189e-01 3.114914e-01 3.760220e-01 4.476252e-01 4.627422e-01 4.202957e-01 4.621381e-01 3.242438e-01 4.192258e-01 6.070631e-02
<GCONST> 9.297288e+01
<STATE> 3
<MEAN> 39
 -4.311759e+00 -8.125872e+00 -5.670768e+00 -7.771358e+00 -2.009339e+00 -7.171340e+00 5.470777e+00 -2.642853e+00 4.029222e+00 -1.538548e+00 -1.377755e+00 -2.474540e+00 6.537395e+01 -1.835794e+00 3.154656e-01 7.702821e-01 -1.145629e-01 2.095097e-01 -6.935066e-01 3.886929e-01 -1.522698e-01 -6.502804e-01 -2.481115e-01 1.155266e-02 7.264779e-01 4.948683e-01 5.937450e-02 1.310742e-01 5.417071e-02 7.651825e-02 1.711793e-01 8.742022e-02 -6.377514e-02 2.159109e-01 -5.183265e-02 2.675093e-02 1.327917e-03 -2.564320e-01 -6.341600e-02
<VARIANCE> 39
 1.624107e+01 1.805693e+01 1.014898e+01 1.249830e+01 1.410464e+01 1.833967e+01 1.345012e+01 1.986410e+01 1.354877e+01 1.119020e+01 8.716345e+00 1.297558e+01 1.584348e+01 1.126145e+00 1.549447e+00 1.000752e+00 1.447230e+00 1.387989e+00 1.867939e+00 1.720994e+00 2.063635e+00 1.231508e+00 1.498870e+00 8.795756e-01 1.918770e+00 1.295313e+00 1.754959e-01 3.497896e-01 1.864430e-01 2.586206e-01 3.022965e-01 3.974308e-01 3.090495e-01 3.341276e-01 2.733154e-01 3.286424e-01 1.632696e-01 3.215770e-01 2.149759e-01
<GCONST> 9.329314e+01
<STATE> 4
<MEAN> 39
 -1.086452e+01 -6.973797e+00 -5.315819e-01 -8.662642e+00 1.836548e+00 -7.629189e+00 4.082436e+00 1.831154e+00 1.493145e+00 -2.152734e+00 9.327023e-01 -1.983359e+00 6.492999e+01 -1.458431e-01 1.680035e-01 6.026022e-01 3.172426e-01 3.381730e-01 1.436381e-01 -3.686557e-01 3.621596e-01 6.266537e-02 -1.170371e-01 1.857183e-01 -1.051089e-01 -5.036067e-01 4.229087e-01 7.095615e-02 -1.309568e-01 1.452428e-01 -4.642807e-02 1.591653e-01 -8.870250e-02 -1.718964e-01 7.858561e-02 5.360427e-02 -5.037893e-02 -6.213763e-02 -2.042774e-01
<VARIANCE> 39
 7.861148e+00 9.176247e+00 1.570583e+01 1.536795e+01 1.859414e+01 1.783887e+01 2.064489e+01 2.395823e+01 1.349263e+01 2.232119e+01 1.643212e+01 2.001142e+01 4.143953e+00 2.166903e+00 1.210973e+00 7.184153e-01 1.020565e+00 1.408351e+00 1.814446e+00 1.722691e+00 2.175467e+00 1.501956e+00 2.277232e+00 1.233972e+00 1.751919e+00 4.093128e-01 1.535834e-01 2.564913e-01 1.359617e-01 1.880063e-01 3.014604e-01 4.023312e-01 3.164530e-01 4.343312e-01 3.263475e-01 4.834664e-01 2.414418e-01 4.433144e-01 5.777042e-02
<GCONST> 9.246866e+01
<TRANSP> 5
 0.000000e+00 1.000000e+00 0.000000e+00 0.000000e+00 0.000000e+00
 0.000000e+00 8.149967e-01 1.850034e-01 0.000000e+00 0.000000e+00
 0.000000e+00 0.000000e+00 7.827104e-01 2.172897e-01 0.000000e+00
 0.000000e+00 0.000000e+00 0.000000e+00 8.134795e-01 1.865205e-01
 0.000000e+00 0.000000e+00 0.000000e+00 0.000000e+00 0.000000e+00
<ENDHMM>
~h "d"
<BEGINHMM>
<NUMSTATES> 5
<STATE> 2
<MEAN> 39
 -1.261892e-01 -2.789400e+00 4.358340e+00 -2.433064e+00 -4.799137e-01 -4.349749e+00 1.692366e+00 -3.897643e+00 -6.111418e-01 -6.349483e+00 -2.492795e+00 -4.925979e+00 6.147222e+01 9.329088e-01 -1.510708e+00 7.966287e-01 -1.430939e+00 -1.064822e+00 -2.118707e-01 -1.214287e+00 -4.487478e-02 -1.771518e-01 -2.528363e-02 -1.706244e-01 -7.633948e-01 2.205601e+00 3.600594e-01 -1.604564e-01 -2.426018e-02 -4.637295e-01 -3.994532e-01 5.449222e-02 -4.691463e-01 -2.391647e-01 -7.414570e-02 5.918627e-01 4.175219e-01 -1.325231e-01 4.189235e-01
<VARIANCE> 39
 2.393429e+01 7.073558e+01 1.299440e+01 2.865114e+01 1.177487e+01 1.135297e+01 1.230052e+01 1.665050e+01 1.479775e+01 1.377304e+01 1.786899e+01 1.671344e+01 2.895668e+01 2.630457e+00 6.843469e+00 1.242022e+00 3.983697e+00 2.119834e+00 1.528689e+00 2.310235e+00 2.112048e+00 1.697504e+00 2.886247e+00 2.458449e+00 2.415303e+00 3.208730e+00 4.956493e-01 1.151664e+00 2.560756e-01 4.288264e-01 3.457340e-01 3.640107e-01 3.777150e-01 4.625011e-01 3.536039e-01 5.280730e-01 4.033787e-01 4.135315e-01 4.597107e-01
<GCONST> 1.105843e+02
<STATE> 3
<MEAN> 39
 5.436201e+00 -1.106393e+01 6.361840e+00 -1.197946e+01 -8.010148e+00 -5.823363e+00 -7.812108e+00 -6.169899e+00 -3.489639e-01 -6.273538e-01 1.902290e+00 -8.298890e+00 7.314473e+01 2.477398e+00 -5.007229e-01 5.752127e-02 -2.600359e+00 -2.498041e+00 1.477597e+00 -2.703141e+00 -1.760082e+00 -1.319034e+00 2.896981e+00 2.403771e+00 -1.636157e+00 2.230010e+00 -1.753983e-01 9.871731e-01 -3.444978e-01 2.668197e-01 3.383124e-01 8.663409e-01 7.816901e-01 -2.731854e-01 -4.941446e-01 1.214373e-01 2.313638e-01 1.884318e-01 -1.016175e+00
<VARIANCE> 39
 8.695996e+00 7.914488e+00 9.352692e+00 1.298147e+01 9.869603e+00 1.456072e+01 1.530885e+01 1.449993e+01 7.941429e+00 1.233827e+01 1.235641e+01 8.544583e+00 6.662612e+00 1.153777e+00 3.342351e+00 1.195414e+00 2.057586e+00 8.871962e-01 2.454597e+00 1.178888e+00 1.741768e+00 1.429325e+00 1.668911e+00 1.311911e+00 1.313140e+00 1.361830e+00 2.742745e-01 3.126499e-01 1.744640e-01 2.502877e-01 2.280621e-01 3.560295e-01 3.296454e-01 2.621948e-01 2.569651e-01 3.988434e-01 2.796456e-01 3.326690e-01 9.727386e-02
<GCONST> 9.015884e+01
<STATE> 4
<MEAN> 39
 8.042364e+00 -1.176174e+01 5.795946e+00 -1.741305e+01 -1.135452e+01 1.333361e+00 -9.243528e+00 -8.456240e+00 -5.637438e+00 4.554164e+00 7.669163e+00 -1.024652e+01 7.483228e+01 7.159480e-01 7.292477e-01 -7.939060e-01 -2.180081e+00 -6.843945e-01 2.485659e+00 5.908308e-01 -1.362414e+00 -1.685100e+00 1.295117e+00 1.264392e+00 1.467881e-01 8.724961e-02 -4.963020e-01 4.876096e-01 -2.709759e-01 3.236487e-01 6.524521e-01 -1.398451e-01 9.531985e-01 2.039164e-01 2.666931e-01 -9.354694e-01 -7.234120e-01 7.399544e-01 -6.540447e-01
<VARIANCE> 39
 1.473431e+00 4.767070e+00 5.657984e+00 9.602581e+00 6.470238e+00 1.331635e+01 5.067165e+00 9.064155e+00 1.046775e+01 1.100850e+01 8.336006e+00 5.113925e+00 2.590908e+00 4.570493e-01 7.403536e-01 6.489711e-01 5.986976e-01 9.623083e-01 1.237727e+00 1.273208e+00 7.883513e-01 9.446892e-01 1.937758e+00 1.261001e+00 1.198077e+00 4.459124e-01 1.052123e-01 1.881985e-01 1.310456e-01 1.093221e-01 1.130571e-01 3.070652e-01 1.777712e-01 2.278341e-01 2.074209e-01 1.792229e-01 1.446295e-01 1.460261e-01 9.796754e-02
<GCONST> 6.950826e+01
<TRANSP> 5
 0.000000e+00 1.000000e+00 0.000000e+00 0.000000e+00 0.000000e+00
 0.000000e+00 8.039195e-01 1.960805e-01 0.000000e+00 0.000000e+00
 0.000000e+00 0.000000e+00 4.559713e-01 5.440287e-01 0.000000e+00
 0.000000e+00 0.000000e+00 0.000000e+00 5.945652e-01 4.054348e-01
 0.000000e+00 0.000000e+00 0.000000e+00 0.000000e+00 0.000000e+00
<ENDHMM>
~h "h"
<BEGINHMM>
<NUMSTATES> 5
<STATE> 2
<MEAN> 39
 -5.292401e+00 -6.419456e+00 2.254186e-01 -5.498599e+00 -1.076752e+00 -8.984618e+00 4.886678e+00 -1.729064e+00 2.444423e+00 -1.447346e+00 -3.330009e+00 -6.190797e+00 6.509898e+01 4.734101e+00 -4.873188e-01 -6.036427e-01 -1.445688e+00 -1.490012e+00 7.585000e-01 -1.543963e+00 -1.602276e+00 -9.097576e-01 6.743453e-01 -1.767214e+00 -2.762243e+00 1.634994e+00 4.621139e-01 -7.162604e-01 -1.154240e-01 -5.976672e-01 3.498877e-02 5.430911e-01 -4.441894e-01 1.333563e-01 -7.906350e-02 3.195389e-01 6.123274e-02 -4.250318e-01 8.368785e-01
<VARIANCE> 39
 3.537199e+01 1.086506e+01 1.291350e+01 1.174081e+01 1.353335e+01 1.416123e+01 1.772314e+01 1.419561e+01 1.523099e+01 1.497245e+01 1.958418e+01 2.446161e+01 5.937953e+00 1.249908e+00 2.307999e+00 1.195494e+00 1.670611e+00 1.105007e+00 1.611608e+00 2.100143e+00 1.502999e+00 1.342854e+00 1.767900e+00 1.204220e+00 1.471042e+00 1.654673e+00 7.544466e-01 3.271070e-01 2.262010e-01 1.775821e-01 2.807413e-01 2.974182e-01 2.913220e-01 4.027187e-01 2.713687e-01 2.961062e-01 4.173220e-01 4.659069e-01 1.106011e-01
<GCONST> 9.663350e+01
<STATE> 3
<MEAN> 39
 7.918807e+00 -1.623784e+01 -2.447418e+00 -1.429013e+01 -3.609209e+00 -8.996089e-01 -9.123883e-01 -2.832144e+00 7.221133e-01 3.413609e+00 -5.926835e+00 -1.542419e+01 7.521952e+01 1.225099e+00 -1.404734e+00 -5.982031e-01 -1.087914e+00 1.432970e-01 1.833154e+00 6.018560e-02 6.475201e-01 -3.728509e-01 1.481213e-01 -4.918677e-01 -9.022437e-01 1.003953e+00 -8.228372e-01 6.129304e-01 7.304490e-02 6.264152e-01 3.527730e-01 -2.575074e-01 6.564524e-01 2.525843e-01 4.810305e-02 -4.021436e-01 1.016017e-01 7.102153e-01 -6.867457e-01
<VARIANCE> 39
 2.018682e+00 2.639609e+01 1.330125e+01 1.076574e+01 7.650959e+00 2.607778e+01 1.182584e+01 1.384205e+01 9.134706e+00 1.574360e+01 8.507760e+00 9.727737e+00 5.918554e+00 2.476040e+00 3.504827e+00 9.770485e-01 2.100384e+00 1.085123e+00 1.564924e+00 2.396981e+00 1.002935e+00 9.789968e-01 1.829716e+00 8.765643e-01 2.509617e+00 2.373842e+00 3.737254e-01 4.600250e-01 2.248709e-01 1.932737e-01 1.865523e-01 3.917887e-01 2.161440e-01 3.695084e-01 2.058425e-01 2.371215e-01 1.818298e-01 1.636603e-01 9.525609e-02
<GCONST> 8.977006e+01
<STATE> 4
<MEAN> 39
 6.885519e+00 -1.084450e+01 -2.510017e+00 -7.743183e+00 1.396922e+00 1.084535e+00 7.185240e+00 -7.020445e-01 -7.439499e-01 -1.074888e+00 -8.498727e+00 -1.095527e+01 6.986878e+01 -2.591067e-01 7.581962e-01 2.188028e-01 1.058060e+00 6.842982e-01 -2.258163e-01 5.057819e-01 -2.817369e-01 -2.641217e-01 -5.400752e-01 -4.942979e-02 7.313433e-01 -7.065508e-01 8.190148e-02 -2.478042e-01 -9.480882e-02 -3.292616e-01 -9.912284e-02 8.392226e-03 -3.542013e-01 -1.064007e-01 -1.079751e-01 6.828029e-02 1.229756e-01 -1.505146e-01 2.374215e-01
<VARIANCE> 39
 3.592858e+00 1.465991e+01 7.353899e+00 2.536695e+01 1.384079e+01 1.296071e+01 1.567024e+01 1.446785e+01 9.879817e+00 1.368170e+01 1.512494e+01 1.569963e+01 9.229414e+00 3.913798e-01 1.438961e+00 8.955154e-01 2.447621e+00 1.202273e+00 9.161243e-01 2.567960e+00 1.427929e+00 1.277841e+00 1.016995e+00 1.465846e+00 1.145401e+00 7.629356e-01 1.079504e-01 2.454237e-01 2.555117e-01 5.803738e-01 2.379565e-01 2.349288e-01 2.728086e-01 2.775371e-01 2.713146e-01 1.709512e-01 2.928720e-01 2.076577e-01 1.450700e-01
<GCONST> 8.739267e+01
<TRANSP> 5
 0.000000e+00 1.000000e+00 0.000000e+00 0.000000e+00 0.000000e+00
 0.000000e+00 6.324932e-01 3.675068e-01 0.000000e+00 0.000000e+00
 0.000000e+00 0.000000e+00 7.958441e-01 2.041559e-01 0.000000e+00
 0.000000e+00 0.000000e+00 0.000000e+00 8.664014e-01 1.335986e-01
 0.000000e+00 0.000000e+00 0.000000e+00 0.000000e+00 0.000000e+00
<ENDHMM>
~h "k"
<BEGINHMM>
<NUMSTATES> 5
<STATE> 2
<MEAN> 39
 5.447717e+00 -7.084463e+00 1.584419e+01 -5.862937e+00 -1.867861e+01 -1.275698e+01 1.724225e-01 -5.290365e+00 -1.018604e+01 2.176792e+00 2.889004e+00 -9.820741e+00 6.977502e+01 -6.094958e-01 1.949527e+00 -4.039921e-01 1.180362e+00 1.109871e+00 2.289496e-01 3.284090e-01 -1.106471e+00 5.501103e-01 -5.048442e-01 1.991338e-02 4.009116e-01 -1.709228e+00 -2.642709e-01 -4.811921e-02 -5.860432e-02 1.139059e-01 9.762640e-02 1.715938e-01 -1.869818e-01 -1.805477e-01 2.836094e-01 -2.037902e-01 2.439704e-01 5.658503e-01 -2.199459e-01
<VARIANCE> 39
 2.214227e+00 1.909286e+01 6.325562e+00 1.125134e+01 1.108453e+01 8.914742e+00 9.024504e+00 1.192525e+01 1.408393e+01 1.053270e+01 1.495005e+01 6.494855e+00 1.003098e+01 3.446678e-01 5.888996e-01 5.323303e-01 1.288418e+00 9.962019e-01 1.027179e+00 1.138598e+00 1.309062e+00 1.483212e+00 1.034401e+00 1.064571e+00 1.620609e+00 4.291053e-01 3.539079e-02 2.611729e-01 1.492226e-01 2.631627e-01 2.211465e-01 2.318840e-01 2.595199e-01 2.212828e-01 2.587754e-01 2.655532e-01 2.246334e-01 1.758353e-01 6.262908e-02
<GCONST> 7.698840e+01
<STATE> 3
<MEAN> 39
 -6.538311e-01 -2.114011e+00 1.061697e+01 -1.985107e+00 -1.304548e+01 -1.133855e+01 -9.100531e-01 -1.067745e+01 -4.877676e+00 6.633321e-01 6.682536e+00 -1.109358e+00 6.073442e+01 -8.262540e-01 -6.095116e-02 -1.262284e+00 -2.401803e-02 7.724743e-01 1.285213e-01 -2.410466e-01 -1.637541e-01 9.798563e-01 1.692597e-01 5.922205e-01 1.349593e+00 -8.944174e-01 1.991624e-01 -4.569050e-01 -1.628788e-01 -1.716357e-01 6.567227e-02 3.824077e-02 7.529813e-02 3.505165e-01 -3.541056e-02 1.185460e-01 -3.145386e-01 -3.481604e-01 4.209658e-01
<VARIANCE> 39
 4.148509e+00 5.731999e+00 2.013816e+01 8.622806e+00 1.538088e+01 1.210399e+01 1.414838e+01 1.336723e+01 1.620545e+01 1.257695e+01 2.566050e+01 2.039508e+01 4.780285e+00 4.506823e-01 6.225165e-01 7.275105e-01 1.217227e+00 1.375471e+00 1.427438e+00 1.388178e+00 1.274377e+00 1.246488e+00 1.162324e+00 2.506918e+00 2.161024e+00 4.397724e-01 6.048487e-02 2.733704e-01 2.386808e-01 3.139820e-01 3.572438e-01 2.928886e-01 2.915848e-01 2.356042e-01 2.770280e-01 2.548983e-01 4.948576e-01 4.485620e-01 7.029615e-02
<GCONST> 8.626614e+01
<STATE> 4
<MEAN> 39
 -1.824718e+00 -1.046433e+01 1.837796e+00 -3.350795e+00 -7.238237e+00 -8.796912e+00 -4.396784e-01 -7.307493e+00 -2.290721e-01 2.146414e+00 3.769960e+00 -1.105171e+00 6.340253e+01 1.223357e-01 -1.571425e+00 -1.333479e+00 9.839006e-02 1.324719e+00 1.012582e-01 1.889911e-01 1.098719e+00 5.927913e-01 -7.431809e-03 -1.160628e+00 -8.998532e-01 9.586113e-01 -9.828302e-02 6.854610e-01 5.242433e-01 1.654868e-01 -1.255010e-01 -7.457816e-02 2.381165e-02 -1.683939e-01 -9.248992e-02 -2.991783e-01 1.303584e-01 8.896452e-02 -3.457206e-01
<VARIANCE> 39
 7.196245e+00 5.537143e+01 4.629007e+01 1.438355e+01 2.587842e+01 2.699884e+01 1.515625e+01 2.260590e+01 2.737100e+01 3.262906e+01 2.609422e+01 2.442850e+01 2.176956e+01 1.235153e+00 9.083030e+00 5.594465e+00 1.542001e+00 2.366736e+00 2.208153e+00 1.626180e+00 1.631830e+00 2.136095e+00 3.585736e+00 2.328284e+00 2.473032e+00 2.753786e+00 2.116805e-01 1.646462e+00 8.767679e-01 2.800269e-01 4.169427e-01 4.344083e-01 3.315334e-01 3.952623e-01 3.651129e-01 7.170345e-01 5.579724e-01 5.817708e-01 7.078044e-01
<GCONST> 1.158757e+02
<TRANSP> 5
 0.000000e+00 1.000000e+00 0.000000e+00 0.000000e+00 0.000000e+00
 0.000000e+00 7.878619e-01 2.121382e-01 0.000000e+00 0.000000e+00
 0.000000e+00 0.000000e+00 8.411035e-01 1.588965e-01 0.000000e+00
 0.000000e+00 0.000000e+00 0.000000e+00 7.917538e-01 2.082462e-01
 0.000000e+00 0.000000e+00 0.000000e+00 0.000000e+00 0.000000e+00
<ENDHMM>
~h "n"
<BEGINHMM>
<NUMSTATES> 5
<STATE> 2
<MEAN> 39
 7.988007e+00 1.413217e+00 3.778589e+00 -3.855639e+00 -6.833206e+00 -6.493661e+00 1.898544e+00 -3.098372e+00 2.296063e+00 -4.686971e+00 -2.911127e+00 -4.532027e+00 6.490827e+01 5.442968e-03 5.000318e-01 -1.807654e-01 1.268425e-01 1.171123e-01 -1.273761e-01 3.598414e-01 -4.564021e-02 2.220122e-02 1.046076e-02 -1.280358e-01 1.829907e-01 -3.283078e-01 -8.607536e-02 -1.838570e-01 1.501183e-01 -5.103057e-02 -3.231773e-02 3.123486e-02 -1.803711e-01 -7.248321e-03 -3.650583e-02 4.354610e-02 9.633750e-02 -4.781691e-02 7.897624e-02
<VARIANCE> 39
 3.190841e+00 1.159543e+01 1.135250e+01 6.800225e+00 2.082800e+01 9.509647e+00 1.663830e+01 9.912030e+00 1.073910e+01 1.342330e+01 9.318782e+00 9.013862e+00 3.764401e+00 1.382654e-01 3.092072e-01 4.576556e-01 4.191086e-01 6.136004e-01 5.974648e-01 8.255551e-01 6.749070e-01 7.473018e-01 6.602958e-01 6.797305e-01 6.069532e-01 1.027352e-01 2.498712e-02 6.804731e-02 6.689008e-02 1.051566e-01 1.036837e-01 1.199142e-01 1.712177e-01 1.467676e-01 1.126284e-01 1.372612e-01 1.207476e-01 1.162084e-01 2.053428e-02
<GCONST> 5.876989e+01
<STATE> 3
<MEAN> 39
 6.356173e+00 2.869303e+00 4.562531e+00 -2.906392e+00 -5.201820e+00 -5.654402e+00 2.159061e+00 -4.458770e+00 2.564028e+00 -3.460451e+00 -3.363313e+00 -4.710341e+00 6.309635e+01 -5.416871e-01 1.451948e-01 4.339152e-01 7.844149e-01 6.331818e-01 5.924923e-02 -9.114704e-02 -1.997310e-01 -2.700462e-02 3.321687e-02 5.066650e-02 1.230320e-01 -4.488109e-01 -2.361996e-01 -2.801222e-01 1.391827e-01 8.580415e-02 1.700477e-01 1.748700e-01 -1.076045e-01 1.752348e-02 -9.613136e-02 -4.768165e-02 2.084112e-01 5.363467e-02 -1.036579e-02
<VARIANCE> 39
 8.141746e+00 1.094067e+01 1.426301e+01 1.333399e+01 1.743820e+01 1.088729e+01 1.618210e+01 1.334144e+01 1.622403e+01 1.141193e+01 1.372049e+01 1.029698e+01 5.483744e+00 3.602800e-01 5.643969e-01 6.023491e-01 9.360008e-01 1.289354e+00 7.967737e-01 8.922433e-01 7.736125e-01 1.145462e+00 1.018680e+00 1.056240e+00 9.783430e-01 2.201287e-01 4.601552e-02 7.835092e-02 1.420625e-01 1.537188e-01 1.751314e-01 1.452565e-01 1.867907e-01 1.701252e-01 2.273811e-01 1.281558e-01 2.000233e-01 1.810338e-01 3.140911e-02
<GCONST> 7.318876e+01
<STATE> 4
<MEAN> 39
 3.564679e+00 2.320797e+00 5.227652e+00 -6.477761e-01 -1.871692e+00 -3.961299e+00 2.486397e+00 -4.734124e+00 1.160429e+00 -4.486392e+00 -2.160663e+00 -4.078907e+00 6.115549e+01 -8.116186e-01 -5.949159e-01 -2.715640e-02 2.952140e-01 3.484844e-01 1.754920e-01 -1.156051e-02 1.286514e-01 -9.532961e-03 -1.079594e-01 3.743238e-01 3.172668e-01 -3.667093e-01 -1.239715e-01 -3.949079e-01 2.988020e-02 -2.659870e-01 -2.652146e-01 -3.056863e-02 -1.251018e-01 1.228239e-01 3.006691e-02 1.636795e-02 1.507243e-01 8.338714e-02 1.518531e-01
<VARIANCE> 39
 1.782465e+01 1.062390e+01 2.025099e+01 1.593055e+01 2.487126e+01 1.794289e+01 1.651289e+01 1.229043e+01 1.267908e+01 1.308285e+01 1.366421e+01 1.145992e+01 9.584850e+00 5.239653e-01 1.004353e+00 9.687992e-01 1.058477e+00 1.453365e+00 1.134112e+00 9.850478e-01 1.392188e+00 1.016044e+00 1.354641e+00 1.110521e+00 1.209815e+00 2.952973e-01 8.299595e-02 1.941030e-01 3.673058e-01 2.212977e-01 3.040491e-01 2.590088e-01 2.676265e-01 2.782103e-01 2.073622e-01 2.209726e-01 1.708455e-01 2.284668e-01 4.622554e-02
<GCONST> 8.495220e+01
<TRANSP> 5
 0.000000e+00 1.000000e+00 0.000000e+00 0.000000e+00 0.000000e+00
 0.000000e+00 7.736595e-01 2.263405e-01 0.000000e+00 0.000000e+00
 0.000000e+00 0.000000e+00 4.396897e-01 5.603103e-01 0.000000e+00
 0.000000e+00 0.000000e+00 0.000000e+00 4.448850e-01 5.551150e-01
 0.000000e+00 0.000000e+00 0.000000e+00 0.000000e+00 0.000000e+00
<ENDHMM>
~h "o"
<BEGINHMM>
<NUMSTATES> 5
<STATE> 2
<MEAN> 39
 9.411501e+00 -7.058456e+00 2.545343e+00 -2.266312e+01 -1.119387e+01 6.502853e+00 -4.409389e+00 -1.210685e+01 -8.209670e+00 3.336873e+00 7.414463e+00 -6.536989e+00 7.310083e+01 3.588864e-01 1.165290e+00 -7.783030e-01 -8.204767e-01 1.382451e-01 8.031338e-01 1.102148e+00 -2.070360e-01 -6.133623e-02 -8.625571e-01 -5.081197e-01 1.219355e+00 -5.766198e-01 -6.254208e-02 -6.314336e-02 4.743560e-02 4.221893e-01 1.338156e-01 -3.843848e-01 -1.022470e-01 3.523881e-01 3.730930e-01 -2.496197e-01 -2.446267e-01 3.460054e-02 -5.002590e-02
<VARIANCE> 39
 1.458889e+00 5.191392e+00 8.455696e+00 1.197429e+01 7.263372e+00 1.248356e+01 8.309167e+00 6.182618e+00 1.089945e+01 1.712031e+01 6.309043e+00 8.315258e+00 3.409250e+00 9.704100e-02 2.160412e-01 3.782743e-01 7.136331e-01 3.912654e-01 8.669752e-01 5.340057e-01 9.804845e-01 9.081345e-01 9.336917e-01 5.665116e-01 5.461007e-01 5.878823e-02 1.726381e-02 3.529058e-02 5.120266e-02 8.151817e-02 9.062815e-02 1.287483e-01 8.697183e-02 1.216808e-01 1.300862e-01 2.445263e-01 1.074130e-01 1.369589e-01 1.259270e-02
<GCONST> 5.218344e+01
<STATE> 3
<MEAN> 39
 1.010934e+01 -2.912736e+00 -1.248204e+00 -2.071302e+01 -7.539721e+00 5.911645e+00 -1.989774e+00 -1.015161e+01 -4.839792e+00 -9.552321e-01 3.630208e+00 -2.123147e+00 7.011706e+01 -1.434324e-01 1.393569e-01 -3.646143e-01 9.595482e-01 1.236429e+00 -5.089331e-01 -6.777875e-01 1.203137e-01 9.722305e-01 1.277592e-01 -4.082034e-01 8.275403e-03 -3.069200e-01 -6.785695e-02 -1.656626e-01 1.609984e-01 2.206993e-01 1.177457e-01 -2.190530e-01 -3.781179e-01 -8.502090e-03 1.215480e-01 2.301343e-01 4.571802e-02 -2.917718e-01 4.621653e-02
<VARIANCE> 39
 1.990908e+00 5.205581e+00 1.201769e+01 1.644862e+01 2.484217e+01 2.062059e+01 1.779600e+01 1.487261e+01 1.525173e+01 1.765285e+01 1.185680e+01 1.026680e+01 3.018426e+00 7.427726e-02 4.052164e-01 3.426894e-01 6.788917e-01 8.484127e-01 1.028755e+00 1.765365e+00 9.931827e-01 1.054901e+00 1.592566e+00 9.483763e-01 1.008501e+00 6.804115e-02 1.410276e-02 3.670071e-02 5.573498e-02 8.203197e-02 1.758768e-01 2.044415e-01 1.425690e-01 2.178582e-01 1.467128e-01 2.197795e-01 2.026717e-01 1.443807e-01 7.552393e-03
<GCONST> 6.426901e+01
<STATE> 4
<MEAN> 39
 8.540852e+00 -2.497509e+00 5.385492e-03 -1.082537e+01 2.568224e-03 -5.309436e-01 -8.568939e+00 -7.806979e+00 2.465045e+00 2.631580e-01 8.237411e-01 -6.048549e+00 6.772041e+01 -1.428434e-01 6.820884e-01 3.421279e-01 1.891124e+00 3.455496e-01 -1.298572e+00 4.851736e-01 8.144414e-01 6.002759e-01 -6.587436e-01 -6.112198e-01 -3.818966e-01 -7.042951e-01 2.874308e-02 1.872719e-01 7.168283e-04 -7.037916e-02 -2.717083e-01 1.230745e-01 5.683306e-01 -2.837486e-02 -2.515334e-01 -1.594043e-01 -5.458014e-02 2.021333e-01 -6.487514e-02
<VARIANCE> 39
 1.835546e+00 1.211876e+01 1.166894e+01 2.647446e+01 1.193781e+01 1.997050e+01 2.940594e+01 1.752192e+01 1.625295e+01 1.742706e+01 1.153949e+01 1.242133e+01 5.364347e+00 1.031407e-01 5.862743e-01 6.073928e-01 1.269771e+00 1.200313e+00 1.131435e+00 4.512200e+00 1.374487e+00 1.665374e+00 1.233909e+00 9.433756e-01 1.318495e+00 1.446527e-01 1.428863e-02 9.053318e-02 8.771116e-02 2.495877e-01 1.540004e-01 2.150631e-01 5.999527e-01 3.009767e-01 2.378803e-01 2.805297e-01 2.002963e-01 2.074335e-01 3.115178e-02
<GCONST> 7.764479e+01
<TRANSP> 5
 0.000000e+00 1.000000e+00 0.000000e+00 0.000000e+00 0.000000e+00
 0.000000e+00 7.751864e-01 2.248136e-01 0.000000e+00 0.000000e+00
 0.000000e+00 0.000000e+00 8.487604e-01 1.512396e-01 0.000000e+00
 0.000000e+00 0.000000e+00 0.000000e+00 8.386198e-01 1.613803e-01
 0.000000e+00 0.000000e+00 0.000000e+00 0.000000e+00 0.000000e+00
<ENDHMM>
~h "p"
<BEGINHMM>
<NUMSTATES> 5
<STATE> 2
<MEAN> 39
 -5.111178e+00 -4.236144e+00 7.017281e-01 -1.125108e+00 -3.095516e-01 -3.011727e+00 4.122578e+00 -3.382015e+00 2.886044e+00 -2.442635e+00 1.865678e+00 7.741946e-01 5.643917e+01 7.922708e-01 -1.097791e+00 -2.253152e-01 -2.853432e-01 -1.043422e+00 -4.980056e-02 5.152931e-01 -1.690408e-01 -1.140524e-01 2.527676e-01 -3.944569e-01 -3.222238e-01 1.303735e+00 9.715426e-01 -4.517438e-01 -5.660562e-01 -1.001765e+00 -3.864419e-01 2.923526e-01 6.549031e-02 6.818209e-02 -5.744260e-01 -1.270005e-01 -9.899055e-02 -7.475892e-01 9.922332e-01
<VARIANCE> 39
 3.086710e+00 7.382447e+00 1.150283e+01 7.618450e+00 1.551627e+01 1.394713e+01 1.574667e+01 1.136952e+01 1.222446e+01 1.037425e+01 1.453673e+01 1.561011e+01 3.895323e+00 1.269148e+00 1.337925e+00 1.324383e+00 1.826565e+00 1.802900e+00 1.336257e+00 1.601120e+00 1.614597e+00 1.399803e+00 1.228880e+00 1.840661e+00 1.668622e+00 1.209491e+00 1.439833e-01 1.717363e-01 2.147643e-01 4.065516e-01 2.633892e-01 3.221420e-01 3.650971e-01 2.605241e-01 4.010401e-01 2.273674e-01 3.289497e-01 3.633277e-01 1.194608e-01
<GCONST> 8.896354e+01
<STATE> 3
<MEAN> 39
 2.880365e+00 -8.781013e+00 -3.971716e+00 -7.299027e+00 -5.587629e+00 -1.624028e+00 5.694302e+00 -4.296930e+00 -4.661050e-01 -2.434967e+00 2.211567e-01 -4.503092e+00 6.520977e+01 3.881510e+00 -2.159786e+00 -2.229890e+00 -4.396843e+00 -9.369817e-01 1.890653e+00 3.907821e-01 8.418242e-01 -3.058114e+00 -2.336944e-01 5.915232e-01 -2.887856e+00 4.141563e+00 -5.313724e-02 -3.366147e-01 2.605233e-02 -4.728976e-01 5.225511e-01 3.433367e-01 -2.180654e-01 4.854423e-01 -3.423247e-01 5.600015e-02 2.523832e-01 -1.973084e-01 1.839909e-01
<VARIANCE> 39
 3.122643e+01 2.043820e+01 2.718749e+01 4.459353e+01 1.407656e+01 2.033519e+01 1.229658e+01 1.702950e+01 2.757632e+01 1.355397e+01 1.350938e+01 1.938294e+01 2.099199e+01 5.901361e-01 1.646910e+00 1.705054e+00 2.087713e+00 2.422113e+00 1.985161e+00 2.248283e+00 1.764804e+00 1.550694e+00 1.555894e+00 1.642349e+00 1.655393e+00 9.003800e-01 6.983014e-01 3.324843e-01 4.169991e-01 9.676571e-01 2.983625e-01 4.095591e-01 3.415892e-01 3.202837e-01 5.554804e-01 3.224269e-01 2.688681e-01 4.007097e-01 4.257624e-01
<GCONST> 1.052542e+02
<STATE> 4
<MEAN> 39
 9.969389e+00 -1.797228e+01 -7.906125e+00 -1.850055e+01 -4.610950e+00 3.786755e+00 6.414481e+00 3.493404e-01 -9.627736e+00 -1.499498e+00 2.258375e+00 -1.186843e+01 7.601341e+01 3.473076e-01 -1.995507e+00 -4.455936e-01 -1.126680e+00 7.084148e-01 8.259864e-01 -1.832530e-01 6.586969e-01 -8.408873e-01 3.785313e-01 -3.405126e-01 -1.095772e+00 1.649153e+00 -7.849435e-01 4.509141e-01 3.265153e-01 1.072007e+00 1.842821e-01 -4.370736e-01 -9.694139e-02 -3.387210e-01 7.796195e-01 1.403580e-02 -3.430491e-01 5.070081e-01 -7.954132e-01
<VARIANCE> 39
 2.042288e+00 9.787685e+00 1.305108e+01 1.745463e+01 1.403091e+01 1.121333e+01 1.587308e+01 1.265263e+01 1.569952e+01 7.469448e+00 9.677187e+00 4.809875e+00 2.745643e+00 1.311864e+00 2.154060e+00 8.310465e-01 4.529605e+00 8.583838e-01 1.384974e+00 1.136800e+00 1.344547e+00 2.146006e+00 7.815778e-01 9.741018e-01 1.059684e+00 2.140295e+00 2.710876e-01 1.803931e-01 2.113145e-01 4.983578e-01 2.130883e-01 2.073776e-01 2.042167e-01 2.001425e-01 2.617459e-01 1.843014e-01 1.488210e-01 1.942299e-01 2.130273e-01
<GCONST> 8.464118e+01
<TRANSP> 5
 0.000000e+00 1.000000e+00 0.000000e+00 0.000000e+00 0.000000e+00
 0.000000e+00 6.228837e-01 3.771163e-01 0.000000e+00 0.000000e+00
 0.000000e+00 0.000000e+00 6.196908e-01 3.803092e-01 0.000000e+00
 0.000000e+00 0.000000e+00 0.000000e+00 7.051438e-01 2.948563e-01
 0.000000e+00 0.000000e+00 0.000000e+00 0.000000e+00 0.000000e+00
<ENDHMM>
~h "r"
<BEGINHMM>
<NUMSTATES> 5
<STATE> 2
<MEAN> 39
 -1.042799e+01 -9.019639e+00 8.282674e+00 -7.809683e+00 -4.790401e+00 -1.962228e+00 -9.547168e-01 -1.640523e+00 5.553408e+00 -4.387490e+00 1.273056e+00 -3.542933e+00 6.705415e+01 2.687189e+00 -1.158810e+00 -2.749347e-01 3.810896e-01 -1.808312e+00 -1.650765e+00 -4.912768e-01 2.703761e-01 8.527542e-02 -1.369781e-01 -6.087323e-01 -9.614823e-01 1.460186e+00 1.221159e+00 -4.959228e-01 -3.819690e-01 -3.350569e-02 -2.221498e-01 -2.815641e-01 -1.628960e-01 2.090818e-01 -2.221679e-01 1.443906e-01 -1.757917e-01 -3.594078e-01 2.289081e-01
<VARIANCE> 39
 4.207460e+01 9.152319e+00 1.122577e+01 1.099178e+01 3.433181e+01 3.736869e+01 1.545188e+01 1.854799e+01 1.470103e+01 1.709347e+01 2.270195e+01 2.157134e+01 6.192149e+00 1.011846e+01 1.570094e+00 2.051433e+00 1.329084e+00 2.556642e+00 4.138963e+00 2.417494e+00 2.213110e+00 1.747502e+00 1.604131e+00 2.005436e+00 1.835138e+00 1.217512e+00 1.233086e+00 2.811801e-01 2.462106e-01 3.956161e-01 6.796288e-01 9.829850e-01 4.343799e-01 4.246428e-01 2.800960e-01 3.537529e-01 3.923952e-01 2.786348e-01 2.202126e-01
<GCONST> 1.076200e+02
<STATE> 3
<MEAN> 39
 6.824533e+00 -2.051128e+01 4.357554e+00 -9.451759e+00 -1.125839e+01 -7.484123e+00 -4.816310e+00 3.051531e+00 4.291227e+00 -2.450016e+00 -1.672193e+00 -1.137403e+01 7.698419e+01 1.516846e+00 -2.492364e+00 -1.361430e+00 -1.138703e+00 7.110206e-01 1.023799e+00 3.985256e-03 1.275180e+00 -1.845820e-01 9.732586e-01 -8.716797e-01 -2.077563e+00 1.428505e+00 -1.034900e+00 4.380488e-01 -1.730908e-01 -7.007433e-02 6.660542e-01 7.732340e-01 4.780760e-01 -2.394837e-01 9.329740e-03 -2.714691e-02 -4.517586e-02 1.836582e-01 -5.731942e-01
<VARIANCE> 39
 2.867011e+00 1.415222e+01 1.811127e+01 1.110316e+01 1.511252e+01 1.500056e+01 1.033293e+01 1.060066e+01 8.775066e+00 9.444407e+00 8.328991e+00 1.582353e+01 3.209431e+00 2.960085e+00 1.402845e+00 7.720039e-01 7.756736e-01 1.781860e+00 2.501775e+00 1.345842e+00 9.907966e-01 5.624889e-01 1.245388e+00 9.512621e-01 7.397158e-01 1.535731e+00 3.104018e-01 2.290964e-01 1.577760e-01 2.698591e-01 3.116331e-01 4.398105e-01 1.848008e-01 2.955809e-01 1.057295e-01 3.152106e-01 1.301989e-01 2.015792e-01 7.880505e-02
<GCONST> 8.340662e+01
<STATE> 4
<MEAN> 39
 8.212267e+00 -2.335501e+01 -4.552926e+00 -1.089240e+01 -3.550752e+00 2.206126e-01 5.437988e-02 3.832950e+00 1.227705e+00 -1.164856e+00 -7.037388e+00 -1.569728e+01 7.646691e+01 9.711988e-02 2.466445e-01 -3.728881e-01 2.640141e-01 1.773092e-01 -1.145854e-01 1.301668e-01 1.741550e-02 1.352410e-02 9.189527e-03 -1.469811e-01 9.054609e-02 -2.546177e-01 -5.397432e-03 1.694042e-01 1.365350e-01 1.117616e-01 -1.343217e-01 -2.282510e-01 -1.453169e-01 -7.328704e-02 1.373189e-01 -4.167664e-02 1.223127e-01 1.857354e-01 -7.187385e-02
<VARIANCE> 39
 3.061565e+00 9.263841e+00 1.523742e+01 1.042494e+01 1.739353e+01 1.874742e+01 8.821625e+00 9.961471e+00 1.289628e+01 8.402506e+00 1.007592e+01 7.855628e+00 4.094245e+00 8.650585e-02 3.951179e-01 7.168262e-01 4.280163e-01 1.017940e+00 1.617995e+00 9.382551e-01 6.560686e-01 1.015368e+00 5.741242e-01 7.789313e-01 5.600046e-01 7.994931e-02 1.715262e-02 6.109130e-02 5.011955e-02 6.606427e-02 9.712198e-02 9.393220e-02 1.075726e-01 1.536723e-01 1.248090e-01 1.210032e-01 1.305056e-01 1.256609e-01 1.659388e-02
<GCONST> 5.860708e+01
<TRANSP> 5
 0.000000e+00 1.000000e+00 0.000000e+00 0.000000e+00 0.000000e+00
 0.000000e+00 7.888581e-01 2.111419e-01 0.000000e+00 0.000000e+00
 0.000000e+00 0.000000e+00 7.522473e-01 2.477528e-01 0.000000e+00
 0.000000e+00 0.000000e+00 0.000000e+00 9.324246e-01 6.757540e-02
 0.000000e+00 0.000000e+00 0.000000e+00 0.000000e+00 0.000000e+00
<ENDHMM>
~h "s"
<BEGINHMM>
<NUMSTATES> 5
<STATE> 2
<MEAN> 39
 -1.013024e+01 -5.505342e+00 1.998040e+00 -5.333367e+00 2.717710e+00 -7.437269e+00 2.742494e+00 1.240785e+00 2.531420e+00 -2.734703e+00 1.194644e+00 -2.193092e+00 6.421617e+01 -1.055477e+00 -3.286781e-01 -1.806984e-01 -2.142295e-01 2.143166e-01 -3.462764e-01 2.885562e-01 4.043073e-01 5.852424e-02 1.727645e-01 1.665227e-01 1.222550e-01 3.241366e-01 2.604908e-01 -1.331601e-02 -2.803428e-02 1.839266e-02 -1.026766e-01 1.204457e-01 6.235079e-02 -5.025631e-02 6.396336e-02 5.487373e-02 -8.171144e-02 -1.942385e-02 -1.911300e-02
<VARIANCE> 39
 1.706466e+01 1.075893e+01 1.971289e+01 1.673447e+01 1.622594e+01 2.659582e+01 3.189865e+01 2.275112e+01 2.136745e+01 1.888194e+01 2.014831e+01 2.143538e+01 1.478151e+01 1.261364e+00 8.794007e-01 1.217065e+00 1.288172e+00 1.398126e+00 1.816405e+00 1.957567e+00 1.648187e+00 1.991782e+00 1.542934e+00 1.805432e+00 1.677615e+00 4.073755e-01 1.827077e-01 1.768178e-01 1.991454e-01 2.458282e-01 3.209136e-01 3.371240e-01 3.593317e-01 3.447786e-01 3.990863e-01 2.989910e-01 3.482683e-01 3.712033e-01 6.177996e-02
<GCONST> 9.637697e+01
<STATE> 3
<MEAN> 39
 -1.136932e+01 -7.827157e+00 -6.397354e-01 -5.419690e+00 1.331149e+00 -8.077812e+00 7.021546e+00 1.848730e+00 4.482544e+00 -1.071767e+00 -1.813174e-01 -1.353346e+00 6.541769e+01 1.825557e+00 -3.214389e-01 -4.541159e-01 -3.557116e-01 -6.217515e-01 2.922908e-01 -8.534200e-02 -7.698363e-01 -1.087928e-01 5.151952e-01 -9.998533e-01 -1.174534e+00 1.967826e-01 8.712244e-01 -1.601873e-01 -7.888964e-02 -3.040653e-01 -1.114174e-01 2.405840e-01 -4.738525e-01 -3.913060e-01 -3.164400e-01 1.018016e-01 -2.719634e-01 -6.097472e-01 3.867513e-01
<VARIANCE> 39
 9.690295e+00 7.657667e+00 1.327053e+01 1.434115e+01 1.217751e+01 1.948258e+01 2.019362e+01 1.589779e+01 1.444806e+01 1.411179e+01 1.449439e+01 1.592899e+01 3.748972e+00 4.510134e+00 1.014884e+00 1.098320e+00 1.431913e+00 1.429063e+00 1.374001e+00 1.900338e+00 1.936709e+00 1.619372e+00 1.344249e+00 1.742348e+00 2.906137e+00 7.820652e-01 2.090057e-01 2.463139e-01 1.830563e-01 3.516243e-01 2.072210e-01 3.040763e-01 2.813248e-01 2.414328e-01 3.587148e-01 2.696164e-01 2.842082e-01 4.235052e-01 2.707503e-01
<GCONST> 9.373678e+01
<STATE> 4
<MEAN> 39
 1.020690e+00 -9.962374e+00 -2.366943e+00 -9.515166e+00 -1.604838e+00 -5.734349e+00 2.113688e+00 -3.640301e+00 1.093506e+00 1.360023e+00 -5.375052e+00 -1.071932e+01 7.024998e+01 2.647029e+00 -2.350393e+00 -6.420355e-01 -1.813245e+00 -6.596998e-01 1.947640e+00 -1.276314e+00 -5.072759e-01 -5.206025e-01 8.558840e-01 -7.774106e-01 -2.324879e+00 2.290112e+00 -7.119424e-01 -4.030694e-01 1.152140e-01 7.789695e-02 1.930465e-01 3.717437e-01 2.461636e-01 4.546147e-01 2.061018e-01 -2.173820e-01 3.617170e-01 4.475608e-01 -5.174248e-02
<VARIANCE> 39
 7.277725e+01 3.609733e+01 1.647884e+01 2.485659e+01 1.611653e+01 2.640078e+01 1.957254e+01 1.709184e+01 1.117204e+01 1.607068e+01 1.908446e+01 3.174047e+01 2.782007e+01 4.986619e+00 2.994213e+00 1.283187e+00 2.707003e+00 1.273947e+00 2.256417e+00 2.340685e+00 2.306158e+00 2.371102e+00 1.574540e+00 1.489015e+00 3.812204e+00 2.332228e+00 6.810542e-01 5.365353e-01 2.102144e-01 4.916760e-01 2.546310e-01 3.325140e-01 3.546920e-01 3.316129e-01 2.304320e-01 3.053181e-01 1.933958e-01 4.421220e-01 4.633557e-01
<GCONST> 1.091774e+02
<TRANSP> 5
 0.000000e+00 1.000000e+00 0.000000e+00 0.000000e+00 0.000000e+00
 0.000000e+00 8.281550e-01 1.718449e-01 0.000000e+00 0.000000e+00
 0.000000e+00 0.000000e+00 6.109959e-01 3.890041e-01 0.000000e+00
 0.000000e+00 0.000000e+00 0.000000e+00 5.074624e-01 4.925376e-01
 0.000000e+00 0.000000e+00 0.000000e+00 0.000000e+00 0.000000e+00
<ENDHMM>
~h "t"
<BEGINHMM>
<NUMSTATES> 5
<STATE> 2
<MEAN> 39
 1.004056e+00 -7.254915e+00 -5.708492e+00 -6.654364e+00 -1.077794e+00 -2.093533e+00 2.217400e+00 -2.366773e+00 7.056018e+00 -4.298425e-01 -2.311905e+00 -6.395569e+00 6.155150e+01 -7.935989e-01 1.140796e-01 -1.491314e-01 -5.149050e-02 -1.179873e-01 -4.305600e-03 4.953705e-01 2.265652e-01 2.585735e-02 -1.713347e-01 3.533605e-01 5.208192e-01 -7.083027e-01 5.453963e-02 -2.682599e-01 2.087149e-01 -2.918279e-02 -1.720963e-01 -1.993763e-01 -4.523670e-02 1.641579e-02 -2.300642e-01 -7.012862e-02 -4.344596e-02 1.898643e-02 3.314826e-01
<VARIANCE> 39
 1.265740e+01 1.186734e+01 2.289158e+01 1.509832e+01 1.691079e+01 1.612802e+01 2.119468e+01 1.525220e+01 2.070982e+01 2.101771e+01 1.520082e+01 1.813119e+01 1.154255e+01 2.710592e-01 3.718775e-01 7.711267e-01 7.510679e-01 1.015597e+00 1.162981e+00 1.333911e+00 1.083607e+00 1.834800e+00 1.851765e+00 1.545735e+00 1.276718e+00 2.452089e-01 4.196692e-02 1.583536e-01 1.449253e-01 1.732158e-01 2.475985e-01 2.960556e-01 2.511576e-01 3.137587e-01 3.977511e-01 4.242309e-01 3.445020e-01 2.662494e-01 8.212892e-02
<GCONST> 8.573353e+01
<STATE> 3
<MEAN> 39
 -3.727949e+00 -5.349336e+00 -1.669675e+00 -3.126775e+00 -3.713060e-01 -2.483548e+00 4.478320e+00 -2.696719e+00 3.358709e+00 -2.615589e+00 8.132126e-01 -1.273904e+00 5.764545e+01 -2.544320e-01 -2.004465e+00 8.337564e-01 -6.533268e-01 -1.533572e+00 -1.309319e+00 6.136123e-02 -3.395481e-01 -1.260661e+00 -6.141445e-01 5.597263e-01 8.511312e-02 1.974449e+00 3.377232e-01 -3.103876e-01 6.153388e-01 -2.246545e-01 -8.135281e-01 -4.122728e-01 -1.509901e-01 -1.726927e-01 -4.216897e-01 -2.561626e-02 -2.354037e-02 -4.999501e-01 8.828227e-01
<VARIANCE> 39
 9.291994e+00 9.125593e+00 2.780988e+01 1.827431e+01 1.168800e+01 1.571034e+01 1.678581e+01 1.263866e+01 2.130412e+01 1.217571e+01 2.338356e+01 1.553169e+01 7.685301e+00 6.058876e-01 1.567558e+00 1.329025e+00 1.434018e+00 2.497963e+00 2.940384e+00 1.325614e+00 2.576596e+00 2.979375e+00 2.269408e+00 1.822873e+00 2.054727e+00 2.315954e+00 1.732605e-01 2.216497e-01 3.695749e-01 1.642958e-01 4.063536e-01 3.419523e-01 2.898872e-01 3.722246e-01 4.127986e-01 2.902054e-01 3.062354e-01 3.456745e-01 2.360775e-01
<GCONST> 9.822597e+01
<STATE> 4
<MEAN> 39
 -2.945115e+00 -1.325292e+01 1.604115e+00 -6.533624e+00 -8.218955e+00 -8.667065e+00 4.636992e+00 -4.823863e+00 -1.553306e+00 -4.725533e+00 2.366644e+00 -3.099415e+00 6.786194e+01 1.122790e+00 -4.595432e-01 2.901718e+00 -6.601117e-01 -2.845061e+00 -9.321494e-01 -5.614016e-01 -6.673115e-01 -1.882002e+00 2.310659e-01 -3.585253e-01 -1.861989e+00 2.571974e+00 3.353069e-01 8.515168e-01 4.648057e-01 3.264998e-02 1.992094e-01 7.805188e-01 -4.329419e-01 1.633717e-01 8.748644e-02 5.765972e-01 -4.908724e-01 -5.663334e-01 -5.604559e-01
<VARIANCE> 39
 5.651116e+00 1.566649e+01 3.345683e+01 1.640626e+01 2.128634e+01 2.782329e+01 1.390532e+01 2.031957e+01 2.696987e+01 1.729370e+01 1.725297e+01 1.546426e+01 1.315748e+01 3.385620e+00 1.855972e+00 4.681029e+00 1.650771e+00 4.892619e+00 2.537821e+00 2.854570e+00 1.999057e+00 2.947120e+00 2.028095e+00 2.105239e+00 4.907457e+00 3.775849e+00 2.020373e-01 2.109902e-01 8.276401e-01 2.598666e-01 7.625973e-01 6.340212e-01 4.372713e-01 6.270619e-01 5.194560e-01 4.594197e-01 3.349032e-01 3.811412e-01 2.945883e-01
<GCONST> 1.109739e+02
<TRANSP> 5
 0.000000e+00 1.000000e+00 0.000000e+00 0.000000e+00 0.000000e+00
 0.000000e+00 7.778511e-01 2.221489e-01 0.000000e+00 0.000000e+00
 0.000000e+00 0.000000e+00 5.220483e-01 4.779517e-01 0.000000e+00
 0.000000e+00 0.000000e+00 0.000000e+00 5.196558e-01 4.803441e-01
 0.000000e+00 0.000000e+00 0.000000e+00 0.000000e+00 0.000000e+00
<ENDHMM>
~h "y"
<BEGINHMM>
<NUMSTATES> 5
<STATE> 2
<MEAN> 39
 8.087855e+00 1.201733e+00 4.447073e+00 -3.764141e+00 -8.929353e+00 -7.903610e+00 4.437219e+00 -8.055553e-01 5.384872e-01 -6.839290e+00 -8.698804e-01 -3.030626e+00 6.494267e+01 -8.708519e-01 -2.604855e+00 3.082703e+00 -2.530045e-01 -2.119665e+00 6.049115e-01 -6.430177e-01 6.943685e-01 -6.555147e-01 -4.156760e-01 9.815077e-01 -7.983150e-02 1.195823e+00 -2.272454e-01 -1.021741e+00 8.635613e-01 -1.113378e-01 -7.467937e-01 1.221945e-01 -2.739555e-01 3.125328e-05 -3.456315e-01 2.519436e-01 2.508357e-01 -1.274890e-01 5.086275e-01
<VARIANCE> 39
 2.648786e+00 8.333016e+00 1.119887e+01 4.492094e+00 9.057583e+00 1.271878e+01 6.565733e+00 9.842269e+00 1.248645e+01 1.025906e+01 1.135745e+01 8.436169e+00 2.564783e+00 1.394622e-01 1.187661e+00 1.292019e+00 6.773611e-01 1.034943e+00 1.188291e+00 8.310720e-01 1.428869e+00 1.196551e+00 1.028128e+00 1.353591e+00 6.218754e-01 2.906568e-01 3.465178e-02 7.796945e-02 2.289348e-01 1.096686e-01 1.207892e-01 1.776828e-01 1.936590e-01 1.515949e-01 1.447991e-01 1.303115e-01 1.762876e-01 1.349216e-01 1.885482e-02
<GCONST> 6.656065e+01
<STATE> 3
<MEAN> 39
 4.866609e+00 -9.843322e+00 1.633015e+01 -5.173253e+00 -1.791870e+01 -5.955195e+00 1.908104e+00 8.253668e-01 -3.400569e+00 -6.145914e+00 2.950146e+00 -4.265737e+00 7.029650e+01 -6.604659e-01 -3.278456e+00 2.459201e+00 -3.373635e-01 -2.130507e+00 1.620686e-02 -7.642314e-01 4.010807e-01 -1.381626e+00 9.013916e-01 7.395803e-01 -5.656111e-01 1.664710e+00 2.666594e-01 4.137758e-01 -1.033667e+00 1.218425e-01 7.137011e-01 -2.632958e-01 8.768388e-02 -6.818317e-02 1.634723e-01 2.401131e-01 -3.755725e-01 -3.412990e-02 -1.774004e-01
<VARIANCE> 39
 2.554482e+00 1.489270e+01 1.840023e+01 8.705308e+00 1.339967e+01 1.238376e+01 7.789265e+00 1.379152e+01 1.325839e+01 7.545439e+00 8.370030e+00 9.278967e+00 7.044022e+00 3.313447e-01 9.978575e-01 2.770363e+00 7.956099e-01 1.740433e+00 1.228298e+00 1.610858e+00 1.024611e+00 1.053668e+00 8.963149e-01 1.002302e+00 9.075332e-01 2.270392e-01 2.409888e-02 1.837960e-01 2.740001e-01 1.304433e-01 3.090563e-01 1.685044e-01 1.635112e-01 2.271078e-01 2.605538e-01 1.890913e-01 1.907092e-01 1.465739e-01 5.669772e-02
<GCONST> 7.594377e+01
<STATE> 4
<MEAN> 39
 5.239272e+00 -1.606894e+01 1.282242e+01 -4.782969e+00 -1.514079e+01 -7.377915e+00 -9.144809e-01 2.035378e+00 -3.619222e+00 -3.063260e+00 1.687454e-01 -5.990602e+00 7.355904e+01 1.029851e-01 -4.796049e-02 -9.131277e-01 9.164436e-02 1.085034e+00 -1.202531e-01 -3.576224e-01 8.821872e-02 4.375863e-01 1.521934e-01 -6.082270e-01 -8.253676e-02 -1.832720e-02 -2.828229e-02 5.155561e-01 -1.012481e-01 6.055740e-02 2.115450e-01 5.987592e-02 1.047630e-01 -1.370867e-01 1.669573e-01 -1.322109e-01 -2.550022e-02 5.038099e-02 -2.841330e-01
<VARIANCE> 39
 2.948928e+00 1.135995e+01 2.758664e+01 1.204576e+01 2.506542e+01 1.313072e+01 2.258986e+01 9.763247e+00 1.537371e+01 1.132109e+01 1.465985e+01 1.086706e+01 7.066165e+00 1.724060e-01 1.691647e+00 1.236751e+00 6.391959e-01 1.167952e+00 7.504095e-01 6.567544e-01 7.906047e-01 7.610993e-01 6.334473e-01 6.557366e-01 7.432835e-01 4.772290e-01 6.489508e-02 1.068692e-01 3.334664e-01 1.264763e-01 2.796297e-01 1.342289e-01 1.521817e-01 1.338630e-01 1.701195e-01 1.118623e-01 1.491304e-01 1.336088e-01 3.005123e-02
<GCONST> 7.323473e+01
<TRANSP> 5
 0.000000e+00 1.000000e+00 0.000000e+00 0.000000e+00 0.000000e+00
 0.000000e+00 5.145088e-01 4.854912e-01 0.000000e+00 0.000000e+00
 0.000000e+00 0.000000e+00 6.483854e-01 3.516146e-01 0.000000e+00
 0.000000e+00 0.000000e+00 0.000000e+00 8.773755e-01 1.226244e-01
 0.000000e+00 0.000000e+00 0.000000e+00 0.000000e+00 0.000000e+00
<ENDHMM>
~h "aa"
<BEGINHMM>
<NUMSTATES> 5
<STATE> 2
<MEAN> 39
 4.131770e+00 -1.381690e+01 -4.286598e+00 -1.056960e+01 1.281521e+00 4.129257e+00 1.823862e+00 -4.415971e+00 -3.144165e+00 -3.225303e+00 -2.574441e+00 -1.017335e+01 6.931503e+01 8.204746e-01 -1.845472e+00 -3.833860e-01 -1.245286e+00 8.166255e-02 1.312665e+00 -6.634405e-01 7.182845e-02 -6.443126e-01 -1.423594e-01 6.359471e-03 -1.028832e+00 1.719535e+00 -1.846893e-01 1.426625e-02 1.939525e-01 2.069138e-01 -1.204773e-01 -1.193151e-01 7.223067e-02 1.976773e-01 2.591519e-01 6.709946e-02 9.508085e-02 1.562818e-01 -8.421913e-02
<VARIANCE> 39
 2.999931e+01 4.134384e+01 2.601713e+01 2.723803e+01 1.886980e+01 2.827078e+01 2.091743e+01 2.813766e+01 2.522772e+01 1.966772e+01 2.085463e+01 3.074728e+01 4.685020e+01 2.184432e+00 2.670342e+00 2.436115e+00 2.534319e+00 1.462382e+00 2.068903e+00 1.477831e+00 2.422901e+00 2.349191e+00 1.506554e+00 1.312740e+00 2.155444e+00 1.853710e+00 3.358306e-01 5.785767e-01 3.683391e-01 4.653457e-01 2.438449e-01 3.971097e-01 2.615938e-01 4.125150e-01 3.590407e-01 2.815638e-01 1.954553e-01 4.396436e-01 3.839610e-01
<GCONST> 1.097593e+02
<STATE> 3
<MEAN> 39
 7.982835e+00 -2.053705e+01 -6.364164e+00 -1.416101e+01 -2.172889e-01 4.843106e+00 8.985796e-01 -4.794815e-01 -2.198005e+00 -1.410715e+00 -4.851202e+00 -1.342330e+01 7.562991e+01 -5.102557e-02 -5.750039e-02 1.038636e-01 2.841859e-01 -3.216964e-02 -4.043045e-01 -3.402036e-01 3.708115e-01 5.374445e-01 -3.402680e-02 -2.740425e-01 8.253688e-02 -9.700582e-03 -2.314524e-02 3.580891e-01 7.652844e-02 1.565176e-01 -3.112886e-02 -2.938020e-01 -1.967587e-02 -4.674017e-02 7.894930e-02 3.894254e-02 1.861962e-02 1.248266e-01 -1.819288e-01
<VARIANCE> 39
 1.018117e+01 1.959590e+01 2.028998e+01 1.518292e+01 1.576155e+01 2.612148e+01 1.703560e+01 1.916331e+01 1.934864e+01 1.206686e+01 2.144288e+01 1.261761e+01 1.125811e+01 3.893830e-01 1.017955e+00 7.277284e-01 9.190990e-01 1.061683e+00 1.788054e+00 1.027934e+00 8.353419e-01 1.070138e+00 8.772060e-01 8.514109e-01 6.722658e-01 4.032286e-01 3.487461e-02 1.656557e-01 1.165736e-01 1.624316e-01 1.586312e-01 1.654451e-01 1.710522e-01 1.710706e-01 1.575844e-01 1.476503e-01 1.767520e-01 1.380762e-01 5.570681e-02
<GCONST> 7.896462e+01
<STATE> 4
<MEAN> 39
 6.262797e+00 -1.239178e+01 -3.358939e+00 -9.738248e+00 -1.179936e+00 -2.468672e+00 -1.727594e+00 -2.540565e-02 2.758391e+00 -8.157806e-01 -4.523115e+00 -9.903890e+00 7.055568e+01 -6.348019e-01 1.784128e+00 3.226477e-01 9.259248e-01 2.114416e-01 -4.460378e-01 1.291491e-01 -7.026266e-01 3.788323e-01 -1.485410e-01 7.111540e-01 7.159029e-01 -1.209061e+00 -1.590431e-01 -1.090824e-01 -2.629905e-01 2.918972e-02 1.370489e-01 3.763755e-01 3.244625e-01 -1.191378e-01 -8.612339e-02 -1.676288e-01 8.729428e-02 -7.745037e-02 -1.269329e-01
<VARIANCE> 39
 3.149185e+01 5.065939e+01 2.683499e+01 1.737693e+01 2.330150e+01 4.463006e+01 3.081093e+01 2.660742e+01 2.501290e+01 2.125880e+01 2.655510e+01 1.819920e+01 2.673717e+01 1.005079e+00 2.125334e+00 1.381516e+00 1.309715e+00 1.797001e+00 3.119756e+00 2.693481e+00 1.970839e+00 1.666908e+00 1.671911e+00 1.246366e+00 1.390993e+00 1.254146e+00 1.731167e-01 3.878782e-01 2.621359e-01 3.200004e-01 3.821310e-01 5.445669e-01 5.013373e-01 4.437183e-01 3.721301e-01 3.614808e-01 2.861073e-01 2.813891e-01 1.243750e-01
<GCONST> 1.062806e+02
<TRANSP> 5
 0.000000e+00 1.000000e+00 0.000000e+00 0.000000e+00 0.000000e+00
 0.000000e+00 6.492105e-01 3.507895e-01 0.000000e+00 0.000000e+00
 0.000000e+00 0.000000e+00 8.429224e-01 1.570777e-01 0.000000e+00
 0.000000e+00 0.000000e+00 0.000000e+00 6.951270e-01 3.048731e-01
 0.000000e+00 0.000000e+00 0.000000e+00 0.000000e+00 0.000000e+00
<ENDHMM>
~h "cx"
<BEGINHMM>
<NUMSTATES> 5
<STATE> 2
<MEAN> 39
 -1.240013e+00 -9.424693e-01 3.023700e+00 -2.330091e+00 -5.795617e-01 -3.258296e+00 3.155442e+00 -3.370009e+00 1.554967e+00 -3.409272e+00 -6.264949e-02 -2.655943e+00 5.943667e+01 -8.744519e-01 -4.885549e-01 -5.878687e-01 1.364551e-01 5.680660e-02 -8.451375e-03 8.655465e-02 -2.321029e-01 1.634292e-01 3.342579e-01 6.114877e-01 2.189800e-01 -8.198813e-01 -5.089520e-03 -4.790006e-01 5.696737e-02 -4.360439e-01 -4.430421e-01 3.778689e-02 -3.107919e-01 2.433369e-02 4.005270e-02 -8.479939e-02 -7.955432e-04 1.609705e-01 3.394464e-01
<VARIANCE> 39
 2.369897e+01 1.821316e+01 2.678153e+01 1.143770e+01 1.810338e+01 1.599123e+01 1.868184e+01 3.067374e+01 1.727903e+01 1.382207e+01 1.498905e+01 1.775689e+01 8.732919e+00 8.633748e-01 9.180450e-01 6.357857e-01 1.115121e+00 1.574268e+00 1.259820e+00 2.507055e+00 1.491705e+00 1.642545e+00 2.121583e+00 1.260904e+00 1.628040e+00 4.539475e-01 5.779516e-02 1.723744e-01 2.325391e-01 3.022103e-01 3.059906e-01 3.654610e-01 4.395037e-01 3.041975e-01 3.622673e-01 4.407219e-01 2.774523e-01 3.173850e-01 7.162330e-02
<GCONST> 9.295267e+01
<STATE> 3
<MEAN> 39
 -3.515855e+00 -2.973766e+00 3.101813e+00 -1.958041e+00 -6.436823e-01 -4.311831e+00 2.807089e+00 -2.790865e+00 2.534950e+00 -1.781205e+00 1.577718e+00 -1.887458e+00 5.880700e+01 -7.236918e-01 -1.372626e+00 -2.070664e-01 -9.747010e-01 -9.067913e-01 4.797401e-01 -1.753687e-01 -1.458111e-01 1.964870e-01 6.804642e-02 3.206618e-01 4.095248e-01 -1.378430e-01 -2.029915e-01 -4.621188e-01 4.637552e-01 -6.325623e-01 -3.409646e-01 2.542896e-01 -4.167364e-01 4.963197e-02 -7.288663e-03 -2.854125e-01 -1.608105e-01 -6.190288e-03 6.989544e-01
<VARIANCE> 39
 1.485696e+01 1.392765e+01 3.042632e+01 1.528699e+01 2.755853e+01 1.858875e+01 2.363953e+01 3.533120e+01 1.631748e+01 1.499829e+01 2.929573e+01 2.370072e+01 6.691376e+00 1.030819e+00 1.959388e+00 1.573522e+00 1.471631e+00 1.354936e+00 1.647565e+00 1.352847e+00 1.084751e+00 1.328619e+00 1.376720e+00 4.565969e-01 1.022718e+00 9.374319e-01 6.307010e-02 8.860751e-02 1.755488e-01 2.289158e-01 4.246284e-01 3.416602e-01 4.957660e-01 5.037646e-01 3.517096e-01 4.547943e-01 2.706890e-01 3.525539e-01 7.385530e-02
<GCONST> 9.406247e+01
<STATE> 4
<MEAN> 39
 -3.878834e+00 -2.980286e+00 1.985928e+00 -3.288833e+00 -1.836266e+00 -4.227196e+00 3.292163e+00 -1.922930e+00 3.748315e+00 -2.032925e+00 1.665077e+00 -2.180949e+00 5.809095e+01 -8.497592e-01 -2.109930e+00 5.863221e-01 -1.743765e+00 -1.095351e+00 9.998999e-01 -8.172243e-01 -7.296286e-02 1.633406e-01 -2.593819e-01 1.668757e-01 4.035055e-01 9.582261e-01 -4.781044e-01 -8.763199e-02 6.129881e-01 -3.947187e-01 1.166882e-01 3.039269e-01 -3.650181e-01 1.092395e-01 -6.637737e-03 -2.559484e-01 -9.014064e-02 -1.336148e-01 7.317819e-01
<VARIANCE> 39
 9.532743e+00 9.888144e+00 2.861757e+01 8.942703e+00 1.677790e+01 1.808809e+01 2.185310e+01 3.334708e+01 1.656181e+01 1.587790e+01 2.372770e+01 1.603318e+01 3.853384e+00 8.593360e-01 2.599384e+00 1.839445e+00 1.702856e+00 1.220270e+00 1.738077e+00 1.797644e+00 1.955600e+00 1.359606e+00 1.542738e+00 7.054333e-01 1.222856e+00 1.374600e+00 8.837464e-02 1.398076e-01 1.914561e-01 2.192108e-01 4.257983e-01 2.228702e-01 4.675843e-01 4.721242e-01 2.489473e-01 2.843641e-01 2.928592e-01 2.908091e-01 5.333420e-02
<GCONST> 9.233021e+01
<TRANSP> 5
 0.000000e+00 1.000000e+00 0.000000e+00 0.000000e+00 0.000000e+00
 0.000000e+00 4.566921e-01 5.433078e-01 0.000000e+00 0.000000e+00
 0.000000e+00 0.000000e+00 2.353312e-03 9.976467e-01 0.000000e+00
 0.000000e+00 0.000000e+00 0.000000e+00 2.936993e-03 9.970630e-01
 0.000000e+00 0.000000e+00 0.000000e+00 0.000000e+00 0.000000e+00
<ENDHMM>
~h "ee"
<BEGINHMM>
<NUMSTATES> 5
<STATE> 2
<MEAN> 39
 -3.657405e+00 -6.305172e+00 4.951226e+00 -5.275746e+00 -5.939348e+00 -5.168133e+00 1.964327e+00 -3.151171e+00 -6.873943e-01 -1.876529e+00 1.992546e+00 -3.706759e+00 5.971751e+01 6.997562e-01 -1.223279e+00 2.892366e+00 -8.203947e-01 -2.593626e+00 -8.408307e-01 -7.128421e-01 1.870542e-01 -1.661940e+00 1.822785e-01 2.379618e-01 -1.288189e+00 1.796573e+00 4.390800e-01 -2.912682e-01 5.521079e-01 -2.294838e-01 -6.279978e-01 -2.733692e-01 -3.160441e-01 4.574481e-02 -4.040332e-01 -5.083758e-02 6.202252e-02 -1.514351e-01 6.502583e-01
<VARIANCE> 39
 1.213649e+01 2.273137e+01 6.115531e+01 1.645109e+01 4.561251e+01 2.726689e+01 2.100600e+01 1.889686e+01 2.898461e+01 1.611214e+01 1.491370e+01 2.392809e+01 1.966836e+01 2.022190e+00 2.161567e+00 4.734912e+00 2.298456e+00 5.630707e+00 2.289991e+00 2.626263e+00 1.541282e+00 3.688202e+00 2.285599e+00 1.917561e+00 2.406891e+00 3.862853e+00 1.367884e-01 2.842927e-01 9.237043e-01 2.531169e-01 8.702298e-01 4.736573e-01 4.841847e-01 2.537260e-01 5.318193e-01 4.627177e-01 3.947628e-01 4.855643e-01 3.471713e-01
<GCONST> 1.133577e+02
<STATE> 3
<MEAN> 39
 2.875134e+00 -1.273442e+01 1.818631e+01 -9.622912e+00 -1.935505e+01 -9.705018e+00 -2.261414e+00 -1.295105e+00 -8.926613e+00 -1.958532e+00 3.652095e+00 -8.800555e+00 7.127002e+01 7.740467e-01 -9.444090e-01 1.568496e+00 -4.722640e-01 -1.206024e+00 3.966019e-02 -7.441605e-01 1.541475e-01 -8.141420e-01 7.853355e-02 2.810445e-01 -1.814136e-02 1.576185e+00 -2.068474e-01 2.402510e-01 -5.028465e-01 2.113644e-01 4.990030e-01 1.432556e-01 1.279383e-01 -1.730739e-02 3.401974e-01 2.931144e-02 -7.623212e-02 2.877460e-01 -3.672689e-01
<VARIANCE> 39
 5.055405e+00 1.676513e+01 2.251866e+01 1.035534e+01 9.419853e+00 1.207998e+01 1.560001e+01 9.830789e+00 1.350386e+01 8.710415e+00 1.219014e+01 6.791265e+00 1.511826e+01 7.765751e-01 1.896391e+00 2.125777e+00 9.304226e-01 2.177289e+00 1.134726e+00 1.591012e+00 1.123066e+00 1.363793e+00 1.006592e+00 1.008921e+00 1.049737e+00 1.419997e+00 1.499450e-01 3.978569e-01 4.282765e-01 2.071557e-01 4.479187e-01 2.448445e-01 3.274029e-01 2.181292e-01 2.744045e-01 2.068156e-01 1.696646e-01 2.208752e-01 3.147277e-01
<GCONST> 8.911443e+01
<STATE> 4
<MEAN> 39
 5.331386e+00 -1.420696e+01 2.003458e+01 -9.331232e+00 -2.167994e+01 -9.928906e+00 -4.019919e+00 -2.494849e+00 -9.710072e+00 -1.328009e-01 3.692481e+00 -6.898795e+00 7.496346e+01 1.894957e-01 4.109564e-01 -5.208892e-01 3.082487e-01 -5.353451e-03 -4.131563e-01 4.097910e-01 -2.811862e-01 -3.648540e-02 4.010557e-01 -6.587915e-02 -1.251488e-01 -2.418452e-01 -4.213620e-02 1.657643e-01 -1.119028e-01 6.169843e-02 1.235793e-01 -3.922264e-02 1.156684e-01 -3.363312e-02 -1.382295e-02 1.796690e-02 -2.136535e-02 -1.243546e-01 -1.699072e-01
<VARIANCE> 39
 2.039616e+00 1.275803e+01 9.993170e+00 1.310827e+01 1.108856e+01 9.206280e+00 9.199395e+00 7.764198e+00 1.279239e+01 7.400254e+00 8.904585e+00 5.638791e+00 4.937549e+00 1.414216e-01 3.403109e-01 4.680102e-01 6.287398e-01 6.405478e-01 5.895191e-01 6.236508e-01 5.778998e-01 7.112633e-01 6.325446e-01 4.453150e-01 5.073080e-01 1.546384e-01 2.338677e-02 8.701463e-02 9.316793e-02 1.260147e-01 1.165385e-01 1.137017e-01 1.277581e-01 1.256550e-01 1.418224e-01 1.355757e-01 8.598462e-02 6.005894e-02 3.090338e-02
<GCONST> 5.657277e+01
<TRANSP> 5
 0.000000e+00 1.000000e+00 0.000000e+00 0.000000e+00 0.000000e+00
 0.000000e+00 7.498261e-01 2.501739e-01 0.000000e+00 0.000000e+00
 0.000000e+00 0.000000e+00 8.199647e-01 1.800353e-01 0.000000e+00
 0.000000e+00 0.000000e+00 0.000000e+00 8.897522e-01 1.102478e-01
 0.000000e+00 0.000000e+00 0.000000e+00 0.000000e+00 0.000000e+00
<ENDHMM>
~h "ii"
<BEGINHMM>
<NUMSTATES> 5
<STATE> 2
<MEAN> 39
 4.374037e+00 -1.118951e+01 2.020059e+01 -9.149821e+00 -2.022491e+01 -5.615187e+00 -3.413087e+00 -7.085754e+00 -1.070031e+01 9.934511e-01 -1.206456e+00 -1.424867e+01 7.422147e+01 1.081656e+00 2.211478e-01 2.771766e+00 -1.052078e+00 -1.697884e+00 1.278596e+00 -1.678405e+00 -4.294394e-01 -1.074174e+00 1.789946e+00 -1.645212e+00 -2.116685e+00 8.906524e-01 -6.281403e-01 2.273868e-01 -1.262928e+00 2.834418e-01 1.040727e+00 5.118696e-02 6.419126e-01 1.369271e-01 8.147513e-01 -1.572113e-01 1.846525e-02 8.851559e-01 -8.494365e-01
<VARIANCE> 39
 2.016551e+00 7.866326e+00 1.456928e+01 1.164944e+01 6.944693e+00 9.253569e+00 1.120494e+01 6.473109e+00 7.633237e+00 1.057727e+01 1.234023e+01 8.058620e+00 5.541635e+00 1.196960e+00 7.115880e-01 5.290451e+00 1.017033e+00 2.906785e+00 1.573558e+00 2.640374e+00 1.378842e+00 1.902714e+00 9.514579e-01 1.213696e+00 2.178543e+00 8.842678e-01 4.912582e-02 9.946302e-02 3.065778e-01 1.405822e-01 1.494965e-01 3.636484e-01 2.502219e-01 1.977584e-01 1.278976e-01 2.148040e-01 2.109831e-01 1.437503e-01 9.349968e-02
<GCONST> 8.065944e+01
<STATE> 3
<MEAN> 39
 4.180360e+00 -8.168845e+00 2.038429e+01 -1.030871e+01 -1.980571e+01 -1.961122e+00 -1.468901e+00 -6.789511e+00 -6.338170e+00 3.331812e+00 -4.550341e+00 -1.313332e+01 7.208521e+01 1.104194e-02 3.812604e-01 -3.070535e-01 1.204071e-01 9.752640e-02 9.027090e-02 6.012576e-01 3.776764e-01 5.051116e-01 -2.591825e-01 2.184370e-01 5.830786e-01 -3.915162e-01 2.579492e-02 4.475613e-02 -1.881140e-01 1.193547e-01 1.102627e-01 -1.669701e-01 8.967850e-02 9.341431e-02 -2.143727e-02 -2.199602e-01 1.842582e-01 1.257831e-01 -6.064699e-02
<VARIANCE> 39
 2.773205e+00 8.686530e+00 1.503037e+01 1.167545e+01 1.052993e+01 1.242183e+01 1.849128e+01 1.091820e+01 1.493967e+01 1.344629e+01 1.512358e+01 1.100106e+01 4.846391e+00 1.034069e-01 2.939770e-01 4.514989e-01 5.174354e-01 5.064684e-01 7.893503e-01 5.557680e-01 7.127120e-01 9.089946e-01 8.600941e-01 9.398690e-01 4.540616e-01 9.757801e-02 2.665736e-02 7.879371e-02 1.373003e-01 9.398292e-02 1.366317e-01 1.237537e-01 1.126101e-01 1.097543e-01 1.756676e-01 1.125345e-01 1.180517e-01 1.100514e-01 2.880041e-02
<GCONST> 6.118454e+01
<STATE> 4
<MEAN> 39
 5.942545e+00 -1.881925e+00 1.240330e+01 -7.239385e+00 -1.481882e+01 -4.661218e+00 3.756226e+00 -3.386572e+00 -3.651783e+00 -2.512606e+00 -8.599542e-01 -7.647388e+00 6.716324e+01 4.128536e-01 1.515125e+00 -1.760152e+00 5.635953e-01 1.558104e+00 -2.553583e-01 4.463952e-01 -6.641239e-02 8.066313e-01 -6.525253e-01 -1.766633e-01 6.301374e-01 -9.406868e-01 -5.140962e-02 -1.026462e-02 1.335566e-01 -6.679779e-02 -6.592002e-03 1.948834e-01 -1.394462e-01 -1.578557e-01 1.663218e-01 1.805145e-01 -2.540469e-01 -7.142799e-02 2.682815e-02
<VARIANCE> 39
 2.168107e+00 1.463717e+01 1.588808e+01 1.203506e+01 2.397966e+01 1.259534e+01 1.473863e+01 1.282176e+01 1.053284e+01 1.815189e+01 2.008329e+01 9.291018e+00 4.599287e+00 1.371690e-01 6.194334e-01 1.027774e+00 8.961565e-01 1.196379e+00 1.395349e+00 1.039279e+00 1.287949e+00 9.699537e-01 1.229658e+00 1.344071e+00 8.856176e-01 1.573988e-01 2.301433e-02 1.649201e-01 2.284033e-01 1.728163e-01 2.997102e-01 2.564552e-01 1.882029e-01 2.259401e-01 2.049318e-01 2.107356e-01 2.543559e-01 1.914428e-01 3.766903e-02
<GCONST> 7.613317e+01
<TRANSP> 5
 0.000000e+00 1.000000e+00 0.000000e+00 0.000000e+00 0.000000e+00
 0.000000e+00 6.955724e-01 3.044277e-01 0.000000e+00 0.000000e+00
 0.000000e+00 0.000000e+00 9.047386e-01 9.526140e-02 0.000000e+00
 0.000000e+00 0.000000e+00 0.000000e+00 8.224868e-01 1.775132e-01
 0.000000e+00 0.000000e+00 0.000000e+00 0.000000e+00 0.000000e+00
<ENDHMM>
~h "sh"
<BEGINHMM>
<NUMSTATES> 5
<STATE> 2
<MEAN> 39
 -1.043310e+01 -1.043373e+01 7.548463e+00 -8.549209e-01 -7.454022e+00 -1.044060e+00 5.251183e-01 -7.438005e+00 7.913523e+00 -2.336308e+00 1.076735e+00 -3.583556e+00 6.690627e+01 -8.798845e-01 -8.427781e-01 -1.509180e-01 3.352324e-01 -3.773357e-01 -4.418140e-01 1.630915e-01 -9.288604e-02 5.506451e-01 3.242525e-01 3.086154e-01 -6.671925e-02 3.075386e-01 4.769408e-01 1.366183e-01 -6.646231e-02 -2.260325e-02 4.754541e-02 -2.559935e-01 -4.559768e-02 2.236966e-01 -2.094487e-01 -9.299354e-02 2.031603e-02 -1.609167e-03 -8.222588e-02
<VARIANCE> 39
 2.608286e+01 2.046946e+01 1.843353e+01 2.022013e+01 1.850709e+01 4.116416e+01 2.952768e+01 2.613923e+01 2.230218e+01 2.571960e+01 2.423311e+01 1.574531e+01 1.201896e+01 2.348017e+00 9.640704e-01 9.999006e-01 1.644723e+00 1.703703e+00 2.467469e+00 2.354342e+00 2.151731e+00 1.793602e+00 1.734922e+00 2.075587e+00 1.194754e+00 4.559561e-01 2.709160e-01 2.165789e-01 2.131922e-01 2.649933e-01 3.731903e-01 4.298697e-01 5.320474e-01 3.374006e-01 3.878376e-01 4.236352e-01 4.360380e-01 2.619347e-01 6.224830e-02
<GCONST> 1.015673e+02
<STATE> 3
<MEAN> 39
 -7.857950e+00 -1.162882e+01 7.158990e+00 1.354323e+00 -8.096281e+00 -6.484843e+00 1.129109e-01 -4.711031e+00 8.420823e+00 -2.910493e+00 1.880287e+00 -4.354893e+00 6.615632e+01 3.807234e+00 1.260666e+00 1.170039e-01 -3.626120e-01 -4.604407e-01 -1.370755e+00 -1.136635e+00 2.417826e-01 -2.057964e+00 -1.222695e+00 -5.964392e-01 -7.376319e-01 3.572171e-01 6.838169e-01 -4.690745e-02 1.764774e-01 -5.912889e-01 -4.328691e-01 1.275107e-01 -4.441079e-01 -1.324296e-01 -6.951893e-01 -1.045467e-01 -6.162566e-03 -1.290883e-01 6.890343e-01
<VARIANCE> 39
 1.535478e+01 1.382639e+01 8.910288e+00 1.059205e+01 1.764067e+01 2.002303e+01 1.822067e+01 1.398557e+01 2.078375e+01 1.993491e+01 1.783307e+01 1.285845e+01 5.463786e+00 1.684469e+00 8.331139e-01 6.207557e-01 1.623168e+00 1.481560e+00 1.541375e+00 1.004050e+00 1.227155e+00 2.249516e+00 1.722147e+00 1.080578e+00 1.273115e+00 1.277623e+00 3.532017e-01 3.787227e-01 1.118561e-01 1.737272e-01 2.067353e-01 1.916297e-01 2.257040e-01 2.041147e-01 4.174916e-01 4.051026e-01 2.504100e-01 2.628304e-01 8.579145e-02
<GCONST> 9.023681e+01
<STATE> 4
<MEAN> 39
 6.188221e+00 -1.071138e+01 8.773360e+00 -4.486782e+00 -1.375347e+01 -9.522259e+00 -5.948046e+00 -3.814489e+00 -6.894428e-01 -5.750397e+00 1.895360e+00 -6.483173e+00 7.284115e+01 1.882351e+00 -9.226923e-01 1.111154e+00 -1.219219e+00 -1.012344e+00 2.052155e-01 -1.500520e+00 7.537946e-01 -8.931016e-01 -1.725477e-01 1.204509e-01 -2.599808e-01 1.367764e+00 -1.073442e+00 4.544339e-02 -4.299140e-02 3.381707e-01 4.918050e-01 4.812393e-01 5.543792e-01 9.343581e-02 9.445576e-01 1.662615e-01 -1.362137e-01 2.233380e-01 -5.757756e-01
<VARIANCE> 39
 2.104835e+00 1.790487e+01 2.384952e+01 7.466408e+00 1.803732e+01 6.915574e+00 1.730571e+01 8.815485e+00 1.221856e+01 1.110878e+01 7.284004e+00 8.117501e+00 6.255314e+00 3.469752e+00 1.196891e+00 1.218612e+00 1.582544e+00 2.077019e+00 1.511165e+00 1.687991e+00 8.911491e-01 3.867511e+00 1.422997e+00 9.490709e-01 7.317910e-01 1.534077e+00 1.465225e-01 7.184300e-01 3.301195e-01 2.353564e-01 2.863624e-01 1.911265e-01 3.215732e-01 1.769294e-01 2.496672e-01 2.773512e-01 2.023922e-01 8.788116e-02 2.584868e-01
<GCONST> 8.793732e+01
<TRANSP> 5
 0.000000e+00 1.000000e+00 0.000000e+00 0.000000e+00 0.000000e+00
 0.000000e+00 8.848978e-01 1.151023e-01 0.000000e+00 0.000000e+00
 0.000000e+00 0.000000e+00 6.583142e-01 3.416858e-01 0.000000e+00
 0.000000e+00 0.000000e+00 0.000000e+00 7.074943e-01 2.925058e-01
 0.000000e+00 0.000000e+00 0.000000e+00 0.000000e+00 0.000000e+00
<ENDHMM>
~h "sp"
<BEGINHMM>
<NUMSTATES> 3
<STATE> 2
~s "silst"
<TRANSP> 3
 0.000000e+00 1.854882e-01 8.145118e-01
 0.000000e+00 8.560569e-01 1.439431e-01
 0.000000e+00 0.000000e+00 0.000000e+00
<ENDHMM>
~h "uu"
<BEGINHMM>
<NUMSTATES> 5
<STATE> 2
<MEAN> 39
 6.896121e+00 -1.329782e+01 7.162367e+00 -1.024630e+01 -6.841608e+00 -4.053769e-01 -1.192195e+01 -3.871337e+00 3.985514e+00 -8.842411e-01 -4.113531e-01 -9.237900e+00 7.355965e+01 5.415690e-02 7.201175e-02 -3.311721e-01 -1.282971e+00 -7.177806e-02 1.562636e+00 2.294379e-01 -3.027348e-01 6.993949e-03 3.558146e-01 1.716126e-01 3.004376e-01 6.895286e-02 1.192052e-01 9.763085e-01 -5.763884e-01 3.843991e-01 1.151114e-01 -1.843857e-01 9.693822e-01 -3.442007e-01 -2.222670e-01 -1.679295e-01 -1.015326e-01 3.441449e-01 -5.349873e-01
<VARIANCE> 39
 1.827655e+00 8.517473e+00 2.798955e+01 2.370973e+01 3.581266e+01 3.628152e+01 2.079165e+01 1.244532e+01 1.415295e+01 2.203264e+01 1.364191e+01 1.053335e+01 4.303602e+00 1.761963e-01 4.142980e+00 1.173989e+00 2.735222e+00 1.085387e+00 1.200548e+00 3.929159e+00 1.732186e+00 1.679495e+00 1.439050e+00 1.475131e+00 6.992336e-01 1.652869e+00 4.783958e-02 1.423557e-01 1.498434e-01 1.898590e-01 2.100232e-01 1.406033e-01 2.889796e-01 2.039534e-01 2.163778e-01 2.415332e-01 1.531284e-01 1.500377e-01 5.854239e-02
<GCONST> 8.580013e+01
<STATE> 3
<MEAN> 39
 8.622734e+00 -7.330209e+00 9.886046e-01 -1.604326e+01 -5.211082e+00 5.922182e+00 -6.849985e+00 -7.701640e+00 7.822109e-01 -1.778737e+00 1.010477e+00 -4.024426e+00 7.155434e+01 3.759141e-01 1.846434e+00 -9.288615e-01 -3.929741e-01 1.107923e-01 -2.550714e-01 1.596096e+00 5.725256e-01 -6.466811e-01 -1.485763e+00 -1.870356e-01 1.300254e+00 -8.190777e-01 -8.094559e-03 -1.767874e-03 8.899762e-02 2.792367e-01 -7.891189e-02 -5.386881e-01 2.132653e-02 3.912423e-01 7.909829e-02 -1.161661e-01 -1.435415e-01 -2.096881e-01 -2.953569e-02
<VARIANCE> 39
 2.565211e+00 1.174249e+01 2.582100e+01 4.534472e+01 1.668260e+01 4.240841e+01 1.818577e+01 1.769071e+01 1.721172e+01 2.791124e+01 1.285112e+01 1.794857e+01 3.539625e+00 6.837331e-02 4.885920e-01 5.537053e-01 1.370138e+00 7.800407e-01 1.807713e+00 1.005856e+00 1.772496e+00 8.855079e-01 1.326297e+00 1.050158e+00 1.208097e+00 2.302624e-01 1.073135e-02 8.516416e-02 7.455311e-02 1.218238e-01 9.590486e-02 1.192717e-01 1.578769e-01 2.537064e-01 2.092509e-01 3.804806e-01 1.739868e-01 3.140204e-01 1.551564e-02
<GCONST> 7.454888e+01
<STATE> 4
<MEAN> 39
 8.694879e+00 1.939095e+00 6.537686e-02 -1.231397e+01 -6.265246e+00 -3.469675e+00 6.457942e-01 -1.932142e+00 -1.114485e+00 -5.916431e+00 -8.995914e-01 -4.077899e+00 6.594873e+01 -3.240714e-01 5.082112e-01 1.713723e-01 7.936838e-01 1.438004e-01 -5.170627e-01 3.828578e-01 -3.925905e-02 3.373388e-02 1.690939e-01 -5.800395e-02 -9.400931e-02 -5.796289e-01 -8.584346e-02 -1.516836e-01 4.537295e-02 1.689319e-02 3.428161e-02 9.848670e-02 -1.108775e-01 -1.188323e-01 3.681806e-02 1.307917e-01 6.921114e-02 1.811342e-02 2.453499e-02
<VARIANCE> 39
 8.892647e+00 1.061342e+01 1.576493e+01 2.991802e+01 1.560924e+01 2.042252e+01 1.545903e+01 1.911553e+01 2.098470e+01 1.312780e+01 1.424736e+01 1.342958e+01 8.642958e+00 3.461698e-01 7.330546e-01 9.338799e-01 9.148988e-01 1.002928e+00 1.614397e+00 1.511661e+00 1.755541e+00 1.564950e+00 1.131700e+00 1.296001e+00 1.192963e+00 1.447110e-01 2.205170e-02 5.768667e-02 1.022332e-01 1.757818e-01 1.437739e-01 2.065582e-01 2.411804e-01 2.968168e-01 2.775972e-01 2.500563e-01 2.545291e-01 2.190973e-01 2.132819e-02
<GCONST> 7.962512e+01
<TRANSP> 5
 0.000000e+00 1.000000e+00 0.000000e+00 0.000000e+00 0.000000e+00
 0.000000e+00 6.628931e-01 3.371069e-01 0.000000e+00 0.000000e+00
 0.000000e+00 0.000000e+00 7.006412e-01 2.993587e-01 0.000000e+00
 0.000000e+00 0.000000e+00 0.000000e+00 8.785586e-01 1.214414e-01
 0.000000e+00 0.000000e+00 0.000000e+00 0.000000e+00 0.000000e+00
<ENDHMM>
~h "sil"
<BEGINHMM>
<NUMSTATES> 5
<STATE> 2
<MEAN> 39
 -5.517187e+00 -5.128055e+00 -1.694483e-01 -5.577031e-01 1.387428e+00 -2.809437e+00 4.753472e+00 -1.707586e+00 3.572126e+00 -2.067118e+00 8.541154e-01 -1.467597e+00 5.676260e+01 -2.185620e-01 1.444518e-01 1.529890e-01 4.644092e-02 1.116963e-02 1.701738e-01 6.321441e-02 -1.567299e-01 -7.282959e-02 1.016945e-01 1.290525e-01 3.128368e-02 -1.736022e-01 2.240517e-02 -3.872395e-02 4.491910e-02 6.193428e-03 -6.084057e-02 -3.505221e-02 -1.456562e-02 -2.157762e-02 -6.315190e-02 -5.437944e-02 2.815485e-02 1.065766e-01 1.992763e-02
<VARIANCE> 39
 3.632591e+00 7.711758e+00 6.187268e+00 8.621888e+00 1.130249e+01 1.045098e+01 1.637903e+01 1.353397e+01 1.657933e+01 1.434179e+01 1.340558e+01 1.235791e+01 2.381775e+00 2.346677e-01 3.615947e-01 4.607214e-01 7.602701e-01 1.028438e+00 9.962770e-01 1.252082e+00 1.155500e+00 1.415182e+00 1.477573e+00 1.201634e+00 9.561468e-01 1.202788e-01 4.661367e-02 5.989727e-02 8.078682e-02 1.387333e-01 1.807040e-01 1.728829e-01 2.466707e-01 2.221285e-01 2.847258e-01 2.925936e-01 2.375117e-01 1.755701e-01 1.691988e-02
<GCONST> 6.976103e+01
<STATE> 3
~s "silst"
<STATE> 4
<MEAN> 39
 -6.467781e+00 -3.892723e+00 3.738599e-01 -4.733409e-01 1.563840e+00 -2.084151e+00 5.251235e+00 -2.930411e+00 1.661375e+00 -2.429823e+00 2.300200e+00 4.634877e-01 5.499420e+01 -6.891600e-03 6.443318e-03 -5.669423e-05 8.427783e-04 8.697647e-03 -7.960603e-03 -1.042735e-02 -2.043381e-02 -2.349262e-02 -4.971230e-03 6.815906e-03 1.848593e-03 -6.684229e-03 7.881534e-05 -4.358044e-03 -1.942581e-03 -8.469985e-03 -2.096999e-03 -6.696206e-03 -1.349043e-02 2.660158e-04 4.965099e-03 -5.103177e-04 -1.024657e-02 -1.448253e-02 9.847836e-03
<VARIANCE> 39
 9.563926e-01 2.709898e+00 4.750092e+00 6.061186e+00 8.880257e+00 9.767783e+00 1.258393e+01 1.283350e+01 1.351859e+01 1.191566e+01 1.190349e+01 1.055963e+01 6.036133e-01 9.645159e-02 2.298326e-01 4.146604e-01 6.327751e-01 7.944757e-01 9.397361e-01 1.317610e+00 1.470120e+00 1.553265e+00 1.323310e+00 1.322198e+00 1.135914e+00 2.980710e-02 2.044271e-02 4.821443e-02 8.569235e-02 1.334802e-01 1.644107e-01 1.996331e-01 2.779496e-01 3.088965e-01 3.252385e-01 2.759060e-01 2.767093e-01 2.336212e-01 6.706320e-03
<GCONST> 6.036486e+01
<TRANSP> 5
 0.000000e+00 1.000000e+00 0.000000e+00 0.000000e+00 0.000000e+00
 0.000000e+00 7.627706e-01 5.306853e-02 1.841609e-01 0.000000e+00
 0.000000e+00 0.000000e+00 9.620735e-01 3.792646e-02 0.000000e+00
 0.000000e+00 1.398171e-02 0.000000e+00 9.562973e-01 2.972099e-02
 0.000000e+00 0.000000e+00 0.000000e+00 0.000000e+00 0.000000e+00
<ENDHMM>
~h "txh"
<BEGINHMM>
<NUMSTATES> 5
<STATE> 2
<MEAN> 39
 8.572648e+00 -2.538755e+01 -5.266414e+00 -8.092251e+00 -6.949273e-01 5.556084e+00 -1.094354e+00 2.235966e-01 -4.506970e+00 -5.837877e+00 3.701805e-01 -1.350876e+01 7.716943e+01 1.910143e-01 -2.258753e-01 -1.589470e-01 1.177343e+00 -5.664524e-01 -1.499702e+00 -9.995013e-02 1.360852e+00 9.873292e-01 -9.418957e-01 -3.676718e-01 4.739072e-01 -5.139773e-02 1.392438e-02 1.983969e-01 5.082959e-02 9.950089e-02 -3.924370e-02 -3.825594e-01 -6.989460e-02 1.776091e-01 2.377367e-01 -1.154388e-01 -1.106426e-01 2.863978e-01 -1.151027e-01
<VARIANCE> 39
 3.504897e+00 8.925741e+00 1.109364e+01 1.353198e+01 1.032370e+01 2.546186e+01 1.237987e+01 2.420432e+01 2.115681e+01 1.972610e+01 1.004348e+01 8.043773e+00 3.618435e+00 1.773835e-01 4.691947e-01 5.144395e-01 6.438050e-01 5.371203e-01 1.565599e+00 8.865030e-01 1.219833e+00 1.333417e+00 9.277725e-01 8.387080e-01 7.650633e-01 1.725962e-01 2.811640e-02 1.117410e-01 7.709329e-02 8.842504e-02 8.752973e-02 1.165596e-01 1.198375e-01 1.774050e-01 1.463864e-01 1.908707e-01 1.400268e-01 9.139898e-02 2.023843e-02
<GCONST> 6.642013e+01
<STATE> 3
<MEAN> 39
 1.021631e+01 -2.104634e+01 -4.972164e+00 -5.926848e-02 -4.865059e+00 -1.094660e+01 -3.712459e+00 9.272054e+00 4.861346e+00 -1.143879e+01 -2.411127e+00 -4.597597e+00 7.461361e+01 1.005080e-02 2.256315e+00 4.460276e-01 1.200712e+00 -5.735133e-02 -2.223096e+00 -5.524949e-01 -1.534422e-01 9.555467e-01 7.199375e-03 2.365382e-01 1.666904e+00 -1.204664e+00 -2.772294e-01 2.665240e-01 -2.865939e-02 -1.905469e-01 4.598650e-01 8.253544e-01 2.245302e-01 -7.475358e-01 -3.805865e-01 3.451144e-01 1.775806e-01 -4.356825e-01 -2.694003e-01
<VARIANCE> 39
 3.060291e+00 1.921506e+01 1.175204e+01 1.207247e+01 1.493982e+01 3.538618e+01 1.638962e+01 1.699257e+01 2.031314e+01 1.262994e+01 1.133161e+01 2.028348e+01 6.013432e+00 3.623093e-01 9.034002e-01 7.199912e-01 6.501328e-01 1.846114e+00 3.967387e+00 1.556202e+00 3.731552e+00 1.853611e+00 1.348647e+00 1.290388e+00 1.715024e+00 3.327024e-01 7.903168e-02 2.756605e-01 1.887994e-01 1.562240e-01 2.271997e-01 5.723652e-01 4.255002e-01 3.798966e-01 3.204646e-01 2.159847e-01 2.610359e-01 4.422011e-01 2.312291e-02
<GCONST> 8.806049e+01
<STATE> 4
<MEAN> 39
 2.401363e+00 -1.288011e+01 -3.494174e+00 -1.872907e+00 -2.087754e+00 -8.190742e+00 -2.607724e-01 3.494770e+00 6.371113e+00 -6.147000e+00 -6.988697e-02 -2.207565e+00 6.570207e+01 -1.153351e+00 2.072697e-02 3.596673e-01 -6.763093e-01 3.109134e-02 6.389894e-01 8.566947e-01 -1.600571e-01 -8.179756e-02 6.409419e-01 1.074865e-01 1.629599e-01 -5.318237e-01 3.727361e-02 -1.471607e-01 -5.078758e-04 1.634916e-02 -8.421189e-02 -6.392701e-02 2.389248e-02 1.102775e-01 -3.267950e-02 -6.659960e-02 -1.043335e-01 3.940342e-03 9.817020e-02
<VARIANCE> 39
 1.861837e+01 1.140930e+01 2.484121e+01 2.507933e+01 1.682133e+01 2.886690e+01 2.295574e+01 2.180671e+01 2.217747e+01 2.481392e+01 2.022417e+01 2.005702e+01 1.074755e+01 4.803579e-01 1.423534e+00 2.704883e+00 1.836948e+00 2.047362e+00 2.205312e+00 2.426425e+00 2.254279e+00 2.245049e+00 1.811782e+00 2.473427e+00 2.193537e+00 1.511512e+00 9.195212e-02 3.232133e-01 5.722036e-01 4.486442e-01 4.002269e-01 4.257266e-01 4.894214e-01 4.170379e-01 4.519646e-01 3.779644e-01 4.921779e-01 4.828594e-01 2.633441e-01
<GCONST> 1.057262e+02
<TRANSP> 5
 0.000000e+00 1.000000e+00 0.000000e+00 0.000000e+00 0.000000e+00
 0.000000e+00 8.574705e-01 1.425296e-01 0.000000e+00 0.000000e+00
 0.000000e+00 0.000000e+00 7.866228e-01 2.133772e-01 0.000000e+00
 0.000000e+00 0.000000e+00 0.000000e+00 9.024736e-01 9.752636e-02
 0.000000e+00 0.000000e+00 0.000000e+00 0.000000e+00 0.000000e+00
<ENDHMM>
